-9.907484349359521603e-02
-1.023699209497940937e-01
-3.800641852568139439e-02
3.195802459872491147e-02
1.159893121815834711e-02
5.184453476140591516e-02
7.553549800806972280e-04
-1.371460377892750118e-02
2.175181603217837822e-02
1.653471031108766929e-03
2.188805239120158400e-03
1.839379702428290894e-02
3.177253034827489525e-02
4.331005411120131959e-02
2.095483649106986632e-02
-1.405433032559439018e-04
1.296763148608561650e-02
3.132827926365600903e-03
2.649354266353177393e-03
2.191079973095463873e-02
1.312305289661322948e-02
-1.667237714556226227e-02
-2.126516247072966770e-02
-3.358481637809564158e-02
2.269193663007192628e-03
-2.242996628082100791e-02
-4.083938670019512246e-02
-4.791240542503217431e-02
1.716238828057487648e-02
1.370613339292868320e-02
5.700337767228306693e-03
2.052408772994753286e-02
-2.097956526678385406e-02
-3.144761276080838136e-02
1.386595490550730260e-02
1.121382814521388813e-02
6.644708848539074286e-02
4.057199267546950788e-02
1.971166865786280406e-02
1.605502463094546015e-02
-4.641585388629521081e-02
-6.809200888739895541e-02
-2.839334548474952737e-03
-4.655937278067738723e-03
1.786479342834645240e-02
-5.387043803741048756e-03
-2.672681378312146902e-02
-3.367096840492771886e-02
-3.835119722858031099e-02
-7.473114621096879975e-03
-8.586848814801463503e-03
-3.704882767768585133e-02
-8.494581505414700723e-03
-8.336981526266773468e-03
-1.699208840894774397e-03
-2.797841282852965572e-02
5.488731400537238958e-02
4.057220118116693086e-02
-3.051315593585929298e-03
-1.206943443375327676e-02
1.006417701280594712e-01
2.335884905345907842e-02
-1.166591525304307500e-02
3.408683996862141991e-02
3.018908374422050317e-02
3.618757278025273166e-02
3.217433978226625496e-02
-2.787052060764660943e-02
1.107944559139137797e-03
1.995321555813373005e-02
6.177628664660331443e-04
2.037796567352484142e-02
-3.776324275362880675e-03
-6.713236457420155602e-03
1.281566116076802465e-02
-2.578052015291340537e-02
-1.844564733654764036e-03
4.425653476470162162e-02
2.373234594108260959e-02
2.907387017100095117e-02
2.870851006026036573e-02
2.753732092114440436e-02
2.469277120289216929e-04
3.608992640297380323e-03
6.922342398514347295e-02
4.387648953450820621e-02
-1.108449585211706591e-02
-3.740814238687216464e-02
-8.821072994979005377e-02
-4.229551340705052509e-03
-1.423425178740427705e-02
5.755226449789257494e-03
6.108848700701827346e-03
-2.939666731870824862e-02
-1.767472089824945192e-02
-1.179566392569928943e-02
-1.602310999069584893e-02
2.606594549761771101e-02
-5.783537353384917735e-03
4.056427796466497565e-02
6.099238357190025703e-03
-5.557140603455604407e-03
9.321546693153968943e-02
2.798016174904619305e-02
1.333481254658367213e-02
5.750748000142858612e-02
2.247686995337331434e-02
2.637415861954366114e-02
-2.076164522120782507e-02
4.842585007309298945e-03
9.526340483691339914e-03
2.105882902357571543e-02
1.237467161072514261e-02
1.035355764740676339e-03
5.574665191406014131e-02
5.832933616774561847e-02
1.454296279566224918e-02
-3.401962152278596024e-02
-8.485164629916684687e-03
-6.588211765664936902e-03
-6.036735804761840518e-02
-5.679462176802636125e-02
-2.635505191563464536e-02
-4.907100713837844741e-02
-3.363925405651471690e-02
-2.044456239328072602e-03
-1.020468205210723830e-02
-6.054946945108664880e-02
8.016215476786525337e-03
2.211816938824122392e-02
-1.088626063988380570e-02
-3.479982330544209579e-02
2.567529806862822381e-02
5.674576066926009799e-02
2.323006077068188492e-03
4.718430858432580248e-03
-2.537659659751729732e-02
-7.391066997326740939e-02
-1.019007528024981103e-02
-4.601570870687052978e-02
-3.128557097846996343e-02
1.111155673246492191e-02
-2.517991633231842982e-02
-1.010355931620041982e-02
-3.136156940967314150e-02
1.674448347041360488e-02
-5.596820754079663693e-04
-1.531640773005108966e-02
-2.734033358391842888e-02
3.552702293981412074e-02
-8.249175733336435931e-03
1.753829372492133817e-02
4.372309884310637135e-02
-2.272762648711572700e-02
-3.123582910109096167e-02
2.466054254042553476e-02
6.522273797545810083e-03
-2.859108470615710426e-02
-1.303247423064138669e-02
-4.933787673968327570e-02
-3.654249876042607592e-02
4.253807882606157331e-02
-1.267680900299537027e-02
-4.796021514961508470e-03
-3.416446095325179674e-03
9.549243254964288191e-03
-1.466700220322184230e-02
2.341354578441130763e-02
8.644517952429278673e-03
-7.302544323898547962e-03
7.240133261243049054e-03
-6.530251857364538504e-02
-2.183926837635981680e-02
3.267988143255940955e-04
-3.562593551532828445e-02
-2.090669821205465295e-02
1.554628210227918493e-02
-4.833574022902261541e-02
-1.635050121393629569e-02
4.290173677210867148e-02
1.378258800932439729e-02
-3.474091728674377072e-02
-3.338372842882041114e-02
7.286781293173610896e-02
-2.227437048371009795e-02
5.119475266065041941e-02
-3.558964541461009240e-02
-3.935845160635945833e-03
6.500292115987099661e-02
1.190742500138973400e-04
-2.194365770152621048e-02
4.889312271404879645e-02
5.971123737366134353e-03
1.474580724747937954e-03
1.601223041613866402e-02
-2.445712311835188113e-02
-2.006266335788661759e-02
-4.647067824800768000e-03
1.803631526972755347e-02
-1.159829293799006416e-03
1.872256691246811100e-02
1.371312402031126670e-03
3.587113947916486384e-02
7.960081572927166227e-02
2.353566567588374903e-02
2.650208128775883784e-02
3.635637646554201047e-02
-1.199806154348849463e-01
-6.197445172510199218e-02
2.090635828458431780e-02
-2.674605822715787201e-02
4.013423812291386922e-02
5.216431426301964755e-03
-2.185623442177532169e-02
-2.028623706703995555e-02
-4.753525147384297933e-02
-2.029748121064990293e-02
5.111498722651386384e-02
6.644128823598979827e-03
2.938013344873830271e-02
4.277203738261731170e-02
6.325307184522488933e-03
3.250696070749925417e-03
-1.554174678744258027e-02
1.472004352530365337e-02
-3.646417896579161929e-03
-1.955435553200769033e-02
-7.792140595756841780e-03
1.286576823903523570e-02
-9.091686221305699325e-03
1.102137485915362543e-02
-4.774240883441946241e-03
4.289889983095287324e-03
3.255945738742598711e-02
2.076519108173485555e-03
-2.314543904930178170e-02
1.359700530191183983e-02
-9.860226848957046042e-02
-6.132886753905454624e-02
2.379913979349787545e-02
-4.649258271927479702e-02
-1.747830347659642611e-02
-2.958560254500113701e-02
3.876338645529049665e-02
1.339782675935661735e-02
2.528658658344750884e-02
1.939019583725184667e-02
2.187382472061219149e-02
5.280279156396230911e-02
1.236062085406083692e-02
7.168237590329645803e-02
5.236738617559759390e-02
7.577840082720932284e-03
-9.596153751339420862e-03
2.276058176034610053e-02
1.784456584835494158e-02
1.894795272568266381e-02
1.447293773677242601e-02
1.446590035356678378e-02
2.614440682339223138e-02
3.055046455531761074e-02
-1.946172592817577152e-02
-1.562859636060784374e-02
9.752127765148740348e-04
-9.825536555589963958e-03
5.399311899875961634e-02
3.251088061461074319e-02
2.631043169638680804e-02
-1.244877327191724718e-02
-8.238897413390353433e-03
1.051010877971312414e-03
-1.006340870090272933e-02
-2.788133131214010421e-02
-1.607297254864517924e-02
-7.413022015429600537e-04
-5.012447143338938545e-03
5.040807709200712493e-03
-4.606974327427459069e-03
1.203581067862027031e-02
-1.609535721485180889e-03
-3.146394444343537239e-02
-5.210793937712090290e-02
3.185284674292100052e-03
-3.443061278948915047e-03
9.414811923445292816e-04
-3.757891866242613066e-02
-4.920555776042977864e-02
2.162306313218620782e-02
3.149587993425472660e-02
-1.707670633931516677e-02
-2.543282616126329304e-02
5.106474872647372848e-02
8.838460474637477998e-03
9.767928326899213368e-04
5.625409159803527320e-02
5.674603488584398225e-02
-1.204012990573409374e-02
4.509525841010447733e-02
4.147609233454516847e-02
-1.315565560566432646e-02
1.001358089390297079e-01
8.077497702232901491e-03
-3.824032021704692336e-02
4.710343364714478925e-02
2.343932467063775810e-02
5.362884059030383066e-03
-1.458078825651598805e-02
1.521088741943505416e-03
1.197697795283376304e-02
-3.972489468305573368e-02
5.960623137709895186e-02
4.152878741080217456e-02
-1.681944316414236279e-02
3.200406139304431269e-02
-4.731781541421914428e-02
-6.070566549187194488e-02
1.839518263941758046e-03
1.318311770152085470e-02
-1.664564924249483172e-02
3.821930284274700773e-02
3.315211524544292316e-03
-1.595677295530856937e-02
5.680697920569344021e-03
-9.240675546985634148e-03
-2.075547850724776891e-02
-4.595346786068436884e-02
-1.921218630950375511e-02
-1.442481272630159392e-02
-2.223682934880738462e-04
-4.054247964175290708e-02
-1.502459200163858838e-02
-1.795468718469403827e-02
-5.879370362931738564e-02
-5.122911692692699165e-02
1.078242101155606550e-02
2.808742339815340633e-02
-2.796754146783327500e-03
4.345979658473375640e-02
8.528337945991518176e-03
-9.226483259181260388e-03
-1.369631593375744520e-02
-7.854750812945151053e-03
6.715706049447231138e-03
7.928033615398295819e-02
4.074403009457513297e-02
6.263270673919808795e-02
2.272478701861814152e-02
1.168355167586755672e-02
3.468675508857946288e-02
-3.736993529740859771e-02
-3.141165247819337897e-02
-2.444324674827087329e-03
5.730238874276289730e-03
1.260281096281653038e-02
2.022941863265761628e-02
5.721764570897702046e-02
-3.846735512077743141e-02
6.025946582673535890e-02
4.218022239308630295e-02
-6.081692918669872466e-02
3.249703709997295992e-02
-3.209441386192622529e-03
2.043176393447182840e-02
1.732085766529749965e-02
-1.594485401144151923e-02
2.700223085434962783e-02
9.221769766748680319e-02
6.775291164883700569e-03
7.726747269792793964e-03
5.711703223244026656e-02
6.198670554175580993e-02
6.720600246817576284e-02
-4.015830094406700954e-03
2.464419316640603305e-02
1.116048986047211630e-02
4.142978511465457078e-03
2.858115730761813522e-02
2.472840166740397985e-02
-8.575386561595305795e-03
-6.081541278162658042e-03
1.227385973785811643e-02
-1.224269634995466330e-02
-2.084627326094239466e-02
3.689907635845716006e-03
-2.862996406853598325e-02
-3.388312611122959450e-02
-6.627613655958258798e-02
1.254031940432511760e-01
8.791218138285723793e-02
3.374886486981285710e-02
1.090376816827715589e-01
5.584285138816606764e-02
1.487611762184773423e-02
-8.060918213743705277e-03
-2.435058176165394092e-02
-2.740222565693798892e-02
-2.664905000368014004e-02
-1.670631050006416568e-02
3.287198847279487052e-02
-6.897587085711595623e-02
3.239993536484912090e-02
1.275205049533336965e-01
-5.880822068054138152e-02
-3.660354670128880116e-03
8.691568842640674808e-02
-5.485677487089030569e-04
-2.988783092157569488e-02
-1.163861932990903694e-02
-2.494631160361286334e-02
-2.140043212151938119e-06
4.116075084510924242e-02
-5.212311732822217519e-02
-1.840150731223931177e-02
6.432564537148664080e-03
4.698660474570323480e-03
2.639133696166926293e-02
1.219053959749827158e-02
7.665533788043020491e-02
1.886609338887564741e-03
-1.113734699172941149e-02
1.528693639747396964e-02
-4.289092354027339293e-02
-2.510602444049464185e-02
9.369027863304584111e-04
-7.263978351901245918e-03
-2.845012221799238326e-03
3.134988298125048530e-03
3.816707658839147647e-03
-9.613426489680765991e-03
2.481674995424887689e-02
2.780757842411459013e-02
7.932350315170332011e-03
-1.480414840528833376e-02
1.739746771321310989e-02
4.591194363512549753e-02
-4.589590133313310727e-02
-3.603130344655560563e-02
2.650066092167459308e-02
-2.781558883390819123e-02
-8.043396658603438679e-03
2.609335325562581881e-02
-1.165650595957042242e-02
6.079221810237724240e-03
9.428856740856401616e-03
-3.189026782908883310e-03
-2.557298621841066696e-02
4.937806652877867533e-03
1.655201249296082977e-02
1.995277327332102210e-02
-1.740091627108134335e-03
-4.011810104560446788e-02
-1.201317201456405387e-02
4.482449796611868986e-02
-1.339026495273019099e-03
4.845673671707077107e-02
7.702055898737251473e-03
4.302518225434835003e-02
2.220583150179097909e-02
5.709379585205143909e-02
-5.290658190912521201e-03
1.489505815303425983e-02
2.119262397043276958e-02
-3.084597399375167345e-02
-1.577269591176555866e-02
9.188247863489684350e-03
-2.641457207838719332e-02
-7.084377862498296083e-03
-5.365233855056758538e-03
-2.903165471746335657e-02
3.285293737040516360e-02
1.834708353420006627e-02
-4.001873860325223103e-02
-2.650537062309449646e-02
2.919520658651945239e-02
2.256582985693064702e-02
5.603942424133898786e-02
5.723715173288836111e-02
-1.492006114533212836e-02
-6.161301657615646070e-03
1.503005421907554172e-02
6.722383791916596713e-03
-3.664845630117124185e-03
-9.750657104962940497e-03
1.798690889697076092e-02
-2.260945303984354671e-02
-2.326552822164843978e-02
6.843019881025941276e-02
7.227143861762151678e-02
2.382440057465800773e-02
1.021882126573408767e-01
-1.967633831518818960e-02
-1.034370859646318724e-01
1.215122009854720242e-03
-2.375562275894002248e-02
-9.169113864289372279e-03
2.560643305961858920e-02
-5.380995622110801985e-02
-1.084783695722910668e-01
5.087967906944391213e-04
7.284823108757115459e-03
-3.195910503733880720e-02
-2.988202182647848801e-02
-6.833128497107434154e-03
-5.927686061340390472e-02
3.377453508034247015e-02
2.720384322704563762e-03
3.825716621372755172e-02
1.742996806492183581e-02
1.715567313344706609e-03
6.747212018529899491e-02
-2.782251754141699604e-02
-2.923866170120352492e-02
1.079308133921323687e-02
3.206884853608076708e-02
6.754134281317148575e-03
-2.844515093669754136e-02
5.586995207414707353e-04
-7.039336082640403058e-02
2.379565206183194628e-02
2.067523287817169680e-02
-7.405374658283687961e-02
2.605807030060970642e-02
-2.303368505016834336e-02
1.607083694483524283e-02
1.320706300128090052e-02
-4.157935951995817697e-02
-3.377731010162449143e-02
-3.635979343163790733e-02
3.450291245598719175e-03
4.281507548590653828e-02
1.794474714944613650e-02
9.264873075456016294e-03
7.715200603370952342e-03
-3.805975301941048189e-02
2.664403954858759679e-02
3.753252045823120275e-02
-1.716430526932024442e-02
-3.943615852061058136e-03
4.109269458547142560e-03
-1.366328484027346836e-02
1.150469991146897859e-02
1.244870882470168298e-02
1.763295783889171423e-02
5.940169360628459044e-02
7.314167063308174566e-02
7.325178438739548062e-03
-4.771808316972049081e-03
-3.270296617244101978e-02
-3.079285432407446663e-02
-7.520002876864287367e-02
-2.283189323620545691e-02
-6.421341117741368419e-03
-7.856641264601754715e-03
-3.056010383689286916e-02
-3.189268396783711407e-02
-3.959113764632549159e-02
-5.484434034929872026e-02
-2.830155495839086280e-02
-1.379210345115210179e-02
1.324881342392970722e-02
-9.017368472390813530e-03
-2.852589697944742098e-02
3.435073994332664415e-02
1.776514539637229217e-02
6.151007162682128188e-03
5.301344044721741089e-02
4.831944266550974865e-02
1.292479367463299569e-02
8.943582728922074010e-02
6.519986553228659942e-02
3.650970270972827419e-02
6.699381064275976294e-02
-1.604562923785263565e-02
1.591593237570304879e-03
-2.006249655332868406e-02
-4.025057166536518544e-02
4.557427319420086914e-02
-3.428947898012891377e-02
6.905688692466223355e-02
6.177021280106352596e-03
3.698166114823799467e-04
4.984646248156043152e-02
1.505048392856975573e-02
1.240918830548478138e-02
-2.526637971038633163e-02
2.523907742333245108e-02
1.823352976602057515e-02
-2.886619254571237345e-02
-3.830704614798454560e-02
-1.818460236617540707e-02
-2.993822840459742576e-02
-8.261219534119473851e-02
-3.698004663874029929e-02
-8.761519235268770342e-03
-7.581353776153509395e-03
4.914213426560225945e-02
2.163248209570309277e-02
-8.967652822076560559e-02
-3.462885353378415687e-02
-4.320516679588516651e-02
-5.093934414192153280e-03
1.345775168013405021e-02
1.988398693865093061e-02
2.809854295677186378e-02
-2.962814477902158197e-02
-8.897308488020522210e-02
-5.696786982428794777e-02
-4.921684103536935057e-02
-5.132496197338202309e-02
-6.133070761029138507e-02
-2.015609543794531430e-02
1.969442178983937808e-02
-8.703211380000672182e-02
-1.559213571995275993e-01
-8.791801068552389242e-02
-7.860559286620664998e-02
-2.830665478343823149e-02
-8.181853973003744285e-02
6.826153607853234495e-02
5.501258549642714518e-02
-3.113686819912269560e-02
-1.799779896005270635e-02
-5.987238948719103039e-04
-4.938436347229836938e-03
-1.086068275039517722e-01
-2.581007665062728246e-02
-4.792428957011925922e-03
6.144783406469752490e-02
6.552151475207607101e-02
9.722925488062934135e-03
7.181966662538415147e-02
5.438389549802320061e-03
-7.111544086868257231e-02
-7.352961692059173382e-02
-9.529759206865026644e-02
-3.668598081027720642e-02
1.485734046784263282e-02
-1.839342985522488677e-02
3.696230721563432964e-02
2.644333384801414791e-02
-4.150653514370424013e-02
-4.940464264303725400e-02
6.383979042964460504e-02
-5.129595513687769393e-02
-9.954107724003631585e-02
1.274217545593975542e-01
7.512520716132095600e-02
8.944773825322487049e-02
7.962790804221447916e-02
8.067877830254989446e-02
-6.710415321132519838e-03
6.636813869406171795e-02
7.869862897601154206e-02
7.633138547327010526e-02
-1.157998864677045742e-01
-8.457343627765424865e-02
-2.709248775430143225e-02
-3.564424029066869809e-02
-3.959082647990578435e-02
-8.132599479743993220e-02
-6.716651829791274453e-02
-1.096895734599758754e-01
-1.981861017088497323e-02
-1.255825876175068190e-01
-5.128852994560125639e-02
-1.989574801937647394e-02
1.024639293478031739e-02
1.854618573990187910e-02
-5.661046244147378836e-03
3.308924640988763783e-03
-1.113281143105828395e-02
-8.476943307343597425e-03
7.845848931718457653e-02
5.638863815096783333e-02
8.764412156854309993e-03
6.346312381141847037e-02
9.897517613696306393e-02
5.811721895433107077e-02
9.187419854903335894e-04
6.195393932466272680e-02
6.470883587227954648e-02
-8.098519357625738602e-02
-5.492957952687669426e-02
9.252212449665460359e-03
-6.993088766952471058e-02
-3.854764687346614455e-02
-3.531511321508490342e-02
-1.184540469371428290e-01
-8.578360894819722637e-02
-6.831704881423256159e-02
-1.350507078013343625e-02
-6.729696290326192543e-02
-9.824346180365017486e-03
-1.041398429884559003e-02
-3.204315758152619098e-02
-1.783272312597788956e-02
-6.669707948008807286e-02
-4.532857744932364263e-02
-5.540595763071552715e-03
-2.926170700991116355e-02
-4.443954003235085770e-02
-8.838532890721985391e-03
1.283726385570230499e-01
2.927133973244310655e-02
4.958570522596524900e-03
-6.079492487141511387e-02
-1.114233858950768458e-01
-1.501781494984901211e-01
-5.589154309593016845e-02
-4.760562420559796837e-02
-1.584224249106725435e-01
5.964078809974612122e-02
-1.732596274773573128e-02
-3.449389140666737907e-02
6.939466559777551780e-02
-9.941657371915607611e-02
-7.559926285534386559e-02
2.626734299828709443e-02
-3.667287533991223092e-02
-1.727079464771676467e-02
-6.446500457538957563e-02
-5.501636251720397330e-02
-9.624941838095375790e-02
-2.095257333589762086e-02
-4.898349473573652968e-02
-6.531005126578899589e-02
-1.457277851163426771e-02
1.013325540552257806e-02
3.024467006932556393e-02
4.138098374406347368e-02
5.768680158913538913e-02
-3.945406665855983458e-02
6.814988964194051979e-03
-4.307379539998778401e-02
3.292718536181717809e-02
2.822603021539689394e-02
2.507494390393561617e-02
1.176977051243381228e-01
-2.096741595638560232e-02
-1.250110357311916276e-02
-3.384433232059268909e-02
9.788012730808389947e-03
5.453291006742187058e-02
2.694145660044361401e-02
-6.473602483318598166e-02
-4.439750689854345816e-02
-2.915161919594979820e-02
-1.094044961026586216e-01
-7.602281855517431519e-02
-1.765061732152830437e-02
-5.715953073062055023e-02
-1.322823828814530256e-02
4.613657269916386638e-02
7.134551623416955472e-03
2.275757166813031224e-02
-3.408065770073134652e-03
1.057832522061635944e-01
2.745112154336865062e-02
4.919838905470621387e-03
2.635935296311316817e-02
5.302804749839842499e-03
2.606373627408449870e-02
5.482047904756969653e-02
1.920522696444959196e-02
3.670561417721701636e-02
-8.467105200574590040e-02
-4.985921400176629437e-02
-5.631967996646034674e-02
3.962503545230125490e-02
6.951122542144448635e-02
6.536896378591224022e-02
6.527428211835008265e-02
5.974481529343919628e-02
1.126831379789159926e-01
-4.504471563136860923e-02
-7.259098611860598065e-03
-8.525509460688654884e-04
3.973320914106006491e-02
1.306272312119755204e-02
6.485664266438088965e-03
6.745582753300954915e-02
1.048355817034037074e-02
-8.134679713135259393e-02
-1.809274143299527404e-02
-2.479101377980952661e-02
-3.745075533038143278e-02
-1.012055589115149479e-01
-8.797279533953715480e-02
-5.161792248380437514e-02
1.642440667250386413e-02
1.289779942359463132e-02
5.311917569265267591e-02
-5.418537603115132495e-02
4.352007842582431008e-02
9.332021690410460812e-03
-5.910212718720760094e-02
-3.467148279417532316e-06
3.639655824903297726e-02
-1.025434284164350590e-01
-2.867413887889620067e-02
3.062689898325386684e-02
5.185086205123680403e-04
2.992416043818574289e-02
-1.120448851165641198e-02
2.802506880290975277e-03
4.670871294999793394e-02
-1.258629223531745715e-02
-5.976381061864481647e-02
5.054060531596628325e-02
-2.133551868841552721e-02
2.202452536448182632e-02
3.317297890871204885e-02
-4.371967526730329966e-04
1.130387104095894879e-01
4.960786902606009741e-02
-2.175041270003212623e-02
1.140149065008303625e-01
9.403610438710111041e-02
4.052447093140441881e-02
-6.533487279690314287e-02
-6.489111088974379438e-02
-5.108785262468919230e-02
-9.871985698403176746e-02
-1.237665438669316963e-02
-1.650229278405102723e-02
-6.146083707580590749e-02
-2.220631370047729952e-02
-3.208828777922580894e-02
7.933607768844051777e-02
2.065041322616433667e-02
-5.158442141172712297e-02
1.506189416396214870e-02
-3.864018310629194902e-02
-4.412822379087004421e-02
-1.457784558759627619e-02
-7.301379045055481076e-02
-1.712626965665207945e-02
-5.665495459743922352e-02
-2.702401237023027702e-02
3.414492759804359234e-02
-7.935111901778975352e-02
3.772434017441841925e-02
-2.580214382030686024e-02
2.956272764851818405e-02
1.162027997321591621e-01
7.561799582275610665e-02
-2.381960998743345298e-02
5.639369125521302706e-02
7.936618984298557389e-02
1.725174809288285496e-02
7.020124815180524280e-02
2.223207832247591290e-02
2.183671444233604639e-02
4.603665939986396199e-02
9.521456902255706622e-02
-2.039725192727323555e-02
1.007267326524089318e-01
-3.356498647199227664e-02
-3.762144313737372792e-02
-1.991174408270751997e-02
-6.261586338011161657e-02
1.785724659380014817e-02
-4.609752796034018857e-02
-3.098569732809680968e-02
3.971715563844881169e-02
6.160140807101421173e-02
3.223022024061630852e-02
-1.014936867603350584e-01
8.776904734575351197e-02
9.216436316368134540e-03
-1.288213247181503873e-01
-4.157625711539717633e-02
-8.915268664252040676e-02
9.594485047869073108e-03
1.200445095578039044e-03
4.269011342751155569e-02
7.330555870780962324e-02
5.377842959777844739e-02
-1.514795528225439288e-02
2.461587830963365628e-02
1.273670925460095860e-01
3.956721893574087490e-02
5.579849146199548221e-02
6.947233902874461187e-02
9.534265396017883865e-02
2.663228113646022924e-02
-1.228280946972644394e-02
1.086239770101258759e-02
2.050480465084061898e-03
-1.431232242415692892e-02
2.093567221580007812e-02
-1.032864598403616246e-01
-3.383856665879033526e-02
-2.659150545716545966e-02
-5.868185173600082988e-02
-1.855289682120818059e-02
-3.889108098706031691e-02
8.479056762372604028e-02
8.903296921085304683e-02
3.230470812015340948e-02
-3.500838435395572934e-02
3.187590836928138899e-03
-2.757727217441913875e-02
2.790282249050033900e-02
-8.581039428172924574e-03
-4.120203399519929005e-02
7.003115647139671052e-02
1.391262824325467384e-01
1.758376420901973936e-01
-6.120503357002531064e-02
-4.146394935087647365e-02
-1.303237888091219460e-02
-2.780147476160824485e-02
-4.284892682763087601e-03
1.683650401213959008e-02
5.321034890688330909e-03
3.760341962269268812e-02
6.474036693228700512e-02
8.919473685287057640e-02
4.325738065400593774e-02
8.913872113536530639e-02
3.318528643880604839e-02
-1.279450807365338852e-02
7.552873828614101170e-02
-8.439235661818349915e-03
-9.635873154083882119e-02
3.766493088214204268e-03
-5.358804787974018324e-02
-3.385256787144393792e-02
-2.311293452305171036e-03
-3.902400479593624849e-02
-8.888765093675631349e-03
-5.677332763946714260e-03
4.148579024907178558e-02
1.153909808891527382e-02
-6.695953818030775384e-02
6.622516145873665050e-02
-8.145511829934436523e-03
-5.437651532672314186e-02
4.188652237329150430e-02
4.558945734554412793e-02
-2.734171523870487092e-02
-6.924143777955303614e-02
1.270810325112769201e-01
5.668847895571115653e-02
7.723289808093857824e-03
1.941878620825771354e-02
5.828141146542108186e-02
-7.401864719020578853e-02
-8.723315904279470290e-02
9.101363704332622595e-02
-1.524747504486423100e-01
-7.597447641502205751e-02
8.526070502739105383e-02
-6.152653829788438944e-02
2.312730676240718625e-02
-6.224196937146518789e-03
-6.399538412524639897e-02
-5.645315177711771222e-03
-2.978808367855035819e-03
3.360431840721698343e-02
4.192981140919855437e-02
8.105350906179176066e-04
5.648909479481022816e-02
1.133878868987913402e-01
5.326850850671195625e-02
-4.909862168222629830e-02
-1.618109698637467926e-03
-5.312090973794972998e-02
-4.035336707773386905e-02
-1.424786158004832243e-02
1.869620161567172104e-02
-1.199625887249254480e-01
-1.632101131089305490e-01
-1.365590943478191266e-01
-6.362062542257092279e-02
-1.497728765663081107e-02
-3.856332779696255292e-02
7.719749219813663854e-02
1.217384094552261681e-01
2.585655434279228969e-03
-5.984496766433779896e-03
3.730339873804385670e-02
4.035266383465457851e-02
5.363770025644633462e-03
3.698728243563334517e-02
8.690676421405316501e-03
-1.175334660408587639e-01
-1.430616710669695146e-01
-1.130518515854529726e-01
-4.766948581829684819e-04
1.855135682753345297e-02
5.663947704004300421e-02
-3.949276676170227623e-02
8.110615293830758174e-03
3.923975915169605061e-02
3.050198717776026608e-02
-1.806239331167747153e-03
1.804611315677134842e-02
3.112297255055163428e-02
5.369625106434557787e-02
2.537669107181660805e-02
3.479264862715166374e-03
3.487339273099235304e-02
-1.869004474579876590e-02
-1.619853989860174301e-02
-2.048409080446773889e-02
-3.294578171688730683e-02
-7.415695942453029432e-02
-1.009996468540391990e-01
-5.399118469166367534e-02
-1.405151083410749804e-02
1.320517408852288702e-02
-7.437275724785349061e-03
7.970378533136739108e-02
1.067767499400504860e-01
6.822850383517461981e-02
-1.412112103206597871e-02
-1.029771726026437913e-02
-5.725653791282459687e-02
1.621330179361483645e-02
2.479718151657332725e-02
-5.761923126183073063e-02
3.995440625672268264e-02
3.845699526999631079e-02
-1.593984968088751203e-02
2.045170436490909016e-02
-1.315583529923840082e-02
-3.378340942566221330e-03
-3.305761289062358887e-02
-2.330989381488012685e-02
-2.988141940406012151e-02
-4.892921927318024181e-03
-3.295391170365600392e-02
-1.790543504506752343e-02
1.634590114817825041e-02
3.500679934030462293e-02
-2.696501446739320990e-02
-1.146863639243805716e-01
-4.408012072231649175e-02
-5.078512122697980552e-02
-5.242500801963916740e-02
-1.160650696527016218e-01
-1.467228197390783306e-01
1.171524262752720175e-01
3.756004209924586335e-02
-1.813744782195174723e-02
-1.789065141627272856e-02
7.641294925116347281e-02
-3.592825424509563104e-02
1.909362399542115576e-02
1.176776137955696661e-01
5.316218995146252541e-02
-5.228561064864264279e-02
-2.923498377289828962e-02
-6.116164828451358532e-02
-3.296160856720369015e-02
-2.578939074768801798e-02
1.653046442237289526e-02
-6.187748453788179115e-02
-8.742590198097335841e-02
-3.377261549822230952e-02
1.499465822641307122e-01
7.579158043236638997e-02
-5.870984795165612447e-02
-2.122527485694981897e-02
9.202345529485668474e-02
-5.146403489006601620e-03
-9.428755182206388641e-02
1.192558527164375576e-01
9.856507520041776771e-02
-3.651044016031393391e-02
-1.131663793005330126e-01
-1.057056781296251274e-01
8.064131857737731612e-02
4.317216249596105004e-02
1.539651057183811546e-02
1.283851121953057672e-01
-5.987609664938382120e-02
-6.116109717790619432e-02
3.042077424520004889e-03
1.447762180570066025e-02
-2.487861333936352073e-02
-7.984490432835712748e-02
-5.135745397702321663e-02
-1.706558583332029935e-02
-1.750432568449401816e-02
6.305622084560899392e-03
-3.706785577404639320e-02
1.085935078005957483e-01
7.941412059369851173e-02
2.143910266820323041e-02
8.655009112257787407e-02
1.456866461724109219e-01
-9.245153317369367296e-02
2.438286112155230514e-02
-1.630576661544362940e-02
-5.750646398306838436e-02
-4.869936124551025453e-02
-1.323237391632017985e-02
9.805429407256113783e-02
-5.807712633674685931e-02
-9.601914896384444731e-02
5.712845142278984156e-02
2.158042192646719704e-02
-5.890722173774982223e-02
5.517136008622199744e-02
5.084466402677233904e-02
-3.852576250770743671e-02
8.406022872831214743e-02
-4.143375336603057069e-02
-5.114381711256616586e-02
1.076042233155326683e-01
-6.803396786000573404e-02
-5.722733236745900648e-02
1.361656042301443749e-02
-2.472011818390480037e-03
6.676550052970497973e-02
3.622156404843816097e-02
-1.030282873523757359e-01
-2.418996138966281531e-02
3.634550093858122943e-02
-6.678379726907024416e-02
2.765754900195328131e-02
3.303706049520047788e-02
-6.135163103241636495e-02
-6.993347243713401995e-02
3.487304343807217516e-02
-6.442723436762128053e-02
-1.134234061077407235e-01
-6.696955900608433931e-02
7.398651689878860127e-02
3.317247592690699548e-02
-7.138896827343936026e-03
-6.959585055773155615e-02
-1.264978437372744555e-02
7.457735130671044876e-02
-8.667455117589470404e-02
-6.854408455510752583e-03
1.115917450826013069e-01
-3.207552228730314176e-02
-2.155492043846844730e-02
1.377418933203112053e-02
-5.439402033546934107e-02
-1.421904103310141741e-02
-1.306362119210564745e-03
-5.554812605887875926e-02
-1.711426174226294422e-02
3.866405611307619644e-02
1.987284061346489272e-02
3.772733012181512212e-03
4.493831635064429036e-02
-1.510274742150853611e-02
4.681408308915312178e-02
-2.003455895635128034e-02
2.664134153376222607e-03
2.274888732139008357e-02
-3.967301637528572456e-02
-2.876131343838743415e-02
8.337849911008869686e-02
-4.315600312627877050e-02
5.659956301401105477e-02
-6.263635707130170427e-03
3.958363780878124127e-02
7.575523926680959030e-02
6.813859860614382424e-02
3.209323204714866623e-02
3.233037670351064652e-02
8.764171409575245708e-02
7.743495259939044140e-02
-7.937652923976001515e-03
-4.594720236591981477e-02
-6.021408604127384545e-02
8.353362922907685631e-03
-1.008925426854505661e-02
-1.183385368417449873e-01
-2.141351412130417659e-02
-7.067043143239424945e-03
-4.025355336956618069e-02
-7.775048104330096327e-03
-3.983722939998297907e-02
-4.559008313995760453e-02
-8.033423902008415829e-02
-1.452735981958825084e-01
-7.677092343699332133e-02
-4.488939968841908906e-02
2.998361863558809612e-02
5.124856150905857805e-02
6.117693435789555052e-03
-1.314198027803421265e-01
-1.812993062348519369e-01
-4.334270930956966861e-02
-6.872141838914333500e-02
-9.003364846195781312e-02
-1.523187304876638948e-01
-1.257247153556939334e-01
-2.473084037258656970e-02
7.454249042027030758e-02
8.235615353927037974e-02
5.760841992704825859e-02
-8.986835284657344880e-02
-8.897247437390504166e-02
-9.319368845959664915e-02
-1.718893646555017529e-01
-1.670666312189812430e-01
-1.889551674372349499e-01
5.138610782220688622e-02
-3.261941635467596051e-02
-2.206865639023360831e-02
7.650089395767066536e-02
4.449161546129917766e-02
-3.731927122485057674e-02
-1.585363141741281609e-02
6.702931406733318720e-02
9.218323630847176375e-02
9.713433363852429225e-02
3.369833407393465347e-02
-5.704384436036347844e-02
-1.134087113632435348e-02
-5.875370437567132426e-02
-8.629170843106755140e-02
2.212105498571867446e-02
-1.516085751215064392e-01
-8.789047172352403015e-02
-6.152797117322853643e-02
3.166027719277608732e-02
-2.095996139593363228e-02
8.017521881199747569e-02
1.720349233459637917e-02
-5.315243444090203551e-02
4.525292399131559257e-02
6.365372393118851058e-02
3.428134986917555360e-02
1.208095877797244061e-01
1.570296133080968659e-02
-9.795350799777428896e-02
-1.033280339872674584e-02
-8.363755190389307592e-02
-1.231635078333903482e-01
4.997165031697740900e-02
-9.866595821494258955e-02
-1.581898218272226875e-01
-1.349398026736570166e-02
9.431724570515399864e-02
9.989530779054178744e-02
-8.700289210759912240e-02
-1.906170496869944928e-02
3.659735512420925208e-02
-7.804913132544065435e-02
-2.743282388666213115e-02
6.471706923176137778e-03
1.183240620916109834e-02
-7.511872720753177968e-02
-1.324063715937459362e-01
6.885812335744009860e-02
3.570926889202964000e-02
-7.706081951087490056e-02
5.864292127240619545e-02
-4.714854028443678929e-03
7.087283065728876112e-03
1.746087299320298741e-02
-9.424229363961640626e-02
-1.651795158259908303e-01
3.135803536325940111e-02
-4.053460778357424049e-02
3.396923505383829534e-02
3.064782270121600011e-02
-8.496261576475333532e-02
4.671394194280941575e-02
-6.237934582038080072e-02
-4.362698435548253290e-02
-2.117636041822335956e-03
-5.835439125306851604e-02
-1.344744304101301580e-02
2.542528761927568756e-02
-4.726310491617442995e-03
-7.846056705128068298e-02
-1.126503761881504986e-02
-8.834442099673679716e-02
8.438472041237233059e-03
3.360763167090749515e-02
-1.434539260917976934e-02
-7.739546367168112506e-02
-7.232515471198334989e-02
-6.128528992494029770e-02
-1.165868447985498879e-01
-5.743338099547994763e-02
6.617450166702409931e-02
-2.293331765177969994e-01
-1.148445191249206632e-01
2.063515554185909595e-01
-6.463913778015453748e-02
-1.188975124894716684e-01
1.239541096389904229e-01
-4.660431983512794418e-02
-2.039345737035079265e-01
-8.984021755100049522e-02
-1.102043635523299453e-01
9.302161383623287760e-02
-1.619411523522623353e-01
-3.071645714143470332e-02
6.579555270851604465e-02
-8.296288380014747721e-02
1.655688112152717620e-02
1.372783191807219923e-02
5.524194302764107167e-02
1.517089514825398222e-02
-5.396467901352539759e-02
5.864474870961060987e-02
4.619044149520280113e-02
-4.055510764845150773e-02
-9.942248404626888303e-02
-3.627535827633259977e-03
-1.316835568523671285e-01
-6.503684963352376891e-02
2.547438717795938792e-02
-1.809658200540564116e-02
-4.624522842445998039e-02
-3.478502594024448363e-02
-3.287963617520989201e-02
-3.289534127910527517e-02
-1.123772859022890806e-02
-6.824638422990204900e-02
-5.716833927380762792e-02
-5.536343744600537298e-02
1.423402689722173993e-02
-1.767823730039227714e-01
-1.082459600149295875e-01
-2.182937580355497412e-02
-1.511791756276355259e-01
-1.824445062474325599e-02
9.046910021072850083e-03
6.789818808428285668e-02
1.216140250339942386e-01
1.880437828884854931e-02
-6.493297520787467969e-02
1.596253220004594242e-01
1.406457793322080929e-01
-7.957433876263286798e-02
-5.154336995126686249e-02
-5.317699025138977742e-02
4.269607698748984631e-02
3.425649853253925209e-02
2.055250170302102830e-01
1.533476138206260608e-02
6.358100338962989484e-02
1.776634359667144392e-01
-5.304870174718134129e-02
5.852501840141889622e-02
1.554151810986203197e-01
8.826806367420701738e-02
4.151204845767478280e-02
7.833017669272987482e-02
5.071783273310378516e-03
6.095222290878407612e-02
-4.142838741747321973e-02
-3.188461471084243215e-02
9.135686377660302837e-02
-7.753472584583490090e-02
7.416303484550758329e-02
-1.024040051411613701e-02
-1.400477007501089999e-02
-8.339958399611721584e-02
-8.373806396570896912e-03
4.472859727672215922e-03
3.403757095233548788e-03
8.695988400626347703e-02
7.530949536757902685e-02
-6.623594999691587160e-02
-1.992301592870410892e-03
-4.261985536574258368e-03
-6.870311989251561002e-02
-2.487690115594390350e-02
1.279256704717459357e-02
-8.355471109953244158e-03
-3.806087901682003033e-02
8.013204183857694507e-02
-1.093813352908567550e-02
-5.673195571299706474e-02
-8.339887533647524775e-02
-8.152159372685710559e-02
7.391534171498544484e-03
-1.080565126758320678e-02
1.246339615126277646e-02
3.811992996622085017e-02
3.101533660711818657e-02
5.119034587336340064e-02
3.974773021056070971e-03
-6.400892223718501750e-02
1.685650392594149616e-01
4.560045671088697183e-02
-1.788056837333823201e-01
1.377640073591764880e-01
5.137759787535726291e-02
-1.511238217706647735e-01
-6.736305054068308928e-02
-7.147565876677557106e-02
-4.059561282424314216e-02
-1.545373900324735180e-03
-5.562719151803034723e-02
-1.120593932491900091e-01
7.769492815851586354e-02
1.574464197693511980e-01
-4.902376828887967247e-02
-4.853448856304817122e-02
3.872507102015614738e-02
-4.565899501288721296e-02
-6.714426469240772355e-02
1.965670555549400410e-03
-4.614739117584594486e-02
-3.125408554828668778e-02
-6.250518266378529697e-02
-3.371532833526385414e-02
-5.864823471193454651e-02
-6.412556459868147540e-02
-2.342602487782000174e-03
-1.546383091966369305e-01
-6.078215062585550638e-02
-2.981183350722699590e-02
-6.002006407801939447e-02
-1.522043799616053239e-02
8.227699776504802942e-02
7.873788818598334571e-02
4.742692893196184117e-02
1.124923903215837954e-02
-2.920776298168702156e-02
-8.253225093694221970e-02
-3.724324561534470696e-02
8.301567140454239879e-02
4.381999308622760297e-02
4.438115502433912255e-04
-7.559186457139091542e-02
-9.086705330993330443e-02
-3.729120528745534513e-02
-4.363612455707756993e-02
-7.321907607781073801e-02
7.440528788243767899e-02
-1.564720791042376602e-01
-1.825147329101660110e-01
-1.012004507765301292e-01
2.007466909208717454e-02
-1.212816817553447196e-01
-2.446399533829338724e-01
-2.178458941885391340e-02
-1.158072649120622452e-02
-3.601053367591228876e-02
-1.932674970594471242e-01
-1.628465268641332564e-01
-5.795657083907327506e-02
7.352763553264632379e-02
1.726817788204414866e-02
-7.350736786688577551e-02
7.704404086301122612e-02
2.795738280037229906e-02
4.855024191611068130e-02
1.055312930010491035e-01
1.344416843035249332e-01
8.742288301388292937e-02
1.515639416263536710e-01
9.874512906702966400e-03
3.829588261639135793e-02
6.601767679604107764e-02
1.238525451422168716e-01
-1.673548446031597470e-02
1.940628544235808162e-01
4.092548333307810537e-02
-1.360607665264820243e-01
-9.416283630809958727e-02
-1.720309126339474859e-01
-2.200945164661261277e-01
-1.040529777231451597e-01
-1.563927604890763268e-01
-8.830939511698546185e-02
4.373982709506882283e-02
-6.717259901579503492e-03
-5.388662995457370319e-02
-5.442275660609929150e-02
-7.929378493373362424e-02
-9.173110542574458570e-02
-4.801271302316586359e-02
-3.710848116823777659e-02
1.379224033436636521e-02
4.097218249569791609e-02
-2.149878638213002791e-02
4.846324263665946486e-02
1.790845639192973487e-02
-1.118554530665208241e-01
-1.722776980770133193e-01
6.965986468949747490e-02
-1.853940170355183187e-02
-1.271077264662573147e-01
-3.191936918902874704e-02
-4.367727054211992255e-02
-7.839768632424025385e-02
1.307844456855021265e-01
2.296562650030795766e-02
9.186236728487638670e-03
5.357505191122058363e-02
1.135921335875978017e-01
4.417168729646250847e-02
4.341610232389491592e-02
6.141627435136119695e-02
3.124189358687174019e-03
-2.246478808337988228e-02
-3.267912168340575407e-02
1.516013709177418262e-02
-3.467662815517851688e-02
-3.003510049689801092e-02
-6.735786073964547538e-02
6.604645139307828428e-04
-6.131322317712596670e-02
-1.749737047255127131e-01
-7.135144430161526052e-02
8.973039339993174601e-03
-1.120348223608375465e-01
-1.599640462314596834e-01
-8.605695512405062142e-02
6.918041874703827199e-02
-6.298900420258708721e-02
-1.029180366897220061e-01
-1.003133355588386663e-03
-3.425218023208260239e-03
-3.047355274074856415e-02
5.834276320379420261e-02
-1.768211743810007078e-02
7.788083823054937904e-02
1.398451597932861001e-01
-4.703391534124025733e-03
-6.566879008421758201e-02
1.186383993842084067e-01
3.032344053514017881e-02
-8.729437437284953954e-04
-6.114540955833288292e-03
2.693593888586440221e-02
7.817890650711077638e-02
-2.772270789825192084e-03
-8.932099921697519290e-03
5.355591508531425821e-02
2.967976649011899726e-02
-3.906398824782485873e-02
1.551365120028114393e-02
2.206245034111365549e-02
-7.512689639463865365e-02
3.973145516337879546e-02
1.895032056018916208e-02
-7.471874462773527015e-02
-9.527155090362371057e-03
5.965595173839869335e-03
-1.253522227388602639e-01
-1.407966182908961250e-01
-1.788982196047597673e-01
-2.594118882306195931e-02
5.379324972277176042e-02
-1.369112726886262399e-01
5.232406861531694459e-02
1.987057390896863895e-01
3.509509921269825684e-03
-1.114013439679420042e-01
-3.308752826622295140e-02
-9.003906443096627854e-02
1.286415493953521894e-01
9.473602435111411202e-02
3.674839009513868049e-02
2.170893170924728111e-01
1.628661069792624316e-01
5.896426675652680777e-02
7.455366914917586733e-03
-4.569132798599902928e-02
9.449867765136482850e-04
-6.271985527056424259e-02
-2.723551193332513984e-02
1.056246460926945629e-01
-6.795543572106281516e-02
-8.808484349324005591e-02
-1.718194274877709801e-02
-1.365280747878392861e-02
-6.093100835311893865e-02
-4.892499922822575453e-02
-9.630436352813269429e-02
-1.423521714386296461e-02
2.105013305812254015e-02
-2.958170910468000195e-02
-4.823060626184962757e-02
-2.543594947897855410e-03
3.510295176464595102e-02
-1.168337327710958044e-02
-5.228701928611979854e-02
-5.645264731572392086e-02
-5.202049691813168814e-02
3.143928394510529106e-02
-1.091602847473000237e-01
-4.341595154524768851e-02
-1.590995538419985034e-01
1.686609947905115814e-01
-6.508841291530319262e-02
-8.939252559164774514e-02
1.120683102983871249e-01
1.335635253374788944e-01
-4.124856578721480815e-02
-5.998153410250646467e-02
6.309872280860279181e-02
1.202884605880251839e-01
-1.083877552703568087e-01
1.870690351210244767e-02
-5.825837541051299973e-02
4.852099085854821858e-02
2.862189143886760198e-02
-1.418363637176046910e-01
7.659333333071390026e-02
7.816407290379637218e-02
-1.091746780769645153e-01
2.014780276713919530e-02
-1.071598471386251139e-01
-1.367732107125043950e-01
-1.374490488585524972e-01
-5.385896207280715248e-02
-3.304760660379608972e-02
4.701437141298641341e-03
5.598929247049700547e-02
7.283945464653604658e-03
-1.377747427988592066e-01
-4.136006961241370239e-02
3.009185961086094721e-02
-7.723850611548854772e-02
8.443663651618627669e-03
5.428064471551288100e-02
-9.306410024344909104e-02
1.340053248672979092e-01
1.252123574501175750e-02
-4.058869208433533299e-02
8.933919819969574072e-02
1.050126536570291508e-01
-5.666095706358980494e-02
7.173612284871801192e-02
6.232451968867534081e-02
-8.007204701484448017e-02
2.701244698704140940e-02
-7.550089378237170856e-02
-6.390879013756015081e-02
-4.946828786549471724e-02
-2.602845045735934643e-02
-1.533205731780319936e-01
-2.038103019424616635e-01
-6.177061623464143864e-02
-5.498058935167998013e-02
-8.687999846338853582e-02
-1.134676055028512390e-02
-2.452333427491041468e-02
-1.283238768790780637e-01
-2.802452754755637709e-01
1.429546768818114044e-01
-1.118821439026533165e-01
-7.541991961766376928e-02
1.364492778667973083e-01
-8.558815716965874343e-02
1.238686181460115117e-02
-6.857480424815066977e-02
-6.404493119371629239e-02
3.693971613618067529e-02
-6.244710876001851457e-02
3.598562805896298594e-02
-2.617798065738942415e-02
-1.885245737764779939e-01
-8.188927047369830292e-02
-8.157321430452248168e-02
-4.542902742013333467e-02
-4.306087084659601660e-02
5.688873535038592444e-02
1.977975329548205263e-02
2.540736908483897522e-02
1.106796238795420689e-01
-7.257208490255051547e-02
-4.198252307062384781e-02
6.699438167034313385e-02
-5.001426639383025480e-02
-1.088721829393204804e-01
-6.995476963003999238e-02
8.923752815786913095e-02
-3.133997509689429029e-02
-1.708460789461562213e-01
7.085958022977026372e-02
-8.789555296393565531e-02
-2.464467942241395093e-01
3.505119548619807790e-01
5.045407262993291397e-02
-5.879373610651066062e-02
-2.045058438421296781e-02
8.978058761159431189e-03
-1.300156434567184272e-01
-4.316061092173809066e-02
-8.900316385976204947e-02
-1.120126940865701914e-01
1.379919062688904074e-01
3.314954804718771297e-02
5.063510652051505384e-02
2.098191627475666510e-02
6.055390794082592121e-02
9.111794897892258605e-02
-1.391800902582230881e-01
-4.663070308282010225e-03
-6.705016373867202228e-02
-1.319446843603573963e-02
-1.814597015442013378e-02
-2.902165388183915173e-02
-1.641606019771834485e-02
2.130355547568208927e-02
-7.710443675794534379e-02
-1.078658983100049852e-02
-8.375192353896225572e-02
-1.340873665448282515e-01
-1.450435099802108441e-01
-1.174489971034060887e-01
-2.500650897331559985e-01
-7.920272367752605180e-02
4.839829925772493741e-02
1.231732179782718956e-01
3.140215017986569546e-02
1.811561630183184876e-02
9.662735853065397562e-02
-4.949705944695897454e-03
9.961249831307998279e-03
1.117269715656439288e-01
-1.248720560744673129e-02
6.223562964498787625e-02
9.685439800207869265e-02
-2.443431305379986096e-01
-2.239700403473155257e-02
-2.297459994071915368e-02
3.010001527415179234e-02
-2.410739261237481584e-02
7.918182732864885442e-02
6.192114030761303872e-02
9.791895881261689603e-04
-6.862413475480938496e-02
-7.906238632036989913e-03
-1.217978446847852447e-01
-8.365330785500270372e-02
-4.180674321659528375e-02
-4.810095952793062846e-02
-6.338021425805849540e-02
-4.712966569307626419e-02
-6.686845452301434789e-02
-7.403556105190320369e-02
-4.026544229391997021e-02
-4.734121021311564481e-02
-3.994697428456710220e-02
1.560707263360147819e-02
2.822429710036990919e-02
8.188899404953640937e-02
4.308297973168085521e-02
4.970659233224209578e-02
6.672215408200889326e-03
1.543266669305590720e-02
3.932948124948983104e-02
4.160833123812951451e-02
-4.829383888705183342e-02
-2.231913427124911434e-02
-4.448393146152939542e-02
-2.179586631751745940e-01
-2.329162559129930865e-01
-6.471092937240710552e-02
9.866385197207834523e-02
-2.304404436420353502e-02
-8.862633415002964254e-02
-6.616626667288888486e-02
-7.410108421682652007e-04
8.086378237132640923e-02
-3.688868650526645754e-02
5.154016595259541290e-03
-8.486735731519476356e-02
-1.695835301863194908e-02
-1.254578674829262726e-02
1.136214214527393879e-01
-7.963611713751150845e-02
3.425573595793144493e-02
2.162359279989722188e-02
-1.044006407336447312e-01
8.380421062905471508e-03
3.083072415169715169e-02
-9.632293638258961066e-02
9.394459485850612315e-03
-1.026474360970538666e-02
-7.400880240019232226e-02
3.927027111074996024e-02
1.081582298914184059e-01
-4.861183141674127461e-02
1.351865690159639866e-01
1.678167226967487990e-01
-1.518069503145923899e-02
2.929344154900352919e-03
4.157275295548775590e-02
-6.192518446888078260e-02
4.911990986252926655e-02
1.717633589509215963e-01
6.029006158892232653e-03
1.242424329298016245e-02
-1.725853780127454759e-02
-3.460467601180141858e-04
1.208229098127256013e-01
-4.540519139832233098e-02
1.192651479908326817e-01
7.960947477158787644e-02
7.097205074869065988e-02
3.593718192727370087e-02
-5.175860751188311737e-02
-3.137162619903335198e-02
1.352413008598303719e-02
-4.802292142817041892e-02
2.800075188708616575e-02
-8.519225980477554416e-02
3.191225949699457581e-02
5.740916907013819681e-02
-3.464014576104174070e-02
3.844057718696748671e-02
4.469596696600383612e-02
1.298471132846644449e-02
-3.348721869475769497e-02
6.802850603186400176e-03
1.564785225030056459e-01
9.374287261129660154e-02
5.181360293686727847e-02
7.035589887635967932e-02
5.127698537475913754e-02
4.672287992037016564e-03
1.362412811063353976e-02
-7.472802741021443602e-03
-5.978940992874678950e-02
-1.230304585248798571e-01
-1.428360548316582601e-01
-1.021490481335368128e-01
-3.226933955597215825e-02
-5.820425117537739862e-02
-1.010615486194176987e-01
2.210176512533273269e-02
3.302865732131000237e-02
-2.103507301474582050e-02
-4.685561110206767216e-02
4.751212447908934045e-02
-1.033646790804354856e-02
8.994872578613963277e-03
-3.351913526716533004e-02
-9.152939590812111947e-02
-9.935101828261952081e-03
-4.922088210366408131e-03
4.535801554649868117e-02
-1.118503630716125019e-02
3.374926742426472177e-03
2.062748357804338253e-02
-5.582647299132992985e-02
7.476776613991119314e-02
2.055994737693629670e-02
-6.225716230258367123e-02
-1.817236759308783062e-02
-3.236576889901834203e-02
2.267608770792502518e-02
1.250668216375568076e-02
-2.984877595460194710e-02
-1.151972747590000457e-01
-4.499824024138546902e-02
-4.858473166005445459e-02
-8.855729657020271206e-02
-1.214663810926748660e-01
-9.865519772537822973e-02
6.823957507223996077e-02
7.908434624526020085e-03
1.644539341232085020e-02
9.332947405348879233e-02
3.953543500729102267e-02
2.317074677386420090e-02
7.787498181023007338e-02
1.827119500747999975e-02
-9.515089710113863730e-02
-6.478124609589380745e-02
-7.362081099483466784e-02
-7.469513920545109431e-02
6.181574145417685628e-02
-3.510528374179066463e-02
-2.856791901756958185e-02
-9.931907070066861576e-02
-3.065998302234003089e-02
-2.758237629758399784e-02
3.011218910401272306e-02
3.581875648153674124e-02
-2.963907650238695179e-02
5.235601153118053797e-02
8.223791601450614053e-02
1.833264713619808459e-02
-5.983673049177234277e-02
-3.599775907004593763e-03
-3.273872196795576256e-02
4.247429082276282797e-02
8.398656483236537074e-02
3.852617644702763938e-02
3.856124048807688630e-03
1.750918974839234254e-02
-1.051008413888725179e-02
5.146206324962007694e-02
8.942254810359810679e-02
3.519676964681434789e-02
5.307484633778321303e-02
3.820747845022887806e-02
-6.227433125303920985e-02
1.125627298043153923e-01
3.158682726104964505e-02
-5.397739976760028424e-02
9.519029472585945062e-02
5.248879439545015013e-02
-1.367756013781131451e-02
-2.242920135301129658e-02
-1.985961234702103562e-02
-8.672180552642404228e-02
-1.337108765344559858e-01
-9.626574186416209100e-02
-4.890930596530232259e-03
3.576172217908277218e-03
-1.072231086887850959e-01
-1.266019568293792197e-01
4.982540281314128822e-02
5.744997246082045317e-03
-3.107343067859133848e-02
-5.063404384117402290e-02
-3.585410736086120514e-02
-8.938331844723663988e-02
9.404564979175632222e-02
5.806744740699748553e-02
-9.218602298680144205e-03
3.952827309486062896e-02
-1.060527051607414450e-01
2.016447311037544710e-02
1.047421643384166684e-01
2.606984447867470925e-02
3.228553170581478088e-02
3.363362250090737304e-02
2.919977722356532912e-02
-1.726668219940078255e-02
-9.015710733276578737e-02
-1.021761272171947954e-01
-4.136084665744358541e-02
-3.848298790564242539e-02
6.987116286426596663e-03
-5.081806222330666201e-02
-4.928269962816699684e-02
5.045606198346404281e-02
1.258752249257578393e-01
-8.545436796924051059e-02
-4.464225585293665755e-02
-3.808616911696808410e-02
1.568142783327299006e-02
-4.537987727450197573e-02
-5.603675128835258062e-02
9.221447424274897831e-02
8.021066195516388109e-02
-1.503839585518667796e-02
-2.779187935602496495e-02
-4.615655004755495755e-02
4.873038606890851138e-02
-8.655831804606280155e-02
-1.747265275403791021e-02
1.426701537751793973e-02
-8.457442049646513027e-02
1.780804758099596707e-02
-8.133284822755583454e-04
2.921412172145495395e-02
5.159869129725480619e-02
-4.011497494553799975e-02
1.155427469122813355e-01
7.515558440865226231e-02
3.486844835508837170e-02
7.041610907286992294e-02
-9.461111914974586201e-02
-1.365563639072149282e-01
-3.649254992654399343e-02
-4.014518211687304050e-02
-2.100692151771652721e-02
2.042227792547350942e-02
-6.227954085630807435e-02
-4.119532029961254366e-02
-5.611584112845525649e-03
-7.859813469573269373e-02
-2.781045148831334107e-02
-3.602832672732145247e-02
-1.276377789396437347e-02
-6.796819505433814544e-03
-6.338731544346665192e-02
-3.688012011893893050e-02
-4.439222848970283963e-02
2.264685216894568934e-02
4.441511094850533053e-02
-2.768739140792225023e-02
-1.566609723190747205e-01
1.661641982947602986e-02
1.805356383092301259e-02
-8.973177268492876779e-02
-2.262984989478521169e-02
9.610877155614415759e-03
-4.212928639675916909e-02
-4.316251404190368790e-02
-5.159422075476714081e-02
-6.592378754931198237e-02
1.103577703890239320e-01
2.107619166911796349e-01
-6.716022331561426195e-02
1.633293833731424421e-02
1.306269852089311512e-01
3.188649573479684918e-02
3.286467885651370852e-02
3.332961269110278762e-02
-2.342678223610601684e-02
3.640090122141815404e-02
9.646232169544651999e-03
-4.692477788832487284e-02
1.459024438541374133e-02
5.374940468485772671e-02
-8.264737377619042757e-02
2.213928667268589418e-02
1.791506461576496956e-01
-6.920602625008744069e-02
-6.180307405575224955e-02
2.135578663185694337e-02
-7.332661312134550191e-02
-1.009269930429246426e-01
-7.600178057771003748e-02
-6.598777057358638787e-02
-3.806885416324632537e-02
1.045670353586872631e-01
4.528565219315636159e-02
-1.849003710670156855e-02
-1.497443247028968361e-01
-6.399702766731249493e-02
-6.353178373729075068e-02
-1.159849791770702909e-01
-3.059716802419536197e-02
-5.974288010907453927e-02
-2.755035894416074313e-02
-1.398155263395425008e-01
3.780224961500765202e-02
4.509213972252678476e-02
-1.017098909817884950e-01
3.346469801395998006e-02
-4.769294629413687280e-03
-1.804108533229948144e-02
8.401706013403992257e-02
3.205074553309672503e-02
-4.156612208148581511e-02
-6.215085642000692245e-02
-7.870533727093557974e-02
-1.901864309489379248e-02
-6.262973162842315825e-03
4.270662982569139315e-02
-9.551250713756180566e-02
2.868566225335466777e-03
8.116430102338485775e-02
6.310707444857628634e-02
-8.545139105308685590e-02
-3.028731808374213706e-03
-5.765287565480274601e-02
-6.703969180506375025e-02
1.552947719507141548e-02
-8.229291919187611826e-02
-4.257108194381379468e-02
1.084599475791498367e-02
7.960675110003757882e-02
-3.676362760139895332e-03
-2.690108887962053622e-02
1.694269965960359253e-02
3.094143855767503282e-02
-1.268205818617979160e-02
1.703203298549882394e-02
5.746213853829557072e-02
1.192760530135482736e-02
5.402895054915320128e-02
8.725267598651334500e-02
3.776750212971258930e-02
2.703730605080698220e-04
1.024527995304808526e-03
-4.705832565466175343e-02
2.574221831754363796e-02
-3.606274732034790709e-02
-6.602449104107180333e-02
6.416430348020953078e-02
5.040134822849788587e-02
-8.559051536895459500e-02
-3.105611701693388946e-02
-4.371968834706929652e-02
-6.546125695432609970e-02
4.599414273295086841e-02
8.141857410991766575e-02
1.508040603392774709e-02
-9.792313993270072847e-02
-8.953611280342793632e-02
9.591445542151823267e-02
-1.128279906056791487e-01
5.767661087604507991e-02
9.006102426295276020e-02
-7.588873011947271097e-02
-7.078164440064499234e-03
3.165838436626702834e-02
-5.420610290158078826e-02
-5.778883441312863273e-02
1.837069171118101835e-02
8.269448760892754435e-02
-2.139225902299623713e-02
-9.997788653627788513e-02
3.622752428088332755e-02
3.446577780718667466e-02
3.225796939010756176e-02
-3.924283541734441792e-03
-4.549881437770283976e-02
-6.141654526718536705e-02
1.401212468424839659e-02
3.545091611104548256e-03
-8.114923038535705457e-03
-3.360422286976158524e-02
-4.923597083059211288e-02
2.102924838886882294e-02
-1.306432729715322101e-02
7.432423405843360809e-02
1.359348964823422767e-01
-3.268471755629184794e-02
-5.122571884735284409e-03
-1.703209422934677530e-02
-8.241960868089376335e-02
-9.519476268421850351e-02
-8.853483790849152324e-02
2.712784616476102487e-02
1.143439567315052835e-01
-7.092123644379033642e-02
-3.825648128097667439e-02
1.409629750531826708e-01
5.624452556475640491e-02
-1.244195051742424396e-01
-3.180617326534930511e-02
-8.412212563488598305e-02
-1.714613621773007635e-02
-3.330466809767302933e-03
-5.462870095722448249e-02
6.165872980010122237e-05
9.293175081980249719e-02
2.860179177533164752e-02
-7.121073120321733119e-02
-1.557197965031184850e-01
-1.513154387172948312e-01
-1.730826082866471910e-02
3.841100441920511973e-03
-4.419226344994509580e-03
-9.063115280481817086e-04
-3.450368309763776620e-02
4.532217109861055165e-02
1.297167104028405793e-01
3.127849420408791020e-02
-3.685481891576160123e-03
3.804758549275801677e-02
2.450244644121154017e-02
-3.528643374117109571e-02
3.346796693664605415e-02
-1.893864700088913585e-03
-4.332107875727127938e-02
-2.300446326635172123e-02
3.802048573607120369e-02
4.690247169020142319e-03
-2.620619731661294818e-02
-8.103736862627829163e-02
-1.275087714872668795e-02
-4.357423033198926272e-03
-5.681947609059986165e-03
1.358580186563259906e-01
-3.298819503560367766e-02
-1.668233319781880358e-02
9.090218913361544639e-02
3.820946822925518072e-02
9.382247410886317140e-02
2.918074770051376152e-02
5.913416019061324552e-02
1.690125385454998089e-02
-3.164558776141215141e-02
3.509250005757880847e-02
-3.103105355358827880e-02
8.300018227058296796e-03
-1.649477300901934160e-02
3.538020918413933846e-02
-7.309298205411414451e-02
1.624112838256341201e-02
-6.659294248347220023e-03
-1.704901071043754893e-02
-5.380413136046690442e-02
-1.628548081547259163e-01
-1.691574461411868568e-01
-1.039072375542078736e-01
-1.070431499726918201e-01
-4.790761244153180637e-02
-5.456669995959056996e-02
2.351036070759660382e-02
-6.157537614779932944e-02
-9.769552988512041070e-02
-3.833041836863980423e-02
-5.747590160724894148e-02
-4.781878302071465581e-02
-6.916494377351577183e-02
-9.815994689398836737e-02
1.638238822231080638e-01
-7.517856764847039019e-02
-1.061184557289820557e-01
-5.589577673640323818e-02
-8.560957073329220068e-02
-8.754099496742477615e-02
-5.735129751001601453e-03
-2.150656019947867412e-02
-4.305350774493410700e-03
1.064393579874813867e-01
-2.630299489798542528e-02
-7.624375062795162028e-02
1.153862882617272961e-01
2.625393780053691603e-02
-3.844071414578358048e-02
-1.031831698871788772e-01
-1.424582965755787356e-01
-1.330250668914327583e-01
-6.213258146250819070e-02
-7.406177962073551280e-02
-3.498146909584674141e-02
-1.015240404524744844e-01
-1.219967631524577073e-01
2.157352530816392111e-02
1.354099488450169753e-01
-6.231026356129993476e-02
-1.516260328867864438e-01
1.400224814471783541e-01
1.137281123704783764e-01
-1.902128226543868261e-01
4.298784245293747058e-02
-6.812802082446525742e-02
-1.676349447541171933e-01
1.357176074444126634e-01
-1.057388213955348828e-02
-8.391258381451593973e-02
7.811740149884904838e-02
-7.786970243548885229e-02
-5.306622051649775851e-02
4.793676658046006067e-02
-9.621765123081207904e-02
-2.432654480702905672e-02
-6.487626192059273156e-02
1.391720964056509038e-02
-9.971198745514851802e-03
9.051739429534290393e-02
2.562902314810438717e-02
8.602654572509016440e-02
4.914311533740746418e-02
3.384398349004539945e-03
4.676060561388316328e-02
-1.074811184252815743e-01
5.846458404349030857e-02
-8.480075398451429949e-03
1.283257954284961616e-02
6.964959709349410888e-02
9.553747757227762719e-03
3.109416572652259209e-02
-7.106493208316136227e-03
-7.155446423794704913e-02
3.138089030008439639e-02
-1.015194768813570125e-01
5.851484534486903200e-02
7.392658318034826814e-02
-2.832646320892050207e-02
-4.413968160107856198e-02
-3.350805581576886405e-02
-5.451223686509917149e-02
-4.429348376742604093e-02
7.471062847231299542e-02
1.415823906799424936e-01
1.412404794558797250e-01
-6.522849932256342964e-02
-7.562726281890193303e-02
-3.907446910217582392e-02
-8.444982673574663590e-02
-5.540992438075191540e-02
-1.307943928123870558e-01
7.763129073033715744e-02
1.223977940707591666e-01
-1.556176019691532346e-02
-5.749160277265650230e-03
3.748894340254445290e-02
-8.480036378109484518e-03
-4.956939060805692215e-02
9.782013656648194666e-02
1.300112312924054381e-01
-1.668023488539106466e-02
-8.150395371904634034e-02
-7.028855648489802654e-02
-2.122839425985858629e-03
4.257636131855501577e-02
4.146990205285668724e-02
-8.034187625336990102e-02
4.374258372651482207e-02
1.657210977627598392e-01
5.643224958730946178e-02
-7.388792720053724561e-02
-5.826094695698403464e-02
8.273952121813712979e-02
1.779072926790702461e-02
-7.121625348604747330e-02
8.435741054442492948e-02
1.165821661295648320e-01
-8.062455408153534897e-02
-1.490701433055847958e-01
-3.269525162038566107e-02
-3.796022109981562337e-02
-7.780493393258977597e-02
-1.442097705154232745e-02
-1.338321454441753280e-03
7.115497290421202159e-02
5.482535728147307219e-02
-3.772855474508317319e-02
5.269642056169221433e-02
1.841544349564020952e-02
-2.082716802084896845e-03
-2.394610261080033428e-02
-1.906938358967930416e-02
-1.040129201854907287e-01
-5.244665056797110508e-02
2.796183793198173118e-02
-8.959184795182963124e-02
6.691361788871558192e-02
-7.763002727115148223e-03
-3.103500722864803094e-02
-1.126720286413105364e-02
-7.858475410927648862e-04
1.102811957258781990e-03
-8.469688078795782615e-02
-7.924597736598491815e-02
-2.535451934446760185e-03
-3.561303005112795989e-02
1.599277371900733593e-03
1.103774248479472697e-01
-2.715511063561279470e-02
-5.430573386697192667e-02
-9.341199094128964375e-02
-4.878460853894386884e-02
-6.834105547087958310e-02
-1.827278107487075032e-01
-1.313203914344829000e-03
-1.153742957187503942e-01
1.842492017350101652e-02
-1.148638253629062494e-01
-1.454790673337230389e-01
-3.542653539937630491e-02
1.060826743944089379e-01
1.407228410873276325e-01
1.377128640645998991e-01
7.028256821531286835e-02
5.584994260301796160e-02
4.875579604630241037e-02
-4.000409269476629115e-02
-8.150493285999559079e-03
2.474403854056355864e-02
-1.067932210250601734e-02
-1.356864713678219807e-02
-7.574287043886759885e-02
1.106808135250433589e-01
-3.665311102160742195e-03
-1.699243101670667722e-01
2.646873853254329556e-01
-3.877521366526111984e-02
-3.762141429103594420e-02
-7.346378133086263994e-03
-1.366811418147317707e-02
-4.851698584091082567e-02
-1.471163728348388530e-02
-3.232862221299966782e-02
8.824314847947406504e-02
3.802186450109429350e-02
-5.327500843347485367e-03
8.810001533986272504e-02
5.719995385802847943e-02
2.625851930504404658e-02
-3.264278031418776232e-02
-2.230384244775691568e-02
3.132586647774700250e-02
4.367878010091714308e-02
-4.468849797551130432e-02
-4.583371019204010577e-02
-2.911117932188085275e-02
-5.064399469014074784e-02
-1.098797781193764228e-01
-1.466075811454528761e-02
-1.092408568983861128e-01
-3.985109349589920080e-02
1.305508976523899606e-02
3.649712483479516933e-02
-1.053252272073833679e-01
-4.767614873434530137e-02
-3.736948625909489521e-03
-8.798025546745155689e-02
-3.940459936853540901e-02
-5.070333987589729224e-02
5.088326350028637285e-02
5.438649502945007430e-02
-2.073299396725318197e-02
-4.206148707291716693e-02
-1.852871367813575462e-02
1.468894413578688551e-01
7.281452160119071537e-02
-2.897768553502420852e-02
-3.655631253740975178e-03
5.929168475287699240e-03
-2.636556025051256524e-02
-9.507081279299776574e-03
7.434010406188687470e-02
2.021700564439677869e-02
-8.432019495707855639e-02
-4.293439536175377991e-02
-8.433850453556054894e-02
4.585312215251576007e-02
5.514099157079398704e-03
-2.181011116543518299e-02
-6.070790815086677533e-02
-8.597110977059346792e-02
-9.154658581901899128e-02
-7.900978726473527336e-02
-1.010695014225377469e-02
-4.734475747790922728e-02
-2.361172609700306832e-02
5.675142629449111097e-03
-1.124820693604359177e-02
5.219103293099000562e-02
5.037360132715973382e-02
4.133165827558858002e-02
-6.182546217426711926e-02
-5.041339956689037949e-02
-3.239807400918482544e-02
-1.022708762808884481e-01
-4.986679980934789931e-03
2.824662110073569363e-02
-8.177279957036946711e-02
1.163492202024768245e-04
1.064145779037023454e-02
5.171539403886107888e-02
7.188862629213088606e-02
-2.395425712250233083e-02
-1.237992284730703718e-01
-4.890355676746959562e-02
-1.055314349412227737e-01
-7.337633665306337672e-04
4.297375403315414032e-03
-2.931974757226556844e-02
6.716051511303403054e-02
1.179885331810065774e-01
1.050582448254220175e-01
-8.675896850985569120e-02
-6.902385045686758314e-02
-5.351336522586432748e-02
3.185687367365216960e-02
-1.583547159613858625e-03
9.102243519683269821e-03
1.046187768690068909e-01
-2.096905340941252263e-03
1.778349306691125523e-02
-7.042519775498674861e-02
-2.309318948923979112e-02
-1.541243380400587198e-02
-1.235885990971684421e-03
-2.447979913420654172e-02
-9.855412010882846907e-02
2.903485710730500588e-02
-3.866413440208110036e-02
-5.036665130190607492e-02
-1.772997821857492246e-02
-2.202537937168880244e-02
1.396618996575833827e-02
-5.286534805548823851e-02
-9.048992758461903152e-02
-4.030987650008725082e-02
-3.296056744997668490e-03
-3.215247299226551420e-02
1.062309110261699246e-02
-7.145514269510996885e-02
4.863031313267762723e-02
-6.829577993286015114e-02
-7.411135893290844712e-02
-1.424792298025194526e-02
-9.853235628472739246e-03
1.031064281839866661e-02
-3.786411138804100796e-02
-3.927401296276097215e-02
-5.484560684459384439e-02
1.695838350753327631e-02
2.810257248220025539e-01
-1.340066384960429957e-01
-1.061289277123756564e-01
-2.742426663104989906e-02
9.307443707530967114e-02
4.797544804150255526e-02
4.039134374082821444e-02
1.346776101322966906e-02
-2.167951524144886774e-03
1.425813082984324909e-01
4.888924829914360198e-02
2.752088859568185917e-03
-1.159450250086911799e-01
1.411352150209909950e-01
1.198333080116813915e-02
-8.270831173459225472e-02
-6.805984249687122012e-02
-3.132619528870272778e-03
1.118394914155011188e-01
-1.704951086803666860e-01
8.962990349349492583e-03
1.290829090264650758e-01
-9.186919263118525913e-02
-6.258774634350978971e-02
-8.909737857544149098e-02
7.660887369763398624e-02
4.813644599951365927e-02
-2.461147580788681025e-02
-1.026587364925104495e-01
-4.396002768660506321e-02
-7.920144770965978354e-02
-1.501959297169661034e-01
-9.615327749567025017e-02
-5.601384101977536362e-02
-9.320442469902789906e-02
-1.385056791963736600e-01
-7.703124521493534549e-02
-1.443233660477065694e-01
-2.315308327011719736e-01
-7.857186991156397959e-02
-1.301509562340210091e-01
-6.111457981032424741e-02
3.704337328379019717e-02
-4.637860878553268923e-03
-1.961266322186093827e-02
3.659505512091411339e-03
-3.626359464111893888e-02
-2.103023474476919605e-02
3.402448029241033484e-02
-4.089398493475812635e-02
-5.099751319331317923e-02
4.880532882090651142e-02
3.321002247741389191e-02
1.651205205506336982e-02
6.713414101321688032e-02
-6.287731111579360210e-02
-6.685797961383883881e-02
-5.669395360059822919e-02
-7.974570771766466282e-02
-2.319945945954633368e-02
-4.817881242586691259e-02
4.427112957648889069e-02
-3.232247517871157660e-02
-4.322032590768482702e-02
2.145238647790542741e-02
3.571281033151887246e-02
1.604545892538485410e-02
-4.763680909936869601e-02
-2.657807336707400034e-02
-5.650351148679388924e-02
3.330028627651251266e-02
6.381880071707468627e-02
-1.461222215631223249e-03
-7.886190713327363710e-02
-5.656266111656096246e-02
3.395666043691596830e-02
-4.217312185355396453e-02
-2.501862510852206553e-02
8.056169536889722094e-02
-5.390404801995363898e-02
-1.361641298514526810e-01
-8.824864654477060366e-02
1.473622542063625016e-02
-6.154671355184271331e-02
-9.136899156066362717e-04
-1.303649775545188128e-01
-7.299349513497613295e-02
-1.242640633294277291e-01
-7.998870766686577705e-02
-9.451732704180881156e-03
4.112032282142383949e-02
-5.116945190323006487e-02
6.541588398538539240e-02
1.463738830851308605e-02
-5.997025538337590750e-02
-2.190476805196069077e-02
-7.463994331124509940e-02
4.140778147300702011e-02
1.452943101882847761e-02
-1.054386254530932515e-01
5.979891545551524468e-02
-3.260066655309522277e-02
-1.170543985616298577e-01
1.202630137438794322e-01
-1.967877845213746729e-02
-1.690073862053463258e-02
1.126842586782795530e-01
-1.668773920987552326e-02
-1.281621345153947100e-01
-1.312285735709724926e-02
8.260926176063985993e-02
-7.760317033840459511e-02
-9.234131843783985327e-02
-4.878403571564730347e-03
-9.947825368339917318e-02
-1.295318640442448890e-02
-7.006403007063376209e-02
-6.819890184179951131e-02
-1.151072839168614109e-01
-1.412292895660080538e-01
-4.959040651171688074e-02
-1.980435481729704017e-01
-1.776039150139556433e-01
-3.770649152995398518e-02
-1.773249621826219341e-02
-2.275707200796115229e-02
3.972117163437212384e-02
8.431676840080309931e-02
8.245294330170391262e-02
-5.438039645151334506e-02
-1.249259424774636223e-01
2.173264243897423884e-02
-7.551013804440499799e-02
2.600346583843961626e-02
-3.452456541380547611e-02
-5.879279027325837875e-02
-8.279739008366628072e-02
-1.825972727992844491e-02
-2.527978321010713667e-02
-9.631981332240936722e-02
2.998331057851157371e-03
3.236305564240004456e-02
1.252509115367591852e-01
1.203001607289565372e-01
8.260700334854921556e-02
1.409285659882373309e-01
6.195712154210761269e-02
1.640691215609413681e-02
1.627608000739489136e-01
7.480691870631450691e-02
9.556376963898957633e-02
-3.372029727726857246e-02
3.869485919001768547e-03
9.049677031366609725e-03
5.236837798525260934e-02
1.916477424381127573e-02
3.141076373593137960e-02
-2.775699216773262756e-02
4.021373563780103466e-02
1.440757021746860884e-02
-1.574988470023917439e-02
-1.437313678806822759e-01
3.737136913446241493e-02
1.184332534597934243e-02
-1.208858941819822841e-01
6.086300827868255936e-02
-4.231396196939511689e-02
-1.717739064047029141e-01
-9.013688153087245913e-02
-4.236031220006458015e-02
1.042995966131160662e-01
3.302919721877253106e-02
-9.377401180354354160e-02
-4.808397469331576052e-02
-2.697671771275181665e-02
-2.308436178037054712e-02
-1.105640337182414584e-01
-2.825811737009824298e-02
6.201844478535043816e-03
3.874025933008350825e-02
5.513105109642719992e-02
1.484968596736931934e-01
2.806154033609365122e-04
-5.063757076241626187e-02
-7.704442188134005831e-02
-4.420874894643581077e-02
-6.329208017768180039e-02
-9.550488998032297117e-02
-4.686093465415069187e-02
-1.599529189175299959e-01
-1.265095773776851555e-02
-3.594427247734197171e-03
-9.130422099413762482e-02
-9.432279728864960411e-02
-2.118566022237274027e-02
1.550978088332440746e-02
-5.341999156735814658e-02
-4.480871991384447611e-02
-1.151167415582984577e-01
-3.057762253631380808e-02
7.783417734064163040e-02
-6.029653449474244031e-02
3.621849562266520745e-02
8.666156259068191758e-02
8.614292041729600417e-04
-1.538801439879131094e-01
-1.734684077062752239e-01
-1.522925235527914090e-01
7.882391216204754497e-03
-9.686625386622590983e-02
-1.132478146976335920e-01
-8.255855911126696103e-03
-4.924845696243405901e-02
5.698964810133034381e-02
3.437319469446122044e-02
3.494083316141819578e-02
7.280746254914646776e-02
1.106947153061346636e-03
-6.348260709010104634e-03
2.757503856833793537e-02
5.184139612767911520e-02
5.716091534466396021e-03
9.213595349839748955e-03
-1.159508224650158091e-02
3.671243544035623224e-02
5.579518000363384994e-02
1.871097635982882645e-01
7.767671669628053999e-02
8.145753735660371531e-02
3.614196573801205931e-02
1.323051871692170200e-01
1.269365764765423843e-01
-4.852327478308507414e-02
-1.549974280402129870e-03
9.354118941871412268e-03
-1.262355792082789918e-01
-8.540214740689369699e-02
-2.871731225327293479e-03
-4.727491110857719864e-02
2.060108279944396215e-02
8.589411262826639193e-02
-2.336839733684622361e-02
-8.320072171604715738e-02
-1.242654824082892791e-03
-5.523721203994316764e-02
-1.043029158731849232e-01
1.832649147919654387e-02
-1.413620599687621104e-01
-9.942848727995812208e-02
5.465383564229477076e-02
-4.377056854449993401e-02
-1.147567368263783562e-03
-1.289060364216283450e-01
-1.044083361267585108e-01
-1.618394198584864330e-01
-1.129479044943322852e-01
-1.208779334956857771e-01
2.829039795303061114e-02
4.187246576855835345e-02
-9.144658402387896567e-02
-5.714202082879757394e-02
-7.722905788589988496e-02
-2.700618350084477495e-02
-1.590398195463998687e-01
-1.118811119601600679e-01
-7.557922814853887394e-02
-1.147596788191400929e-01
2.233414843437095398e-02
-3.863139694497867010e-02
1.040705780518692055e-03
-2.967618210944009214e-03
1.302803173863393560e-01
8.539800958060349279e-02
1.257074568958643224e-01
-2.527572585597188254e-02
-5.179998152251347882e-02
-7.642301590078603990e-02
-1.298597854798060613e-01
-1.147928368081490569e-01
-1.253112050825354144e-02
-5.737428423500226526e-02
9.241803003381064696e-02
7.171368674959702205e-02
8.550678197534149205e-02
5.944959534907223037e-02
-8.839830571656109859e-02
2.217631052270277112e-02
-3.414489605614898921e-02
4.296736471710919936e-02
1.281214484860836167e-01
6.613011329874075861e-02
2.200601067581258591e-02
1.155037087885880803e-01
1.011780505719426515e-01
9.893460976329029530e-03
9.796744175695100421e-03
-6.170639453544694147e-02
-2.791790532712883771e-02
-8.042523016935121047e-03
-2.357904228800394159e-02
-7.174420213687233983e-02
-2.040256231963263542e-02
-9.955895081427015847e-02
-7.711751136504593762e-02
1.112109779265514804e-02
-5.166624199273203016e-02
-1.359016002620654084e-01
-2.884650380836150524e-02
-5.030463582507225390e-02
-2.466206943046911348e-02
-1.190886308038258401e-01
-1.362495687824220002e-02
8.062971943330093927e-02
7.376422109286107608e-03
-4.968535327105862154e-02
-1.390482259262408316e-01
-5.683399418664177721e-02
-1.588543874732103664e-02
-6.715644651010292676e-02
-1.484005353695053431e-01
4.058099670833882275e-04
-3.176115680444044180e-03
-6.354775319335018158e-02
-6.929280743514727725e-02
-2.418760041310898112e-02
-1.403540121077062608e-01
-5.855203489147608326e-02
-9.444572586032358094e-03
2.697207196006420893e-02
3.786693916226024220e-02
-9.509323077784233996e-03
1.194616997141921128e-01
-7.419694323293189731e-02
9.986359070358198642e-02
2.903942065725368393e-01
1.918363674387407181e-01
5.893041150290136837e-02
-1.266787211944783546e-02
2.192799248893878283e-01
7.284121932021164758e-02
3.902911975468846550e-02
-6.370171286632476948e-02
6.773105923048924892e-02
1.209823050153689822e-01
-1.585413248316800425e-03
9.212526195058448608e-02
-2.251180845491746255e-02
6.131553695237589724e-02
-9.914892874423224256e-02
-3.240685153111872233e-03
-8.524826041844615898e-02
-2.349979452121412488e-02
-2.634885405808573902e-02
-1.294115988413122864e-01
-9.479849329004978731e-02
-1.642917784954869564e-01
-2.345454407666235641e-01
-1.443845941088306439e-01
9.067245400731029081e-02
8.068399054683543514e-02
4.299622047435008865e-02
1.339161531821952689e-01
1.640717347427474160e-02
3.100166060598551904e-02
1.007737221231907176e-01
5.499571596821849206e-02
1.242551058267601788e-01
2.089299857006120253e-02
4.750663284199692360e-02
4.281969744747680245e-02
-6.921468368265083423e-03
-7.646224650897205134e-03
2.510308106779218090e-02
-3.049469295211185149e-02
-1.654469779121499340e-02
8.417036099630632873e-03
2.453373797561736111e-02
-5.259686525721837987e-03
-6.749316277343778148e-02
-7.789929575454711264e-02
7.606593239461995060e-02
1.354930093849769090e-01
-1.813498332566205462e-01
6.477897197239292863e-04
6.006804376160870124e-02
-4.019837670500069071e-02
-1.638746644923091966e-02
1.013754755920962120e-01
-2.498688100662272149e-01
-7.847343429492359412e-02
1.311040926654706840e-01
-9.730212566913577776e-02
-1.331893356009875573e-01
-9.608479828768044795e-02
-1.178242601642408294e-01
-2.106261842802001905e-01
7.340100839176111336e-02
2.048924641956290926e-01
-6.114228158200182145e-02
4.165460566459450176e-02
1.293601572964633017e-01
-2.125679802603324120e-01
-3.951829709357604359e-03
-1.463802612088753452e-02
-8.655895628603228753e-02
6.160525545441916662e-02
-4.790264044757837347e-02
-8.117115435595559370e-02
5.274342383477466367e-03
1.383876661446506173e-01
1.042611494495319507e-01
4.006282387885292534e-02
9.850353959152911842e-02
1.983000624436300485e-01
3.052806789738858884e-01
3.510199618166126578e-02
1.175416827155859600e-01
-6.296982459743635969e-03
-9.271945717938225029e-02
-2.860259349845395080e-02
-1.301037288649189994e-01
7.617425495927050705e-02
2.649986866195492285e-01
1.283051008570481322e-01
-7.249818051656287121e-02
1.651896860162829772e-01
2.179350744331560175e-01
2.849148272732482945e-01
1.327946071042191423e-01
1.033720319300974050e-01
-2.894663050869971666e-01
-2.742641564225589135e-01
-2.802658257836740385e-01
1.857500010036229332e-01
-9.706296615265994077e-02
4.877342439584782252e-02
5.075713651758461537e-02
-1.390138103174890782e-01
-1.628549812017358878e-02
-1.032567549554256996e-02
4.631406343379262762e-03
-8.317796738418112290e-02
-1.823816491433774833e-01
-6.347045169586260083e-02
-2.740262068456250991e-02
-3.210431317624604791e-02
2.909053425109052807e-02
-2.112124868797889132e-01
3.385305521081057867e-01
-1.128272621591878619e-02
-3.996122502259389364e-01
5.927516627001441080e-02
-3.314196523873184641e-01
-2.179758831269368036e-01
5.139844741592770605e-01
-5.621499590040471978e-02
-1.933652066734839747e-01
-1.302765589927620815e-01
-6.831725777875816141e-02
-1.301120574793746543e-01
-1.170608190096589368e-01
2.840597144702113400e-02
-2.980866106800577481e-02
-3.884580698783778874e-01
-3.277618887599987318e-01
-1.237494890771076439e-01
1.621389555015822215e-01
-1.372013885160047464e-01
-1.149174068435241808e-01
1.434884115305933294e-01
-1.182216025825803957e-01
-2.033943755298838751e-01
7.605678584472841397e-02
-1.297279172044413231e-01
-9.734681792483808327e-02
5.522852537347394675e-01
1.114510610213913233e-01
-2.488545549726084785e-02
3.063648210891937312e-02
5.402724030976389924e-02
-1.600999089149512389e-01
-9.018779732052932541e-02
-1.354591493240384081e-01
6.138715270783432626e-02
1.977556570224982269e-02
9.685574446020679337e-03
1.465786005629609312e-01
-2.286532730526898843e-02
-3.791315387398783154e-03
1.184304095941785401e-01
-7.251384028390681080e-02
-5.907906456735360218e-02
-4.892658215430045580e-03
1.117206069949689962e-01
6.133116591066033185e-02
-1.783923603906431010e-01
-1.301402025831430165e-01
-7.143529608979047596e-02
7.681821690565752980e-02
-1.115907511523703821e-01
-2.207855237674499482e-01
-2.115364912208385906e-01
6.703063096528456832e-02
2.880939420902885531e-02
6.882458266094061694e-02
-1.368500658644250696e-02
-3.819562892164530404e-02
-3.645573357473069417e-03
2.075634083741009772e-02
-6.051116147921533489e-02
-2.444641008309647312e-01
-1.360576755686137285e-01
-1.149434432452718785e-01
2.568557593058743427e-01
-5.087589891879763793e-02
4.502878679643298326e-02
2.356212437368764793e-03
-4.902841046464625346e-02
5.225557410524689361e-02
1.049033933347402886e-01
-7.176093884679861194e-03
1.347972975441417420e-01
-6.905933884380718868e-02
-1.156312821227323262e-01
1.010572118721946577e-01
2.751834898214871108e-02
3.512807050970429557e-01
4.275871369881865669e-01
-1.532208678080668705e-02
2.381835973465442902e-01
1.840192686496613383e-01
-1.325610304291374997e-01
8.004315427272198913e-02
5.715704525392400343e-02
-4.073794796580221256e-02
2.039280857357311239e-01
1.272936937909343591e-01
1.392131698889192189e-03
1.214709910322475384e-01
1.084909060852104201e-01
-6.923670874920188900e-02
5.995231751744937304e-02
9.438144433041903425e-02
3.058775061204301732e-02
-1.880803935983903774e-01
-1.621522828017630743e-02
2.194048321562857007e-01
4.027326930640955788e-02
4.377854267807457928e-02
1.208960056391868501e-02
4.578869322028961825e-03
7.187817281830961857e-02
-1.240039896893257859e-01
1.443144841692919900e-01
-1.242571894296139179e-01
-1.528673454313577429e-01
-6.439252716594355552e-02
-2.058036927452441267e-01
-1.984682655634421866e-01
-1.728438647472306244e-01
-9.749629683264320057e-02
-1.693775720219112546e-01
-7.537682805143864316e-03
2.465888684303126355e-01
9.511501852742434981e-02
-2.676624020461301767e-02
-4.186637851248786735e-02
-1.058568186805454031e-01
-1.168146925234508360e-01
-5.541601401446411002e-02
1.306006391864023876e-02
-7.401783028120619001e-02
-1.112646987913726154e-01
2.401626521192138652e-01
-1.490213839413250807e-01
-1.710269221313422960e-01
-1.022743880536501893e-01
1.229506778594960381e-01
-7.379092104884449506e-03
-7.517901208022867432e-02
1.191629787443574812e-01
-2.522133531990589650e-01
-1.265192122917803697e-01
-8.000124571637645676e-02
-3.224337600630026168e-01
-1.123155074857102587e-01
-4.373471884381461422e-02
-2.487823698546967610e-01
-1.805348774962079461e-01
6.902668809615300494e-02
1.815215945440583900e-01
8.543167680241006701e-02
-2.037055304420739427e-02
1.001107270384359038e-01
-9.727119289193945917e-02
-1.364893412842317633e-01
-7.630219173132514465e-02
-1.789293701841845052e-01
-1.443540716363629905e-01
-2.588179899739331824e-01
-1.771882270621533695e-01
7.094830349453727647e-02
3.878385817703707689e-02
-2.268047340401577183e-02
-4.493194200129423804e-02
6.018881830990137176e-03
-1.513950390611814856e-01
-8.432307981187001089e-02
-1.465350308348797037e-01
-1.250096660922143665e-01
1.691199614534756313e-01
-9.021175156866310940e-02
-8.071981627094712564e-02
9.648009967542858778e-02
-3.265678931302521543e-02
-3.080385085023414765e-02
9.845756154369411650e-02
3.225523707590343542e-02
-5.180193768674111465e-02
2.525570640431648584e-01
1.364818318777553663e-01
1.439873698720248174e-01
-6.411881309250852534e-02
4.124772478297810546e-02
1.051808393556363103e-01
-1.221083500106166925e-01
-7.783520672244463590e-02
-9.972109503593801910e-03
-9.960958414239311220e-02
1.396981334273720010e-01
7.489321089647027474e-02
-1.145473068831239644e-01
3.681182735426356822e-02
-2.252429860876921930e-01
-8.315647455261460097e-02
-5.548298047413768169e-02
-1.609629900326380592e-01
8.797075504463056084e-02
2.040982534376416524e-01
2.192128113230029929e-01
9.470722362209038625e-02
-3.124992855807959269e-02
8.168529838603934019e-04
-1.992990676111691326e-02
-1.237174451501788369e-01
-6.242279467666735776e-02
-8.417875508760098990e-02
-7.873510668764302500e-02
-2.663584087820225488e-02
-5.052836131149241600e-02
1.652411519990529959e-02
-3.541778568714128161e-02
8.039013815611531499e-02
1.338432084881682471e-01
-1.640037686874427914e-01
1.537442506836942877e-02
-6.215854321391849763e-02
1.796435868000506933e-02
-2.919258860215653284e-01
-2.218923420147387859e-01
-1.735963982992740628e-01
-1.295436636764432381e-01
-8.610080663838161341e-02
-4.387368837518229592e-02
6.453752318564001667e-03
-1.734872274581513441e-01
-7.881508945187568060e-02
5.059191819721534783e-03
-4.046026869818989541e-02
-7.875446426878215944e-02
-2.681731554654109839e-01
-1.199483337123841004e-01
-7.073731951358688819e-02
4.303580928074577511e-02
-3.708051619356664969e-02
3.130533887556449790e-02
2.291503730056499433e-01
6.633671250268186048e-02
1.204977947086841202e-02
-1.324673600649183269e-01
-1.472046195790248369e-01
-9.857657425845635368e-02
-8.584340087194078373e-02
3.908224330558771747e-02
5.131158482172120533e-02
-1.797243318828195893e-02
-7.028822287263274474e-03
-9.488586026574928611e-02
-8.995711062915223710e-02
-6.396310668700937174e-02
-2.469025530264015444e-01
-1.569838276007582203e-02
-5.349942005758223651e-02
-1.365449298553047530e-01
2.313854075160557688e-01
8.193572571413847150e-02
-1.847504838310967956e-01
1.237170355461892218e-01
2.800802675911164691e-02
-1.798301538320642157e-01
6.315929299104302563e-01
2.680848630498703367e-01
6.776067422419417008e-02
1.418728120313811902e-01
-1.347107345676683832e-01
-1.378669608654738421e-01
-8.526317027223523359e-02
-1.283703454629134821e-01
-1.281118322486488569e-02
8.081090385445396929e-02
-2.227955377750018284e-02
-2.348207713475292113e-01
1.038554215272937536e-02
-4.926036768691707812e-02
-1.548493963813588337e-01
-4.220061536801898716e-02
-6.588406596048433650e-02
-1.773276289532878594e-02
-6.528583174838310799e-02
-1.572941519270804056e-01
5.600747079758890828e-02
-7.050992482464489564e-02
-8.244913397409271705e-02
-1.808269744449919891e-01
1.604839695446643247e-02
-6.282165414682032434e-02
-2.115314735719656947e-01
-9.135538866346347431e-02
1.349479407892136273e-01
1.194091279863427751e-01
-1.197872228097996566e-01
4.434742952284533545e-03
8.647461958309513030e-02
-4.663636109155219062e-02
1.011279178645883015e-01
9.436499190350257360e-02
-1.239775967804019295e-02
-1.363748417986144212e-01
-3.833458328249485410e-03
-1.231823240861451146e-01
-3.120531206424712392e-02
-2.129024181252288095e-01
-3.183053462810896406e-01
-2.984131371197471516e-01
-2.138753603426134520e-01
-7.458736187299765119e-02
1.243961741314997399e-01
3.114242647395162877e-02
4.985133142820252772e-02
-2.726530094704191116e-03
2.071882414606439696e-02
-2.244513315620103588e-01
-2.633710417289385486e-01
1.363882563292745376e-01
-1.104341167161586174e-01
3.584372073953415172e-02
-1.343441389969571645e-02
3.043446542123806053e-01
1.096953504093218928e-01
-1.138597448676194751e-01
1.139403382452070304e-02
-1.984918784749179488e-01
-1.579118764623544391e-01
1.710426615439064602e-01
1.613243517745930056e-01
2.234343645010004320e-01
-7.501389995348634043e-03
-5.177732731369802388e-02
-5.057978557533757830e-02
-7.983806024543717295e-02
-1.710009236558899248e-01
-7.502785683016974239e-02
-1.064723245275423363e-01
1.169587328005048665e-01
-2.490761279752164853e-02
-1.850743402595946552e-01
2.442372636585641438e-02
-8.144348411961085943e-02
-8.247129810108667913e-02
6.781416547113511273e-02
-4.271384916701469886e-02
-6.306866431570974652e-03
-8.479842903445526658e-02
-3.817704124430146284e-02
6.987977563501899907e-03
7.237529931967642306e-03
-2.881239948867122744e-02
-1.784831559416758320e-02
-3.350880353773320885e-02
-1.331865677812506255e-01
-1.827003134620439062e-02
7.306745041691649345e-02
2.969919440177943848e-01
-3.568826085495466205e-01
-5.726859976270855246e-02
1.409815023720762533e-02
-8.243318596690420511e-03
-8.715630681545221553e-03
1.978218422004879018e-01
-9.206200484974443043e-02
-1.519565416562504434e-01
-3.933403598031891962e-02
-2.230755476134624674e-02
-6.081227350840059248e-02
-5.172878165566881931e-02
3.179809247507913057e-03
6.914142651743096502e-02
1.834514627043076296e-03
3.045808819355061980e-01
-1.421966570819904185e-01
-1.844339585554872762e-01
4.183014524697631353e-01
1.076786158622366346e-01
-3.310931449107767238e-02
1.310839794794148028e-01
-1.036422719548797111e-01
-8.210580239294018590e-02
-7.648055151302808607e-02
-9.842671229506837205e-02
8.977165863022157702e-03
2.988829870295088217e-02
2.587957158606827429e-02
4.040249936513513190e-02
9.400675528828325578e-03
4.969635700020334258e-04
3.056205175432380461e-02
1.077725479178936185e-01
1.070655297128820932e-01
-1.091900469986808037e-01
-1.049783394869524128e-01
-1.491834847202177516e-01
-7.305242401870463975e-02
4.065410620101918282e-02
4.990855082997492503e-02
-8.159140425667768884e-03
1.757607533656929955e-01
2.360631609301236389e-01
1.106805200643226628e-01
4.012277966283376435e-02
1.152856029038985541e-01
2.417810619569104036e-01
-1.559484131896972034e-02
-8.122758109815547689e-02
-4.089690275849685100e-03
5.347289061399517623e-02
-3.780448745259307186e-02
-5.438168808807921500e-02
-1.319044579895514713e-01
-8.966566601264795711e-02
-1.424424801578358379e-01
-1.795152555945245601e-02
7.419349729594032494e-02
-2.947547097822590754e-03
-1.034428023971931121e-02
3.149316506058314619e-02
1.814313185832717168e-01
-1.596687552043202230e-01
-6.753773208232455305e-02
-2.510221641151671665e-03
1.556607043132834378e-01
-2.089172860944631463e-02
1.539676555263670144e-01
3.024744744557301135e-01
1.307860987705921074e-01
2.487394183252295346e-02
1.227512310575866461e-01
-3.951692226537013852e-02
-5.306606282919225370e-02
4.134761505963227557e-02
1.587952860743410133e-01
3.040742245561216250e-02
2.742157624697110288e-02
1.852368809835132357e-01
-8.775344495761824848e-02
-3.572453356381336681e-02
6.086857509382587184e-02
3.475907230818358479e-02
6.722152538759584850e-02
1.141350252970518321e-02
1.347833558379764596e-01
-9.995288538250936272e-02
-1.840937710642180369e-01
1.304120924017723726e-02
-1.337822002494918616e-01
-3.222028040949286298e-01
-2.333354372949052735e-01
-7.021183931382740662e-02
-2.422468537530711452e-01
-2.499736537543268966e-01
1.841691344056788637e-01
-1.004028429503676240e-01
-9.514692591968996549e-04
-6.379279486517656916e-02
-1.770645228646581526e-01
-1.204957353108474100e-01
1.768890227256234571e-01
1.163624479999838673e-01
-8.215745800718687875e-02
3.471911126710352548e-03
-7.715127425340372047e-02
4.756938588309642807e-02
2.365465429420609417e-02
4.086425959610173742e-02
6.778895206999618894e-02
2.820667710881899493e-02
-1.053019873208259211e-01
-1.245478148381389538e-01
4.397682362566535663e-01
2.339785800333130453e-02
-2.018119615390901248e-02
2.753171800125441271e-01
-9.049151109357457534e-02
-7.175702485312000778e-02
-9.483805417047909414e-02
-2.250746995300302866e-01
-1.286435816650272623e-01
1.940331456237820162e-01
-3.505951873088570814e-01
-1.878152015635171923e-01
1.779876261373426749e-01
-8.373998956949617323e-02
-1.811488966324277250e-01
5.757132365944556129e-02
4.030973923200400350e-02
-7.918332723117491034e-02
6.404684794710975293e-01
1.716777866634803529e-01
-2.547216277042080868e-01
-1.476724214688383482e-02
-2.675548051462638965e-01
-3.732757756295476681e-01
-4.046977682043045865e-01
-2.279930900297879315e-01
2.443971229934025491e-01
-5.102583104583199858e-02
-8.253209015987965358e-03
9.267484827080883780e-02
3.360714642153769804e-01
1.699553336197904829e-01
-2.121865479228859930e-01
8.638485941992503359e-02
1.381019749471487090e-01
-1.253852615728086595e-01
-2.183888132526591933e-02
3.299575178495511157e-02
1.167197174946721372e-01
-8.476880480516885835e-03
-3.049976539949460566e-02
-1.439349178055760771e-02
-6.371871343249808223e-03
-2.832158619842595204e-02
-9.234900450443542241e-02
-4.352809069788347862e-02
-1.417698421395457986e-01
-5.482471652177971222e-02
-2.965055772064141906e-02
-1.444242807942877349e-01
-7.766804657575421267e-02
6.919891519590023847e-03
-4.599987252166098939e-02
-1.067565100511194270e-01
-1.180559974139987062e-01
-3.077892948156930597e-01
-1.818475141630225000e-01
-4.779998155136472304e-02
-1.450083988392651402e-01
-1.692006648173196570e-01
1.594911084369695642e-01
6.478827667987901995e-02
1.239483100951439820e-01
1.467292790734251173e-01
9.245980972301820477e-02
6.598050395569134141e-02
-1.401840526948875017e-02
-7.250722904867562546e-02
-1.125564151942210767e-01
-2.157399061094361636e-02
-9.164864415728153635e-02
-2.047336118381112846e-01
-6.673661617411152935e-02
-1.921433958116702118e-02
-1.063943179917643637e-02
-6.527283392906869930e-02
-4.586574544542149773e-02
-2.028945801847067965e-02
-4.107545748541462788e-02
-4.053064796838698469e-02
-3.647568799205860163e-02
-4.697855050942999905e-02
-3.224768820606161400e-03
-9.138960681250815968e-03
-5.209334615364658028e-02
-5.778896165989739347e-02
-2.214606644592301971e-02
-8.474783600527878782e-03
1.504618014974349466e-02
1.300229941038818712e-02
-6.959701331410507973e-03
-5.219567257955638057e-02
-2.219928845893897051e-01
-4.370482072031603091e-03
-6.370505864993133982e-02
-1.148134752965899036e-01
-9.993529920176776049e-02
-6.149606761812469874e-02
-8.072309608515595980e-02
-1.526188706364413894e-01
-1.657512870951233785e-01
3.249803044411991165e-02
-1.134821897841643695e-01
-1.679922891650654226e-01
-1.280321490933109263e-01
-9.364207061402916865e-02
-6.149007003974844149e-02
-8.553792713086845467e-02
-5.416543762225833197e-02
-8.956681284249560712e-03
-2.745060391184864571e-03
-3.580203833052048035e-02
-5.361115635357380227e-02
-4.395333051852941958e-02
-7.188163463839466853e-03
8.147954273075751208e-02
4.573657363759067729e-02
-6.531370866944037623e-02
-8.569262595892192247e-02
-5.670666132977774526e-02
8.347527148372055339e-02
1.643959172979186922e-01
1.415847691595664981e-01
-9.173030795833377049e-02
1.250766088021540712e-01
1.065181887141916500e-01
5.666095259651203475e-02
6.538975630493473745e-02
8.001493685513581811e-02
-5.748217308857717783e-02
8.430804215091676490e-02
-5.556913629295945345e-02
-3.135449124575933472e-02
-8.998544104929756537e-02
1.108635890240081828e-02
2.914749019387477547e-02
9.112278367128967549e-03
2.874506097641073982e-02
-1.129729401027998320e-01
-2.586815253078595875e-02
6.251132773575837631e-02
4.730154083394912112e-02
8.576721703966777924e-03
-1.258674378786314996e-01
-4.658170981891379681e-02
2.852854977895825581e-02
6.326801207340615983e-03
-1.067003741399188271e-01
1.257638483682433639e-01
-2.229521544108269485e-02
6.691341483474406993e-02
1.281432563056268958e-01
-7.385689423677035265e-03
-2.197777494945736543e-02
-2.280019495719777176e-02
-3.201449572552621942e-02
4.964066549721558169e-02
-3.172806022663125780e-02
-4.175135692980910113e-02
-6.350430007826479706e-03
4.314218982754178255e-02
-5.174886404596902925e-03
2.863045195220411884e-02
3.596953107115630210e-02
-2.196989794559914624e-02
4.613734453845298560e-03
9.396738810951273113e-02
6.912840897264897755e-02
-6.773462427136520136e-02
-3.787108126044604756e-02
-5.033010233280218321e-02
6.105901827773852885e-04
-2.164864885351183710e-02
4.589628887336438118e-02
-7.735012710287242355e-02
-1.097739451152038720e-01
-9.638556196132269660e-02
-6.058597241165077909e-04
-8.368578648472728421e-02
-3.853384407349381285e-02
-7.204382905748796251e-02
-8.189383443964592946e-02
-6.234182843203446567e-02
-6.301430621650735975e-02
-1.684815782422671368e-02
-5.571042763128791764e-02
-5.544507210026194954e-02
-1.292848138156483910e-02
-7.963971508538417177e-02
2.100710834717472997e-02
2.690390391389502547e-02
-8.416451484903695462e-03
-1.435165228218957811e-01
-1.105056248023585652e-01
-2.722929603362565440e-02
-1.660435930347884670e-01
-9.770854759915656440e-02
5.210117617186775518e-02
-2.050342369993950892e-02
-7.981047194586440852e-02
-9.590091893446686666e-02
-1.624098896970757946e-02
-7.742401063520153170e-02
5.787700445214429001e-02
1.197821815397769919e-02
-1.379426553928220570e-02
1.963470570376758123e-02
-6.818645750425580965e-02
-5.485217692950612040e-02
-6.334189007801328819e-02
2.539945145419475123e-02
-8.868522409840545739e-02
-8.539399077756022749e-02
-4.662457177534652664e-02
-3.735341009460572959e-02
-4.637182774207673081e-02
1.434982260620566892e-02
-3.525038825751069388e-02
-9.491863167859758421e-02
-3.826248543636957822e-02
-6.135296595083933324e-02
-9.931185507534702472e-02
-6.115237597469396630e-02
-2.519875368747026903e-02
-8.989450449458064041e-02
-1.021127905097245214e-02
-1.319087764661501516e-02
7.685055646273998564e-02
-3.591750415163799497e-03
-4.814796221063856983e-03
7.327454319574051855e-02
-3.031829488102880457e-02
1.964271730765664373e-02
4.787611437011683041e-02
8.723111813073372578e-02
7.404361239454222698e-02
4.959710152008811775e-03
2.823930481535385454e-03
-4.175791280810794287e-02
9.365841885186123802e-03
-2.353169499338727752e-02
-5.030896432385212336e-02
1.579720686391837894e-02
-1.471221812620122082e-01
-1.631607920375055532e-02
-5.536678020963323871e-02
-1.420858239930574973e-01
-1.567432698566062488e-02
-2.772442238526544658e-02
-1.050153779879271082e-01
1.363541705031900420e-01
8.574168449172313300e-02
-7.586484201922714943e-02
-3.842312103785724270e-02
-8.011463761309288445e-02
-1.049014101794731452e-01
-8.701804932216034016e-02
-1.179085076525623471e-01
2.297144654879751391e-02
-4.151474278935213258e-02
-9.638824290649550264e-03
-7.994463805052744176e-02
-9.010266192215191094e-02
-5.369949211508699694e-02
-3.463100977062521374e-02
-7.628905875297692374e-02
-6.189936468794364488e-02
8.778739214320133502e-03
-4.381241782915833854e-02
-1.009719737144517820e-01
-3.146540775166611209e-02
-6.223400745045092053e-03
-1.373245759206079102e-02
7.184687079470037686e-03
-8.653181707522783483e-02
-6.515815857219801888e-02
-5.213192412552485056e-02
-1.653672071508575092e-01
-1.012319369526611251e-01
7.310239611317584374e-02
-2.178833162473663501e-02
-1.783826459564534159e-02
-2.656195626675711755e-02
-8.103741894157004411e-02
-1.721763711997265902e-03
3.769610398421441300e-02
2.218925591988459706e-02
1.380151791055377400e-02
2.341945459806012500e-02
-2.187508369389518439e-02
-2.700359223447757612e-02
1.344355175420144412e-02
-2.386769619357747771e-02
-2.566204036035682826e-02
-5.628250816483102575e-02
-2.961350479757118154e-02
-4.694186025461670464e-02
-1.027616676850937744e-01
-1.303705219863846021e-01
-2.813786006110397322e-02
-6.914075790360986462e-02
-7.904508697377952975e-02
-2.462543218033686615e-02
4.336468340213501388e-02
-5.056079351912996789e-03
6.442531253570010948e-03
-1.115470531559675533e-03
-4.815674299704474082e-02
-5.841639680160628373e-02
-5.794395898493916869e-02
-1.602540781148256710e-02
-5.751988320810053762e-02
-1.151923425990043354e-01
-6.830743722807408602e-02
-2.750725200696377271e-02
-1.574139483675662532e-01
-1.940867355793235785e-02
8.277619430095589301e-03
-7.497490641490826835e-02
2.655765984482813449e-03
1.065830648235123745e-01
-4.814733205032992180e-02
-3.380557439053066132e-02
8.431623699879031708e-02
-1.593838764780673711e-02
-1.524067498321919900e-01
-3.437907278476826090e-02
-1.228259138716748973e-02
5.875275315793535014e-02
4.403119124684167635e-02
-2.452978462454053279e-02
-2.870468096715859257e-02
-2.473684341736315240e-02
-6.016520774029360946e-02
-8.266414184817694188e-02
-5.374969212248239397e-02
1.151456167648895641e-02
-8.373276106633230700e-03
4.887421091092260250e-02
2.691648777304116082e-03
3.433080471621387936e-02
5.145843476792488769e-02
-3.258010053273957714e-03
-5.480743554759141779e-04
1.474560197409676386e-02
7.661369081093175916e-03
1.156739536703400156e-02
2.803655902762624066e-02
-5.250689714778621758e-02
-3.755419077716029563e-02
-3.438640807186991305e-02
9.122794858244943905e-03
1.344441214413164276e-01
4.266071971311724553e-02
-2.255676237164668668e-02
-2.448486220973014604e-02
-5.305117323964030768e-02
8.044096944556448914e-02
2.015117237898284269e-03
4.420279108492779219e-02
-5.457223374010692490e-02
-7.124896474394631918e-02
-3.841478246921153916e-02
-6.866891431705837712e-02
-7.362151277832067187e-02
-2.463239711006413174e-02
-1.708500578732452188e-02
-3.257457004687280139e-02
-9.626548602005238764e-02
-5.286597244155901570e-02
