2.257029847029759940e-03
-8.474963157013589918e-03
-6.619154924644186228e-03
-7.288739369177825271e-03
1.822777231870271672e-02
1.547132277785584313e-02
-1.251723610281516561e-04
1.593041624847679402e-02
1.204487851410292274e-03
-2.240048082945020683e-02
-1.447827165327375369e-02
1.634417290261712397e-02
-7.215312216470548719e-03
1.876259193752453230e-03
4.557712510073368140e-02
5.156121051300545897e-03
-1.272296112935238609e-02
-5.086688725443871441e-03
6.661074303971314600e-03
7.494107778880533706e-03
2.326361821585252662e-02
2.939264259691462588e-04
-2.995550353827494249e-04
1.845872502855921624e-02
3.102452587949867946e-03
8.830674505891705425e-03
2.666301114906132960e-02
-1.175031406512416256e-02
1.498051892985930887e-03
5.562734171658050356e-03
-7.806950953287089025e-03
2.388892724377319511e-03
1.072193357834704160e-02
-6.633176008445232537e-03
-3.336958156399977716e-03
2.132422685656450590e-03
4.685720207328389689e-03
1.413451457392414339e-02
7.635674098887578094e-03
1.233941570978094350e-02
-9.666924292820257975e-03
-1.235762408366496319e-02
-7.702069266205763785e-03
-1.161408115269253055e-02
-2.449059561779453817e-02
-9.451508710843282632e-03
-7.967736977028164538e-03
-2.205377764716381483e-03
-2.871990226240826033e-03
-3.700801552194028440e-03
-4.458387327354922320e-04
-6.582859020969358994e-03
1.924983025097362285e-02
1.237769244250814041e-02
-3.539744263040919391e-03
-6.334274270596467089e-03
-3.742168471199916469e-03
-2.855160362336190815e-03
-2.574943825501480109e-04
-7.452808042429962324e-03
-2.662486497865862185e-03
-1.020241256820678642e-02
2.389257158050030628e-03
-1.280012811097231773e-03
1.051517546157239823e-02
2.637738176867385469e-04
-5.546623456867564922e-04
9.574492293796428577e-03
-1.980125959463516563e-03
4.937650986981510434e-03
9.944555780136541193e-03
6.712449944858174880e-03
-6.797685804890770712e-03
-1.868260666883563405e-03
-6.695593461450490350e-03
1.569271676219245650e-03
7.786392246296456807e-03
-6.656424341573420785e-03
8.548988614741804756e-03
-9.033205825860597671e-03
-1.260844233710330456e-02
-8.613368516666374333e-03
-1.505608176952161897e-02
-6.288521682830112806e-03
1.283921589347895680e-02
1.766505081283456719e-04
-9.014214500561466836e-03
-1.072797874073020243e-03
-9.814624718153194122e-03
5.282919251293961838e-03
-7.048793703874205695e-03
-8.407112367663532870e-03
1.352500527739324433e-03
-2.988430904356952859e-03
-1.264068996365553046e-02
-3.653102571716551790e-03
-9.793274397845663781e-03
-1.182730294959273391e-02
-9.789316331261177506e-03
-1.391274453629047503e-02
-2.571264418635432064e-02
-1.980805390588987955e-02
-6.787941587913123159e-03
-1.921994668981132862e-03
9.801463697819746274e-03
-5.750771806013806053e-03
-1.244796835309242879e-02
2.255125496232185042e-02
-4.324954321859196191e-03
-1.289477375406725829e-02
2.165546854416258195e-03
-6.803449983630622741e-03
-1.236909582188421182e-02
-3.854210382069948870e-03
-5.530006760253228931e-03
-9.259271955514311245e-03
-9.637173829173216813e-03
-2.021212211724942578e-04
1.446237811982561614e-02
6.989161791723842330e-04
8.626265454628292625e-03
1.231988629024158462e-02
-1.373418471261596914e-04
-6.719502634305194767e-03
-1.643778820193130333e-02
-1.773050648070780000e-02
-4.820193274836149025e-03
-8.156186157351710819e-03
-1.189552831337856859e-02
3.324177414681532051e-04
-1.353803277767964656e-02
-1.228018097751736037e-02
2.446844016315268683e-02
9.538990749895162255e-03
4.173890332176562168e-04
-2.617639607000904999e-03
-1.191387337629809182e-02
-1.136229192119054925e-02
5.659852048282302574e-03
-1.122961059975714423e-02
-1.823397297278623458e-02
1.465426459629698940e-02
7.990009472977076949e-03
-6.831122224646675792e-05
8.327418012115114093e-03
-1.637712256574582262e-03
-7.817230306782406435e-03
4.129202947064009033e-03
-6.491745743675999408e-03
5.049756700152503545e-03
-5.175015616818747811e-03
-5.050411624433897260e-03
-1.294142105290835591e-03
1.016749770970211061e-02
5.205786706015277931e-03
7.539705931276017084e-03
-9.106472839017778001e-03
-1.967344267048533324e-02
-1.076803052952587242e-02
-2.131179385851289174e-02
-1.007264882881404172e-03
8.697574877981797958e-03
6.887125011214531058e-03
-4.931148856462656653e-03
-2.146479473394127032e-03
8.303106166460302558e-04
5.708921721900967437e-04
4.735094526370850357e-04
-4.536230571111867144e-04
1.095089172686785316e-02
5.537829936427422772e-03
1.054555000467983887e-02
1.179452990475411168e-02
6.258027563224842840e-03
8.307044796582244151e-03
8.554557583792620976e-03
-1.187956168192999019e-03
-5.147549571318385357e-03
9.397347951633323263e-04
-1.843234319964340414e-03
1.872360070353292286e-02
1.352932651005505846e-02
-7.191710224230407492e-04
2.213067949008272885e-04
7.753962719806720832e-03
9.766986582254117495e-05
-6.318796930965858878e-03
1.195629556846061238e-02
1.415350526542558281e-02
5.134798829357345266e-03
9.984014968090499514e-03
2.846293743895609348e-03
-1.626239314139720990e-02
2.131677043798789126e-02
1.133925126243933226e-02
-2.180292157712987108e-03
1.859385175275298299e-02
1.203955757121544755e-02
-3.497373619757321219e-03
-2.935674007034043149e-03
3.113818059422811691e-03
6.563111786289961905e-03
-3.144427530207966059e-03
-7.635595296707912809e-03
-6.084225236289918584e-03
-7.560431115793662688e-04
-7.543281184054734766e-03
3.886526881304669823e-03
-1.978363156817081799e-03
-1.191847263488065353e-03
-2.113592767502798803e-03
-8.153405898144247413e-05
3.102768641732114602e-03
-8.597905543116776466e-05
-2.286327145327257497e-03
-9.960629312129115013e-04
-3.974790604176276464e-03
-1.647363263038376232e-03
-8.174560586230948103e-04
1.710134480788535593e-04
1.490976217809293798e-03
3.501360418503829917e-03
-2.698385010388011391e-03
-7.114835423346336195e-03
1.083698560572071961e-03
3.236671080051472388e-03
-3.911638579646371100e-03
-3.442473007375282824e-03
6.855011327241143301e-03
-1.927319414654759134e-03
-2.099092955178643964e-03
1.485726999693924924e-02
6.157495418435558580e-03
-4.271552429752061703e-03
6.381534451805410046e-04
-1.702368240773643321e-02
2.360837669555497596e-03
-1.370308721760822590e-04
1.018271561481092803e-02
-1.265617934544227942e-04
-1.892505541248956299e-02
9.261959680258790651e-04
1.084044402845826989e-02
4.796930364361051344e-03
-1.485358911121192373e-03
-1.343048153472099944e-02
1.970215898756546603e-03
-1.485987849697227104e-03
-1.153296793537835797e-02
-3.033389132349746230e-03
-8.471144103389475696e-03
-2.199929745391725113e-03
4.574679485545300912e-03
-6.442543606339776359e-03
-1.498880836986867492e-02
1.433411859362110352e-02
1.055334001210816823e-02
-1.188134899142050289e-02
-9.812329102913961484e-04
7.164839314762523441e-03
7.957471567082064282e-03
7.238669562801703337e-03
3.586582334987209464e-03
2.235459810189116287e-03
8.419114594550709124e-03
7.768953302810125382e-03
-4.968423132507527110e-03
5.755469937036266324e-03
4.792527371797012867e-03
-7.669521853345377324e-03
5.697069282534922459e-03
2.609708685219127178e-03
-8.814510552095120716e-03
4.420460450953528179e-03
8.539054892254346494e-04
-1.422908141483941822e-03
-3.483857461450640212e-03
-8.492244707406490511e-03
-1.092815106569069300e-02
-4.611617637547688400e-03
-1.618541418642580748e-02
-9.704703071827700325e-03
-1.661764519821476091e-02
-2.404425415673001193e-03
9.520860966924910278e-04
-1.666490537942370495e-02
-4.544087761095513475e-03
-7.801698249284416166e-03
5.859790290628668838e-03
1.054616542223845224e-02
-2.302740604148464064e-03
7.075682570943352405e-05
5.956874787241159437e-03
-4.715472994900301099e-03
6.071981321216318901e-03
2.487969458400629986e-03
-9.024424770108389893e-03
9.325999232822932555e-03
-7.803618656290180200e-03
-4.043678075284010674e-04
1.476298836498522553e-02
2.449871456622484348e-03
-7.346154468268620633e-04
-1.951961680172829621e-03
-6.493957697619931295e-03
4.096057440448581423e-03
-5.119202335760702875e-03
4.495810757123232422e-03
-4.580313313226565264e-03
-3.088202703182129239e-03
2.228863877611894813e-03
-1.655226685365991266e-03
-2.840033301563179430e-03
1.415241302073693558e-03
-2.909276966973632379e-03
6.899508150514400799e-03
4.469160831783845593e-03
3.782316174712926828e-03
-1.002128015970178872e-03
8.429740212851574710e-03
-1.708153651736166135e-03
-1.955407215690651082e-02
-3.123867555621949281e-03
5.911971065849849251e-03
-5.060129433174393072e-03
1.414466167496779812e-04
6.176298717086159754e-03
3.108160147429263678e-03
-8.339811292178051644e-03
-8.564709966483707295e-04
-8.102119833997809689e-03
6.089327518973767887e-04
-8.916884935508195137e-03
2.335607662311350689e-03
-1.068458134518609701e-02
-1.381544475972871361e-02
-2.022729629031751880e-02
-2.110185893644169267e-02
-1.725565341921755230e-02
-3.087145739898318475e-02
-1.138081825024989113e-02
-1.696720363910213247e-02
1.691575109742868288e-02
2.081720666082887208e-02
8.088138256919544591e-03
-6.369697012318068993e-03
-4.487386952003231971e-05
-8.173237850448430292e-03
-1.015555696119102742e-02
-1.027315748908291110e-02
1.264276227084139802e-02
-6.900858984661249404e-03
4.851055842166176156e-03
-5.354374025584758556e-04
-1.127393841031262313e-02
-2.455242680793500083e-04
1.421566603036571392e-03
-4.211287776239513829e-03
-3.369363176045635754e-03
1.198146219593559242e-02
1.051113648014927529e-03
-1.056535892900122703e-03
1.891976742708205341e-03
1.808251645106655550e-02
-1.619785563511331019e-03
2.506793883640954027e-03
-2.510002801353884943e-04
-5.866174323510974994e-03
-7.584397752972412386e-03
1.675640041419334701e-03
-2.123393603740903954e-03
1.667923131991444334e-04
-2.108272458413014156e-03
-5.669753447087486423e-03
-4.624531265515487502e-03
-8.228398108618157486e-04
-1.156461007386914118e-03
-3.832224785209466852e-03
-3.917335787096802753e-03
-4.044975036627066964e-03
-8.173750170249198879e-03
-1.052942682520141820e-03
3.984332217158488391e-03
8.117302668967686652e-03
-2.593551280665355469e-03
3.952758317552508387e-03
-1.275469601357205130e-03
-1.378092306705876874e-02
-4.603222142057915474e-03
3.148775593638726642e-03
-2.797257239022809400e-03
2.075054593227787861e-03
-2.513866643348209359e-03
-6.482983490588646418e-03
-1.166075929635462284e-03
-6.299721310573736313e-03
-1.110770172642317616e-02
-1.067586155654408515e-02
-1.571978414894475637e-02
-6.347840498920790525e-03
-1.022527407347715786e-02
-4.064503822368734868e-04
7.068490023472372673e-03
-5.191911395683316416e-03
3.868103650003173587e-03
-3.714112782580402707e-03
-9.629016219083717104e-03
-7.196088287418574841e-03
1.673459988625883299e-02
-3.457814291768079341e-03
-1.154789534987849149e-02
1.193362673768850850e-02
-3.085950608717724294e-03
-8.847329864165233426e-03
7.815082577671229533e-03
6.701983409777918094e-03
9.530283848472882735e-03
-4.938878019312585230e-03
-2.578909920190060757e-03
8.814156259185476974e-03
-1.467622357365442470e-02
-6.404594758285069717e-03
3.395218952877358809e-03
9.757903838800676549e-03
4.318484092490822331e-03
-8.771568645825430013e-03
2.306895359283265765e-02
6.105917596085054348e-03
-4.784820814398085820e-03
-7.397273421090355509e-03
-1.034370297495205634e-02
-1.934257597985482996e-02
-5.383183933457360605e-04
5.039448191963369870e-03
6.442283115488498142e-03
-5.589626630247450899e-03
1.451312841365669411e-02
7.776130850402403899e-03
5.275693957608911574e-04
6.986930823849159602e-04
-1.437357672524557529e-03
2.072095708704221103e-03
-1.220229484678327959e-02
-5.930100215022410248e-03
-7.002495416295322073e-03
-2.944745764660828928e-03
1.313063459324805698e-02
-1.561233431361678040e-02
-5.704449222856741199e-03
1.580029335705876795e-02
-9.814361480845253116e-03
4.874169598917833107e-03
1.461702053127542263e-02
-2.370729772661202966e-02
-6.269347189998088806e-06
1.921729952811911460e-02
1.419241199305829905e-02
2.024817992425808136e-02
1.923060927964420977e-02
-2.481591552229343509e-02
-2.647956051986609730e-02
7.429286542496663266e-03
-1.270104313757901629e-02
-8.360539434418256741e-03
1.286221514411431746e-02
2.982221799637548021e-02
7.038364140325962734e-03
5.933592862835312867e-04
3.486213921268273199e-03
6.780366437902269477e-03
-4.815102400510749489e-03
-1.100421418299762921e-02
-1.199197837850169562e-02
-1.616831009938657360e-02
-3.260348916748716588e-03
6.895711491075393572e-03
1.864204784188662825e-02
-9.787594091667009208e-03
-9.721700258322935745e-03
-1.357627401773611048e-03
2.908414157049371215e-02
1.386042453684302282e-02
1.259114430797042203e-02
6.048092641153644637e-03
-6.302600442221100233e-03
-2.226387524397587317e-02
-1.918706949088537506e-02
-9.221975496550231799e-03
-1.692989196899345739e-02
8.902806176117206843e-03
1.036064988016375393e-02
-1.719556939804712734e-02
2.085896019642667978e-02
1.324030293176278045e-02
-1.133341968987826472e-02
-1.983769873658830854e-03
-1.238497245406057143e-02
-9.504399339479135955e-03
-5.767189278887059969e-03
-1.888463602103272049e-02
-5.385896587577713307e-03
-8.879034114829802843e-03
-4.400886243043957043e-03
-8.651357505241552516e-04
1.069206142554320060e-02
-5.853995900865514640e-04
-1.230192742138218678e-03
2.710965472035888751e-03
-5.517798760382157386e-03
-1.116711814735837222e-03
-7.385852175420544452e-03
-1.114729654708315233e-02
-3.117404720559978706e-03
-1.538828725214283271e-03
-1.728654049339165824e-03
-1.413999903661607160e-02
6.024663675683330881e-03
8.541084312463076682e-04
-8.824951101470019169e-03
1.625581854667560756e-03
-5.903678034320230562e-03
-8.403242610224086542e-03
1.480834926577812813e-05
-1.021214009517855577e-03
-7.919493353067644237e-03
-9.184200309063045124e-04
-5.242435001206674668e-03
-5.252562877053681967e-03
-4.320184149165781640e-03
-8.344981391214909006e-03
-9.793978547081110507e-04
1.632983555376793289e-04
6.617152123938505569e-03
-2.136581666109196691e-03
-1.078897120525868641e-02
-1.333731116138637575e-02
-8.307464581920026570e-03
2.306190998781921814e-03
4.460470409101548878e-03
-6.219314355153981837e-03
3.647936486731740910e-03
2.692592099486137373e-03
4.189821682220304377e-03
-7.031229057179026222e-03
-7.765500584251797817e-03
-6.525147938356553289e-03
-9.146226742898364709e-03
-1.951229432573052102e-03
2.921460248734729283e-03
-1.073362101904735532e-03
-9.030217258478469636e-03
4.946707744729593806e-03
6.704873949783733515e-03
-6.898805480140234904e-03
-1.110165593024232435e-02
1.427157755006596817e-03
-6.851568115648192132e-03
-1.127512931617527352e-02
2.289445007438484919e-03
8.393082833226598021e-04
-6.309575808349735665e-03
-7.722055020083126373e-03
2.823089776605837778e-04
-1.503603981891559653e-03
1.135033131368512645e-02
4.698243838449914049e-03
-9.942678682639707714e-04
-5.394425391848633837e-03
4.215453728466867639e-03
-1.837309367876701401e-03
4.884961694745711645e-03
6.711189955047133608e-03
-5.623129387495083911e-03
-1.953841946658120381e-03
-7.817657275160695435e-04
1.171443731298942720e-02
1.543873814729595194e-02
1.367244322543191039e-02
-8.802625279102372843e-03
2.051226715148732685e-02
6.849520669577062633e-03
-2.194199805179872925e-02
-3.955671215905356974e-03
-2.261829577837414645e-02
-2.997591821269378690e-02
-3.515268870257304366e-03
-6.177953800160554051e-03
8.256068626814142344e-03
5.513924744803252835e-03
5.387624894362197728e-03
4.960602333795145757e-03
1.523851381464055160e-02
-1.916993225508478943e-03
-1.091369978667891191e-02
-9.030212808836698274e-03
-3.876794240873849325e-03
1.087800837287874545e-03
-9.814733686160261386e-03
-8.741689050102549249e-03
-6.659789721195059561e-03
-8.579148650492834927e-03
-6.858928259292912041e-03
-7.042268468231083212e-03
3.461996501423657215e-04
-2.606248014849826908e-03
2.696929657308300924e-03
-4.696952407395606731e-03
-1.376842724415148697e-02
-2.020941266593649557e-03
3.516000561486690938e-03
-9.017599024478538394e-03
-5.568030265560833594e-03
1.387346254758002259e-03
1.998061971710059920e-02
2.143658894013601365e-02
2.079185869963685526e-02
3.675541724254183587e-03
-4.521829780822781211e-04
-1.133684097112819082e-02
-2.561707503836885280e-03
-4.991705632607028320e-03
-1.901902369112218024e-03
3.577862963336551818e-03
-1.766782960647937878e-03
3.556722627698731109e-03
7.330503440105888731e-03
7.589379209664939320e-03
-2.031420523428567344e-03
1.356926155201603444e-02
7.823327205760633937e-03
5.025817525395711444e-03
9.614446238714761950e-03
1.293518229929229314e-03
6.565196796482807365e-03
9.948894080066867859e-03
-6.545566995923106195e-03
-1.853968337292170648e-04
-1.487938332005640059e-03
-1.042659084509962863e-02
-3.759480909092614278e-04
6.177519702505405649e-03
5.884157938247763439e-03
-6.280400479828956301e-03
3.473080119068404793e-03
2.332625401195193449e-03
-8.011083248326909823e-03
-1.738045182152124458e-03
7.063519254751573877e-03
-2.037415878068154010e-02
-1.714616568426814008e-02
-1.398145066912434564e-02
-2.274348433147909895e-02
-1.255214836227128324e-02
-5.448282427530167123e-03
-7.746223132521896232e-03
-3.903424095464340382e-03
2.812062042839857251e-03
7.022616100464457688e-03
-2.219326647094552619e-03
7.274812527193561668e-03
1.806210072823615648e-02
1.618965003194611577e-02
2.044273006455089511e-02
-1.210819452536765310e-02
1.507492266385964752e-03
1.484946617565725303e-02
-5.588985293239355414e-04
-5.326570875550622544e-03
2.193218406888501279e-04
4.777127638981562043e-03
-2.186189914507521634e-03
-2.447814113007447129e-03
8.084580788341964039e-04
4.392513263582934792e-03
-4.393219818980218785e-04
-2.615433785434198924e-03
8.137506943196209583e-03
2.089350066573151393e-02
-1.192215450789376949e-02
-1.896200828498394164e-02
-3.734484883588804708e-03
-1.184742769725762902e-02
-1.357570806732088034e-02
-1.142581502826271744e-02
2.465843476607784603e-03
1.753025037246033584e-03
1.729968507225135288e-03
-4.437781245941042180e-04
-4.000675730709451691e-03
-2.011869616356488748e-03
7.288971890016202222e-03
4.723379524070232295e-03
2.306854201307192000e-04
-9.160756578492131735e-03
-1.449129524605045558e-02
-1.582258432029301498e-02
-5.428573733482843595e-04
-8.582119082038413421e-03
-9.941138483287176308e-03
-1.150449238442321880e-02
-2.035887362613785292e-02
-2.192233889552270415e-02
-1.536090605229237065e-02
-8.551796828753989443e-03
-5.796627998883171866e-03
-1.417046662234062136e-02
-1.187673938000758517e-02
-3.096088872779554236e-03
1.271206179221641419e-02
1.214117750739043475e-02
-8.795815303334782870e-03
7.957248534052422176e-03
3.632259839578652356e-03
1.323886590035606471e-02
-1.987326769723438396e-03
1.365143994429467893e-03
1.427360426218201098e-02
-6.857697153939555819e-03
2.794687678660008525e-03
-2.831173715006431754e-04
5.017965238225377458e-04
-4.659985854667598147e-03
-1.019919743003949893e-02
-2.831819357292342156e-03
1.867381055817422071e-03
-4.588071321655339506e-03
2.051192148792761044e-02
1.337373963816935324e-02
1.564907919368966824e-02
-7.286149704838062492e-03
-4.693512100915608713e-03
-1.876333723666855427e-02
5.852929877641502646e-03
1.479579566992095425e-02
-8.683253194240658432e-03
-7.317741592853518884e-03
7.712508092323273889e-03
-1.260976702837999022e-02
-2.124452531314557913e-02
-1.291885630113168149e-02
7.738605324135703484e-03
-8.675930410803528448e-03
-1.161152974770508425e-02
-1.563847627589973199e-02
1.023498369949803893e-02
-7.137062663073384184e-04
-8.759088917060954896e-03
1.099442213542786489e-03
5.815534731455156668e-03
4.405426843194057591e-03
1.995519399729909181e-03
5.963601478604331962e-04
2.661227785534194500e-03
-4.756544878480679288e-04
-3.366155775294389901e-03
-2.279920515052743027e-03
-4.316578098273591256e-03
6.721748079542655060e-03
-4.938666641718159923e-03
-3.334494350925888521e-03
9.843157358491404912e-03
3.549289576852155629e-03
-8.159123024911713431e-04
7.519938262699470133e-03
4.201829905679430564e-03
9.675054784531114324e-03
-4.425027471510660591e-04
-9.423055041101384074e-03
2.509101876710256862e-02
1.536784776183696549e-02
2.845524807351316673e-02
2.608417769232657460e-02
1.534568236127974161e-02
1.160147082803328518e-02
2.098584200700168417e-03
-1.397412715179430654e-03
-2.780371813174713127e-03
4.747021517158576086e-03
1.502720586434040141e-03
3.626999662159765929e-03
9.952306131669903452e-03
5.430126467403179925e-03
1.489223488571678709e-02
5.884205824760018085e-03
4.130627065314813884e-03
3.843245060472460280e-03
-1.082244717553792687e-02
-1.143568808955553557e-03
5.516819401906070987e-03
-8.194861040911544450e-03
-6.257045255394456593e-03
-2.293999241392105214e-03
7.257581822550475577e-03
1.333194535441856220e-03
6.665683248193645261e-04
-5.177390629386614471e-03
5.726809464016479993e-03
6.770740017989744378e-04
-5.092961020612339108e-03
-3.413746161760214219e-03
4.753865068526711129e-04
1.609328438891432372e-02
4.562795499480313578e-03
2.584095824364948495e-03
3.054769601213538736e-03
7.713966154058463304e-04
6.682393989711335469e-03
-7.252003135609469756e-03
-5.624413606431963655e-03
2.403693572211172040e-04
-8.516534008412159074e-03
-3.023500442604423310e-03
-2.235455961955790452e-02
1.121781106383488470e-03
1.911252348234779991e-03
-3.640463294505517661e-03
-1.568374095573975280e-02
-2.245507359225279789e-02
6.672537441008948196e-03
5.676156542445107839e-03
-1.360972216887955952e-03
-8.352641778065704806e-03
9.314752262972710375e-03
3.164729693001955540e-03
-7.510500950320842667e-03
8.298119773082771045e-03
-7.903022287911459429e-03
-9.419011474650918966e-03
-7.628832375038855328e-03
-2.723188712506968874e-03
-9.926688131926470968e-03
-9.067583002664166350e-03
-1.323248616930585396e-02
-1.338552045407680538e-02
-8.948567956702249910e-04
5.056862112774945274e-03
-4.579150669884022966e-03
4.640326514918345115e-04
2.704815887025635406e-03
9.214556065907030316e-03
-5.560050464497715006e-03
-1.129793822543535831e-02
-1.070995790531493325e-02
6.223777706396553880e-03
-6.966948488651963228e-03
-1.160754085627627163e-02
1.814729285174196058e-03
-1.373405592021978601e-03
4.574574664128723349e-04
-1.051005648553909877e-02
-9.219505806625784630e-03
-3.417194724535427882e-03
-1.354306891412554968e-02
-5.725891180515205528e-03
-3.266208734871013479e-03
3.702767866832514659e-02
2.642405634119870256e-02
3.833993789946038653e-03
6.639635187206059099e-04
-1.608815080802208572e-02
-2.037005815405746809e-02
-2.717037405624408986e-02
-3.158407756018259682e-02
-1.085690638314537430e-02
-1.337133925794014916e-03
1.455313856668470499e-03
-3.962414407418308332e-03
5.517911434553339836e-03
4.962504584212969628e-04
-4.109363435668430577e-03
-1.692193498069551516e-04
-2.286954328157306347e-03
-3.005754728613070723e-03
-1.153321695284668762e-02
-1.067094232358747723e-02
-1.519311519934480117e-02
-4.956115679501408786e-04
-1.217310001416099623e-02
-1.470130237117097879e-02
-1.674757193328258375e-03
-8.248177810266130866e-03
-7.921617299470723114e-03
-6.251654078091472460e-04
-5.654254425968668375e-03
2.523897341211002801e-03
-7.746649707774735938e-04
1.219006248094616808e-03
5.912035043835588968e-04
-2.481917199081233420e-03
3.948748037156691107e-03
3.231499269781900469e-03
-8.143964466894679233e-03
-7.292360640519405211e-03
-1.130630313680200741e-02
-3.943823615743265350e-03
3.818453974563240736e-03
5.814789463206970072e-03
9.487217096378811445e-04
-1.081098450220614000e-03
6.654497435961443698e-03
9.863387299976713110e-03
8.587534110860911346e-04
1.672604391871605409e-02
2.744252539809118735e-02
3.348190443850284498e-02
2.560265220799219990e-02
1.085661906407184817e-02
1.222374779848201150e-02
-1.675764094398186910e-03
-1.516368976319408925e-03
6.416998682503079372e-03
1.283837943956049089e-02
-1.053011561345004385e-02
-7.832367115129520302e-03
-1.407014162706956943e-02
-1.547525023684061555e-03
-7.406294945878470933e-03
-4.471921210133460341e-03
-7.244748604212792285e-03
1.343250427805407765e-02
1.748375275253468905e-02
-3.646996409173522326e-03
3.746388993504820748e-03
1.793457032286142894e-02
-1.758406306994758075e-03
-1.486924899288829573e-02
-9.160660805467624179e-03
-1.534980060133360642e-02
3.683842786937827941e-03
2.332982440094989469e-03
-5.969945432375270943e-03
4.066243007432683576e-03
1.198720310580419363e-02
-3.375155870973009769e-03
-7.948858303380441914e-03
-8.630079717476381394e-04
-1.488863220543086910e-02
-1.013963321383138869e-02
3.724300651702947516e-03
-2.200184518372291440e-02
-8.696100723490052600e-03
2.752570115083195334e-03
-1.490367242321647204e-02
-8.032291652531957718e-03
-5.837711323879230495e-03
-3.161492124437823448e-03
-3.197553603736904334e-03
4.610817965395788828e-04
-7.746646955676331084e-04
-4.875569098103948312e-03
-4.954053440429617185e-03
2.767850682796202909e-03
1.327524203623949581e-03
1.169781335343847390e-04
1.068746959187813830e-02
6.511932683944375751e-03
2.317795443727766001e-03
-5.245382504805018789e-03
-4.847533288174742973e-03
1.174709169359295377e-03
-4.498351812799400093e-03
-3.299971478108663404e-03
-2.973698286386779188e-03
-1.194906452610192994e-02
-5.579560273566939836e-03
-4.119005687641647852e-03
-1.062071377559022090e-02
-1.439414342024084893e-02
-3.261465401532664173e-03
-1.316404551837414144e-02
-2.149462060447875859e-03
4.376676771992033151e-03
-1.043671599860638254e-02
-1.940615770434757793e-03
-7.227442675546625304e-03
-6.287644553251693809e-03
-6.435410587781771087e-03
-1.101815623207617716e-02
3.756054913524324319e-03
2.033145905655536333e-03
4.635459704098206582e-03
3.265999575392202099e-03
6.910062247665551063e-03
-3.933160702208092670e-03
-4.937310407623971128e-04
1.288389621161444877e-02
5.149770019370173996e-04
2.487906682577555040e-03
3.020875674618564259e-03
-2.712017945079382968e-03
1.998889344227341644e-02
3.120012497271386007e-02
1.582897102332585237e-02
3.342191603219384598e-03
-2.862946324150511014e-03
-7.893043912986326058e-03
-1.257116352752044031e-02
-1.308887176695696167e-02
-1.178441748689948269e-02
1.529357046060704321e-02
1.391537572198192803e-02
1.928370216843243792e-02
-1.003958452924023914e-02
-1.580053267313654818e-03
2.419664549677484709e-03
-4.507017987204829483e-03
1.333756330463015463e-02
1.943520518565061694e-02
1.879744215747461162e-03
-7.099778151242936743e-03
-1.400759248493094276e-03
-4.855320442349483315e-04
-4.584478915870136145e-03
-7.658337622043325790e-04
2.296161381636013712e-03
-2.685668437579790541e-03
3.664806522267561716e-03
9.484123737771122525e-03
6.056218213188267752e-03
8.547987741087666007e-05
-3.706245785324053556e-03
8.560615836357533077e-04
-2.967979425900324052e-03
4.253932265744321713e-03
-2.337416070626115346e-04
6.491030863501692956e-03
-1.767196692774885419e-02
-1.040975644262692040e-02
-4.477378804744628423e-04
-3.615352047815135160e-03
3.071970216247391777e-03
-3.695393710891814541e-03
-2.704720480947580565e-04
1.553969520783411880e-04
2.047185643934155280e-02
-7.229611329090093221e-03
-4.218086184013771466e-03
7.169522746399137596e-04
2.290867555227290783e-02
3.150567578080908614e-03
1.042520011803875664e-02
2.076514206220998054e-02
-1.273405032458278276e-02
4.790957483888461620e-03
-1.012593271754954304e-02
-3.178114798806539257e-03
-2.665079805935642219e-04
-2.364721473638523030e-02
-2.630109808864150231e-02
-9.766136765570962441e-03
-1.547584377273004963e-02
-2.054447605996527829e-02
-4.685360385438765499e-03
-5.233124658507293638e-04
1.363350543635271500e-02
2.231026000889205219e-02
1.848988323490955788e-03
-1.396546648158568729e-02
-4.205604683852300248e-03
-5.963180774494757606e-03
-2.316996234350832823e-02
-6.294318758831282667e-03
-3.102896830341646522e-03
-1.917568414075210975e-02
1.701947558627319397e-05
-6.682553611418847773e-03
-4.142606399253910381e-03
8.259402702295691109e-03
-9.169057457702549027e-03
-7.527286732388385401e-03
1.006870741803958351e-02
8.033028481011702041e-03
1.047665646887128293e-02
2.838361095202017112e-02
-7.160786485220982898e-03
-9.631569794993263475e-03
4.961745005053075190e-03
-9.355067569040429257e-03
-1.089770055433563617e-02
-8.759462468551183073e-03
-4.554900463048082264e-03
-3.575160769648886693e-04
2.847150563616009447e-03
-1.075639571296856806e-02
-3.665558945971602450e-03
-6.105168136266368208e-03
1.910577900652226085e-03
-6.144616531336381457e-03
-1.217833450532809954e-02
2.073603586947429279e-03
-6.682211617323668279e-03
-1.107899522026567496e-02
-7.650067015915367960e-03
-1.041476416088541780e-02
-1.277122732110219346e-03
-8.869552642857563354e-03
-8.313099077756997898e-03
-3.447328000396014322e-03
8.234883156762472928e-03
-1.849884406731759591e-03
-6.663771090221561749e-03
-7.783215921921370420e-03
-1.300204031016766529e-02
-4.977206660841159216e-03
-3.757953311004380743e-03
-5.127288677916007863e-03
-5.738097287362908805e-03
3.767708032065766096e-03
-1.099809343470068909e-02
-3.432964982291372529e-03
3.668557448920917608e-03
-8.045768861896509042e-03
-7.073701651905162395e-04
1.693061766769137985e-02
4.667625863314261124e-03
8.004341524599774965e-03
-1.114715020338290577e-02
-1.276059302939043689e-02
-1.104164043818927667e-02
3.267289392178206620e-03
-2.244340836447837259e-03
-3.906382601250163282e-03
5.606665323815432844e-04
-2.870433683072287027e-03
-2.006597513177845946e-02
9.711892355580522456e-04
1.785379623466245430e-02
1.109530397194294707e-02
1.779662781185287201e-02
1.089890046924039783e-02
-2.604524650828354739e-03
1.320907975584101335e-02
-2.416630085975672668e-03
-1.011146089982127528e-03
-6.529410343551041163e-03
-1.562060524969431825e-02
-4.353905175892709180e-03
8.163891677555391510e-03
7.265602171196768044e-03
1.608871315346292741e-02
2.216241177835626477e-02
2.454108712480315702e-02
2.540592670977621578e-02
1.680046542990241976e-02
1.326591242264513540e-02
1.355395805014964752e-03
1.369947066650537178e-02
1.255407483115507372e-02
-5.446440539804035330e-04
4.772023964225330893e-03
1.076838495446192506e-02
-1.153883673779054590e-02
2.582526124695241204e-02
2.788912191706489213e-02
7.742900152133525655e-04
1.591542270923352112e-02
-8.655031656969574758e-03
-2.021994043181289669e-02
-8.837496704795786209e-03
6.491464248117268876e-04
-6.792331025133416592e-03
7.154648106418375411e-03
1.862844843955182086e-02
1.910874232613967577e-02
-7.993903596301732070e-03
-1.522472581340916439e-02
1.292549273557590033e-03
-8.239776587320547102e-03
-1.488289733312834345e-02
-4.436952641555088651e-03
-5.771284313752756204e-03
-1.642529816208870841e-02
-1.025195798845992060e-02
6.745820033624440500e-03
-5.128275022389027979e-03
-7.663094907229548933e-03
9.327804809346787809e-03
4.749020397472916949e-04
6.416893150337723076e-03
-1.826795024653366352e-04
2.653546718628360061e-03
5.169863502225249471e-03
1.194757662901968671e-02
-5.283571510719389450e-03
-6.208942448258257182e-03
9.588972108157421681e-03
-6.129671540990784886e-03
-5.289760491154908532e-03
5.616335624609138100e-02
3.438076513876897611e-02
3.808155329055096239e-02
-6.612562943202503728e-03
-8.190340576974725756e-03
-1.703155827179654233e-02
-5.646292297373363585e-03
-1.251540705044411513e-02
-4.657199382575132919e-03
-1.530742821631327771e-02
-2.381666282321748176e-03
3.191881554910671812e-03
1.614970835981376432e-02
2.511705907375811481e-02
5.472035863880867976e-03
-1.647528253274381169e-03
4.383798777833729232e-03
3.660098414565728618e-03
4.745919172682045448e-04
7.013348090612164451e-03
3.985329770048045422e-03
-4.222950787152835589e-03
2.086068340094279078e-03
5.555555271983335375e-03
-4.702688195041901040e-03
-2.090798778051702108e-03
-6.658761192206688953e-03
-2.687767944497738027e-03
-1.806864378418839489e-03
-1.309420098787720784e-03
-2.820364862245844286e-03
-6.868524324743123001e-03
-5.298923200764300671e-03
1.185858690246173507e-03
-3.431112411752513212e-03
-8.205369376527965608e-03
8.776193454082327136e-03
1.363795337308322010e-03
-1.805259704929655261e-03
1.223669351329831172e-02
-4.286708559129560545e-03
-5.697920457394359782e-03
-1.183347340256373989e-02
-5.131031400134793662e-03
-8.375790055488250424e-03
-6.277785653224391381e-03
-1.080289496386891736e-02
8.384705892253152548e-03
-1.836519102446137683e-02
-1.085668169295395460e-02
6.668732050589524672e-04
8.908409914576817870e-03
-4.010623535094820502e-03
7.330187983488054178e-03
2.742308576753616379e-03
1.467406209561055060e-02
1.678845771079364932e-02
9.536643921550481354e-04
5.810424730135545788e-04
-1.167638902345377811e-03
1.584503350459326178e-06
1.508474632745946883e-03
-7.340636719798563845e-03
-8.692909479275501630e-03
8.337496350229050418e-03
-3.588153800299870820e-03
-2.464126794120383851e-02
6.909108891913522815e-03
-2.315212374739561516e-03
-4.097363176197947425e-03
-1.255503217158211900e-02
-1.507630320237437083e-03
-2.862064047393496347e-03
7.121735417330105067e-03
-4.480361670237783574e-05
-1.902782043366106927e-03
1.851243739156222153e-03
3.295540288759713204e-03
-3.581144124488947443e-03
-2.165452166779410596e-03
7.784959129543325869e-03
1.613476775549196537e-02
2.891847835363037245e-02
7.298335297756730275e-03
-1.166824480270954416e-02
1.122784708076384380e-04
-8.026114229206680536e-03
-7.514212315625762653e-03
1.613171966925058126e-02
-9.256740855833358456e-03
-1.537564851939376281e-02
-7.907279088722492591e-03
8.530277287992054638e-04
1.044947877413181887e-03
4.844026404180554884e-03
1.252967511999897483e-02
1.168955465261564252e-03
8.219869373710272237e-03
6.035937722820335603e-03
-4.597535123997401572e-03
-2.671833206479292625e-03
-7.845586893348207788e-03
-2.948152003230002622e-05
7.952717714781412650e-03
-4.673350549477424794e-05
7.465693867802847619e-03
4.624185582635755888e-03
-1.082893709682096126e-02
7.234128984759859854e-03
-4.792515038263118164e-03
-6.005711851640482043e-04
-5.561669341824787430e-04
-1.144239637293112052e-02
-5.896726162714260172e-03
-1.104139627270843069e-02
-1.313594168751664425e-02
-9.577687177727908438e-03
-1.149129306390142199e-02
-3.633077093134081791e-03
-6.184934156386042575e-03
1.367403961443249688e-02
2.029016357848601251e-02
-1.349899791126425372e-02
2.112478568206830123e-02
1.740077340103672945e-02
-6.570136977685311908e-03
3.420643194959388706e-04
-5.851719471878771752e-04
-8.358469471479546692e-03
1.099339444967219366e-02
-8.194557342287111731e-03
-5.697881526026506334e-03
3.301763218824070936e-03
-1.428726585586209165e-02
-7.667552456594295580e-03
3.596310567646065701e-03
2.136370804010895904e-03
-3.753682596056894753e-03
1.856649295004518183e-02
1.151889134451447409e-02
-1.511343376382814083e-03
1.359402550550762104e-02
7.105715436221858410e-03
-5.744475546519055460e-03
5.784142182148843897e-04
5.934054702166639307e-03
-5.822365036008727603e-03
-2.213475023824821794e-03
8.888762673939553174e-03
-1.174572283745840134e-02
1.947961249978574956e-03
7.014964757176753857e-03
-6.116498531474825681e-03
-8.773138910031109267e-03
-4.472040320995262531e-03
-1.354036221284482880e-02
1.921005613698376774e-02
8.757260631721492175e-03
-9.730447038355693112e-04
-7.875347617711201190e-03
1.579126208974297426e-03
3.718110765388065592e-03
-4.252997869254728641e-03
-8.013360423803336796e-03
9.795427365988315660e-05
6.684020638606920535e-03
1.416234598244398360e-02
-5.527143122822418021e-03
-8.726748402802740265e-03
5.381541652140577102e-04
-1.338839223461409794e-02
-1.118236564865117064e-02
-1.472092992724003714e-02
-9.411271632426325418e-03
1.416899660402816744e-02
1.046348225799235976e-02
-9.323958353301136856e-03
2.283732489144479818e-03
-6.418586941602608814e-03
-1.241157284867645816e-02
-5.578617771478230382e-03
-3.227329580139551551e-03
9.644567393013529430e-03
2.331825828571501818e-03
-1.844162842928278928e-03
6.928242828923455304e-03
1.173870965597928126e-02
6.216234791631032597e-03
5.386184632901970006e-03
4.350147868827070573e-03
-5.812474807994384707e-04
1.384330988069816526e-03
7.736105244626777233e-03
1.317358518358004160e-02
1.344457056744374074e-02
1.184089434860662558e-02
4.435405534827847711e-03
5.116058137746121517e-03
6.782156837995254040e-03
1.752284630286255265e-02
5.537670459904043413e-03
5.696269841200932160e-03
1.627184491719366188e-02
2.244183201144807002e-02
-2.967505136756567498e-03
-1.188379321031248067e-03
3.565686710871619064e-02
-1.591159138291376807e-03
-4.076753906404352308e-04
4.236761090244930798e-03
-7.012785707630097426e-03
1.742764158012089984e-05
-6.689333755520172030e-03
-6.876584040432963873e-04
2.861040392280469417e-04
-6.448054296890311753e-03
-1.006141901776223466e-03
-6.757321208428949608e-03
-9.411976271733580798e-03
8.296913259129469129e-03
6.347325379108276905e-03
3.590874752345978352e-04
9.119084336335176247e-03
-3.408039764270737811e-04
-5.082208143687741127e-04
2.544714725576173800e-02
2.036669785045492655e-03
-1.239953364605839679e-02
-3.923127776714624253e-03
1.066650749625743357e-03
-3.668468843162984126e-03
3.098985960456602986e-03
-6.509392050759165447e-04
-6.625850901733500338e-03
-6.452303535760716552e-03
-2.267451428010109748e-03
1.015203795748673881e-03
-1.288416459773039213e-03
-2.397341969911446612e-03
1.053530288230941723e-03
-8.757545697898425074e-03
-1.015468362992107305e-02
-6.022812685605994504e-03
-1.168563937476805280e-02
-1.657999868682586645e-03
4.912375309931152866e-03
-9.019679269568998264e-03
-1.653074404868194042e-02
-2.654971680495321965e-02
-2.812580802781465203e-02
1.596155638013937398e-03
-2.378278515283124492e-03
-7.372020568535980409e-03
-2.920286922816403390e-03
2.210633218480402649e-03
-3.038922055704607484e-03
-1.170346662008540060e-02
-6.449901230502675178e-03
-4.301756363094595519e-03
-1.364506987951967162e-02
-9.559617672287379700e-03
-1.821230791192019957e-02
1.002941226713917203e-03
-1.359977959857806850e-04
-6.451634322153119647e-03
1.053850355737172284e-02
-5.244767084956790740e-03
-1.163295840723535361e-02
1.014330736760962921e-02
-3.240892641369451897e-03
-1.002167396587018422e-02
-8.750998401271577881e-03
-3.005197527665847464e-03
-1.384229508201005078e-02
-1.129355252818633505e-02
-3.197957800437383879e-03
-9.092402511191916351e-03
-7.101345897579698294e-03
-4.689958744807072068e-03
-1.297102029490166883e-03
-3.607093264979390444e-03
-1.774473295856258915e-03
1.405356694343243111e-02
1.259982261804261372e-02
-4.357482280218189126e-03
-7.121611796399007419e-03
-4.629159941296030582e-03
-7.642281939662920291e-03
-4.705758791363276981e-03
-5.247692288302487768e-03
-2.025215475489489277e-03
-5.739612262187916182e-03
-6.157648064751225156e-03
-2.698763103774583401e-03
1.227420231789947032e-02
1.094165410826894880e-03
-2.976031659842940345e-03
-3.801710065823615901e-03
-7.660695000586590156e-03
-8.275929805383238844e-03
3.102730936633442405e-02
-1.015213353307227277e-02
-1.878837776065669235e-02
3.254255325985663805e-02
-2.341897152024460197e-03
6.147835330454883007e-03
-1.269807634956991553e-02
-1.038268140332091957e-02
8.775622952710754321e-03
-1.237249295119725000e-02
6.559335275940190741e-04
-6.757361431358768940e-03
6.396282588982160448e-03
6.414335119608270512e-03
1.078574910974342341e-02
3.170963786315890605e-03
3.747104855469403015e-03
9.891105907462892019e-03
-9.684299160268208806e-03
-7.327001884625087245e-03
-1.202829814488460061e-02
-1.584585272389784846e-02
-3.930480638990981740e-03
-8.251765419021906897e-03
-3.390715121067282810e-03
1.080929280832533534e-02
-5.815953353388381500e-03
-1.114415386532242869e-02
3.082556923222620499e-03
2.687919057247840568e-03
-4.790053690172314978e-03
-3.661480385870085529e-05
1.067713003990688851e-02
2.167009975020089095e-03
-6.621689120059125015e-04
2.728981686854767622e-03
1.601220406011880028e-04
-6.289717287181513170e-03
-1.142292164807083392e-02
-3.709802885291768170e-03
-6.890197103561860291e-03
-5.071996685761396076e-03
-1.223244058425086017e-03
1.065462235853111223e-03
2.421362439367919037e-03
-6.601463813187340504e-03
-8.435056512980241422e-03
-3.930528426783748940e-03
4.090252943062475284e-03
6.302406514486522809e-03
8.458519396684809413e-03
-2.139487896563072294e-03
-8.968672719871683329e-05
1.160477468003368560e-02
-7.111604589772253272e-03
5.038905392104018298e-03
-2.969042649023484557e-03
7.666629358805817848e-03
-1.900323462908089234e-03
6.344062524562716320e-03
-1.540805011896092961e-03
4.516960292670129870e-03
-7.306621959335003920e-03
-4.523834723492256571e-03
-4.542660530718707276e-03
-1.243959420808802598e-02
8.484905269628846211e-03
4.914633513775481209e-03
-6.214409999080954851e-03
-2.123250010500159473e-03
9.946923894503825053e-03
1.452191498888153257e-03
4.681105825560832011e-03
1.022300006211365221e-02
3.706895025778195098e-03
-3.204114307314883704e-03
-4.561502943741873543e-04
-9.602147885306168765e-03
-1.373127241535350949e-02
1.710520867040268888e-03
1.345290390976166574e-02
-6.832118883079222466e-03
1.026414406012447940e-02
-2.727100434595859831e-04
2.374463610251231326e-03
-2.931643996207200335e-03
-6.086857922374734088e-03
1.587380581503403457e-02
9.648670316363992111e-03
-5.104863247636571254e-03
-4.595025988113830319e-03
-1.853346033020286318e-02
-1.817328428964097228e-02
1.307141156148384012e-02
2.295117792389691352e-02
1.773224539943323366e-02
-2.764529531372786862e-03
-5.938236595305923862e-03
-7.333402127696585227e-03
-6.952133035130144550e-03
-2.930712964538069887e-03
-3.142496838025814372e-03
-1.113328038963373214e-02
-1.056472853859648058e-02
7.016995277097240816e-03
-3.901334698124132080e-03
-7.438813880152127245e-03
-7.812625678431760548e-03
-6.876898997043984045e-03
-7.293476257129196099e-04
8.273276752594809153e-04
7.253815710291535920e-03
7.598198162107058264e-03
-9.450771656562412248e-03
-2.493432150635693442e-04
3.118564379291928479e-03
-9.261210398273509630e-04
-5.022026706796775368e-03
1.814691059428118897e-03
-1.553455861359806425e-03
4.850017037599760848e-03
2.582425013844134778e-03
-1.487674949816690691e-02
3.771668703496146476e-03
1.183059690955507066e-02
1.404154065643403726e-02
-3.766734198747987133e-03
5.781567730131529498e-03
1.572965827410897910e-02
9.156872856356548102e-03
1.829566716633879847e-02
2.275663732520872076e-02
-7.844632798072530624e-03
-8.641280581219094870e-03
-9.024059140706889789e-03
-5.928885133140541185e-03
-8.059603877476355718e-03
-8.115086796441359565e-04
8.911726276689569282e-05
-8.785508937021494283e-03
4.091250028900758791e-03
2.297617333812938117e-02
2.651643509816018363e-03
3.344504878987693275e-02
-2.695863270396088932e-02
-1.451670261380168248e-02
-3.959395021248088460e-03
1.947966047208736853e-02
-2.973327682611251813e-03
-1.045949963441365066e-02
2.384308080070183470e-03
-2.150890543640407437e-02
-1.508940222384052773e-02
5.236586515968639013e-03
-2.142726580448969884e-03
-1.484620036747767670e-03
-7.730776997987630871e-03
-1.254786953793256754e-03
-7.186126239179358756e-03
-2.551164601528964088e-03
-4.555044580381873917e-03
1.004193857312752659e-02
-3.512888764726508281e-03
-8.650774299709665036e-03
-1.222450116833277353e-02
3.502579148090696412e-03
-1.265890032297861505e-02
-2.569983028401320001e-03
3.806974841417542924e-04
-3.671446631531610945e-03
-1.241797069313287441e-02
6.759895106919707602e-03
-5.533672891108290352e-03
-1.750436036094219286e-02
1.879570552972912581e-03
1.078483210074707502e-03
-4.579127598339303995e-03
6.751357882319896329e-03
2.995440699551777438e-03
1.726755431943838509e-04
1.196663067369653656e-04
-6.628894559762427141e-03
-1.067978604483695720e-02
7.265157838465288904e-03
-8.107754414647616592e-03
-9.199166713535434020e-04
-7.354604408941743145e-03
-1.083260088910275275e-02
-8.265997693859404583e-03
-8.498592136298693811e-03
-4.387434155752252193e-03
-5.846267235290822026e-03
3.789749832994375543e-03
9.794548550324409450e-03
1.216515205087491391e-02
-1.984301560017584336e-03
1.283603269595322109e-03
3.219032955083249610e-04
-9.751869254152892774e-04
-6.628475909176367864e-03
-4.315045797696410654e-03
9.560640220347291218e-03
7.324372264460908034e-03
-5.133498652508873550e-03
-4.595355151906482805e-03
-1.243352681898622809e-02
-1.362222030324042842e-02
1.269191559898881320e-02
1.750772580240967866e-02
-1.376371516039475839e-03
1.395627542557031182e-03
-1.413841832094025726e-03
3.707405746281594236e-03
2.138978836639344322e-03
-1.509821362859498084e-02
-7.371018316449829896e-03
-1.170744832111984997e-02
-7.262124512932095245e-03
8.462165107099064651e-03
7.532524819224882019e-03
-8.125483870273201778e-03
1.498879987913122672e-03
2.096229242595069875e-02
2.951434415713915377e-02
-1.958251124167182181e-02
5.399548240062443556e-03
1.710987120910243894e-02
-2.557422588275274147e-03
-6.671064057974806366e-03
7.041682008019671361e-03
4.545307310206157044e-04
-1.566485692006317322e-03
-9.217725905470189676e-03
5.712068411686317682e-03
-1.599680126112178018e-03
1.140423016328891842e-02
1.056613560310476138e-02
-6.577190751111954871e-03
-9.240213844398759840e-03
-1.535160332575107034e-02
-1.121236331227680634e-02
6.671043452047524178e-03
7.547247559969078035e-03
-4.466261845797161491e-03
5.229237153896522557e-03
-4.788736865406637878e-03
-4.744050591663405425e-03
1.188864755374753439e-02
-8.818069136599391081e-04
-1.056244237198311273e-02
-3.425854060997386707e-03
-2.013582723531465082e-03
-7.258783698110289184e-04
7.507964976171781213e-03
-6.231023262999353662e-03
3.995279973815528234e-03
6.224495432758232923e-03
-1.981665367073494940e-03
6.110156274415743868e-03
4.851971145473236817e-03
-1.215642682277863831e-03
1.205751440729398161e-02
3.460145379604806330e-03
-4.326296402687089711e-03
2.506053468039625993e-03
-5.774351810109407774e-04
-6.450182487197540608e-03
1.201441715162582941e-02
1.000472376838738853e-02
3.706419114560634710e-03
1.250537395787734707e-02
4.145068325554384682e-03
-3.545888383539841458e-03
1.064106163818660800e-02
7.899250546527123926e-03
-1.659527075307243348e-03
9.431975213631802780e-04
-3.612281364132126100e-03
-9.325419466932412596e-03
7.870458361799210698e-03
3.589705376974298024e-03
-1.494073268027560839e-02
-1.337529357644876016e-03
1.524443877376719996e-03
1.457621687060750744e-02
5.296410758902389375e-03
-2.580614721481285043e-04
-1.286318462551393942e-03
8.693607367448780501e-03
3.533262015060538441e-03
1.068797911957519720e-03
-4.454124627477410586e-03
-1.549495647259682175e-03
4.756792356795151722e-03
1.013666410454844291e-02
7.710206763144484936e-03
-4.901906012770349159e-03
4.127881423775069634e-03
2.897888355258333541e-03
-4.644156790387653742e-03
2.644458896511329288e-03
-2.615405475154891028e-03
-6.771607212141467387e-03
7.268341461846026912e-03
1.338854177038320374e-02
1.716033915664753190e-02
-2.742652191324079780e-03
1.694919907415251255e-03
7.767559310804763271e-03
-3.242440646902915429e-03
-1.086162619202737586e-03
-4.677362639948834389e-03
1.419698130256365426e-03
6.318564891406685917e-03
1.437005098035735442e-03
-6.171353731572383483e-03
-1.099946019108644958e-02
-2.296765491531406814e-02
-1.359791984267354377e-02
-1.267264233123461051e-02
-1.113430951024009519e-02
-9.113872719229053343e-03
-9.945951080818974527e-03
-1.156252797462294438e-02
-6.902891576957354697e-03
-8.621610346929313440e-03
-8.316781347331332619e-03
4.023204112423462309e-04
-1.615244257881482196e-02
-1.720543723805242203e-02
8.926775045879856846e-03
2.331891121765042492e-03
6.279701520403823930e-04
-5.292613571372814345e-03
-8.842341104861302023e-03
-2.411766175068647596e-03
2.666936354263595415e-03
-9.430845930883299463e-03
-9.113660438756110427e-03
1.094618848868073382e-03
-6.774380845762746281e-03
-7.107905763362540146e-03
1.206894608101858474e-02
1.007871174113322311e-02
9.574434540902686296e-04
-9.097249636031460099e-03
-6.644339103366478545e-03
1.535914222350269476e-03
3.483138111179477289e-03
2.211245875768480008e-03
-6.500487405435373747e-04
8.930817219885473293e-03
7.148853473544015784e-03
4.938155577601038675e-03
1.207579171487472083e-03
1.171495502200802907e-03
1.579597923394739090e-02
2.069816273349874784e-03
1.043130857820036110e-02
1.030813818192681877e-02
1.448091692572926401e-03
1.599363045569270709e-03
-4.461730727330125504e-03
9.546856797950212248e-03
2.663587588663298041e-03
-3.296158714256580517e-03
1.032674563501053376e-02
3.469785628291755398e-03
-6.994598386853655321e-03
-1.602938079115534152e-03
-5.902401366090511249e-04
-3.338694619720603950e-03
-1.799723723118465965e-03
2.489604816858558521e-03
5.867951248524649367e-03
-5.240278823961531940e-03
-8.752813460982784843e-03
-2.677125199870446833e-03
7.447480880139333188e-04
2.385242017951844529e-03
1.221156852690869626e-02
-4.464106746460901358e-04
-1.070012477151838920e-02
-2.601877943156245213e-03
-7.958814554812020797e-03
-2.264713197098388187e-03
5.244266076565720159e-04
-1.256584180375731104e-03
2.835213471263602417e-03
5.392029741584445333e-03
-9.116919108574287169e-04
1.534897662178483745e-02
3.910767044714017100e-03
-1.025449930835424040e-03
6.873572599311604352e-03
-8.755591414264849923e-03
-1.670515675254017826e-02
3.572702986420011294e-03
-1.191404160532330211e-02
-1.353122016616540961e-02
-2.704416199625941496e-03
-5.700335039624996811e-03
9.253540311442981850e-03
-6.188190946526114095e-03
-1.088970748400869097e-02
8.581388751156257544e-03
-3.282643524145895976e-03
-3.860456161230334596e-03
8.972477262700476793e-04
5.517483798527184589e-03
4.198684160936099787e-03
-1.857658190796142436e-03
4.636010938634744561e-04
-3.890092531094834611e-04
-9.678332256331373656e-04
1.210924193381754345e-03
3.212827726625543177e-04
-1.073042266657763975e-03
5.537826315360195022e-04
-3.186724222190104577e-03
-2.311428888618802593e-03
-4.348487940034908260e-03
-9.973084721502956454e-03
-1.372179331516464517e-03
-1.760352072029711589e-03
-6.181933815027622348e-03
-7.053910209227867711e-03
-7.849989957708990163e-03
-5.040508705751308056e-03
-1.369494826896083416e-04
-2.361212362090251132e-03
8.371652764115026721e-03
-6.814444465369892158e-03
5.781353157451995378e-04
7.694152229585664825e-03
1.351556160151203001e-02
2.202204414345809366e-02
9.407084093990476445e-03
6.330639166097832421e-03
2.798787006038794961e-03
6.455065966565885771e-03
-1.410191852763241147e-02
-1.327535719565953870e-02
-3.026289963593545816e-03
-1.447230146513940781e-02
-8.473502754632719972e-03
1.614790405521500773e-03
-3.342706761798847938e-03
-6.158547582925102612e-03
-9.612765359439995674e-03
-1.902713692687564096e-03
-5.483135707235140335e-03
-1.091072880467960048e-02
-3.379642124203946149e-03
3.069044731870758380e-03
-7.661656861374817155e-03
-2.789463738174330527e-03
-5.047210350914557719e-03
-9.928942725018839732e-03
7.319825647478609212e-03
1.900013081903392798e-03
-1.367635459765201116e-02
6.016274206766176504e-03
8.161369620040820685e-03
1.157737300316150899e-03
-1.879678710716437278e-04
1.138796698536719432e-03
-5.128207487532020908e-03
-5.181252099199238140e-03
-6.783333445592092635e-03
-5.532787533901664147e-03
-3.087059157237911564e-03
-1.550683492266564066e-03
-1.348776026468931312e-03
9.074624075623650889e-04
-5.394617629791898308e-03
-7.196214028710433159e-04
-2.705651622610916272e-03
-9.450299626084927504e-03
-6.285706465991630111e-03
5.085095010202049688e-03
-2.276246691398675290e-03
-9.958212746509005793e-04
-2.140576019601171318e-03
-4.155360431623848945e-03
7.836349703133624941e-04
-8.029224202841467317e-03
-3.231468708504888800e-03
5.530157271878875271e-03
3.947055075095519741e-03
7.474767148837777389e-03
1.305388942131810275e-02
-1.790418968085944525e-03
-1.326089312006272728e-03
-8.132885159719421136e-03
-6.721168384419248625e-03
-6.014913307920258072e-03
-8.342271665633203132e-03
-3.555486875505854075e-03
-2.224222651016831247e-03
-2.001135723823873041e-03
9.289820730993574764e-04
3.741116481281996520e-03
-8.856618406553625963e-03
3.123105698011628684e-03
5.232356566078862677e-04
2.561323116408220418e-04
5.952489067100216703e-04
3.725143198485590147e-03
1.827245310480713966e-02
5.915659639233457161e-03
2.962212732579157150e-03
3.588992221548239440e-03
9.443224844508968027e-03
5.376916688378975163e-03
5.035781556963812335e-03
1.221680704125407621e-02
8.553907480628017770e-03
5.471669476224245987e-03
-1.616135054214937194e-02
1.603564553348474364e-02
3.555392048666681029e-03
-3.617432251072976931e-03
1.302002122376963965e-02
1.418796493631317365e-02
3.983789881821239894e-03
2.381226996099743490e-02
1.388495718798208461e-02
-4.095628367964538642e-03
1.478844509622449050e-03
-2.552387589523888618e-03
-7.691914028203795418e-03
-6.447200687065972845e-03
-1.941288263512120325e-03
-1.429312604967288187e-02
-8.170806227576401376e-03
-3.349682602572980755e-03
1.409726440168202269e-02
2.196559440490222087e-02
8.467275655061601985e-03
4.421171786619447312e-03
-5.016640111527616297e-03
-6.364962985010216671e-03
-1.017458393821662685e-02
-1.295971464522570685e-02
-1.008938644572950245e-02
-3.830246922066276455e-03
-1.563303751511326087e-03
-2.615419874024180191e-03
2.097639619872788074e-04
2.035626055374675780e-03
1.035314699034211661e-03
2.058650155914583304e-03
3.889503823039057364e-03
6.108596876871772233e-03
6.690485628153722969e-03
2.034271224623670615e-03
-4.676821242463577270e-03
8.564918913067522122e-03
-2.166457781449563583e-03
3.301818704075854731e-05
1.072418528209988665e-03
1.450353672658935859e-03
7.108541781988837738e-03
-1.393048641267310636e-02
3.022651780720544967e-03
1.213788190192726171e-02
-6.631190467328260639e-03
7.310785831641001924e-03
1.077117763760877811e-02
-1.507001292818463054e-02
-8.776102603566671503e-03
1.665520090403352967e-03
-1.987910773778423304e-02
-7.485116438988130561e-03
-9.370725509149456858e-03
-1.891674491000146230e-03
-3.610617266238612746e-03
-2.440673962147136243e-03
-8.796275419440208144e-04
1.389106642252316802e-02
9.873749596355608366e-03
1.027816385003029809e-04
1.047788192661295095e-02
1.587119892711180702e-02
3.461390676100149994e-04
-2.328802770000738560e-03
1.971698675449956410e-03
1.560924646908559699e-02
8.551909328967006205e-05
-9.737860678839313847e-03
4.771019262444965540e-03
9.599274647407103275e-03
8.789277568965876003e-03
-4.195544384638621137e-03
-2.829877250305192437e-04
-3.151964734632668654e-04
-4.378994413000713041e-04
2.277520374236331486e-03
-3.061862987265796289e-03
3.573623691261960597e-03
-9.629300609534929833e-03
2.010401293362116051e-03
4.814430619161745063e-03
-9.449188444772101819e-03
9.321426043384243903e-05
1.059078325500789099e-02
3.886745616777731362e-03
7.307394280829103070e-03
2.862763444968162516e-03
6.182921166064564954e-03
3.181154328152951266e-03
7.565550579816404837e-03
1.053798527540177749e-02
6.878120585025523405e-03
-1.425675039188685120e-04
1.340469791881957742e-03
3.512419034670677051e-03
-1.109898784968600151e-02
-1.060413059544229597e-02
-2.541999833822720586e-03
-1.053318386958837722e-03
-1.154064025341711673e-02
-9.677807108998598418e-03
4.504237835055571910e-03
-2.141591139886028089e-03
-9.955487657647045172e-03
-3.808038517471576574e-03
-5.485937315802466401e-03
-6.444735600643739654e-03
8.771782325685649126e-03
-4.307282078696899642e-03
-7.058380646745758893e-03
-6.310427678975348998e-04
-5.297509392629121648e-03
5.853596810032564435e-03
-6.254611696366312902e-03
-3.194380409538130974e-03
-4.727290102113170661e-03
6.728516333115430563e-03
4.326072397420582805e-03
-3.941545244913114386e-03
7.230293066844908564e-03
8.293663139895714534e-03
3.176425945176659243e-03
3.190187561650313641e-03
5.386726020931001174e-04
-1.746605471519743638e-03
-3.156872897776937447e-04
8.472536384805311876e-03
5.674076027401239383e-03
-9.040359909169749450e-03
-6.379865814724071382e-03
4.169866881035997133e-03
-6.227565888784992662e-03
-7.315390795737676012e-03
-3.017896862685134646e-03
6.052068561629208275e-03
1.408393598547582563e-03
-1.011059392321050129e-03
1.269693363512099278e-02
1.136808317537009623e-02
6.503875253680883699e-03
4.703239465042041018e-03
4.954416426386954071e-03
-2.743123445746086832e-03
2.381611651607885762e-03
3.276448102087213630e-03
-6.153376743265380998e-03
-3.034932576336918028e-03
7.608965433401439823e-04
-8.662342485467722621e-04
-1.053667703527782877e-02
-9.717519190496965624e-04
3.699477625374661405e-03
-1.047986321102708195e-02
-6.809594926193441580e-04
1.954448624343903523e-03
1.017340384802934783e-03
1.286877056400544247e-03
7.190174114440067363e-03
-7.366503284844476071e-03
-1.962615663004481197e-03
3.684474620670184601e-03
-2.880301267761857867e-03
1.563199133441036792e-03
9.263227047907921299e-03
-9.317197301172272170e-03
1.788260166183295924e-03
5.042132898207079411e-03
-7.773622880360388752e-03
-1.468588606424339228e-02
-2.387019455516474487e-02
2.123593787463889243e-03
-9.056446531637270345e-04
-6.622494578768519692e-03
-1.010820288811603747e-02
-5.790739574643197218e-03
3.912136377183377499e-03
-4.838220431000614385e-03
-5.081496938464923410e-03
-1.824690951068889955e-02
1.927468023070647116e-04
-3.475114444117388332e-03
-1.678577273051775481e-02
-2.437079798674532307e-03
8.229910294836590258e-04
-1.637405393045288440e-02
1.943661094321839922e-02
1.129629761253104180e-02
3.873725336374314425e-03
4.459867513644161230e-03
5.012670754660973572e-04
1.305249396518588789e-02
8.868971813610839958e-03
1.705313011267869851e-03
3.023544510616447099e-03
1.194561174333328042e-02
-4.592860818546489095e-03
-8.231530579027838621e-03
1.885277484771421055e-02
8.140216858263119026e-03
-1.029503726785538408e-03
7.318103131315410216e-03
2.730035079260747285e-03
-3.649677901750730553e-03
-7.364654264329667521e-03
-1.118325517521707134e-02
-1.776565404546974480e-02
-1.038516678447017061e-02
7.823546434260203334e-04
-6.064358202265287580e-03
-2.228708413045608211e-02
-7.030717539068216193e-04
-5.897208722428722884e-03
-1.481535720001955813e-03
5.862430104944946034e-03
-4.205526709320245998e-03
1.385875947380187101e-02
2.272786643108589202e-02
2.108456873275026469e-02
1.377635063089971239e-02
1.954224495658517247e-02
2.795940143882276810e-02
9.704951445985481040e-03
2.310784539218131272e-03
3.322283405599686743e-03
5.722916374934275234e-03
-1.234952553345112017e-03
-2.169380546217046686e-03
-9.944984299595300420e-03
-6.225131245686397509e-03
-3.742210383951676163e-03
1.125782383379150819e-02
3.277761896060745264e-03
3.818370734676916275e-03
4.523316748259427825e-03
4.270934190158781618e-03
8.832135803403834851e-04
5.327693742319124237e-03
4.736562768236991967e-03
4.877101080646623066e-03
-1.070719461633916564e-03
8.667862189160498165e-03
8.529378595398371884e-03
2.629001710329858035e-03
2.354212866030857762e-03
3.807575285276743851e-04
8.740910944232439805e-03
-2.957419760389198415e-03
-8.645545175951735092e-03
-1.262836724805863758e-02
8.231201050619259274e-03
2.179147916350002590e-03
-5.573524197798991435e-03
-2.992037521933206632e-03
5.755561697083856967e-03
-2.042359892295691429e-03
-3.681890023632854517e-03
-2.408644294508714332e-04
-3.307959616129373288e-03
-1.302350369315618964e-03
4.083443016281736344e-03
7.243857213111174788e-03
1.771582860957922681e-02
2.692603161563320024e-02
1.099588310055885781e-03
1.208920014765453577e-02
1.389301541233046652e-02
-5.214670846327758985e-03
-1.466665534581760438e-02
-3.677995335188380399e-03
-1.012788038288604288e-02
-1.209077990931364463e-02
-1.152922812101512054e-02
1.619075303323699692e-03
-1.159194260190039676e-02
3.399067638761395964e-04
-1.388962242163163966e-03
-5.214110730312426951e-03
-7.812344113953557240e-03
1.216616313249355846e-02
6.410481924794603735e-03
4.606603922188200716e-03
8.984613452529564837e-03
5.768677832817111113e-03
9.600000967513653422e-03
-6.622708504826524054e-03
-4.910754940740815790e-03
-1.162180976506978214e-03
3.539361376091251874e-03
8.671959078869410920e-03
1.216426762420075997e-02
-1.802696986777526343e-03
-9.810517373270335583e-04
6.665462861707470606e-03
1.296279963959781362e-03
-6.709229209392804025e-03
-7.484365980098095332e-03
-2.152069582849646528e-03
-1.303352373196811805e-02
-5.998400975114769398e-03
2.219970251952891205e-03
-5.769603922876429675e-03
9.707659158468472061e-04
9.891981474473589969e-03
-9.327507995829233817e-03
-3.940715039984260711e-03
1.397234189854701727e-02
-3.279101667208826360e-03
4.950355902584664160e-03
5.720778321318952496e-03
-3.528583038487551320e-04
-5.970716628235949635e-04
6.256197145007701826e-04
4.464109539165704230e-03
4.478506337358192642e-04
-1.444586722700584363e-03
-5.348508134484514752e-03
-7.332236010276461761e-03
-2.282333486330601329e-03
-5.611207050845599432e-03
-9.538136369227857500e-03
-5.535059425100641479e-03
7.784016157477954877e-04
-3.879000295049514404e-03
-3.689492890249538529e-03
-6.645787653466985606e-03
-1.012799704560884105e-02
-4.026423894308672584e-03
-3.773222687817500559e-03
-1.215949897238459768e-03
1.599444172607586206e-03
-3.423204834240665267e-03
-8.432750529916124144e-03
-8.648098908783458322e-04
5.489491402178319390e-05
-1.161681041576087710e-02
4.549585269849338275e-03
1.513440671284986593e-03
2.156967507216812040e-03
-2.099101796545073363e-04
-3.285659391991290791e-03
-8.264445903152214945e-03
-1.635191737452612896e-03
-2.816549611521670330e-03
-1.786502947782668028e-03
-6.530888959080011257e-04
2.144162501187783787e-03
1.209177406054833155e-02
-3.790364757985202875e-03
8.594216087246928006e-04
3.669097232150945673e-03
-3.559756757407549297e-03
-2.927872468608403150e-03
-3.528000395664949475e-03
-1.359008231382142487e-03
1.085242194187435163e-03
1.838744592190465731e-04
-9.246081000901172978e-03
-1.814311006493683504e-03
-6.713214758997522284e-04
-6.657595981105981706e-03
-7.655956619265043110e-03
-2.709757035171745428e-04
-1.978773915285736169e-03
7.924042986383059498e-03
7.547388844634840728e-03
9.957524302473956188e-03
1.377226128907787540e-02
1.627323897716016722e-03
2.820216736181959099e-03
-5.592698164467341769e-03
-9.833294842678795902e-03
1.334815584455323161e-02
-4.086563973852427173e-03
-2.835401365907976208e-03
-1.323431102865074661e-03
5.674676042863235556e-04
1.195951713284599920e-02
2.705417975680938711e-03
2.185986412113382141e-02
1.377816420580229261e-02
9.310236227772938911e-03
2.787893029316437787e-02
2.825704952221565983e-03
-2.385466254311388937e-03
3.981350219877103323e-03
-4.841544029876955653e-03
5.601339868272542290e-04
5.799661408557808470e-03
-4.881505445866493424e-04
1.669975796636804892e-03
8.510240029969986207e-04
3.802231283394720877e-04
-7.961711742772702508e-03
-1.963303617646126181e-02
-1.676889774914538597e-02
1.289294784866796845e-03
-3.236589526076964329e-03
-2.181680608491446197e-02
5.722494822990674586e-03
5.177209315566900193e-03
-5.684353168145700767e-04
-1.143540364177958587e-03
-1.945955776789790991e-03
-1.771948516771736266e-03
-7.871675801070278106e-04
-4.627983153961381414e-03
-4.355410403853465090e-03
3.226966940419445391e-03
-3.293357959355339322e-03
-4.293259341919145565e-03
2.259960933107034008e-03
2.085070896049826851e-03
6.569749605809954013e-03
-3.766200544826266931e-03
2.366654739526415085e-03
1.594774217221524293e-02
-3.258914689687391741e-03
8.546034984428151071e-03
1.035207808308273407e-02
-8.046868383394528354e-03
-1.254885269905752637e-02
-4.375149424821221655e-03
-4.926368776927461147e-03
-7.411028807831335739e-03
-4.060574512330565079e-03
1.281085473868644187e-02
4.825628602432521612e-03
5.562177923370638377e-03
4.624400499208022007e-03
8.882810517300318565e-03
1.458738258860157056e-03
3.580319526247214851e-03
2.810767247321908219e-03
1.630628200846934422e-03
1.166281492196211654e-03
4.027703746422132969e-03
-2.065680147168810852e-03
4.186377307281960967e-03
7.415704582994449984e-03
-2.428031937392131565e-03
1.443191306442801608e-02
6.707344599303943777e-03
-2.122708641341748866e-03
7.734863318170796809e-03
5.891033571071427506e-03
1.598222518264648916e-03
-2.514022302646527936e-03
-1.168053132098520290e-02
-8.919755625983351657e-03
-6.939844692540952237e-03
-1.348365521947038174e-02
-1.320303554677200453e-02
7.840853596684233331e-03
-3.195540975734068381e-03
-2.659726906043798859e-03
4.308731634910888293e-03
-3.133612395562488176e-03
-8.779812601867798341e-03
9.330304149283819015e-03
-5.604582315487362460e-04
-9.271506442887000182e-03
4.337728258375314963e-03
3.015813456851365766e-03
1.581765186436978870e-03
6.165441878861620435e-04
2.422091940373926212e-03
9.131969140371660673e-03
3.383863473926207823e-04
2.642839409552295848e-03
1.280398091687036952e-03
9.467134424073146270e-04
4.454635274683345705e-03
1.210487304845816884e-03
3.517329418741305547e-03
5.336370074905672813e-03
6.759571278570749610e-03
2.511213678241116902e-03
2.197443890335800624e-03
1.357476632341337100e-03
-1.392948572545169711e-02
-5.850318743372641189e-04
-5.482964937912592103e-03
3.162679687748264426e-03
1.131951625041111020e-02
2.418171904830881437e-03
1.422662558356990736e-02
2.206200493167945892e-02
1.905207876129413891e-02
-1.149841835862846140e-03
-5.991474941584569967e-03
9.051359574700422158e-04
4.547628494525030908e-03
-5.058893746932883670e-03
-6.230888763680296483e-03
9.891330490840460551e-03
9.173399634368528677e-03
-2.888025785366466966e-03
-4.811216340261009576e-03
5.152778390339628027e-03
1.378638671938038369e-03
3.666980994935406437e-03
-3.110523843482150899e-03
-9.639187319817384830e-03
2.325034188238956560e-04
-1.298708024829779359e-02
-2.585281315667604506e-03
-1.793257713588187162e-03
-5.922111513089080639e-03
7.323396766610175109e-04
-9.375641875314215954e-04
3.992983289087154468e-04
-1.825759505631506649e-03
8.734271516199263287e-04
4.523946990302742631e-03
1.862952869375654279e-04
1.431334591514599923e-03
5.032423239267817643e-03
8.848709949361077340e-04
-1.663328364148063641e-03
-1.174975490855209321e-03
-1.514154674789624328e-03
1.682709551966779038e-03
-4.408375529688529117e-03
8.715618964467487274e-04
4.558625378963600261e-03
-2.671593764012006322e-03
-6.680610206319394749e-03
-4.203385522577461793e-03
-1.038399124624705613e-02
-7.388654591814324685e-03
-1.376144066074431668e-03
-3.150810668148580716e-03
-2.801804790661457933e-03
-1.299195140169051924e-02
-7.832893804470213162e-03
8.627854398608879750e-04
1.026631901239632907e-03
-1.629034579610686611e-03
-4.069881499792507747e-03
2.140965448233971523e-03
-3.556097946714477896e-03
-3.376675217869969017e-04
-1.213749040464581199e-03
-3.857099642605211348e-03
2.289365772361840520e-03
4.612673814727102049e-03
-1.359376041291844106e-03
-2.621815880649438026e-04
1.037770106492964979e-03
-5.945831427839914267e-04
-3.261575325476332040e-04
5.567537272918374538e-03
1.043588453542844061e-02
1.186436460943858864e-02
-2.143947834554228455e-03
1.297134639789738900e-03
3.837495640465067494e-03
-3.965794454654497127e-03
-6.932207482254969591e-03
-6.376402145831564471e-03
5.067171631532646145e-03
3.985051764361672243e-04
3.408945050227920812e-03
3.348724657760845328e-04
3.099186917784386552e-03
2.087497826220283386e-03
5.813051884158292222e-03
7.497029149846392779e-03
7.620393458212900394e-03
1.778533677646018619e-03
2.569734862088282005e-03
4.242682652586322010e-03
7.885297072400718546e-03
-2.808799830119562344e-03
1.830451493030695129e-03
-7.463298719727674314e-03
-1.367723430657544897e-02
-8.037820459151082814e-03
-1.038122518935379740e-02
-7.829307824129966287e-03
-4.597089449457267794e-03
5.135595415453214976e-03
-2.549266124217847065e-03
-1.727372183859116539e-03
3.484085355704808536e-03
-1.077240300043424357e-05
5.251488626598745449e-04
-2.647963473827777501e-03
-4.460086909267195650e-03
-2.426858171500366913e-03
2.146179802193434738e-03
-4.252445744289816074e-03
-6.844109360031595812e-03
8.041195929841383691e-03
1.919696194473032112e-03
-1.044728132169017200e-02
-4.278851403010586023e-03
-4.885564823500103404e-03
-8.517428784864257418e-03
-7.113060213460886162e-04
2.825452207618154871e-03
2.720150658149013759e-03
2.356853902411753566e-04
-1.728908438721563556e-03
1.557182614447659257e-03
9.408594118101380179e-04
-2.263584492579103283e-03
9.218695458004149204e-04
-3.610501721436855903e-03
-4.069433376959485232e-03
-8.947723811702976843e-03
-1.998511606018737920e-03
4.188603288864770373e-04
-1.892858209456952951e-03
-4.558673267414772683e-03
1.005064472601406833e-04
-1.256449459698050566e-02
-6.365504197602883836e-03
-2.764329749707981996e-05
2.875000459206175640e-03
2.449159889723241060e-03
-8.036414733573950253e-03
-3.109236675077539907e-03
1.034644902843846227e-02
1.041873282105876611e-02
5.206134272633913991e-03
1.375614815549301012e-02
-8.682405164271661188e-03
-1.704293109701407113e-02
3.251084096523929913e-03
-1.095699319246310963e-02
-1.091879300728892423e-02
-8.922019685536018360e-03
-9.023490491470029934e-03
-2.136953626492845912e-03
4.618381353221906981e-03
4.064839910071824103e-03
1.166981794282875027e-03
-3.943642221562193746e-03
8.607139317889788907e-03
-1.081004681492223323e-03
2.770374170154439077e-03
-2.385553052129139439e-03
-1.081910687755781655e-02
-8.983814244556052181e-03
-1.200817978064601388e-02
-7.596184515910335035e-03
-6.039905962257905228e-03
5.756809226166751010e-03
2.492269638818696374e-03
2.116658733676928233e-03
-5.160386002902316721e-03
-1.793557016408016533e-03
-5.315342721577895335e-04
3.722655808965993213e-03
2.064133250428325326e-03
7.792115291782540903e-04
-2.918225273607920594e-03
-6.402428188809184371e-03
5.147301813854124677e-03
8.163777062496003697e-03
2.028942056269493130e-03
-1.344363344407884268e-03
7.802302395814127893e-04
-3.704315031004873273e-04
8.259317848172470153e-04
-3.901385984341285834e-04
-9.186770821565066547e-04
-2.523656029020118329e-03
-2.603120096288131981e-03
-1.946877380055849491e-03
-4.046852143158759241e-03
-1.980369365594771957e-03
-2.542116361829824863e-03
4.158529840366334031e-03
8.752403114745189658e-03
4.815071194301068919e-03
1.407754018854331761e-02
6.253861917895654765e-03
-3.035150913202518293e-03
-4.297073457519839934e-03
-2.814139724984009248e-03
3.467843189348727203e-03
6.892179887086381795e-04
1.237098933790432842e-03
-3.340730778281232518e-03
-5.299510600084979435e-03
-5.967092237367159144e-03
-1.004463672074402437e-02
-1.799796149966707013e-03
-3.566048601518398940e-03
-1.105383677680255722e-02
1.019453921246874818e-03
-3.108756294051713380e-03
-8.689593254048555426e-03
-1.260170957703941885e-03
-5.143174594248020072e-03
-3.236320153539117613e-03
6.898467740492965697e-03
-3.203281445492892673e-03
3.551555527585532630e-03
2.913120165177695252e-03
-5.655355713284551146e-03
-7.477543871158115170e-04
-1.518471951686320648e-03
-4.427648968492106131e-03
-9.970556279808020714e-04
1.128977985014366977e-04
1.274425753336355487e-02
1.118219279108644340e-03
1.154324677102711375e-02
7.301002098233809988e-03
-3.268619251061675199e-04
-4.777553918394128463e-03
-6.025048902840257278e-03
-1.166501562908458557e-02
2.462067822666422039e-03
4.496720743017606700e-03
9.944687703369500462e-03
2.322762313557105978e-03
7.466163047713441324e-03
-5.002528208505867963e-03
2.623404014667322665e-03
1.014262330929653101e-02
-6.943017967548523401e-04
-8.383296724995693838e-03
-5.896895749356477999e-03
-2.017638469580270485e-03
-5.677079444506467031e-03
-6.126558451861502906e-03
-1.121737583755740182e-03
-4.094048040862264398e-03
-2.888393096438135639e-03
-4.350242109272387837e-03
9.756330785353081953e-04
3.709707303862790854e-03
-1.490581750979196084e-03
3.798499476069480164e-03
6.354007643734543159e-03
5.483716021711020593e-03
-2.358845596398374735e-03
2.164381736902021985e-03
2.576051149262750806e-03
1.352979025495693564e-02
1.630036911498427069e-02
6.365830936514531128e-03
-5.170764328179904695e-03
-1.187852578980013243e-02
-2.191501066568741184e-03
-8.257616810479772446e-03
-1.602917415552363584e-02
-3.212352150006514938e-03
-1.284683193530601619e-02
-1.213226640648437660e-02
-1.974863025106630629e-02
-4.975825076038056620e-03
2.327342810655907892e-03
-1.114177859644224083e-02
7.327299342822062847e-04
-4.919197315085000778e-03
-4.771214850949483804e-03
-3.877270158471555692e-03
3.554473730078870023e-03
-1.550870151698110436e-03
2.164035377027741843e-03
8.108846348531380255e-03
-2.147525999765290041e-03
9.811098213001551160e-03
8.708479261979798838e-03
-6.225194361253695227e-03
-2.855442350165071554e-03
-1.857111143449959425e-03
-9.377412417772852671e-03
-3.254993656468280639e-03
4.610673640493919215e-03
-5.829800371117918080e-04
1.925305129316637245e-03
7.203643546764910283e-03
-3.457757016879161368e-03
-1.253123972578662655e-03
1.111477316812640136e-02
1.053959129970592420e-02
-9.926782909849267422e-03
8.342145580297334953e-03
5.917562941624394252e-03
-4.314171463661289375e-03
4.240263454405377233e-03
-2.364436074234756505e-03
1.903651817397054901e-03
1.809541117221667283e-03
1.695929258680616003e-02
3.501851305972511052e-03
1.784839988059826318e-03
3.638798308861570813e-03
-4.326964830136213226e-03
-9.653000144952517776e-04
-3.208749042893800380e-03
-2.077890039424411424e-03
-2.343105593662229459e-03
-6.504737707756095937e-03
-6.176649106670792193e-03
3.041530386527839438e-03
-2.704555983559830349e-03
-7.296409629022214752e-03
-2.939470120318107924e-03
-9.191488166564268933e-04
-5.973981523162256741e-04
1.298462480121978209e-03
-5.676582601825548927e-03
2.893808482124917564e-03
2.300754244656353243e-03
-5.031296530430503545e-03
-2.143898532728628556e-03
-3.696904126906550361e-03
-9.063850146489284276e-03
1.469716686291503479e-03
4.538017548421616372e-03
-3.283395664997313876e-03
3.919885559076258285e-04
8.754932556131438256e-05
-4.598510306454736685e-03
-3.427645822969557950e-03
-4.238440201394582871e-03
-4.590867941509079245e-03
2.785275127318995441e-03
9.113140665093564033e-03
-4.173832029588806815e-03
9.054067932661190310e-03
2.413250867634851148e-03
5.175341499691819792e-04
5.340335172151036355e-03
6.009786121822395522e-03
4.977209684138456623e-03
-2.224927704325333974e-03
-4.478020469114002942e-03
-6.504251340673873616e-03
-1.833733099031109202e-03
-3.164188672798238199e-03
-6.636634308119221740e-03
-9.497045916490184925e-03
-7.003875875021835055e-03
-7.094476168818982832e-03
6.441197548179079455e-03
-8.679097369274512211e-03
-4.299467381240442386e-03
-8.052865746786534717e-03
-1.087341869980277057e-02
1.203802476132531316e-03
-2.211180060693187545e-03
-6.844064464608622372e-04
5.046050995492688124e-03
5.204759641294172921e-03
4.608291855165453678e-03
-5.835361583789695251e-03
2.677142838291644844e-03
5.544413469617035135e-03
2.995293421803199140e-03
1.436575716448503220e-03
6.268964073066875600e-03
-3.472321092092065745e-03
4.560544408876740334e-03
7.880624123986457522e-03
-3.610343756059722874e-03
-8.459116281594250553e-04
-1.987350437587951258e-03
-1.274849765664447243e-02
3.393525634067682140e-03
4.139672266202975952e-03
-1.269652122779091168e-02
-1.657501307078110622e-02
-5.629159962299816987e-03
1.010665823926324087e-03
-1.769459798302488313e-02
9.114201409418863989e-03
2.568789854792279809e-02
4.206576100218018845e-03
1.980436650364457776e-02
2.725853354332233303e-02
7.036302722497322091e-04
4.695598200813614481e-03
3.249275628402218535e-03
1.376487528490323055e-02
1.503247048716320304e-02
1.622490623491685061e-02
6.147651088430785768e-03
4.372115557286657996e-03
2.679582075265836763e-03
-2.188663581281450471e-03
-4.537092543745546800e-04
-1.537154185193572711e-03
-1.561225554489600875e-02
-9.970752347887598330e-03
1.235940982295555051e-03
-5.852546565304314781e-03
-9.813899483088434766e-03
2.137215219253206337e-03
-6.930113250369225250e-03
-7.212074788044605007e-03
-1.197748099840351306e-02
-7.414007377210774137e-03
-5.884348715817065527e-03
-1.039373997101618492e-02
-1.528850158515169567e-02
-5.196001968104454680e-03
2.750826504827837463e-04
-4.074043476565586755e-03
1.396459513958560328e-02
-1.365507293101623359e-02
-3.111139692762603104e-03
9.537726997176278892e-03
-2.418881323714128315e-03
1.461236017738200971e-02
1.903738570341623540e-02
-3.291524522988818150e-03
2.470435489342547811e-03
1.376997097299987108e-03
2.866633602008563167e-03
-2.052450198192800647e-03
-5.315291053987247598e-03
3.548831682412502929e-03
-8.093266101347364530e-03
-8.717124582294046020e-03
-6.518780166088538816e-03
3.061662700755257357e-03
6.049006930032046168e-03
-3.453957360745716406e-03
2.732614282180149869e-03
3.144066978986768436e-03
-6.115991694981505813e-03
-5.735711578368217793e-04
-5.552402951227620662e-03
-5.577886059516712521e-03
3.317424621937422376e-03
5.694744774466084427e-04
-6.335405217205920467e-03
1.003399256005367600e-03
4.080820741734118330e-03
-2.081693418618242683e-04
5.981606535866460135e-03
9.427481201729726382e-03
5.865257000742927010e-03
3.260055148137645797e-03
-4.197513944066305971e-03
-8.959352394789916324e-03
-2.426921424867831308e-03
-6.778264467976107509e-03
-1.032844436832318705e-02
-5.023202322449574903e-03
-1.734235173612768549e-02
-1.168820248050356399e-02
-1.025173325734224372e-02
1.777360254263313764e-04
9.271490908560661021e-03
-1.148273830719774493e-04
-2.890204076834206916e-03
3.708524907095764322e-03
5.946693098236077550e-03
1.171281445951842526e-02
1.770691029351945459e-02
-6.262061344698913049e-04
9.098874279795053296e-03
6.656477911450225243e-03
1.946345913522197274e-03
7.149492736509025122e-03
6.134148487434249071e-03
2.307857366127322001e-03
2.227154892126558677e-03
1.080432815127358413e-02
-3.277212835638005891e-04
-1.018040607147165100e-02
-6.088305576804220291e-03
1.418202153794424075e-02
2.691391721413625244e-04
-1.100635954233109177e-02
-1.595770935625553138e-05
-5.031399767560154959e-03
-8.538080190325925134e-03
-1.148702490894010914e-03
-2.400160115732513123e-03
6.458044231782474748e-03
1.138294645202578845e-03
1.489731222269761839e-03
4.984145429124122242e-03
-2.402327728092706026e-03
-3.171909663153282388e-03
3.393439840856924718e-03
1.225449485632734876e-02
2.208182011610704612e-02
1.553325215223922708e-04
1.922111248816781720e-02
1.312395441749311144e-02
-4.185827703036736069e-03
1.918161779354825985e-02
7.074884472081549884e-04
-2.316433681482644308e-03
-4.585270135288250018e-03
1.714956357319204292e-03
3.695227300574565384e-03
4.819982196825399294e-03
4.261622951603668760e-03
1.170688829095717885e-02
-1.222421635545387769e-02
-1.386760980270503908e-02
-1.275797120684531551e-03
-6.937878145467327173e-03
-9.986203757843233400e-04
1.663909037613679840e-03
1.790984023721079810e-03
2.864822201585354687e-03
-1.978684083744655393e-03
-2.665916781784840369e-03
-1.827799981235483017e-03
-4.635094100866756113e-03
-3.120557963605343887e-03
-4.961908779831560989e-04
-8.742602050317687876e-03
2.822341958869328902e-03
8.583035634361106322e-03
5.160882369047261383e-04
5.915812839386611977e-04
-3.170772468943318292e-03
-6.720359168958536800e-03
2.723423955858373345e-03
-7.034773627084505224e-03
3.131496966708681527e-03
1.617168935793201166e-03
-2.949551922363716563e-03
1.489155526209988596e-02
-5.146897817092576863e-03
-2.830018360147432217e-05
1.167331898693121928e-02
-5.575642206326981987e-03
-4.114932094719059817e-03
3.392854614693459054e-04
-7.942028023558197342e-03
9.329415267785617005e-04
8.616175889229004889e-03
-8.022768034497994305e-03
2.392602354520782272e-03
1.541875087375624287e-02
2.451428572742078878e-03
-3.211651362501187750e-03
7.192417879473946354e-03
3.684296271639623654e-03
-2.075358233565881283e-03
7.236545371439381466e-03
-2.701532724201675603e-04
-2.609800808358455487e-03
4.562390690226246319e-03
-4.457643375626262582e-03
3.462792155852200630e-03
7.471351761553892204e-03
-7.330814239783844206e-04
-3.251483500588213133e-03
-1.680890515441690186e-03
6.903353886153027787e-03
-3.061658421933191056e-04
1.132270452717642128e-03
-1.491749659333385311e-03
-7.411051294638986049e-03
-5.678638704734371295e-03
-3.359164142206269750e-03
8.496145789161167056e-03
4.338521163804039474e-03
-1.300363316303288115e-02
-1.121513377348869363e-02
-9.364680541284961524e-03
6.909316813685657463e-03
8.323512239599208454e-03
2.236229398514688553e-05
8.315978595384575537e-04
1.522006960588440832e-03
-8.977780308968107484e-03
1.192306468979684349e-02
6.225923774973864122e-03
1.288890121714216398e-03
8.142663740654580706e-03
1.531283835811095718e-03
1.610384279932010375e-03
3.360384967938430476e-03
1.109858566212292182e-02
7.327511961608543754e-03
3.166213384032122262e-03
2.189880517175369756e-04
-2.427451415328264576e-03
-8.234829373461751909e-03
1.848332686886262769e-03
-6.859359037671635762e-04
1.346171237838332101e-03
4.663037726335641890e-03
2.092007908191873596e-03
8.533564866094946622e-04
-6.703007184038003996e-04
-3.659012712052330408e-03
6.720717812044422340e-03
5.068679782776794318e-03
-1.051806425801095953e-03
7.475356155531820770e-03
8.037837267846379558e-03
-3.025203441407618970e-03
1.766725572654816493e-04
-4.097354499180507793e-03
-6.506477969173393543e-03
9.826607973607926275e-03
-3.897731306978441997e-03
-5.986552076206969573e-03
8.043767909721602147e-03
6.726720026943293351e-03
5.905332837195795877e-04
-7.948439449440096102e-03
-5.076449540172698477e-03
-5.506300588386870039e-03
-1.096054813939082101e-03
4.586103727623447833e-03
7.310157448293154621e-03
-9.135915264451739681e-03
-1.118413818093536016e-03
3.993971156359980325e-03
-9.060979475644312386e-03
-4.046692078969000780e-03
-2.412162795103046584e-03
-6.401301410923438372e-03
-7.263700332204759032e-03
1.576734845238271163e-02
-6.627717614442492529e-03
-1.518569316042329238e-03
1.675074623794597234e-02
-1.494356006548860699e-03
7.452720992311395731e-03
5.721580185019907797e-03
5.154724949602546187e-03
-2.079219675988426899e-03
-4.892585055147361146e-03
1.565131457763249342e-02
8.972090837063869881e-03
8.243995582786430715e-03
1.657970032586236764e-02
6.113161643168749798e-03
3.213989738760191905e-03
6.352324652113976004e-03
3.226825621482099730e-03
2.743497271612807022e-03
3.371058295089859359e-03
2.583187799306102452e-03
-1.120677956789697212e-03
7.805266562261290201e-04
-1.205110688418304472e-03
-1.120183324958881491e-03
-6.845161711565130383e-03
5.040121757357629573e-03
3.017484835384593063e-03
8.124243022677137688e-03
9.900323909142753204e-03
5.972952812730126376e-03
4.182326070651548079e-03
-1.061762077796929264e-02
-1.882018491567561888e-03
2.267730378301574881e-03
-2.884044712470370565e-03
-8.057055013679547545e-03
-4.658801303506595465e-03
-4.086915923766966559e-03
-9.557881610549965462e-03
1.715182356921047830e-03
2.051712101386436379e-03
-1.010095165207074066e-03
4.462167257501372178e-03
2.457606608329475101e-03
-4.679749249389677720e-03
3.224358297085382855e-03
-3.047569427821716394e-03
-9.639317513551201241e-03
1.059154194095348299e-02
-5.470134233858832233e-03
-1.103306911661779480e-02
-5.653450835167825490e-03
-6.083768469479090835e-03
-5.983729220594961699e-03
-2.720277271212741613e-03
-1.771096836726512077e-03
-3.693247178417622886e-03
2.410748838902185016e-03
-5.771023724418375888e-04
-1.150506267234265674e-03
-8.657079094275885525e-03
1.294381017376214664e-03
2.038041459377857353e-03
-1.154006090844670977e-02
9.597930801610876379e-04
-2.368650675547451234e-03
-1.016010520018007651e-02
-2.799580375906049207e-03
-5.594043280621304771e-03
-3.786342677056475062e-04
6.482044728225739433e-03
-6.547314074510604542e-03
-7.289156211626160800e-03
-4.909318361295550307e-04
3.958382442810836482e-03
6.365154311094697349e-03
1.227494665334270298e-02
1.049549775043550140e-02
-8.331975555153608992e-03
-1.693617210404153167e-02
-1.831439508386339260e-02
-1.426967204101234690e-02
-1.207851876876428823e-02
5.533937500110397163e-04
-1.067904326872501884e-02
-1.914419404880858891e-02
-5.665326316827853925e-03
-1.642386659868252941e-02
4.974183747879014003e-03
3.908086834345523078e-03
-7.375061344275211234e-03
1.114497976283180050e-02
-2.974277484655235646e-03
-2.478931479538178887e-03
-4.482026243168687508e-03
-9.705760618525504160e-03
3.456360502811444725e-03
-4.993161685184582116e-03
2.612056914538647256e-03
-8.048473058058775234e-03
2.668543395057555571e-04
1.691197711568618017e-03
-5.630587338442611875e-03
-9.444064360121784667e-04
-7.113332411230262504e-03
-8.537498270524964544e-03
1.341790754850003507e-03
-1.350722329131941917e-03
-2.345128240224092931e-03
-6.675914655176403388e-03
4.051969228019616960e-03
1.449620493967865124e-02
9.719840277025198344e-03
5.709744574201856306e-03
-3.547456624594057945e-03
-5.884735949214027787e-04
-2.546645589157959556e-03
-6.185600933792647022e-04
2.967823270552677993e-03
8.897582930463029775e-04
-2.681816884581655300e-05
1.355521942190814457e-03
8.468606317885594634e-04
-4.159767342752573697e-03
-9.021388118544448539e-03
1.181191197856423574e-03
5.022210997173675272e-03
5.957435470016296357e-03
-1.350983415074725504e-03
-9.488092466720143489e-03
6.477166093102986605e-03
1.120389817021942569e-03
7.520960813569543260e-04
3.376653827400559818e-03
2.376365975207971363e-04
1.323985312036442784e-02
2.532756629978065097e-03
3.540182627082059681e-03
-5.491946307307311696e-03
-1.205938543242096421e-02
1.228751472070166743e-03
1.016523842521574982e-02
-2.927732847206403178e-04
-5.047981953492653752e-03
9.889859271812991362e-03
-5.633851301711231352e-04
-1.054878814536310775e-03
3.398610213847805608e-03
-1.126060792745340808e-02
-4.548425198478945990e-03
-1.442830275637988283e-02
-3.905087185585428330e-03
-1.623906719103579682e-03
-1.196818817484406744e-02
5.032652684457810397e-04
1.280167353949093142e-05
1.051054578416547002e-02
-6.751019651947345749e-04
6.042183375788438143e-03
2.168751110338311763e-02
-8.021321014672076798e-04
-3.591643631084590234e-03
2.189684955557767796e-03
-4.743448073484452833e-03
-9.442455912008838881e-03
-1.924523920986202482e-03
-2.406441621017138804e-03
6.465714992795128235e-03
-1.136222956253426543e-02
-7.783243854072023626e-03
-1.288413344240930004e-03
-8.671273503003711558e-04
-1.559559458973911600e-02
4.513477919255859806e-04
5.685668420404790466e-03
6.178936668425036999e-03
2.149663965824107417e-02
5.433014285485839728e-03
-3.199345859223537078e-03
-7.217215598264849034e-03
-6.487343271386684408e-03
-7.385225491600800468e-03
-6.313816225980604761e-03
-4.541782910697401456e-03
4.127536532065586910e-04
4.618236903370567976e-03
2.942100742719808409e-03
-3.001857215756610197e-03
-1.362866968149106361e-03
3.553003339434824756e-03
3.579664485235419316e-03
-4.227780386441229270e-03
1.709987866933067920e-03
7.556467840515611843e-03
-8.098669086665101491e-03
2.446030838705969684e-02
-6.948158987940167459e-04
-6.947890978085313231e-03
-1.096636422552982673e-02
-7.650767244090272892e-04
1.191616936803767575e-02
1.110349522145969749e-03
1.811287228915598900e-03
-3.314398522277283788e-04
-2.066441751856320716e-03
1.272325245561893234e-02
1.118201218984435363e-02
-3.937431968532897897e-03
1.306399742329495024e-02
1.218607746395346768e-02
-3.210085508116987830e-03
8.526153362801103253e-03
7.805058261423446393e-03
-5.422994256667106397e-03
-1.785536305263564841e-02
-1.786203120784149792e-02
-2.679016979015272273e-03
-5.818050118333443696e-03
-2.046369214069534807e-03
2.126400301989779182e-03
4.031180182028708606e-03
-3.091507873648603397e-03
4.798397873405972798e-03
9.806420880084921327e-03
2.205151633128500394e-03
2.928409484568548701e-02
1.446762610362489418e-02
-9.906737279943773553e-03
6.138831269201531701e-03
-7.136161093903212703e-03
-5.152386184359718582e-03
-1.005452584918019136e-02
-9.830385590016362668e-03
-7.086308926997452254e-03
-1.601707801241963533e-02
-6.810420788260766745e-03
4.683522197992224904e-03
-1.194510587471775930e-02
3.470222135877691714e-03
-4.592335248486667781e-04
-5.952467757597807753e-03
5.033966477323946823e-03
1.614770072549538606e-03
2.231558772491910522e-03
4.983347623300746904e-03
1.810623817003474993e-03
2.907450452646477383e-03
-7.015690858638324277e-03
-4.919111807036704274e-03
1.020189431588650747e-02
1.387323839864079526e-02
-2.013799403979782930e-03
1.767025343038913787e-02
8.477038903717886223e-03
-1.355964741927059587e-03
-3.152243418970843147e-03
-1.295151827722192030e-03
4.981337743881255817e-03
3.820264983902870067e-03
2.642040371181486602e-03
-3.017626814480415653e-03
-1.150571363677240638e-03
-2.284175252944141161e-03
2.603845077026573085e-03
-1.030131274658725900e-02
-4.161177603607105549e-03
3.713860987195742071e-03
-8.260964224148242482e-03
-4.882635043416978641e-04
1.189867812690808928e-02
-4.159705494324530614e-03
4.272664257452763771e-03
2.618450447164634778e-03
-1.056472870247763748e-02
4.249236150706766496e-03
5.113750560515842748e-04
-9.527692964939875331e-03
-2.858139167748228494e-03
-1.886606166789834855e-03
-2.409299485173323555e-03
1.229476187832979819e-03
3.838735491809807093e-03
-5.767224324915784864e-03
-3.419367168673219902e-03
6.189201757052998276e-04
-4.339820564268683303e-03
-1.923661835585883592e-03
-3.924646070232395804e-03
-1.368586294561848979e-02
-5.922786346894437851e-03
2.783283704100491997e-03
-9.167574657901019636e-03
-2.249395236765449214e-03
7.824455134307646944e-04
-1.940217084388558364e-03
-6.162624437266512505e-04
-3.562207085698535468e-03
2.006465697450774462e-03
2.326844639044669833e-03
-2.278127332445930176e-03
-7.753563221336301492e-03
-4.467437210351241084e-03
-1.176981673258818348e-02
-1.684208625258633990e-02
-6.932781679403038008e-03
2.283120328812989451e-03
-2.925307338570784510e-04
-1.535591637171877539e-03
2.093580569792996798e-04
-4.824864916278306373e-04
-1.105598804353795199e-02
-1.935525939469055767e-02
-2.466549346447167133e-03
-5.245700680891578205e-03
-6.919834936291242161e-03
5.690962295759845364e-03
-5.459334875948372579e-03
-1.104740589342526752e-02
5.433472508430712633e-04
4.702497412411023661e-03
-7.463772995215655140e-03
-5.703866686418838580e-03
2.454171394732566295e-03
1.236863995496704713e-02
-1.947767793174242160e-02
4.479968420382769365e-03
-1.254824395076033043e-02
-1.097025792967674246e-02
-3.497840739503673031e-03
-4.225258140866207553e-03
-4.452835443624388566e-03
-1.000459174075726473e-03
1.656964060671033828e-02
-1.145770394991471770e-02
-2.327242802941582173e-02
-1.650789132638255316e-02
-6.687016670627684081e-03
-1.060692231573056102e-02
-4.061115963894291331e-03
-1.433994680134985291e-03
-1.054065945408905755e-03
-1.087214110114380263e-03
-4.094118257291991421e-03
1.969467987611160306e-03
3.727092053583497874e-03
-5.178255782491216451e-03
1.141790429440979037e-03
-1.244270421179917777e-03
-2.779258974606574426e-03
1.975139030554316343e-03
4.298179676835840908e-03
-3.147456446437484501e-03
6.250208091458453810e-03
-8.955096886414785386e-05
-1.513152681648960397e-03
-4.101740894731418716e-03
-5.648775872802749322e-03
-2.310705530982907520e-03
-3.402807845507715805e-03
3.376953993610136689e-03
1.759791373945378268e-02
2.415747405731074812e-03
6.103892069278495786e-03
2.276136979193731438e-02
1.052478925373852335e-03
-2.344264028812044747e-03
4.194518866618439715e-03
2.536867927731292337e-03
1.391190088146888274e-03
1.385947171055941333e-02
6.469852993055034366e-04
-1.228462090527244381e-03
-2.770874488656075232e-03
-1.152750916318339043e-02
-9.890132176865970917e-03
3.569179822999840167e-03
1.879080096132765580e-03
6.664501498633780725e-03
-4.429480878380653332e-03
2.268324580332006790e-03
3.727387699388039211e-03
3.407689530762060375e-03
-4.565090120967767000e-03
-5.814431988824327220e-05
2.046320325559295144e-03
-3.073154468786392767e-03
-9.268597704432922097e-04
7.891473110768605637e-03
2.681200174867434671e-03
1.862259427739260034e-03
4.121936160671988390e-03
2.584013883199633241e-03
-4.446926679862272733e-03
1.526881858267222641e-02
3.934378379224218528e-03
-7.208211365349964650e-03
-5.846307755441519476e-04
-2.318709767431287316e-03
-4.689632161829534150e-03
-8.447318158155758122e-03
-4.788182078247496358e-03
-1.379862846835734494e-03
5.893097856338944118e-03
1.217395241749837619e-02
5.445019649419487531e-03
-1.227397018211725740e-02
-1.005418507877050421e-02
-8.249162803360359994e-03
7.081751363854521877e-03
4.708438266198341701e-03
-1.250589767205420241e-02
-1.462056740443452418e-03
7.926169969515090008e-03
1.382555777339223094e-03
5.743586617212428913e-03
-1.818063286590390496e-03
-1.735438796494877820e-03
4.508209653675309195e-03
2.366589439383651530e-03
-7.279539652791472372e-04
-1.765311894972598425e-02
-4.814163199020204606e-03
-6.675810573506804450e-03
3.213326705398939203e-03
-3.997074598115566389e-03
7.446166375650290381e-05
4.036397773900394018e-03
-9.120212161621172112e-03
-9.082998991673111797e-03
4.672681317930798585e-03
1.236632067176301943e-03
-1.703691544451429269e-03
8.174504140672608082e-03
-2.811368621138665962e-03
5.334872486515647482e-04
-1.744986245910362839e-03
-5.870319841937350928e-04
1.799342512576684872e-03
-4.268330246631798618e-04
6.386455962202008257e-03
1.506767562736604713e-02
-6.606447583246330239e-03
-1.371550715213102484e-02
-3.644709644252097300e-03
6.879542920999951426e-03
1.699842626395196843e-02
1.190187938307450156e-02
-9.153117290526929448e-03
-6.358535288686302522e-03
-2.133144065684764606e-04
2.238494354648273149e-02
2.953575914054665241e-03
-1.443755974479316809e-03
1.724721220847373268e-02
-7.198061828270737109e-04
-1.684117466886694489e-02
-5.973375242628036104e-04
-3.278040540813134370e-04
3.491508438212578575e-03
3.424477395758713551e-03
7.526372964734784820e-04
1.151663525235974844e-02
-2.128284803005483540e-03
-5.793037945583600148e-03
2.149661821698476815e-03
-1.200028230705593724e-02
1.801334177045061042e-03
9.156850234042139200e-03
-4.532936978792380910e-03
8.715194018714032820e-03
2.436595521553934149e-02
-2.839984394481341514e-03
2.402782382166320733e-03
1.019843220316797930e-02
9.221201363543037738e-03
1.836679525728683940e-02
-1.976276768622355767e-03
-7.975823516294703111e-03
4.618339999647852294e-03
6.345848263529049564e-03
-2.096791050630114443e-03
-1.367784137835297877e-02
7.136560234350829883e-04
4.942733829201722412e-03
-5.892404417443460399e-03
-5.024037463532842612e-03
2.752670887183882031e-02
-6.359986319955924746e-05
-6.300902419430601947e-03
7.614827531963254924e-03
-8.914370223524127612e-03
-1.050486741864386760e-03
6.435869504381868398e-04
-3.845012583459136990e-03
-1.084616330223406614e-03
-1.462333493152338749e-03
-4.383222275558808397e-03
-1.046071674549443409e-03
-2.826319184486940361e-03
1.280101073282161658e-03
3.722397430737785402e-03
-7.380118189403378146e-03
7.226641476353587445e-03
2.346842417327917388e-02
-5.371645302003431356e-03
1.437740080636341206e-02
2.222942035822552190e-02
-1.217695185214599622e-02
-2.594507648329373714e-04
1.192371772548778434e-03
9.049879394989199591e-03
7.725936374197598343e-03
-4.571999803566748934e-03
1.031507796812796730e-02
9.373966575067432111e-03
1.196220088517347194e-02
-1.353615250367710618e-02
-9.078941128435916511e-03
1.020638453550741509e-02
-1.399142835719196197e-02
4.580061134534966030e-04
2.246377446906379447e-03
-1.308910760375849545e-02
-1.153680311293079491e-02
-2.165897136312962268e-02
2.050531409726091131e-03
-6.241256501213639750e-03
-8.154646251440172272e-03
1.089379113544983874e-02
-1.832590000985033496e-03
4.132978448425043451e-03
6.478378139140770001e-03
8.888297128670372832e-03
4.680559946435534913e-03
-2.400216035403723077e-03
-1.626010194075250444e-03
-4.472674647377607518e-03
-5.387203247234561947e-03
-3.853769429487195752e-03
6.437968714163974995e-03
-1.929499747560384356e-03
4.891250351157199437e-03
6.050664405557038342e-03
5.929871087059599734e-03
8.991984929024424839e-03
1.745158256127401098e-03
2.122488567351556087e-05
-2.137051614622459319e-03
-4.250755930576434645e-03
-3.364774590638349924e-03
1.172132844871765639e-03
1.066384659009096724e-03
-7.271071185992702621e-03
-1.682417295894144326e-03
-1.828619129034427752e-03
-1.851970580031627595e-02
-1.108976963191615067e-02
1.740517509746771722e-03
-7.058981654110360257e-03
-1.595002679392462999e-02
6.415631261839092924e-04
-1.430979051405373639e-03
-1.763948810025170455e-02
1.382167181656385581e-03
9.686729731889266032e-03
3.485790473954938126e-03
-5.498273057578980348e-03
-4.130174380843485565e-03
-3.953958892898463105e-03
-7.257997163799167345e-03
-4.139124517773248857e-03
-5.773933704013020814e-03
-8.358609468409900628e-03
-1.841430101203837865e-03
-1.248558012003296233e-03
6.982470845199072792e-04
-4.137512376149466917e-03
-1.092249514577771710e-02
2.530115618390627757e-04
-1.213403878057020806e-03
-4.391447415894850388e-03
-1.605703645725105972e-04
-4.814941345421483616e-03
-1.101895477992031157e-02
5.002239191091665399e-04
-9.776888414822566993e-04
-7.874353682324022538e-03
-3.857968264284281773e-03
4.402371362279514956e-03
-1.165876053678361474e-02
-4.662928328243897552e-03
-3.921465052151972691e-03
-2.233438583012532699e-03
-1.310282482167005828e-03
5.577036297201975329e-04
-3.218641686154743217e-03
-4.270111803267172441e-03
3.787808857376180182e-03
1.478618386571686890e-03
1.193297970230408015e-03
6.048024562576177201e-04
-1.448646172007528321e-02
-4.022260547939261396e-03
-3.634746339115757507e-03
8.990852588983714797e-03
4.320902257649082354e-03
-1.008611129618158840e-03
1.258101495944857762e-02
1.282307579238276332e-02
-2.160260433128283024e-03
-3.656721293143778712e-03
-2.613286139712224683e-03
2.608530062401523148e-03
-3.886772553350639325e-03
-7.156927406700220803e-03
-3.976758914642248600e-03
-2.628813565327296504e-03
1.952995907213318696e-03
5.158423430080378951e-03
1.681371116674281211e-03
1.148933265297334000e-02
-1.132340746605100049e-02
-8.829808672082847462e-03
-6.476723851380525310e-03
-1.326635805963584727e-02
-7.759155211537810057e-03
-7.867048905647763130e-03
-5.621689609742418041e-03
-1.261092916598057986e-03
2.321395078411582534e-04
2.111839297511420785e-03
