1.705397686052846293e-02
2.486282348957178073e-03
1.413943051154312007e-02
6.622360331737862753e-03
-5.906619412540275484e-03
1.341653709426283980e-02
-1.458760646747407717e-03
2.699981775449270937e-03
4.230904998862085342e-04
5.641513020334991413e-03
-5.586627367924157546e-03
-1.300273588688640163e-03
-6.563263568078099922e-03
1.882053209087687987e-03
-5.364536448715893913e-03
1.643359535559318560e-02
2.693948557819856454e-02
7.833015696604436057e-03
-2.756387138106674434e-03
-4.780187403809899559e-03
-4.598610968127005150e-03
-9.784748968460144775e-03
-1.151798689409140770e-02
-3.644372819772332913e-04
-3.899945438603468796e-03
-2.801206807488718455e-04
5.877434415092017139e-03
5.115021744455283854e-03
6.993457322985793291e-03
-2.967844798745653250e-03
7.826760395031283606e-04
8.252586561887584327e-04
-4.090671808178808315e-03
1.266556702546403450e-02
7.439756311392269235e-03
-5.829133042592042104e-03
-9.971895224205641617e-03
-1.754091381716586448e-02
-9.576730969581326346e-04
1.236682453062236051e-02
1.622823557709355408e-02
4.588109489419072047e-03
5.444060222042700764e-03
2.099819901286205728e-02
2.967747142138814787e-03
-8.317760092744676953e-03
-9.010568299646868132e-03
-5.559072180062996196e-05
-3.137267134455085094e-03
-7.998817008283863259e-03
1.063279177824509245e-02
-3.826684130847998570e-03
-5.922012016745914487e-03
8.753170558014958247e-03
4.784106110817118278e-03
5.080510125830177762e-03
-2.189171360439016046e-03
-1.940023339769719225e-03
-7.595778388496577001e-03
-9.251091432080176674e-03
-1.492676710891815755e-03
3.027974120775402708e-04
-5.712368167331627771e-06
1.121999002063978589e-03
-8.060835363519248693e-04
1.122077466696731578e-03
2.779077028568851301e-03
-1.920398697899401274e-03
-3.723644344952519152e-03
4.118373292423959005e-03
1.839488690923788685e-03
-1.641668643461380306e-03
5.311250630215541427e-04
-3.481417312108778164e-03
9.251673035617040755e-03
3.935651748189065470e-04
-3.481284589616087579e-03
3.365828840760855430e-03
-7.368761466431023727e-03
2.636541932152958612e-04
5.220708250627601257e-03
5.450125866190216016e-03
-8.884937599579926376e-03
9.918377329869347905e-03
-5.996753255705399629e-04
5.788049021210962646e-03
8.757967985957454751e-03
-1.646667228931860197e-02
-1.384451132941704604e-02
-3.663937321763150769e-03
5.859110981523624369e-03
-3.186928912505146427e-03
-7.786571496370797707e-03
-3.398905774486272666e-03
-1.997248603166774418e-03
-4.841610958669658078e-03
-8.182710243274547365e-03
-3.613366847101197148e-03
-1.295861131385457566e-03
-9.845572444208770813e-03
4.049806854321176715e-03
-1.192395653176771958e-02
1.066801715732094979e-02
5.956533627263226570e-03
-1.663082588141547025e-02
-4.142373063396390977e-03
1.378023782296351578e-02
-1.723064294103431558e-03
-8.481391467079111082e-03
-1.019806302395999918e-02
-6.702640472451996088e-03
-5.979358691059578424e-04
-1.224846868218606305e-02
-8.341983267344721745e-03
-1.933253361484853455e-04
-9.455450513149117608e-03
-6.838673486409889771e-03
-1.277509230350592530e-02
-7.268944160034937832e-03
-9.798162046851492321e-03
-1.082774170180305067e-03
2.526860742887407970e-03
-6.665541142271944747e-03
-7.508013000836682299e-03
-3.729012441908332275e-03
-1.101744870984716629e-02
1.567921126460666923e-03
-4.105768614669910548e-03
-4.310266074019583962e-03
-1.052819740474345879e-02
-1.756299024315188112e-02
-6.269212549416292328e-04
-2.614089207735960808e-03
-8.154002971389471069e-03
-1.021369863852512362e-02
5.787821470005453245e-03
1.744916185304225958e-03
5.969065910930351212e-05
-2.266282374587607132e-03
-5.083159108422231551e-03
-1.240219601755594009e-02
-9.721217501397571127e-04
-2.552687898975829640e-03
-7.444584846168988794e-03
-9.583033025668949087e-03
-6.988392564795236142e-03
-8.129025880243584412e-03
-9.725339628247989818e-04
-2.758492787994273106e-03
-2.622204509469470458e-03
3.670353813295464725e-03
5.534089433129068918e-03
5.624321687006103750e-03
-2.688414557748178128e-04
4.589199925353342965e-03
-1.823514671707553852e-02
-1.034191384520045422e-02
-6.005669039972954572e-03
6.194180980004042845e-03
-8.354660339185691550e-03
-7.999101117369780342e-03
1.333336759996491851e-02
1.887614545468229961e-03
1.571863493514523251e-03
1.823245079144274606e-04
-1.908673872238237420e-03
1.199694070590918982e-02
6.895936455060549218e-03
-6.437067289207076132e-04
-1.699859726929539799e-04
1.104902685974176388e-02
-3.177449246169921845e-03
-3.941511521651895264e-03
-3.571281562710622824e-03
-4.006606060002684475e-03
-1.954049505584694573e-03
-1.241730017657149748e-03
-5.439645502424301712e-03
-1.017721541218898524e-04
3.261989892015207219e-03
-8.458762659127774808e-03
4.398778025700867539e-03
-5.154939353816077874e-03
-1.435705203851525905e-02
-1.018752402852472760e-02
-2.640353744766206403e-03
-5.669982183543549777e-03
-8.946901282197583169e-03
-3.312885385963240323e-03
-1.383468156980209238e-02
-1.546398402123847979e-02
-1.162721430062981821e-02
6.229161086405198521e-03
-3.380995024918592284e-04
8.812835728372825578e-04
1.736165851689492473e-02
1.050350725057751060e-02
-6.424094796704106318e-03
3.876398507726839821e-03
-1.788781157664979084e-03
-7.564142361037694143e-04
-1.250604740903527891e-02
-1.393840777983946198e-02
1.297666835980624406e-02
-1.060349272240467683e-02
-1.267344553820490098e-02
7.346204298461538528e-04
-1.093851596637062523e-02
-1.061136803019898690e-03
-5.246812351803755402e-03
-5.454416535524253540e-03
-4.764560649979371690e-03
8.103326544964885607e-04
-1.296660671288161863e-02
-9.136301558003618456e-03
-9.667404940504348981e-03
8.051183195648778000e-05
2.813380325667787316e-03
-5.211545496948930510e-03
-6.339772652803464525e-03
-8.480753117135569202e-03
-4.298275426320501309e-03
-5.984494900705718268e-03
-1.003197175888034462e-02
-4.348425864457289985e-03
-1.044659607194299046e-03
3.170175337170618558e-05
4.154763952362495625e-04
-1.110117397958323288e-03
7.453856945083114493e-05
-5.933474602368251846e-03
-9.665465193732613106e-03
-6.912200616203277928e-03
-6.821159961688942272e-03
6.646369906076232334e-03
7.254089232745714218e-03
-9.419228584220465383e-03
-1.259098697646371216e-02
-2.035903086531784187e-02
-1.112721322772318618e-02
2.109888900735283970e-03
-8.619724501506938891e-03
-5.731707757484688637e-03
-4.770355004827195496e-03
6.805841071254103286e-03
-4.342039348601591832e-03
4.583095444794613171e-03
3.045429956458333646e-03
5.259428341133885049e-03
-3.359957567195676065e-03
-6.045820987484906706e-03
2.673945260940204828e-03
-1.016293454738590590e-02
-6.516899680034642789e-03
-9.352491793548890764e-03
-3.303447195406981549e-03
-2.382408522851944387e-03
-4.116122665836247085e-03
7.265525236164260131e-03
2.126494482949410538e-03
2.364241943138550763e-03
1.003884957419052051e-02
-8.095259505955991128e-03
-2.416581359773405796e-02
8.129769239318416010e-03
-1.659406325915011721e-02
-1.565057412449329804e-02
6.973770278920758681e-03
-1.300890823690161943e-02
-9.995593918728033420e-03
1.446003356979391535e-03
4.483827315417291369e-03
2.235656470872814192e-03
5.618665333386475662e-03
5.832894518691725781e-03
2.988957101396976304e-03
-9.600718297820067275e-04
-1.919648174826383983e-03
3.854053054756349274e-03
3.988224748870007087e-03
-2.674999028515344553e-03
1.266994366277628993e-02
4.411254505592657020e-03
3.812771269320107837e-03
2.258502461084917895e-02
-1.494551793153616782e-02
-1.090501824201497126e-02
-6.674846044756708660e-03
-5.169375187211476715e-03
-8.613620586527013373e-03
-2.523059864797706341e-03
-1.738845828000009849e-03
-1.149004880937988353e-02
3.862675303624584552e-03
-2.948549700791846823e-03
-1.080446436348970161e-02
1.194499851412106741e-03
-3.604455210411538785e-03
2.177550412751535006e-02
-4.762866364408609339e-03
-1.528642149832815968e-02
1.450824935136820794e-02
7.080485761463969213e-03
-1.984725745813050238e-02
-1.893274858139486249e-04
6.260568997079767918e-03
1.466553794794112466e-03
2.873533024954772787e-03
1.919918898547271153e-03
-3.821042105224741001e-03
4.374726975583533017e-03
-3.845677209720425307e-04
-3.929941287530514318e-03
3.476361603179086400e-03
-9.820872486676884144e-04
5.166461513739111812e-04
9.742162204196616604e-03
3.838556384050759857e-03
1.241681962311429535e-02
1.582337541650458493e-03
-6.847773649367574177e-03
1.712188025174659484e-02
1.134446637436759518e-02
-5.677213108553743649e-03
-9.059395283382105576e-03
9.897463168325721858e-03
-1.551594186070684792e-02
-4.010708580121229681e-03
1.681481432217150906e-02
5.843997773247203327e-03
-5.719870947220316235e-03
-1.453316573705578686e-02
5.542051085954136265e-03
2.244867110223563566e-03
-5.475228892883144896e-05
-9.378133628315840197e-04
6.042681082490909336e-03
-3.839077282129319240e-03
3.051497862921065136e-03
-4.558204698679484655e-03
-1.678403665481095416e-02
-1.631251247468986851e-02
-2.621156680471773900e-03
2.102315612022353022e-02
9.385816639316762675e-03
-2.664803056624749471e-03
2.105696943755186457e-02
6.800193766895341017e-03
9.663467003817790071e-03
2.002614927975668660e-02
6.679911179999801704e-03
1.532359793575183322e-02
8.443911690890178526e-03
1.426824014154154038e-02
1.247749303195357096e-03
3.854627494295028746e-03
1.632569800187571099e-02
-9.204532984928115273e-04
-4.851197896451391002e-04
-2.036129506579685393e-04
-6.023462903254458468e-03
-9.314206256090409516e-03
-1.882422343520486060e-03
-4.746535087914462679e-03
-1.255235417361952321e-02
-1.280494845446836401e-02
-1.116124466994362560e-02
-2.163206768701202067e-03
-9.499517208616659394e-03
-1.495408645041801593e-03
8.206244919943755196e-04
6.152908243828667662e-04
-5.481618048106595481e-04
-7.968512541856058364e-04
-1.561373420645805312e-03
-5.744298672821169984e-04
4.323417289424643728e-04
-9.406576586373143010e-04
-1.000113319753521621e-02
-6.185038210109783429e-04
3.010113330668749785e-03
-1.762570652263150198e-02
-3.901106006309445692e-03
6.883003176021329841e-03
1.761863754168554660e-03
7.364495871090634936e-03
1.064617865148518618e-02
9.948149775168779740e-03
-4.241133680060182876e-03
-1.140326658620775119e-02
6.659259635547537179e-03
-9.119977068455119643e-03
-8.374704829054908234e-03
-1.479811584098487780e-02
-1.359907275159745639e-02
1.776175914332127001e-03
5.693392244349591153e-03
1.599700697820026875e-04
-7.718132879077738932e-04
-2.834257630326014223e-03
-1.123916992904382822e-02
-1.005850532289506369e-02
7.193347954449947138e-03
-9.335377755989892820e-03
-6.775948534721938123e-03
6.452938373080966371e-03
7.190716504800819626e-04
-9.771966321909077505e-03
1.504528150794586482e-02
-7.648772745386560930e-04
-3.636426626101243662e-03
1.062513157892260030e-02
9.026312128289842168e-03
3.029422379566389968e-03
1.948493070887120969e-03
-1.168292871451489991e-03
-2.149403440935035697e-03
5.339080689375485904e-03
4.635002005118077774e-04
-3.692143490827810848e-03
-7.715306870320006068e-03
-6.792316762364618114e-03
-9.659088104190317534e-03
-1.597660956715730649e-02
-5.968154763476975037e-03
-7.652924093808525369e-03
-1.188947224945147499e-02
-3.889312368560452361e-03
-1.246423134015544991e-02
6.501819463855126012e-03
2.714956793971228313e-03
4.138128205945484223e-03
-1.048202166591549397e-02
-4.294053380548027050e-03
-8.065804161839379774e-03
-4.698998000905070527e-04
-9.260980200417021774e-03
-1.340434396935189648e-02
-1.428792605444896904e-02
-1.944824651353335362e-02
-1.437454539092552531e-02
7.979908954758318379e-03
1.185692036138251415e-02
9.384617046673303722e-04
-7.737593126042336799e-04
2.512921110629457409e-03
-1.517635986305372695e-03
-8.824323387988809719e-03
-3.341785520220508926e-03
3.730684104326932680e-03
-2.127058930595885147e-02
-2.084515263437229302e-02
-2.128885938659339123e-03
-1.006098651710857390e-02
-2.573781726052885854e-02
-1.744177445122960593e-02
1.778653526546544045e-02
-6.505776818747290458e-04
-1.279824144395701711e-02
1.484705820279614771e-02
1.059557970935676077e-04
-1.357830092738619276e-03
-6.876329723185694090e-03
-2.760772447627260831e-02
8.551253646222045906e-04
1.563620389823917184e-02
1.323320736428728987e-02
8.293367621555945007e-03
-1.009372353797273643e-02
-1.998054647225725594e-02
-2.190515175677515414e-02
3.843935038477582812e-03
-4.253518913238246713e-03
-2.697881404297176964e-03
2.771106703535454463e-03
7.455444713312441539e-03
5.205459680490736631e-03
-8.398696304871545310e-03
4.303543038775456755e-03
1.615263277308918305e-02
-6.651978185497513848e-04
1.503100629893082581e-02
8.243542202705236247e-05
-1.997407248021319109e-02
1.328511618692596909e-02
2.880010221945391788e-02
-8.422844634543184134e-03
-8.057860419009776551e-03
-7.562043121043206771e-03
-1.093372042369081124e-03
2.451653278467089917e-03
2.161998315323146111e-03
1.188054647329171536e-02
5.862201492635398664e-03
3.234138529386974478e-03
-8.773152834215724918e-04
-4.490046419946980977e-03
2.453019716857753139e-03
-1.112528328431738704e-02
8.371330208857215988e-03
-7.381559383609801253e-03
-1.219788331394893420e-02
-2.913703165251589448e-03
2.854060806572154396e-03
3.553935449315685172e-03
1.749254174731538049e-03
1.111735820558831800e-03
-1.174077611459644656e-02
-1.000482133691663576e-02
-5.198252132737778662e-03
-6.557638132766429109e-03
-8.254307052609603096e-03
-4.282644336385809346e-03
2.339823643851098294e-03
-1.167729705783638293e-03
5.585788803083971236e-03
-1.674270868043904736e-02
-6.687607764892022910e-03
-3.831432541960805727e-03
2.874304851496077041e-03
-2.961692809567381159e-04
-4.404334083345905031e-03
2.425738080611499446e-03
4.588894324272870320e-03
-4.660355394694946571e-03
-4.033541562020839452e-03
4.723664777813783681e-03
7.875784765769143665e-04
-8.339187988368678209e-03
-4.427005875286351561e-03
6.450561999472480962e-03
-1.532200771668102389e-02
-9.989927007637395065e-03
-1.602648230610129176e-02
-7.309452233667193370e-03
-3.895948116142482990e-03
-8.446894364976640854e-03
9.067254189391096841e-03
-1.411094796296953179e-03
3.415396544203170605e-04
2.693841663425884745e-03
-1.795180681833171039e-03
-1.660774159400058014e-02
-6.302838848686741387e-03
-5.671587861768340351e-03
-1.118209058497822601e-02
-3.455082266254291129e-03
6.093122793711800355e-04
-1.469973623590876792e-02
-1.401002796643175362e-02
1.402147528142638040e-04
1.693610835249501415e-02
-1.315571175655192403e-02
-6.945479650088022539e-03
-1.069219640530054416e-02
-2.249570275032044750e-02
-1.017710474726965433e-03
-9.881988932246026439e-03
-5.146475655539253270e-03
-1.301165506462678007e-02
5.567047595305629976e-04
1.123407387549277704e-03
-4.970676795866327963e-03
9.564680936107813544e-03
3.019650120463186760e-02
7.932933298975111680e-03
1.320542330553674346e-03
-3.840726886974560241e-03
-4.509963089006473712e-03
-8.634742504018005221e-03
8.758770165227910054e-04
1.629004391406635704e-03
1.035779982264952012e-03
-1.923340650311969671e-02
-1.188066901536593417e-02
2.951672261369185646e-03
-2.070139454956503033e-02
-8.771009946879654295e-03
-7.593392149651733737e-03
4.683754727486984758e-03
1.076765201511329859e-02
-6.677672688951879001e-03
2.563775951886339190e-03
-5.220286907843895742e-03
-8.823003653863353704e-04
-1.767312708486848058e-02
-1.218016916922223629e-02
-1.907122742777049573e-02
-5.657051944258225176e-03
-4.222684002506925209e-03
-8.289063442607495086e-03
-2.790558703223979214e-04
2.372691325494288763e-03
3.901951369436855530e-03
-6.184931572635989257e-03
-4.388300326077913295e-03
-1.022094350866523810e-02
-4.908364603072610209e-03
-3.855849868415136845e-03
-2.356063673608440982e-03
1.433150598835092847e-03
5.402460870058891675e-03
1.013897131484832502e-03
-4.828963670214798075e-03
2.168159472684593088e-03
6.872317636606760979e-04
-8.414127307623532311e-04
-4.241024513562842782e-03
-1.034833087651344449e-02
1.626743868709387350e-03
1.078798543830664482e-03
-5.823845180563512296e-03
7.593972963728400950e-03
3.930528358805784536e-03
-7.481551912425355236e-03
8.880084414527880665e-03
-2.000425149937764581e-04
1.121313986327411431e-04
-5.373651160618496056e-03
-5.305703062887905976e-03
7.897533123558873023e-05
8.080786127884893172e-03
1.758954507954026136e-02
1.375991196536247019e-02
1.062459992398003591e-03
4.665406081089585981e-03
5.932136683225534488e-03
5.260194209166826375e-03
6.939896685664698715e-03
9.095676633869696770e-03
5.274346498512854330e-03
5.268156243222057479e-03
4.406578219656973570e-03
3.212827054169571737e-03
6.263301042804167960e-03
2.806455407004003651e-03
2.891108319101765283e-03
-5.313175743826759794e-04
1.644981282801441123e-03
-9.237985204096666207e-04
2.055847755440546026e-03
1.559086424542629459e-03
-2.275199118860487309e-03
-6.937672532608802310e-04
4.547534350994046105e-03
-4.671992256332473288e-03
-5.486709233812081012e-04
9.064942299855218225e-03
-6.922627081378324642e-04
5.002490504011635223e-04
1.351868010797748453e-02
-3.921894049713596508e-03
-1.980043999407729658e-03
-9.164630309112481270e-04
-1.565203708285593191e-03
3.135836031331480298e-03
5.857489501573314578e-03
4.935610108219094273e-03
-6.013541868393747387e-03
2.105423417063042885e-03
8.560326050231574155e-03
6.716179478912525161e-03
1.283459329476564076e-02
1.069281919976000465e-02
-6.271313368061283422e-03
7.370313690468594491e-03
1.165539280383135270e-03
-1.265776696368437447e-03
-2.451548176574849369e-04
-2.034043437854826317e-03
4.485493250755401263e-04
-6.782870543121500119e-04
-1.080835090981491480e-03
-4.040308875484389787e-04
9.226817598972290174e-03
-5.970077697164978374e-03
-3.726516921325395346e-03
-1.358776419520946882e-02
-1.534338814366613575e-02
4.776211157743840384e-03
-2.597150820525259609e-03
-1.088870589635553866e-02
-1.768462848551908748e-04
-8.448805310052463075e-03
3.375982313679707671e-03
3.546183271963676033e-03
6.759474533648683094e-03
6.763704171642477732e-03
5.793887648397750591e-03
6.002606736815338517e-03
2.999354707597390920e-03
-1.560325584965536235e-04
-1.274513165627591408e-03
1.711363992915723850e-03
-2.256060358237401819e-03
-5.231545234352062701e-03
-5.448535006750172480e-03
-5.657793986011521933e-03
1.326385089014569607e-03
-2.105001242145261749e-03
2.548364903340200396e-03
3.386062494826077803e-04
-1.774413628972554670e-03
-1.148115252523915220e-02
7.838656424630968678e-03
-7.016697021028978597e-03
-8.620094431890934494e-03
5.292820133338465433e-03
1.863812403459926556e-03
-7.454706025113453163e-04
3.032910525952896025e-03
-3.798615768889962527e-03
-5.346059040619807225e-03
-9.937318633346525071e-03
-7.364866709558592949e-04
3.731437816819603917e-03
-1.779523116473830883e-03
-7.555097618146102215e-04
2.002418900261889508e-03
-6.794687003360387265e-03
-7.444009530218497275e-03
-3.397484514265870000e-03
2.626703681083699619e-03
-1.167718565798134787e-02
-4.496997363186504282e-03
-8.825934842051626900e-03
-1.063795421028439518e-03
-4.751783192530390811e-03
-6.039481527969728890e-03
-1.041368453988798966e-02
-1.408411025390358604e-02
-1.371478719836951091e-02
-4.618101535630627090e-04
5.967944018967373879e-03
-1.217744087151999624e-02
-2.020240968192496631e-03
-2.593696012176186644e-03
-1.510994550596127771e-02
-4.893437237556361348e-03
1.035111686118255327e-03
6.549758249585883353e-03
-7.385859095411924716e-03
-4.092534809488556150e-03
-5.538165761732512411e-03
-6.925052892292758028e-03
-8.545600342573864009e-04
-4.349362363018758129e-03
-2.051616194547855178e-04
-4.177214099814757428e-03
7.678630313285152251e-04
-8.222102432976638930e-04
-5.379218939023221006e-03
-9.170917202399055633e-04
-5.090742688401137840e-03
-5.277564888907969147e-03
-2.434262178342762404e-03
-2.577874991724488953e-03
-5.954739620166672048e-03
-6.379775466368914696e-03
-2.949168525575544299e-03
9.147072269991767673e-03
-5.725281081058170409e-04
5.705526746262997405e-03
1.448045989994065086e-02
3.709540312595098564e-03
-5.054907002226864503e-03
-6.263410007074917763e-04
3.186189727430192332e-03
4.351433916790504444e-04
9.197951928243523062e-03
4.811614684717606047e-03
1.033989477392280136e-02
7.193860105942472515e-03
-2.820949627217746603e-03
-2.206964065448555057e-03
-3.725347404356078949e-04
9.981953061121110349e-04
-7.373307249608225099e-04
2.545542925948175370e-03
2.918613415599154073e-03
-1.320738175924526629e-02
-6.640398526488406304e-03
-3.737017921499300073e-03
-8.326810440978884079e-03
8.375406533529378833e-03
7.282480845953629225e-03
-6.362749182750481423e-03
3.603943456904643537e-03
9.005398995976842194e-04
-3.963730413069601471e-03
-3.565071932467585303e-03
-6.369152436072788442e-03
8.270634182371782404e-04
-7.387335536628037228e-03
-8.802928589393415812e-03
5.030762787863263599e-03
-6.210645168328987999e-04
-3.059330663727273959e-03
2.839643162788853779e-03
3.893306459748191797e-03
-1.124996756805811149e-04
5.685984669922837520e-03
9.053520280415425919e-03
7.812648724017143276e-03
2.691105632767677724e-03
6.110431813232431418e-03
7.652521290691060435e-03
-8.339357602798094793e-03
4.253566251821064401e-04
7.524687958214377158e-03
4.632400261123318340e-03
2.131005121613844915e-03
-1.073025360379811083e-02
7.070306949186968767e-03
7.425010303028091018e-04
-5.376538713793370915e-03
-7.633162629322480172e-04
-1.312449816065694615e-02
-7.279310281505403830e-03
-1.112429675726246724e-03
-8.256002647454855270e-04
2.274825139677845529e-03
3.529701070122495156e-03
1.717147382522253921e-03
6.198076312265828546e-05
5.798473022687229868e-03
8.159251496472353857e-03
-1.209427475470932489e-03
-8.471024406790979983e-04
-2.575342681794298965e-03
-6.950577895978689996e-03
-3.243476953200495009e-03
-4.598718468237602240e-03
-6.760202769974011511e-03
-2.240362107484422053e-03
-5.705980846232955490e-03
-6.603517325671031529e-03
6.930642118415933839e-04
6.263968880382135215e-03
8.377034094876644951e-03
-3.702660648745133981e-03
3.548492969367876646e-03
7.486982376126894052e-03
-7.515277586849969556e-03
1.095048025600379397e-03
2.367121574885568645e-03
6.535039444642156510e-04
-6.629527738065349798e-03
-5.065270934223084498e-03
-2.440973465276613172e-03
5.791036087945795018e-04
6.437863037173130508e-04
-6.500401379344134499e-03
-3.447322109231516253e-03
6.190055605141732160e-04
-1.404598015490607713e-02
-1.480250281604021494e-02
-3.768012339915682678e-03
7.235140800822752009e-03
-5.286000498447612946e-04
-1.178465105369476450e-03
-1.110906764453491180e-02
3.598306897885576987e-03
-2.827801063898025338e-03
-1.413599795492252991e-03
-5.228681347625133320e-03
-4.198712355992928989e-03
-1.269192159247800426e-03
-5.292380578372973821e-03
4.412492612913903830e-04
-4.550698998830284697e-03
-3.399987980712625840e-03
-2.635149028380571589e-03
-3.042326320878291097e-03
1.036249475255794509e-03
-6.534736218277851713e-03
8.581566440737338009e-04
1.216542743740706319e-02
-8.883662239101169922e-03
-6.036253030029136400e-03
7.164713396144350467e-03
-6.548699176040313243e-03
4.658395142411172335e-03
2.899259068426813211e-03
2.604787933972235823e-03
3.719445953687870038e-03
1.858842449391330228e-03
-5.212712658399274541e-04
-1.822186178439639311e-03
-3.718874261054681395e-03
-2.723384695561612131e-04
-3.774213935379452933e-03
-7.424240650418857147e-03
-9.461852791403494584e-03
5.599744626659718290e-03
-2.213126463357914693e-03
-3.949769180985635876e-03
-2.406355615069544988e-03
-4.025982785661261741e-03
-3.027031385842385725e-03
1.035951130096379215e-02
-5.761461656406153230e-03
7.387160010472440010e-03
-1.179682793421382454e-03
5.427121308818307543e-04
3.142407045256152831e-03
-1.037852729188815798e-02
6.240299227604946541e-03
6.720140404111936069e-03
-3.299095940916125548e-03
3.093367699857675363e-03
-2.784726156432862278e-03
-2.370659955378949350e-03
7.102880856478226666e-03
1.439416463496565783e-03
7.753941388107348648e-03
5.236921462443725958e-03
3.974452053565500839e-03
-1.716098268606860988e-02
-7.171882850718899272e-04
4.145910291896584207e-03
-6.755212847339962107e-03
-2.705810139232437328e-04
6.283184063910045476e-03
-1.134976454158612407e-03
-6.550939353253673256e-03
8.001246401170900371e-03
-8.960635388840553286e-03
-8.294885881853135759e-03
-4.193646996556051748e-03
-9.194505255235931734e-03
-2.816465574908535476e-03
4.365743735930670299e-04
-1.509141418416879788e-03
-4.577843675047500380e-03
-6.889591431826626138e-03
4.098771165047746488e-03
5.330590305106800569e-03
3.967577443488274659e-03
1.883897822000839837e-03
1.062334412308591804e-02
1.408249427925479386e-02
2.887244031898131887e-03
6.089567620638804829e-03
8.801665146208815420e-04
1.080103304688970678e-03
1.708977700038849350e-03
-7.770663705784978774e-04
1.402602786013485824e-03
2.118967528001965313e-03
2.178861144615037645e-03
-1.000562690483178859e-03
3.279856104838271575e-04
1.481833073920589593e-03
1.399240769862400121e-03
2.653933531860970009e-03
3.437262636227097871e-03
6.995469449849186366e-03
1.024011555023074914e-02
5.787157748788693615e-03
5.479803314996427484e-03
3.143312040364576367e-03
5.264630435529147647e-03
-8.532599573835694326e-04
3.775350910982844081e-03
3.503543482005014482e-03
-1.020723866310068416e-02
-1.537830009879402951e-02
-3.291235228841162160e-03
-8.091033453319880844e-03
-4.354978953472370302e-03
-1.432980619503232932e-02
-5.615380506461341292e-03
-7.992595081819250935e-03
-5.894595780171672794e-03
-7.940367668662087763e-03
-3.980170212524880395e-03
-4.052060746042424576e-03
-7.554728076422450103e-03
-1.440528046973515303e-03
2.855004166658607449e-03
1.277431978235794114e-03
1.946548826325085598e-03
-8.041780123787894974e-03
5.750823834580062570e-03
-8.105477382331739223e-04
-7.957617550908508211e-03
1.901906016683519449e-03
1.060233201519263264e-02
3.451156813375217259e-04
-9.958870385558073191e-03
-2.330578853578917000e-03
-8.662771940251010397e-03
-5.597243132416957617e-03
-7.040275952422375694e-03
-1.493238847329968590e-04
1.506925326744814643e-02
5.906271474350383022e-03
-7.148699592752094482e-03
-7.603045348633085190e-03
-1.068382348428564659e-02
-1.471710515040866064e-02
-6.126379547790838237e-03
-8.512737753922768004e-04
-6.555142366493529448e-04
4.352790793139391448e-03
1.669443810889911090e-02
3.365282613953258280e-03
4.619519550303373932e-03
7.237957601179289451e-04
3.073943709231744068e-03
1.159178429446730378e-02
5.499510809946707782e-03
8.046468052685136832e-03
1.880837355840662278e-02
1.102197018558475836e-02
9.355969842870946653e-04
-9.520444999905053590e-04
2.364068849626073041e-03
8.664752526113466552e-03
6.430751762616446730e-03
1.324954255015852768e-02
1.756011979592778105e-02
1.206501562928346052e-02
1.249091850566721312e-02
1.248751398852002495e-02
4.443701508514794063e-03
1.611995727231227762e-02
9.441383039608964786e-03
-8.403381261103190850e-03
-6.072213951157122598e-03
-3.674936637604247786e-03
5.768015043757616055e-03
1.614211251894643803e-02
-2.708617818145495331e-03
-2.601077971731248668e-03
3.077231866343199153e-03
-6.274559615837835454e-03
1.535647445675260812e-03
1.076382593936207888e-02
-1.925788420966720576e-03
-3.223219090072727312e-03
2.883413272162421975e-03
1.563171352068256411e-03
9.789175051073444739e-03
5.717652102952676049e-03
3.158489382737251182e-03
-1.261385830698012397e-03
1.375945909802001044e-03
5.307637548481966040e-03
-8.140470690874446538e-03
1.943824719556335985e-03
4.510672132640127473e-03
-3.401309603915093210e-03
-3.117612866413294048e-03
-4.871517422774157384e-03
-1.195264462265679950e-02
-1.039775455516554065e-02
7.336422843959357907e-04
-2.882589137417812877e-03
8.118387676211616779e-04
3.081532503680831092e-03
-1.193528799486912560e-03
-1.008569666136956665e-02
1.110318899747540040e-03
7.350929143922572614e-03
6.939764301471502777e-05
4.009597961392357378e-03
-2.061166912879090589e-03
-4.729482249326060796e-03
-8.587281887916225348e-03
1.281663267950435350e-02
5.285681247925846303e-06
6.771564637191942321e-03
8.712492189078924892e-03
2.686603584097007821e-03
1.325194247589552010e-02
5.719201022665621262e-03
5.673967044876412728e-03
8.554871180505591727e-03
-8.434180184798520559e-04
-5.301970420300970710e-03
-6.320827768097171152e-03
1.142232513141113338e-03
-2.476826161710348351e-03
-4.456460435738018346e-03
-4.835816832573573178e-03
-4.842554620998613425e-03
-4.369881419913176218e-03
4.814606271653241489e-03
5.002610808455360165e-03
2.683817845953399579e-03
2.858515922398049275e-03
6.048122246724902838e-05
-3.104475152760188816e-03
-2.600455248319677535e-03
-5.148100050676030067e-04
2.220648942447654619e-03
-1.088435718654551590e-02
9.802978013786771590e-04
1.368207252501807414e-02
-9.445713260006528139e-03
6.108047911652901302e-04
1.219533541794743867e-02
-3.352304402298287092e-03
-1.239422775343207396e-03
1.094753748111704748e-02
5.016719955838985431e-03
7.770616372889087818e-03
1.501666296875581695e-02
6.095499763731692354e-03
7.559836084770729832e-03
-2.137952456713403896e-04
1.395107769864383299e-02
2.732261092694245053e-02
1.107243987193095615e-02
-3.597916401494472699e-03
-4.731549858689816992e-03
-1.857556818911780191e-03
-3.824810335832358119e-03
-3.818286531540827141e-03
3.479607828213935380e-03
8.270483308766128248e-04
2.090591210389575703e-03
2.376110141120443744e-03
1.348833947518560117e-02
4.745103337597718525e-03
1.150679117718032309e-03
1.753581238168355413e-02
4.330786913161879733e-05
-2.088092920978308099e-03
1.021740857952885100e-02
-1.922088566271210226e-03
1.246099129613788313e-03
-5.227106296209247695e-03
1.528670847998919030e-02
2.983782184849122221e-02
-1.019803833146179506e-02
3.273494021274369909e-03
1.215866647558507506e-02
-6.817631871169239390e-03
1.881424431665015178e-03
5.990237566406719956e-03
-3.436228708282470373e-03
-7.627826338361723933e-03
-3.155379463561887483e-03
1.377528529550719506e-03
-2.525350022289508771e-03
2.666418322728823526e-03
1.085108462598886186e-02
-4.900554675250530512e-04
-8.000814488495891497e-03
-1.716644106582688881e-03
1.965128194189929775e-03
5.759614135459716067e-04
5.138639214690553063e-03
4.596291226543793886e-03
-5.373663802134256897e-04
1.837705413425384446e-03
-1.974026265796134487e-03
3.794294180076966498e-03
-1.276291387048782838e-02
-1.036559953977875780e-02
-7.376608800650556698e-04
1.333559469255048320e-02
1.922301953440247110e-02
2.120984030072619111e-03
2.391474861136446643e-03
2.446722229501084502e-03
-3.680563500739120718e-03
-5.301929704672359890e-03
-6.320993156061738630e-03
-1.006479932206313932e-02
2.298708127448308852e-03
-4.944733863137280166e-04
-3.452694401846318883e-03
2.424513597394881495e-03
1.831965787367047498e-03
2.463187052468968768e-03
-3.050817321735812843e-03
-3.594922423636755845e-03
-1.453224882308036233e-03
7.249986088972930516e-03
2.145971988583135048e-03
-1.854101986140944871e-03
5.166424112573723970e-03
-5.658138779656098419e-03
-3.180980019888006959e-03
7.811766465091038100e-03
1.030155306267378432e-02
7.315559610433124312e-03
-2.076185224933512277e-03
-1.021088348310987722e-02
-4.009320783103449519e-03
-5.550610727281870237e-03
-5.127054064601724824e-03
3.180796845017253710e-03
3.219602177191798788e-03
-6.394767936068120355e-04
8.077059599116191918e-04
5.567297253488755291e-04
-5.986290396071579194e-03
-1.155700016217653099e-04
1.346651452817926482e-02
1.399662304446330253e-02
2.421960157309549846e-03
5.284361429237870514e-03
6.112191856695614080e-03
4.283549196130428949e-03
7.766098680126376150e-03
7.945638454375986148e-03
1.751242030863569155e-03
2.791174648116767718e-03
-3.334033852669642927e-03
-9.642653237985054568e-03
7.775621351622396702e-04
-4.585304477054373551e-03
-5.236187539040293958e-03
4.862055727634190423e-03
6.520801934278927341e-03
2.228402221556815849e-03
-2.641487974557847705e-03
2.406266782355029939e-03
1.585713593091850468e-03
-5.473989031105163869e-03
-1.016722093459091272e-02
5.343704142985099791e-03
-2.952178644564670915e-03
4.302928525034648705e-03
9.764231595529630769e-03
8.436539842645184376e-03
1.325647393632820026e-02
8.925757651303024842e-03
1.092524632494437827e-02
5.260906679621495455e-03
4.057664198121314382e-03
-5.902986339706047837e-03
-6.602317613871466588e-03
4.902637988152304394e-03
6.991212395179442242e-03
1.574763918900789084e-03
-4.281560692004655194e-03
-3.719502471310958108e-03
2.531204153124463202e-03
4.675854728757766060e-03
1.600339402002761856e-04
5.388243377003270641e-03
4.202874755938307283e-03
-6.081156045180781747e-03
9.654118840051264822e-04
3.800641673705195149e-04
-8.250075089567843753e-04
-5.035189004811627470e-03
1.380456815539642286e-02
-3.567639935675530598e-03
-7.024498703724129864e-03
-8.077523700831994516e-03
9.894735765105548350e-03
-4.020486524383642610e-03
-9.620687664841967232e-03
2.273518060126072070e-03
-1.141570056397980424e-03
3.807711959521744259e-03
2.382307201033562367e-03
4.358999629912415318e-03
9.587287752651475758e-03
-5.943480755544558892e-04
-4.258635212086948028e-03
-1.894679403092764921e-03
-1.724921651298006548e-03
2.138190579169791522e-02
1.684427015297392319e-02
-9.000926938077857820e-03
2.511435357457788425e-03
4.695081485323726773e-03
-1.141345535084044988e-02
-1.068219484734106960e-02
-8.694732748807606354e-03
-2.317702612994263466e-03
-5.211046567867310027e-03
5.361505570088012304e-03
-1.175942160408509959e-03
-9.122392572625046339e-03
-1.875905079651081064e-03
6.797718526599051160e-03
1.097558154651958121e-02
6.676798233584141026e-03
6.082511363094672031e-03
4.708591512690194045e-04
-4.767057320776113029e-03
-2.963754878088276437e-03
-4.161010051162815880e-03
-1.196512346134730089e-03
-3.641870451237752635e-03
-3.385432677370576581e-03
1.831822021512958542e-05
-7.035006160312553061e-03
-9.210571898627548104e-03
1.574412165906795540e-03
-1.033448689168953421e-03
-2.282631450270253617e-03
-2.324349747246404424e-04
3.953854023201906244e-03
-9.622586342829198220e-04
-6.576870617373546668e-03
1.195353632979953389e-02
-7.691620262034744955e-04
5.566402294534895413e-03
6.972088674478280935e-03
-6.494443466669325496e-03
-2.589375384314868220e-03
9.685629981549218059e-03
2.912160549438750582e-03
2.543006383048102784e-03
-1.650795624670470989e-03
-5.081872617725395440e-03
-2.982823558263370325e-03
-2.435859651438472030e-03
-5.559704743160876969e-03
-4.029932359305272126e-03
7.040579343820061765e-03
5.362588987803127219e-03
-1.219805276604466132e-03
-2.769995053685926287e-03
2.389911379952968328e-04
-2.313385454291619348e-03
9.271547334540047999e-04
-8.406307402648836055e-05
-4.248008427638009371e-04
-2.567792452909003001e-03
-3.382401485518977610e-03
-2.481840066591199916e-03
-8.275329884548736012e-03
-9.030762205638101503e-03
-4.898415719316601656e-03
-4.835712451209783769e-03
-6.185616578956205577e-03
-4.030055429921559559e-03
-1.189871596583612920e-03
-2.040879149244245652e-03
2.773747496591115794e-04
4.271180929436709309e-03
-3.919605386099451506e-03
7.799436286441358349e-04
-8.652248067546490506e-03
-3.030574517058643152e-03
-2.479860038706441228e-03
-6.401246426148391074e-03
-4.897152429162296081e-03
-7.097676844427938843e-03
-3.257693743824298469e-03
6.031886408190250673e-04
-1.497975604043570285e-03
3.362955227335059569e-03
7.093035166783599223e-04
-3.814244169155456624e-03
-3.129642840576268934e-03
-3.458033332874883153e-03
1.800463012029056926e-04
-1.053179859132008598e-03
2.461037830007077945e-04
9.857815460867769535e-04
3.562918999673654174e-03
-4.008382011890839446e-03
2.719160064134029664e-03
2.877165562802817909e-03
-1.023483139583981905e-03
8.785538608714057313e-03
-8.202505984670699704e-03
-8.428992025224473286e-03
-2.207540541204541275e-03
-3.641450822267012794e-03
-3.860813077612899446e-03
5.357338341778376334e-04
-1.821336801297066465e-03
2.165475709076268226e-03
6.369656906941317635e-03
-6.899067509354817052e-03
-1.460434156461011719e-03
3.929271162963248604e-03
-7.165132311555437970e-03
-8.684822592008069331e-03
-5.204686524999137948e-03
1.039825684519154548e-03
5.261919425301140327e-04
-6.368909676759422710e-06
5.858289029297011029e-03
-5.550215095980496824e-03
-3.619485689448133543e-03
1.194960863785934392e-02
-6.167704630476949709e-03
-2.393157009694126935e-03
-8.623947770177220473e-03
-9.557192913970297826e-03
-1.348527366043575371e-02
-1.034876374366517672e-02
-6.005075067132163887e-03
-1.110435788390118274e-03
-7.852475538981213213e-03
-1.851986228318903407e-03
1.060494656981560884e-03
-4.543469934487167944e-04
-1.740392442365108847e-03
-2.928776843934373028e-03
-5.391196851632062623e-03
-6.691502200042068194e-03
1.567510039905488243e-03
-5.656233937129948389e-03
-5.209637530399977880e-03
2.583868909924953543e-03
-6.277643457892941731e-03
-7.328787830306125739e-03
-3.177251794814286729e-03
-2.481355820042856295e-03
1.134890228073355198e-02
1.307882975779636227e-02
3.639465620572804230e-03
4.492153010089022964e-03
9.012160709448270926e-03
-2.087239344026840283e-03
-4.195972894131524966e-03
-6.832232679199256448e-03
-3.590888833724411970e-03
-4.428833288090247913e-03
-5.786219404788204256e-03
1.884758018025910241e-03
3.900663739458522152e-03
2.314315859344267569e-03
-6.805991557991231296e-03
-3.617518100722266153e-03
3.113718515574368672e-05
-8.914806788236600069e-03
-2.409492157182595989e-03
-4.634987798638829574e-04
-5.004871582243029977e-03
-8.409752058932256150e-03
-1.522451861791340516e-03
-5.526036013041070623e-03
6.196992354883872414e-03
3.531508252095248799e-03
-2.485468778393789321e-03
-1.780316418191453358e-03
8.334122853521601501e-04
-6.311472906348864983e-05
-1.515875465623301496e-03
4.476858568867441227e-03
-3.539031631522387110e-04
1.179919675032895660e-03
3.761943780637534013e-03
-6.685363640250793077e-03
-9.045964839262203225e-03
-6.566160391487088546e-04
3.958002757894782918e-03
6.602680000695097069e-04
5.263818983936788785e-03
2.253226599623858913e-03
-6.324550535342544563e-03
-3.755873691260686563e-03
7.855742084122277263e-04
-2.758424874620188112e-03
-1.599590498588874740e-03
3.351810511535824755e-03
-1.566229973398837591e-03
3.348958641718154171e-04
5.318163137268655527e-03
1.210745826175831140e-03
1.849426403532548023e-04
-6.808854325833063039e-04
8.950471287831619207e-04
3.172793732364909310e-03
-3.981240207514243241e-03
2.876727109972163250e-03
1.276086041854129598e-02
-3.200993635814630613e-03
-3.180094087580421711e-03
9.607246768376240731e-04
4.807879117663673221e-03
6.836889988352998909e-03
2.355509510025941445e-04
5.988574798065491494e-04
-7.771201817541266606e-03
-4.275843742643058686e-03
1.079959628944342220e-02
6.504285373216538678e-03
-6.612889137632233134e-03
-2.232064838323463349e-03
-1.500403859956413524e-02
-6.770176907841099316e-03
4.833079972929019141e-03
-2.721519321243394234e-03
-2.189417457267289931e-03
1.804956080253013531e-02
1.038751733774521957e-02
1.109461262851774328e-02
-8.869494565070334610e-03
-1.306524047207235570e-02
-9.644688856801142407e-03
3.589257432531766257e-03
5.723435777513329568e-03
-3.127396416545343092e-03
4.712903387502335832e-03
2.456610149928090039e-03
-1.587351026726153492e-03
2.724463769225910718e-03
-3.460502671036383860e-03
-5.700169926982417631e-03
1.649217106415270823e-03
-2.771621831474382555e-03
-6.176998333384529569e-03
4.392706007752051299e-03
7.353343830768062882e-03
-1.946270649472831580e-03
-3.225727747418922608e-03
2.123671108555243072e-03
1.348445377675944971e-03
3.016026205208435090e-03
1.611449354205732321e-02
7.968472346858318858e-03
2.559451831750811802e-03
1.006948965553252284e-03
-4.251527718874776283e-03
2.543664447577767985e-03
2.942430637154928863e-03
3.485681730253406378e-03
2.471106503521690312e-03
2.591353320659636229e-03
3.298502110823498847e-03
6.696816032590746258e-04
-8.796413956178717581e-05
-1.011460373280494455e-03
-7.699876781269103694e-03
2.815966001868170266e-04
3.532097846210485790e-04
1.231352184535782716e-03
2.721497305032967440e-03
3.530193884332752472e-03
3.422066991034908735e-03
2.436081574839576807e-04
-6.746070478396082792e-04
-2.011863985522410227e-03
4.967489598072595200e-03
5.681748963718088758e-04
-1.087384309700135840e-04
1.220665890270060264e-03
1.884052838805931173e-03
-6.516315250755994049e-03
-4.011340770410133649e-03
-1.007783512025700774e-02
-1.957997583956810374e-03
1.896449726573205818e-03
4.627677536128625181e-03
3.636863304500324422e-03
2.806121673537809690e-03
-4.212716222161311838e-04
-1.837634301065705017e-03
-2.659037976537682261e-03
-4.816334223116085743e-03
-3.616946780061684307e-03
-3.093457877766753791e-03
4.240463252162547658e-03
-6.438152199687288343e-04
-1.909440831859907008e-03
1.661148483429275438e-03
3.422905808652180332e-03
1.908024308881029396e-03
1.914443575355250253e-03
-9.105378445207007454e-03
-1.044912419857276821e-02
-1.044487837239190713e-03
-7.715665046090564765e-04
-4.866856142155708670e-06
-7.361551033691066245e-04
4.268789088335912633e-03
2.665339456286118340e-03
8.462065216852224930e-03
-2.041919415186924883e-03
-3.517405548344084906e-03
6.826157746256114427e-03
-8.255929199920401806e-03
-9.007310318129083115e-03
-1.509659254657849496e-03
-3.319209237378575178e-03
-9.097114440461101514e-03
-8.687393204737535804e-03
2.465701744023948618e-03
-2.998197478004593561e-03
-2.493828113330843425e-03
2.998922031489748528e-03
-6.249256636816694771e-03
-2.361180665669850021e-03
-1.460962567527471960e-03
-3.719085924609677896e-03
-5.040898688823783639e-04
-6.241481612104374244e-03
-4.146420348837004909e-03
1.140979449537063688e-03
-1.885850682549405780e-03
-2.544777146852752418e-03
5.761150206461212314e-03
9.892978211027154273e-04
-3.526773886205011258e-03
-7.784784498402143663e-03
6.184191469655261637e-04
-9.595267748282871852e-04
1.649546512955680751e-03
-5.132980828448691253e-03
-1.010723887009288072e-02
-1.284382454461783368e-02
-4.488778585516865587e-03
9.215969833100055809e-04
1.589947310356976118e-02
-1.194405614958963732e-02
-1.210518971143590382e-02
-1.674685502669726392e-02
1.842211603310755369e-02
6.821426242473232690e-03
3.107363756596699493e-03
-1.017655118440780049e-02
-2.732858109937544213e-03
1.475078392940050269e-02
1.370692714280078578e-02
1.353276350697536073e-02
8.331286945456491122e-03
4.198731305135931964e-03
1.161408291192342216e-03
1.465030480711871329e-03
2.905054817523413779e-03
7.994742529464107100e-03
5.205506188513338121e-03
-6.272069834061225375e-04
3.098339972428956236e-03
-5.953246265841589772e-03
4.379102191329164160e-04
7.555280916047235618e-03
-6.472455877315810499e-03
1.001480425093903559e-02
-7.936647034037570304e-04
-6.688045655005018207e-03
-6.518853279494026681e-03
-4.059174730318715688e-03
1.213016952394856303e-02
-9.664974152764436305e-03
-8.530925758529180405e-03
4.464508135304167888e-03
9.645792089105643258e-03
1.016315211874188607e-02
9.406038419662204539e-03
3.964566230547300965e-03
9.743826531381612893e-03
8.571788065243926905e-03
-9.522911913038514808e-03
-6.895757151955002155e-03
3.466580906411088903e-03
1.113140766051819337e-02
2.174296283621769557e-04
-9.218643041370110786e-03
2.527106055715568869e-04
2.381707479461529341e-03
5.570735304909047282e-04
5.814008926075566315e-05
2.099920901394936902e-03
-8.091001364369134049e-04
-3.298454555808976243e-03
-2.382634802244717499e-03
-9.926629328178620745e-04
-1.267996339446175562e-03
1.744306043930624484e-03
9.213168270323212478e-03
-9.969391413691120179e-04
-4.165437070755491117e-04
2.189455545311328952e-03
-6.257922877727102769e-03
3.715629379572628072e-05
3.771179360749585957e-05
1.018705996196885011e-02
5.195658337589309506e-03
1.177768184901331096e-02
4.545391509333242437e-03
5.090998997433728718e-03
6.137085145501293762e-03
-1.117888121506208511e-04
1.340663263743867642e-03
-1.268504979955672150e-02
1.327111559691061989e-02
6.951594224515930329e-03
9.006477224726520958e-04
-1.885569975866460690e-03
-7.073136915799613060e-03
-7.779854408401209445e-04
1.834780868097094300e-02
8.822865992682633191e-03
7.877207669126567308e-03
-4.887925435372310681e-03
-7.119769451105190279e-03
-6.939142516384692524e-03
-2.240146328684927734e-04
-7.753805488710212822e-03
2.610055430931119795e-03
-1.362316052585418142e-03
-1.597009450175667560e-04
1.869351514293255117e-03
9.460359015648915973e-03
-2.508859901162029888e-05
-4.700338295887398002e-03
-6.228798513601549111e-03
-3.468946988545685943e-03
-5.142585400247501673e-03
3.541120309405603166e-03
8.535613890377521766e-04
-1.098375704609956885e-02
9.250599570805003932e-03
1.200192069496879357e-02
1.313820483537291722e-02
-1.154473493134761108e-02
-5.300498871156704775e-03
-2.236395206752363456e-03
1.218711467238028359e-03
3.197960682666197568e-03
-1.945477625573248512e-03
-1.067766831447726321e-02
-1.157552856454774522e-02
-7.618983499945337912e-03
-8.972828749520309066e-03
-9.304231059405346574e-03
-1.267112168435424562e-02
-7.600291957454859658e-03
-5.445802557543803681e-04
-1.869283924527244053e-03
5.781271629735106228e-03
-2.580198715737969453e-02
-1.706684899379552756e-02
-5.397932608426719847e-03
-9.758998257021429812e-03
-9.072896263080347870e-03
1.044200344408504830e-02
-8.148776027581152576e-03
3.109241876234700250e-03
-2.448324654809071535e-03
-6.968836312501030215e-03
3.146096316194937122e-03
-9.499654011397169404e-03
7.305490320957877884e-03
6.112390316419369536e-03
-1.052811977005863736e-02
2.678251911081121011e-04
4.311035457937113097e-03
-9.243861489873935605e-03
-4.811086813153332004e-03
-1.813240190388584489e-03
-1.156103896020675356e-02
-3.213611384139477938e-03
-6.039557771594924324e-03
-4.236918044509985215e-03
-3.600516005019762278e-04
5.237034432192281749e-03
-8.744953275236500012e-03
6.545664184078364180e-03
7.323996829342975523e-03
-8.938243341777953391e-03
2.014051158584306053e-03
-7.906072237730812566e-03
-1.041216622618645025e-02
5.343374653402808983e-03
9.997668645710494975e-03
1.710161101274837447e-02
-1.026173015498896973e-02
-3.399691954237218927e-02
7.656652521757753224e-03
4.940194898074543733e-03
-5.022819362692863138e-03
-1.771896639159458017e-03
-2.607097703569064354e-02
-5.342443014644308007e-04
1.486446091532879488e-02
1.521226941481907888e-02
8.996355795997066154e-03
1.287729367977863719e-03
-9.524852262941467529e-03
4.335052708689252077e-03
-7.214361183800517205e-03
-7.119740978171936081e-03
-9.322127074428544422e-03
7.714772904817365079e-03
-2.530698171625633038e-03
2.076565903268856464e-04
-8.530663872857412178e-04
-2.086475368123110949e-03
-3.967949375847369361e-05
-1.221843141558904763e-02
-2.579224459461792150e-03
1.274725950628727289e-02
-5.069668700763719886e-03
-2.188766726933393664e-03
5.650105614262669260e-03
-3.071289886528542901e-03
3.218533806541576132e-03
6.485374272037519594e-03
-3.836689998278069048e-03
-2.998734652900510861e-03
-9.078189358775721335e-03
-1.855713700499165425e-02
-7.920026798786074978e-04
1.493026315550477837e-02
-4.512232758886093424e-03
-5.547323063783543388e-03
2.479997597503942001e-03
-3.288706027157970065e-03
6.101578549516455639e-03
7.643953294374318530e-03
2.207184234083902491e-02
-1.155808883687850334e-02
-1.304059964665127067e-02
3.152577152196894827e-02
-1.823554085574535051e-04
-9.914748831783629091e-03
2.165970438329523767e-02
-2.614971042183462588e-02
-1.291050422286705961e-02
4.717168508129827159e-03
5.657616406645301277e-04
6.852394352054175242e-03
-7.865502144892254355e-03
1.302179640141053977e-03
1.011046888971667279e-02
-3.792903373070532613e-03
1.081202201335699012e-02
2.703297532445835330e-02
2.532603471997274536e-02
-1.735379174920380916e-03
-1.393720085899243649e-02
2.925615876934090781e-03
1.378148437824437775e-03
-1.774885019143110018e-02
-2.033932805421154177e-02
-1.006835723206431221e-02
-8.235681273184278922e-03
-3.148113016775574112e-03
-5.505629057804410295e-03
-1.660051423991250807e-03
-8.984658377610539592e-03
-1.608025940622363325e-03
9.948214485315071479e-03
-4.302084193457027597e-03
-2.934764371321561360e-04
9.243620651343813222e-03
-1.242376162464754914e-02
-4.957364802172709896e-03
2.965256709666296963e-03
8.237513231781314754e-03
-1.484465804152229314e-03
4.579017580620779217e-03
-1.242539437112707762e-03
-9.273583739585315039e-03
3.943049248705790891e-03
-3.885654750993761206e-03
-1.021555080394018385e-02
2.976714478848776265e-04
-8.811042142996482543e-03
-3.421618964413103599e-03
1.099702227893689481e-02
3.838461895908334108e-03
1.962732927787829915e-02
3.089777563917458364e-02
-1.007928971556380782e-02
-6.776039816280568506e-03
-1.427486440706567800e-02
-1.029981673676257916e-03
7.549144184120875484e-03
-9.555512494483745997e-03
-7.898208810167037935e-03
-2.751257701070445628e-03
-1.400456349497840487e-02
-2.137869814898873348e-03
-1.534568008503646398e-03
6.934219787771319895e-04
-6.440706554429656734e-03
-9.322860293953585953e-03
-5.864946071056358935e-03
-1.787040526289403186e-02
-9.425635906697276203e-03
-8.387933841739823870e-03
1.112760889438994989e-02
-2.479726629379926453e-03
-3.044173648467806640e-03
7.653259770908710062e-03
7.179065553882163324e-03
9.370398846484721128e-03
-3.682321222193638173e-03
-3.674111304300104516e-03
2.222491851770128871e-03
-4.518561955813528951e-03
-1.676821912749336613e-03
-6.346315888733489521e-03
-8.704299731351700098e-03
-6.369134893465386998e-03
3.597009078867548747e-03
-5.454981805135067363e-03
-1.261221232339112229e-02
-5.489048662997261102e-03
7.291858860152905519e-03
2.521601214701399071e-03
-4.651773413913408645e-04
7.542131124700498720e-03
6.968406172904020868e-03
-1.671395612533597465e-04
-6.550351119917675229e-04
-1.951133232360438476e-03
-5.796919196457680839e-04
-2.016054181915083888e-03
2.509319638991189694e-03
5.292055233280257460e-03
5.191712188801317698e-03
8.090341067774786676e-03
1.085836945582433063e-03
1.071138500711659065e-02
4.514097622171196408e-03
-6.345884559810405050e-03
3.906353781997535813e-05
8.444898596296868815e-03
1.181229598674418332e-02
-6.101100440434433642e-03
-6.671220346677536129e-04
1.731195819563191227e-02
-1.465708605652689921e-02
-3.208931584256614379e-03
3.062331287870996739e-03
2.654305028788400515e-03
-5.464897216619695082e-03
8.106872700212874872e-03
3.166893466599873266e-04
1.128238521287597230e-03
-7.723233770512656637e-03
-1.362427132885234322e-03
4.381133742115863282e-03
-3.360950846680510560e-03
-1.975933337179135857e-02
-2.670144077008997432e-03
2.441283249783913155e-04
-3.903393351176638777e-03
-2.230457957818352335e-03
6.194924986919050913e-03
-1.051738154315133913e-02
5.625834442393585870e-03
1.839826385462037597e-02
2.741815443142528626e-03
2.627975133484041371e-03
-8.546638900692548821e-03
9.940272364009352171e-03
1.237699672872799670e-03
-2.898509351702964129e-03
9.017172173840209970e-03
-3.748584128002550083e-03
-5.987375098963165429e-03
-3.761654425121286390e-04
-1.055638985263282828e-02
-5.146467251605208295e-04
4.704857992151800609e-03
-2.286317630231004053e-03
-5.571400970165490052e-04
7.755264303913980348e-03
-3.387544772373449198e-03
7.608894538565838788e-04
3.952075440728581440e-03
4.646016084606883340e-03
4.636086401209357603e-04
4.623675585399033769e-03
1.058484903805289278e-02
4.120342086658714854e-03
1.836432841728943485e-02
1.288334497084662328e-02
1.213443347757548092e-02
-5.075914843086940485e-03
-1.265097642458527447e-02
5.148325375375886661e-04
-2.009281961024829508e-03
-7.157597425350093606e-03
4.021755676792081700e-03
-1.836135906652297750e-03
3.149942398499448477e-03
5.671436970296150036e-03
-6.152829781610725211e-03
8.937850864173308221e-03
1.139213919636286251e-02
-5.251796347431242178e-03
1.100492594536619725e-02
-1.137848414725740843e-03
3.088083963587110316e-04
1.295545579296474709e-02
-1.798692750285092691e-03
5.825344882526641704e-03
3.358148596227546103e-03
-1.752972677322146844e-02
1.123040769899209769e-03
7.899956524833781982e-03
-5.662421085766007091e-03
-2.981136194973433347e-03
-5.282334276608839640e-03
-6.562558560969229855e-03
1.100819797961866348e-03
4.975864769264397823e-03
-4.891672376437621213e-03
3.670104266533486892e-04
-1.274382413792055210e-03
-1.064180229579121629e-03
-5.404715335030635219e-03
-3.748450527040160713e-04
1.880250785856446951e-03
-1.366243957768308037e-02
-2.337351512985125224e-02
-1.453955883603689700e-02
-9.110264690125859099e-03
-2.740274472991764687e-02
-1.150858908565021571e-02
2.022366530056461664e-03
-1.296109914518911617e-02
-3.676180731670052049e-03
-3.707469522042800285e-04
-1.210119002979899265e-03
-1.544883390347190485e-03
-6.039793654599736293e-04
-4.276076803739919420e-03
-5.648101798047842209e-03
2.075948444815083407e-03
9.131023187433369437e-03
-1.781110150039010975e-03
-9.114210081157607737e-03
-1.594899150515079666e-03
-5.329187975541970976e-03
-1.172464285326109412e-02
-3.462364681068689186e-03
-3.044451950769282416e-03
-3.890040192673140888e-03
-1.432188322410217702e-03
1.211936550909330354e-03
-6.932820545644456829e-03
-7.153681371028188483e-03
-5.442186044118569807e-03
-6.137120369932268227e-03
-6.253278279668286928e-03
-3.347550908018074711e-03
-9.784909707768510954e-04
-1.985175709038101283e-03
-1.707906139037239325e-03
-9.174623286668192462e-03
-4.816386053700092741e-03
-2.382480193557435025e-03
-6.338274458700536400e-03
-2.632739771960232109e-03
-4.586573369173236941e-04
8.824314625547914886e-04
-1.906511303806449759e-02
-6.925217778712047974e-03
3.965557046448145440e-03
1.158314853193510114e-03
-6.126283230739761445e-04
4.460583697219843227e-03
-1.497043085968807058e-02
-1.345765943193411723e-02
7.534241333742067138e-05
-8.031286469083513679e-03
-1.632641144880650139e-02
5.781470247189578844e-04
-1.809427805656189502e-03
-1.661643336942213514e-02
-3.209117713787302748e-03
7.972183504465202991e-03
-1.413167945872452307e-02
4.591814530963351029e-03
1.201307087871564087e-02
-4.248953429722734584e-03
-5.678039315778738404e-03
1.135903093531686302e-02
1.457111363900834809e-02
-6.113522554842467684e-03
1.792758488902856939e-02
8.517767613787604816e-03
-1.209552943234654121e-02
1.101590719123475386e-02
-3.926366571856219206e-03
-6.652389548716075053e-03
4.366142088723478157e-03
5.451040973186606700e-03
-5.383547511332422396e-03
2.863043846376943369e-03
1.265277726248335496e-02
-1.072079336925138050e-02
-3.375390652774242894e-03
2.878369898617327231e-03
9.016142812122571876e-03
-4.876200631753088016e-03
-1.399789097925741195e-02
-5.783240757272756043e-03
-6.684869449152618277e-03
6.660634353507800635e-03
-1.608546072559024348e-02
-6.224173488410681201e-04
1.073000965522510897e-02
1.821048908952925050e-04
-2.029268585709869364e-03
-1.850269064839775077e-04
-1.336702109000357510e-03
-3.517752983913742006e-03
1.786267464340859402e-03
-3.525079628975811077e-03
-3.569841105122562811e-03
3.076285848926259801e-03
-1.447803777328774549e-02
-7.758375779146363393e-03
-1.823603581361343123e-02
-1.159640238171136262e-02
-8.340110842055827381e-03
-1.272538066381741217e-02
-1.284831337131684889e-02
-2.106985494502023985e-03
-1.577506049556897522e-02
5.010221228025776678e-03
1.029440272624961017e-02
-1.530008251265921066e-03
-7.066493462261312641e-03
-6.990130799426196029e-03
-2.476168363985488722e-04
-8.103356655894088101e-03
1.231084799822225288e-03
7.583528592045011077e-03
-3.802999363897499856e-04
8.750520114150063880e-03
1.913741415235457183e-02
-1.823057284251038829e-03
8.650976891456347434e-03
1.792779222820758619e-02
-6.254516368112032071e-03
9.729265303375377082e-04
5.023600353481904798e-03
2.554221852056778527e-02
-1.492195690219919740e-02
-5.753402746490107918e-03
1.641137967867599412e-02
-1.087709777352235778e-02
-1.144459204423458644e-02
9.874119669083362277e-03
-1.108758073779942191e-02
-3.443768378564953086e-03
-7.735320494967629773e-03
3.287963293024330578e-03
-9.744742201806233864e-03
3.574080457915768984e-03
-7.352868710910956222e-03
-7.442198992380360742e-03
-1.523256724649365863e-03
-1.050287711700755022e-02
1.716739660235931143e-03
-7.151715018584713958e-03
-1.316284650944763920e-02
-4.548087768501573279e-03
9.083015049323746315e-03
-5.396911770212617539e-03
-6.784455091142997229e-04
1.237141284280736039e-02
7.453714047435437695e-03
-4.524147823944288729e-03
1.741958724986536781e-03
-8.476435559377199988e-03
-6.428672160321969101e-03
1.024090624474735360e-02
-9.042870933440937120e-03
-1.367855296378490395e-03
9.268291238552977401e-03
-4.638443843710391389e-03
-2.194314933071787529e-03
-8.644268299511087897e-03
-2.396899781107898492e-03
-5.557798647849346947e-04
-1.300855721998919919e-02
-5.136008119883436578e-03
1.966278903479495768e-03
-8.125750278333272389e-03
3.734270192251721524e-03
4.669847205828333951e-03
-2.555131091840873517e-02
3.713322988540362218e-03
1.776106258800796631e-02
-7.417748628716026339e-03
2.235418835096865658e-03
1.023911630900495653e-02
-1.163750172465315320e-03
1.029746722310204317e-02
6.060238764486565975e-03
-1.033032889720855718e-02
-7.496005095104060940e-03
-1.230149751662309998e-02
-2.049955327010872033e-02
4.602102399730367138e-03
8.932941524358032487e-03
1.044405800487906199e-03
1.439034004007685129e-02
1.437251798884773418e-02
7.436214700014583644e-03
1.572208989441273991e-02
-4.942654226175974969e-03
-2.499573706472203814e-03
1.510068406739818736e-03
7.552493128126170014e-04
-1.523258905080502983e-02
-1.029641209265278780e-02
-2.649357630538733827e-03
2.354439056252620021e-03
-4.074172448439539879e-03
-8.544931623112341640e-03
3.573993637112316598e-03
8.740055234018931016e-03
-2.740060394298321749e-03
-2.185674479139219223e-02
-7.653060757012213056e-03
-1.078736886959692082e-02
-1.572933090799743042e-02
-2.219467673071628608e-02
-1.153735749584969966e-02
1.737745240035455316e-02
-8.553950877399695701e-03
-5.807267126191467503e-03
2.345561529989164881e-02
2.946214211663542547e-03
-1.780831847737535459e-02
2.200862371333927453e-02
9.834660208577544402e-03
-9.814909466897316082e-03
-7.706495591779598904e-04
-5.001435478091084338e-03
2.627227245604078299e-04
-1.362983142825148312e-03
1.676005043957042376e-03
4.705655237063862892e-03
-8.855828991432827162e-04
-4.043062849862043956e-04
1.281856634397891262e-03
-8.925139941750138278e-03
-4.837831585036742911e-03
-1.674029672457500763e-03
-1.327333886620589432e-02
-1.156962847133912245e-02
-2.664100516560498344e-03
-2.562718397534310445e-03
-1.197068250452990295e-03
-3.253629827900395878e-03
1.317125385546956927e-03
8.462346406254487446e-03
-3.088861584618940101e-03
-1.028232194842501092e-02
6.906683321164196199e-04
6.124119846609914035e-03
-6.348277087430641979e-03
-5.110108958839125644e-03
-6.071542515942373978e-03
4.631100548083276654e-03
-1.108152052678587803e-02
1.388979689852875383e-03
4.487976057150918838e-03
-3.505495392946038954e-03
-3.196609175017841361e-03
-1.272890206010353527e-02
5.584585640808408490e-03
6.359061896275862609e-03
-7.445518797896825795e-03
-2.616031326379042281e-03
7.379164313980162739e-03
1.466641552669873489e-03
3.548084763238395622e-03
1.878530822131443869e-03
-3.024948192470563318e-03
5.763952465214567528e-03
1.120106424963550340e-02
7.557847474114390458e-03
-9.351762503336471036e-03
-2.694299289585799610e-03
8.032881553570675806e-03
-6.923494841671858600e-03
-1.514194258181297478e-02
1.628797718737705694e-02
-2.807815706109948687e-03
-5.572115755136375186e-03
1.197869479607402941e-02
1.163602596921548687e-02
-9.886108472358186641e-03
1.002629175990785333e-02
1.276703879179329204e-02
-7.474384138171395048e-03
-1.371565240491652571e-02
1.013351862370705583e-02
2.627645491940341915e-02
-8.902876748737144005e-03
-2.034745035841757210e-03
1.226558621224008508e-02
-1.542531735899720785e-02
1.700947392174271806e-04
2.415840988173292153e-03
1.273529964328026440e-02
1.886226554718689261e-02
9.511947282147110994e-03
8.537929069405623267e-03
1.491803410836286745e-02
5.866741358766092325e-03
-7.265291694296646327e-03
3.185768467847109858e-03
-1.177910427465194386e-02
-1.579308847453541470e-02
-1.030366394952234033e-02
-2.123537996395305938e-04
-4.316904330936250506e-03
-8.059922908844770455e-04
4.226128734364877938e-03
-1.858549824313083382e-02
5.223125369959181682e-03
1.019065517239948343e-03
-4.453592399663450913e-03
-5.050953549253134681e-03
1.592741460865652230e-03
3.476031352269100955e-02
1.292020331752773317e-02
4.315700808871878770e-03
7.381199417384094914e-03
4.485641412344143486e-03
8.525012111731561718e-03
2.799343402957277065e-03
9.521599754320481243e-04
-6.191373005063289863e-04
-5.655491924627001170e-04
-4.177065612660225274e-03
-2.610985483576404309e-03
-3.899217417373427880e-03
-5.611722054553787246e-03
-2.218817127221547631e-03
1.510515301708876927e-02
4.685536543238648204e-03
-9.947358064649842666e-04
1.103112477169073541e-02
1.038179484567726581e-02
6.556041593975277249e-03
-3.508061318706896196e-03
-7.508325069256010370e-03
5.709040737264229779e-04
-1.860215147597357385e-02
-2.063127123172161376e-02
-1.641272490689772365e-02
-2.253501538458989664e-02
-1.908479770605029519e-02
-1.447418226582138090e-02
-3.393449449392349059e-03
-1.462009853996270106e-02
-1.158534978987878390e-02
-5.403220628197467380e-03
-4.018833436400904430e-03
-5.317545615474116895e-03
-1.486307567083165575e-02
-9.641823047766246574e-03
6.948633378382766592e-04
-1.001126262028073990e-02
-7.025400363059446443e-03
6.587159145134885213e-04
-1.129133795043510413e-02
-4.618922809920618551e-03
-8.991932159777745945e-03
8.729538687438501750e-04
4.009546889337486583e-03
-9.198732455913145173e-04
1.377934525189565551e-02
2.651438901544196994e-02
1.852978898508869654e-02
3.244234766954669832e-03
-2.974847714710131437e-03
2.719273599275357552e-03
4.344583935009427474e-03
4.289239161910322201e-04
-2.018131677490169265e-03
1.499903657405369725e-02
9.908843153235509862e-03
3.033268857010760957e-03
-7.786782744315534459e-03
4.799004034085190018e-04
1.460314638134985058e-03
-8.237198521187117164e-03
9.403360678411129125e-05
-1.689336987806280832e-03
3.408569760411969685e-03
1.657601616624422569e-02
1.184337686091202144e-02
-1.098236438500477252e-02
-8.841804460601578129e-04
2.542875317026912531e-03
-1.186574617197853378e-02
-6.605652646015085228e-03
-5.987200889961015286e-03
3.872096970894376182e-04
1.456029253531663549e-02
-9.556722229144571507e-03
-7.883939634204729279e-04
1.125846674152152730e-03
-6.320284192085179158e-03
-7.006690536957281903e-03
-1.093505752738205966e-02
-1.015595732854862945e-02
-6.112191758734241559e-03
-1.191615756719358217e-02
-9.461220558006576062e-03
-2.686702318565731100e-03
-5.769040813101084311e-03
-8.032051238448478098e-03
1.499688735590776027e-02
-1.261438741868308464e-03
-1.619732392892999501e-02
-3.620920733188080255e-03
-7.633730143690572491e-03
-9.316699471279209568e-03
-1.044228511166027981e-04
2.838144408988612852e-03
-2.473148425185550496e-03
-1.127637822931612521e-03
-8.376814298177855458e-03
3.259665832463674948e-03
3.243440237895681231e-03
-1.191041221790177865e-02
-5.329481595167997847e-03
1.514329883236442340e-02
1.669529697139670102e-03
4.857911256553247743e-03
-1.083889204455738657e-02
-2.481247288639216488e-03
-3.774402375495161926e-03
-5.379747637476721411e-03
-3.660777903509789596e-03
2.584540076043003246e-03
-1.221291447145574950e-02
-1.192240914557293231e-02
-2.819240912669193026e-03
-3.563001910483033687e-03
-7.241498634004001934e-03
-6.991850907411943303e-03
-2.140165165958291243e-03
-7.722571844904135493e-03
-1.261066377795318737e-02
1.503232740177132438e-02
6.893788218307884443e-03
2.891094768625317342e-03
6.728302631292792371e-04
-3.242056678714233791e-03
-2.304675384850251012e-03
4.791599656793607033e-03
-3.171018001954134177e-03
-5.244126559325330839e-03
6.164963484661242429e-03
4.212702737016090111e-03
-1.858054902679215435e-04
1.455730508199642829e-02
1.255513094826631211e-02
1.651243299090138228e-02
4.727588241715713867e-03
7.964946312550452191e-04
1.215205791614879655e-02
-3.350510396483013641e-03
5.630509268548147817e-03
-5.862400483616765808e-03
-9.704622119362002475e-03
-4.891917220569994527e-03
-1.133737271951901042e-02
-1.486949204933376428e-02
-7.744084075040246623e-03
-2.891460857462489244e-03
1.195059317435274819e-02
-1.394147489091216189e-03
-3.436491953473634099e-04
3.208526670283164649e-03
5.571265629284485356e-03
1.783382924526583785e-02
-1.433960752810876319e-03
6.433065015753565083e-03
1.372935187159052099e-02
1.678743868480076168e-03
-4.565868598138428814e-04
-1.313627873298081139e-03
1.988938197836770665e-04
4.209328745208441858e-03
4.142161066952238131e-03
1.295295082610585600e-03
2.516044573926673814e-03
1.088839282887515362e-03
-5.432638051569990516e-03
1.197487693356063870e-03
-1.051695540572406516e-02
-3.731746008927784054e-03
-2.104369657056224131e-03
-1.491898341077346757e-02
-1.090514891142954114e-02
-1.218856695745584515e-02
-1.213096109459462467e-02
1.729820478789174942e-03
7.103968921827487175e-03
3.198490703683411034e-03
-6.092609815194127178e-03
-1.088935055416275985e-02
1.244697996551622377e-03
1.692587279278476818e-03
-2.885707288213224496e-04
-3.638761248667036954e-03
4.926039466911800378e-05
-1.052160168655728390e-03
-5.285672028714851617e-03
-8.054028597884829721e-03
-7.652470644268139464e-03
-5.604135434790688368e-03
-1.348582861476731870e-02
-1.213057555854102007e-02
4.132228752011202167e-04
1.028492645624628186e-02
7.251435961114219980e-03
4.213399829506148282e-03
-1.225350622529301076e-02
-4.036772791856162342e-03
-1.261285509832026867e-03
-7.070477005882212611e-03
-1.050281206672171695e-02
-1.017473953037380426e-02
9.107029207069268842e-03
1.073515477799039629e-02
9.390603705404971819e-04
3.516837827434188095e-03
2.469663564195560801e-04
-4.677143365210519738e-03
-1.484804197009552927e-04
3.735881048504273438e-03
4.420899623972813900e-04
4.317285255794205828e-03
5.074032984449582638e-03
-8.021420628096779040e-03
-3.938692860890112384e-04
-8.372534507155344682e-03
-1.452069118611005842e-02
-1.948507835847222962e-03
-5.568153072221454676e-03
-5.365597682411050139e-03
-9.098456994357901131e-03
4.191725806548788139e-03
-6.944913747388216027e-03
-2.531611769950706074e-03
-9.788985948626916216e-04
-1.785137384227619348e-02
1.995500330218738082e-03
-4.640512628435693523e-03
-1.513987852811351890e-02
8.332847550099111225e-03
5.055202866287010835e-03
-2.471019456203114428e-03
-2.745391611917684729e-03
-5.412832966257820518e-03
-1.517847423569509101e-02
-6.305972043224725848e-03
-9.652492151577273666e-03
-5.498072922696031241e-03
6.867928833595431971e-03
7.333638743513924002e-03
2.119764233973572398e-03
8.812668520650407400e-03
7.799852276191983694e-03
1.483213735484205723e-02
3.022333807502849620e-03
-2.566506892780627720e-04
3.548037177194872469e-03
7.978402984374645054e-03
-1.001717096531439671e-02
-9.529621229881952288e-03
1.975924401281643436e-04
-1.246236973075115495e-02
-4.641125716970234336e-03
1.282080197827811276e-02
-2.290447039458547683e-03
-4.349359930781119404e-03
1.690381323377380778e-03
-4.383394965379130460e-03
2.781467802294035167e-03
2.469494553850688778e-02
1.632035864831423572e-02
1.364997414822947779e-02
1.968404142638534651e-02
1.167992541263841201e-02
4.504854259745576586e-03
1.409054181460230731e-02
6.215170383373599255e-03
8.398515988309108657e-03
-5.536336223217347592e-03
1.944434746681843185e-02
3.299961066372032042e-02
-4.124180210736139336e-03
2.625834636243191012e-03
1.880171319737398289e-02
3.576366759367782290e-03
1.961626486981671736e-03
5.655114608530856929e-03
1.401370325614968671e-03
-5.591385478821386769e-04
1.361912083862922961e-03
-1.226694846206995496e-03
-9.233798994929145673e-03
-4.360055899818970904e-03
-5.886902973887827434e-03
-4.368041488249087452e-03
-2.942844012038858315e-04
-6.792256306181689365e-03
-8.937402365387897563e-03
-1.232855283301910292e-02
-7.162397782868659690e-03
-9.395086589522804246e-03
-7.651443149585497594e-03
2.612293459246562994e-03
9.291163672209252307e-05
-4.796536643439475861e-03
1.018610412278075222e-02
6.919366320085752753e-03
5.335417807862314656e-03
8.585315323560641435e-03
3.446566614019484862e-03
4.308168320535961729e-03
3.571387870987537821e-03
1.172245447010852523e-02
1.219835071170227887e-02
9.131376320095637572e-03
-6.771104751740030479e-03
-3.630885927958960903e-03
4.858055406538968300e-03
8.435943860470898961e-03
7.130315890358123083e-03
1.619363497241084644e-03
6.073566980571402582e-03
-2.841021995560314740e-03
-1.007237439524252300e-02
-6.421851790855962437e-03
1.347933204155827257e-02
-7.673836318577322360e-03
1.490455518007472238e-02
2.454005948639455606e-02
-3.829993947804869597e-03
9.531557130107434555e-04
1.389014225900116369e-02
-4.893388392468771275e-03
-1.383614575941245241e-03
5.493387145969644975e-03
-1.263777560350124417e-02
-8.114454708102292191e-03
-6.525040325140728757e-03
-2.696829306157858593e-03
-5.957975933885143599e-03
1.575155764067990693e-03
-4.849362500793659436e-03
-1.230934078756473933e-03
1.935400411971745444e-03
-3.628092746316310697e-03
-4.759865608824413036e-03
1.500883556529444872e-03
7.788078891266420403e-03
1.134741470072178453e-02
-2.684267607263094140e-03
1.092350147011229844e-02
2.661221051896491083e-03
1.174962924850152940e-02
3.383419697882383316e-03
7.676329572016024790e-03
4.634564386535336596e-03
1.617111329140115406e-02
1.873899291707779077e-03
-3.777503905785988512e-03
1.153606593224328417e-02
4.705933064514485260e-04
2.611364804540221036e-03
-2.195667321169762331e-03
-8.693666793078076369e-03
8.427738338057005397e-05
4.429894061816209462e-03
1.174502166161440738e-03
-1.641518688440071891e-03
1.120352534779832203e-03
4.508429139294104133e-04
-9.264010947360657626e-04
3.663063252170754153e-03
4.043619013987457059e-03
2.775553643144126979e-04
1.383996443087007200e-02
1.009349627764261417e-02
3.604788164480135395e-04
3.818234596953018912e-04
-9.496350450841059554e-03
-1.028241776532649344e-02
5.334208271194922427e-03
-2.955822322436165751e-03
3.070018582682007015e-04
-1.044929613391433303e-02
-1.217172606899887205e-03
3.736030812119479731e-03
2.053672367710941866e-03
4.575830986094566594e-03
8.284102801381001274e-03
-3.758063104930084442e-03
-2.608669660926802962e-03
2.804153882452952058e-03
-7.295039026197002808e-04
4.889832559163141343e-03
-2.807024251501029181e-03
9.966742127750590277e-03
7.537985683077322654e-03
-4.064553842233615578e-03
-5.438543990762437913e-03
-8.242378698281776009e-03
-1.347479983769567409e-02
-7.784850653338631736e-03
-1.742282595906599347e-04
1.158839578533505440e-03
9.673549477238279314e-04
-3.219032176892038920e-03
-9.699603935575359590e-03
-1.441425376376046820e-02
-1.389588820975327065e-02
-6.219777168313651329e-03
3.265850648749499263e-03
-4.568427811723587556e-03
5.023221016673379280e-03
1.291541769839120966e-02
8.298819933511491012e-03
1.700110144249561070e-02
3.117747063976445483e-04
6.448720024981694464e-03
1.183654828161625518e-02
4.894564247359249089e-03
2.010292845373749630e-03
-3.579494352938362902e-03
4.145668783433704985e-03
1.806951747922120070e-03
-3.690873373129472963e-03
-5.353326889815702722e-04
3.878018548054676298e-03
4.093209415890228069e-03
6.158051903843793536e-03
5.368065273543531565e-03
-2.580848112222345735e-03
-1.135023354467065357e-02
-7.242354512013796271e-03
-1.546411775746979467e-02
-1.359090874170198505e-02
-9.031402791612014661e-03
-6.561341461670040787e-03
2.197907961281609680e-03
-6.935214197584067472e-03
-2.299995021266583537e-03
-2.732470640735837949e-03
-4.735003445292734758e-03
-1.100531891694516394e-02
-6.367321395005812353e-03
2.901120911373470702e-03
-1.007670410747010413e-03
-1.785013884378934892e-02
-2.544411045664774634e-02
-2.051640434323900516e-02
9.255763723699156342e-03
2.734569336216404606e-03
2.071118525718530605e-03
-1.455134360796942611e-02
-1.859471061009033283e-02
-1.497457598551701040e-02
-1.067975767784501429e-02
-1.303699888871220208e-02
1.863663038827448630e-03
2.992873880935649576e-03
-8.235653169184422445e-03
-1.143739235995912436e-02
9.319745266248714854e-03
-1.127504499231328158e-02
-8.097747143345601639e-03
9.361050953464490620e-03
1.467847146519578316e-02
3.091795455351013886e-03
3.689948527671710766e-03
1.264179536318651043e-04
2.812433785457530647e-03
2.228821216425292892e-02
8.949499536442724959e-03
8.403786584935839243e-03
1.978210672181738086e-02
2.947569284658411570e-03
-1.032090641297430701e-02
4.068762460453721058e-02
2.231494186202242699e-02
-3.443216881110685527e-03
-9.063778196749944227e-03
-4.560583967437983888e-03
-1.080191386421475164e-02
-9.522548457703557817e-03
-2.754032792077018999e-03
-1.847054915507361297e-02
-1.097199320453001899e-02
-9.727590885862875611e-03
-5.810056395964512121e-03
4.819074964850859379e-03
5.546346126537345447e-03
1.592142526696885968e-02
8.611141226982947303e-03
1.846126160557635953e-02
5.031262340424817563e-03
-8.515032481913433274e-03
6.864271153011991013e-03
3.165769859845346101e-03
-5.117936779683381239e-03
-3.249749155490491703e-03
-4.490207899443959816e-03
8.425859376073447510e-03
5.540211431943358432e-03
2.767398041935301926e-03
1.038157050098460809e-03
-6.446672854600335673e-04
1.180899398177266777e-03
-1.626943841768366489e-04
2.417023558074706154e-03
2.717285772977132228e-03
-9.324030069440410531e-03
-1.305308594692396011e-02
-7.632484318918289490e-03
3.405316862611797776e-03
-3.159669047515039145e-03
-7.566108964366634066e-04
-8.720802877524981653e-04
4.167043880620953378e-03
-4.153233349652396761e-04
-9.435889656412845775e-04
5.891442595760819356e-03
-6.049248336665996421e-03
-5.587730003592385891e-03
-4.237053859777806415e-03
-1.166856543142711332e-02
-1.217673743623542580e-03
-5.656496764304933152e-03
-1.488678884469968322e-02
7.441391960517599810e-03
-1.864889015409762658e-03
-9.123285877086200618e-03
-1.293346672010820594e-03
-2.250115918418835789e-03
1.022212938951819888e-02
4.473704229729658370e-04
4.438910352717246374e-04
-5.685103419190313048e-03
1.800756305837626853e-03
2.892307713567754575e-03
2.071298663078990215e-03
-4.982326527817427381e-03
1.392194206663004553e-04
1.122389680822824011e-03
-5.185149166488702173e-03
3.754817224166769919e-03
8.037608330665742956e-03
3.146093888011346294e-03
1.097852045221446669e-03
3.968905013808390198e-03
-5.194935727549878333e-03
-1.041562438133874884e-02
-2.988018893377624319e-03
-4.803506565906222846e-03
-1.346008511140639116e-02
-1.162415861489404442e-02
7.249347490458787902e-03
-1.121087920242453415e-03
-7.383960521143968433e-03
9.078913544277115652e-03
4.786225007534623821e-03
1.332614090457707318e-02
3.614355994478137728e-04
2.197749175761872214e-03
3.920956197556639197e-03
1.768966723033878544e-02
4.041755088511451814e-03
5.619232288858530024e-03
-1.721444542623038225e-03
-6.129915791401371189e-03
-6.816846208683314222e-03
-1.631517285759009200e-02
-1.498002521585344721e-02
-2.191240974320320806e-02
-1.627470391040531511e-02
2.009165980665078566e-02
4.927775532528646737e-03
2.909114510336469669e-03
2.068775648181613979e-03
7.109993541735362514e-03
-4.372072827044791443e-03
-2.734222874703515910e-02
1.850579383376095826e-03
-1.620419814730176059e-02
1.586063900664089893e-02
2.198883070163438341e-02
-2.984817422037599598e-03
-9.596429743444186491e-03
2.208364153778132576e-03
2.896777546316441857e-03
-6.931426536066143812e-03
-8.547007073920075484e-03
4.001334427476314383e-03
7.664612564052832554e-04
8.536099537421249980e-03
4.091332300844170364e-03
1.200829408199314587e-02
1.567180446907935273e-02
6.862705784022760970e-03
1.115183200046476059e-02
1.013396222161395271e-02
-9.323906766558262907e-03
2.963998394821889398e-03
6.513532587938066117e-03
-1.170521403139762780e-02
-9.865365536842053522e-04
-1.991251343320764484e-03
2.914218072275461761e-03
2.307523680503023849e-03
5.213456930902361265e-03
1.540664074430434481e-02
-1.259050949886272343e-02
1.484858738908056587e-05
2.832961513164840989e-02
-1.728280154884505315e-02
-1.772089236740476137e-02
2.315748323183042679e-03
1.552734465205352771e-02
1.306515975110260006e-02
9.085638337259813874e-03
1.577692127858229543e-03
4.584396929456103359e-03
1.336394945977039013e-02
1.071071849300556794e-02
-1.700209420128867294e-03
7.161519976241817291e-03
9.531207164594998962e-03
-3.161417734967147172e-03
-7.216980482682324024e-04
5.288019183696304401e-03
-3.997857763196317402e-03
-4.290786063926999429e-04
-5.830430295478933149e-03
-4.835354474040008677e-03
-9.705660247196554310e-04
-6.774612364834346062e-03
-7.472969282642598875e-03
5.319129997537374232e-04
-3.984394326999744600e-03
1.777521381666573351e-03
3.918157168091487147e-03
-4.515362009974493648e-03
-4.919594822949968378e-04
-7.982630326740411744e-03
-7.998796792760573190e-03
-7.854154378782304477e-03
-3.782410063043381652e-03
6.888005529938676270e-03
4.038616697964467553e-03
-1.026284729657828826e-02
-2.199428801656645813e-03
1.353483206261513021e-02
-4.188697663779444511e-03
-8.746618263949372182e-03
-9.186155213761522040e-03
-1.287928703678972546e-02
-1.023097817910263198e-02
3.259205954002817977e-03
2.348120840778218296e-02
2.564603714631477627e-03
6.304080154390381656e-03
7.569771066262246002e-03
-6.790932825527432395e-03
4.541516163184175156e-03
3.950761936196351028e-03
4.857071155196119108e-03
-1.869671977000087653e-03
-2.297139451310262290e-03
1.428503781982456674e-03
4.562239773195413996e-03
-2.845015200208520986e-03
5.879930315686081668e-03
9.489119711147787212e-03
-1.762355537793076953e-03
1.268979190098042630e-02
9.949808618709237579e-03
-1.262101966483391213e-03
-3.772364713658352169e-05
-1.368168623366398115e-03
-7.184306840288380222e-03
-2.020330480043096288e-03
-1.612026761828354304e-02
-1.724558586446361909e-03
9.863754656459586961e-04
2.701851409672226603e-03
1.899948290733933500e-03
6.128034496865251285e-03
-3.358330357128460567e-03
1.672053336171146860e-03
-1.943699847685337356e-04
-7.768518696268328881e-03
1.846843696852782648e-03
-3.149286020904941679e-03
7.604028817305026264e-03
5.687949985014005561e-03
-1.796384699417947345e-02
-1.417934255782064834e-02
-1.119283622838205920e-02
1.435001762252520636e-02
-9.900201282749337365e-04
-1.226246080233899492e-02
2.327191065536213330e-03
7.252135430029030445e-03
-1.840174560542081825e-02
-1.932620560218460237e-04
1.686596794442327130e-02
-3.670527555934084609e-04
4.709633040008624413e-03
4.729804282797806653e-03
-9.037054962906663352e-03
-1.064018641580485695e-02
-4.323101834599611844e-03
-4.761078472859482658e-03
2.748019378724622826e-03
4.474610626208136628e-04
-5.636577087544004418e-03
1.641871432841534792e-02
6.880317237204182021e-03
-8.322162724081582155e-03
8.145465392219908632e-03
-1.772019447178451498e-03
-5.570254579433665289e-03
9.614877527278718056e-03
2.496095305911238439e-03
5.271939897424114847e-03
-9.306410180131388307e-03
-1.191927829649482712e-02
-5.406843578453788060e-04
2.595435599042684918e-03
-1.176451342138594945e-02
-7.684109937136566863e-03
-1.088928984622127526e-02
-1.135472169818155241e-02
-1.801733783324323832e-03
-1.954309783186232441e-02
-1.037783029078735708e-02
-3.053075732425731756e-03
-5.478584731214292125e-04
-8.603086533689355969e-03
-3.122304689771592933e-03
6.304678742896138027e-04
-7.969992466739852024e-03
-2.145981209239512365e-03
-1.106931465287297814e-02
-3.040862902298812568e-03
-6.987685389332562056e-04
1.789253807906704625e-03
-2.087426851428080682e-03
7.385640802817617463e-04
9.984921692318730023e-04
-2.643467521446723079e-03
-3.295929450358302693e-03
-5.420480230055123479e-03
-1.383220332703705190e-03
-5.632004841549342715e-03
5.164709493873894872e-03
1.125675797555875796e-02
-5.397546464700954394e-03
5.307990439347096308e-03
1.124802078002977261e-02
1.628665371396978553e-03
-3.616667175418944186e-03
-1.214008652146594683e-03
-1.342145399951438604e-02
-7.443685353598916872e-03
1.522465473655063885e-02
-1.016935857219979263e-02
1.152233677661413346e-02
2.689577370667138589e-02
7.427879962755392848e-03
8.422936563462480458e-03
9.973575968897684454e-04
-3.704120590000861083e-03
-3.613953391138256810e-03
3.131067284124790066e-03
2.405109052172351401e-03
-3.101817906634766163e-03
2.036488479788520038e-03
7.793901503203964388e-03
1.556661214955848025e-03
-1.507081337184284532e-02
-9.624910520478995382e-03
4.366373651237112630e-03
6.602085702962898553e-03
-3.687701737466231137e-03
4.383467059931899119e-03
8.290111467289956043e-03
-5.014774056457105972e-03
-4.883703538519345091e-03
-7.813871843581810320e-03
2.419937732374887341e-03
-2.438951383707408695e-03
-3.571525913792133414e-03
1.551200467750232619e-02
3.582317897081706455e-03
-3.728458612870255446e-03
9.963215079165010576e-03
2.659684785115308970e-03
-8.038440467445747903e-03
4.401940700227117628e-03
6.256720042327666015e-03
1.110729573425431847e-02
-1.980437851116994413e-03
-3.361039679453542710e-04
8.345507446987868866e-03
-9.863097261667142304e-03
-3.196509757298913838e-03
7.595993864942771588e-03
-2.079880883636469821e-02
-3.432281550822777715e-03
-1.015436525727635131e-04
7.630654793717640827e-03
1.045430203176193722e-02
5.905224798782564982e-03
1.555023105203281499e-02
-6.229350864284051263e-03
-4.397710995131964666e-03
-2.637045280012823879e-03
1.307110605060531842e-03
-1.222721661588018979e-04
-3.100640179173324608e-03
1.208366726661599076e-02
-5.645436929647563561e-04
-4.395328082020743925e-03
3.175182753598960062e-03
-5.555381851720671282e-03
-7.963591963038386728e-06
4.182218904241216326e-03
1.014257745702307201e-02
-5.422684664942149617e-03
-2.068386428361929878e-03
7.434066521406062014e-03
-6.736321234743027075e-03
5.764369326612507963e-03
9.738504130358191513e-03
-2.220993318685718539e-03
-1.087334968143666147e-02
-1.498973849441172235e-02
5.235586171338241500e-05
-1.741717276983921307e-03
-1.138384110691344556e-02
-1.106534511411232276e-02
-1.066204999826857354e-02
-1.072323942688745840e-02
3.483063639607050701e-03
2.478007453162162262e-03
-5.149873148260448313e-03
4.625048090835028394e-03
-1.342001427517255756e-03
-2.222374465559093931e-03
1.816868507917704335e-03
4.172833695467467394e-03
2.460783618072772023e-03
-5.243452484660455874e-03
-6.970660168472146874e-03
-6.531994558503240351e-03
-1.485365113664646915e-04
2.002158422183118302e-03
2.564298333813517725e-02
-4.046534953026287296e-03
-2.433981566027443311e-02
1.515243398076717395e-02
2.796778943119604312e-03
-1.190435934749813247e-02
3.383347169295381190e-04
8.192173372309610735e-03
8.953672682382250725e-03
9.989891395589577464e-03
7.354270737914996026e-03
5.395796462830912930e-03
5.321415662898232313e-03
-2.436098249120908620e-03
-1.247723646333236992e-02
-1.698512824435141622e-02
7.061021634017237807e-03
-9.231261237379965665e-03
-6.208784910037517743e-03
1.756022306653038170e-02
-2.725162267479562962e-03
3.352280746192124166e-03
-6.599128227260716434e-03
-2.551533159346366757e-03
2.722590121687050186e-03
-3.612382325128880769e-03
-6.440537053607011710e-04
2.654008033494772187e-04
-2.073477405297933888e-03
-4.878820786178233483e-03
-7.251098883419291805e-03
-5.742467989139828435e-03
-5.605807670511264761e-04
8.801112470978636124e-03
1.163075543326465809e-02
-2.709883158579174701e-03
-1.178130913755551061e-02
6.474984037331083138e-03
-7.077783485087850782e-03
-1.534652332912180180e-02
6.565039115257975851e-03
-9.176315114334313277e-04
-9.973651478915613808e-03
-6.079388426315397720e-03
4.277330178732219649e-04
-1.396523321553092955e-03
9.599627935930794137e-03
-7.656393641828717180e-04
5.118252069752774955e-03
-1.348464696060896161e-02
-1.309158528274035130e-03
-4.601382564761666467e-03
3.278174756961054620e-03
1.018244674648908707e-02
-2.832494952781340006e-03
1.241516608450432546e-02
-1.545015053190743753e-02
-7.829953418036361343e-03
-6.740248670948230034e-03
-4.920431382421317119e-03
-4.707746891288075095e-03
-2.251565952035372922e-03
1.015244158236507446e-02
-1.094501829881630757e-02
-4.176573729537267667e-03
1.143528356512723589e-02
-1.165120949539371654e-02
-5.591610185413137431e-03
-3.280343610612360822e-03
-6.870349228382970075e-03
3.301275330809373600e-03
4.406071784662490484e-03
-5.517820422984420596e-03
-6.870698862647801018e-03
-1.591973818067259419e-02
-1.705794324109415408e-02
-2.631099438146579806e-03
-6.715920029626517608e-03
-5.539174884872711570e-04
-3.607778959854103171e-03
-5.068776990733365670e-03
-1.747235915203281670e-02
3.345994880426967581e-03
6.272164129176315689e-03
-1.203104776739546793e-02
2.445453711523959319e-03
-8.070826942953329046e-04
1.822334060306278957e-03
1.656726175441167745e-03
-2.555171369301082514e-03
-3.760517191845439387e-03
-4.749784462359806642e-03
-4.270002274719656050e-03
-3.346283191404510974e-03
-3.112001691052663534e-03
1.552414256965690921e-03
1.124414414147299410e-02
2.538125783617649085e-03
9.617488572171376676e-03
2.827098503500081583e-03
4.215095966047093532e-04
-1.176392673142847108e-04
-1.345648698674122706e-02
6.828120365265821085e-03
-4.440265924235621726e-03
-5.530477503716817178e-03
-5.164380682068553429e-04
-4.135431066587102328e-03
4.412610265760352063e-03
-1.679355063377495740e-03
-6.396902102428747225e-03
6.549092772380986707e-03
-1.065890100170273705e-02
-1.671296748673331296e-03
3.437175972893932729e-03
-1.074304044177055648e-02
-4.688384978600140460e-03
2.295147130928142445e-03
-9.294645948156432524e-03
4.993488926494367257e-03
1.316344633625659774e-02
-9.468836118604656918e-03
1.068458287407301512e-02
1.804777866728887042e-02
-3.272671678381752249e-03
-4.150505611984376883e-03
3.748525056907282653e-03
2.940204501718049132e-03
-8.358226766280495504e-03
4.139735137609001307e-04
-3.518210463906374600e-03
-4.737016175964644041e-03
-2.280359065962522455e-02
-1.738248781514954927e-03
1.495720603286948254e-03
-1.207568562890275719e-02
-5.829045487513779926e-03
-2.660799358743574494e-03
-8.758130795864568080e-04
-1.079860162823496547e-02
-4.200232619881782113e-03
-2.619259467335459802e-04
-3.518988331500151352e-03
1.623071726559809514e-03
4.536193851011428857e-03
-4.344989900614593809e-03
1.576926868149264045e-04
-8.114128048325057463e-03
1.496676628759388041e-02
7.242411570265786663e-03
-1.625096401840520630e-03
6.515546417234383859e-03
-2.281505559734729998e-03
1.127530346478012582e-03
7.609886564150354638e-03
1.039719403402118063e-03
-3.723436281405095079e-03
7.683738107502828540e-03
4.623725521430106962e-03
1.140146926382610464e-03
7.845728376054478953e-03
1.171898911803182994e-02
-1.452940196693393781e-03
-4.270020122542074817e-03
4.478684734902710005e-03
-2.346227369874113317e-03
-1.123639704245181113e-03
1.791122108804833746e-02
-1.931797272204808244e-03
-1.896013532345173147e-03
-2.214538127425814094e-03
-4.736100903020062296e-04
-2.467610501675471593e-02
1.709425074589632524e-03
1.575081769420279970e-02
-1.919809828040492522e-02
-1.357799747877282484e-03
7.859231397805904046e-03
1.262404624364340915e-02
2.601046588302153781e-02
2.393426073553051037e-02
1.793445300356420399e-02
9.349057322984211452e-03
2.182119388546936711e-02
9.144961981981168317e-03
-6.319436375036350390e-03
5.517412668887608680e-03
-5.259805895179547885e-03
-3.655939935743327852e-03
-2.877838489728903881e-03
-5.753530435584525669e-03
-7.169445095850720574e-03
3.251414235425586466e-04
-3.043919570706364076e-03
-2.736031476923834926e-05
-8.925437427314823757e-03
-1.781149523618898514e-02
-1.949020649657726145e-03
-9.583570158572802047e-03
-4.803475975016671218e-04
2.080970058440522949e-02
-5.452154394393582751e-03
1.383089952072749478e-02
-1.020782131596822094e-02
-1.700627013409833008e-02
6.775362202194194598e-03
-4.389725467508718941e-03
-2.689943251026735184e-03
5.744670593480966092e-03
1.180832067269603144e-02
1.571819141718373922e-03
3.588476082271093749e-03
-3.337720469780587444e-03
-8.377144771590308570e-03
6.942683249193328139e-04
-1.037624183459203570e-03
-9.134195168697571005e-03
3.144541017141989914e-03
-1.770429618073711799e-03
-5.624148825047754763e-03
-2.822999453617768863e-03
-1.850247368115448673e-03
3.421436939338891314e-03
5.620614040935776809e-03
4.386258642412876017e-03
4.421050455218820258e-03
2.378171082094752108e-03
2.846866110920702724e-03
2.935440963677969552e-03
3.382482465180986636e-04
7.974414607971602731e-03
3.693787616092996523e-03
-2.567321160003943267e-03
-6.778011459732288281e-03
-6.242460547487543171e-03
-1.276831980262501005e-02
-6.488887490995763618e-03
-6.494826697133159778e-03
1.025609921797611575e-03
-5.459884103228818640e-03
-3.295613337965067578e-03
1.520224748195784202e-02
6.136487957781415307e-03
-5.530557590099467735e-03
3.719008877353912820e-03
-1.837288842238754885e-04
-5.201027066678457454e-03
-6.721338903094918604e-03
-1.408177629247403875e-02
1.828221439113188185e-03
-1.326173475195648174e-03
2.983515217455694896e-03
9.143185437195732596e-03
1.628567666010144422e-03
1.031224800967094936e-02
4.386011976354311191e-03
-5.092151917646822734e-03
-8.874035698747069489e-03
-3.448758752007624693e-04
-1.096479002496517953e-02
-3.590578464224799746e-03
-6.955354745474600850e-03
2.937233525739934691e-03
-3.821075310950798696e-03
-2.518034169574645824e-04
1.237157049006267807e-03
1.408492826367694489e-02
1.298849648926436902e-02
2.161468771553029522e-03
2.125202820142541027e-02
1.191126142077322814e-03
8.046752061055501915e-04
4.207260314368522526e-03
4.812841276603876408e-04
-8.217499432322680764e-03
1.076275336163273755e-02
1.453396231438031962e-02
-7.000339953064360458e-03
1.379608986009913003e-02
1.879664011736095416e-02
-1.485809021042769525e-02
4.815389167663357804e-03
6.553373046306327186e-03
4.493141699880627441e-05
-1.009128853584573618e-02
-6.347887405700462782e-03
5.964924620684142025e-03
7.688887661907287813e-03
-9.510761339922442145e-03
7.249965546695662406e-03
1.375299423350346238e-02
-2.908115032280985356e-03
3.590606496054191306e-03
7.492422931188577086e-03
1.666196006065655613e-02
-2.274583269222909751e-03
-1.477640534449894787e-02
-1.673518273892088057e-02
2.220492808582105043e-03
6.917772840411861614e-03
2.687187984992472738e-03
-5.246139210875327107e-03
1.357070891721739135e-02
-1.297393884489446729e-03
1.539258390909836998e-03
-8.633394896447731115e-03
-1.342147290962735287e-02
-2.748630201227112400e-03
-1.439644536838466209e-02
-6.361534990763283333e-03
1.219258425433120780e-03
6.609396101856092158e-03
-1.310086013293075211e-03
-2.550029889864374993e-03
7.544487641580149145e-03
-2.774211532114770600e-03
-5.100296473485889208e-03
3.686407898447539074e-03
3.319447871763852513e-04
2.870845716556649860e-03
4.504138321812694960e-03
-1.176076420105685860e-02
-2.801275167551739616e-03
-6.984621015400706637e-03
-1.399590688871276550e-02
3.479898928286458593e-04
-1.446265648885491917e-02
-1.158788969085160561e-02
1.279083069406906741e-02
8.707951450901955546e-04
-1.553778345693036279e-02
2.097387910522980486e-02
-3.632459533222809865e-03
-1.462816796291102270e-02
-1.835295686234385097e-03
6.293706792793372223e-03
-1.447066073551672195e-02
-4.780839458947895582e-03
5.026482060828718450e-03
1.009638990572236765e-02
-1.047354240889452302e-02
8.159354891100301793e-03
-1.521330718899054860e-03
4.379176288120628299e-03
6.137209274052020033e-03
-1.084075219103097787e-02
-3.485080265456755311e-03
6.459786252704819223e-03
1.667618820528515497e-02
-6.254660832757922943e-03
-4.103328119290838329e-03
1.098337502254360769e-02
-3.266243627380966894e-03
-1.482213117442130043e-03
-6.957812874646402790e-05
3.600107098483329958e-03
2.726788770235397986e-03
-7.789758776753487844e-03
-1.911050948119206484e-03
9.837397459291697451e-04
-1.944699855102015925e-03
-2.144087826292024365e-04
-4.397193116099295737e-04
-2.578420870643431152e-03
2.849799564714656196e-03
3.724254161529994694e-02
1.637765246486277276e-02
-1.604906769993448210e-02
-5.301929868897057750e-04
1.051209954486631397e-02
-2.169915350351824500e-03
-1.799334067507483287e-02
-7.035904003099383540e-03
1.085092566868944494e-02
-9.481028686622094970e-03
-1.123452352494063583e-02
1.799625580805365097e-02
-7.778250829191681688e-04
-8.075049364095527107e-03
3.098801001416694439e-03
4.370095638996381038e-03
5.076902976615940352e-03
1.315590211830761601e-02
-1.316318302409789399e-03
5.268393371658441557e-04
9.257352492411611428e-03
3.310777082816056954e-03
-6.174418284711407322e-03
-4.128358879917323407e-03
6.849871813593599174e-03
-1.677394431021969872e-03
1.230566687375398566e-03
2.474339144839777377e-02
-5.885219479713852536e-04
-2.159410382690675478e-02
2.353732790830727600e-03
5.095564379483407715e-03
-1.334791696022003535e-04
-1.452228609796444095e-02
3.156173509940781406e-03
6.423172142909948845e-04
7.483054726856032228e-03
-1.009340431874894634e-03
-9.909382640847495295e-04
-2.313582721705744003e-03
-1.298087935498049711e-02
1.843166941086156300e-03
4.759178615793464157e-03
-6.439288494174726573e-04
-6.487931634025171507e-03
-8.244202874282601998e-03
-6.349915622979681110e-03
1.248863946001112571e-02
1.861560183384289259e-03
2.485988000390782198e-04
-6.910361317665304932e-03
8.412217444191802743e-03
-5.504147874139824793e-03
2.373620805660362106e-03
-1.963737672288947723e-03
1.521374653693440232e-04
-1.122868890508445586e-02
-3.242368826817569952e-03
-1.263197177908173627e-03
-6.545983548626399529e-03
-7.781990036421948705e-03
-6.278208893026136946e-03
-5.914173498736272766e-03
-7.895139943367658966e-03
-4.237730592450362956e-04
8.831800073993964495e-03
-1.644737817097938854e-03
-6.414016290083601052e-03
4.046186367389514871e-03
6.433158205026599449e-03
-4.755262284054301465e-03
1.235726452957461394e-03
-4.423950395402441969e-03
-1.546364962644374182e-02
7.438571934967620411e-03
-9.623975091958239959e-04
-1.418726350032731981e-02
1.669639623165768139e-02
7.114878775052055565e-04
-1.061988089700439085e-02
-3.241031586251522274e-03
-2.725351093146149203e-03
6.291059622479408184e-03
-1.519441522740479916e-02
1.675036794961095449e-02
6.776380578950983759e-03
8.726419896902188819e-03
1.816193550091708617e-02
-9.424527353615508220e-04
-1.192594834110434314e-03
1.296008454182710247e-02
1.285905727375563634e-02
-3.317208780486027245e-03
1.335969821386763338e-02
2.009250161182708772e-02
1.744348484907194338e-02
7.781949070194750864e-03
1.299344628941057414e-02
-6.679878792605699160e-03
-1.383896744926933200e-03
-3.213191373638117632e-04
4.756124553870236596e-03
2.338455950366774561e-03
-1.986513707183749900e-04
7.529826086142073389e-03
6.240831465654940458e-03
7.306839193232691002e-03
5.920348118487743679e-03
6.247638588121978654e-04
4.206618820891074376e-03
1.190376344688895199e-03
-1.007518800305523196e-02
1.064542561556339542e-02
-4.255932065308136968e-03
-1.540886155251370779e-02
5.900243991966807634e-03
-1.035697667063758230e-02
-3.049763042130218624e-03
1.342071493547196404e-02
1.521926015572530079e-02
-7.187358321996930232e-05
-4.946589209996973303e-03
5.188730485831544864e-02
-5.290697404370319585e-04
-1.220674768419510378e-02
3.279663530116456310e-03
7.364307883333675794e-03
-9.552562250156327846e-04
-8.666370136583298120e-03
1.572901855519468015e-03
-1.630648799318227399e-02
-9.636436147491937027e-03
5.578686617190918400e-03
-1.642563321842128998e-02
-7.865703631129395204e-03
-6.672575523609270559e-03
4.104869003565997029e-03
-1.367639485672955159e-02
-4.695572709887579563e-03
-5.627935740556716353e-03
1.332738931811358087e-02
7.127396431266809843e-03
-1.008189399633339055e-02
-5.676252733825415918e-03
-1.040636076485820273e-02
-1.144706363410575960e-02
-2.551283021026756834e-03
-1.836878130450178993e-03
-5.741626520444118031e-03
-4.604071969732026828e-03
7.990294396018456091e-03
-4.436157539489309705e-04
9.298446961711403580e-04
1.850488417294672084e-03
-3.896628369211795322e-03
-9.738040307120315398e-04
4.550500810444679106e-03
-4.207709274571543034e-03
-1.712133989589726540e-02
-1.418855581657658613e-02
-9.820242703224485448e-03
-5.976362606475465154e-03
-1.000062669889350761e-02
6.238607217213056099e-04
-4.012508170543781921e-03
3.115616153397576631e-03
-2.034925991459191411e-02
2.740581426057486086e-02
1.319469535432311012e-02
-1.001526490160303644e-02
-5.359834938374709486e-03
-5.837017468947575767e-04
8.370514418618427155e-03
-6.775365328972617583e-03
-5.195613603618600383e-03
-1.692029269355352751e-03
6.830303018688937793e-03
-5.669803026847837274e-04
-6.696198589675108649e-03
-1.185339774645143051e-03
5.737661702107548552e-04
1.249598765332433394e-02
-7.610104850708284546e-04
2.390226772606714352e-03
6.652777357413200074e-03
-2.769063442896981236e-03
4.083458311673291222e-03
8.840233179662225493e-03
-7.384851159893987375e-03
-2.379060012367074928e-02
-6.295031169568270427e-03
-4.780307095898810726e-03
-7.043449309273891457e-03
1.012238525278053893e-02
1.895005644562466895e-02
2.475532904658395150e-02
1.189846732512071271e-02
4.993399358560939548e-03
-7.094456813937503187e-03
-4.073388338057454261e-03
-2.710062972126881225e-03
-8.296263230775631145e-03
-8.763201433886475336e-03
-4.167921172739041057e-04
-2.344053480656858521e-03
-6.807911314292767850e-03
8.473963047993077549e-03
3.806728874197562538e-03
2.688031058073923549e-02
-1.389340839874282293e-03
-7.574586735919300665e-03
-2.112463680036051963e-02
-1.644366548294933297e-02
1.945553219216385882e-02
-9.909801010916553451e-03
5.941328566042639037e-03
2.427089846236435422e-03
5.955497537231951985e-04
2.059357794179335951e-04
1.188870529087453157e-05
2.135061996708520135e-03
-3.691503740882816093e-03
-1.766917115907780129e-03
4.197272386051243212e-03
2.611841000048269190e-02
-9.247213845941487653e-03
-3.557570499243507345e-04
1.237611789978691756e-02
-4.895689959083491388e-03
-1.190685867294385622e-02
-1.148698551936620793e-02
-1.037058913443134750e-02
-6.462958661506616395e-03
-2.464678635591433745e-03
-2.882471417283586756e-03
3.525855514831575423e-03
-1.427775987525086278e-03
