3.822619474785897420e-03
1.720305626737777052e-02
-1.194728417543247011e-04
-1.284654432740332634e-02
-1.605163012255461652e-02
7.481695818993123331e-03
-1.441280273476876423e-03
1.219632781298925911e-02
9.290752039708780746e-03
3.112537660766388770e-02
-1.090139069965238329e-02
-1.061324623814462707e-02
-4.102968627402664784e-03
6.542002736143387237e-04
-1.547752344058236050e-02
-2.109350005214680537e-02
1.421322010940217345e-02
2.840311442737140230e-02
-6.268712569812075197e-03
-3.516892582712967917e-03
-4.624225342325143095e-03
-2.538154802136282241e-03
-1.250132862771977105e-02
-2.222519627016686893e-03
-9.085177494482354205e-03
-1.079911535611019491e-02
-3.552909359743547379e-03
-1.298380568541759265e-03
-1.300828139627351098e-03
-8.463940820401418333e-03
2.273859976818945645e-03
-2.635436693526014076e-03
-7.734705264267423622e-03
-2.464363294558649404e-03
8.644372599053968750e-03
-6.101453749569736747e-03
4.142052078950958852e-03
-1.142730210487522382e-03
-2.690636389398644301e-02
-3.920965982647026463e-03
1.105730044104188958e-02
2.773453751056483702e-02
-1.113594063074971547e-03
-1.859105890088679847e-03
5.312941105566902633e-02
-1.291371917679428900e-03
-8.653060136728306373e-03
-6.885119493227267497e-03
-1.785191662076791386e-03
-8.572915452404518757e-03
8.274525950506006824e-03
6.810300341214691085e-04
-7.088932744090551373e-03
-2.041158113008864974e-02
1.080784677023743402e-02
1.488879186823817294e-03
2.001327291788725354e-03
-2.499074914157766846e-03
-6.012628877434280511e-03
-5.673372802759440612e-04
1.406305573338843470e-02
1.217993182843729247e-02
-1.625862452761475934e-03
-3.491708166917302514e-03
1.961292589832619926e-04
5.085137902953162752e-03
9.300447176738055712e-04
-7.203364315040454088e-03
-1.179920114689262528e-03
-1.099082739217422527e-02
-9.022740411112221970e-03
-1.498335987851828494e-03
-4.365876110460518099e-04
-4.013414114355012309e-03
2.511373907079743253e-03
6.837110858445016003e-03
-3.959892637125056285e-03
-4.073241773754666256e-03
2.952254194281260860e-03
-2.151320616453084728e-03
-8.142598811004287188e-03
-1.995402411585353586e-02
1.733695962904490892e-02
9.222690084166021776e-03
2.680023633151344415e-03
9.394940797499036489e-03
-2.252782575193274309e-02
-2.164858618042505168e-03
-2.734864522091878455e-03
7.193841788422336396e-03
4.975259683288041704e-03
-6.115645443490444304e-03
1.675557101495291816e-03
-1.040501928338726477e-02
-8.595802479308455382e-03
-6.997339423683240391e-03
-1.248006903858916170e-03
-3.827903803321541787e-03
-8.691220400980794944e-03
-1.400251959177214491e-02
-2.525054896906535340e-02
-2.121477278617943385e-02
-5.107167000432867414e-03
8.236420921585087263e-03
-1.626087314014514063e-03
-1.776584081999364436e-03
3.134733355133249855e-02
3.825423781478652185e-04
1.015039353649519784e-02
-2.579791328707930348e-03
5.142116933760938324e-04
3.329041229057977478e-03
1.154229226538794340e-03
-5.415739625697230282e-03
2.501335776459264436e-03
4.322207012776323187e-03
1.703886256259136683e-03
-5.905275446957395334e-03
-1.169191208339486789e-02
-9.558306195034994152e-03
-1.131719225317448507e-02
-4.840115085722344890e-03
-7.038015122753297007e-03
-1.658540164909379569e-02
-1.260868873988999113e-02
4.428412082892010937e-02
4.773583237953332031e-03
-8.255543037017788743e-03
3.859053189480589948e-03
1.226775377840314506e-02
1.590494022707514602e-04
-1.245423093046220918e-02
9.631428419663558282e-03
-7.122705140329862322e-03
-2.011446604983226083e-02
2.261060747789279349e-03
3.292556733493938524e-04
1.891792288437919379e-03
7.421009116553682616e-04
-6.523129402425865324e-04
-7.292554675801341674e-03
2.781446169900856757e-03
3.305931701765981389e-05
-1.218531215063384980e-03
1.146118653083945220e-02
-4.527853943013878876e-03
-9.095660848602063822e-03
1.007962616332104544e-02
-2.323321434455365337e-04
-7.385467185196119451e-03
-1.212844492682788218e-02
2.626305714137334643e-02
9.805725735665123816e-03
-4.927450385690288620e-03
-2.265742387586094572e-03
4.224237129696183958e-03
-5.686830178582617801e-03
-1.406184189243255001e-02
2.291560227909930723e-03
-3.062241436909300240e-03
3.175963857473233006e-03
-4.111240786474668757e-03
-9.227218490462350559e-04
2.494852752139297553e-03
-2.333229049332698115e-03
-5.944548435873295809e-03
5.960701206787864283e-03
1.809616592063363616e-03
-1.162830303101375189e-02
-2.522284444126678647e-04
-2.588055247024820434e-03
-3.865436433846751799e-03
-4.415230215557352372e-03
-7.380235419314711172e-03
6.228032416279795890e-03
-1.539862689657357829e-03
-3.073600092855911878e-03
5.974602469771604293e-03
-4.525309776914972389e-03
-2.229905793552452390e-03
-1.248780020322413052e-02
-5.703538866382668266e-04
9.775234941745808773e-03
1.767857122334349530e-03
2.812711594800824770e-03
1.383564652795835591e-02
2.796761279194310938e-03
1.348832208585823249e-02
1.394211485679144706e-03
-9.372435740730758122e-03
-9.885093116330923371e-03
-2.181458839687416221e-03
1.876042200908347932e-02
2.958928649115279315e-03
1.770814885250700937e-02
1.500365106756152388e-02
4.215465402685823759e-03
-8.921961544153993520e-03
1.061807598881037151e-02
-2.793534021313442625e-03
4.440675217393088604e-03
-7.695052309723865447e-03
4.670566003727835008e-03
-6.982373989674324315e-03
-1.868599462702345490e-02
-4.260363486497460023e-03
1.441708525475035975e-03
1.461220027722997345e-03
-3.502820713826070541e-03
-5.856335829570449500e-03
-2.682126139320798776e-03
-1.060970271344589648e-02
-2.432621687646997766e-03
1.735423960162511608e-03
3.163131665423113761e-03
-5.702019003872037251e-03
-1.313346581630763996e-02
-3.472730598783751576e-03
-6.959798775126028146e-03
-2.175962144665270683e-03
-4.456829770092546848e-03
-5.793773353088726118e-03
4.353743491702586829e-03
-3.966955855149623296e-04
1.236660274960307490e-02
1.166960413657997702e-03
-3.732643792335020843e-03
-8.340605893082455062e-04
2.909226427795683426e-03
-9.445390477579721986e-03
-9.788683854090761069e-03
2.200223707249798939e-03
-3.857235323447211379e-03
-1.600951095500106197e-02
6.608024325264708065e-03
-1.228466848508102862e-03
-1.778577676567456162e-02
2.168972536628945361e-02
-4.046180693024273843e-04
-1.299667529495038797e-02
1.788991986522702957e-02
8.738339479657028855e-03
-1.353050027503624811e-02
6.894024631381218474e-03
3.871098723502052657e-04
3.830725705140078808e-03
-1.791569338365174154e-05
-7.417665374485672442e-04
-2.326322405655284128e-03
-5.877880504283357517e-03
-1.107988968714618792e-03
-3.540361807829504794e-03
6.510724838749194082e-03
1.816976699995121944e-02
4.133126227547668195e-03
5.449252104065801898e-03
1.354681697016063948e-03
-5.970290995785555201e-03
2.932978511263407626e-03
1.257255703773404879e-03
-3.117525767564175744e-04
1.647963935252311565e-02
-1.167796427128089259e-02
-1.741806313636228704e-02
1.811366082101611985e-03
-9.813474272702763998e-03
2.505283989050993525e-03
-2.849094974072392773e-04
1.317884052757718185e-03
2.759427540407376894e-03
3.462259939881378971e-03
-2.631871787408610140e-03
-1.588088835829978463e-05
5.208744997913977541e-03
3.776395074847237882e-03
4.716986845450547514e-03
5.381360086256868798e-03
3.537700043927899472e-03
4.842183069809567753e-03
-2.466661707976689974e-02
-6.486985450498806462e-03
9.058588586747644625e-03
-8.383767850242512115e-03
1.999572679118920195e-03
1.117646710533528633e-02
9.205623703049430756e-03
-1.636891255780443394e-02
1.793358361755655701e-03
6.138702185405091783e-05
-7.828679049286932021e-03
-6.738412448068237075e-03
-1.364049586978095677e-03
-7.734648024427851452e-03
1.610470949440889971e-03
-9.046055066389604429e-04
-2.618780345657087828e-03
6.613824257802713123e-03
-1.323893345020223902e-04
3.885050544632029281e-03
4.416271446102078280e-03
-7.241459544144480780e-03
5.858615623336396565e-03
-3.759781935261878160e-03
-1.306883669207736104e-02
-1.897720153130980775e-02
1.951690105617591778e-03
-4.119830771426313126e-03
-2.941626849670179403e-03
-1.457888958600011935e-03
-1.607493809613866657e-04
6.000497372291906106e-03
-1.341878837599685698e-03
-3.715286534835238966e-03
7.599818134618240538e-03
-3.364731939453803090e-03
2.753361453751522123e-02
1.182617759284077322e-02
3.861568401575044170e-03
2.163992225140049831e-03
-3.193474348473500130e-04
-9.433626020124557046e-03
-1.100783051992724332e-02
-4.222361578377012079e-03
-1.872819397489703004e-03
-6.227357787976058739e-03
2.438283977302298840e-03
1.014567692916992954e-02
2.043803395400243736e-02
1.747831864685850042e-02
1.320378195245856118e-02
-3.904689600405758347e-03
2.565798526525498325e-03
-1.241061818172514188e-02
-2.750049783811520099e-03
-2.546467274091407731e-03
3.010154073792173455e-03
1.055316400622890484e-03
-8.114434582704265278e-03
-9.225284808411165311e-04
1.065957375888375996e-02
-4.077618505612288016e-03
-1.409689182843753760e-02
4.990100169631590810e-03
1.101998541099629206e-02
-1.212918369938763632e-02
-8.976765906504296372e-03
-6.713490177374418881e-03
-1.494799256207988113e-02
-9.397868047349157775e-03
-1.336283788051646770e-02
-1.060619927890717532e-02
9.903661987555475131e-04
-5.559878673384458306e-03
-5.310429457042227172e-03
-4.891170572665416195e-04
-5.502804762531323703e-03
8.487160372910333359e-03
8.535639398903376723e-03
-6.338982825002094585e-04
-1.303179650235094947e-03
-7.339745248596261581e-03
5.049895756903236043e-04
8.382566481780855810e-03
9.787919022926997933e-03
3.211817601186436194e-03
4.134498647358704525e-04
-6.765488451247077956e-03
4.092913124379514607e-03
9.102942335275579153e-03
-9.590753834209057990e-05
-1.602783215812599114e-04
-3.695657056155290249e-03
-4.126796436728187752e-03
-4.451593549748915010e-03
1.750330149823855607e-03
1.844251372189127268e-03
-5.699274609696188335e-03
-5.182144508577486187e-03
3.807718185032999206e-03
-4.756893481617729957e-03
5.687893235992236892e-04
7.105586642005255055e-03
2.542525297746791538e-03
-6.394340654283655993e-03
-1.235759671787976452e-02
6.540100012604654542e-05
1.560831090592421902e-04
7.368474748152436561e-03
-5.392034982252184513e-03
-1.240530089016904369e-02
-7.416623921217836398e-04
-8.002214206802069725e-04
1.958426588838070841e-03
1.015902561611485349e-03
-1.230142951281220504e-02
-9.564754919995840108e-04
3.811898697829678787e-03
-1.180305871117810768e-02
-6.503370076172103852e-03
5.113258254800284036e-03
6.409400300168596569e-03
3.034162288837744491e-03
2.528787068080428670e-03
-1.254649553832659029e-03
-5.079805243502394201e-03
-7.782200299555314116e-03
-9.672586314269300198e-03
1.803794387214241414e-03
-6.528336223318821803e-03
4.441988392856552857e-03
-4.005560897455122393e-03
-6.770038016238968427e-03
1.592633723636534791e-03
-1.096054640342563301e-02
-7.901232884535787718e-03
-1.198524955696268508e-03
-1.516459412854038319e-02
9.731172960493507385e-04
-5.434779333578797222e-03
1.378273263937567460e-02
4.836223222077742218e-03
2.028956539175715088e-03
7.060673635745170866e-03
-9.696537957644631861e-03
3.172090034400634924e-03
1.572306453449287544e-02
2.685495939992817074e-03
6.372453431425766784e-03
-1.092425812692253591e-02
-4.395839496052579565e-03
1.308624784857004677e-03
-1.569164053073775558e-02
-4.544041904180013379e-03
-7.314483102434796852e-03
1.837146059496548535e-03
1.158220357874045932e-02
-3.792231801667053995e-03
-2.063261689096945999e-03
-4.590530899174744103e-04
-3.511232743011889843e-03
-5.086899865485636912e-03
-1.621677930948794283e-02
2.495085052344249345e-03
-2.681475342389957536e-03
-5.801303398754308061e-03
-1.677333986476214336e-03
-9.315660501569705820e-03
1.457152502360613798e-03
4.548853168827529810e-04
-7.875391212839056090e-03
-1.900852219154134867e-02
-1.175696415881326111e-02
-1.234058089490940729e-02
-2.945283963155607976e-02
-4.706883011512273153e-03
3.206756663931296242e-02
2.433988984826476396e-02
-7.320275239663911115e-04
-2.510769436556024858e-02
2.211855978538484341e-02
8.063374418575858541e-04
-1.061458257681165314e-02
1.551948447472698694e-02
-2.837295994534995685e-03
-4.977365753027275172e-03
1.644819307645687886e-02
8.473276705052374194e-03
-1.236490114503372741e-02
1.507452267515170530e-02
5.917257727615286150e-03
9.406412819509234191e-04
8.254586218532198802e-03
3.686355470863455098e-03
4.872364278604355420e-03
-6.030183467610560240e-03
-6.499043679737605966e-03
4.842888879348868948e-04
6.953350495611403982e-03
-1.649679036842195343e-02
-1.367865791581833641e-02
-6.217421664540497168e-03
7.136464974138008455e-03
-1.475381587206763337e-02
-2.213549587348139988e-02
6.803753618084929650e-03
5.886712811979956037e-03
-3.865551358972115761e-04
-5.816548127544632352e-03
1.215237496606143275e-02
2.932847327350927846e-02
-3.513084240235054266e-04
-2.105191542006005796e-03
1.018389844227799053e-02
2.504765712371298178e-03
-1.272357444326357133e-02
-1.481826525874719615e-02
-2.357024563807100584e-02
-4.965471893444518836e-03
-6.568230164268667667e-03
-6.001341492883244299e-04
-2.478536947907352371e-03
-1.113312563334762501e-02
-7.937844554996305313e-03
-5.986850236378011940e-03
-8.823492984027942734e-04
-2.495220245272729894e-03
-3.166767397489869489e-04
6.315185751465913003e-03
3.324163370200220510e-03
-2.252192804394893225e-03
2.438672851854403224e-03
7.299289377236930533e-03
-3.801815354417632884e-03
-5.169454636595405272e-03
-6.054670982791371565e-03
-6.573113813927314655e-03
-1.158994231596120750e-02
-7.953839637948165522e-03
7.624554876960450839e-03
-3.883403729948030087e-03
5.321049340429084666e-03
2.025686518457502430e-02
-1.218097506349001720e-02
-2.079702886440480919e-04
-8.694160123325142889e-03
-2.989959101132962180e-03
-8.748289411925484413e-03
-3.050659389682183493e-03
2.923952211736978815e-04
1.238920135007804540e-03
-1.214710288729690252e-02
-3.900814440994492937e-03
1.705356785600643452e-02
1.522664590092819188e-02
1.428648487682188713e-03
1.367399320297797011e-03
6.812848293606487901e-03
3.014243715559496422e-03
-1.673448403623346457e-03
1.989917186803433300e-03
-1.100141119441707359e-02
5.574036067946045586e-03
-3.191040653037734154e-03
2.315959433377162528e-03
1.822962829054065870e-03
-9.518766383831910385e-03
-2.273178889544984649e-04
1.591188339734279445e-03
2.644998085327030998e-03
-1.039618697569066712e-02
-1.492175934315371046e-03
1.676683634991594715e-02
1.144091872772288847e-02
7.199222333342004954e-04
-7.972414968142939882e-04
3.479817425458102843e-03
-1.194498923649496384e-02
-1.113499249846545969e-02
1.420899126569036709e-03
8.676971021774294510e-03
4.853588720332637114e-03
-1.236328417524662840e-02
-1.425518002993124162e-03
2.547981791247370953e-02
-3.219867259870379510e-03
1.196602988880729121e-02
1.405810905308932553e-02
-5.414845169682767564e-03
-9.764440666162903584e-03
-2.468009717334741782e-02
-1.445801151732048397e-03
-2.868401949687365230e-03
-1.295764752417988795e-02
-1.472681849014703670e-02
-2.031770200239139262e-02
7.393975653489075900e-03
-1.644871689392754174e-02
-4.487975659337934894e-03
-7.340887713001511931e-03
-9.067152804431910171e-03
-3.788991831647319387e-03
1.200218496558774859e-03
-3.982191200440270661e-03
5.854401262729642258e-03
2.695749799508016537e-03
-5.133371791523563994e-03
-2.024631309968749626e-02
-1.367088041381663011e-02
2.583759472478230727e-03
-4.829112436789483043e-03
-8.005767329832427434e-03
-1.068039499514062893e-02
1.973841957486527007e-02
1.036164862174959213e-02
-1.826412295957616347e-04
-1.057027974580985324e-02
-1.294905479706313922e-02
-7.021976401090691995e-03
-3.628896306952072211e-03
-3.534954426247894927e-03
7.327063620318298443e-03
6.043071654001575671e-03
-4.528819902254556558e-03
-3.365055185289139109e-03
-6.650551445988619505e-03
-4.535774159193681904e-03
4.542839432444200146e-03
-8.272341892674541820e-04
4.679000572378956731e-03
2.783743035860767896e-03
1.782840589663196038e-03
-1.018016891556126511e-03
-4.456058835800502313e-03
-6.414087678690695397e-03
-8.301508439592165597e-03
-1.573986091024738576e-02
-8.267979317624666105e-03
-3.474257904939459865e-03
-7.264824704257190346e-03
-3.750004611029612682e-03
-1.376821365983992105e-03
7.899271700236824498e-03
-3.317486769788650924e-03
-9.852404845790566426e-03
2.198125649477415851e-03
2.476499904265113804e-03
2.083687595775350794e-03
5.904623822044031273e-03
4.288944884298226054e-04
7.113796650287811801e-03
-5.107261487059785825e-03
-3.087455116778468640e-03
-1.029440152808928054e-02
-1.369639464608539414e-02
-3.336398093444454833e-03
-2.730128745239425794e-03
-1.390132538909384131e-02
-5.014609225506957459e-03
2.779664955358327871e-03
2.191968758045169472e-03
7.939305890068124039e-03
-4.730783215858273653e-03
2.374029164939240374e-03
8.222953297651006133e-03
-3.971133731833709148e-04
1.183477968776502735e-02
2.112739710495076706e-04
-3.447695483497638380e-03
-9.472405771570614405e-03
-6.808449335702087060e-03
1.560351092058731397e-02
-7.284572432122779842e-03
-6.525758864324215057e-03
4.916703086518503865e-03
-2.925797189995308061e-03
-1.822673534981007759e-03
-9.990432767699966576e-03
8.062617928924773261e-03
1.548163306607871874e-02
-1.087331962906187138e-02
2.396750909990676484e-02
1.587926323849100929e-02
-9.508481192935234680e-03
1.102644601331250959e-02
5.469953240329632118e-05
3.295808334072408523e-03
9.772323534557631960e-03
6.047030666460148467e-03
-5.426002980612958755e-04
6.129181760922843003e-03
8.517554477285855033e-03
5.841421381996795593e-03
9.387492932869131654e-03
7.595570110970530781e-03
9.588914584470011049e-03
1.424095771253210477e-02
7.441382361984603608e-03
-1.307435829775184001e-02
4.650781445982512738e-03
-2.115402247630102789e-02
-8.274118397648709544e-03
1.008168231985896203e-02
1.994326638466246623e-02
5.338514075503389064e-03
2.378732840655767376e-03
-4.312872437285707357e-03
-5.666259601890207692e-03
5.109305163156975527e-03
4.043691553040753249e-03
6.271884079521589106e-04
3.281510165140766148e-03
7.355738279579290828e-03
2.765862577953606422e-03
-1.661339336641705355e-03
-1.927333930753754926e-03
-6.363043842663897512e-03
-2.660789177103291010e-03
3.039418846822827466e-03
2.396082860187177463e-03
-1.059166514726239856e-02
-1.855564813341381960e-03
1.314397016084075352e-02
2.651719266458490293e-02
1.101700401503062643e-02
-7.506069980685562901e-03
1.727840059100809941e-02
-1.460510341349335016e-03
-7.556983769033302073e-03
1.290749809781846155e-02
7.596729072463087595e-03
6.587482957490735759e-04
-2.021577995417622731e-02
4.600171915525555662e-03
1.308590911796639160e-02
-1.486244995894388937e-02
9.566286532305552301e-03
7.993594818274080138e-03
-6.636575834339747924e-03
-2.021481008640088096e-03
3.401695325890499201e-03
-1.250880460873573206e-02
-1.561591937230635743e-03
1.194824811768363526e-02
-4.146958437914040167e-03
5.265029329094193339e-05
5.137810004060321990e-03
-1.006566596001561703e-02
4.586693071371177391e-03
-4.269135914467449971e-03
-1.259639477048096930e-02
-4.877210070706256700e-03
-1.087505050755201673e-02
-1.777958189884922078e-03
-1.540408902654285574e-02
-2.042484196791982676e-03
-1.420885325922882463e-02
-1.083987053643533163e-02
1.661355318110708038e-02
7.887705996516791024e-03
-4.836529302358058731e-03
-4.349419006996036764e-03
-4.656531114945058024e-03
-1.132588408823755576e-02
-9.104843696121207169e-03
-1.360362600039952347e-03
-3.961458721293847516e-04
1.119341112975995355e-03
4.733165064719396624e-03
4.487825848315528908e-03
8.286925288129299823e-04
4.601186189825462805e-03
1.650637779009710843e-03
-2.534352334070814981e-03
-9.960999781635001410e-04
4.044912732466068059e-04
-3.820111533669766964e-03
-8.176086358843381819e-04
-1.594876432926042517e-02
-1.129459261592231749e-02
2.415249155371343784e-03
-3.624398316401487071e-03
-4.466311619143389922e-03
3.650220466439432136e-04
-4.967252838961633797e-03
-1.067000460036999360e-02
-1.455990147536471643e-02
-9.831004316840646559e-03
1.887858238365922384e-02
-5.018273495758581067e-03
-2.213902165289773852e-03
1.862871223779919393e-03
2.939844901248612249e-03
-4.979879907416956235e-03
-8.756590895105361219e-03
-1.843148187893918141e-02
-1.223752393025816058e-02
-5.165053894859767195e-03
-1.446743586761016324e-02
-3.784105284006861279e-03
2.055687696094919063e-04
-4.054656792711695996e-03
-1.007545784267230640e-02
-4.766620013151372411e-03
4.099221424015371540e-03
-9.376580395447114318e-04
3.555207339328292360e-03
-4.645230142429112967e-03
6.695799742576956197e-03
1.032645279115985103e-02
6.044362371116444171e-04
1.043197879697199681e-02
3.280639602065936293e-03
1.067572694224050564e-03
-4.502385088572862827e-03
-1.292855118231250834e-03
7.960274553367134923e-03
4.733229722571086553e-03
-7.089142489442471461e-03
7.696846265987444119e-03
4.034804392323936700e-03
2.726170464756532286e-03
-5.485203709620315761e-03
-5.563932817781303344e-03
7.006958456074200087e-04
-1.151430365584331025e-02
-1.638382627397146768e-02
-9.366517925780898975e-04
2.181935811398027624e-03
-6.171665629361566124e-03
-3.771200918764951431e-03
1.124405164718734161e-02
8.195823107073780048e-03
1.199178090727109599e-03
-9.650721634880210162e-03
5.755837565589096583e-04
1.940594890147532637e-03
-1.857162228265964860e-02
1.317315500715036383e-03
9.277405254622284048e-03
6.213127659751693094e-03
-3.478487504407557981e-03
5.730522674697051747e-03
2.135871605918931472e-03
2.591212204855101813e-04
7.122797755218738397e-03
-9.950128478842929208e-04
-3.699050076035714351e-03
-4.266787736487584644e-03
7.221856999894311901e-03
-6.688883548373165955e-03
3.229608453617582864e-03
6.817558041057901475e-03
3.483778346614998730e-03
1.563152460580971223e-02
7.407812005387159199e-03
1.477848405277980108e-02
2.620525878884306242e-02
1.581217034770718288e-02
-1.105786826528248890e-02
2.307901750076685882e-03
1.722542848704957871e-02
-6.311613279486425095e-03
-4.622959294396255039e-03
4.663278954742562654e-03
-6.637072357842348572e-03
-9.743969968628050926e-03
-4.449287328789361742e-03
1.935148991091983255e-03
-1.565373665179631323e-03
4.231235189750029132e-04
-1.587307682403969094e-03
-8.303774392304032236e-04
9.990790947799138913e-03
-3.187242921247047359e-04
-3.353540475874777424e-03
6.372445094299621950e-03
2.001273234059926590e-02
1.063056526277424314e-02
-1.632595139691159561e-02
6.999462781124130353e-03
4.363583468370221818e-03
-2.328222712496088795e-02
-9.074858800393891672e-03
3.120200292793212475e-03
3.929498467199430203e-03
1.211397790317596214e-03
1.566031467323617150e-03
-5.160399749497554056e-04
3.189544496775317383e-03
8.197096500764233101e-03
1.168084715429935569e-03
3.297486022329844217e-03
8.680486651731093850e-03
-2.301398390156137938e-03
2.868173990573240090e-03
-1.005276976850212785e-02
-1.845327767475603981e-02
4.586046736846170757e-03
-1.189721135742174149e-03
2.798692419155280123e-03
1.575081956213721449e-02
-4.391412207737595275e-03
2.513759906271071601e-03
-7.865946555492016714e-04
-6.462300720772938545e-03
4.608606715272435365e-03
6.578020219897930988e-03
-4.424579733719416486e-03
-2.121874766975353609e-03
5.168682298303094863e-03
-7.202962755671030344e-04
3.660011861112334990e-03
-1.235243850012758549e-02
-1.946389697610315453e-02
-3.151381236780845339e-03
-5.093732380575414186e-03
-9.528056662524245560e-03
-1.641041651048910990e-02
-1.043762623333130413e-02
-1.234115875490634714e-02
-1.401456007477879309e-02
6.973811181419511257e-03
-1.018652368441887342e-03
-1.395355112185115570e-02
5.027843833776273440e-03
-7.581340259768975208e-03
-1.245454910741914181e-02
-1.031293320035931403e-02
-6.290771247979967846e-03
1.140542983726498295e-02
1.962233945572217433e-02
-5.157034125323169821e-03
-1.255150319004044767e-03
1.661995186850545592e-02
-1.837818770568168045e-03
-6.262262747198224511e-03
-3.627289864327442204e-03
1.630042984488603436e-02
1.770928466253239532e-03
1.648924541133440363e-02
-2.741873783000939400e-03
6.650572673283325353e-03
-1.109284450316837733e-03
-6.247395345179817226e-03
6.840112651662516238e-03
4.993006671269490868e-03
-1.367388834587562711e-02
-6.234892468598117465e-03
-1.703673784445051270e-02
-1.876918861835654914e-02
3.808367715867718405e-03
-9.410463305659708469e-03
-1.902315490011911511e-02
1.737121022733202277e-02
6.257231390369170400e-03
-1.162234765799296729e-02
1.218913301808579631e-02
2.810934346407234670e-03
-8.046682330398069460e-03
-1.873693630596600821e-03
-5.042191289070335931e-03
-1.000840447857517281e-02
2.399177897352036161e-03
7.497284564588198134e-03
1.457985586436382104e-02
7.560581185506197238e-04
-1.432027703708267218e-03
-3.784983044842539848e-03
3.338128239958921325e-03
1.014014521738137433e-03
-4.351770600862407169e-03
3.809008438579182098e-03
8.852964277020922102e-04
-2.511678167438547229e-03
6.699565513456139793e-03
2.111743247603371527e-03
1.117676697877548241e-03
-1.199531000601390457e-03
-3.994775814306181401e-03
1.098934363006954032e-02
-8.516752719924898171e-03
1.888178502124896905e-03
8.065055651929433841e-03
4.109012818688274719e-03
2.108001631921612665e-03
2.099443128284896477e-03
4.939813510655760229e-03
4.781879998125890263e-03
1.690256279852615784e-02
1.463325275820834834e-03
-4.259612666885141154e-03
2.424762399286033935e-04
-9.860601265457818846e-05
5.568407873093930965e-04
-4.807683848771846305e-03
-5.356002682430119691e-03
-5.408179860800692816e-03
-7.012361168564657833e-03
-2.832612904119423403e-03
3.039781784763917125e-03
-3.699088870746728417e-04
-9.087769387429079151e-03
1.567310472827613361e-03
-6.847218915551086735e-03
-1.015365480451429180e-02
-7.998623979176095952e-03
-4.647427533418999925e-03
-1.036791091767968846e-02
-7.126650875195675479e-03
-4.928283429752128297e-03
-6.058562699298925165e-03
-1.070949298033627151e-02
-5.873565605978662944e-03
-2.801056212616309226e-03
4.301457520555652253e-03
1.273028532185788847e-02
6.093814404032202141e-03
6.372406055596715330e-03
7.907139950807764647e-03
2.842922537573419704e-03
-1.224684002872316940e-03
-1.518704920986828355e-02
1.123746874590961925e-02
1.524552113509074300e-03
-1.745091749899272543e-02
1.131953785909620841e-02
-9.199143390936716930e-03
-1.514961158176409729e-02
-6.943622064477613341e-03
-2.190962535477737529e-03
-2.778250900341462746e-03
3.551801456491535808e-03
-7.755023692994849433e-04
4.830378266731247955e-03
3.747883101518501535e-03
1.407434687231354448e-03
6.586346443252350490e-03
-5.339347307818564405e-03
-5.227533874911326900e-03
3.942487375632324452e-03
8.256543417591798953e-05
-7.756458365326688101e-03
2.216970265749626642e-04
-7.499495863115996112e-05
-4.841198331225754839e-03
3.036533032706361605e-03
-1.695170032589161935e-02
-1.902139327865043361e-02
-3.630512021268642465e-03
-4.915831791467995156e-03
1.053187346988978222e-02
1.427958724103442489e-02
1.288972914420647917e-03
5.153430365061052211e-03
-2.547602069837507158e-02
-2.905289549378441746e-03
-1.659619681778644676e-02
2.806965208285095142e-03
-1.839526128239812874e-02
-1.364077669403734178e-02
2.694509832706927597e-03
5.522637433854210749e-03
1.285641985893472457e-02
6.197749826692774576e-04
-5.553021012334964646e-03
-9.852707395738097285e-03
-6.411274452162447901e-03
-1.030022756651438956e-02
-5.401980026795248115e-03
-4.333506343707289182e-03
-9.176939152690693699e-03
-4.617663450355004523e-04
2.995114676865111378e-03
-1.010179261967780046e-02
-2.349155801777075975e-02
-9.190771297106381521e-03
4.311652721811751882e-03
-2.668014265043834599e-02
-6.611410022494429786e-03
5.396966725366288305e-03
5.741858050069933300e-03
-6.037421289739550341e-03
2.228826905403076455e-03
5.095510349500942220e-03
1.928093599513139300e-02
-1.799970162519127365e-02
1.213080114421001728e-02
1.398644976876670283e-02
-2.392562057168737960e-02
-3.867179277805470571e-03
-1.053703633834925622e-02
1.111863347030885019e-02
1.687246395858473316e-02
-5.594055568928259226e-03
2.094505220350926372e-02
2.008157221333818979e-02
-1.117802378101719930e-02
1.952822397478600619e-02
6.235102057634351247e-04
-1.009144248356953939e-02
5.661894342929506621e-03
-8.282066433568716340e-04
5.560292214743318279e-03
-4.817256382716576975e-03
-2.518737828875521664e-03
2.077312087606824134e-03
1.622042612307512824e-03
1.078725978447059829e-02
4.226828452167489397e-03
-3.516180348031999314e-03
-3.433203828994711975e-03
-1.222099884731755667e-03
-1.742382829905355160e-03
-8.740484990237225305e-03
-2.458602366925430414e-03
4.381233109946444312e-03
1.966425579901738552e-03
1.568088465378174399e-03
1.049292601995066403e-02
7.908068827945060469e-03
3.262915786954189660e-03
-1.788032371162009276e-03
7.686078415758076238e-03
8.003058531834455341e-03
-1.460469594703175857e-04
5.309752555128428517e-03
1.229987654654148520e-02
-3.564805004438019280e-03
1.905337573600712417e-02
7.870834445087886849e-03
-5.493539448658568171e-03
1.786482046672808327e-02
1.279429561906340797e-03
-9.060870013182788577e-03
-4.232504435578298037e-03
1.049367653901405427e-02
-6.192896583945734466e-03
-4.903229366193881909e-03
-3.557452552729241293e-03
-2.129105222737546783e-03
-6.408598593070054597e-03
-1.106652680559540303e-02
-6.003255104938985329e-03
-2.133972470619255411e-04
-6.302116627020470235e-03
-5.125068503407103314e-03
1.332956015446141833e-02
-8.159720846600913152e-03
-3.211949784341312786e-03
-1.206459809186058094e-02
-1.286601654807687997e-02
-3.878813299255592147e-03
-4.970109740038758904e-03
-4.781644545948981161e-03
1.563211555417496615e-03
-6.196192914422457565e-03
2.087857661221515296e-03
-8.932075964470398768e-03
-9.940478599468063284e-04
8.029801507277225039e-03
-1.134315871427397579e-02
8.375326234935536948e-03
-9.694834393197734185e-03
-8.230823744148983712e-03
6.424419759398863894e-03
2.799800142350271186e-03
2.463471713137420057e-04
6.305194584752807883e-03
-4.087053304311100838e-03
1.603302448964767646e-02
1.212592691816016463e-02
-3.116093665239271990e-03
-6.086924542430460425e-03
-1.732801732608413650e-02
-8.927462720878567501e-03
-7.075100476240985849e-03
5.142458838865293126e-03
-2.324438165319593630e-02
4.437002714854505238e-03
-1.012301560887857166e-02
1.144783568935173711e-02
-5.716020696934235625e-03
2.298043993782004218e-03
1.227081048781538189e-02
-4.519564166865562929e-04
1.924225914325601583e-02
8.615975098088705236e-03
-6.404229858766611640e-03
2.924744596308895966e-02
2.739755620307472023e-02
1.237850269889166112e-03
5.830212900506008067e-04
-8.737865826158401064e-04
1.187907720076275715e-02
2.231622554126516753e-03
-1.125518941254447999e-02
6.877260482681357180e-03
-5.815121047366946655e-03
-9.609810857442854445e-03
2.582155103189800061e-03
5.422548296039020978e-05
-7.092909813900702583e-03
-2.868853467727328858e-03
6.828620273622797686e-03
-5.177513967575806710e-03
-4.333103317676086433e-03
2.978652771610694645e-03
1.146361780510779310e-03
9.442206568227510047e-03
7.029260667538308333e-03
1.812898054677557561e-02
-3.983060534181901043e-03
-7.658493716422495705e-03
3.033736524813646085e-02
7.349469911911617366e-03
-1.048651183797674052e-02
-9.269021153244350053e-03
-3.177659208276068480e-03
-4.065549844731801768e-03
-3.281780417024998068e-03
-8.049397845122843037e-03
-1.737016620899156172e-03
-8.635113899818345519e-04
1.618268356139486571e-03
1.534455320044983417e-02
1.001194235237429231e-02
1.046549759248249908e-03
-1.533244303822164705e-03
1.460026763764700908e-03
-1.705734092423846337e-03
-5.269824588540774485e-03
-2.353787794509452132e-03
-2.037146741757215641e-03
6.501506529275357694e-03
-2.383870549587058666e-05
2.037249098310872555e-03
4.100479428561857849e-04
3.804185547013667727e-03
2.465585042106073141e-04
-1.524043082057328913e-03
-2.277045675623344707e-03
3.546087289991623013e-03
-2.205414591879905056e-03
-3.933548303500311073e-03
-7.133581904884086881e-03
-6.175396207069487088e-03
1.324248101745407981e-03
-1.024966205197217622e-02
-3.519758467375018463e-03
-1.313642534010869313e-02
-1.719380469591324026e-02
-1.694270556597671576e-02
-1.814475095125547138e-02
-7.891882820321154124e-03
-2.316826655603554386e-02
-2.207226794753229873e-03
-3.525800548972573070e-03
-2.132412726684242490e-02
1.707153663052559875e-02
-1.546465210326672911e-02
-1.051758325898794963e-02
-1.070386047536720647e-02
-6.037210409347835462e-03
-7.612834495598237543e-03
1.272853564491387016e-03
6.994381676421273196e-03
-1.029453731997014183e-02
-1.175311586732463677e-03
2.577212241972820853e-03
-4.574858488813908844e-03
-3.296711825680639224e-03
-1.316623920428561766e-03
2.860731463483383655e-04
-2.002973097380870982e-02
-4.517436930663478248e-03
-1.146111861877479980e-02
-2.960299796511531994e-02
3.509906473416406908e-03
-1.394998731746980658e-03
-1.558856349492543543e-02
-1.579987473522881207e-03
-8.961658241918782700e-03
-9.472651670189572576e-03
-2.265543726811358564e-04
-2.286281656455829616e-03
1.927088618670667192e-03
-8.079357163349702373e-03
-7.194335321102638455e-04
1.165502690270128587e-02
-7.879884852118598315e-04
-1.365426588310041968e-02
-1.230885035236857147e-02
-3.411975142570197652e-03
-2.284651915265110619e-02
1.897715566928484315e-03
3.765403421777324070e-03
8.267525282378089188e-03
9.206046810614417234e-04
2.988548331516628978e-03
-1.044783792493213410e-02
-1.026086505874884876e-02
-3.626714507631747359e-04
-1.440700815841990459e-02
-1.497331862851479511e-02
2.538032401798012358e-03
-8.770522719736438197e-03
-1.593307785339453247e-02
-9.251378115706134983e-03
-1.088510090609466283e-02
4.789112538591300781e-03
7.363770551233166919e-04
3.206711371051409760e-03
7.342650435802421105e-03
-4.382436365832395597e-03
-7.607999612347473781e-03
-9.927993582589070276e-03
3.798944516705600894e-03
2.091192173215634074e-03
-5.761581308813206771e-03
-2.275497210689190943e-03
2.206468138283448118e-03
-9.368818324608707213e-03
6.155333854101704104e-03
3.301515791162335824e-03
1.366248813586831180e-03
7.070741539253448497e-03
-3.814174797128899383e-03
-2.548629232920534161e-03
-1.374071149696340323e-03
7.455408242269858645e-04
-3.919905135222502036e-03
-7.865460073269730026e-03
-6.273811213621191714e-03
8.199692165494022527e-04
-5.489990958975844194e-03
-3.981389100848046168e-03
-1.862824630309763054e-03
-5.362194468563120410e-04
3.451893378707027692e-03
1.049260240425760500e-02
-4.720836501242782479e-03
1.855491497628097494e-03
1.045693219932305670e-02
-1.123697111712118266e-02
-7.300962977175781514e-03
2.025238481930060914e-03
-9.601093920369873844e-03
-6.993999888818387689e-03
-2.343472034014820998e-03
-6.257392707118486670e-03
-3.779928214924616840e-03
-2.052904732284378461e-03
5.344463128002643025e-03
-7.315001986587870222e-03
7.029214993561277514e-04
8.924172320728061478e-03
-1.176922636726427697e-02
-9.426106374210889774e-03
1.606385626894365343e-02
3.930959643017439137e-04
-9.303043113171843848e-03
1.042966577193691268e-03
-9.339464479359431068e-03
-1.055920279221284931e-02
-1.493167333048233889e-02
-3.191411057196661804e-03
-1.058236418307864982e-02
-1.664778049838635393e-02
9.169454459794865869e-03
1.626738185285446156e-02
-5.527173323888444519e-03
-3.143092205555991173e-03
8.534646375006470220e-03
-1.784068406149296598e-02
6.358201030066678271e-03
1.221004372074200803e-02
-1.622397986339768963e-02
-1.447863783681020526e-02
-1.573511020692474130e-02
5.752309023024620559e-04
-3.049628492340103122e-03
4.637161072643183890e-03
4.943723869581357136e-03
-4.439030170983689397e-04
-2.826048987580347636e-03
3.782858610445899612e-03
-6.315802696976999253e-03
-5.120240205730541838e-03
1.753853782102104616e-02
3.252326323251773267e-03
6.038199075281440106e-03
1.641814579539974117e-02
7.845308246152067969e-03
2.196561335552398020e-02
9.738282151588038144e-03
1.522055608224962388e-03
2.962651654990406704e-03
3.959756734197969821e-03
8.046885776386070166e-03
5.964415693204928176e-03
4.315795691087152657e-03
9.533124015780231747e-03
8.473193327149994986e-03
8.108800014297810541e-03
8.424091928036172086e-03
4.603416201509686473e-03
-1.760874364245556059e-02
-2.381876587707697918e-02
-4.661425197272408769e-03
-1.151270679026888434e-02
-2.749898171027665567e-02
-1.717744872762523578e-02
-2.032671628910151171e-02
-2.293156644014033435e-02
-1.576455352632389131e-02
-6.619771680470789080e-03
-1.519576495019310395e-03
-9.671755076221567882e-03
-4.067961664944625549e-03
-3.756920007551016200e-03
-2.039495789529810997e-03
3.820962418566934381e-03
8.302222514489089947e-03
7.398430073034925440e-03
4.305199796866724521e-03
-2.836184394422082509e-03
-3.666794476492375634e-03
-5.109834502634985447e-03
-2.902130122039865354e-03
-6.752347074234221758e-03
5.461361573269955458e-03
3.224038906809818025e-03
-4.102575278543829293e-03
1.199076108320612857e-02
-8.356536602622668258e-03
-2.547384324264501728e-03
2.186437171535779087e-02
4.719355961710368190e-03
-1.764051258707498553e-03
7.924136143322645445e-03
7.430533491701541912e-03
2.113786972540712336e-03
-1.766251456160073622e-03
-5.018360301013516551e-03
-3.438203716662854847e-03
-2.463626916731769066e-03
3.117731437026946203e-03
5.400333410512641458e-03
1.087445231113150354e-03
1.285306937378783050e-02
2.791087783304653167e-03
-3.928787435514891936e-03
-2.285375203680882570e-03
1.303311853350407751e-02
-1.809111939629662021e-03
4.888764958582293707e-03
9.444273608470121067e-03
1.700980649387512714e-02
4.238389777068177905e-02
3.670010627152013594e-02
-5.329375725148522737e-03
-3.663326533395252181e-03
1.651449985157243689e-03
4.185562786781664435e-03
1.033144892017787315e-02
4.313095539255217166e-03
9.777209496648791784e-03
2.714546302001755521e-02
1.563136586704270622e-02
1.129200779099396104e-02
1.081938401681308698e-02
6.206570218859879667e-03
5.009088483675976306e-04
-6.311224993350753694e-04
3.955556133664144686e-03
2.533388646574213248e-04
-4.540684282296308634e-04
-6.924858856612535994e-03
-2.740845705892640781e-03
-7.351811698692990813e-04
3.782537955704581433e-04
-5.615801685402521323e-03
-3.125112117489830133e-03
-3.761551114596560670e-03
-1.017273536337375515e-03
-2.429253150068366295e-03
-1.445746150725388257e-03
5.981641575086248802e-03
-1.380354413315177525e-02
-1.242852952304781579e-02
-1.100136132103666370e-02
-1.318788070573109934e-02
7.550003264763006233e-03
-1.086249978268045632e-02
4.973449664961542005e-03
-5.437752108978192479e-03
-2.342990934790081369e-03
-5.180560304731095245e-03
1.038433470107072085e-02
3.545907404789772933e-03
-7.125632524850771584e-04
-8.949635445810762494e-03
-7.058946878805066882e-03
-9.656703744098027106e-03
-4.561458212403702271e-03
3.956900588167554765e-03
-1.448951175672672127e-02
-7.820525077763339217e-03
-7.869477275218856108e-03
-9.263021466466502332e-03
-2.092054591592211812e-02
-9.340864211086324573e-03
-3.432067125066671446e-03
-1.146950389250686944e-02
-1.435844219885221325e-02
-5.075197466483458673e-03
-9.825941053661415084e-03
-8.255465947088445888e-03
-5.256874025135191593e-03
-9.752261199266176392e-03
3.542277611856089374e-04
-5.151017907935607695e-03
-8.076779979917467558e-03
3.840457711542948505e-03
5.004940349659357281e-03
-7.431950087666110150e-04
-1.917728732536387289e-03
-2.554682791568727625e-03
1.017177316492427590e-02
-1.369166092478812371e-03
-5.140704489696209210e-03
5.802206086240897093e-03
-8.501398764658815721e-03
6.586470198252787969e-03
9.985480489660485473e-03
-1.185819177930629888e-02
-1.429818698032159739e-02
-6.757368401001487583e-04
-1.360404839936834795e-02
-4.654664511769547076e-03
-5.927824045061945435e-03
-9.539716527357406176e-03
-6.204589842060866285e-03
-4.917196189495519516e-03
-1.412744196106510003e-02
-7.116697992266699316e-03
-4.043669433252612341e-03
-4.939894516501870149e-03
-6.451502893446005998e-03
-2.227604532388059201e-03
-7.843199279540795377e-03
2.386885734747754874e-03
2.478955571874828876e-03
1.035933885590688622e-03
-1.801982278660037035e-03
4.697137094350093377e-03
4.341680187886167233e-03
2.982884992590157085e-03
6.215862882268988719e-03
8.395413354970401171e-03
-1.024879073302571546e-02
-3.826821101579789500e-03
8.711928628616657719e-03
-4.619140932012548613e-03
-4.451510409538600617e-03
-9.896769212311182229e-03
-1.212023743907154547e-02
-1.447906881177297121e-02
-1.714312297719410016e-02
-1.241561339079414947e-02
-1.241235297151061824e-02
-1.661344537893428425e-02
-8.250697115435233833e-03
-8.832327808554345933e-03
-1.498289704706226057e-02
-1.919571033389448622e-02
-1.155774601613311983e-02
1.359352183590280001e-03
-6.673608651213521620e-03
-5.554265721710817914e-03
-7.393167025527672825e-03
-1.635814424311079693e-02
-8.741868740350608805e-03
-1.269654184379213034e-02
-1.690151232320411673e-02
-1.018001462418507454e-02
-1.185512272227525789e-02
-9.671769129752962046e-03
1.543349120810563919e-02
-6.533043356401251923e-03
1.161281243664735036e-02
1.457779533827058792e-02
-1.045096015115695200e-02
-1.178602408488911221e-02
-2.470289695965915185e-03
-7.674005770150252835e-03
-2.434824906815250684e-02
7.148165957088759535e-03
5.115176952594616177e-04
-9.006696296655401432e-03
-1.369539401117755850e-02
1.827698882603991104e-02
-4.779669736621793355e-03
-1.251866325199976933e-02
-2.974580292438083404e-03
-4.935614747741189773e-03
-1.455841622115410005e-03
-1.070966458383314571e-02
-6.114436203939436522e-03
-1.931112378934444389e-03
-1.403547096710883353e-02
-1.510699113462909277e-02
-5.810674744259240222e-03
9.782533208566562399e-04
-3.502452011913701879e-03
-1.152775109562672803e-02
1.464251489527419736e-02
-2.341145706117979831e-03
-9.613114374222662267e-03
-5.936791837670317949e-03
-7.034321344193478903e-03
-9.072140781653446201e-03
-5.185908844554329607e-03
1.083976749297323530e-02
7.486825614378898354e-03
-6.017279222673066995e-03
1.391002680362603099e-02
-1.218553951495145865e-02
-1.099423173033469564e-02
-1.535219855575398196e-02
-2.460359939133587373e-02
-1.220004322780166017e-02
-2.032444898603652517e-02
-2.141277085301551350e-02
1.684452408227168213e-02
9.635992117979816363e-03
-1.090271958417846077e-02
1.869786281311566236e-04
-6.855834937168304652e-03
-1.708848987389786564e-02
1.062117301002464369e-02
-8.645984306352012122e-03
1.914994290087849299e-02
-8.932627393666056625e-03
-2.593040500156956057e-02
2.635129889781478996e-02
-4.867880239802406875e-03
-6.308474951482368268e-03
3.726809379636144334e-03
2.597120474546311605e-03
2.606528845363902461e-02
2.008635639940564016e-03
-9.677599003026459562e-03
-1.431977742060301304e-02
-1.886698769442789539e-02
-1.033339767653124706e-02
-3.306355124698041794e-03
-5.055155959587243411e-03
-1.090481660528804832e-02
-1.844256636180264045e-02
3.251764767559800311e-03
-1.290115236032659748e-02
1.016524366001285465e-05
3.350148036553105002e-02
-2.886112843858473689e-03
-7.726129146964947139e-03
-3.090978197762227035e-03
1.606938633354740211e-03
5.836454308023842578e-04
1.544811601555135449e-03
-8.537973782789648122e-03
-2.157381144039304324e-02
-2.505590527250310499e-03
-1.798436970872586624e-02
-2.230015064360505589e-02
-1.106470901915064357e-02
-1.025868348222537009e-02
-4.261221144171730042e-03
-3.651882274329640559e-03
-1.469012357512839741e-02
-1.281100481206877070e-02
-8.698544513767553568e-03
-1.345953546758735589e-02
-2.995009911026310680e-03
3.589194975078440712e-03
-9.359504346676983388e-03
-9.225924593869887225e-03
8.453132379535351418e-03
-1.157493442193072196e-03
2.978030200169917100e-03
8.158018291947731135e-03
1.515293821862141515e-03
5.632996181063727736e-03
-3.629004530572486030e-04
-8.123312393492371219e-03
-5.575500373422428990e-03
7.082239201738359247e-03
-1.211782561885872168e-02
-8.303961404773642016e-03
9.166302018477550523e-03
-4.687910248313015976e-03
1.840310638790203408e-03
3.516704869228510187e-03
-1.414550707299619750e-02
-1.012919588353483960e-02
-9.454974669950487118e-03
-1.852044869053589074e-02
-1.227602809557112526e-02
-1.571272035493249605e-02
-2.811866163696988361e-03
-9.367076857843400703e-03
-9.515026814952450354e-03
-3.379687388416789760e-03
-3.113868823923159838e-03
2.106044062306134702e-04
5.177043642725137097e-03
9.247984890550925430e-03
-2.481284242026902259e-03
4.982105469172956255e-03
9.922287380391844880e-03
7.289247016503208956e-04
2.240253413319705234e-02
1.799094676141850535e-02
-1.454732728220724594e-02
4.495025998374145224e-03
-9.235774011347742604e-03
-8.249720395003315096e-03
1.675264162556320277e-03
-8.162495512824505597e-03
-1.489037468622428015e-02
2.598899651620858835e-03
1.112902360022456801e-02
9.926869768528554655e-03
-1.269563351721299770e-02
6.304719379442703248e-03
1.075830713514694002e-03
-2.557454967749060032e-02
-4.117311343113085921e-03
-4.002117825429453435e-03
4.728359825049320217e-03
-3.547736003449724240e-04
-7.578558869429073870e-03
9.639925467191622771e-03
5.938241927884709524e-03
-1.915936204607015039e-02
7.197222384902121108e-03
1.821521465499107133e-03
-1.078415720079403499e-02
-2.337113112084726954e-03
1.439877989052076347e-03
1.637301913140493462e-02
-1.861225213753404592e-02
2.166797015848686420e-02
2.305641091864627998e-02
-7.256696009130010963e-03
-1.283805799979582853e-04
7.477669614716612838e-03
-6.558168980775945338e-03
-4.025588736077049222e-03
1.820363840933702376e-02
-7.996447836426792688e-03
1.568831262365276771e-02
8.528030739393416965e-03
-1.461971218439793788e-02
-4.469377825917669397e-03
-8.229403006946186400e-03
-1.466377443523192176e-03
2.483504467166301397e-03
1.560246026600321714e-03
8.162819638745442800e-04
-1.774059455530603612e-03
-4.102783172737040421e-03
-2.955896654387300381e-03
-2.775266758619978659e-03
-1.405470927770520158e-03
-7.029023670886712198e-03
-8.695408053130166889e-03
-5.385210681580923295e-03
-1.166094904300284292e-02
-7.568078926728997579e-04
1.767915702819399795e-03
-6.156173505348861742e-03
-5.925695088729475077e-04
2.066092319194363924e-03
-1.021106335080234316e-02
2.807387294731440372e-02
2.619527362648227040e-02
-5.056392079072175721e-03
-2.677821107646274207e-03
-1.132359158296896741e-03
-3.482703767851064603e-03
-6.810868615135649319e-03
-1.952881866577271591e-03
2.350745781328671905e-03
-6.468824614480597236e-03
5.479841582616890548e-03
1.165465875064310847e-02
-6.484346320098001264e-03
-3.925805563356096458e-04
-5.907709685271176313e-03
-5.121277574988831321e-03
-3.717868335358520942e-03
8.988115739670066162e-03
4.632272429448616204e-03
-6.761303722552778651e-03
9.156197885732252767e-03
6.057622278981634155e-03
1.647936170719654795e-03
5.738398905586679886e-03
9.091067637423906611e-03
1.509505309231247774e-02
1.158691066504973508e-03
-2.863532830839348139e-05
-2.255658502823482733e-03
-1.167084962800658734e-03
-5.891333684681495861e-03
-9.629333683722915427e-03
-3.049760755533690616e-03
-4.183217070988982413e-03
2.625107171552458658e-03
1.320659157518771533e-02
1.266168486646506754e-03
1.878648622070270202e-03
-1.291238906731288685e-03
-1.124859777430211281e-02
-4.033670241800186261e-03
-7.095663355521530935e-03
-2.739053245410504826e-03
2.080887367432292506e-03
-6.029353377741185002e-03
1.020419391504443288e-02
2.617143365227874927e-02
-1.239655956629624571e-02
-1.405549848724847728e-02
-2.021846406633335397e-03
-7.012824024528308171e-03
7.166223365487610873e-03
1.358042162351446626e-02
1.119628974524006096e-03
1.148292480536092751e-02
4.031844147323634768e-03
-6.036823976817859427e-03
-1.082738728746165382e-03
1.940494394612716274e-03
-1.293363419848474020e-02
-6.495915157669644377e-03
-3.798047153291414426e-03
1.766626075965722301e-03
5.971143230494758633e-03
2.659822063529202352e-03
3.520417071492592739e-03
-9.898396652346295316e-03
5.218848232856859552e-03
-3.542391198442569004e-03
1.051880733037389298e-02
1.770262285861404217e-02
6.715039869392888314e-03
6.025302686685368031e-03
5.497797366358997406e-03
-3.381052994077581812e-03
1.421806279197057252e-02
1.498734839930913713e-02
-4.559556415930241836e-03
1.106785904556444045e-02
1.193017998659567924e-02
3.157433490422193161e-03
-1.363403603795383060e-03
-8.215301099040461102e-03
1.339770597358752764e-02
-7.533244776421269863e-03
-1.709756026010432819e-02
1.950656373611857342e-02
1.198336491515025921e-02
8.491735479664584349e-03
-1.211989212527366487e-02
-8.442776622064326192e-03
-1.153643749945915987e-02
-1.169567231424140270e-02
-5.274534273630682342e-03
-1.274001362133528152e-02
-6.583112874007283552e-03
-4.973059540831044172e-03
-1.181460482834706914e-02
1.974600328608538263e-02
-7.070512708876511461e-03
-1.568868403930449157e-02
8.440841012584486547e-03
-2.664197791996916385e-04
-9.684639734716643522e-03
3.916887885250196905e-03
-1.329636562223440038e-03
-4.164498969288037838e-03
-1.118333930380130230e-02
-9.718161848516995716e-03
-4.562018749705259828e-03
-9.219897813535011394e-03
3.902600464385164430e-03
6.428688534974492550e-04
-9.517358490190964276e-03
-1.047602730146453970e-02
-7.613046527572376460e-03
-1.180494958033467693e-03
5.973932940080320386e-03
2.073356866376950200e-02
3.968160003711742809e-03
2.284307296410749855e-03
-1.214553266643517756e-03
-1.269020592502625826e-02
-1.388075190504307888e-02
-1.173262680752206431e-02
-3.176736776384483929e-03
5.621590826651577145e-04
1.543767136470185772e-03
-9.601430157271020199e-03
1.599614721617187950e-03
5.260386182351685543e-03
-1.630757904527589154e-03
-9.113142900115354939e-03
-9.680302005226940412e-03
3.055536989924248232e-03
-2.688395638626666414e-03
1.775120503916562164e-03
-1.521176373797063349e-03
-2.290260859365352009e-03
3.371535126985685145e-03
-5.921202635195977823e-03
-2.199947908863868554e-03
2.409337087554516590e-04
-3.219346297059178571e-03
-2.934990006419560364e-03
1.333400117412092412e-02
-1.075967817517905697e-02
-9.060045661510028256e-03
1.156878495767263253e-03
-1.745244148473032442e-03
2.059006581561631261e-03
7.678250435438095482e-03
-4.497103049472751107e-03
-1.516193908827142070e-02
-1.483764996394140723e-02
-1.372499311984921519e-02
6.569435775189050959e-04
2.479655268127212153e-03
-6.388240863848709469e-03
-3.885624274809488382e-03
5.076440924469669859e-03
-6.249201823845596145e-03
2.791293850644908925e-03
-5.468090155084248498e-03
-1.443013918043943231e-02
6.205313004244580877e-03
9.106019748104274628e-03
3.022632603099742812e-03
1.898144903867539184e-04
3.372379094030604919e-03
-8.732664004969702826e-03
-6.209196694663708660e-03
1.388683895158709892e-03
-6.969595997411550357e-03
-2.887787870802667120e-03
3.274773360182875633e-03
-1.565877280274781503e-05
2.202945151329328399e-03
-3.259205276325644485e-03
5.420087507663953925e-03
5.543812374929562616e-03
4.874455505627711335e-03
2.670295751067954405e-03
3.631397276400355045e-03
5.196568944883483455e-03
-6.957663538850340757e-05
1.040573211514520327e-02
1.164525643941767205e-02
5.621668968139688881e-03
6.990388258712153420e-03
7.108414838208761913e-04
1.102343395320710615e-03
2.900185086094916789e-03
3.272429115539517825e-04
4.561506055801962337e-04
2.870614671141002430e-04
-7.872791172455047498e-04
5.202474765532380876e-03
3.579524579219704912e-03
-4.266219700154369292e-03
8.698689995630868449e-03
5.347483932147177252e-03
-8.147701891494264076e-03
-1.751359450667367215e-02
-6.131692030449917112e-03
-6.583689289273704157e-03
3.288515934163216935e-03
2.256283829594931799e-03
-4.663450883205273213e-03
-5.978347836725367119e-03
-7.896783532303715963e-03
-8.930193410323743197e-03
-4.767405564245457382e-03
-7.274542277868827934e-03
-1.048497031222244552e-02
7.285809072281933772e-03
-7.124523871619606145e-03
-4.827296240652674889e-03
6.777014448727459311e-03
-7.012207661618337709e-03
-7.493631523879264351e-03
-4.278755465566439105e-03
-8.256117847419322531e-03
-1.462699337318422790e-03
-1.093964386829742938e-02
-8.182059787944272536e-03
-1.360963211994333628e-04
-1.468375410300278190e-02
-6.962895705822421538e-03
-5.633961150359389700e-03
-2.061428188226885599e-03
7.681931854374282392e-04
-4.448592190079898347e-03
7.593909073047450282e-03
3.210146841916346628e-04
-1.729426635426816253e-03
-9.382825154647013097e-03
-6.255556032435006727e-03
-2.249046096050161085e-03
-3.972913188694351602e-03
-8.499377561308686831e-04
1.443486138163997288e-03
4.118960604308300952e-03
1.151474846227753005e-03
1.227654417875058239e-02
-2.128863513001257295e-03
-1.114466530804907388e-02
1.629289195310882135e-02
-2.073425342483989006e-02
-1.288089161700750260e-02
1.032945121288987491e-03
-3.523321557478398345e-03
-1.765555479118622630e-03
-3.447973286550008992e-03
-1.231762107397889425e-04
-3.329100011876726366e-03
-7.388225866478778485e-03
2.157034006631989610e-03
-7.926285549097213806e-03
-4.210909556963010093e-03
-9.575740120004819569e-03
5.449230775131730722e-03
8.849383224756229849e-03
1.394456875277817233e-02
1.119473217687477762e-02
9.685122419170641775e-03
1.685420506160355270e-02
3.320187595167782297e-03
-2.551897366186513857e-03
4.696513501671540822e-04
1.010791132509765130e-03
2.718844804305370778e-03
8.200156655071400014e-03
-6.521792656560692096e-04
-3.973988267472190576e-03
1.347509235380310415e-02
7.782911702602704311e-03
-2.974756618939480238e-03
2.140571095559273135e-03
-1.574452188112379679e-03
2.766467072212462023e-03
-4.722383400766987766e-04
1.046341280996469694e-03
1.230713316118170822e-02
-9.867032101030669480e-03
-1.445777905244390905e-02
2.256684085496632030e-03
1.420513846265003544e-02
-1.049782273578459511e-02
-6.461857940312294712e-03
2.273050537625170928e-03
-6.240859391806794984e-03
-5.509244217467901272e-03
-2.903653515887695373e-03
-1.427485002364045803e-02
-8.887687753522274109e-03
1.319847148588690518e-02
-1.223745511723855692e-02
6.451332028537099493e-03
4.792949061863130411e-03
2.500614919797611302e-02
1.744189998363081945e-02
1.109365021857211357e-02
1.489480822152990797e-02
1.645394721123755177e-02
-6.492998979690603641e-03
-2.080494126726532486e-03
-1.798454214813064930e-02
-1.018856016115854066e-02
-7.939659435557584743e-03
-1.159019689461462249e-02
2.158658803958366716e-04
-5.266747211270481586e-03
3.096373419825051705e-04
-5.633607662430623921e-03
4.141528489647995984e-03
-5.964883532183987667e-03
2.418132974064231971e-03
1.928864758676258721e-03
7.476728798994408155e-03
4.996235994418554574e-04
9.456015278491014661e-04
1.167643547777398941e-02
1.725552980635213212e-03
-2.344604172149561232e-03
-6.997013916411140393e-03
7.020754118939067506e-03
-1.011870303485236031e-02
-1.304789420236111309e-02
-1.618367899297833363e-03
-6.082855549045505968e-03
-7.742921773012020545e-03
-9.656471774351111249e-04
1.857840966311908888e-03
1.718531061798881472e-04
-5.964773822314144332e-03
-8.459907925416903932e-04
-6.094225427865620961e-04
-4.544068617093216002e-03
-1.817197844032569527e-03
4.437674401664819392e-05
1.241211478896091756e-02
-5.323315802666895663e-05
9.108153926602533109e-04
3.771922368743472749e-04
-5.137935352615442645e-03
-3.855393067371315485e-03
-9.083227571361046290e-03
-2.303694472424493416e-03
-8.589049888014241643e-03
9.989244024371837435e-03
-1.194147055472835964e-02
-6.611927401598638974e-03
-4.910279772895779311e-04
4.396533979939939302e-03
-3.964872994680641166e-03
-1.004889209191945493e-02
-3.778298012653811839e-03
8.237545116167583129e-03
-2.160290226747576051e-03
-2.918676557993681465e-03
-5.648617453610944687e-03
8.993230596976703808e-03
1.320171991134033544e-02
3.182531912830769468e-03
7.729827325189934754e-03
1.104070926294301036e-02
3.213924330063602265e-03
6.250371997501735950e-04
5.927358079900415036e-03
-9.932187487124469975e-04
9.778588018214316724e-03
1.978685511044394468e-02
-4.493719191764363038e-04
1.534333256863017973e-03
3.334572449309761762e-03
1.546847392087604854e-03
3.163496763246637783e-03
-8.069853677545955201e-03
-7.334373130244000415e-03
4.470806197757719834e-03
1.040788889816371410e-02
-1.708822615217275376e-03
6.818423201697051961e-03
-1.595692739920218962e-03
-6.900613432199251968e-03
5.047884595062225935e-03
-5.025405958604214386e-03
1.249093538701316619e-02
1.173790866546539028e-03
-8.463881449317377931e-03
1.322748126976526668e-02
7.282513878855568622e-04
1.903365008599935395e-03
2.452444297407859602e-02
-3.848849448491519637e-03
-3.123751780914200190e-03
-7.167032841152490806e-03
-1.490563598159708875e-02
-5.753398368839644436e-03
-3.738092950387627688e-03
-1.598243640543982281e-03
1.176617834617205453e-03
-1.853069074140126704e-03
1.723413833039830071e-03
-9.670999075943988513e-03
-9.776378426359700648e-04
-4.666569332667255474e-03
-8.496542642682623422e-03
-4.198601785418997791e-03
4.379786368831981979e-04
1.354244934222281239e-03
-5.719904900422714139e-05
-1.647594569650676771e-02
-1.905318448369456436e-02
5.488397588398761899e-03
-5.211145352847941330e-03
1.307771657976921319e-02
1.742311017103803997e-02
1.999992512347111267e-03
4.418982996681758944e-03
3.138128840394024347e-03
-2.176636412754509933e-02
-1.276414901323450965e-02
-2.533041493831965970e-03
1.157976997504880402e-02
2.204159754559756670e-02
1.376946264178083908e-03
-2.852038822024401555e-03
-1.536993185323685430e-02
-3.181357646976997605e-02
3.304557738612966256e-02
-9.876070011800321818e-03
-2.593325410944943062e-03
1.495873302533586122e-04
-9.439850318379202840e-03
-3.614054737703356092e-03
-1.212923363813428685e-03
1.111558186461334341e-03
-4.969085822064016507e-03
-1.312834797700155286e-02
2.446457607139095394e-02
4.271408996484595336e-03
-9.376537005819373521e-03
8.459313582427524817e-04
-2.375216246267321512e-03
-1.450130054859083417e-02
-5.620533285863588482e-03
2.932867325047981612e-03
2.676593253490181217e-03
1.623993501842229672e-03
2.212658079841674230e-04
1.685874233444444731e-02
5.790335518997007450e-03
1.280235903172191343e-03
1.216085658250037720e-02
-3.289356588476719835e-03
5.320537979941121487e-03
-1.258124453761684698e-02
2.093681331028273383e-03
2.387221097753303850e-03
-1.833380342134231008e-03
-9.804037005553351003e-03
2.741573649418583333e-03
-8.717545478252307703e-03
-6.011539651716868177e-04
5.501233448303829293e-03
-5.481789273823071788e-03
-8.086707685792339853e-03
-5.857260098533620916e-03
-9.783138931713982259e-03
-6.879323871453107281e-03
-9.176965593847065741e-03
3.971261889516644605e-03
3.526915091598777433e-03
-9.756669038499091867e-03
4.570484922005784909e-05
3.276722415454933618e-03
-9.259767120728834176e-04
-5.817728884810806529e-03
5.865558295864688534e-03
9.115003875705051870e-03
-1.320880136190888399e-03
2.419216237237334886e-03
9.642443331136207321e-04
9.229516426635272358e-03
1.415787163133724880e-02
1.161319309663977860e-02
7.089949478428220556e-03
1.096956328924936913e-02
1.253639483103857581e-02
3.033834117217293173e-03
3.706788612837155512e-03
1.742480745872246675e-02
1.314490949055053919e-02
-9.290927451895978142e-03
-5.922071545159795884e-03
-5.596464148592685895e-04
-5.685493805403492827e-03
-5.957420143169806469e-03
-2.461598153777080217e-03
-1.107038977749987517e-02
-7.237829613981552543e-03
-6.531774111184304558e-03
-6.585656662001828851e-03
-7.464510666065187101e-03
-4.717050487786541603e-03
-2.844442728887018428e-03
-4.729546305555062426e-03
1.890916640837287874e-02
1.050081004005580521e-02
-4.996959923666274145e-03
-1.213310193409565703e-02
8.840030214768927058e-03
-2.260966083151922171e-02
-1.130209059201184828e-02
-4.988346627117558676e-03
-1.160948088878807800e-02
1.146857483233209565e-03
9.551402456622648182e-03
1.739937347610808274e-02
-2.618993623157108829e-03
-1.420173511828625931e-02
1.418112115988247020e-03
-1.880209210867138728e-02
-1.279182980721530263e-02
-6.304423107888379625e-03
-1.475483947319816344e-02
5.851394810127933267e-04
2.362565801888285005e-03
-1.274550807868890523e-02
1.711313789242269743e-03
-2.236768528822002770e-03
-1.064518666983665929e-02
-4.279525383320878680e-03
-3.005513381473507752e-03
1.182449859302143157e-02
-1.706165804621470258e-02
-2.447982827656431867e-02
8.993380511109779971e-03
-1.693283802578498046e-02
-1.149639721729641371e-02
-7.346467921375789654e-03
-6.895380565804577234e-03
-5.373206071099812832e-03
-3.237865948650970205e-03
5.701996203544720983e-03
2.050452788471984408e-02
-1.411983368095130059e-02
-7.990370595556635369e-03
2.205574373485326770e-02
-5.397544364348431413e-03
-6.093978484815105491e-03
2.948825935011141833e-02
-1.455402170427562642e-03
1.273159879019219141e-02
1.096333211177221052e-02
-5.033386214541864245e-03
-7.442791593178732017e-06
-1.462526951553303183e-03
3.628165148934780777e-03
5.492354833568024140e-03
-3.098451216112853637e-03
7.886518027126721356e-03
1.195642507813091983e-02
-1.019895067473935990e-03
-6.855847434539752254e-03
1.448942532248679443e-02
1.236158221472370006e-02
-7.527897104320515308e-04
5.435600695544884342e-03
1.534803074377572019e-02
3.715209748292651283e-04
1.466596086537895038e-03
-7.021864316078150689e-05
1.080404993342945746e-03
-8.617983025322885349e-03
6.015052597996804751e-03
-7.029974225395142252e-03
-5.611578066540730270e-03
-1.626584640218651720e-02
1.043956558853770603e-02
-1.893968845283757266e-02
7.338555965604291915e-03
-1.266963028930478963e-02
-1.117610671521119398e-02
-8.306728912249556479e-03
3.638026899544415452e-04
-2.878406102525756568e-03
-1.381262024704039797e-02
1.551024320561164051e-02
1.582517254514801894e-03
-3.058904761051697342e-04
-2.777320601083951498e-03
5.194038364657404096e-04
-8.186820931315390293e-03
-2.651159239096611154e-03
1.073380259652157711e-03
-6.621493039542616140e-04
-1.282945327102363517e-02
3.273358400753368508e-03
8.598694450883861973e-03
2.323620829732050194e-03
-1.382291906575468894e-03
-2.220585890339509330e-03
-3.590120713985052968e-03
-7.428542268852184223e-03
-8.572996892484505832e-03
-3.723246852579690158e-04
-2.354403200868836893e-03
-1.157206995648544894e-02
-1.171573783515248920e-02
-8.047102368635932965e-03
-4.394829951563920811e-03
-9.262591860709294125e-04
-1.713374778859086400e-02
-4.625268815914171383e-03
-1.083887119929166165e-03
-4.198262556737396116e-03
1.050526380069815788e-02
2.416879314603970555e-02
7.529591843628881571e-03
-9.022739734250920587e-03
1.015969448809827917e-02
-8.059917243532445721e-03
-1.209169539623517094e-02
2.191518482130519474e-02
-8.339782871698377120e-03
5.049838723761779745e-03
-6.716841219114153341e-03
-6.369388492732862457e-03
1.040553756440708820e-02
9.137877082323647010e-03
1.113605133871516453e-02
3.940534892025928694e-03
-9.417359175495182769e-03
1.289381934147588310e-03
-9.889732961180322003e-04
-1.736153378992156063e-02
-1.936949151961926685e-02
-1.898873786770715472e-02
1.312136218352353244e-02
-1.034206157113476410e-02
-1.150602437392064456e-02
1.010659725631823762e-02
1.772306167957735362e-03
1.410914014477069158e-03
3.380587837778483741e-03
-5.049611743374276922e-03
-4.596131814661843021e-03
5.483191392641114173e-03
5.405468930141456950e-06
-3.462814338250484302e-03
7.792201965920998036e-03
4.443569826093733861e-03
-3.553830261652378159e-03
-1.417466514757883492e-03
4.091267237847818691e-03
-7.103624364716085680e-03
-1.210003228593966619e-02
-1.671353666554309739e-02
-1.268898262762625795e-02
-4.093851578486237992e-03
-2.053426612228162387e-03
4.693232073450957428e-03
1.316091601425765922e-02
-8.367434507584689540e-03
-5.213820871260426738e-03
-5.190518979026442249e-03
1.008846309366135448e-03
1.565014877728960682e-03
-4.365311080791738942e-03
2.007178049687384502e-03
-1.110229835580881473e-02
-6.107627286607002909e-03
-3.696845988073985730e-03
5.864198672533390243e-03
-4.227376479271078256e-03
2.466827609876052433e-03
-1.305494520013598947e-02
9.546979490180124497e-03
-4.980061526524448209e-03
-1.601631429976845683e-02
-8.640324176671404510e-03
3.896329628822543106e-03
1.652343226363702997e-02
-1.229789875090850186e-02
-4.551963667748237796e-03
6.571645624442758009e-03
-1.013315277203135842e-02
-1.178419669032781773e-02
-1.382409631833054174e-02
-6.043853411316698655e-03
-1.892923403121612612e-03
-1.741754465044935765e-02
-1.316601331805415144e-02
-3.347904803302531227e-04
-1.418810267202890406e-02
-2.493926784064481525e-02
6.220671133181160861e-04
-1.561453403177088042e-02
-7.836925667556634764e-03
2.760062478035856318e-03
1.545453546145038066e-03
-1.049346224809763299e-02
4.063991523357997869e-04
7.286156567657102977e-03
-8.209910594507811854e-03
-3.412068637560462629e-03
7.094626519543579743e-03
-3.750401225352920781e-03
-5.877500341845867497e-03
-6.464054779442154159e-04
-5.567155339947221261e-03
6.347377581193414109e-04
2.437005384812396258e-03
-3.434304150238068083e-03
-6.209438697023933647e-03
8.163452182174814158e-04
-1.609664489539998355e-02
-3.629211066946794271e-03
-6.592282281560597409e-03
-8.793110766377671209e-03
-8.732803933232741872e-03
-2.815274148708703759e-03
1.244130657762214679e-03
-1.032552578818777753e-02
-6.218020649410953282e-04
-8.617534536821373423e-03
-6.469728575354913996e-03
-2.073035433629008550e-03
-2.130529185103501142e-04
5.919385123163182875e-03
7.249334828945715311e-04
-6.445054570023730882e-03
-4.007371099148040496e-03
-2.016903945159426517e-02
-1.068752857601280859e-03
-5.719354255065300756e-03
-6.388309235223166467e-03
-1.066705275615068525e-02
-7.385398150856618479e-03
-7.553403371072542685e-03
-1.556317912428609868e-02
-7.577481612367763762e-03
2.485776189583691576e-06
-9.925881610252040854e-03
2.162443817211027585e-03
5.762791972430025139e-03
-1.265909711453002719e-02
-6.470437115809822559e-03
1.386460684522624817e-02
-4.096109248189603973e-03
-4.251494691955294905e-03
6.538978055087547349e-03
-8.389147061256287813e-03
7.268973153038437579e-03
6.731711765444650837e-03
-1.090935075093560531e-02
-4.217303689244551561e-03
-1.647696385845678251e-03
6.767624868831226010e-04
-2.808473540306204858e-03
3.694249751188841743e-03
1.821100765222479758e-03
5.739737522127908581e-03
8.914933091334734799e-03
1.089545831401079199e-03
-2.889603087867743600e-03
7.223981072076697020e-03
1.479015316060846089e-02
2.398982363106772430e-04
-4.959506239734204520e-03
7.767911257659277334e-03
1.093557245796564041e-02
2.279965530014735689e-02
-6.408429119383295125e-03
3.872160024352476557e-03
-6.299578461854572070e-04
-1.779155075121936075e-02
-8.681799965026331875e-03
-9.818985506060147472e-03
-1.371810218756529384e-03
-2.268100094569301065e-03
-6.907390064797845272e-03
-6.628091411750800140e-03
-1.973441007751645937e-03
-9.129072670122881025e-03
2.116765560738220232e-03
-6.573210218811957389e-04
-4.252563688685954621e-03
2.449840245403405933e-03
-5.530491821317267895e-03
-1.369942817323205504e-02
2.342958178782644525e-03
1.744715440854651550e-02
-6.706702761805707208e-03
3.542755569726718356e-03
3.042866479142727204e-02
6.545165768858803371e-03
-3.079024883136760420e-03
3.791696904532440918e-03
1.233961341589765760e-02
-7.718025060795097141e-03
-1.027735407840152555e-02
-1.621659165809847094e-03
4.477744887833866837e-03
8.323175711271042429e-03
2.025607715112903370e-03
-1.267035548450511258e-03
2.835615065132973331e-03
-7.671759843508904435e-03
-5.723164622891142514e-03
-8.265493903928330249e-03
-6.785991246224171158e-03
-3.783187281325507082e-03
-4.889807081875386383e-04
1.945475786801676441e-03
9.419408422955936541e-03
-2.653210865806709777e-03
2.424452822156157508e-03
-2.056110048601796775e-02
6.036144405514321139e-03
1.796107940479081677e-02
-4.245085232145095686e-03
8.664172820404844252e-03
3.455718108116882792e-02
-6.245418895242034994e-03
-1.015573161038943115e-03
4.895696913628662036e-03
-1.638581719530338805e-03
3.777090692804160703e-03
1.020105297946050441e-02
3.521055388151713827e-03
9.073088933037617640e-03
1.379363621651751894e-02
-5.718642621586243757e-03
-1.221372757098445651e-02
-5.602810056854940629e-03
-7.619642148684152051e-03
-1.823553533372127174e-03
1.128140658101760285e-02
-2.638189594030213459e-03
-8.161471219170258334e-03
1.021330373433734437e-02
-3.143409273808963136e-03
-7.707788578413640908e-03
-4.737597460135254193e-03
4.532248255976740569e-04
-5.726032332126539202e-04
-7.726869682309791924e-03
3.725626815699383584e-03
2.535526293385343983e-03
-7.391561596284556938e-03
-4.431551048028020516e-03
-7.061700801634448674e-03
-2.044608162456261827e-02
6.094405797997448290e-04
-9.142141172999558802e-04
-9.380349951935417277e-03
-5.635335585024261670e-03
-6.190264326553464834e-03
-8.532799474802586770e-03
-2.434902604241382263e-03
-2.141742206586073199e-03
-1.955570608677137390e-02
-2.910205245870082016e-03
-2.883470572681289825e-04
-2.288122667431223903e-02
-1.765267396695812535e-03
3.322720924836738803e-03
-2.085191256456987025e-02
-1.245922042178969347e-02
-6.798953396655132292e-03
-1.847938221982971252e-02
1.095411323433556454e-02
5.142782671870305307e-03
-1.539704922840381789e-02
9.892038453795520825e-03
9.577429599145896241e-03
7.686700815620011069e-03
-1.938688859082910235e-02
-4.699799039567788446e-03
1.104639789245061982e-02
6.537030877423689792e-04
1.603573135367210648e-02
1.646537144187367602e-02
1.265272191591039312e-02
1.956908079903873707e-02
-8.220554642302046544e-04
-3.746607036422624788e-03
-8.991158530146587183e-03
-5.812080977708638727e-03
1.320596638682834841e-02
-7.995330378740991839e-03
-1.243714883939195034e-02
7.460110862934989789e-03
-5.315839038445429286e-03
-1.681891123977893301e-04
-1.101927516369367692e-02
-5.879014258204020779e-03
-2.810405728699190159e-03
-1.591185811577974785e-02
1.524737660024014360e-03
-4.850263481913443669e-03
-1.689223732533910033e-02
3.993229554816817538e-03
-7.878740498943210060e-03
-5.081256949285987631e-03
-3.958364986616534804e-03
-1.539624861099926460e-03
-9.294356742863052467e-03
-3.413688906364332771e-03
-2.120852754225339629e-03
-8.617274722792911748e-03
-3.389350375190779228e-03
2.802819730087942589e-04
-1.137538240956700517e-02
5.822304850068565386e-03
8.628461953212584199e-04
-4.009045138987105280e-04
4.321292588661925643e-03
7.292299313615740498e-03
2.129914958092624447e-03
-5.358431170592979501e-04
7.155580032660450659e-03
-1.888637185426792972e-02
-1.653610652489725941e-02
7.050536174083552087e-04
-9.263558073868255124e-03
-2.345403333334388114e-03
7.676553317164054374e-04
7.196355845858111618e-03
-2.705513666230494919e-03
1.171523343429137221e-02
-6.871212388884117422e-03
-3.874849289887005981e-03
-3.984783457567391734e-04
-9.831419938986410423e-03
-2.963403833672218369e-03
-1.122068623433653163e-03
-8.185573490883864614e-03
-4.645333501489498987e-03
-7.420110922948697230e-03
1.047611799622325153e-02
-4.491399399824190335e-03
-6.850558363246061350e-03
4.419952445396615852e-03
7.025279728512739442e-03
-2.509195854660248477e-03
-1.584591817188585328e-02
4.567376682929370768e-03
-9.128738861439791852e-03
-4.329511705523848841e-03
-1.038020664833178008e-02
-8.397053306829356870e-03
7.721934643318619472e-03
-1.531747023764034633e-02
1.019421192381914261e-02
4.676714372798992415e-03
-9.067862436001696003e-03
1.573081627462837029e-02
-1.094764476914161268e-02
-9.686049469488165753e-03
-1.114894353921538558e-02
6.819589577923102636e-03
-8.081679523515352195e-03
-1.267086940236360898e-02
1.860545150486740684e-02
-7.236791902249323227e-03
-1.789222868724838281e-02
-3.287079293800415462e-03
-3.939124710939212459e-03
-8.359195880878137613e-03
-7.126138487491977085e-03
1.525067423983216116e-03
-2.146786453122174684e-03
-1.287284839982508547e-02
-3.106174735336236087e-03
-2.268956505370994380e-06
2.177243699835982281e-03
6.529874571244129004e-03
3.810612888524055660e-03
-1.958721067904679869e-02
-5.166435979232529736e-03
1.217506143818090827e-03
-9.773283932943759370e-03
-3.628407594443024912e-04
3.246689156921560900e-03
-1.264224370179549764e-02
-7.921302414624079719e-03
3.683990190088741023e-03
3.064660165216986573e-02
-8.163132648987796039e-04
1.157042137461437338e-02
7.485970210289797885e-05
-5.092579083143516233e-03
-4.839907561214874766e-04
-7.136538424303426158e-03
-2.019377412778374306e-02
-9.917976316378709911e-03
6.842899559604860224e-03
-4.760976677972948712e-03
2.941747192360224736e-02
1.318609156535074413e-02
1.330677185062226035e-02
1.108291699064534001e-02
-6.308714779338950134e-03
-1.255220101033813207e-02
1.233062484979759741e-03
-4.777330210420116866e-03
-1.697386318431398644e-02
9.012427591740299060e-03
-8.080890564432584300e-03
-1.566896292940925944e-02
1.349669876052719819e-02
-2.546710192855934640e-02
1.188157865223936783e-03
1.482454235478963475e-02
-1.201854727852600183e-02
-1.914157799052368334e-07
1.697390743835180266e-02
-3.955960279303655409e-03
1.363042209070740134e-02
-8.926257128591739629e-03
-9.794640312988427133e-03
-1.923304275931448943e-03
9.360254336118607049e-03
-1.717717384763380040e-02
-1.156104142199708071e-02
-7.648577627516967362e-03
2.290893541218283307e-03
-5.434632816911383162e-03
-3.029906470036176219e-02
1.844911578891337070e-02
-1.098548435072274447e-02
-3.229461012415211097e-03
4.769908380013666155e-03
-1.142532499464066036e-02
-8.169247081879228364e-03
2.120031318389016539e-02
-4.469952846229351476e-03
-1.475958527880011535e-02
-4.014708228277812964e-03
-6.719071289525119228e-03
-4.320770105505787953e-03
-5.149877831341701830e-03
-4.303512458307562696e-03
3.637714266180497140e-03
-2.100512670538341557e-03
-1.019754477630146474e-03
3.892178076640644396e-03
-7.835108872756877752e-04
1.324792849374937338e-03
-3.925913453101841262e-03
6.505156073950196175e-05
4.825727710969198911e-04
5.688433530579107894e-04
-3.357785349981991154e-03
1.590612031805961005e-03
-7.019210977208728552e-03
-4.242655304789159747e-03
2.330643660023362651e-02
1.810927332948664148e-02
-9.533504611515340038e-03
5.202422601423862050e-03
2.838522507832428785e-04
-5.154269449782499825e-03
-1.964395815517177516e-03
-8.826565391416170067e-03
1.025616353203619591e-03
-8.056745942080640851e-04
-1.025128607087917067e-02
-6.197119657690896601e-03
3.290602962080197737e-03
-7.186530735688387815e-03
-7.239434534496692886e-03
-4.360427909436285880e-03
-1.440804167109522096e-02
-9.302035056348882322e-03
2.092808542197119922e-03
-1.728095194555921525e-03
1.282590343100105954e-03
-9.250130066415564525e-03
-3.243524279442988080e-03
4.140671874644592278e-03
1.415956643123616055e-04
-5.013942988895421678e-03
-1.716202421535514486e-02
-8.655709116710267464e-03
-2.144844866694277027e-02
8.615883337776020223e-03
5.299238777841196353e-03
-2.146159663674756732e-02
2.293334555876166622e-02
1.595698295885493098e-02
-1.851213020781278251e-02
-6.791409748682223843e-03
1.192193785887673760e-03
3.735364607418149765e-03
-7.344195738251418741e-03
4.866897289933439907e-04
-1.457474377644494591e-02
-7.563391459822390271e-03
1.353013839629482393e-02
8.062353594861613060e-04
2.056103267741163712e-02
-2.333455932749022509e-04
-1.913173670145841207e-02
2.427194669101209040e-02
1.371009173087091824e-02
-1.166691444897067186e-02
1.989347479246909162e-02
1.172754462210157285e-02
-3.580168313975377707e-03
1.328751829960394398e-02
1.452549053924133589e-02
-1.881435420165369216e-02
1.160753288580516733e-03
-1.301264621757846664e-02
-1.115449420055063257e-02
-1.334541747991256980e-02
-2.290710545992325625e-02
-5.186219291384946278e-03
1.877342730730834075e-02
4.196673613719799530e-03
9.648159751013081487e-03
-9.399699353078173544e-03
-1.605082200203883716e-02
8.758679129054513287e-04
1.508302156971221344e-02
2.351670523306228708e-02
1.626064256606769495e-02
7.987664687164450564e-03
2.120958863132138897e-02
2.094205895319392607e-02
-1.320662528516171373e-03
9.319756669686065503e-03
-2.674360026382343984e-03
8.710884787472237059e-03
5.044401075479327222e-03
-7.122121337878694995e-03
4.877812219672326369e-04
5.296425528148141978e-03
1.008725551328257773e-02
-7.601554789242469072e-03
-1.247301775318014616e-02
-9.360092479004638449e-03
-1.506985687386843721e-02
-1.123247794879569071e-02
-1.452073052943204240e-02
5.064863478332168756e-04
-1.223978040548438610e-02
-1.328907015887919804e-02
2.834944878592246531e-03
2.005395683341795136e-03
8.823052256886123115e-03
-2.119654507657850809e-02
1.150317003624840191e-02
2.324718821428825230e-02
1.011784050829896836e-02
1.937168597589999583e-03
4.481441670504567737e-03
8.126580111655874001e-04
-2.697935546664210690e-03
-3.199832004389306303e-03
-8.833024884721324063e-03
1.041731927201168658e-03
-4.059108494775418192e-03
1.360514692432621825e-02
2.067638607573362569e-02
4.734891828612532508e-03
6.623690037799104778e-03
5.283967001376996264e-03
-9.088769413507440109e-03
2.105256887816522784e-03
3.761452486903229305e-04
-1.773060732415716965e-03
-6.485364027422723786e-04
5.359435818594686894e-04
5.967760268350851861e-03
2.506240406560761910e-03
-4.510366196982833718e-03
-5.353508468073499109e-03
-4.154774248743816310e-03
-5.323954007870581456e-03
-8.651409519668177076e-03
-4.431988949023836499e-03
-8.257406861294974698e-03
9.949880460548218841e-04
-1.049747499665019783e-02
-1.266313617919626218e-02
-8.174847947851475102e-03
-4.570305560521699569e-03
-4.773588055789688132e-04
-1.097495974720130198e-02
-3.116156608609888749e-03
-1.886406090171836858e-02
-1.517712940735031248e-02
7.155500723910378225e-03
-8.093526344548835835e-03
9.127193908663450497e-03
-2.250243152374504021e-02
-2.000875449366688527e-02
-2.711239137046079616e-03
-7.584869900097869662e-03
-8.056614233378304665e-03
-1.632309184789871963e-03
-2.919451866256512693e-03
-9.304809946475336296e-03
7.529229165865059664e-03
-1.190629044223962853e-02
-1.580033019316030504e-02
1.754462127172932984e-02
-4.025458212178457951e-03
-6.839155150537752376e-04
9.483324308209547734e-03
-1.722299916795687336e-02
-9.799469998765697638e-04
8.931947454528084418e-03
-3.337796575670690102e-02
-2.039214519160171581e-03
-1.994585719862652234e-03
3.971255088630920886e-04
-2.358474475897166453e-03
2.086026364641399480e-03
-2.626453107121821777e-03
-7.791958523437587198e-04
1.404556625755497279e-03
-9.255179481758636986e-03
-7.186365805506596434e-03
-9.626492620798239586e-03
2.095361330785167064e-03
1.578907576715925937e-03
6.015221471905668471e-03
-1.015139032732777181e-03
-6.622380878453573531e-03
8.254652781025325486e-03
-1.189248181878540915e-02
1.337232542478887683e-02
1.162164812156303226e-02
-7.346584519182243825e-03
-6.614983752196186692e-04
8.948064442546247842e-04
-9.416893034846531008e-03
-8.793740496612927407e-03
1.393436039784542698e-03
2.355819083851952433e-02
4.459858921332418048e-03
-2.443860049838869099e-03
-7.223005349200115228e-03
1.261404688101821353e-02
1.059984758146485101e-02
3.393925424994518204e-03
1.718366047521704618e-02
-2.835510377783060764e-03
1.990585557165524405e-02
1.161540622190745074e-02
-9.139063647911454744e-03
-8.612883098896241887e-03
9.283073891151365567e-04
3.705457310518319065e-03
-2.085353404939533153e-02
-7.696462367010440536e-03
4.114049116990643566e-03
-6.265823560958806542e-03
7.229216754716504684e-03
8.933161998496536547e-04
1.612554935217346691e-02
8.858064332548312367e-03
-1.692564246214948304e-02
1.188944556329626229e-02
-9.301713955891610305e-03
-1.102588788374534411e-02
1.494747512100946113e-02
-8.889531360097594967e-03
9.250114321693471810e-04
-3.471825836516717872e-03
-5.811221528910830159e-03
-3.105688346580855273e-03
-5.033148111526049989e-03
-5.099209695667371312e-03
-5.908765178807062757e-03
-4.413722959648595963e-03
-9.617417899157428701e-03
-3.934754857203431010e-03
4.137866501746364535e-03
-6.887354479352157839e-03
-3.168974128599952051e-03
9.246951912368220686e-03
-1.504313356473901573e-03
-6.673719641556853481e-03
1.806415159203336382e-02
7.102108828010901152e-04
-5.340639105879146920e-03
-6.433028983196567921e-03
-2.029967067018602356e-02
-1.160156000293916141e-02
-5.395497853419285728e-03
3.488520333403802125e-03
-8.894815200736271715e-03
4.172529774583563431e-03
2.200137939860678099e-02
6.729530599922817213e-03
2.762715959231586312e-03
8.121482577675814482e-03
-8.864607414044390829e-04
-1.583309175957742709e-03
1.307619495933209225e-02
-8.252362587626516088e-03
-4.190918993699370258e-03
2.464400776679357384e-03
2.523974628275868839e-03
1.766181484364654289e-02
-1.659439548904698136e-02
-9.558715845759424914e-03
1.770424555855472587e-03
7.842872874959801524e-03
-1.166191124622106921e-03
-8.671549436555878870e-03
-7.899645234166141616e-03
-1.607641264187489524e-03
-2.321017543068560045e-03
-8.260283335849322520e-03
-5.420096598275777125e-03
-7.942043992887363665e-03
6.428597725271429156e-03
9.491695158281366826e-03
-3.393772745434597490e-03
6.201712557405857432e-03
-1.322985367353032588e-03
3.035622735759016186e-03
-1.366238003744389218e-03
-4.554102102821173427e-03
-1.560559712665597317e-03
-1.358873564697846614e-04
-6.116502742492434946e-03
-4.733482832290747400e-03
-5.784944144351080115e-04
-4.062874103237537615e-03
-4.583588055642896092e-04
-7.884661959761177924e-03
-1.749176323212965969e-02
3.320967570388819699e-03
2.402763557952263419e-03
-9.536207411485267404e-03
1.318781081900897122e-02
3.188292165777273108e-03
-2.363285344082436713e-03
2.238973479303862230e-02
7.822000054411689524e-03
-2.835772397629737415e-02
6.394057055582894056e-03
-1.703958109800403700e-02
-1.755727216221414019e-02
1.939291804247144854e-02
5.457283992154893237e-03
-3.512996266247662806e-03
9.563066482193280371e-03
4.816307629564314449e-03
-8.537114144157885443e-03
6.451728574167425734e-03
3.797032881419787950e-03
-7.071109655747830937e-03
3.584731222326226728e-03
2.238870927096035638e-04
4.003997439563072164e-03
2.590112447765166408e-03
5.759242180020576925e-03
2.256680130975317455e-03
6.143865593088995540e-03
1.404701660894223415e-02
-1.164962461449481346e-02
1.159732069099974824e-02
1.165761387009881488e-02
-1.825576339541395629e-02
-1.110478958912562708e-02
-1.602672118887981528e-02
-8.140838210367205494e-03
6.375715457451578035e-03
1.842808159870137213e-02
-2.820878725866642154e-03
-9.013228747085081163e-03
-5.884090198602594246e-03
-7.536626500986414942e-03
1.639024056898858578e-02
5.358600989318349286e-03
5.070670523208330172e-03
1.216950039580035926e-02
7.140262844329569453e-03
-1.523626715098360231e-03
3.272504237520050801e-03
-5.107130652754144663e-03
-1.077931686925645907e-02
2.192279433100055921e-02
1.162389048511338480e-02
-1.524340821001737324e-02
4.532931651119999523e-03
1.734672830226735324e-04
-8.763778125082341899e-03
-1.075102624491821972e-02
-2.091832782925660134e-02
-1.286460114022289561e-02
1.010410561382512088e-03
1.149507405115723219e-02
3.391611421103463402e-03
3.969275893679062583e-03
9.225459810157774290e-03
-2.137529085958822083e-03
5.206106482872505060e-04
1.980285430629973985e-03
-9.214169250690427970e-03
-1.109716814296761922e-03
-2.219249410574577065e-04
-1.552988393859682306e-02
-1.632557628478689335e-02
-3.749740022222421490e-03
-1.381019724421139912e-02
-3.912575592541359462e-03
1.283145338433068147e-02
1.784255110026233479e-02
6.909079256021907929e-03
-4.683695510734786800e-03
-3.886789664896099852e-03
-2.458526059877868663e-03
-7.662161682020057415e-03
-4.331722130725078855e-03
-3.048138804553087063e-03
-6.242739497591432221e-03
-3.628044387495236826e-03
-4.438835092136120264e-03
-1.005056897519646976e-02
-3.461546596377873975e-03
6.020441191306458162e-03
4.223894436818759722e-03
-9.625504276506113800e-04
8.198782505292717335e-03
2.777404944306963164e-02
-3.395676122766413171e-03
1.059007880486149966e-02
2.170799027271765741e-02
-2.447624613981153486e-03
1.085411523313988859e-02
2.161293523698893607e-03
4.493615097960677179e-03
-2.820941176192792981e-03
-1.114739992704548259e-02
-2.671482298644195074e-03
2.065642181344222103e-02
1.265866314847770941e-03
-3.396553560292030205e-02
3.963350631797545520e-04
1.494907710763680904e-02
-2.680955950462090079e-02
-1.944338479851225737e-02
8.689116149369404199e-03
-2.233056780844994496e-02
9.044815244823522452e-04
2.254979435237136967e-02
1.884915219174964490e-02
5.296876883180958763e-03
-6.451210591529117112e-03
1.695658565886938238e-02
1.209038606690160909e-02
1.465995298395504458e-02
7.221915288156030045e-03
-6.270702832093288763e-03
-3.303384983913797580e-03
-1.372830272704711647e-02
-7.747176000260312320e-03
-8.485150460065163380e-03
-1.569425570339348652e-02
-1.052430775049835975e-02
9.411345607881425315e-04
-5.196160798489055273e-03
-1.512424713953046049e-02
-4.569103966119205176e-03
5.247659551391103787e-03
-2.317038057904171125e-02
-9.589176566715415517e-03
7.416968751985832456e-03
-2.515270013584687894e-02
-6.247454183919871028e-03
7.777059003483415174e-03
2.635848017224135410e-03
-2.784553313579581513e-04
2.947255210959601971e-03
-6.152269443667610820e-04
-8.894903759058306022e-04
-1.650547290825510631e-03
3.176343267085753128e-03
1.095093245415868725e-03
-9.805959193358274213e-04
4.683800151582284167e-03
1.272293706592496527e-02
-3.039308036025801813e-03
-4.954467593086882282e-03
5.665175906311921937e-03
2.973012106513440132e-03
-2.662892767998863760e-03
-3.238464841352458982e-03
-2.336210516896451445e-03
-7.076577923269421547e-03
-7.654191015309124053e-03
-9.583921549304192863e-03
-1.225298520320983707e-02
1.289162187164141120e-03
-5.579997212129592273e-03
-2.196446895834798768e-04
1.999565454565289946e-02
-4.315607231346586803e-03
-3.397520391595550051e-03
5.551037387640892461e-03
2.569692235433670979e-03
-6.531628440446287341e-03
1.312012907707516994e-03
-6.109294220397302327e-03
4.476236153853538173e-03
9.940851271252227825e-03
-4.008245106061164749e-03
7.307906880898156800e-03
4.238474812631265118e-03
-7.704994877792764423e-03
-9.755506640067230714e-03
5.255025556917398456e-03
-5.089031336824616746e-03
-1.700522172223890849e-02
9.446589313683083008e-03
5.089511932812821465e-04
4.055315316269646198e-03
1.474494599807065973e-02
1.172012246929648137e-02
3.497122187023189981e-03
-1.224298604965081902e-02
-8.708786748923121046e-03
3.507247494418310775e-03
6.713703723954900053e-03
2.708897563111373110e-03
1.112005399443025469e-02
-5.512877314267180216e-03
-7.922159098903444260e-03
8.355392676209473513e-03
7.866582485908520453e-03
-8.445393621663278838e-03
3.077119828734442303e-03
1.640841800004179049e-02
-1.545381568179367388e-05
-6.357124058015657837e-03
-6.438492446846916760e-03
-3.247253837086331966e-03
-2.647636508388953092e-04
-2.621791681104983121e-04
-7.148616358692122877e-03
-1.552923228301959779e-02
-4.773625024711856783e-03
-1.198268995729453827e-02
-7.295811150837792913e-04
-7.098459139050499953e-03
-4.265065284277638931e-03
-9.123383812176345808e-03
3.659931022754344364e-03
-1.109869076128748360e-03
-1.454675080244834280e-02
-4.572211444221119594e-03
-4.602761141227078127e-03
-3.174040750712886754e-03
2.812400310851787075e-03
9.745302382092561541e-03
-4.080263281679062659e-03
2.025063149936006876e-03
-9.095726045658296746e-03
-1.393794993398331586e-02
3.526208583075927244e-02
-2.927694682716524589e-03
-9.970903036560715971e-03
4.878522148296361889e-03
-6.171264786015824566e-03
-1.695913797654685293e-02
5.892861440899266855e-04
5.121165058156755458e-04
-2.187180437072226875e-03
-1.399701457522813629e-02
-1.728861670730422748e-03
-9.323403434550927432e-03
4.232077727048160279e-03
2.441550933364643530e-02
-1.188629380603333126e-02
-7.367499947979637941e-03
-5.380184991674301365e-03
-7.389600262062161109e-04
-9.813211368022524417e-03
-2.967547598543256691e-03
7.055583543892479485e-03
-8.393417823460466720e-03
6.451332359221913226e-03
-5.269785346877608155e-03
-2.254372058820927269e-02
-1.035121549734902002e-02
-9.015073642506119672e-03
3.027675983972311687e-03
-1.421741117509303133e-02
9.597934859446131256e-03
-1.376673307039420497e-03
5.510008985407549228e-03
-1.003960842079707795e-02
1.379631718928044613e-02
5.687332404801585285e-03
-6.863245729362387783e-03
1.104377896229971276e-02
-9.951328723295811002e-04
1.897374581401978233e-02
-2.016274467498084186e-02
1.538379487229276504e-02
1.270351229926047765e-02
-5.622788008516986687e-03
1.931945661684117063e-02
2.583041358160358906e-03
-4.583530618051953956e-03
1.087384953620355865e-02
1.235184469609854584e-02
1.718382338911135119e-04
3.455274829175004089e-04
9.034692026068071730e-03
4.058670089308559145e-03
-1.222577795626873494e-03
-1.711643760741887071e-04
8.692971569337359233e-03
-4.158228232167083334e-04
1.027210743436928093e-02
-7.774845254296548942e-03
-1.666004477571732603e-03
-8.439819668974354525e-03
-3.762143408906262927e-03
-4.519398519238332010e-03
1.708186853223081806e-03
3.236683022849472496e-03
1.102468190319954135e-03
-1.526729180465065568e-02
3.553895172821429967e-03
-9.818781561160038959e-03
-1.290070014396966353e-04
-8.428701213415865090e-03
-3.454527931628799051e-03
2.700211537313260178e-04
-9.977606107855562997e-03
1.769108086271095268e-02
-2.600669685844167380e-03
6.930689157509774614e-03
7.274300877462213169e-03
-5.474739798201909251e-03
5.834948684432781675e-03
-4.032298298235697555e-03
9.176770486476646185e-03
2.263812208858505953e-02
1.399857687770174504e-02
-1.362862239876786417e-02
-1.649268500300790641e-02
-1.186468411340942976e-02
-2.547640168927538403e-04
-9.636642991869408606e-03
-3.097137038041495975e-03
-2.161178126357093390e-04
-9.817248708505787666e-03
-9.828379278174368891e-03
-1.738147762705898221e-03
4.314917980255288978e-03
-7.816147059462773966e-03
1.589194335957584605e-03
-6.554685351497944665e-03
-3.013421644812386497e-04
5.240557341055204548e-04
-4.113192774725698414e-03
6.317536608291058481e-03
-9.490257965324029252e-03
-4.464538518514390812e-03
1.097769586516978563e-02
-1.355652172188297894e-02
-1.528417427910809187e-02
-8.149760252448097833e-03
-2.986775197622840855e-02
-1.066956720912525490e-02
-1.609665845279389593e-02
2.267774776041562787e-03
-4.133645569836055106e-03
1.306474190369837085e-02
2.347958697315626758e-02
2.321330107995264735e-02
1.969970683616729251e-02
-5.096852248071168448e-03
-1.829718947464057874e-02
-9.752929676441647946e-03
-8.407094391148173251e-03
-1.713819590878103497e-02
-5.120169598309823496e-03
3.503680450867261396e-03
-6.660847779944726113e-03
-4.970005095828912076e-03
-4.435886515145432384e-03
-9.502213068117696185e-03
-3.672678178741165499e-03
-1.217391909743297841e-02
-7.974436761225505918e-03
6.825383305544374495e-03
1.830960563635280341e-02
2.296479634046742768e-02
7.026423662618530531e-04
-6.032724717008263252e-03
2.782668456246379079e-03
4.136353408334230743e-03
-2.655038034839283124e-03
-2.140224884163673298e-03
-7.150328981638006190e-03
5.435099768049066714e-04
1.218151599478433907e-03
3.095253565326546927e-03
1.264747506210181505e-02
8.344463733099617350e-03
1.201202868548902070e-02
-6.216418373871987870e-04
5.659663673890255771e-03
-2.650143432960475835e-03
-1.450898425368685749e-03
-4.525372825642636886e-04
-2.678304164402485390e-03
-1.216558712075387766e-03
-7.847684676772140994e-05
6.896164494082830838e-03
3.037346165762096878e-04
2.728020420243150446e-02
2.548640252518659041e-02
-1.763741418381231663e-02
-1.735934082690792149e-02
-6.771482068110501289e-03
-3.681382342369602691e-03
-1.968943783293904148e-04
5.621369233398220214e-03
2.811004370144999046e-03
4.557038418552190537e-03
1.038645571140075488e-03
-2.672459293673115632e-03
-6.596112507746167489e-03
2.746727158649017991e-03
1.639208635001019806e-02
1.771644632461798902e-02
8.856784524372357525e-03
-1.263703402604313521e-03
6.434411826282898129e-03
7.294623356403300181e-03
-3.493107068200645288e-03
2.660710551894502045e-03
-1.684509040188589865e-04
-6.893995424103925573e-03
-3.702202383328741069e-03
-1.049948476597453891e-02
-6.060003272434632583e-03
-8.135478942543340058e-03
-1.551484736798552835e-03
-3.392017698221502092e-03
-2.810810598546510924e-03
-5.420969999662962092e-03
3.065074699655445222e-03
-1.377909351914859745e-03
-1.069704491239972842e-03
8.637630664985308446e-03
-3.986308118828406355e-03
-2.890939094611201608e-03
8.623931881812525388e-03
-7.886471123356270443e-03
-1.281160506153027935e-02
7.345190873708439504e-03
5.917717131159822008e-03
5.737454989475579935e-03
1.219473327877130739e-02
1.948799154558191957e-02
1.108775553750724306e-02
-6.692517009860300117e-04
-3.122287229014264216e-03
1.931087541410462377e-02
1.044123084055877809e-03
9.942426780101950787e-03
1.556734552931939887e-02
-1.012082455208937297e-02
-4.444020679108244380e-03
-3.052022899442369697e-03
-1.176251269573865867e-02
-7.203120124012345020e-03
-4.175147128930399923e-03
-4.854323653587396675e-03
-7.451552083912979171e-03
-8.691655358567956097e-03
5.494893763458233958e-03
2.044373004908628562e-03
1.402820499300722230e-02
-1.155095633987064142e-02
-1.055690036150278531e-02
-8.871485302703537718e-03
1.250196814994076859e-02
9.814172814218384902e-03
-1.577951936798718813e-02
-4.276613939312019948e-03
1.654881989153015763e-03
2.219355022075986984e-03
-4.103593884836339613e-03
1.614661551917718216e-03
-3.703682442722824354e-03
-3.931619671647182228e-03
-4.174453673115997680e-03
-4.206726443974932923e-04
1.202197124966712660e-02
2.023997284851549588e-02
2.132045863793287366e-02
5.609456018125165942e-03
1.326607846383789403e-02
1.141550514318608912e-02
-1.127682751805038006e-02
-1.294204143308148869e-02
-1.139615344237941523e-02
-1.915343750575220286e-02
-9.994438794964538228e-03
3.765541247271668272e-03
-6.816410003470487963e-03
-9.420893452581589889e-03
-9.085077371663075746e-03
2.605373303250562225e-02
2.100312885244426039e-02
-5.177397888028060190e-03
-2.274049126822129830e-03
1.654110337709192944e-03
-1.005083542263962744e-02
-5.710561350519617087e-03
-2.564414149681507743e-03
1.400833481678686720e-03
-4.466909368268968950e-03
-4.386694594339258374e-03
-7.418107388892174713e-04
-8.566404751433012721e-03
-3.570948897758464361e-03
-2.088123560597717604e-04
-6.146009170226980102e-03
-4.257409739305028848e-03
1.855787170836776384e-03
-3.335416589985754597e-03
9.193068162620279642e-04
6.180287547849828457e-03
-5.210759133966302165e-04
-8.663710624872332511e-03
-3.844572579853782813e-04
2.917825863666905113e-03
-4.410986965767654637e-03
-1.109406129772165083e-03
2.889936493285135029e-03
8.089818352526296705e-03
1.277873683196358197e-02
-1.342140286758115170e-02
-1.004262023426493594e-02
-7.055216424884388528e-03
-5.426204055436931531e-03
-2.632139242884058705e-03
-1.415569377323544356e-03
1.269074128982263135e-02
8.290977518463757759e-03
3.597874461545043975e-03
-5.692583023597117507e-03
-5.730699048738303013e-03
-8.304685798263369487e-03
1.384474228602574275e-04
-5.994031014077633515e-04
-7.267279738980359297e-04
-3.452242880899880715e-03
-4.663397810253718835e-03
-4.508959017476230416e-03
6.561543371697640958e-03
-4.452056643908526568e-03
-5.069500851003805840e-03
1.072043591250293654e-05
-7.712460186796142765e-03
3.553256277864392815e-03
1.919823733767794458e-02
-1.860603577086162447e-03
3.390678067670953311e-03
-1.511707286896441307e-02
-6.103751605508932199e-03
-3.807482392466011566e-03
-5.767966237085694198e-03
-3.169029020098575004e-03
-1.503267230521793466e-02
-4.550297632006661437e-03
-2.725614742817082485e-03
-3.671732153064292611e-03
-7.556726619875680021e-03
-1.617041366189869277e-03
-1.116888643284211051e-02
-8.630700147959090990e-03
-3.655800450251371625e-03
-6.313257902317241828e-03
-1.080049227461490425e-03
-4.091912629724979260e-03
4.543796685802536407e-03
4.169263665526043439e-03
6.807589253593534367e-03
4.255274816771530046e-04
3.652932064837255584e-03
-1.798023635065989969e-03
-8.872358588260019149e-03
3.041638439032882252e-03
6.886428228968390465e-04
-1.027257701180961554e-03
-8.430208170570333698e-03
-1.284795814903141528e-03
-9.912395617286422558e-03
-8.324079526695159562e-03
-4.891725411157512964e-03
9.165372967948776659e-04
-2.726960232988440234e-03
2.180008476564840314e-03
3.494383253201741035e-03
-2.368719989400258370e-03
3.144523681762142597e-03
4.319163474791084915e-03
-6.466583771252735428e-04
-1.020428111071787925e-03
-6.123053398510782362e-03
2.837987923972001923e-03
1.243806696445603523e-02
7.761192632508509201e-03
4.081877726005152945e-03
7.866345952602763229e-04
-1.489359117446994139e-02
-6.462975861281303365e-03
1.120344425376079874e-02
-2.793494004663686636e-03
2.033466230023550387e-03
2.696327751844340009e-02
-2.177343157320151684e-03
-4.504003192662760224e-03
-7.170710965427674714e-03
-5.976043796695975144e-03
-3.643393814494993131e-03
1.921904101210999537e-03
-5.257967674156461234e-03
2.957480948522046675e-03
8.839882549175767656e-03
-2.626310940737667209e-03
-1.061796084323032852e-02
-6.538349174031271756e-03
-4.916433007439812222e-03
-5.265527595279957153e-03
-6.255129049497376581e-03
1.126936700842475240e-03
-8.196156124247596167e-03
-1.346812324074112520e-02
-4.381920013659097377e-03
-1.417965800589851728e-02
8.237916833532190827e-03
8.006085987607972423e-03
-6.464150816281519912e-03
5.951131517797129088e-03
6.377310629719458619e-03
-1.492922130599673696e-03
5.524232884850589949e-03
-2.472749676690349802e-04
-2.535520157414770763e-03
-3.292199461846205370e-03
-6.205777504538119611e-03
-4.718848816363716524e-03
-1.518334134125611749e-03
-4.996279433482094358e-04
-1.220112875180086581e-03
6.052631465344705634e-03
6.019646447473600732e-03
-6.345255473054027540e-03
-3.415535589423615744e-03
-2.198846349243303161e-02
1.922588060398572329e-02
1.439512555762882499e-02
9.808638907503691717e-03
-6.336195084891560990e-03
-4.299004560703951518e-03
5.660233471499990718e-03
8.332101347583142350e-04
8.241549394322200683e-03
7.513976442897868022e-03
8.749658532624255683e-04
4.706926710631502593e-03
5.379216766446297954e-03
5.474169496990944142e-03
1.276032974244255009e-03
7.815858045318275354e-03
7.776398348508741301e-03
5.796728893023945714e-03
4.541637112450459812e-03
-2.102955473201492415e-03
-8.303889496000969525e-04
7.886062364290846727e-03
2.521090538087940661e-03
-8.928231891180068991e-03
4.637820161309176917e-03
