8.596519749358365672e-03
3.454628394223958898e-02
3.387661950096956115e-02
-1.933502783849411558e-02
-4.143876735741115931e-03
-5.301078817564378910e-03
2.426926481792672854e-02
2.572325767542575983e-02
4.555061757214338286e-02
-2.776634338389021017e-02
-1.080581314878021892e-01
-3.690007619731282967e-02
-8.712081064526537577e-02
-2.252311565521051828e-01
-1.478692814718477744e-01
-7.736259847787387012e-02
-1.817963461422845983e-01
-9.314478978889456640e-02
-7.487798576187947031e-02
-1.053838431897322070e-01
-9.348884714672173191e-02
-9.932023167166209587e-02
-8.370848229051179590e-02
-7.739233048342786248e-02
-1.130721675852102426e-01
-7.651902416037101307e-02
-6.670258212001624332e-02
-1.722034030665310286e-02
-2.764053036124397567e-02
-2.090234147789035712e-02
-4.806336100399297845e-02
-5.476758109826488502e-02
-9.559895800721021283e-03
1.550304162224465897e-02
3.149114497490894133e-03
4.466443731612779883e-02
-6.706409371731858471e-02
-6.683715588766615812e-02
-8.569393974563875582e-02
-8.354587413885009028e-02
-6.804610598169913427e-02
-4.497702506005584605e-02
-6.930000124221573354e-02
-3.959965614823057062e-02
-5.160624263512093163e-02
-3.464272484055812978e-02
-3.188163428125562193e-02
-2.001789337747404696e-02
-3.144085429990751274e-02
-3.972418595801942287e-02
-5.135731933418955647e-02
-2.019512397593131378e-02
-2.515116285086582693e-02
-2.656272789288333450e-02
-9.999058134132764175e-02
-1.144277438328100277e-01
-5.676974576668517014e-02
-1.062572767435256277e-01
-6.196316811474434499e-02
-5.877123974736554041e-02
-8.977354060381488587e-02
-6.597066367934349695e-02
-9.735482214545436441e-02
1.406574943474393213e-01
9.936697260911328544e-02
1.290040603984587975e-01
1.306681475536705939e-01
1.061672337336745098e-01
1.246036581435181617e-01
1.373601389565763664e-01
1.362867114079717168e-01
1.084157716355489687e-01
-8.651630106419182231e-02
-9.220682844067776274e-02
-1.187282445133974740e-01
-2.224758477209886828e-02
-4.427874279096778026e-02
-6.207104705628034569e-02
-5.111637885318684460e-02
-6.042489761734267523e-02
-5.045531884487271246e-02
9.752852118218088839e-02
7.666061197676972416e-02
8.978754870791101628e-02
9.405728499639631757e-02
8.408053404554782784e-02
8.694033566302562799e-02
1.274739381209433198e-01
1.310554924432421053e-01
1.209028431815064031e-01
-1.402915224040292806e-02
-5.546370044483130146e-02
-2.630082160407616609e-02
-6.495291593622488924e-02
-1.300570692314262089e-01
-3.625334964026406814e-02
-4.958158175489348063e-02
-5.178747918419813329e-02
3.512072162993432056e-02
8.640739155368962199e-02
8.562090021493895531e-02
1.238941832047760067e-01
5.208686401283432743e-02
2.130529394367484952e-02
7.840712283829417983e-02
7.905989649049383061e-02
4.429909243849085299e-02
8.287145308561438828e-02
-5.990940956506379117e-02
-9.436017594061593683e-02
-1.155220372222118264e-01
-1.032698990489091390e-01
-1.023265104009867393e-01
-9.808859088455319786e-02
-9.228075495136961459e-02
-6.631037701630783376e-02
-6.266297715267123147e-02
6.526173401518664541e-02
4.888045678763409257e-02
6.982626392029997464e-02
8.963825252645823971e-02
7.803842088679378841e-02
1.143019853376223277e-01
1.328184269752755164e-01
1.353005823204722069e-01
1.475971967241151983e-01
-8.137003951501450838e-02
-9.731375569885411525e-02
-1.126596237394704714e-01
-1.113199567866875461e-01
-8.229900201499205925e-02
-8.119851067113743881e-02
-8.049902334521587266e-02
-4.182702103795815640e-02
-3.928577973869928214e-02
7.683087941877282667e-02
7.393043666887129384e-02
3.890577606262775323e-02
3.784320674859820849e-02
7.454098970993182707e-04
-1.876487964420367168e-03
5.322513016237598316e-02
3.458600356061416331e-02
3.278452538572843022e-02
1.808110894941215461e-03
-1.750042968529778517e-02
-1.961398122841944217e-02
-6.398689657543094565e-03
-1.390216996728763262e-02
-1.815353050224860834e-02
-2.882046639459359336e-02
5.942165417819283632e-03
7.546205845149631108e-03
-5.249730309867487593e-02
-1.061009101682835742e-01
-7.396381656140088579e-02
-2.883366203955764831e-02
-8.344209747977743286e-02
-5.988558651843241265e-02
1.369730030889292419e-02
-1.687734896064017887e-02
5.328449784164056464e-03
8.537297294891671440e-02
7.192653802726978185e-02
9.705583354968348730e-02
5.969943704534173140e-02
8.587242265806023511e-02
1.051149737444708743e-01
5.666619267019247508e-02
8.186085570989090621e-02
8.653649439966711043e-02
8.452632873549865977e-03
-9.546904270210062812e-03
6.365904477827863568e-03
-4.108149981396433913e-03
1.075988612452668559e-02
-4.923495433618763246e-03
1.326230550913656131e-02
1.792042198187263416e-02
1.170229200588820268e-02
-4.957209579469135791e-02
-8.852852786629268611e-02
-5.389202097358882643e-02
4.762452220016850251e-04
-4.577112661443522718e-02
-5.161991993930199057e-02
-3.933745177598344661e-02
-6.689096540132466462e-02
-8.750748302951502633e-02
5.649121587335442091e-02
7.637885042273015457e-02
8.417767834808138894e-02
5.180057667973683722e-02
5.387229657425689211e-02
8.091076200215135961e-02
7.558752068082599807e-02
7.756528249397254271e-02
8.614998559779306342e-02
7.625279747926638763e-02
6.435270675404734797e-02
1.017414216830593021e-01
6.381084922282376226e-02
6.572802921196246873e-02
8.518863924019505485e-02
5.989523242584621904e-02
7.668765396103628673e-02
9.961803520400094869e-02
7.110107046116249940e-02
-7.175831718254348929e-03
1.984905091972051505e-02
-6.740625351958894063e-02
-1.532023940807488716e-01
-8.938594670551609778e-02
-6.360700013669452757e-02
-1.642162754686410930e-01
-8.512770480528873696e-02
2.992134851856766836e-02
3.629739692126389937e-03
7.809206318291282180e-03
-1.886993588096981533e-02
-2.336385818003377038e-02
-1.263560016255232780e-02
-5.269134087743277024e-04
-9.462738048081018385e-03
3.008790991097273597e-03
-9.218981042087082134e-02
-9.566021051895794158e-02
-9.145567816538179018e-02
-8.132608311311220750e-02
-6.778097530251095404e-02
-5.918748418995748578e-02
-8.494929096098140231e-02
-7.805316692916203225e-02
-5.970758526522793042e-02
-4.383779740966213534e-02
-8.921712242358206466e-03
-3.184857428314940425e-02
-3.585918336563057029e-02
-2.620526223300384885e-02
-5.837719888588666084e-02
-4.498408273077147274e-02
-4.485532522536465894e-02
-4.673882905611577432e-02
6.420791454066905601e-02
4.241206068117290423e-02
5.132485186779935094e-02
7.779004649561162277e-02
4.853527979932512060e-02
6.555007885105262888e-02
6.419470980779524993e-02
5.658901450539033373e-02
5.549260545059760130e-02
1.762617818378476309e-01
1.301066237857375074e-01
1.385145761327358227e-01
1.333251252012395138e-01
8.621869019553977942e-02
1.074768560568079012e-01
7.008787576083107262e-02
5.941894779866783299e-02
9.807330138518162432e-02
-5.717104059773037844e-02
-3.378528600793325593e-02
-5.623726514074665200e-02
-5.925047067488645181e-02
-4.060257605779313966e-02
-6.319784789887528120e-02
-5.888125434769393707e-02
-1.082893079185642815e-01
-1.084970829817076127e-01
5.096947279199958575e-02
6.414507164471422440e-02
9.030578312651782458e-02
3.562487887633085382e-02
2.988710890977527151e-02
4.380163479916560770e-02
3.433398310003833026e-02
2.174724263021743029e-02
1.500989892247101519e-02
5.643410199570904340e-02
4.817912098086838540e-02
1.973355812739189738e-02
6.243270406013876582e-03
-9.232208494735275744e-03
-1.027007414367819924e-03
-3.733749546963359423e-02
-6.075027750304165530e-02
-3.149029798171978922e-02
-4.206966095808501588e-02
-4.896764982898609009e-02
1.716122708886166220e-02
-5.253026312977378959e-02
-6.072897544257627178e-02
-8.762070020924103003e-03
-6.716982245940658625e-02
-9.432847367622709811e-02
-8.990632041807919417e-02
-2.179662451424337413e-02
-5.692793901178795635e-02
-3.627446812495240674e-02
-3.002332758909081675e-02
-4.464761014242570741e-02
-2.331659196139876031e-02
-2.557249288775659268e-02
-6.672516012301120403e-02
-4.601104016163563848e-02
2.974512849567514591e-02
1.892027744826586810e-02
4.758686008456242816e-02
4.809661911853185118e-02
5.000280091928523823e-02
6.203671111564454388e-02
6.270418537066366205e-02
8.099977989578213688e-02
7.470843989991091116e-02
-8.876817604652824378e-02
-4.720277411942901818e-02
-7.229599427527982902e-02
-8.805770870804087436e-02
-4.721147306664636584e-02
-6.585043063328674395e-02
-1.107521241918026228e-01
-7.335578995925219614e-02
-5.938882319541243654e-02
-1.170371135563371551e-02
-2.681855982281035333e-02
-5.427812263710586616e-02
7.649897986661569407e-03
1.613602907732603065e-02
-1.657879931091045533e-03
1.806490157115534304e-02
2.659380854424494428e-02
3.122995299580850342e-02
-7.148605067661578660e-02
-7.850361826407124821e-02
-9.676749053139943602e-02
-1.506504072369958466e-02
-3.267458530626003027e-02
-5.561450340172144347e-02
1.483516022886853351e-02
-1.752052305376577274e-02
-2.279040834812938801e-02
-2.672143369609629796e-02
-5.879474108199159860e-02
-6.983946683559183466e-02
-4.954405050518786990e-02
-5.780535307005400109e-02
-6.028648511661230391e-02
-4.015109051875381113e-02
-4.629806543300522825e-02
-5.098939530776418205e-02
4.963904097310953278e-02
7.476396884609504134e-02
6.549286500639996123e-02
2.713401752863899008e-02
2.860460854451428794e-02
1.882285687327575618e-02
-9.608148966355407536e-03
1.167048105009869073e-02
1.181478487920674392e-02
2.251092331548340195e-02
7.149389172515227542e-02
7.557145325637942834e-02
2.127241206859982817e-02
6.050428050905135025e-02
5.095142056806253872e-02
-1.743321005200501204e-03
1.743915354498468953e-03
1.036703741504944529e-02
4.542967021637989850e-02
3.634649526250549600e-02
2.147892209470528627e-02
8.520897798222643038e-02
7.233589383426754227e-02
8.038070784811740532e-02
8.857954739165645186e-02
7.168085911012089806e-02
1.058269733045429234e-01
-2.979310175368908228e-02
-2.623750068406822955e-02
-7.312166722814757158e-02
-4.623927392721911139e-02
-3.558773113641689606e-02
-8.967027832043435176e-02
-3.650942694375446107e-02
-3.478173350816841231e-02
-8.067624122059949276e-02
-4.782699174159695671e-02
-7.627841629686532565e-02
-5.682079800852405521e-02
-7.783317771530816331e-02
-3.562685458791155918e-02
-3.492203265896389602e-02
-5.790678868357382325e-02
-3.435391288613073857e-02
-2.922102874011256110e-02
1.265110904406538048e-02
2.294882061185726796e-02
5.003816197614138067e-02
-2.571489498086934264e-02
-2.196480082821187368e-02
1.389948467171326849e-02
-2.584792198627898149e-02
-3.516629386219102815e-02
-2.858516950554864863e-02
-5.060417153632946335e-02
-1.008422093644552597e-01
-9.539487990575515330e-02
-1.237184048542975673e-01
-1.636874136483669750e-01
-1.327558585341953035e-01
-5.649571438868307427e-02
-9.093921225401327413e-02
-4.532488843448834875e-02
-2.655742055358649781e-02
-7.246567463831275757e-02
-2.384503573782416688e-02
-1.210237305570654870e-01
-1.917560154579578680e-01
-8.874932226895082543e-02
-6.886315269062757982e-02
-1.212709580540366205e-01
-4.568399537086956230e-02
-7.576666701065959105e-04
-3.868897670509784028e-03
-2.197108693538930499e-02
1.162408181805429513e-01
1.105217056927140923e-01
8.813449972788746367e-02
1.847263791263479282e-01
1.411590778977932781e-01
1.293278444472047983e-01
-1.041147911133264714e-01
-1.086101002274190153e-01
-1.057979556086956763e-01
-9.586303448886683565e-02
-1.056883499643062468e-01
-1.049372814801980691e-01
-5.429285413881848599e-02
-5.492619965754420852e-02
-6.445384428412719025e-02
-1.244241628379499781e-01
-6.560485713589100931e-02
-6.177553367719972044e-02
-1.024668877078060980e-01
-8.044660791691375656e-02
-7.257189230994558204e-02
-1.097977155445114955e-01
-8.776022507012538887e-02
-8.320883264735368101e-02
3.848549113535879723e-02
-4.011004224797307810e-02
-4.610280805675823212e-02
-7.792719032414021155e-03
-3.123421886064743289e-02
-4.093343595307431110e-02
-3.500716819754739334e-02
-1.683259482201960753e-03
-3.596622440188717434e-02
-6.575750312087942639e-02
-9.884007014218229581e-02
-9.062755511204413639e-02
-7.153752277988534303e-02
-8.965462166950868839e-02
-7.223947474693241666e-02
-8.165771366314059088e-02
-8.282677873884145003e-02
-7.340515548504057686e-02
1.030184002343532412e-01
1.141812342807095315e-01
1.264820654744787665e-01
7.599988095078873129e-02
1.420317680605687471e-01
1.217778634843430241e-01
-1.632172779009287422e-02
1.450235188573592918e-02
1.790540693737566191e-02
-1.091451418263264528e-01
-1.092105329721765467e-01
-8.006096428404836651e-02
-1.138123287600306399e-01
-8.615239934662395627e-02
-4.091638703437419644e-02
-1.097472158475857051e-01
-4.399654319967801624e-02
-4.406623292684216410e-03
-7.388303413158996136e-02
-7.088207909979971078e-02
-6.148356276534153869e-02
-6.330451087808607047e-02
-6.457039854431517734e-02
-9.639407740748212605e-02
-3.493525920282111036e-02
-3.443186715842594392e-02
-6.148726336219371286e-02
-8.089575059281829336e-04
-6.574019428796032405e-02
-4.227038743842249230e-02
-2.734002226696207946e-03
-5.862275602504483235e-02
-7.023324960043367260e-02
-1.212991669259157017e-02
-5.410954918148108000e-02
-6.408104550290931456e-02
-4.559268550639861833e-02
-6.389898377162636645e-02
-7.158552330162853972e-02
-3.903228158399730391e-02
-3.563813086633538241e-02
-2.584688778214888280e-02
-3.539988040662011420e-02
-2.698785849363357844e-02
-1.661237731987269886e-02
-1.457710539621547702e-02
-4.646587005146475546e-02
-6.358339701747921235e-02
-4.877085841357246820e-02
-6.046745266356076676e-02
-8.671809628271646975e-02
-2.395593368298073317e-02
-3.311408207475075027e-02
-4.962460937241881809e-02
-1.672150312262706690e-02
-2.434991274667328010e-02
-2.399633852975082554e-02
-8.064588033169045600e-02
-7.069466822483506940e-02
-8.088798406514177697e-02
-3.380475958095596062e-02
-2.416184572462432359e-02
-2.566259406023014070e-02
-1.056825028031699726e-01
-8.332975637455181106e-02
-1.247478650955082258e-01
-7.016311638327349387e-02
-3.822253064902006447e-02
-8.446369849663208640e-02
-7.410150748209670679e-02
-6.012717405860966424e-02
-9.027088010031332488e-02
-6.806797876289712168e-02
-6.806532327566675034e-02
-4.291444760274918703e-03
-6.294079818904110835e-02
-9.787070643059855857e-02
-1.409135007652336305e-02
3.613765691392083895e-02
-1.353304379215988784e-02
5.992230530900592711e-02
8.909090589774272539e-02
4.675198834944081089e-02
4.695293293961239761e-02
8.469746498167431137e-02
6.391826286338032903e-02
8.489823508397860430e-02
1.131676197189474542e-01
8.940276660889039106e-02
8.986563929885255098e-02
-5.041727503705693142e-02
-7.761232696760954342e-02
-1.600765508171088022e-02
5.257641517067285220e-03
-4.419295110529997822e-02
-1.642400312647402869e-02
-1.073370422003933240e-02
-9.019276769838836805e-02
-2.991469071588126125e-02
1.380709225543232110e-01
1.373507965853483781e-01
1.520333235523021465e-01
1.240380629920148914e-01
1.062140364689120320e-01
1.173029403694125783e-01
5.411070516360189098e-02
5.895701479857431287e-02
9.787023931203714389e-02
-2.279898212692701986e-02
-4.376207228684244471e-02
-4.097817917933044979e-02
4.828739204447799263e-03
-4.230843333839048870e-02
-1.731010081951631779e-02
-2.746650971439623667e-02
-9.028804832122995158e-03
-2.854535746338949728e-02
-2.159236877861806306e-02
-9.743026961368828412e-03
-7.035059942014951044e-03
2.630211581996816719e-02
3.674815051858561915e-02
1.164255161486429588e-02
2.636387823759996432e-02
4.442906263293095598e-02
5.668798676413500104e-02
2.930173646351730277e-02
3.150240525605341874e-02
5.359729691608630664e-02
-1.034071276317004295e-02
1.200986458359644057e-02
5.342297919373434345e-02
5.969258341256261820e-03
2.067452126486580069e-02
4.447876797629699008e-02
-2.282543329094236309e-02
-1.148098900791979550e-02
-3.418065235321804222e-03
-4.483087612097547310e-03
1.577252537786728902e-03
1.735227650906229560e-02
-1.788206566523004026e-02
-1.015039501879923083e-02
-1.691981617021528703e-02
5.314725513097872528e-02
5.172342188281243980e-02
6.838628101236519929e-02
2.490918238046010633e-02
1.953818906197750047e-02
5.374067325366188586e-02
8.814580163346418668e-03
2.837604419273368622e-02
3.321791576115581263e-02
7.477575574449267515e-02
4.461795169058885985e-02
3.501810040732008383e-02
4.091221757376471008e-02
9.522156459515561389e-03
9.842328456085311025e-03
3.793770015271590718e-02
3.416143324554540839e-02
1.405542163215274531e-02
1.717417317174122285e-02
2.721491730590611807e-02
1.865884322185611469e-02
1.627116767570627523e-02
1.499867149763440752e-02
8.308355475663820738e-03
4.635998228853407954e-02
4.323026778305241041e-02
2.131937561036039916e-02
-2.522054155291044916e-02
-4.665994741639244159e-02
-3.622413168997482696e-02
-4.466493051589044000e-03
4.607853603898991006e-03
-1.991452295424151614e-02
-4.983848322567510647e-02
-4.402942423233111718e-02
-8.160251495810351419e-02
2.822096964843854791e-02
1.117119090929544201e-02
3.170451004874363932e-02
5.870295144848577777e-03
-1.508521546990500631e-02
6.174320508877556915e-03
3.683456976250174680e-02
3.139878334619530809e-02
3.722148368272854696e-02
-8.411537116312800544e-02
-5.287616789950608243e-02
-2.599982680592646117e-02
-5.388421370749334194e-02
-6.234212001192252287e-03
-9.150073178278993885e-03
-5.920481458255193868e-02
3.938829966810884764e-02
3.206807350808297402e-02
2.939251463518976343e-02
4.617726181388075168e-02
8.620161044330170927e-03
2.614180049656839727e-02
-1.195483312067271812e-02
-4.030377734312611676e-02
-8.678019026823602725e-03
-2.974463590916871791e-02
1.123464613140128486e-02
1.704779927827544325e-02
-1.049516585390956012e-02
-8.387887745017939822e-03
3.222906280224024922e-02
4.931536813058005723e-03
-1.396215195689426251e-02
-1.172542266532816332e-02
-2.860070402952452368e-03
-3.142551241373729015e-02
-2.912477756355394236e-03
-5.239802503495732088e-03
-1.626368025446939952e-02
-1.459201767414962381e-02
-3.076792921143616313e-03
3.049380473512126183e-03
1.530191873178881386e-03
1.057528390888635463e-02
1.829778745890672104e-02
-5.709379593595616774e-03
-3.286850568772409220e-02
-1.221240264320220745e-02
3.450936627267415027e-03
-2.949031260618065545e-02
-8.930647774764223154e-03
-2.524615462991240677e-02
-8.593969621642475257e-03
-1.530196993606064990e-03
1.972763392668867855e-02
3.565618878663868226e-03
3.561366517063022444e-03
1.843990119542034817e-02
9.578030385886166301e-03
1.995261324312430640e-02
5.947891061204916424e-03
2.753233127409028189e-02
4.217518844434494513e-02
-2.266135642295768679e-02
-5.869262525366542721e-02
-4.047840360403914817e-02
-1.557714694462997151e-02
-5.593759691323867134e-02
-1.827821167190462823e-02
2.087718514693441205e-02
-9.056561486248497495e-03
-1.827423130564520245e-03
1.257383981233028102e-02
2.010419451820749052e-03
-1.367803301941756871e-03
1.743363878408038525e-02
3.418787346847702857e-02
1.090880862285667323e-02
3.566644495852318991e-02
3.023820132533728416e-02
1.437922672498446498e-02
2.312811618399819233e-02
7.093399988657338173e-02
3.090395095253129984e-02
-2.885614988770284720e-03
4.258555567164625660e-02
-6.207452736259188621e-03
9.425740785042577979e-03
3.513432097508837476e-02
4.236707098251022048e-03
-5.342830312507528684e-02
-3.364891787236386211e-02
-3.268657625342413081e-02
-3.281566681797901119e-02
-1.339771917203901042e-02
-1.777788904242704610e-02
-6.657074602573372080e-02
-6.098664665487465997e-02
-6.613245934098106737e-02
4.543630755358949586e-02
-2.728598839757177472e-02
-4.512116276617004346e-02
1.527061279010267884e-02
-1.044879622814982867e-02
-1.550896539317628059e-03
-2.140446004206198252e-02
9.126033866760148439e-03
1.062670700239732972e-02
9.690259646311309705e-02
3.077293147491557551e-02
4.131183409219710279e-02
2.938192804257673540e-02
1.225171176881204374e-02
4.415769312149819131e-02
2.141691537177536214e-02
1.763121287399978254e-02
7.299914038089039270e-02
-1.005987571316772217e-02
-2.075084845315329843e-02
-4.245740056974992710e-02
-4.071846411028234164e-02
-3.615579586924060757e-02
-2.385631095244849370e-02
-1.822160250470765408e-02
-4.182096648229064774e-03
-2.528523618098074688e-02
-1.864407713525985692e-03
-3.713152609233552007e-03
1.719917792448802602e-03
1.703839935560331337e-02
3.365411269891684098e-02
3.375003099172365489e-02
-6.531987818197089457e-03
2.052504636722149445e-02
8.523459588750273083e-03
-1.979448176003619636e-02
-1.555451203061816029e-02
-4.225641942635832704e-02
-2.267053161577009188e-02
-3.076212606062803459e-02
-4.793271493334070460e-02
-2.058770485961043326e-02
-5.845982743879937077e-02
-4.840647917618242507e-02
2.192367792313391905e-02
1.336529964685127282e-02
2.175230772873766247e-02
1.202025401788072746e-02
5.994246463555803067e-03
2.435991153061031061e-02
8.086621941126267629e-03
1.372728583956070447e-02
4.118334200492201891e-02
5.384329624257583324e-02
2.467785723546354892e-02
3.752432193917328712e-02
3.671367516376581458e-02
1.715517069752636042e-02
2.681777784882923704e-02
3.606914248613275059e-02
1.391882132655019276e-02
2.218241048286345371e-02
2.170670747998552572e-02
2.247949810570194079e-02
4.260840503089908388e-02
5.593975449494938829e-03
-2.324597353789185916e-02
1.595810453887648583e-02
5.489028793219322827e-02
1.196618558914654476e-02
3.254767153676726282e-02
6.107134814864583969e-03
-3.620765222966711855e-02
-3.697293727194767444e-03
1.656605679718091070e-03
-4.513768161437917321e-03
-2.624790275010712576e-02
4.457205165614265031e-03
3.657066863482016233e-02
-1.090588625939352928e-02
3.577741818253662043e-03
-3.197408741066212843e-03
1.647963974148153321e-02
-4.636299108655866398e-03
2.286764180373952043e-02
5.677933824859469382e-03
-3.746948960397337297e-02
-2.599877865010553207e-03
-3.147349563052489335e-02
-2.231875826825361567e-03
-3.215367873536990190e-02
4.200983365778110379e-02
3.160658297296478625e-02
1.747477069423892734e-02
2.918133858998252575e-02
7.303781054721064127e-03
-7.739874708651720524e-03
-1.359577073085220002e-02
-1.486720124736918072e-02
1.541424624314581202e-02
9.989270711668780944e-03
7.373156497230906256e-03
-4.457349369097769916e-03
3.444180726888445947e-03
8.785054554804137134e-03
-1.515266199935400016e-02
-1.604144124186372006e-02
1.748242288819671156e-02
1.546275791427736794e-02
3.548629563854540508e-02
2.296534786962711738e-02
-7.150401940760067743e-03
-2.580325710749308693e-02
2.817568887933120589e-03
-4.636065625929159176e-03
-7.176770171360773512e-03
4.563245711440779701e-02
5.637090540489610863e-02
5.607684408581615348e-02
2.261469926551764806e-02
2.318941032324653082e-02
9.049217174386756796e-03
9.300410670964235835e-03
-3.109918583875013673e-02
-6.086400804739284381e-02
4.096844161481454083e-02
1.005263118398956081e-02
4.395364628644664318e-02
8.748726218044540828e-03
-1.074777315732607964e-02
1.326538063736930860e-02
3.015377554687598965e-02
1.328522404327933150e-02
3.674508045049217075e-02
-2.647821693896742698e-02
-1.796274193429852478e-02
-1.221211379859184730e-02
-1.949714686870551023e-02
1.271357430077691038e-02
-1.943191612753265157e-02
-2.415920829074534940e-02
-3.642149352286995056e-03
-3.244005941367438667e-02
1.318234065657271662e-03
-2.265340663152256597e-04
7.782892642822907339e-03
-2.560851894647539831e-02
-3.835333441772278279e-02
-8.784589558745793322e-03
-1.307153723817871226e-02
-2.510920289670058245e-02
-4.137164024405873730e-04
-3.080871538334897797e-02
-1.998244082557741608e-02
-1.276619741235092247e-02
-2.219933196295368130e-02
-3.062817437257380968e-02
-1.398538447289917122e-02
-2.696867727557462988e-03
-1.242210339267986810e-02
1.326023898448323336e-02
-4.774613444434892893e-04
-1.159926649942852502e-02
5.774374007359997681e-03
2.753717817418078681e-03
3.994275002699441621e-03
8.422209268200560664e-03
-3.624045578689363140e-02
-6.958340844108393784e-03
8.386232577871910454e-03
4.644860069027907656e-02
4.500008654544426778e-02
4.841362370385533798e-02
3.554689611308553543e-02
2.935715305258817381e-02
2.824957182951437495e-02
2.845044137385196667e-02
2.530681199808790249e-02
2.846311771345660935e-02
-3.802916323622959616e-02
-5.512770069617478619e-02
4.192436847636586694e-03
4.403276345108421246e-03
3.943185831063776049e-03
1.125288710618883858e-02
-1.640624104366406044e-02
1.869299690881438478e-02
-1.967012102597595624e-02
-2.896337031999834943e-02
-2.325761047454255256e-02
-2.817633877970451058e-03
2.224219037612414854e-03
-7.464534240291534816e-04
-1.579432220486570726e-02
-2.722668553556152442e-03
-1.032937867571687672e-02
-1.681604436751013912e-02
-7.827815857314093795e-02
-5.473487202608584568e-02
-6.508968872146507489e-02
-2.629223164493033060e-02
2.881823684437641482e-03
-5.464560372396753442e-03
-2.311091789448970271e-02
-1.666837256046383581e-02
-2.446009028141992499e-03
1.269642086971169669e-02
6.631030446872621803e-03
1.529903991383889557e-02
1.974347442770680097e-02
-1.127059109258713235e-02
1.454218169424390319e-02
3.939144632378836774e-02
8.014693943783211122e-03
1.115567404553392296e-02
-3.030248456865949729e-03
1.345602530132184891e-03
7.638668590080259328e-03
1.187265573491706229e-02
1.760263695152489843e-02
-5.711499537978315713e-05
-6.216098599440941959e-03
-9.218608126737026787e-03
2.266843749234498731e-02
-6.558191932541909686e-02
-4.477571555326378960e-02
-5.092074021635730613e-02
4.343654003453377953e-03
-1.469400236023900644e-02
-2.325355789713053761e-02
-2.901929457535408832e-02
-4.241025981640920289e-02
-5.191133718401876040e-02
4.536518613293869656e-02
5.882294669013944655e-02
1.948042889277257911e-02
-4.064621575800779485e-03
-9.202004156896517869e-04
-2.821835691764483772e-03
3.191960956657493003e-04
1.922136591231452668e-02
7.964246357297222537e-03
2.154592168998555393e-02
1.987826857920790835e-02
2.219539973746265018e-03
3.660818998734921732e-03
-6.559465693509260002e-03
-1.659623230609649780e-02
1.651308444621437180e-02
-1.784488786272998145e-02
-1.546181785636365283e-02
-4.846353692781215500e-02
-6.562212343167769801e-02
-9.539750378611573656e-02
-6.452803912948797127e-02
-6.345611927470984348e-02
-6.437468671177126733e-02
-3.348703140934107536e-02
-7.943213655586211369e-03
3.716602114110603185e-03
2.358836818843863380e-03
-1.244281180066924772e-02
1.137687890690584945e-03
3.298388816847899752e-02
4.094846976058157811e-02
3.094875469038820340e-02
2.189873334634760346e-02
1.460450910943929953e-02
1.787505352467021538e-02
4.864808018701420600e-02
3.116941665518566107e-02
1.658990288916115802e-02
5.643268751647860515e-02
1.084703854646626789e-02
-5.583659976936636987e-03
4.868910706276897982e-02
2.040209265652838042e-02
1.018902864189983812e-02
2.233787452973922533e-02
3.210871088125711453e-02
1.675147031018250215e-02
3.366508660589375562e-02
1.587995325311022943e-02
1.772899771569020483e-02
-2.006331862940813077e-03
-8.919944550198682584e-03
-4.021988111311714832e-03
2.353491661800490367e-02
3.156239412401327243e-02
3.737045310230472511e-02
1.464978593975650202e-02
1.768593798657918520e-02
1.763887382082454311e-02
7.086553058461771137e-02
5.890453216326553554e-02
3.032321135766953557e-02
2.510944578875929159e-03
1.694878247055750520e-02
1.018902426546634821e-02
8.071142277049416294e-03
-5.690873406938552238e-03
1.347300367504744795e-03
7.201049749078235369e-03
1.996305541343215348e-02
1.792763090251425426e-03
-3.184642903396694980e-02
-2.580178771994871834e-02
-7.498247439219004468e-03
-2.447324365227500700e-02
-1.973777193486894732e-02
-1.361052128110956834e-02
1.303311302742061507e-02
1.755143049147169301e-02
2.075606735009047701e-02
5.978084951141163922e-02
5.857170220811180883e-02
4.337916061504250992e-02
4.088923035685693153e-02
1.506536593698809372e-02
4.233875326961126367e-02
6.091729112513719069e-02
6.258204484872752216e-02
5.931211816708376050e-02
2.882333757760935540e-03
-1.678279528935431447e-02
-1.323494648123444166e-03
-1.649011626679227835e-02
3.725596560219859073e-03
-1.350905760942720454e-02
-2.880782968553649223e-02
-2.354339595789235393e-02
-4.569893076269190141e-02
2.231106230996092801e-02
-1.628926707287041377e-03
-2.332338608168495545e-02
4.315864744898372657e-02
2.743790096867017303e-02
4.783072433906611354e-02
3.960077770227944660e-02
1.958489217196919194e-02
1.293657984570841663e-02
4.706895794931175575e-03
-1.609201027437906148e-02
2.475929390985096706e-02
7.409779586786072875e-03
1.494375513491148083e-02
8.513264686934630260e-03
-6.817664984818004245e-04
7.742531203780328962e-03
2.292879370889942293e-03
8.446920362260166432e-03
-3.273704419032584783e-03
-2.269285799122083488e-02
2.040884549340390638e-02
2.381183982353685460e-02
3.187068541658691356e-03
3.045324942007506322e-02
3.918176264240132850e-02
3.520492816480406267e-02
8.516525786349923854e-02
7.077257513728384131e-02
5.674569003970455355e-02
5.940855944369265867e-02
4.825294513647587769e-02
6.301069681515127086e-02
5.458708424355204758e-02
3.326724035480819325e-02
4.661169723716192953e-02
7.301546447780919019e-03
-4.792508899798386852e-03
1.604383799566468094e-02
9.604664484821409318e-03
2.961219956121050739e-02
4.988699817913177376e-03
-1.401252820751435792e-02
3.233390683115051770e-04
2.458914255218176432e-03
-4.941590793715261963e-03
-2.472237869336032807e-03
1.621300115465177868e-02
-2.133196004486174330e-02
-3.101207074190905771e-02
-2.023895672174411825e-02
2.011088039565061755e-02
-2.340980751381782285e-02
-4.697302652720446864e-02
-6.400392183112365088e-03
3.351846295466837794e-02
-8.500141075827279472e-03
5.482604407677243302e-02
5.956706730006093575e-02
4.906709087045883766e-02
5.711556869257038843e-02
4.454293086769821330e-02
5.651944374577348718e-02
-1.286727311320437217e-01
-1.830522389469343147e-01
-7.849903717139616877e-02
-7.248787447947033225e-02
-2.432004440973046383e-02
-1.215040827459542422e-02
3.950374560714935840e-03
3.713009937501768332e-02
3.143840319858295842e-03
-1.023188324909366786e-01
-1.266553937194156709e-01
-1.229642329159049141e-01
-6.417113548510393339e-02
-1.102662048046853388e-01
-1.033458623052557340e-01
1.127745087308947708e-02
-4.356930770243285650e-02
-2.841878482024826763e-02
-2.499981393862332063e-02
-7.856827192322368703e-02
1.447387380004589580e-02
-1.054927650260572836e-01
-1.475542324075811429e-01
-5.442277391312285578e-02
-6.150392543259806943e-02
-7.838041100318347831e-02
-3.040494738763512353e-02
1.822731287263645028e-01
1.304456499802657821e-01
1.727338752423433210e-01
1.434903490869946785e-01
1.043600176841516236e-01
1.447254104950954912e-01
1.000192669476158425e-01
9.173596320822241523e-02
1.267246590518865956e-01
1.062221659474833768e-01
5.322546048016690845e-02
1.879732451398179877e-02
8.665022413203493645e-02
3.718198205267247286e-02
-1.149067954154226780e-02
9.709143113038004244e-03
2.289355884058447144e-02
-1.866538148597168822e-02
-6.758135124320278214e-03
-6.618833515568015025e-02
-8.407362444302676763e-02
1.302186800629800446e-02
-3.789214199987449294e-02
-5.094038048897690102e-02
-2.108823642144316834e-02
-5.205974776940603538e-02
-5.470538625591498533e-02
1.623194174932726941e-01
1.385671207615485068e-01
1.395850221227107057e-01
1.781670355978612064e-01
1.310774922575899393e-01
1.308412706521235591e-01
8.606220277933522567e-02
6.667414030529178470e-02
7.623534230950018697e-02
1.583806557796753611e-01
1.531037320623657161e-01
1.628369792211388500e-01
6.385315831505282425e-02
7.979643216999407485e-02
9.131507573193473060e-02
3.566572550455272828e-02
1.436705440636452426e-02
3.660539799754535147e-03
-1.522535553808176678e-01
-1.017126829037862390e-01
-8.564699317553921276e-02
-1.502735310049818362e-01
-1.046621102220963023e-01
-1.005800098653507890e-01
-9.922917458926878986e-02
-9.456336610565510559e-02
-8.377306690603979200e-02
6.059742490835343803e-02
1.278979108464538272e-01
1.150935816535645501e-01
2.350408145879854041e-02
6.513121424820703109e-02
6.520779212951420545e-02
1.551645297471557737e-02
5.906799671092970855e-02
6.755271722297670478e-02
-3.628301155083538034e-03
-6.547098408238589962e-02
-5.686606773974051815e-02
2.021120356611473545e-02
-5.130599524482944845e-02
-4.362234406964275030e-02
-2.000705206330158706e-02
-1.593023631433957560e-02
-5.577306550527651868e-03
-7.358621699673080496e-02
-1.203219290241564904e-01
-1.553198058770906276e-01
-7.072521443252649531e-02
-1.066460038152221984e-01
-8.898124179061041306e-02
-7.881449368841204894e-02
-7.632626076055729070e-02
-4.824169113701997497e-02
-1.598154920349661723e-01
-1.418601128278572931e-01
-1.477895841187621684e-01
-1.213825113859733767e-01
-1.027335419055186161e-01
-1.155479419370405714e-01
-8.796010007323531998e-02
-8.879342255300470832e-02
-9.125604796783449990e-02
-2.198175014891944360e-04
-2.781576685252509784e-02
-6.686476313968799101e-02
9.205571097560014820e-03
-4.472068709256284136e-02
-7.286625986514003173e-02
2.646898383398900781e-02
-4.402145338004076480e-02
-5.989734667346265778e-02
1.038009982444695195e-01
7.875007982886168822e-02
1.189741365657934480e-01
9.334674826868344377e-02
5.246424861209345036e-02
1.097503846776696212e-01
1.950689003342216676e-01
1.531509600729411280e-01
1.758997830026815812e-01
-5.172436183996938219e-02
-7.070125246952464748e-02
-5.474035238162650724e-02
-7.523431689747378526e-02
-1.143675207637382535e-01
-1.127038080728529901e-01
-8.855012399507108597e-03
-5.429780453763362325e-02
-4.662274538079451414e-02
-1.781696271579196467e-01
-1.160178552054267481e-01
-1.287625495204957893e-01
-1.682083227140040993e-01
-1.349172328173180724e-01
-1.629259984030062558e-01
-1.641181341526846138e-01
-1.538039353445600221e-01
-1.692703911452251575e-01
6.165781335623589376e-02
2.255515546534551594e-02
-1.172904253677439735e-03
5.860547754396901177e-02
1.388278715735819738e-04
-4.074498024375483585e-02
9.110633916132589161e-02
7.942355923369814885e-02
4.434356436022703768e-02
6.181180639209984517e-04
-6.641029411942629690e-02
-3.841994129611135678e-02
-1.276096768118426539e-01
-1.943127266038841838e-01
-1.181044053856226683e-01
-6.796065414809125682e-02
-1.559671775796880322e-01
-9.112375698211025443e-02
-1.326951966021790164e-01
-9.685891201246571436e-02
-9.429041865082914142e-02
-5.696033347151644582e-02
-7.546050209762292238e-02
-9.674674639348897209e-02
-8.677465163587558261e-02
-8.984447594783749602e-02
-5.954120107936209522e-02
1.192538438241284686e-02
5.797178130444918809e-03
-7.459757240339572916e-03
-4.020264827611334801e-02
-6.101082585694783678e-02
-4.103224289641406453e-02
-7.396451046179230993e-02
-9.733073904827964362e-02
-9.567554044771224564e-02
-3.133892750989798748e-02
-2.970937085567102939e-02
2.447814558481839833e-02
-8.760262064123054693e-02
-8.523231094515369699e-02
-1.887246163287884318e-02
-1.215594623818515019e-01
-8.472938156407899823e-02
-2.652480929975129485e-03
-1.164698921462489628e-01
-8.320845658329455163e-02
-1.376836597499073167e-01
-1.318224932831999763e-01
-9.628810912977664449e-02
-1.267082579200482506e-01
-1.483591727740112554e-01
-1.260006895329046639e-01
-1.468218013543944322e-01
6.782757482067090782e-02
2.751187109621808582e-02
1.436281367172344628e-02
4.019715888071684340e-02
-5.456071739942211941e-04
-8.924597599355887229e-03
1.421990091431912795e-01
1.466373366466265926e-01
1.172179287404589015e-01
-3.195187858299199102e-02
-1.009041125409945588e-01
-4.388649109394858472e-02
-1.125931683934351391e-01
-1.801217605482314799e-01
-1.673030527277173107e-01
-5.900204060130261746e-02
-1.144008195920695192e-01
-1.091643568327071850e-01
-9.762254146174054181e-02
-4.799048922704800269e-02
-5.478623749289891764e-02
-7.815868219896698887e-02
-1.974076564273772108e-02
-3.261211565961377040e-02
-4.360286568676997182e-02
-8.967865234969280355e-03
-2.271122356153598004e-02
-5.102799877858895695e-03
-4.633346384848137378e-02
-7.842870825881796681e-02
-5.546125914781211558e-03
-2.686034564840812655e-02
-4.455307296201412026e-02
5.056796787174031721e-02
3.831729558271990826e-02
1.651234057361913865e-02
-7.216697359650486865e-02
-7.401815031816265378e-02
-1.427258569925535514e-01
-9.000522153809148440e-02
-8.461481286213898279e-02
-1.761550607298363602e-01
-1.832968384441611628e-02
-3.991462809051395805e-02
-1.550332844468537141e-01
1.836753946897880241e-01
1.976774704504961899e-01
1.952595449159749974e-01
1.116494363937775569e-01
9.670014361943113368e-02
1.366365136302395422e-01
1.280711104232264141e-01
8.966042081529568275e-02
1.345909862147169067e-01
4.716542893070966441e-02
6.509555220706725320e-02
5.768867058472274684e-02
-4.978192052182012911e-02
-1.975681338002265724e-02
1.976513446254594963e-02
4.994582672797755023e-03
6.333875720309009583e-03
1.135214108379742348e-02
-2.203634054602451597e-01
-2.258431323442256500e-01
-2.481233903417222053e-01
-1.087391778779450979e-01
-1.218806889695143447e-01
-2.068572111246206047e-01
-1.031661276476644878e-01
-1.633655306134765839e-01
-1.697223193492617133e-01
-3.061089485969156407e-02
-5.908012086253175421e-02
-4.643119828372012370e-02
-3.174861509726180277e-03
-3.744407576400892584e-02
-2.661661576789134745e-02
-1.239042261824152835e-01
-1.523891863981417238e-01
-1.483173290466062166e-01
9.139390265242545996e-02
6.351596554269429984e-02
8.037994457064803755e-02
9.944635638356456864e-02
7.043798621318272946e-02
8.244003909089078763e-02
8.856457148932692092e-02
6.075332627480588277e-02
4.373193806363843278e-02
-2.336296467063751423e-02
2.017596378615928512e-02
2.333559924624423534e-02
-7.665455342700881747e-02
-2.717933769512547240e-02
-3.872770808198817277e-02
-3.381357015182392955e-02
-3.840911654909804490e-02
-3.261128563548316289e-02
-3.677025021373808017e-02
-3.723144822875290583e-02
-2.229699802565026159e-02
-4.936099679993722483e-02
-4.634807988475499879e-02
-4.449782923805516155e-02
-1.760477375223813978e-01
-1.469254528830533368e-01
-7.846120787177457423e-02
-8.043858631915916380e-02
-6.588697115419946126e-02
-8.685840070819757230e-02
-4.438317173440683994e-02
-2.186175004453527054e-02
-5.182634063440873240e-02
-1.596542897502123762e-02
-3.277951050431138734e-03
-3.754671604056109696e-02
6.093642633591358354e-02
3.376447005625524828e-02
2.747066166672942206e-02
2.255207640203132913e-02
-5.249993240059038294e-03
-6.436625821014706379e-03
1.064932485664351058e-01
1.166062027684834496e-01
1.013607798566065199e-01
1.778321987891921807e-01
1.635607131437518402e-01
1.920118471577365316e-01
1.348536399204995628e-01
1.241030948897246938e-01
1.681289992288588220e-01
1.696201611391260078e-01
1.764377401269796586e-01
1.927787405228611750e-01
-4.445210541968148965e-02
-4.108321507697601516e-02
-4.924650421374717618e-02
-6.083553672161067655e-02
-4.818855690670298397e-02
-4.192929781854361909e-02
-5.484398941204730871e-02
-4.450364121924915012e-02
-3.152206200432115107e-02
-1.416233203542661447e-02
-5.200920328686772093e-02
-9.305364282607428428e-02
-5.146324675970394280e-02
-8.133745352104984616e-02
-9.621101474873756942e-02
-1.330245603259694043e-01
-1.515591985131328201e-01
-1.392625541234114861e-01
5.628337267725882359e-02
6.212084177380945704e-02
4.251392658353045362e-02
9.178974079785461038e-02
5.639043310414842969e-02
4.605834347022180753e-02
-5.709326419199638181e-02
-7.576003569654486680e-02
-9.732594738059116568e-02
2.323442510401882710e-01
2.776601071168287582e-01
2.920073460562849776e-01
2.047438210811621251e-01
1.865537842660207613e-01
2.109198602826897473e-01
2.839879718676260323e-01
2.632013767264670401e-01
2.251859725186382832e-01
-5.443263996414252764e-02
-8.956550447508551671e-02
-1.112324163225001522e-01
-3.186861520164597367e-02
-6.051398754815035669e-02
-8.769560509121535063e-02
-5.736848243336305220e-02
-1.117728689560293226e-01
-1.383510680175439600e-01
-1.517607058997745006e-01
-1.430561993474149252e-01
-1.501416151611681404e-01
-9.909934105490064704e-02
-4.429644871099680525e-02
-7.000094951194349435e-02
-7.593291812435923327e-02
-3.552912310527671369e-02
-8.017331749368118710e-02
1.003555771397306728e-01
4.410347897430991204e-02
7.726674696716265278e-02
9.124521959626166745e-02
4.454202892914971290e-02
7.583604995884629663e-02
-4.361095570362371644e-03
-8.044026630249773505e-03
-2.457813993291929969e-02
-1.386015794489269259e-01
-9.855674811897355281e-02
-1.287131830198022242e-01
-9.550735544903876661e-02
-1.030478473967736397e-01
-1.269023893280620263e-01
-1.023986452916174628e-01
-1.324070803657522999e-01
-1.349787053468161080e-01
-7.384867316401948212e-02
-7.935149030443672258e-02
-3.599626177334856042e-02
-2.690798867104885264e-02
-3.849709185782303894e-02
1.052690735228594722e-02
-9.096082215790480879e-04
4.005896711209031014e-03
4.232380031378880220e-02
-8.475249538015262873e-02
-7.026295985841093938e-02
-5.359937910188501686e-02
-6.765129799286390133e-02
-7.734236615247618019e-02
-5.288404690824469179e-02
-1.063830927657134773e-02
-1.335015523591025731e-02
1.098126455488637222e-02
2.747142826106838825e-02
2.545690713997914370e-02
3.623013466424447604e-02
-3.762294777643387413e-03
-3.193266479296433952e-02
-2.223578102759856540e-03
-2.661935955944972135e-02
-1.019439207399094466e-01
-7.111476034262494139e-02
9.200379822184216738e-02
6.520176629930837797e-02
7.806749371822548078e-02
7.721890640602797895e-02
3.858963048698658971e-02
9.536991758879287406e-02
1.344872078264747195e-01
1.368322688409193133e-01
1.711136790130826646e-01
1.028336286798873234e-01
3.587556031669682233e-02
-2.186273773700509598e-02
4.508390239001162925e-02
1.252710475782703274e-02
1.368938501072029974e-02
-2.003761797375304757e-02
-8.146864988979837449e-03
2.273943260215807033e-02
2.867692232486614146e-02
1.208902962028465811e-02
1.673123859684871872e-02
4.218563210479915984e-04
-2.404628113001746476e-02
-1.819517644054398364e-02
5.125207629737588144e-02
4.476681867388277586e-02
-1.436782100070349046e-02
2.019916277938169358e-01
2.634550415246343924e-01
1.887854001919772318e-01
2.706751640930334379e-01
2.870957960616196680e-01
2.029521541900210502e-01
2.063854819519137518e-01
2.191752295418448737e-01
1.859165722037643131e-01
7.793568117435817344e-02
7.738425156231573676e-02
8.137450739304620539e-02
1.100217463877045665e-01
1.061823864067262535e-01
1.204871545699800067e-01
6.458531027715633602e-03
3.355499045094433724e-02
4.924972825944225197e-02
4.857742321189101320e-02
1.169175016876147256e-02
8.353783299304326157e-03
3.672759458500003682e-02
4.191699425124521122e-02
4.242780704928087593e-02
-5.337189812170665959e-02
-4.550141721366382508e-02
-3.047178788978564465e-02
-7.779389203040576461e-02
-6.060246123380965549e-02
-4.593061942949563936e-02
-8.265239478418262564e-02
-6.678531460723917401e-02
-5.682495617335896892e-02
-5.829446134048046207e-02
-7.206476464253586123e-02
-6.943227062113448145e-02
8.597077145310573487e-02
1.086902463243942102e-01
1.206109876460590008e-01
8.417702044023933627e-02
8.465620895644303256e-02
1.066287237276996869e-01
1.610178490424973852e-01
1.233431715525614009e-01
1.138818116649539663e-01
5.689516932814497885e-03
2.371305543805609511e-02
3.487833344304978184e-02
-2.467029617105324923e-02
-1.901485607827147969e-02
-2.215002213702145853e-02
-3.702637971238061272e-03
-2.579174032408864878e-02
-1.258823114189067116e-02
1.277436314703876176e-02
-1.774094664121076553e-02
2.302659104873103560e-03
6.226701482250408121e-02
-1.747702433959531440e-02
-4.683598727888955461e-03
1.830318831430818513e-02
-3.910748761645382182e-02
-1.185772164893468886e-02
-7.573842788495274703e-02
-4.728192952287506995e-02
2.016402086253334374e-03
-6.639484443446254380e-02
-5.540348004446730978e-02
-5.758940477308582828e-02
3.747841665320284649e-02
5.167846041817911185e-02
-1.478205922254753439e-02
-9.857451027291252998e-02
-8.753358365600950874e-02
-1.015615750173020221e-01
-3.621992246779043301e-02
-2.582054288633251968e-02
-3.157310305151402041e-02
4.288001434440065485e-02
4.453234410610615313e-02
2.154284679952622381e-04
9.168635023748132606e-02
8.764149585438685969e-03
5.737259087158156322e-03
-3.132885848354507313e-02
-1.227007455614321507e-01
-9.439427677938082295e-02
4.315761029681394051e-02
-2.728475800883123706e-02
5.501117765685215565e-03
-1.659392324671466745e-01
-1.671879475909679724e-01
-1.429337726004305809e-01
-1.246272714387190311e-01
-1.001493886344659995e-01
-4.882977591951131319e-02
-5.752507065384496014e-03
1.479064217949631506e-02
7.291737702808287480e-02
4.779497867413598500e-02
-1.193774956722313402e-02
2.867101610512457627e-02
-1.075860025185718244e-01
-1.177341747532184707e-01
-7.585186391204204459e-02
-1.428729234951704175e-01
-1.505950584310850049e-01
-1.044399664058145022e-01
-1.078770582727711369e-01
-4.888709470379678373e-02
-8.418952335831146605e-02
-3.181191440475904936e-02
-1.248893397781388262e-02
-4.482984795169561026e-02
9.048912198167415304e-04
-8.762542999430430676e-03
-7.281163775313913983e-03
5.798496841116481532e-02
-1.029432038848258901e-01
-1.132812078448274529e-01
6.095718213568687704e-02
-7.583629567578921427e-02
-7.720916569349904612e-02
1.241962393001161125e-01
5.768148372946131294e-03
4.051389924454441849e-02
-6.536712420799588178e-04
-4.209716211885394799e-02
-1.101488241682390366e-02
-1.239058158742696453e-01
-2.305179631632406911e-01
-1.392263588758941295e-01
-7.424869839416249617e-02
-1.232123832459028623e-01
-5.138495550793895084e-02
-1.916713725830895138e-02
-7.531918456081380941e-02
-4.517744585677797853e-02
5.261064065993847731e-03
-6.151576573038161633e-02
-6.050375597776171815e-02
-1.498693328228681634e-02
-5.479156208294105185e-02
-7.137337046131644880e-02
-4.779950294465611094e-02
-3.198297498321849702e-02
-6.164702391615071997e-02
-5.369228021780347165e-02
-5.878836440910056860e-02
-8.517878239369071347e-02
-2.637874047466743505e-02
-5.406896923061908777e-02
-7.189377318686951401e-02
-1.184509497571233951e-02
-4.515580646426392390e-03
1.456239531438482081e-02
1.368108517119357402e-02
-1.825286929747122356e-03
3.399922701291875626e-02
4.297878600784681841e-02
7.885509249083388905e-02
7.682722461223549792e-02
4.451396960500750288e-02
6.688686897273349308e-02
8.211382323393831562e-02
6.301813296754049665e-02
5.537835378282884857e-02
8.714834795997418448e-02
6.166073442632556689e-02
7.234086820841631460e-02
1.114501129906312754e-01
-1.724040434140505090e-02
-2.043233443215760302e-03
2.921093108013004831e-03
-5.177553638688409121e-02
-3.265676494813240377e-02
-3.311713522556277572e-02
-4.656319033371152105e-02
-6.978843004442598918e-02
-8.820196620927943376e-02
-5.795310598348468040e-02
-6.927562250625548916e-03
-6.939786911463585728e-02
-3.613333683689579079e-02
5.557373217993945812e-03
-5.821336810050604244e-02
-1.498989482502696355e-02
3.436936544865083071e-02
-1.537997153441806458e-02
5.825152720693314162e-02
4.321764086797613008e-02
5.527003712532850555e-02
4.500031549582865498e-02
8.981159823940144254e-03
1.691024945300428906e-02
2.626791022363502912e-02
1.117949450164454003e-02
1.621082845101352518e-02
1.761699542200512864e-02
5.214740858554304387e-02
3.965008813742156718e-02
5.264077476537038641e-02
4.047192440883056602e-02
3.956918343247316922e-02
5.597667790787561742e-02
8.296094415255070298e-03
1.547236695265585653e-02
-1.658126249695175691e-02
9.847743863610263979e-03
-1.803785367758638930e-02
-2.786263298072165495e-02
-4.940262973668323870e-03
-2.430296016639852535e-02
6.320609934678275699e-02
6.049184814577653058e-02
2.128443357172633832e-02
8.790193635851285825e-02
6.877022154527466513e-02
5.521123971125725671e-02
5.454237900119193044e-02
3.319553540477685610e-02
7.579460194180512311e-02
1.472154060530717068e-01
1.270673398256582654e-01
1.604289737086604384e-01
7.904183471738197853e-02
6.223703468423431862e-02
5.572838709742358732e-02
2.682896207287314982e-02
5.685206677914611539e-03
5.073792098702100024e-03
3.635925557677680692e-02
2.533765392183150514e-02
1.312158572892763164e-02
-1.131474360655262967e-02
-1.573378793422771163e-02
-4.372283689672814416e-02
3.300995748345789821e-02
2.697389993830479407e-02
1.063437586116198867e-02
5.011565062171648155e-02
4.200392883610547246e-02
2.649102157333738800e-02
-2.483370562204778326e-03
-3.658907165612419049e-02
-4.387632750898314699e-02
4.457515366344251377e-03
-5.696802214945816123e-02
-4.437795626610633454e-02
3.144616861156337463e-03
-5.990216200485183606e-02
-5.770080901999346396e-02
-3.041924414522947581e-02
1.417731496154553059e-02
-9.915767399164636051e-03
-2.684516894776434875e-02
-3.858331795428191630e-02
-5.661256991893717783e-02
8.505123656431421222e-03
-2.267474277803952290e-02
1.284142940774423737e-02
-9.999767306191791050e-02
-6.109034637253981520e-02
-4.452192750429945917e-02
-1.424042683377893248e-01
-5.299883489451986257e-02
-6.739240232356123739e-02
-1.237236891567684988e-01
-7.398317332733592155e-02
-1.024149538871132192e-01
-6.006273819425670887e-03
-4.068435026568237300e-02
-7.089824506341217865e-03
-9.840009576210441422e-02
-1.392972055795952402e-01
-7.612488377937416673e-02
-1.702230567029042185e-02
-4.191331433334277018e-02
-6.660221629336538635e-03
9.877256099473520623e-02
1.072318405861593799e-01
1.180264009078641207e-01
6.798998107563421212e-02
9.541836447708001989e-02
7.438013430876719290e-02
9.520135394169355891e-02
1.170965163857677210e-01
9.997980405970195716e-02
-4.708435838139340274e-02
-8.840761842122343839e-02
-1.046892119657584358e-01
6.419318897766818598e-03
-5.043050269466019253e-02
-6.136892362742568663e-02
-1.654050002579502895e-02
-4.914195775520427412e-02
-8.339062356176826785e-02
-9.547307594149201382e-02
-1.494705492140921965e-01
-1.487111846283965533e-01
-9.122373726198110266e-02
-1.014224834250520291e-01
-1.127058034853348906e-01
-1.076255153976916068e-01
-9.263737791186563153e-02
-1.221423287064237334e-01
-7.969961276505596603e-02
-8.628575375130732861e-02
-8.857980320528827112e-02
3.881455767787364564e-02
2.527168025263303378e-02
-1.016166902626953160e-02
8.661947228421780498e-02
9.610654140987977267e-02
8.596896842388658533e-02
-8.172840555902328996e-02
-7.923332846994303458e-02
-9.302428814628778408e-02
-5.814300924432307810e-02
-3.355010624535802871e-02
-7.858537991501343689e-02
-5.468296795083002482e-02
-8.408104024060848725e-02
-1.327918151457307960e-01
1.758632087582823744e-01
4.394274912738970612e-02
1.318360039763513958e-01
9.939965724199414238e-03
-1.224370865395873614e-01
-3.080560124398981289e-02
-4.568771622514231773e-02
-1.408990048460340150e-01
-5.061705449745584895e-02
3.326372887086077590e-01
3.760152573083308525e-01
3.788309717253095510e-01
3.304378218256782129e-01
3.108038453230349552e-01
3.230089922603471275e-01
3.922455996600693884e-01
3.650298017087155178e-01
4.013104775638831057e-01
-3.234432853650521383e-02
-2.042353685479541409e-02
-3.259877456805955042e-03
-2.682581917417830794e-02
-3.956632163550809905e-02
-3.413465457208626069e-02
-8.759545204931871998e-02
-1.042651165063859103e-01
-1.065107003950345049e-01
3.990498393174354147e-02
4.712623347133217816e-02
9.240846317161308110e-02
1.546574020607134961e-02
-2.071734256919691847e-02
2.232848166730241543e-02
9.795201960484271886e-02
3.846357043095721684e-02
1.170610794322205772e-01
-1.097065223845747894e-01
-1.024908694897479905e-01
-9.518550705837242054e-02
-1.379759549072698543e-01
-7.218633117230272012e-02
-8.159757537330726562e-02
-8.377965022018168950e-02
-4.297698514321670465e-02
-1.083434075036679295e-01
-1.361759680399822481e-01
-8.886412763037838947e-02
-8.292241689353557765e-02
-1.138521853054659527e-01
-7.458432297815681400e-02
-8.659848758670021796e-02
-5.242362458589881063e-02
-4.373400660997772693e-02
-1.267943991138442694e-01
-2.239753838773067898e-02
-5.432569853364301038e-02
-9.228574685131003819e-02
-1.334470614642772543e-02
-8.641250342804274176e-03
-3.410970543339904987e-02
-4.975699383147606097e-02
-3.694981403984359120e-02
-4.928454887458218192e-02
9.678787759606849450e-02
1.212140401167286219e-01
7.086351539808835587e-02
7.916465985125781257e-02
8.507826766936128771e-02
7.077725706535739625e-02
7.484340809503221836e-02
1.044416919181138659e-01
1.170760412984828136e-01
1.065687633174892401e-01
1.432129055228157366e-01
1.004282483695516648e-01
8.043926033135734288e-02
7.384684261551403839e-02
5.502563458654510797e-02
1.089243214570640994e-01
1.169805845917297749e-01
6.005664463417900722e-02
-9.504483649855471894e-02
-4.138697038671392686e-02
-1.589674351375817279e-02
-8.256490990004791697e-02
-2.910479250764556880e-02
-7.992142923324181691e-03
-1.320510014606407490e-01
-9.842827303678516881e-02
-8.617619661907686968e-02
4.457956786737975879e-02
-4.905330008319272201e-04
1.738523702038297439e-02
8.967003178116754458e-02
5.809033440728229858e-02
4.802825627810899251e-02
9.373165979333231146e-02
9.790167519181976197e-02
7.183152094186136261e-02
-3.959446626611701214e-02
1.767042832693652881e-03
-2.681796464778052336e-02
-3.154829921744912308e-02
-1.706728013349491022e-02
-5.536170711974751357e-02
-7.492231607091943968e-02
-1.143887631686181794e-01
-1.054430052965259212e-01
6.338095550406021295e-03
6.126559607223895643e-02
1.076918499652399219e-01
-1.739956232724422514e-02
-8.017961845170102839e-03
2.564277080712725268e-02
-4.732519364854798072e-02
-5.904829283116529159e-02
-2.172946657606826537e-02
9.652190095291472705e-02
1.087005336496507241e-01
6.850429749534778234e-02
1.541195184346874983e-02
3.396479114424151569e-02
3.996471532898145107e-02
-1.195107087190545869e-02
-3.683122175395029535e-02
1.525365402892268256e-03
-3.345228828407489224e-02
-3.640920644737808548e-02
-1.994660696514195808e-02
-1.714919680467049887e-02
-5.568115656614271158e-02
-1.781927985387046776e-02
-2.279857987814256151e-02
-1.211817297398403992e-01
-5.305422281664286255e-02
-2.612206195131082029e-02
-8.277020484076116902e-02
-8.172633266046114286e-02
-2.606442702890916785e-02
-5.639268489166882059e-02
-7.227183506426217152e-02
-5.184430837846348838e-02
-4.401549281437689559e-02
-2.664654881296360175e-02
8.389019574236522558e-02
4.075966376654756307e-02
4.574926299548671277e-02
4.281574519101764842e-02
2.069507749863917431e-02
2.448043873078086310e-02
5.014109123504090909e-02
2.921840838614206404e-02
2.520322019329571464e-02
2.823689182374437053e-03
1.635461107901377276e-02
8.877621895845972527e-03
2.718404615080610362e-02
2.923637350701402057e-02
1.900199271240533491e-02
-4.403896934271199493e-03
-1.838832224647238972e-02
-1.342962788577259023e-02
8.769752462129895565e-04
-7.076450411462332710e-03
1.837405678707618173e-02
-1.087691279123945316e-02
-2.206923333006779314e-02
1.010496881245836857e-02
-2.603222909271285176e-02
-3.028217712823153690e-02
2.752876936304740618e-02
1.236326031285236021e-01
1.219772222452706056e-01
1.204124830681734676e-01
1.227831499723338465e-01
1.268399920008542459e-01
1.214354938730050765e-01
1.150350613843600517e-01
1.101427197268040475e-01
1.006311874964134490e-01
-5.630190172786826014e-02
-5.688503366459033567e-02
-7.225673536747435899e-02
-7.519832169836775104e-02
-8.088302384401641065e-02
-9.437524492399197718e-02
-1.191461832501202883e-01
-1.309802650227719356e-01
-1.427328671920987946e-01
1.013317456002401327e-02
5.736034948624701285e-02
3.371082751952666351e-02
-4.452275992813151118e-02
1.452795763214803464e-02
2.958421785523560749e-02
-1.025493060054693956e-01
-7.148643683127021975e-02
-3.614886816085575993e-02
-4.029069721686470706e-02
-1.899616393202148076e-02
-3.443998545740855049e-03
-1.330852654024610934e-02
-2.642427895489101938e-02
-9.817798912439106018e-03
7.204874910439346136e-02
4.203791856913415698e-02
3.567201806782237250e-02
-1.331313334420723866e-02
-7.525880028213900730e-02
-7.998904780094935954e-03
-1.627090805168445245e-02
-4.207091628509068010e-02
-1.256590981425449553e-02
2.307784084497763177e-02
2.045098689209785131e-02
4.900064882242605169e-02
-6.363454009482975848e-02
-3.294723734008663668e-02
-4.260043033380756655e-02
-3.097842621457470511e-02
-2.527176367637219354e-02
-5.632791179889042738e-03
3.742978889597634723e-02
-7.510084287271989387e-03
3.718615349288130738e-03
1.327253191713828051e-01
1.312483852933101769e-01
1.416374772257489589e-01
8.761203523781589675e-02
7.816720935468073062e-02
1.219397178338399307e-01
1.381913151034686038e-01
1.692743546869488191e-01
1.391444222555635324e-01
-1.159049714922392588e-01
-1.578848851728242020e-01
-1.136218269718140550e-01
-1.313273005234355806e-01
-1.445062926662619429e-01
-1.093383389660343152e-01
-1.601198796872782271e-01
-1.740441722615137798e-01
-1.192419754653894909e-01
-2.483533782564002756e-02
1.146618761685891386e-02
1.866100180571162934e-02
-5.965900538147717730e-02
-3.486292567934969749e-02
-1.938101758991740350e-02
-9.803765951376818000e-02
-3.972759967245764745e-02
-2.766321578650002277e-02
-4.610044247971511328e-02
-4.298630139860932370e-02
1.769081636336319527e-02
-8.391209447389449960e-02
-7.768365634556186061e-02
-1.255027221570507827e-02
-4.771359462891770764e-02
-5.589813627101687665e-02
-2.936347501430154605e-02
2.737869731053838539e-03
8.958277780424532544e-02
4.183869179866495785e-02
-6.533127920355067883e-03
9.109056939800908026e-02
6.756024363251116049e-02
3.764809975355797034e-03
1.314670896933134714e-01
8.796083533191872972e-02
6.389790521223592812e-02
1.777352374650124911e-02
3.856475979943811000e-02
1.955997601889003859e-02
-1.777204388191094830e-02
-1.048779309722126969e-02
6.464580991515449238e-02
7.304214448182358432e-02
7.290509741398067123e-02
-2.139127217819593307e-02
-2.338719601893457165e-02
-2.628060514046358723e-02
-8.162439791900646946e-02
-9.330165757051539499e-02
-5.073770335987536767e-02
7.541925314949470037e-04
1.904975098951437046e-02
2.887046973282404380e-02
-6.292627799004767153e-02
-5.337097005931312060e-02
-1.263289127849319959e-01
-1.116185509606721221e-01
-5.855927556713150239e-02
-1.465778582621437842e-01
-1.652932124474771058e-01
-1.687311972297603213e-01
-2.482573140071990536e-01
3.604898092812956756e-02
1.852724453488684489e-02
4.603971906540502493e-03
2.329689163485439835e-02
-3.840538781357239004e-03
-1.471791167265374886e-02
-4.961942083136452325e-02
-8.476469052877907973e-02
-1.009866614896489934e-01
6.159482967238987666e-04
-3.387343308206457182e-02
-4.985356587735045170e-02
-3.727663016511843785e-02
-8.041560063350799981e-02
-8.660556228249280397e-02
-8.275044610949729151e-02
-1.041726467322066918e-01
-1.086386495572305988e-01
-2.737835998846265342e-02
-5.868108329410150897e-02
-6.944032454362965290e-02
4.551811939055097622e-02
1.735948810193556693e-02
3.401809710000462672e-02
1.005121381935143304e-01
8.422408112275403536e-02
5.826418766613031264e-02
-1.653019447366955996e-02
-1.471507454009852219e-03
3.796115821610975688e-02
-3.483689384561296232e-02
-3.672815897845742306e-02
9.953110403795610919e-03
-4.873865656959690956e-02
-8.261654194034920295e-02
-5.972749808488634488e-02
1.113048922099103138e-01
7.493682092017583951e-02
8.752807105791181319e-02
2.930288217627883759e-02
-5.477617765730438681e-02
-1.141287585770524825e-02
3.473985390137546148e-02
-1.940930186461142792e-02
6.254292958657571566e-03
-9.498117330421905480e-02
-1.628192361237254526e-01
-8.861459997231535546e-02
-7.077635572626256311e-02
-1.000250088449688851e-01
-3.256859875075807098e-02
-1.827130594382538357e-03
-6.475634999665939515e-03
-1.017251248015662093e-02
5.637337410961304474e-02
7.744466184134743414e-02
9.073133226871363255e-02
6.115844734708683617e-02
6.160955577591100546e-02
5.941810482617891631e-02
2.949388264064313481e-02
4.964352666486240850e-02
5.899425782446431066e-02
-9.112618770751092223e-02
-7.965941159057901566e-02
5.194655142504114474e-04
-4.339668453424747746e-02
-5.172951368626148121e-03
8.807625026148578617e-02
3.417541976358230704e-02
5.458384785379218757e-02
1.203130528524531118e-01
3.204613017317398810e-02
1.162837481503714620e-03
3.842723678325472153e-02
9.505026920077860875e-03
-1.886554201447247781e-02
-3.212313755142011916e-03
6.238998689505236700e-03
4.847729462875921026e-03
4.578224663197677513e-02
9.851701614938415674e-02
6.823390249762391335e-02
8.323837008570159068e-02
3.254916949748370980e-02
-4.865717754026786107e-02
-4.762036363821988555e-02
-6.114687740013433070e-02
-1.336348383566354769e-01
-1.408648867676373373e-01
-1.950729133086797663e-03
3.512077400257341414e-02
4.177544307969111026e-02
4.825853800250307600e-03
1.257048864770399406e-02
2.333102596692198868e-02
-1.484676939468776435e-02
-5.046343239686261299e-03
5.943021499785267579e-03
-5.105420563769005882e-02
-3.271660819495285366e-02
2.536140702616363624e-02
-5.398461936546118667e-02
-4.857434225843708375e-02
2.186598098924710451e-02
-5.632962732637732117e-02
-7.794924062956415378e-02
3.728104877291532615e-02
1.565358503971947188e-02
2.251097139372560535e-02
1.362400163798864992e-02
2.880259487524590087e-02
2.752749918799859280e-02
2.106364139281991215e-03
2.725667406961502885e-03
1.373723830921863912e-02
-6.437519329183976138e-03
1.304296806027312097e-03
1.603914753553025568e-02
1.374807291179190594e-02
3.865487402449698049e-03
5.301959463938767797e-03
4.252452631763974089e-02
7.990874916721911470e-02
6.281214198173280805e-02
6.967311716381217879e-02
-6.434824659622491450e-02
-4.096136568178012499e-02
-4.540424653486510587e-02
-5.552440951926925633e-02
-4.808009524754402325e-02
-7.326026750721888192e-02
-6.807158108634706051e-02
-8.706799653885718970e-02
-1.234404011378019417e-01
-7.608318879109551847e-02
-6.666584953433229987e-02
-4.560874876490771807e-02
-8.071177625443713699e-02
-7.487889834804863087e-02
-6.770112867100626375e-02
-6.736358961447411198e-02
-8.021399718076550889e-02
-5.249950049766143045e-02
-1.655527966993137340e-02
-3.523790813688609108e-02
-2.058806385661358235e-02
-1.023310069174896211e-03
-4.122361293341573855e-03
-3.223522798418173088e-03
6.354577664986184315e-02
8.050138725309691212e-02
5.352014470040582922e-02
4.423924398297485877e-02
1.210038664977177575e-02
1.326743758783176241e-02
5.468210505298620044e-02
6.110386192129530630e-02
2.653353572495148124e-02
9.214961310191693844e-02
9.322424320229714956e-02
9.302744843781778072e-02
-7.179458759921118760e-02
-5.160182674248762341e-02
-4.263390673318612906e-02
-6.557284640024857447e-02
-5.413270950712605750e-02
-7.191733939527644726e-02
-9.960959459496714075e-02
-7.906577823432843488e-02
-6.528088356806992232e-02
-8.202566155969910275e-04
3.296828028243596609e-02
2.776943287382077630e-02
-7.911532592688948901e-03
6.924401568700054230e-03
3.568761121082106996e-02
2.040368807715385591e-02
1.864657935122092727e-02
5.857672776852246299e-02
-4.354944683924820426e-02
-5.281222681317410822e-02
-4.031379771244059801e-02
-7.873680653245264394e-02
-7.600471812969826491e-02
-5.073972590529800264e-02
-5.508498516850358906e-02
-2.549345781846081710e-02
-3.778313570172582569e-02
1.892425204607461886e-02
-7.926170680245972575e-04
1.732664538845065522e-02
4.916899025622934599e-02
1.628944674385001887e-02
5.388340053783528816e-02
3.496073371517437883e-02
-2.889069251013308068e-02
5.835704818062360105e-02
-6.347157600007367895e-02
-5.722595763624428039e-02
-6.960539406486972169e-02
-5.517451455026707585e-02
-5.978588110514484327e-02
-9.004008019774217830e-02
-9.003255354015450573e-02
-7.200955566765362970e-02
-9.080382570105852147e-02
1.891298098145800244e-01
1.605588383657121643e-01
1.932835282566893187e-01
8.635864059749419341e-02
7.958803366208823393e-02
1.232442833520217967e-01
1.624426661510812997e-01
1.304350627936319007e-01
1.506269910927005018e-01
2.474237728310763329e-01
2.296148810355064795e-01
2.679877576906643522e-01
1.914374241632463280e-01
1.745658325033565272e-01
2.090398584797354409e-01
2.523822213192433717e-01
2.190275144470668622e-01
2.611690894724499890e-01
3.825236603702233257e-02
4.249374691342647919e-02
3.287860583380835394e-02
2.141854432226171154e-02
-1.036673355383237513e-04
2.131901794138387277e-02
3.623337167540493370e-02
3.061428658561767338e-02
5.611783811443558229e-02
1.423838419558884627e-01
2.880089822366119559e-02
5.492577743875949603e-02
1.162005554574261912e-01
3.077220132809460346e-03
1.098809803243338060e-02
1.502194919641328119e-01
8.590885552924470980e-02
8.468641911367291719e-02
-4.535783565043834814e-02
-8.053533289930095429e-02
-5.484313768183254195e-02
3.268770835271818994e-03
-1.250766418344848377e-02
-4.816447370442209636e-02
-1.147949836892038153e-02
1.645904462493440190e-02
2.679828380317941794e-02
3.449548956501369279e-02
2.231088003731956232e-02
-1.095948348836481984e-02
4.691167626588283596e-02
3.762121374992987571e-02
3.032035378747263785e-03
-6.356081735052725168e-02
-4.386961151077908849e-02
-4.521148420872459633e-02
2.999846933775551089e-02
1.341662372016714719e-02
5.027808109530214342e-02
-2.353058751391124553e-02
-3.011387738662699501e-02
-9.159759373799272741e-03
-4.775705236533226913e-03
-1.369532681023975101e-02
7.205859037014447285e-03
-1.227287409459595913e-02
9.988597850739029671e-03
-8.555848120886543409e-03
-6.766486826223125015e-03
3.422156127718895338e-03
1.470284414371596151e-03
1.279577959010048428e-02
1.716423147076768727e-02
3.276555039103759559e-02
2.150651581204965357e-02
2.059157174158146586e-02
3.666108976096163485e-02
-4.125250016114048041e-02
-2.720992259342033467e-02
-7.876189469027209886e-03
-8.887233398994358324e-02
-6.935268968999121209e-02
-3.774952644245306577e-02
4.559908394788802360e-02
1.078597363751133964e-02
2.886170436632894826e-02
2.707137112367592746e-02
-2.135259566438182238e-02
-2.210395371895332306e-02
4.945542793306152707e-02
-1.751463522500345052e-03
7.885165533805084739e-03
1.645966904317561208e-02
-2.469220727472368204e-02
2.478590154718024116e-02
-6.974569684907516894e-03
-5.619518398203133397e-02
-1.061080350691009921e-02
2.759161453710293546e-02
-8.884425409085393646e-03
1.826801580599934915e-02
-6.476106274072534336e-03
-2.343264425402880394e-02
2.090338665875217730e-02
-1.718430536089256624e-02
-7.410624279588967633e-03
1.145407697779711464e-02
2.569777503569121990e-02
2.854761988858117022e-02
8.440558648408339956e-03
1.804922133621344321e-02
-1.223813373426672901e-02
3.364058320331708707e-02
-9.868929461382725671e-03
-1.881916897357549523e-02
4.625562293620145982e-02
5.761154536107490620e-02
6.638133977510010664e-02
8.020645580624959081e-02
-1.027499074606098017e-01
-4.665943442303485678e-02
-3.933605966278255067e-02
-4.782704817847926310e-02
9.422358780503578904e-03
-1.538096109222081634e-02
-3.796500750096574311e-02
-3.901305882893720033e-04
2.050391246091412892e-02
1.089341099804584934e-01
7.739763754446740696e-02
6.010990791913063680e-02
5.429467350728842123e-02
1.287843974048514910e-02
6.193787444972200656e-02
1.799774362363409236e-02
-2.546162615387810926e-02
-2.287736614170768346e-02
5.674659995189754863e-02
3.603831981571331555e-02
5.375449706576401060e-02
6.294832402602992816e-02
3.495695146461565844e-02
2.413979896341015077e-02
4.793757651442868972e-02
6.176165815576444701e-02
7.309685914567028153e-02
-1.183875477597860215e-01
-8.105636261717985569e-02
-1.097669872029920779e-01
-2.102397506636556959e-02
-5.132434116286447440e-02
-7.291575683153569964e-02
-1.714442458776952588e-02
-6.451637909173985053e-02
-3.492717701635963956e-02
-4.579978500560703131e-02
-3.823659789961799532e-02
-2.786293372379183841e-02
-3.982163840293986845e-02
-5.746868393377331519e-02
-6.919146994591433841e-02
-1.019192693135876210e-01
-1.497398882968425660e-01
-1.107783933796358672e-01
-4.351378141485791329e-02
-6.617605965027888171e-02
-5.697137790422381054e-02
-6.160443721133330303e-02
-1.033719184328443785e-01
-6.098389793192313113e-02
-8.656766302692606163e-02
-9.956396581015562741e-02
-8.235911982227100969e-02
1.920641340404274089e-01
1.736850874205000395e-01
2.020145645889746544e-01
1.611241891642071766e-01
1.458090808595908228e-01
1.657897077077680748e-01
1.965721099695541263e-01
1.711756619372414023e-01
1.694311803357418655e-01
6.491876724137021770e-02
2.013611960474886650e-02
5.115872105724261765e-02
4.046926523999237746e-02
1.489009287781075351e-02
4.318173807981576240e-02
2.919669529185655449e-02
4.184530223564727341e-02
7.070998362631815415e-02
-1.407042935442199931e-02
-1.573464062444187087e-03
-2.453879696349859155e-02
-1.655810637136339095e-02
-1.566770908599711062e-02
-2.793355395518004949e-02
-3.718679315476718095e-02
-3.379739207375739851e-02
2.370799587905657139e-03
1.850331741322926854e-02
6.051821227391511633e-03
8.658037004325562849e-03
-1.108498251444958206e-02
-2.562445740159770974e-02
-3.026282321254834123e-02
-3.457737455376356378e-02
-2.389153699844302758e-02
-6.531603179755334290e-03
-6.829944118393128753e-03
-3.908980971214821853e-02
-1.957356922745686831e-02
2.308870459516148958e-04
-4.617407433438287800e-02
-4.300709859959863518e-02
-1.121574851891105583e-02
-2.813541344539369909e-02
-4.085860367910691682e-02
-1.579771716865401672e-03
4.952837974636725704e-02
9.512299185048742056e-02
-2.658166954119195458e-02
-5.308355440953629358e-03
4.450692178113252462e-02
2.146396707007779819e-02
-1.268195045738775353e-02
2.273990372465333962e-02
1.355863661143455294e-02
2.155090206763369751e-02
6.077856104180724348e-03
-2.019713388683035821e-02
2.670474931451522968e-02
3.201467379026150251e-02
-9.629736067599582727e-02
-4.043835548584324285e-02
-3.375248231601152716e-03
5.382364350190949748e-02
3.139891330769399580e-02
3.266116532142089579e-02
6.757243333834871135e-02
2.435424878573658192e-02
4.316075384255806807e-02
9.235726685702209948e-02
3.225424646030967957e-02
7.019320079344681940e-02
8.613548991694805479e-02
8.231893419849148352e-02
9.496081130123802672e-02
2.612085728885104111e-02
2.861238173131909479e-02
3.870066049068252023e-02
2.547816272517861025e-02
3.957647540257727692e-02
1.628617748336152332e-02
1.156457903351752886e-01
1.139380800301026536e-01
1.184781346579647510e-01
9.055838518147761584e-02
6.457547386589465588e-02
1.130597485234781790e-01
9.504283715201539140e-02
2.685372667671137928e-02
6.607883962229871289e-02
2.055365988321564141e-01
1.555368442838057086e-01
1.939235338273297415e-01
2.404975133553064193e-01
1.852911303481359906e-01
1.947091234569968965e-01
9.306566619804924889e-02
6.500598186056275041e-02
2.781808073134062892e-02
-5.316275250767247412e-02
-4.691965704582775482e-02
-5.864391895562982154e-02
-3.756076922321326117e-02
-6.245301529388497253e-02
-4.541010597472455723e-02
1.222045155522334149e-02
-2.434685352929395058e-02
4.641597227909361606e-02
-5.610777804277161662e-02
-9.316400681499427405e-02
-1.912660350217528296e-02
-4.556174499851455700e-02
-1.108239696039893391e-01
-2.577863509550980953e-02
-1.354145354650047005e-02
-4.186711692814158725e-02
1.351238971563679947e-02
-9.636579439233064481e-02
-8.188136207826625379e-02
-8.127399655205280737e-02
-1.037177620417428087e-01
-1.332089725016191994e-01
-1.279441259770844608e-01
-8.157198071030159758e-02
-7.246562065942668829e-02
-9.442437295948760689e-02
-7.852829919550932680e-02
-7.545665131221672428e-02
-7.675400950706062764e-02
-5.214227860081203231e-02
-6.478141625248685920e-03
-2.200685563123574995e-02
-3.049579428906990311e-02
2.355334198739485966e-03
-1.668465093007897790e-02
-2.454092986688482039e-02
-1.090643064397969243e-02
-2.867499700495170639e-02
-1.789516453135477428e-02
1.602576669412893867e-02
-4.955275728679435672e-03
-7.759175172558804151e-03
2.508875911109613097e-02
-4.071573804696868720e-02
-5.705483970671412081e-02
-4.324736086285595887e-02
-9.094126709392967578e-02
-6.608271648168186074e-02
-6.669039526822505282e-02
-1.316742912243301644e-01
-1.371448762008800337e-01
-5.731138309744599618e-02
-2.203297923007809314e-02
-3.759127951788149291e-02
-4.352058484054330961e-02
-3.977615048015584187e-02
-4.245824758008352046e-02
-4.638233358596437206e-02
-2.670537793759308193e-02
-2.051828879739024322e-02
1.260914413142980375e-02
-1.271606093318813913e-02
-5.586650241388377985e-02
-4.084021803089346592e-02
-2.880767642032673950e-02
-8.017732049316302068e-02
-4.613767937083535636e-02
-4.916336838964012468e-02
-5.620066919142971407e-02
-7.870466896600429585e-02
-1.774119392564724867e-02
3.146009893686862319e-02
3.566847079443052904e-02
3.915739405148151858e-02
2.582618233703884089e-02
3.580634949031235616e-03
3.680345501753956583e-02
4.121204542781591214e-03
1.102623800318698437e-02
4.134480263266880617e-02
2.943451034018872495e-02
3.182686476168428147e-02
3.136380922899530826e-02
1.214704225569104845e-02
-1.868653581140351447e-02
-2.636737424661208737e-02
-4.330332934096806780e-02
-4.418100068823988674e-02
-5.692715143243214093e-02
3.772217398010235118e-02
2.096737165792065052e-02
4.841245604775258615e-02
3.120078771241769494e-02
2.725500895430512868e-02
3.607981314368825104e-02
2.770241198259739551e-02
1.691529883435630155e-02
1.272204315427751149e-02
-1.771756694856059522e-02
1.590510575308349064e-02
2.618625301071261791e-02
-3.571911594935493067e-02
-4.009942462838286814e-02
-4.136286661087921340e-02
-5.628983485482375038e-02
-5.482645078762211910e-02
-5.299972678625820832e-02
2.612008149649074767e-02
-1.386139893580052261e-02
5.610276797991368709e-04
2.322709081482589831e-03
-1.948345537340025538e-02
-1.006343826642213876e-02
-4.386536672818984461e-02
-3.689044047313515956e-02
-3.272300795632069464e-02
-3.068215264900593219e-04
-3.316862182662214803e-02
-3.197813586226817828e-02
-3.850209759239554418e-04
-2.090927973730476175e-02
-5.515738194337268391e-02
1.029375966513427533e-02
2.159144300010939696e-02
-1.932011008440127561e-02
-1.241673753446913796e-02
-4.689015801437172032e-02
-6.793524136067589925e-02
6.614862519361364677e-03
-2.271838126830558191e-03
-3.239399420607849689e-02
-2.683037511642472062e-02
-8.177412192457021028e-03
-4.959151116369757417e-02
-4.661725570668742713e-02
-3.226811190913389527e-02
-2.475044636462201547e-02
-2.822783785718462751e-02
-1.697734119899655530e-02
2.093018198024794788e-02
-4.282771816606860578e-03
2.184574311049322301e-02
4.815146604227268229e-02
-2.667681658470802929e-03
2.442153773529583821e-02
1.557757273606446939e-02
-1.845891328708950188e-02
-6.330906537114796943e-03
1.553715942038082568e-02
2.540379598434313116e-02
4.593722429605984897e-02
4.361520417706091918e-02
-9.936673794750221222e-02
-1.438291073820033572e-01
-6.345182588237018029e-02
-4.288319047345705293e-02
-5.806868889344641432e-02
2.218969244048481400e-03
6.829231398582452650e-02
2.239843314586171044e-02
5.733383061785481127e-02
2.979230829965796162e-02
2.399707209088107820e-02
2.587611161852508557e-02
1.032355934241014767e-01
8.999372818102839566e-02
9.490651845052743008e-02
1.000891772380741590e-01
6.916973935015284514e-02
8.773176574377508641e-02
6.347684980017245793e-02
1.333298235498869312e-02
2.970696402969473862e-02
9.393553329617368441e-02
7.139903786843218580e-02
5.198085736550902419e-02
1.397167190557995486e-01
8.828207983941856185e-02
9.449224882295148564e-02
-2.023963916055657869e-02
-3.471220485316653392e-02
4.722488341923581495e-02
-8.116320573510048264e-02
-7.953137082851199913e-02
-3.219141093277776838e-02
-6.066485362918566659e-02
-1.100417239156833843e-01
-8.206820507725098857e-02
2.794086712159363217e-02
2.535104827164116545e-02
2.188961177539169856e-02
3.717120028696528633e-02
1.967885985108187852e-02
2.537032286108062071e-02
6.847798667463794731e-02
4.549393377824157564e-02
5.905072682596912426e-02
1.236209332567918262e-01
9.413533449013655741e-02
1.135197875176729293e-01
5.348534411488956031e-02
1.728663654079655443e-02
7.143912733795944325e-02
1.754176595280970002e-02
-1.300633752759146333e-02
5.962061690223784821e-02
3.694655535744331698e-02
5.387607324115526591e-02
5.133036573075623610e-02
6.082744859609338917e-02
-3.651242740702613249e-03
-5.763085651965372570e-03
4.576733886104242949e-02
1.156552904808196697e-02
1.809092846705459903e-02
-1.047793261547531884e-01
-1.090742799332695273e-01
-1.131529713164044493e-01
-6.498189363880109426e-02
-3.813816925911118344e-02
-3.797967300212593683e-02
-5.008738610478078584e-02
5.162307159841573664e-03
1.791559379461449275e-02
-5.885971856104743778e-03
-3.804828928315028003e-02
-1.792029499917832669e-02
-1.218412688679119601e-02
-6.018304652312146674e-02
-2.027412106401603811e-02
9.042615045100147950e-03
-5.093798454672032738e-03
-1.611802221717685557e-02
3.945718720154792886e-02
1.202098303853338726e-02
3.963177093863794881e-02
2.567193517126446778e-02
-1.212764484784370142e-02
4.567843684739791854e-02
4.969553057548994901e-02
2.814651338675826925e-02
5.722913754185748880e-02
9.660319620015022507e-03
5.359327622739443013e-03
-2.025935907212225023e-02
-2.703410220818976140e-02
-4.114320296682619921e-02
-6.288037486614919680e-02
-6.534934202285266891e-02
-5.184321440855970548e-02
-7.914571837448516889e-02
1.483599569935789841e-01
7.980256676429454965e-02
1.426339282547793574e-01
1.951818675476200138e-01
1.131746017472096549e-01
1.918550475642228914e-01
2.313915248069341457e-01
1.814177202933967004e-01
2.331825754713549304e-01
1.282138634213085202e-02
5.170202633821343458e-02
7.090524373854699414e-02
2.867664929486536673e-02
3.934444735644120061e-02
5.524314231419150817e-02
2.800332224002466050e-02
4.193444608160543791e-02
3.924771815154294574e-02
5.690674877153400341e-02
4.352663509443160939e-02
1.073928309027365885e-02
1.936687415489908581e-02
-1.488609793127991347e-03
-5.663152398028013616e-03
2.422753460123961214e-02
-3.122168445617187760e-02
-2.726357582664894544e-02
-5.870554804095097501e-02
-6.074092512651126791e-02
-6.439976156996458923e-02
-5.067788848322889866e-02
-5.992137524175612101e-02
-6.130420697169917943e-02
-1.485593914516732117e-02
-5.355763124732296210e-02
-5.208695579867064079e-02
6.291474325612550489e-02
5.942767890810255610e-02
-1.555634527800460638e-02
6.508510359040677040e-02
6.683728025275069429e-02
4.505255842851536158e-02
8.351580760068141873e-02
6.806387900992647011e-02
1.006051315123380752e-01
-3.699864232895924525e-03
2.046665215597325005e-02
-1.675596188023479281e-03
3.621497667577081719e-02
3.342789409479427626e-02
3.841064003862762477e-02
5.679341516359231318e-02
1.994754102662226955e-02
5.796946723990047817e-02
1.738888948642118570e-02
-2.044358796255774883e-03
-4.345408950052887659e-02
-5.107557336646998888e-03
-3.440112551848769490e-02
-4.865834041630403423e-02
-1.316551992992334372e-02
-1.683280090334264480e-03
1.405658942132964780e-02
6.016129035430414773e-02
4.547621519670196066e-02
4.849018678144434435e-02
2.830842378004451432e-02
-9.860477071678870609e-04
-1.142412966802090627e-03
1.701123362069219963e-02
3.549222585036510003e-03
6.045736844559394113e-03
2.009771761847300997e-02
-1.603989525262552659e-02
-2.466785078284994270e-02
-2.639353863730969918e-02
-5.167304896550627830e-02
-4.162990686991750733e-02
1.528726593209253810e-02
-3.632700400547560216e-02
-2.897341719886047801e-02
4.484608613446561948e-02
5.739830231989788423e-02
6.878587540725954186e-02
-2.533522274572829608e-02
8.266065464852550074e-03
-5.622281606464421023e-03
-1.005965394148439912e-01
-8.866147333462043312e-02
-7.872801320553837745e-02
2.815878681382907520e-02
3.194880642385964937e-03
2.301958785570724225e-02
3.434567330878659369e-02
-1.787686474052381513e-02
-1.197050027448861610e-02
6.498308989627740728e-02
6.755830043412866179e-03
-3.488980804890842724e-02
1.054583917527576187e-01
1.084805921918479965e-01
1.118544469235800837e-01
5.263646933153267454e-02
5.959262797001475820e-02
1.049882433545939325e-01
6.118905016258191845e-03
1.017255672209848964e-02
9.993479073528492573e-02
-2.441245243119978883e-02
-6.543823530469076999e-02
-2.307256896419815698e-02
-1.513048984096738471e-02
-6.742221523144045769e-02
-3.265628182715547140e-02
1.126056547060317464e-02
-3.022003624174195505e-02
6.695321593899852862e-04
1.012249937166134900e-01
6.562786394420182245e-02
9.329761196990916938e-02
8.709313263142415273e-02
4.230036290681507549e-02
1.405190742673988746e-01
1.341992460200558679e-01
1.143204417733862249e-01
2.019687601191075266e-01
8.481366837621963362e-02
1.071252586666085471e-02
1.059156502583189358e-01
3.919410136754637036e-02
-2.905314383034362721e-02
4.098679535793096906e-02
1.548781806140550263e-02
-6.321059432044899562e-02
6.872790319823242691e-03
-1.658329477464879353e-01
-9.262849539211281957e-02
-1.273045854940237920e-01
-1.326229785830129182e-01
-7.420537932159668171e-02
-1.431949799966136250e-01
-1.201393350195730236e-01
-9.894138185337067459e-02
-1.603319097167435758e-01
-2.029406276346418236e-02
-2.465907357106026168e-02
6.950726057814485791e-03
-1.943816062231945932e-02
-2.174572732323021979e-02
-1.797623269731507198e-02
-5.494425083488079647e-02
-6.089661672728199221e-02
-4.801196320872523626e-02
-1.119398195410791774e-01
-1.085926492096945389e-01
-1.009188216571294400e-01
-1.115441290024190291e-01
-1.101507422649039697e-01
-1.401239774915736813e-01
-1.288154499547962406e-01
-1.164540761299641264e-01
-1.464164140622511157e-01
7.394955485779437787e-02
5.818072107113290287e-02
3.105679651690444742e-02
1.024781214479828645e-02
-2.577630645312087212e-03
9.155302499368500255e-03
-3.488649345520034722e-02
-5.200226076934792718e-02
-2.752822116127291371e-02
-1.113259211605724941e-01
-4.780681465652519835e-02
-7.224645269375959411e-02
-7.986733057233680322e-02
-4.353930494551281477e-02
-3.911014854176735750e-02
-4.336523463863891509e-02
-3.355471310453460310e-02
-3.179563307605365319e-02
1.289274790308623242e-01
7.210376973815825485e-02
1.214567026506008507e-01
7.206684991435292897e-02
1.171359009787898385e-02
6.744665555754404684e-02
-1.672262908249709870e-02
-4.213940777314859054e-02
-1.479824286122233788e-02
2.836389694608096659e-02
1.359433352833154356e-02
-2.304634734958970962e-02
-7.062713745118230114e-03
-1.823260115265586817e-02
-1.897490161940253162e-02
-2.358800749577880801e-02
-3.226519818955007196e-02
-5.452199464844016685e-02
-1.491764507460953959e-01
-9.334385561658462005e-02
-9.568036476297694937e-02
-1.805021380018937416e-01
-1.464853778691700414e-01
-1.997130900363332517e-01
-2.050271172221241889e-01
-1.803069995925465629e-01
-2.542779910350441153e-01
1.614615085830228003e-01
1.636850106910326674e-01
2.063342179951911104e-01
1.551140616320479115e-01
1.185293366144206939e-01
1.545416044046986348e-01
1.561863344429733624e-01
1.492439825367652961e-01
1.644443285752653083e-01
-2.155761103258703459e-02
-4.631915933715440026e-02
5.357658625264830748e-04
-3.536617174686510195e-03
-1.612972109138677626e-02
-3.294104349735550805e-03
3.154488353812894691e-02
1.716672788263835792e-02
3.328298976764569594e-02
1.268956313414474624e-01
9.538978770971690002e-02
1.377584962115580292e-01
1.248436550919275884e-01
7.460281971425868075e-02
1.146046969988152586e-01
1.357443374155410387e-01
1.087354037661083100e-01
1.330275511151395307e-01
-8.946118106252035074e-02
-8.040631529304602398e-02
-5.941794294397054199e-02
-8.053242004102312279e-02
-6.705926023496047716e-02
-5.868577748490819840e-02
-6.442548547160843742e-02
-4.627317939103213484e-02
-4.601373297393659967e-02
-1.258123547081012594e-01
-1.043254625755188209e-01
-1.505928545252713802e-01
-6.786369187012086801e-02
-5.593903061039928043e-02
-8.682213578082743910e-02
-2.709731524741600117e-02
-2.475775171514620066e-02
-5.043076264495870847e-02
3.396955598734465592e-02
3.526114383316768935e-02
3.810291895668883877e-02
6.089689789144795556e-02
5.643887762847848988e-02
7.965679973467400254e-02
9.976706495893866711e-02
1.089415267879021987e-01
1.457772982248715932e-01
7.444971622090385162e-03
1.238812004636886260e-02
6.319638767144203015e-03
9.048304690148055093e-03
1.520573635722465662e-03
-1.043448856056669984e-03
1.838464897061736075e-02
2.996822491615945116e-03
-5.506906152914992948e-03
8.400722842558806802e-02
3.138708931837796978e-02
3.196439095191597191e-02
4.444466403808686183e-02
2.386064767233933223e-02
8.830233064481312483e-03
7.459195385437897285e-02
5.049343955127220257e-02
2.843940611507464813e-02
6.667311530705290201e-02
8.918751751825017282e-02
7.334440749365818413e-02
-8.869594301355093399e-03
-1.077446842805641555e-02
2.527911914327001571e-03
6.364824992065034118e-03
-2.225768884950381221e-02
-3.338550990654605422e-02
-8.618442751063899732e-02
-7.478786939449542925e-02
-9.256955395257571162e-02
-7.358660859312080027e-02
-5.992546172714964536e-02
-5.161146353499233147e-02
-3.776367780002026081e-02
-1.601301351345351190e-02
5.201090525768037841e-03
-1.911909168478789084e-02
-2.366361970008796015e-02
-2.920119859324003808e-02
-4.987978216862207215e-02
-5.607187805927569407e-02
-4.380886279441540548e-02
-2.319433924348006642e-03
8.209354477941339587e-03
1.461399476081276863e-02
1.410798588159574152e-01
1.036988332212861602e-01
1.441086674861285777e-01
1.152188311380946406e-01
5.022360927001005143e-02
9.456221504124470711e-02
1.014614894537766848e-01
7.814963755981360616e-02
7.330693756604987621e-02
4.138582319299583673e-02
3.416061489674343532e-02
4.269105885221647495e-02
6.583240301631539115e-02
8.103259537502283116e-02
9.582843524312488481e-02
8.335313928659994487e-02
5.282188924036064492e-02
7.192751822604653844e-02
1.719391348867297525e-02
1.327801720544838186e-02
2.262411386584572276e-02
2.265617880529465465e-03
4.243241226858684751e-04
3.382070313734360928e-02
5.971332074438734372e-02
4.941325747011288821e-02
8.671708167171082726e-02
7.108579304576703728e-02
5.356205827316594392e-02
4.055364362346890184e-02
7.431082286927856440e-02
4.145325194835026289e-02
-1.080116697393023600e-02
1.172248780859693612e-01
8.884339877452855638e-02
4.920430534304656711e-02
3.200963742630094384e-03
-2.634323819338248510e-02
-5.140139199034599038e-02
5.380715483962960483e-02
3.769208746573730201e-02
3.154946424376450786e-02
1.640687910457681031e-01
1.475762424422747410e-01
1.573326651966693857e-01
8.550819974971339207e-03
1.831126163057801570e-02
-6.406633230363346920e-02
4.062327977948034419e-04
-3.414309889311221285e-02
-9.829115566553234262e-02
2.527376654594901476e-02
-1.747751033589972636e-02
-4.767843439980119780e-02
6.654651459247250267e-02
9.244588013949937844e-02
9.371205842870884706e-02
1.245866011897846654e-01
1.039500071250017282e-01
6.871753505131732165e-02
1.626992945305536509e-01
1.382280840277510803e-01
3.871485093439504255e-02
2.159199339345357349e-01
1.695028561204519058e-01
1.757549168183523136e-01
1.667544502027276665e-01
1.085807809384405076e-01
1.366083776002472161e-01
1.524689005931549324e-01
1.337603766987654208e-01
1.393042529706906008e-01
-4.307706581758299208e-02
-8.892416798369542907e-02
-7.872504613772486615e-02
-1.447631687663786249e-02
-1.709318424326451355e-02
-1.707896275018666674e-03
2.094045743465577231e-02
1.833746490839302870e-02
1.283896294449846272e-02
-1.450769113020083656e-01
-1.255044712145634844e-01
-1.046083102337567600e-01
-1.308483018019467037e-01
-1.066740268538220460e-01
-1.310884264778482411e-01
-1.304902016898231432e-01
-1.210160607726119275e-01
-1.136827754158684922e-01
3.354575951025571059e-03
-1.674597880598176561e-02
-2.664184152308212566e-02
-2.717505801248588579e-02
-5.104519715837812360e-02
-5.284074819581562749e-02
-5.511438833615375094e-02
-7.250807333064784865e-02
-5.524035861431232652e-02
-2.435998475292498397e-02
-2.224364635845708926e-02
-5.709050614442408647e-03
-2.772217204495018572e-02
-3.088585918216557938e-02
-1.629625410297929136e-02
1.834294237054550150e-02
5.276275744744408913e-03
1.357920287957170048e-02
3.351855818696958256e-01
2.562047514344780730e-01
3.421326070386872531e-01
2.637695519060161975e-01
1.631882756887531594e-01
2.596065060340079778e-01
2.895224082198788462e-01
2.480636866680018537e-01
2.896550967498788265e-01
-2.942706597565750495e-02
-2.602291012936855386e-02
-2.161732436380958688e-02
-3.067656476828851779e-03
-2.512240068206708296e-02
-3.433241144123170933e-03
3.809120785794996300e-02
1.251759509697884451e-03
2.100537142976803551e-03
7.645223901171696590e-02
6.544289808930646435e-02
2.876681916679863643e-02
7.854215845275186458e-02
7.031723691036698143e-02
5.219246920080369140e-02
1.114073190597999335e-01
9.477002330167311195e-02
6.494571427217815662e-02
-1.666417575093754808e-02
-1.169234281873844823e-02
-2.133798689174300905e-02
1.201812651538886195e-01
8.420298504682811880e-02
7.518205456973282852e-02
1.851253151437676492e-01
1.365838324924668890e-01
1.753008104949000945e-01
-2.609226162849147615e-02
-2.415843108541835052e-02
-4.799562075987369447e-02
-2.087899948851521317e-02
-2.217773344469307559e-02
-4.610806267843711725e-02
4.119550474077946639e-03
-1.092873884001805372e-02
-2.875828295286549444e-02
-2.441029218229731276e-02
-6.189420465173756797e-02
-5.541536147810937479e-02
-4.507271842312340904e-02
-6.220627941234561226e-02
-4.840256834334011327e-02
-6.324374025752980966e-02
-5.922206233107966955e-02
-1.720713693627971136e-02
-9.092363638863109124e-03
1.754839688658714134e-02
4.797710583759073194e-02
4.644658608061991156e-02
6.918956602694009694e-02
9.700768490693541246e-02
1.157613295376977852e-01
9.747991322138273296e-02
1.197320486420184182e-01
4.495549217589019791e-02
1.395113015639625094e-02
4.320875368256996141e-02
2.740216705777291997e-02
-6.518100152733608725e-04
2.857448716002725791e-02
5.285673264060491983e-02
2.032305934614541190e-02
4.684397058972096517e-02
-1.083421354305425244e-01
-1.561181669767978120e-01
-1.557643017907764937e-01
-1.175111136850890969e-01
-1.412723497416051854e-01
-1.316810367143604610e-01
-5.676299878919102704e-02
-1.116863177377783178e-01
-1.325253936610878425e-01
1.850906248502114538e-04
2.083826828151554272e-03
1.173230333543124650e-02
-5.280144583066862657e-03
-1.782813028669216586e-03
2.261324666916119872e-03
6.194461257818763798e-03
6.364670396588863535e-03
9.050949364452559251e-03
5.312443902505594590e-03
-4.088171414945965428e-03
1.765723867660592321e-03
-2.996802876351317268e-03
-1.130624112182450174e-02
1.803904544422491572e-04
-4.523461490909170407e-03
-1.562174591161887872e-02
-3.561009604492632562e-03
1.455488690109834303e-03
9.708833701302963881e-04
-2.241036410355631923e-03
4.234506665988921857e-03
4.305027981513892196e-03
5.690379370045976250e-03
-3.539457632240918233e-03
6.448981451225096681e-03
9.508280796295337858e-03
-1.131683158526478918e-02
-9.386182913347952683e-03
-6.980678660923738191e-03
-4.110723048270414730e-03
-5.750214218643855645e-03
-1.000608859503270692e-02
-9.362229412973216078e-03
-8.129343629467966278e-03
-1.446666636113171263e-02
-1.028297670026903990e-02
-7.895557307305716560e-03
-6.918012159762892445e-03
-5.521783738283004769e-03
-3.734809417764528225e-03
-8.050555206931035712e-03
-2.381852451562419242e-03
-3.143293750307218394e-03
-6.589245967710313442e-03
-4.962483634877251637e-03
-1.556041085093544905e-02
-2.316262256972271075e-02
5.812559747546752059e-03
6.602164290556731228e-03
-1.335715838698517659e-03
-9.824386776189287379e-03
-3.320848866949465284e-03
3.241067627866062889e-04
1.813029090456190788e-03
-4.702651008375560195e-03
-9.329839313501933976e-03
6.380612919329193417e-04
-4.375806687250203240e-03
-1.065255356028846009e-02
-3.916437027533718404e-03
-2.356647843834310061e-03
-3.201548233814615046e-03
1.903027045822055716e-02
6.792308292189173403e-03
9.078788574434882436e-03
4.442727962079542382e-03
3.054350572462423332e-03
4.438453735546929978e-03
-1.222471116318472580e-03
-7.706081007222216790e-03
-8.870111576990385993e-03
-1.315876745168133820e-02
-8.727974181976466336e-03
-5.048812023570174203e-03
-3.933168832223729074e-03
-2.834021309411193217e-03
-2.379602223493648911e-04
5.144075761181337268e-03
1.376860033225428418e-03
-2.265239375700771763e-03
1.523520489325470547e-04
-3.103076214576866443e-03
-6.218642788989551563e-03
1.447644322654217247e-03
9.106036093133615048e-03
9.908539686245004460e-03
-6.780446728174059981e-03
-2.269802693408472585e-03
2.477735258562228926e-03
7.666710571676561316e-03
5.971760186298026053e-03
8.109712807667025097e-03
7.082568080077342350e-03
3.774879976299321416e-03
-4.462813584638799548e-03
1.106896967496020720e-02
6.791155169632840001e-03
-3.499532609948785566e-03
1.288965688970999598e-02
4.411887967687891376e-03
3.250487136957908377e-03
1.659024187496455039e-03
-4.525183429621844561e-05
4.316049109751460278e-03
-2.065354712599424061e-03
-5.112326165273053426e-03
-4.594331336916256288e-03
-8.477529363602872778e-03
-1.236201902444310566e-02
-9.684494926147221502e-03
-2.761166730906726430e-03
-3.984341932834805679e-03
-9.058809762509163364e-04
8.422740732052513835e-03
8.604956430723053121e-03
5.344392349913751512e-03
-5.206200283933559193e-03
-1.605416416845709474e-02
-1.170909372698991473e-02
6.161464156939352316e-03
3.715761461410679780e-03
8.056605768148208772e-04
1.111171554266857271e-02
1.112470483244520046e-02
6.385190646565870945e-03
7.539566291562542488e-03
1.240283455562597725e-02
6.508148418154920470e-03
1.051554919973414406e-03
1.269480889734322156e-03
1.918267644382125542e-03
1.173640104523389870e-02
1.154015712974753964e-02
1.216100483438912333e-02
-4.784404911975825500e-03
-1.261029755025421678e-04
1.349128354353090493e-03
-5.723748416892090150e-03
-4.349397262780558236e-03
9.863897164285127112e-04
-7.834876979595150823e-03
-8.711846316669677112e-03
-6.501663769877335033e-03
-1.091159960662715575e-02
-7.098967925243560885e-03
-1.207326215042717242e-03
-1.369229287036885685e-02
-3.936193392355865836e-03
3.396107135006301483e-03
-1.055916180061043826e-02
-2.024217308563043202e-03
1.508129401247153972e-03
-1.113857850706274910e-02
-1.949008303083395177e-02
-8.136893502175128814e-03
-1.857470059129514087e-02
-2.974865629318597035e-02
-1.440557896422756286e-02
-5.187480504602147782e-03
-1.587309042495793285e-02
-6.805979332805493429e-03
1.070083034557529059e-04
-1.346145329688227003e-03
-4.282206169521136051e-03
-7.219253269564831522e-03
-4.215844344654304070e-03
-1.819275441148330077e-03
-1.547223353955574747e-02
-5.006365153588067211e-03
-5.312754247735922749e-04
-3.271834493898158856e-03
1.170809478639362779e-02
1.483687958197455088e-02
3.750106033368492877e-03
4.662156269331525597e-03
4.209189663934797231e-03
1.205913666929075978e-02
1.565163757888477294e-02
1.129578376640813508e-02
-1.731740434522749048e-02
-6.022217493557202768e-03
5.721880941936753791e-03
-5.215495510837983356e-04
-1.141090779756918742e-03
4.779824482952466438e-03
9.749680032854022172e-04
-6.930734873253455467e-04
5.698247152986180182e-03
-1.528302921933167658e-03
-4.893694524854351469e-03
4.563931193396607994e-04
6.750749769668458098e-05
-4.375409704726903812e-03
-7.153802667286643380e-03
6.401604360903728752e-04
1.380607771593067058e-03
-3.223730983197269865e-03
4.402518711828351701e-03
-1.607913408098200292e-03
-7.974407330579021819e-03
-4.356606710365654167e-03
-9.234179674082144615e-03
-8.575431305850493915e-03
-1.164174124700595794e-02
-4.638591105762700749e-03
-7.692169687710215600e-03
8.194938687274146150e-03
5.719049649612012540e-04
6.644549019445128261e-03
5.815721918680613611e-03
3.435844112945292406e-03
9.077466500151301632e-03
7.496557449950357402e-03
1.231175012177529535e-03
8.839016714054966084e-03
1.011424705988658683e-02
5.707697642565325025e-03
7.585606537833129541e-03
4.652740722860148302e-03
2.176764507547708158e-03
4.157345439511646486e-03
3.849141104950993576e-03
-2.778429526739515515e-03
-3.804743004626375425e-03
3.518901358441469274e-03
9.200477947235788378e-03
3.113780333176953928e-03
-3.023059019456475743e-03
-1.882572179082778446e-03
-1.214091002575514279e-03
-3.185081204219545551e-03
5.159298527949298741e-04
-7.452882167623015594e-04
-2.384600528857323126e-02
-1.741253695612497016e-02
-1.596345978593316853e-02
-1.398878405906285073e-02
-1.609211886778082190e-02
-1.288466038553744315e-02
-3.765876362237556389e-03
-1.497036693674396336e-03
-2.716382995562878488e-03
-1.505552797347068858e-03
4.810217781945849529e-03
2.958184618218228333e-03
6.045209878349216449e-03
4.184560356651069284e-03
2.077846873626365640e-04
9.909308074377671041e-03
1.440708385941003207e-02
6.851672849785085673e-03
1.742936278299155040e-02
1.472736175818086315e-02
1.218752016889674411e-02
1.340129783626466814e-02
1.569829923609246392e-02
1.182088591481340878e-02
8.653628217222946242e-03
1.756588226289581070e-02
9.930633997143566843e-03
4.099183176989698238e-03
4.880633907909292558e-03
4.960884177160875853e-03
4.108190573552819233e-03
5.515848273178530423e-03
7.560240903618709561e-03
-5.144005694846689840e-03
-6.308725580457264989e-03
2.474784727385207243e-04
-5.728517430625927956e-03
-4.067830563604712957e-03
2.466530588949324945e-04
1.795667229111689179e-03
4.404666812360501574e-03
2.101687979675086367e-03
-1.039675145916056816e-02
-9.696839749740379655e-03
-1.637463209289130583e-02
1.126845573446624664e-02
1.537806726769524665e-02
1.385844374542187681e-02
1.133413022480090661e-02
1.160167375049607139e-02
1.798078123428546032e-02
1.549452508088217453e-02
3.664490195883451235e-03
1.905257280669371469e-03
-3.395620453165125018e-03
-9.126482314155507378e-04
1.313814669523972155e-02
4.073242062211784691e-03
5.016010712165728733e-03
6.322670942481472059e-03
2.965886511456091498e-03
-4.320354316771371495e-03
1.114677572785917553e-03
4.066027571291546891e-03
2.121293116490627860e-04
8.744259471387320556e-03
6.699038112911889949e-03
-3.561385873318027948e-03
-5.516103682079636326e-03
-4.431846966511270025e-03
-1.000540774478857371e-02
-1.054623591276130853e-02
-1.383256062899809388e-02
-1.285617400758496884e-02
-8.515693001096755893e-03
-8.285345152786489573e-03
-4.660936502703676501e-03
-5.365768706031066870e-03
-1.406404556926370633e-02
