3.394321878099676448e-02
1.083744384369020736e-01
-1.146996860616468911e-01
-6.193860660071418001e-02
2.153348921790376458e-01
1.695268679303939541e-01
9.754950672847685633e-02
1.066195977108362752e-01
1.992368281287955692e-02
7.608816412414624863e-02
-2.186406874718876611e-02
6.566282350682832447e-02
-1.270309629758397951e-01
-3.764607197127570887e-02
-1.670451802777691425e-02
6.049935060411928273e-02
8.144062719884212487e-02
-1.167987649020612445e-01
-5.600132612161645013e-03
-3.437757615874809103e-03
-7.180371167356214279e-02
3.096034953865889686e-02
-6.283349544515400009e-02
-1.233381123074077795e-01
-2.923931841439052562e-02
-1.460678999941711076e-01
-1.329672957530472210e-01
9.292866053013856820e-02
-5.861919090036492308e-02
-3.006080752285247154e-02
-6.994807993200183316e-02
1.432307679892057609e-02
-3.420335396692862628e-02
-4.525199048198596391e-02
1.104390159878834293e-01
1.745609705421203098e-02
-8.131870602437638040e-02
-1.063544298236338836e-01
-9.664389223420744024e-02
4.452327510051527076e-02
2.712568044754292210e-02
-7.122293210801992902e-02
-3.471794261892868771e-02
6.754109454401931167e-02
3.839390308376598032e-02
-3.613932028673518676e-02
-1.511296162135826737e-01
-1.387433658525349901e-03
-1.472092070502632188e-01
-7.730809001383014134e-02
2.109084057148182256e-01
-1.068778981279426138e-01
6.717718375536019249e-02
1.497713258479145548e-01
5.150945945566151075e-03
3.897441316061901057e-02
1.120903169138250111e-01
5.654841510953229761e-02
1.093764131034679760e-01
-4.129275473577206229e-02
8.116020176035367018e-02
3.359119244353073880e-02
-1.368718904217896548e-01
2.797206806514654712e-02
-4.452232066140773131e-02
-9.980010558438585921e-02
3.440629803866759873e-02
1.762177106481052982e-02
6.948965721430622189e-02
-2.524859516058435838e-01
1.015564419726766171e-01
5.313299630939972290e-02
-5.594561382660546284e-02
1.537735091082283526e-02
1.653509026431196696e-02
-2.538487244667084752e-01
-4.632036716156721565e-03
-1.474307267527738552e-02
-2.851448591578317759e-01
-8.150530448424669894e-02
-9.221567879663815359e-02
-9.503021192927620098e-02
-9.630219854223262543e-02
-2.493222442243667528e-02
4.747791091118278017e-02
1.742070330807001521e-01
4.027944806982589748e-02
3.598882208252036224e-02
7.455493068441507165e-02
2.447945198425765384e-02
-6.631364318268989644e-02
-1.148827676941233389e-01
1.151114872361133808e-02
-6.092896722668002252e-02
1.911042658387223508e-02
-6.019329229981110196e-02
1.719846609192442755e-01
1.296387286659610172e-01
-6.136440031344901451e-03
6.231627254121714643e-02
1.110188568344916415e-01
8.633466081862517516e-02
1.086930167365620092e-01
7.817132516598603031e-02
-4.310959133478501487e-02
1.908254348749782447e-01
2.681710466972993256e-02
3.658691180486461220e-02
1.247639657331938434e-01
6.672591147088430263e-02
6.691552820407350999e-02
1.258018565048109674e-02
2.773855611596715356e-02
3.115235798396461669e-02
-1.155462780415064811e-01
-5.906227297442864094e-02
-1.125987208004082529e-02
2.588525769730737683e-02
3.556739342463272752e-02
3.532187575435011273e-02
-2.828960658761403568e-02
1.314957258168798770e-01
1.398823642888564478e-01
-2.317777894644835746e-01
-1.512559480195947992e-01
-2.484981478128368837e-01
-1.067869142549953687e-01
-5.819218382661113520e-02
-1.984941622161813524e-02
-1.443492718107146078e-01
-1.316224528729694615e-02
-5.810705684117552922e-02
-1.161398111592644167e-01
5.256858144450830828e-02
2.299787278902614904e-02
5.134709925764436439e-02
-2.922544648411469492e-02
1.397312103288312624e-01
1.102882527864575690e-01
-1.472231485984504262e-02
1.779077101498139080e-01
8.077779731039917699e-02
-1.790537871557046357e-02
-9.725009132035709880e-02
7.930149784773662947e-02
-7.936109527135004615e-02
-1.588960781193971550e-01
-1.391081749368247300e-01
-2.970120518461171269e-02
-4.171325814916016644e-03
-1.648881142086592866e-01
-2.522398635178355053e-02
8.973147816198670523e-02
-7.011819915852844642e-02
-6.143006796978633943e-02
1.100126332295929127e-01
-7.707309812259931225e-02
9.930640230579766345e-03
4.410240787739675740e-03
-6.868817539527723171e-02
-3.794184928209146102e-02
-4.034802620400642498e-02
-6.315172565525706272e-02
-1.145252033640945383e-01
-7.404774847988947195e-02
3.314390634591572737e-02
-6.729752168377697852e-02
-8.598264346411545189e-02
3.297409478564260199e-02
7.035981822577417819e-03
4.108980055820724703e-03
8.149511332031731878e-03
-8.081285329738407963e-02
2.876213479244944110e-02
-1.258691613049350844e-01
-9.756939050226060006e-02
-3.756804152132199592e-02
-3.350677960312147680e-02
-3.950946274134550101e-02
-2.870840323930396940e-02
-2.866019845002588107e-01
-6.033621787185981106e-02
-9.604491544492796407e-02
-5.808223019568430068e-02
-7.086408995245657705e-02
-2.637689624338857008e-01
1.628994538671605929e-01
-2.937397517515938361e-01
-1.669659977636691606e-01
5.867605076804403158e-02
-4.560064821083716774e-02
-2.905435934404608858e-02
-4.638341853188035664e-03
-1.164901082776414881e-01
-1.319547054778664741e-01
-5.395790567847525560e-02
-7.997441110463328340e-02
-1.145371394672864002e-01
3.551935032856814480e-03
4.399515811631807966e-02
2.150554099509613404e-02
-6.788136443741961401e-02
9.123845891191303958e-02
1.086239153451766526e-01
9.166487086481153734e-02
1.616341056589144509e-01
1.010352486020524299e-01
4.365973901932312246e-02
5.485751955793211759e-02
-5.059772756814757966e-02
-8.416519826981275210e-02
-7.521718566365444281e-02
-1.891057916174591624e-01
-4.959344877328914630e-02
1.680080162037089764e-02
-4.808612891676224826e-02
8.054171174423806201e-02
-1.541484217726234868e-02
-9.045536520444281969e-02
-1.202819017183080208e-01
3.425573470801955567e-02
6.519594782724859316e-02
1.119087938242676744e-01
-6.695985909344455422e-02
-1.184734709206586023e-01
-5.185270495333823421e-02
-9.482139188124343032e-02
-1.944424985867939937e-01
1.170568968887368277e-01
-2.909343744971708886e-03
-2.164982523928614677e-01
5.402461760348316322e-02
-8.438089701663696943e-03
-2.258875976423428689e-02
2.871522579461852076e-01
1.751978194751867002e-01
9.940753691937091741e-02
1.873373978560664288e-01
1.166799158986522172e-01
-1.842762421495201114e-02
3.877841403697426109e-02
1.064045322624316559e-01
-5.936458538595713527e-03
-1.251547917046853808e-01
-5.818540394033903940e-02
-3.530501025388523700e-02
-1.036068219612160390e-01
-6.161097123535853176e-02
-3.806447337288817317e-02
-4.905366068311114297e-02
5.248956062362183927e-02
5.583083185666404963e-02
2.049798454405547116e-02
-6.878462090565863607e-02
-1.383568404713750588e-01
1.435020308122618993e-01
2.901045963657774077e-02
-1.330992868215322145e-01
1.612963375188454160e-02
-1.758685745768307773e-01
-8.530865898967929239e-02
-3.697171470415284295e-02
1.299202724825096189e-01
-1.178124825382584062e-01
1.071112932986900274e-01
3.097863883769829546e-02
-1.530674060735194054e-02
-1.290747427372332390e-01
-1.738727413447216374e-01
2.554223677353830574e-02
-4.074141680952338140e-02
7.183149146593903467e-02
7.076341122391588412e-02
7.419674877614024222e-02
7.377069838723306072e-02
1.928375946301738933e-02
7.866231559176972699e-02
1.339471678556217356e-02
-1.434659642426925619e-01
5.165463076678675908e-02
-4.201915476025484125e-02
-6.154121408816282113e-02
-4.584835772245849511e-02
-1.252182270963806132e-01
-6.782066884739776369e-02
-6.791365816534036814e-02
-2.978994893283009454e-02
-4.864981616219286875e-02
1.630441153955154987e-01
1.648847006852629249e-01
9.860840414341599802e-02
1.063874040104948425e-02
-1.360011612383353330e-01
7.044887974607188900e-03
-1.910105511470580331e-01
-1.823683183735624047e-01
-3.210680158297539444e-02
5.993436532150241830e-02
-4.919838509216016564e-02
-7.311934422547125556e-02
1.456488899972688787e-02
7.107374092394766474e-02
1.042970700780445625e-01
-3.963329279402631744e-02
-5.419008815012132940e-02
4.813480306550734639e-02
-6.091726692609120836e-02
7.163561361220441293e-02
6.981278538133524336e-02
6.294578464472043444e-02
8.826190244211934433e-02
-4.953079714453163113e-02
4.280452564714867097e-02
6.827679641975714468e-03
1.232213001893411701e-02
-5.339539520032074438e-02
2.352470745621062023e-02
-2.382701762200004070e-02
-6.403483559824038607e-02
1.097986637018576357e-02
2.665486798736199994e-02
-1.562867471491395654e-02
-1.556572956805913344e-01
-1.726645471959736278e-01
2.151369078220492503e-01
5.026721990251303840e-02
-2.421796710914078943e-01
2.217075136696022575e-01
-1.572541643827955402e-02
-9.688313755524925741e-02
-2.438279986588120715e-02
3.173684077324406133e-02
9.289423784157326003e-02
7.107928789946672821e-02
7.712414601754830068e-02
4.104215271222014239e-02
-1.972191213980808294e-02
-3.192020312310507590e-02
-1.897949550423137233e-01
-8.110442658464853127e-02
-1.781010323524793992e-01
-1.869578005799576170e-01
1.035341857765241860e-02
6.520841392486250408e-03
3.676934666448700845e-02
-2.518628712990554977e-02
-1.309282724670179088e-01
-4.705148997532797306e-02
-5.903500071908305419e-02
-7.367426410554703264e-02
7.367200489203602765e-02
-8.515358621496553482e-02
-4.974583788980642407e-02
-1.049773201645042842e-01
-7.313948176777067267e-02
-1.044766640777351208e-01
-1.088815150916910834e-01
9.000212565253589217e-03
-9.180227641021009716e-03
1.705535524640191050e-02
1.009055257300347508e-01
1.115364952001576676e-01
-3.462420546987359654e-02
-5.953617557157889206e-02
-5.632881551393211644e-02
1.575779640258084466e-02
-2.475985496535535943e-02
-5.040306016777523074e-02
-1.568750364661537430e-02
7.980022709037812301e-02
1.498505555225351504e-01
2.806209525324717888e-02
-2.342681568986392307e-02
1.528804393124405525e-01
-1.175684380728100192e-02
-1.688911553413002808e-01
-5.458714604755027927e-02
-3.129474682437402566e-02
7.651033612166823102e-03
5.114505460440555568e-03
-1.155896544917699997e-01
-1.563216975863878505e-02
-9.319008701603945233e-02
-1.588247624292823401e-01
-5.066461016932532167e-03
3.475933608158760825e-04
8.911868334016923021e-02
2.422261803476831732e-01
1.028181767867485941e-01
-7.042718141511428165e-02
1.191353867932973959e-01
-1.273239735361132198e-02
-1.655951402421286522e-01
-5.598161077826344090e-02
7.370649719851271597e-02
-1.408716190892927642e-02
8.698500215206343700e-02
7.468761568627473035e-02
-1.321321997115204594e-01
4.901565828645781248e-02
2.650194438494450980e-02
-6.874229321554387040e-02
1.625896676359853410e-01
-6.373049753006485019e-02
-5.160920620248542895e-02
3.920350100381760701e-04
8.905872435256449726e-02
-2.865082473512036917e-02
8.332301467576043452e-02
-2.569804390493008253e-02
-2.324018129816838012e-03
-1.040225554248055545e-01
9.083040587596530324e-02
-3.874211166480187509e-03
-9.328537372505733838e-02
-1.528278755436148773e-01
-8.457883196736569464e-02
1.257014405277422364e-01
-3.943569245841999082e-02
-7.167881489481996160e-02
1.461710018751753715e-01
4.420973848508218118e-02
7.690372672718517877e-02
-1.114615099723917369e-01
-2.631484287952104342e-03
3.426737100504468475e-02
-8.491444419792125442e-02
-7.255834737545434343e-02
-8.099081689050506572e-02
-8.647495213873708291e-04
-2.818890315594349896e-02
4.006141600010114899e-03
2.390335029321188909e-02
1.474170951165792130e-02
-1.271287604211452926e-01
1.845922513236764734e-02
3.773270584763167845e-02
-2.199748810572644056e-02
-6.578595962613449644e-02
-5.166001604909231659e-02
-4.552711148477562447e-02
7.073679247864156361e-02
1.168579985159442641e-01
1.605254965637768483e-01
7.246958902993196061e-02
7.389221532866502296e-02
-6.785315121740094491e-02
2.360919777461802094e-01
1.984807326965036187e-02
8.380572730730798114e-02
-1.483017366536127368e-01
-1.028846169773282443e-01
-8.050039239096866417e-02
-3.417421325667135273e-02
-4.458801077513581575e-03
1.449804772014816508e-02
2.681441427431623115e-02
1.137112127784092042e-01
1.334458133439997696e-01
-1.142247347043479078e-02
2.055733942784862198e-02
-7.646475210989246707e-02
-1.076249342487997779e-01
1.433317588754781102e-01
-5.822793374697069618e-02
-2.340934383984838163e-01
-6.475856768470023180e-03
-1.348070119417720258e-01
9.398146300922395613e-02
2.452080277787412055e-01
7.588502804171623484e-02
-7.813702150159176907e-02
9.795391043842518672e-04
-2.854776552315853484e-03
-1.690375887577865721e-01
-4.831499892327042328e-02
1.129858727427705475e-02
8.892728573589232799e-02
-1.753429279056177847e-01
2.121175340910221030e-02
3.816051914171394999e-02
-1.402664305857275751e-01
-1.218823568658174983e-01
-1.098619688406864275e-01
4.462272316404201217e-02
7.594339030883753838e-02
4.080913033415943525e-02
3.721137773266290638e-02
2.587356862541394589e-02
-5.566070364718113395e-02
4.655228014452410940e-02
-3.157571460884947556e-02
-7.962083745294351589e-02
-3.793404309306137867e-02
-1.077041953637674493e-01
1.836598743568318703e-01
1.407989806588618442e-01
5.679936297690200975e-02
1.236059346581986768e-01
1.622146516675927186e-01
1.626006111225053452e-02
2.658311662386631316e-02
-1.069630992227677407e-01
-2.728802267964745010e-01
-6.137811504198949220e-02
-9.357153478114731138e-02
1.154040396656151948e-02
6.071700988115733000e-02
-1.249696754326055925e-01
5.187260220155644197e-02
9.936375848181269732e-02
-2.751561036914291700e-02
3.216441826472329381e-03
6.369411206554663474e-02
-4.177725946710268701e-02
-3.556623462326922308e-02
-1.067311413250293106e-01
-8.435495648456377282e-02
-2.629978519901279496e-02
2.897636482591759571e-02
4.313095280488113067e-03
-5.170541141878564478e-02
4.420628229264337433e-02
4.511065938468160341e-02
8.192473443435621672e-02
3.011722497993349346e-02
2.676846645281007187e-02
7.058531513218938014e-02
-5.168914328491513305e-02
-4.022503605774023494e-02
-3.518764792974487382e-02
1.081420426200437220e-02
-1.695796787305180187e-02
5.566788102926977649e-02
8.779654937363350065e-02
-3.136865185164412068e-02
3.245591519685914195e-02
-2.037524030621816126e-02
-7.733347360261236259e-02
-1.911680672858870680e-02
-1.260201782748766042e-01
-1.896410994581794462e-02
-2.741795215966017635e-02
-6.054696251828116382e-02
9.081113968042760221e-02
9.183463975604222451e-02
-3.241119804036692725e-02
1.435317935922434014e-02
-3.324582472242667251e-03
-9.680403588775603196e-02
-4.620790953157003639e-02
7.560727503272886285e-02
-1.560658180760060576e-01
3.229844172707256600e-02
7.463873268379551951e-02
-1.252231811967834674e-01
-5.499116573611653735e-02
-1.432361128482079540e-02
3.441316663163321993e-02
6.292461406244583000e-02
7.849968815080247964e-02
-1.924575482062497803e-02
1.232138780216931878e-01
1.047110653395888352e-01
2.370532102144194339e-02
7.614820620409681884e-02
-5.852803410550879055e-04
-2.097430243358255203e-02
4.586507724988338197e-02
9.321310135009590325e-02
2.211048022162384330e-01
1.923316969884000804e-01
7.817664307611929542e-02
7.188753837607242403e-02
-2.241527978917961725e-02
-2.850855267314294367e-02
-3.848628725839205872e-02
-6.270244919361112057e-02
-7.922511494255528308e-02
-3.671649503836260653e-02
1.201970783529796166e-01
-6.355295887560569179e-02
4.266701124284576901e-02
-2.955945886257286409e-02
-5.321889939914722922e-02
-8.283736880137467992e-03
-5.904983737520387577e-02
-6.976401466285420128e-02
4.745476385820990989e-02
-4.051125513756858448e-02
-9.671101394786764394e-02
7.861242719388113198e-02
5.896789640032448071e-02
5.897631558334833629e-03
5.857364001954031701e-02
6.154763001693199648e-02
3.941718322609988334e-02
-2.530300282009942392e-02
-2.488626494518668495e-03
9.103367655547827189e-03
-4.074863919957320835e-02
4.081864326119525460e-02
4.440097919337151339e-02
4.492124288507535687e-03
-4.202505253469728322e-03
-5.619489179682566650e-03
5.498189723392849643e-03
6.651741287212315640e-03
9.226759669336226377e-03
-7.384323737036448121e-02
-2.478755079296670119e-02
4.168437758124231979e-02
-2.367079075146759706e-03
1.846932846113297569e-02
-4.767338710229445872e-03
6.763699816758951024e-03
-3.609498098473896271e-02
-8.063720073691188484e-02
4.855653418699729107e-02
5.697204204374470282e-02
-6.343598942543973718e-02
-7.075352880799827548e-02
-9.705243672649112308e-02
-1.097840310730720526e-01
-4.332822767905920164e-02
-4.300025222373737854e-02
-4.792682357593449488e-02
-2.411556346037051560e-02
6.047149237977605431e-03
4.480851193084807449e-02
3.155424683030214755e-02
3.660062395641291814e-03
5.457133137660725129e-03
-6.399326308313159350e-02
-2.546805324668402135e-02
2.092207939616515938e-02
-7.500251397864016178e-02
-7.350978729361982988e-02
4.230707733135025128e-02
-2.881795453869465378e-03
3.803447539909533825e-02
-3.075030525473071170e-03
5.468489748427107083e-02
-6.475651214575031678e-02
-3.303736617586312124e-02
6.661336080920499114e-02
-4.412599354711233685e-02
-3.163909423753879374e-02
3.239582319946949368e-02
-1.025189587599435823e-03
2.901257480882587017e-02
-1.386667856465992853e-02
1.057362059528590796e-02
-1.879590174426383140e-02
3.301298682937431339e-02
2.499272917370080546e-02
-8.575140240787067214e-02
-3.272654396034416907e-02
-5.274871416424636514e-03
5.105203661414682570e-02
-3.712619376288154444e-02
-3.578001129147619780e-02
-8.628858195408541445e-03
7.863240199772443886e-03
1.122676716154762111e-02
-1.457174855113379380e-02
-2.968785601609522790e-02
-7.314508476669939752e-02
-5.707980266654765628e-02
-1.989650728615221728e-02
9.150570798376391271e-03
-2.912383348225262500e-02
-2.761113814326700625e-02
-2.281814337186960362e-02
-9.073734222262376525e-02
-6.190478910346011721e-02
-1.215745095846339392e-02
6.398715010436920037e-02
-9.471193459524863967e-02
-6.307558074336025444e-02
-7.664463842068167630e-03
-1.569774939936164184e-03
2.440824845560168530e-02
-3.007711377601614191e-03
6.165613723492786857e-02
4.562662282540196415e-03
-1.402222004983364953e-02
2.952568496240454490e-02
-4.918039749402861038e-02
-7.293731974726563698e-03
4.233360298527173715e-03
4.118227939926518040e-03
4.029718649315348206e-02
-5.951048783920613768e-03
8.921105319323936744e-02
4.207872621019693310e-02
-4.181534538378146176e-02
7.104679804164233670e-02
7.970288297706785291e-03
8.185411400209013921e-02
-1.989017660170754390e-02
-8.857260975537313563e-02
-2.198536624818840310e-02
-8.031261755431173821e-02
-6.971994463688710453e-02
-1.188497507742849665e-02
3.109900579901557841e-03
-4.293461949541946265e-02
-5.483136543939848284e-02
1.069970047476635072e-02
1.169132771800172194e-02
-5.509655432995495122e-02
-3.855092124651780111e-02
-5.283973973895252779e-02
6.513052435803343143e-02
2.711787487606859975e-02
1.606457978408064790e-03
1.431622480889018119e-02
-5.643469522084751389e-02
-5.402328376593686782e-02
-2.135859896875104413e-02
-2.968410828042339702e-02
-9.500077468673507339e-04
4.448954112693861811e-03
-2.813062449038778931e-02
-8.028225437649916252e-02
5.511812195220817945e-02
1.801320184741000627e-02
-3.713221941337590398e-02
-3.062978732494112122e-02
-2.209550810376480906e-02
2.501988457513261779e-02
-6.756888211852284110e-02
-8.384177918108440264e-02
2.119782762730012052e-02
-1.742982072750275113e-02
-4.926681435013866017e-02
4.042673613381877508e-03
-1.745580642213314521e-02
7.185134968511440456e-02
8.779190733890364362e-03
-3.653277727200399810e-02
3.620797392377033547e-02
1.715325702254093254e-02
-1.514053232054767169e-02
2.631279434308590390e-02
6.369955966809856540e-02
2.768472758378088053e-02
-1.046940230222855560e-02
-7.447846934192312029e-02
3.542512273991695743e-02
7.377509303185886963e-03
-2.791321892215329215e-03
-9.336165507509930350e-02
-8.894078327345403268e-02
-5.481208434179701827e-02
-2.793090351141801556e-02
-3.837483547879513932e-03
-1.076568989601003716e-02
-4.634890017060537548e-02
1.798241432801333736e-02
3.343987077306188882e-02
-6.306519851926904729e-02
4.463610010026088093e-02
1.537541953207188505e-01
-7.458206403734816969e-02
-2.355146220808911756e-02
-4.782510090338194797e-02
-3.572607194124562124e-02
-2.602830590529388657e-02
-1.244940719314793949e-02
-1.951436739506389600e-02
-2.460986236702927127e-02
7.946572892050156670e-03
2.073199896599611444e-02
-2.381680484559635033e-02
-5.390145960205358633e-02
-1.148973840608626118e-02
2.312185509840960010e-02
-3.319526429429815739e-02
-1.667144113830864097e-02
-1.957568659893116521e-03
-1.355054039457135283e-02
1.025086638641203862e-02
-5.543822679362647721e-02
-3.780357822843736365e-02
-2.303418735710812890e-02
-8.516558962619011353e-02
-6.157054938237634806e-02
-3.323718801283259000e-02
7.270279414856962302e-03
4.072039157980317237e-02
1.119143611226196267e-02
2.767363935369174938e-02
2.137524791855541922e-02
-4.975047150785330552e-02
3.900912282908829132e-02
2.605290910734300858e-02
2.406947873436059149e-03
1.671376705886627734e-02
4.039268548913908796e-02
-2.036624234998124852e-02
-3.534432564235125140e-02
-2.277889362030286260e-02
9.731469827510505835e-03
2.445063833489084099e-03
9.407759558598002836e-03
-5.428739396788676702e-02
1.347062703447863934e-02
1.510948281634689853e-02
-5.163963409043183933e-02
-9.300990665126247781e-02
-2.406365356989002835e-02
4.613850669330134963e-02
-4.807474290227711777e-02
-1.988539076662414889e-02
5.538239451093809190e-02
1.631933602154604646e-02
-1.519758350906171875e-02
-1.091485641761726424e-02
-1.451319802235589117e-02
-1.617678061882169005e-02
-2.587037088759066086e-02
6.810124631023965367e-04
-8.009907410948043094e-03
-2.398140264115789649e-02
-1.733101678706351970e-02
-4.673031068615927930e-02
-5.976278043553248480e-03
5.057288608705298727e-02
1.108472465865101460e-02
-6.933415540817543243e-02
5.275683077327112357e-03
8.287395565575418621e-02
-6.540010303152811455e-02
-2.886661975352620979e-02
3.260872459703439974e-02
-9.266906811105191100e-02
-1.159244628909930352e-01
-4.245865460514546344e-03
1.255281247232965108e-02
-2.215833525772517229e-02
-6.738753451515722137e-02
5.974920150484096942e-02
-1.400300660089052367e-03
4.095152367580191452e-03
-3.137425466005446667e-02
-6.671084744577007730e-02
-7.390785659878294778e-02
-3.473548525737302217e-02
-3.699863299277134088e-02
-1.589768931398930288e-02
-7.118831903488195834e-02
-2.173334793642222110e-03
-9.489773102038155661e-03
-2.202772906801422209e-02
9.654277173458517686e-03
4.414016532604599780e-02
9.876647538227098858e-03
3.767247143865472270e-02
1.412570527742975507e-02
6.856815366015023283e-02
-5.790966474804236375e-02
-9.203422112185798143e-02
-1.274421635625087312e-01
-5.115304959077464353e-02
6.326971640310266598e-02
-1.975049934190149792e-02
-4.279285127708302300e-02
-4.908734983942600327e-02
4.241870991736126917e-02
9.122559333922725111e-02
3.130025932759057661e-02
-7.483511060872106817e-03
8.035858666261467761e-03
1.424994388342784579e-02
-5.738470377949877327e-02
-9.821042801025842151e-02
-1.322985254471575715e-02
-1.069000088713652728e-02
-5.651032150096511192e-02
6.401995970366231980e-04
-1.140587005943208450e-02
-9.545641423011803905e-02
-7.952180965826238790e-02
-2.481577381322462236e-02
-6.434394757806913279e-02
-6.123066407326050592e-02
-3.541968624773793317e-02
-8.861930946918611732e-03
1.648064363236123597e-02
-8.293682462888514462e-02
-7.510047784574042096e-02
-6.175423393939358935e-02
-5.262004764606626611e-02
-6.004237849031459663e-03
-9.272670476795445357e-03
-8.624313927534188462e-02
-8.001572604250764206e-03
-6.032729003971511877e-02
-1.054167148692682354e-01
-1.966830499204724469e-01
-5.976025406563752196e-02
-6.936494169759649386e-02
-6.546614780167407666e-02
-6.833852213439094159e-02
-6.544446825164069005e-04
-2.818263400889236756e-02
-4.033705000254766970e-02
-1.852848044798226582e-02
-4.743825266567341936e-02
1.211691280744924513e-02
-1.188032822958859369e-01
-9.276966781587606126e-02
-4.488014940007504366e-03
-3.770951461398409227e-02
-2.888888846187492171e-02
-3.204804759684043002e-03
-2.487843615045376715e-04
-7.662937442340978823e-04
-3.230223804552700972e-02
-2.618356080615137985e-02
-6.043953146365115686e-03
-5.796661999845913876e-02
-5.185737667198241779e-02
-5.584197489616302829e-02
-1.177533874182620788e-02
-2.190346709247961710e-02
5.901351865550650416e-02
5.220903284764877306e-02
-2.970977910129862440e-02
3.135286538426412112e-02
5.540166822868591162e-02
-7.050439109910161539e-02
-5.486915029001834809e-02
-2.360670533246217798e-02
1.093208714588333151e-02
-3.515051592614447384e-02
1.059051554021150574e-02
1.996009333506155829e-03
-4.303470630041587863e-02
-4.492896713188175746e-03
-1.187369989104724091e-02
-1.659567095104512793e-02
-8.936620600612154783e-03
-1.126958556433794610e-03
-3.038902205999528469e-02
4.840301232176881518e-02
-4.089145166719924951e-02
-8.031390164884451288e-02
7.137186829458253001e-02
5.033457093351452298e-03
-7.448804593199233326e-02
1.265566180253739756e-03
8.749150301676850844e-03
-1.064051773852690667e-02
-5.260028808795402105e-02
-6.739653301669155938e-02
-3.650592444457129160e-02
-6.056515502218172420e-02
-2.047330557661554418e-02
2.367631949181708134e-02
2.399303452046492452e-03
3.591171953933022104e-02
-5.196464161461611386e-02
-5.269128906314805849e-02
4.451984034601966234e-02
-6.610743740309284189e-02
-7.715803638855218971e-02
-1.601183105023679457e-02
-7.852440275965388849e-02
-4.879268089354216881e-02
-7.168107924205746606e-02
-5.997950828720801514e-02
-4.930240738422841940e-02
-9.235174670443024869e-02
-9.887595059106887851e-02
-1.984992196007060589e-02
8.097811307565884464e-02
-1.025850330495040865e-03
8.632856477111341270e-03
-1.694050998691459808e-02
-8.449153839452687442e-02
-6.721479674103440771e-02
3.111363143894789809e-02
-3.878606306299248185e-02
-9.119492266751315357e-03
3.746400533312547326e-03
9.151102147838234210e-03
8.044362348609467028e-03
-2.510678481165587103e-02
-9.696077279444541286e-03
-1.913335539160638393e-02
-5.968440392995961324e-02
1.584509063716939281e-02
-3.492535044181099835e-02
-6.069355586563091043e-02
-2.951285139693033896e-02
-5.841094622621704341e-02
-2.972706271851575585e-02
2.592668901064346630e-03
1.753610537957837542e-02
-3.300734001136663293e-02
1.514946440339927890e-02
3.906897344208185713e-02
9.976487118126681208e-03
-1.988881870863839357e-02
-4.458630207789610056e-03
-4.584599512463063964e-02
-6.249875539343360126e-02
-5.187408220066466735e-02
-2.124703157144715304e-02
-5.639498422842847969e-02
-4.474097397031629592e-02
3.760242801781328581e-02
1.004992527164100084e-02
2.403004571642853909e-04
-3.185368685156210466e-02
-2.688861111301555154e-02
2.181655086627349097e-02
-7.398588010135685733e-02
-7.948937520152914160e-02
-6.539735772597526919e-02
-9.907468266965133163e-03
7.280548850185099806e-03
1.729314952807805075e-02
-4.707685754315783788e-02
6.622594555274202710e-02
5.919745412754739977e-02
-3.129374537678058371e-02
9.495897027583443881e-04
-5.464017188130591146e-02
-2.127170119217900585e-02
-2.994951487666214565e-02
-2.821344858775237316e-02
-8.062247177902866213e-02
-6.610268969725323351e-02
-8.202431802646435732e-02
-1.059256098964447557e-01
-9.504547938011494168e-02
-1.042800747320474924e-01
-6.733888651998415353e-02
-7.123603839847241284e-03
-2.620214696753538422e-02
-3.659749120854414312e-02
2.472631030753822540e-03
-5.517151519326963897e-03
-6.925916748539740452e-03
-1.542109098627815304e-02
-2.646479349851401514e-02
-2.883352848981928646e-03
-3.338292290249875865e-02
-1.417815328223791770e-02
-2.521874334120250208e-02
-1.832962783179041197e-02
-3.832231798036523501e-02
7.964226116936925018e-03
6.587174578752223557e-03
-2.005917524998777207e-02
3.937804417233769366e-02
6.116149639505061297e-02
8.809368923371764179e-03
-5.233196890947999086e-02
-8.588148954787583333e-02
-3.578532601607022079e-02
5.127798436296579498e-02
1.616437877478522911e-02
6.828906358529344273e-03
1.882895487872696463e-02
2.057991002234876160e-02
4.118107648312240715e-02
1.120969829807131890e-01
-3.472366642177386609e-02
-3.666261718691233434e-02
1.820168207931549265e-01
3.758660684159182558e-02
-4.597269737176777615e-02
-4.921928440279155041e-03
7.096902668406767853e-03
-1.067111338172902213e-01
4.358336151903567657e-02
5.451539700594355831e-02
1.744075890056793338e-02
6.332542937815725803e-02
-5.399374590175601285e-03
4.987994243007980860e-03
6.150279002623545987e-02
-8.295197792835250217e-02
9.606554734929051431e-03
3.664753645600575538e-02
-3.774299332000694701e-02
-3.118559854163730286e-02
2.141162690705748772e-02
1.655197237771106542e-02
-5.287223323451487045e-02
-2.414402017599359684e-02
1.990738519041270263e-02
-8.842951439335770825e-03
3.026745865094049998e-02
8.204942182858517008e-02
1.891158217999457103e-02
2.694642242645417518e-02
1.467919184023037948e-02
-5.546392221401383327e-02
-2.350555705851768793e-03
7.710800713077345381e-02
-2.997776126645658110e-02
1.074980722100827256e-02
4.280526419089993734e-02
1.567020409566269312e-02
4.714018037728746197e-02
-3.196621116988754979e-02
3.034058316067525518e-02
-6.382470722606956373e-03
-6.357919056535731028e-02
-1.782860464849302454e-02
-2.229405814595756055e-02
-2.287639009667279469e-02
-4.629336923194048853e-02
-5.806252119646793802e-02
-9.198031867089559444e-02
-2.299716017146163916e-02
-2.879484206708014457e-02
-2.488283700317244634e-02
5.125247712884617446e-02
7.706044397408497171e-03
7.772055343225291006e-03
-3.399258122125505682e-02
-4.107010070408505936e-02
-1.034877736456123361e-02
-3.395963878459647145e-02
-3.018107992407423681e-02
-2.743039076799716827e-02
-6.769194117791467458e-02
6.490552984030920070e-02
-1.053122825604554252e-02
-4.486127911432603171e-02
-2.829700329062698888e-02
-1.973024656357120696e-02
-1.685185150026240544e-02
-3.416029823495370793e-02
-2.669082365569858811e-02
-3.567714720156117680e-02
-3.881261454640168307e-02
-7.790143979476624181e-02
4.590194179505039523e-02
-8.848139968432607028e-02
-1.061091025772674529e-01
9.880107459607101895e-04
5.947695870418343023e-02
5.468549279246443656e-02
-3.170504060963626886e-02
5.655664873269192205e-02
1.016808584380824582e-01
3.384152651321233329e-01
4.401294012087492852e-02
9.321322438462203985e-02
4.839511079873533295e-02
4.980770455400439223e-02
-8.235929287210940267e-03
-2.894228594915962752e-02
5.094064014279890695e-02
4.419550835376975795e-02
-3.678454917258142803e-02
9.951072347266055884e-02
6.302779893883107831e-02
-2.337536672237633482e-03
3.253258129407088362e-02
1.319713927590905091e-02
4.655750021333044525e-02
4.811109100002449596e-02
1.717530100607066526e-02
-8.427727057001621613e-02
-2.541327961426491713e-02
1.372483603673216312e-01
4.292071956129647065e-02
-4.754724987748509130e-02
1.127748154188159269e-01
1.537117063279537510e-01
4.551135787519931808e-02
5.389177543812749549e-02
-8.809388939624898662e-02
-5.747979950343718586e-02
6.131282129771707667e-02
8.306228783259912707e-02
8.371848409461285501e-02
4.614934513033622926e-02
1.324063734957572382e-02
-8.498972542620063242e-02
-8.599764694258713038e-02
-7.239583542779551295e-02
-1.473956105323951937e-01
-1.315506794060944951e-01
-4.829428601562587436e-02
-2.314744397590152158e-01
-1.705156537653367554e-01
-1.032188830439510208e-01
-1.172897089502071555e-01
-8.458221004926776143e-02
-5.239138364136134568e-02
-1.336038063173909662e-01
-8.513798861384741512e-02
6.278016807632564970e-03
7.254600804111016599e-02
2.667697370666458068e-01
1.961624616312097891e-02
1.982454576462281126e-01
2.120115766936186419e-01
-6.350849927385014693e-02
1.769691054371126671e-01
8.710208653410457524e-02
-5.437077635199376313e-02
-4.808774495962494198e-03
-1.704925726537100950e-01
-3.692106179989977921e-01
-7.488746792077337344e-02
2.915163460398525336e-02
2.331025078392728322e-01
7.847504289950466352e-03
3.068385662356019894e-02
1.889755837292896590e-01
-6.144402565706193198e-02
-3.131327892532052848e-02
1.350196761430952908e-01
-2.196625710355439021e-01
-1.299333312486220249e-01
-9.274934702668025110e-02
4.015771277225430730e-02
-6.966570242246016009e-02
-1.831414418341632544e-01
-3.832948777325416445e-02
-7.022881176003549497e-02
-7.333608056606831516e-02
-9.123682666145854769e-03
-6.432269000965561145e-02
-2.223270113977234008e-01
5.851287632989161935e-02
-4.501685862812011829e-02
-7.454789385072703445e-02
-1.119160681865877943e-01
-8.929068897349878853e-02
2.995542203919750179e-02
1.512829104167266459e-01
1.747470056621437950e-01
-6.337921403268925724e-02
-1.118291230865058050e-01
-1.228836186034363287e-01
-1.505014642310802675e-01
-2.220057141821664415e-02
8.999038201684371463e-02
4.079313151062985421e-02
-8.412721103605582187e-03
-1.043463326686438902e-01
-5.618822650395092350e-02
-2.047182168100366347e-03
-1.117119534904457145e-01
-1.130054423772772348e-01
-2.795336499512987571e-02
-2.219879542618680146e-02
-6.142001406389150514e-02
-4.122468432744271633e-03
4.054902549313907367e-02
-1.158502830795881955e-01
1.247117369847595830e-01
-3.139178830557366739e-02
-1.118903184022002409e-02
7.359498382477552836e-02
-4.604780633187550293e-02
4.614706738905728807e-03
-9.069496008829328049e-02
-1.058516353402242337e-02
-7.217580885108772215e-02
-4.751597374351223396e-02
2.897530512060765562e-02
-5.563345919188233957e-02
-9.343465960700021722e-02
8.364954768940868410e-03
1.873301208135059737e-01
-1.715570564631044570e-01
-2.685193654527481127e-02
6.086518859672643278e-02
-2.050857376347821684e-02
-7.097940343615850856e-02
-2.388253861114709303e-02
5.034184296101469613e-02
-2.516887635961433459e-02
-1.304126810930671676e-01
2.351475479613193975e-01
-1.152730291302125343e-01
-2.189749193280098316e-01
2.270666905312180295e-01
-8.467947767897561484e-02
-3.485244947874512889e-01
1.030594896170049755e-02
-6.744737626708534675e-03
-3.299146054455375232e-01
3.139267678621439350e-02
-1.205847056385283972e-01
1.319179740721314548e-03
1.028257448992043882e-01
-1.762394915966268572e-02
1.314057569056568398e-01
-5.269387414488318350e-02
-3.050846408340373433e-02
1.797968323868639473e-01
-4.095736150310012175e-02
-5.484301188963574408e-02
1.101710922082042160e-01
1.940494866639540933e-02
3.838787225928521479e-02
1.162184274562015618e-01
2.240950846419271017e-02
1.313094585275570436e-01
1.769984608374822466e-01
8.377299803588904303e-02
-2.939068758975933032e-02
-5.641670172384233989e-02
-8.574784172564094142e-02
-1.365734413950787929e-01
-1.470540462657136394e-01
-1.432717551005998069e-01
-6.877633007025592271e-02
-6.369796534735569504e-02
-1.582223448447855896e-01
1.305974915280153359e-01
2.192061504533068250e-01
1.059284743768727950e-02
5.187828768676210761e-02
7.296329670509102937e-03
-3.091367587234812586e-02
-1.615606929266968222e-02
-5.366372022726624558e-02
-1.397854733765885038e-01
-1.807469057364425036e-01
-8.572161377712674002e-02
-3.985334192061283642e-02
-1.988549650582814299e-01
-7.785911904180597108e-03
1.214863196385424920e-01
-4.985566635441007061e-02
1.909538424155406144e-02
-4.449880333612628650e-03
-1.927398080444292158e-02
9.544310401916497599e-02
1.943504651349673429e-01
3.869795523373687623e-02
1.380398447687888330e-01
2.520662870974840764e-01
1.228109118094767860e-01
8.509689234566553129e-02
-2.350405748921761268e-03
1.102285268276593788e-01
1.714734811277798254e-01
-1.291032480172830217e-03
-8.303693221053218276e-02
-1.292981645156645598e-01
-2.003048750004609094e-02
-8.221437683334913149e-02
-2.287974152801243444e-01
-7.218650615800204298e-03
-8.349577915262812455e-02
-2.135271502014057521e-01
1.628660680690819096e-01
-4.696735148663876841e-02
-7.221916993719379452e-02
1.412841140587827449e-01
-2.856105344499872481e-02
-1.081170865087830862e-01
-4.127609020189570987e-02
-3.990531319183718978e-02
2.466997347939583474e-01
8.171497317313314301e-02
-4.967437107196048807e-02
3.547608857924400977e-02
-4.994564198118659620e-02
-1.377863983966350347e-01
-1.261956095032856218e-01
4.652891052173126207e-03
-3.210913626695946488e-02
1.359527714353392890e-02
-1.832408159706993070e-02
-2.382586517728814759e-02
3.674210241382563219e-02
-1.681775442653987707e-01
-7.036171877137183117e-02
-8.228075441430801606e-02
-3.074339258050162987e-03
-9.510741341722828146e-02
8.299499592428998332e-03
-7.628207236619678755e-02
-6.405926680761613035e-02
-1.292846596099255507e-01
-1.182251562930200367e-01
-1.274395922488159583e-01
-1.324610683640002617e-01
-1.427084389893480965e-01
-1.028172962560207765e-01
-5.976936565200467039e-02
1.282146381430104287e-01
9.719498429983665366e-02
3.049584442746674368e-02
7.618510197364872227e-02
1.271614170373017438e-01
-8.307205788880840658e-02
-1.642347418031509096e-03
-1.853001331689326306e-02
-7.770548296941182098e-02
-3.291346163681418968e-02
2.574722362480388362e-03
-1.992111650242447615e-02
6.003545429596632982e-02
1.032646931057867867e-01
1.310444425220416431e-01
-5.604692577368874246e-02
-2.415028015218436894e-02
-8.226768567179262859e-02
3.605817586330520297e-02
2.902137364953891185e-01
2.085353881096859985e-01
6.911466349824393895e-02
1.523456431115491339e-01
1.051984502198728688e-01
-8.909795652207407046e-02
-2.226566086378840570e-01
-2.821234256312704081e-01
-9.815929918637637461e-03
-2.291823535562667324e-01
-6.218182644279721810e-02
1.042389040512448246e-02
-4.248193612748744907e-02
-1.519283479858908603e-02
-4.803323748002615023e-02
1.698541718512203841e-02
-8.578721918763787535e-02
4.304873185201209956e-02
3.195274590457908379e-03
-6.629265836381894803e-03
5.992458483535864112e-03
1.343281926608706593e-02
-1.566792898230711661e-01
-7.749719079883900241e-02
-2.459217165281657735e-01
-2.297739524294417357e-01
-1.195416939830913350e-01
-1.777839164939473138e-01
-8.723164962739311801e-02
1.307594211633358039e-01
6.320858051792838626e-03
4.099303319311554950e-02
5.000403615973372795e-02
-7.937750984093384921e-02
-1.061655759360759649e-01
3.810002068588383937e-03
-8.584816249791420162e-02
-2.309186579635968406e-01
-1.449248977199580346e-01
-1.185688658365941228e-01
-1.079342501162766921e-01
1.060790346908306765e-02
-6.214682999806874636e-02
-5.081027580151437767e-02
-1.512558166034425750e-02
-5.880418490069509035e-02
-4.494764437078831165e-02
-9.020029929927940449e-02
-4.192384428240320329e-03
-1.682416925676591055e-02
1.128839046873034851e-01
3.904207509382503355e-02
-8.941633952112945649e-02
8.326742347376837883e-02
5.505400181051768593e-02
-1.476236528199016962e-01
-1.310258975079407057e-02
2.168042351200100137e-02
-6.891802173200001214e-02
-1.264670451852850930e-01
-4.773566108215720333e-02
1.926648719717711372e-02
2.531732693590533004e-02
-1.165577915217328071e-02
6.494331150681471876e-02
5.039961358769396577e-02
1.092271832988529479e-01
7.338432668027902728e-02
-5.948845715095572514e-03
-5.343558747627635136e-02
-2.814370339508268093e-01
1.333454232237133996e-01
1.692421734625343399e-01
3.306465196431731396e-02
1.492455435365772770e-02
3.444519418432706592e-02
6.692357331305569257e-02
2.653841595845321533e-02
2.549614093423826361e-02
8.012478344571860589e-02
-6.070433806152961131e-02
-2.957600203554367705e-03
1.456729919577709476e-02
-1.038683623923208482e-01
-3.743568432578171790e-02
-3.385670014713656334e-02
-2.515094520486516050e-02
-1.157533256103949193e-01
3.559079304538093069e-02
-1.231332655092865214e-01
-1.187114395173015646e-01
-1.508141544923576050e-01
-2.453105710808948375e-02
-2.795186911681475997e-02
-9.761255081594515798e-03
-1.715069881558705933e-01
-9.840164116594048160e-02
-1.062425118978853472e-01
-1.597150343221062918e-01
-8.076077404254290715e-03
6.740312346949986488e-02
-1.631228163583805374e-02
-1.971551303581240561e-02
6.261093997639645414e-02
5.565258575694812665e-02
-3.820773684792662384e-02
-2.766993967073865246e-01
6.610990597311858230e-02
1.202377135628416860e-01
4.354209869012921202e-02
6.222549122774047314e-02
9.552381683140712121e-02
1.588960328674861588e-01
1.584813385669762154e-01
1.104017967067941752e-01
1.940410154048996180e-02
1.170144834944201497e-02
1.364579938360423461e-01
1.012688166561399178e-01
1.713359960180147260e-02
3.799590044730696836e-02
-1.100037896881363858e-01
-5.140978376781116937e-02
-1.484527635687939162e-01
-8.091471704461293546e-02
-4.886897144824016784e-03
2.979584445444593416e-02
7.502937927954864139e-02
4.932386061293650426e-02
1.069053669184464733e-01
1.494288419390168432e-01
-7.488525802710699342e-02
1.148271733905033461e-02
5.939461421026302063e-02
2.895315125968601737e-03
1.148764824506442461e-01
1.534510196462876841e-01
1.064391956650322796e-01
4.834433655324692214e-02
1.520359446069019793e-01
1.695940570280031132e-02
-2.197937301631470650e-02
-1.974924945345040220e-02
-8.898672843837139579e-02
-8.258199781409414353e-02
-1.862074819076277588e-01
-1.259916918883038361e-01
-8.570914273976965037e-02
-1.245538168202577900e-01
3.644728838303967072e-02
-1.475444875793937259e-02
-3.442751341957664413e-02
8.877088902861043906e-02
-6.416308334735580654e-02
5.343988126090006702e-02
-8.036665049199476218e-02
2.795790432349430296e-02
1.316726371050984390e-01
1.097000359266853964e-01
6.303191502732666263e-02
5.828276307478257728e-02
1.599107488376451669e-01
1.278013169489452538e-01
8.376801931346228303e-02
-1.878209627511840882e-02
-1.738643211460351792e-02
-4.706018155940104586e-02
5.249949719656344348e-03
-4.145540821106483143e-02
-1.022469983023523155e-01
1.282657080102393016e-02
8.232329809822461208e-02
4.804991830020091670e-02
2.351553665909577803e-02
8.723938102438676123e-02
1.178981178771046634e-01
8.584701231933929144e-02
4.471526306691640112e-02
4.708948365093214988e-02
-8.996827984934117894e-02
-2.268638197079729524e-02
-6.042566530085659478e-03
-4.083918388536764144e-02
-5.819272929290957019e-02
-9.226771944095614464e-02
2.714700258147887402e-01
1.668354797188097705e-01
1.062684813793040722e-01
1.165977376113398051e-01
4.068856703173261841e-02
9.185049216291045482e-02
-5.163666618422665944e-02
-8.416386490103409945e-02
6.442097535355194304e-02
3.584740887029311870e-03
1.873902757991410817e-01
4.396581833852957616e-02
-6.830777768872457745e-02
2.472833114946572375e-02
-9.746589658596777062e-02
-1.381495478966281686e-02
-1.303684767580621240e-01
-1.637855453762326052e-01
-1.558796313997092842e-01
-1.677842704254270054e-02
3.081541960600003849e-02
-7.544521729695609705e-03
2.277669231246247372e-03
8.064885455935982828e-02
1.619835192481983988e-01
1.213501010175452588e-01
-5.611797514739848801e-03
-7.258060386184064794e-02
-2.066213100340822950e-01
-6.901260453475355217e-02
-1.358015197219009651e-01
3.692340415795259886e-03
-6.787721997022932996e-02
-1.245495553440210124e-01
7.728076983811320300e-02
-3.576119717059456776e-02
1.737605853772628550e-01
1.545767149255699580e-01
1.325235883235590349e-02
-7.487005046937647568e-02
-1.143073960614858497e-01
-9.236099698487747200e-02
-1.505344995567217403e-01
-2.160203367277952202e-01
-1.471704663071968233e-01
1.117402620990785439e-01
-5.064042091887864527e-02
-1.855638019147128337e-01
3.214765271044456481e-03
-6.057839673841654282e-02
-7.247134982057973351e-02
-1.422714583635300567e-01
-6.172453676495157776e-02
-1.469067749455457705e-01
2.474124901181412595e-02
-1.419672038220815558e-01
-1.095185726406237431e-01
3.694387798275359375e-02
5.276123390080490055e-02
8.197553062125145784e-02
3.780491587961545275e-01
2.572974511055567959e-01
-1.247494376414745414e-02
9.159822181604108937e-02
1.342347148049503336e-01
1.002292070738471375e-01
1.010878056874953690e-01
1.218141851491634370e-01
5.213572414470244581e-02
-3.637517606339974591e-02
-4.708686667159037859e-02
-1.423047618487831290e-01
-1.607721550501181040e-01
-1.106530687245072531e-01
-6.264815923814609500e-02
-4.356756577613107861e-02
-6.467932290800386397e-02
4.814951536460682774e-02
1.058031275280793271e-01
8.432112920528109234e-02
2.176886642890131507e-02
-3.374300079491720505e-01
-1.609722731987962840e-01
-8.420953926764473962e-02
-1.742028419626674152e-01
-1.152482065965300256e-01
-4.840631211648584870e-02
-1.613642708574840670e-02
-9.801909047959260490e-02
-5.529652794788731535e-02
2.145660393066698562e-02
-1.974219685566626359e-01
-2.180303707125972046e-01
-5.844457316907138156e-02
3.806940848926249760e-02
-1.368850784029420481e-02
-7.056351049449326174e-02
1.308817051770477802e-01
-3.432195868861984134e-02
-9.852521105345247998e-02
-4.433759740867317112e-02
4.642023480059649654e-02
-1.063411494031992754e-01
-5.310660732630614889e-02
-5.096386987300549620e-02
-1.523611026746977404e-01
-4.346369431213361473e-02
-1.285487327106325101e-02
1.274094097537408765e-01
1.256031706120503029e-02
-1.316373757315970547e-02
1.054416192941425162e-01
2.499075246842634088e-02
-7.624100194472444025e-02
-1.507469272008223407e-02
5.692359123731127908e-03
3.258329899988215376e-03
2.939224485400961928e-01
-4.751872641807913106e-02
-5.761534934082485765e-02
1.417608146154992199e-01
-6.444402738763038707e-02
-3.815541987696205450e-02
4.107786209385326515e-02
9.744207884311896495e-02
2.378042989274082308e-01
2.170896948617462019e-01
1.810595830667055262e-01
-3.243128000786387605e-02
6.602978178165938572e-02
1.388545036225193596e-01
-6.258696039965240543e-02
6.911905762398780351e-02
1.017538670266261019e-01
1.001095209245209117e-01
1.450897394111712660e-02
-7.567037091295548967e-02
-2.610487199009574044e-01
9.207302714193263404e-02
3.970428032168153709e-02
-3.041172263665204989e-01
6.518942718452166996e-02
-2.985152880876369361e-02
-1.498101395512382306e-01
6.003089200638506151e-02
-4.944003889899161591e-02
-7.762692250495939472e-02
-1.894204524091209346e-02
-2.462597999197053619e-02
-5.163359696855904929e-02
1.309601411067103614e-02
1.939664900041029177e-02
-5.205669783845328497e-02
-2.190326803315614523e-01
-1.193433648770675787e-01
1.791697320971563090e-01
-1.627929153556428310e-01
-1.376017157476468189e-01
9.034483965015882578e-02
2.418489947144136232e-01
8.642615851743382094e-02
3.965993218620179200e-02
8.479445200955981754e-02
-4.943065780342181803e-02
-1.786554589981458330e-01
1.435422561727321411e-01
-5.667181184886208728e-02
-1.330767817049943458e-01
1.131223650652763146e-01
-6.111518012963349650e-02
-1.361874960269882362e-01
6.571708798648576155e-02
1.555072003237055467e-01
5.462590665187477823e-02
-2.576353721245177100e-02
9.393401488750821593e-02
2.459545465196499858e-02
-5.319260859371272715e-02
1.406330773323068162e-01
-2.283406678372455062e-02
1.412880950363223087e-01
-7.160404629813640898e-02
-2.195761328009094432e-02
8.279911457998322122e-02
-1.281304151688035242e-01
2.716669494053656347e-02
8.580027323132559391e-02
-2.499380220061603319e-01
-1.360818530588599751e-01
7.745500148624895158e-03
3.427980344828132631e-02
6.643676231715776870e-02
7.844876219375700177e-02
-4.148179603670670151e-02
2.513589277528906901e-02
7.514123893484264682e-02
1.115250746887969935e-01
-3.937405605412264836e-02
-1.382896909275563302e-01
-3.528653554719451968e-02
5.620189314565540717e-02
-9.612681545786713744e-02
-6.601845372531402190e-02
1.025660126036520431e-01
-2.467662914359375782e-03
2.328899545404028437e-01
3.188422033980562453e-01
-6.971164111637999372e-02
-1.127581926255445330e-02
-1.848242821392487856e-01
-1.742290687161634211e-01
-1.063242291106547416e-01
-1.017035465420148277e-01
3.585943032048961865e-02
-3.937963243775880612e-02
5.457521993830732887e-02
4.660038095699971933e-02
8.417663315097355381e-02
-8.090149454830378173e-02
-1.025932293624039204e-01
-1.052140326363782408e-01
-1.660827438086659447e-01
-2.749090929701972219e-01
-1.997957562995884839e-01
-1.097514435048369263e-01
1.538724888602936540e-02
4.092289308763481792e-02
-4.048476744005121558e-02
-1.234510858845828396e-01
-1.646852735849689553e-01
-1.359691296642455693e-01
-1.386648408454874137e-01
-1.055361670002000068e-01
-6.267930330936356820e-02
-3.845264434643186346e-02
-4.878479895347279799e-02
8.637383159896863671e-02
1.573433846654456389e-02
-6.027179866582377601e-03
7.055598667009144696e-03
-1.398529564428933024e-02
4.288224304448337576e-02
2.540070135190192757e-01
-1.170003102694910646e-01
-5.591907361678744026e-02
-8.555062402936889146e-03
7.894746273672485076e-03
1.785602175584054263e-01
1.147632742494850699e-01
1.174093348007875931e-01
1.104214828563797463e-01
7.024329600507982219e-02
4.279312107148935257e-02
-2.156264067212838170e-02
-1.668571928445017061e-01
2.374971304599324262e-02
-7.585967685151731588e-02
-2.451825390101887783e-02
2.374827943178871581e-01
-9.813253250469745892e-02
-5.366886900516912252e-05
1.128578820255134035e-01
2.209589382155492318e-02
5.358832054594408340e-02
1.459344762351350543e-02
1.538917863091384119e-01
-9.616621480719544923e-02
1.791707744411084879e-02
-8.351256614856224225e-02
-1.383111450580319091e-01
-5.772978783018203885e-02
8.134432169923934419e-02
1.041786595549947098e-01
-2.563844028737779709e-02
4.042290917823933988e-02
1.422404562209721342e-02
-5.938815079780658535e-02
-1.611816206342921998e-01
-9.677249588858109763e-02
1.467057481565219382e-02
7.184552264706250968e-02
4.834389059185464216e-02
-2.431299196156715137e-02
-9.943980084950398979e-03
-6.554622183237558686e-02
2.651977496566323284e-02
5.268487440315915843e-02
-6.439968417706294634e-02
8.879662708396937609e-02
7.969340851721910812e-02
-6.084856231937387644e-02
-1.125723110842310609e-01
-1.420920552396695846e-01
-1.000289912462679932e-02
-6.049234362133139309e-02
-9.197884995727854951e-02
-7.393527828376861288e-02
-1.728960203569715470e-01
-1.641292754262503595e-01
-1.767673139668967386e-01
-5.672181931727149351e-02
-1.948257413893470236e-01
-2.195999908958153335e-01
1.160840617640500061e-01
-2.175670257886129846e-02
-9.181545549990681454e-02
-7.617938533977466897e-02
-9.263899486668053518e-02
4.927740820115241588e-02
8.479146896515607533e-04
3.268143629606758832e-02
6.083415418360218346e-02
2.016117229248503076e-02
1.432222158873008022e-01
1.337478915719475248e-01
-8.900609126593107823e-02
-9.398712121631604133e-02
-6.693378509328364034e-02
4.628697035472382343e-02
8.185911753530691892e-02
8.606073401289458802e-02
2.120916556109521053e-02
9.557366574658546221e-02
3.983435889960813131e-02
-1.132254413005493315e-01
5.638574321181879373e-02
-2.834430571420799849e-02
9.912434312126790215e-02
5.826255392639848041e-02
1.104799261114293302e-01
3.430229992270911882e-02
-1.528210987398608556e-01
-4.865251517640408613e-02
-8.939067549218627368e-03
1.313054887520621883e-01
1.399458690420918860e-01
-2.990938860161299236e-03
4.744829176525038050e-02
4.403318796791822615e-02
-1.555198336576126862e-02
1.958202126436332791e-03
-5.511279396338436554e-02
2.895583920746088585e-02
-1.314878864230489552e-01
-8.010095874220488077e-02
-2.123732606369568565e-01
6.856518171511781501e-02
1.027983394889977198e-01
-1.617417099147691328e-01
-1.887516964240057438e-01
-8.237576955745153084e-02
1.955618396801307377e-02
1.050885726125101172e-01
1.228740561672611448e-01
2.019278004251660874e-02
-9.280396066538560904e-03
7.536994422273279870e-02
-1.064427714764617366e-01
3.697619230960017683e-02
-4.114737578696184978e-02
8.049639837034060913e-03
3.607886719864263764e-02
2.433313768431895896e-01
3.534308818438484934e-02
-3.065913565086265252e-02
1.350766328282017870e-01
-9.583704696931784339e-02
-2.706074521653046433e-02
-3.144255573104377810e-02
-2.038649794444367946e-01
-2.028184598561049712e-01
-1.663027002937140508e-01
-4.574954970758569883e-02
-1.541397076616608519e-01
-7.946552959210187450e-02
1.059049595590712961e-02
-7.272997183655646042e-03
1.524759952471464904e-02
-4.993077004946006037e-02
-1.197243681979734548e-01
-7.196679451414973727e-02
7.217208305997861728e-02
-2.302464231600113639e-02
-6.158462930853737805e-02
7.004569826733067495e-02
4.684056767917415404e-02
-1.703786188551201924e-02
-8.941769818089297106e-02
-1.637374605257321813e-01
-8.503853265328539801e-02
3.762755867962095380e-01
-1.014959980192085137e-01
-1.033323451293735457e-01
1.037528323139822461e-01
-1.125439925084486398e-02
-6.603022626466603651e-02
-9.249737381631029098e-02
-8.655693355640955988e-02
-9.983879321153084352e-02
-1.145264305403465160e-01
-7.723885440837749417e-02
3.931973052720856565e-02
-1.505227491062342271e-01
6.588919055459327608e-03
8.739847448495234594e-02
-1.482965590976227099e-01
-5.166348375551278044e-02
-9.505012110767586953e-02
-5.438286209177734670e-02
2.165917173862046824e-02
-4.309439290545706569e-02
4.996394663669536523e-02
-9.636053839547312205e-02
5.206493642488629198e-02
-1.888074915619875616e-01
-1.389235518664879918e-02
7.660601390226388918e-02
-1.819356277711794978e-02
-4.776805033610003609e-02
4.232568771692545723e-02
-1.058663364899235931e-01
3.175481756385884619e-02
-6.599584456505357133e-02
-3.706250809234450799e-02
-8.454315634238131205e-02
1.570682434240092823e-02
2.354342441339941222e-02
-4.340985376385515793e-02
5.251092503946064999e-02
-4.111217398490050329e-02
1.449020235949148930e-02
5.502853626216726995e-02
-6.010613797115055973e-02
-3.897561303553003648e-02
9.434236956413276365e-02
2.962462336403424556e-03
-7.334334273491428802e-02
-3.059109531906401003e-02
1.892863437475953564e-02
-3.496083905899555894e-02
-2.354256299281188777e-02
-3.245984273628374495e-02
-3.340049554990294489e-02
5.832161695352773567e-02
-1.576928609945000004e-01
2.281512492128509942e-02
1.061465892859362881e-01
-6.915264739260956750e-02
1.437380415466725236e-01
1.659073514402768512e-01
5.840420314822689085e-02
-1.359629569847448788e-02
-2.692006321476580685e-02
2.677245729461597435e-03
1.236176511960794117e-01
2.622917698417900120e-03
-6.619196799649193497e-02
1.132505577205867031e-01
2.962186569129584765e-02
-4.709947590038191662e-02
3.949614958873975262e-02
5.727156654243892309e-02
2.194057330409400486e-02
2.890932186970224249e-02
2.301115131770090083e-01
2.609598232996286973e-02
1.485842209871334960e-02
1.087494222997617555e-01
9.512705109960738203e-02
1.288033499202135938e-02
-4.565299359979746452e-02
4.362855192377179669e-02
-1.859816438948217864e-03
-2.420525491504842142e-02
-2.590798792928683883e-02
-8.599100026344386888e-03
3.377812612123377856e-02
-1.259187804135785960e-01
-3.220174522703879438e-02
-2.402667698077299088e-02
-7.880049223946479497e-02
-9.558765757080868453e-02
-4.471457415677853459e-02
-1.829867862596229119e-02
-1.263437312092258527e-02
-8.023651666874506705e-03
-3.710830549283886809e-02
-7.192875991546153480e-02
-5.563759066710141643e-02
-2.085471196141502111e-03
4.825403929111028722e-02
-3.310325379953420882e-02
-1.476223628909191857e-02
7.307243347252714849e-02
-4.630998956620872159e-02
-8.358511391366768573e-02
-1.649401877194409949e-01
-1.011122307652401742e-01
-2.202118436655941258e-01
-1.765080520373808748e-01
-4.150061770092463437e-02
-2.284462482021334118e-01
-3.220504754796843505e-02
3.411847489784188281e-01
-1.254725445162047648e-01
4.354219075367818381e-02
8.405747414324889200e-02
-5.376985116205167808e-02
-1.909394574335146824e-02
-1.648817225532572817e-02
-1.016972862179776060e-01
-9.998603290272449484e-02
-1.130409558114961605e-01
-1.563292027809281004e-01
-1.287269551859872574e-01
-1.172527171441861832e-01
-1.189433708631947584e-01
-4.957572516217455261e-02
1.454340979253252175e-01
-1.496958354248044409e-01
-1.225381428302334264e-01
-1.378955628373063763e-02
-1.261952175420906208e-01
-2.004715081968152790e-01
-2.845621526669754320e-01
-1.355996922919984748e-01
-2.454974802616917071e-02
-4.757247155285289353e-02
-1.415200713435219027e-03
4.083638793008835532e-02
-2.442738154142404250e-02
-2.121014373672602815e-02
3.571795325757223111e-02
1.543755121570092037e-01
4.349005477509612985e-03
7.344697300886458835e-02
1.809643165856689856e-02
2.695182183860667796e-02
1.518040809285545190e-01
1.447551876946216454e-01
-1.409541505712043064e-01
-3.123768975708740570e-02
-1.035528024403446490e-01
1.426901822489967386e-01
-8.304577760737416256e-03
-4.791002196461636303e-02
-9.896027254890014946e-02
5.939563188503106661e-02
2.109267501649142538e-03
1.152331804320436554e-01
5.017069070786291107e-02
-1.696864336072956281e-02
1.037994592074115499e-02
9.051791569865413889e-02
-3.612865868587276236e-02
-4.804501020166915964e-02
-7.126649588637294641e-02
-7.147822630563614721e-02
-2.431130480423911513e-02
2.181915118922989061e-02
7.034199001352677005e-02
-1.031543954186152495e-01
-1.374391852149922308e-02
4.204037657909066167e-02
-7.739182542622724537e-02
-1.804557622926665147e-02
1.616137395009620845e-03
1.540822441473231053e-01
6.280509826056769607e-02
1.742151144538844204e-02
6.335174349517468106e-02
4.342084689286453830e-02
4.685090347415962059e-02
-6.393814491758011143e-02
-1.017348982447932870e-01
-4.201011730285671153e-02
1.308027409096042815e-01
-6.041993671351677392e-02
-1.123732546909812363e-01
7.583015316335772749e-02
-8.456328641432303561e-02
1.772984179470812882e-02
-7.801468071550145267e-02
-1.027938320556909257e-01
-5.248963680757204320e-02
7.430068713749776038e-03
-2.126409646134369211e-02
-1.579005628952452334e-01
3.135705848566731208e-02
3.756286136085818655e-02
-1.746962109656595707e-01
2.302220704995064926e-01
1.320698398852258870e-01
-5.643919698861069728e-02
-2.296945536849952924e-02
-7.724737783955418213e-02
-3.295912235922503122e-03
9.888192146341218125e-02
-4.779756150361153672e-02
2.448365465514610803e-02
1.161133444297341305e-01
-7.308167058064407584e-02
-4.319688536551360286e-02
-8.087002702953063893e-02
9.608023551686812810e-03
-2.289357742402246820e-02
-1.144873817691642870e-01
-9.123441604503927660e-02
-2.575857121040923264e-02
-1.742679922808648696e-02
-1.024904160607404552e-01
-3.480006454723340303e-02
7.592388273484315664e-02
5.113137499332025271e-02
-6.798125312070710247e-02
1.516663350187633097e-01
1.049792078817416985e-01
-5.708418252335652199e-02
5.129763354893901450e-02
-7.385916839428598168e-02
-3.422375476717599840e-02
4.468305968557510777e-03
-5.928083632316036994e-02
-9.733847613397707266e-02
-3.079637916964986233e-02
1.032403903597526760e-03
3.582506583676824397e-01
-2.734784805910471239e-01
-3.857134009017776366e-01
4.101329216673244016e-02
-3.516392084060131901e-02
-1.292883685249980596e-02
-1.036940729125687966e-01
-8.181252507365982529e-02
-4.298481219350937244e-02
6.925048373666341239e-02
2.136218040121321271e-01
2.506578340639611935e-02
-1.324298930317411860e-01
-5.638076938437121266e-02
-9.934145115887908772e-02
-1.987979795942105415e-02
-1.851856436934878614e-01
-9.389358884503778979e-02
-1.204068843753224871e-01
-1.858931291732593971e-01
-1.263980082186286213e-01
-2.674501829436078809e-02
-4.357112910154029017e-02
-1.130500395416741966e-01
-8.326757775785124938e-02
1.779668953477768489e-01
-5.143541076035040155e-02
-6.797161535185178294e-02
3.287311802760155277e-02
-1.191929512015870406e-02
-3.854450364611116536e-02
-1.695001388845957316e-02
1.198482537503462175e-01
-8.689869716625008705e-03
-8.942094102874425382e-03
5.197047752565051720e-02
-1.211150459700900336e-02
-6.391078417137539824e-02
1.060816603351841525e-01
2.222370584916383979e-02
6.279029572438166173e-02
-1.433257992088208532e-01
-9.171065767552355474e-02
1.622573008119894411e-01
-3.368737959415209204e-02
-7.419923232615038833e-02
-1.020433381497836203e-03
-1.033962129552013776e-01
-5.796946120578540945e-02
8.034033162225447111e-02
3.801292544638078946e-02
-4.970574896226583050e-02
2.450604783422728056e-03
-2.510152516140567655e-02
-8.552577367310308654e-02
-4.498762758014842461e-02
-3.479592021272075175e-02
-1.104099137775589462e-01
7.340107231302360306e-03
1.735162525704741707e-02
3.074707129245161930e-02
4.058538962830163244e-02
5.563640746585838542e-02
6.202658001410772670e-02
-1.410887757094629325e-01
-7.222959665690866296e-03
8.082576966874943647e-02
-2.520514760995093764e-02
-3.736467828281156422e-02
2.127058528720828512e-01
-2.188957670448671844e-01
-1.678365454162380754e-01
-1.418292437064245792e-01
-2.335640818835419685e-01
-1.246263427764162657e-01
2.044901667044148608e-01
-5.345260809506950303e-03
-5.729902238954732996e-02
-1.109096153495105902e-01
-4.043687756623806639e-02
-4.532963031899210626e-02
2.728714812254081842e-02
-6.995780353168225274e-02
2.185372201099471459e-02
-9.421889260381666881e-03
1.827814540997109438e-02
-5.123736071578278289e-02
-9.040507793768159939e-02
3.496720908563823865e-02
-2.999406513818412418e-02
-5.817101893241061195e-02
-1.247254033885509122e-01
-1.168674016766648727e-01
-7.466969256161186397e-02
-4.381088029524667776e-02
1.197579893483537161e-02
-1.312945366350234781e-02
-1.972811459296564332e-02
-2.118584596559397112e-02
-2.558946943496248627e-02
-4.468685515631215521e-02
-1.571123477353441114e-02
-9.624460456155678814e-03
5.546562769666905229e-02
-4.121268881864541961e-02
-6.918386304538259868e-02
-2.346151140637563193e-02
-9.892192489696817470e-02
-1.120372592159326469e-03
-1.280194649730462819e-01
-9.041101640478121926e-02
-5.793107632181795918e-02
-1.825243766515166274e-02
-3.809193105470690122e-02
-5.458100779490639154e-02
5.749060577466197537e-03
5.729593633112323864e-02
4.876414049228537662e-02
5.059285434959662209e-02
1.175085193374371534e-01
9.421214185101396688e-02
-4.500996296432450972e-02
-9.668884486707228498e-02
2.158138205942551971e-02
2.082861274933710954e-02
-1.044646363660814287e-01
-8.893214835456225015e-03
2.849579004576157856e-02
-5.080913404269962741e-02
-6.034931044844495628e-03
-3.435894195226758124e-02
8.674371581219221137e-04
6.544880716194582948e-02
-5.702826623828725905e-02
-7.732613809532530580e-03
1.646179146754741737e-02
-3.546780445601411397e-02
-6.661063288890063661e-02
-5.751928353709077207e-02
-1.009373029497211000e-01
-5.163044740755211304e-02
-8.592326804909283799e-02
1.577696875883914662e-02
-2.612829554943362290e-02
1.014246586903842480e-03
1.397370704293111054e-01
-2.071029816188888623e-02
5.523563636999881442e-04
-3.004621450757018544e-02
4.056616271503536708e-02
7.681672048679193988e-03
-2.447613308737248399e-03
-6.437636422471335051e-02
-4.731547755251606924e-02
-4.274944398610298554e-03
-8.838722225672233923e-02
-5.625952720310178901e-02
1.560044088537580580e-02
3.439616910012736201e-02
-7.371692533922198122e-03
-5.492477557229754476e-02
-6.421711859204877471e-02
9.569672726353693759e-03
5.086958660281515159e-03
-4.097052104702442188e-02
-2.085644059120399241e-02
-2.485532781187603166e-02
-9.674514661588264064e-02
-2.453687104516747569e-02
2.757442597682745883e-02
1.077410581786191757e-01
-5.151593864520311039e-02
-1.858012751722662101e-02
9.489934496454324742e-02
1.676054795377734941e-02
4.187966319555334882e-02
5.059314288351431793e-02
-6.906884778055850937e-02
9.669426585486300130e-02
9.750500382438412328e-02
-8.547763211756234658e-02
4.793201337799560952e-02
4.256929062123897614e-03
-1.012713185943178162e-01
-3.241001137901804857e-02
-6.056253544550621766e-03
-4.190078889631018016e-02
-1.177834027782156436e-02
7.717348640355164990e-02
1.196631698896495231e-03
-3.335797545254971103e-02
-2.086643891869994702e-02
1.156152836508993545e-02
4.476603105869583765e-02
-4.784107815034653599e-02
-1.398933962241780821e-02
-4.290523191611251425e-02
3.426483912400027365e-02
-2.211295405485708479e-02
-7.723311570113026298e-03
1.573925235781456142e-02
-5.705462318442151848e-02
-1.520800653115953090e-02
-3.290844588124940823e-02
-5.418529136737628218e-03
3.562442976163261721e-02
1.017802046104701943e-02
-8.743123411766421521e-03
6.133668449164855589e-03
-3.300771566201030766e-02
4.336989697313912984e-02
-5.422817315277534897e-03
6.269819450708126463e-02
4.666318704302848536e-02
-1.061267579526605775e-01
-7.068645046537946897e-02
-9.501015767013126431e-03
9.725933601089189681e-03
-5.040822400465091307e-02
1.245410145339493659e-03
-4.661973446227049567e-02
-6.003180239380274952e-02
4.185065299187155224e-02
-2.641767625145741497e-02
-3.846384813838411160e-02
-3.495820494566305447e-02
-4.327706432135735443e-02
1.219263264442274099e-02
3.689720462053869970e-02
-1.023581176620749940e-02
-4.848198568315702922e-02
-5.694329299952457374e-02
-2.580410103487254178e-02
-2.324994861557937859e-02
-3.896117084416084869e-02
6.748792183378694159e-03
2.219305201128210850e-02
-7.069827408352869630e-03
1.380639657364299278e-02
-9.342038282717719799e-02
-9.038249702238332350e-02
6.339178613789701877e-02
-5.828647013434948981e-02
-4.218818906388802775e-02
4.282406136621082215e-02
1.556405738560146836e-02
-2.200414697362090138e-02
-5.992675409409225357e-02
9.367328907851782752e-03
-2.397924631871053633e-02
3.550431497343699977e-02
1.007329299850805854e-01
9.281841326018416827e-02
9.262628730585471815e-02
8.451157822188620772e-02
-2.371712109507557315e-02
-2.713319332378015362e-03
1.542467746998245869e-02
5.836113612614998031e-02
-3.035600271179479323e-02
5.163575862700456320e-02
2.749102869777830457e-02
-2.163558723297519248e-02
5.216697936375370992e-02
-4.283283185643743662e-02
-4.615915749178434169e-02
3.634551679306226302e-02
2.074795183814874891e-02
3.759140781781045854e-02
5.906697006291945773e-02
1.081856136760773676e-02
2.959210446032639608e-02
-2.628848362168807132e-03
-1.017283092763812506e-02
-7.318033536261302208e-02
-3.334078729889801418e-02
2.924541684513765061e-02
8.651935716939361531e-02
5.731037870819941787e-02
-2.782661873396941737e-02
4.117283350314397683e-02
6.219072136625412167e-02
1.552509040958033326e-02
7.179549643906280032e-02
5.117498720974777288e-02
3.865922166740679705e-02
1.329609235056034011e-01
4.435442017578632851e-02
1.144092181473893577e-02
3.146694454149170928e-02
-5.040065312554951882e-02
-4.848465932625310726e-02
6.583937859065000509e-02
-5.336266391870297249e-02
-9.414461550555741631e-02
-5.919959530543796727e-02
-5.659595147866364889e-02
1.144312815833787161e-01
-1.265491416039009505e-02
-5.239148070539204755e-02
-3.472546784241731938e-02
-3.052508829192441403e-02
-3.136224122798716291e-02
-5.761329227821100629e-02
1.204665957197237174e-02
2.014525623200410717e-02
2.442559574443966403e-02
-8.843442734652954759e-03
8.875307228753226418e-02
5.770861353503294044e-02
1.792422876564866985e-02
-2.626806671077255503e-02
-5.371886217634198879e-02
2.870972069642591107e-02
-3.520127438577686819e-03
-1.097630850564321192e-01
5.091828140578439493e-02
7.025096340078028356e-02
-4.279429689723329017e-02
-4.023454629268909816e-02
-3.645021540220944826e-03
2.461720265134106651e-03
-3.041735223604577487e-02
-3.048624911761138589e-02
6.453953956388747137e-02
-4.437318899350889412e-02
-1.313810497667599643e-02
3.292883299790168306e-02
-5.023203327679792718e-02
-2.014813059434728340e-02
3.815644974769524106e-02
1.313298663587505466e-01
2.559981745302174552e-02
-1.248073140906762538e-02
8.004285899169394369e-02
1.999499905812354011e-02
-6.860406668271716579e-02
-7.890093269634575190e-02
-1.996769967239940286e-03
-2.720989473419573035e-02
-8.457579897224212773e-02
-1.533535818908441650e-01
6.201266614476991235e-02
8.276552305951956345e-02
-6.354732160072855407e-02
-2.905555055045714805e-02
1.801972565181181362e-03
1.730170115701950076e-02
-4.443314445986404349e-02
-5.864341324856952448e-02
-6.082896201988167995e-02
3.403115330868818761e-02
-7.855354726814951782e-02
-5.545712378669249293e-02
-4.202028898181156547e-02
-3.718919937713209556e-02
2.052215209388075917e-02
4.726517542745094051e-03
-3.838391169822823884e-02
8.055096408452561141e-02
8.239365145129677603e-02
-2.706763026345927661e-03
-1.688130253457308452e-02
-1.903430656171160168e-02
-3.945029228695078743e-02
-1.749182932759269296e-02
-3.285621183343097503e-03
3.386301957686316255e-02
6.782355107295601204e-02
-1.559604387936911352e-03
-1.376696308218427166e-02
7.557151786633650725e-02
-2.564823940326447019e-02
-3.979048632087216208e-02
-4.855987572786400058e-02
-5.801845662342667437e-02
-4.430485506670662349e-02
-4.155615551716593248e-02
-3.373565066962797704e-02
-8.232264074516019992e-02
-6.489729182757236758e-02
-4.987350165791141869e-03
-7.861261831532215250e-02
-3.007033531584226566e-02
-1.986519486189820133e-03
-1.062035487458658743e-03
-4.181670321296824394e-02
-4.628515272667221153e-02
4.634088681636187174e-02
7.751790651849586183e-03
-6.344710624413954503e-02
-4.509047019983931232e-02
-5.628246094520159004e-02
-8.458682284964121056e-02
1.603677473429868106e-02
-1.810899240071940641e-02
9.930133915814823992e-03
4.473070133496875184e-02
2.288423657925183971e-02
-1.432468189578829133e-02
3.648159346575934048e-02
6.925400501352785287e-02
9.915958275800600130e-03
3.313756062933270741e-02
8.230845553961934138e-03
-4.897824363605268738e-02
3.464310709010511719e-02
-1.927091691917863850e-02
-1.301150131157036427e-01
2.415909703658478125e-02
-2.017472354240879007e-02
-5.714707478325763146e-02
-2.381133055544289775e-03
-5.595054187586556704e-02
-3.797072485560520211e-02
3.587549660924789496e-02
9.642417772234715759e-04
-3.987865538639719099e-02
-2.981183715172708651e-02
5.185159140615894918e-02
2.736609351141415861e-02
-1.374479771845225559e-02
4.501320426654128320e-02
4.405004041439947865e-02
-2.518179139480076698e-02
1.211018360700419870e-02
5.430251140768018641e-04
-8.181484300367565174e-03
1.040628717031134506e-02
-1.589571771528304131e-02
-1.953145677438536745e-02
2.046028195408261877e-02
-9.724908678433707640e-03
2.640008509119242189e-02
1.686548962138782054e-02
-8.790947281377567424e-02
1.795482904211605918e-02
1.690358707535806471e-02
-1.540173275104882861e-02
-1.092306929347018792e-02
3.062144450736418652e-02
4.445689832826252297e-02
1.500710695036523885e-02
4.051050232694425324e-02
1.984653894875212585e-02
7.523866890236353966e-02
1.066465110343002565e-01
-3.067518081329759314e-03
-3.887350357675355139e-02
1.781487127460209055e-02
-1.568100927753620852e-02
-2.106167758947849120e-02
3.985284414571597933e-02
3.676513762842617550e-02
9.128248292338263237e-03
-2.882517503460302766e-03
-1.738027646978100582e-02
2.571806304322878101e-02
1.142988272658440694e-03
-4.130183011802357473e-02
1.258540884860672587e-02
5.075426869100130474e-03
-1.626663904332035712e-02
3.941276092398211806e-02
4.320187614589058450e-02
-1.095293098583303287e-02
-2.855771977408620189e-03
3.941399189748969606e-02
-5.808838532737189281e-02
4.718979907769001864e-02
6.840794202463698626e-02
1.168034929820134168e-02
1.136286711752458427e-02
-1.925555719241845917e-02
4.500121599588466359e-02
-3.173460365749386503e-02
-3.805795932213595217e-02
-8.122722172661171747e-02
-4.825269060137515886e-02
-6.486361960575293129e-02
-6.595431701763732057e-02
-9.923832429139399849e-03
-2.423139830475542697e-02
-2.409751072634698510e-02
1.304560476614722610e-02
-1.018595498697186241e-02
-1.000422268296800518e-02
7.112521019457779259e-02
3.131264162028686397e-03
-3.099820237475845938e-02
-4.339715715588531725e-02
-2.074051738541061660e-02
4.394565542907587219e-02
-1.172269353236677497e-02
4.271979555794017808e-02
-2.178733098377956534e-02
3.578347937940744294e-02
2.267976011874953818e-02
8.786944500517125667e-03
5.756192069590744531e-02
1.226396951933585860e-01
8.464454061001505658e-02
-4.031438864569789754e-02
7.098401988543712182e-02
3.999854750167806255e-02
-9.904357957813761382e-02
-1.083515049975637690e-01
-5.336764112878328997e-02
5.259224856418043270e-02
5.470049533545483927e-02
1.625897878142924455e-02
1.691643781152954093e-02
1.216865108512833228e-02
1.357805255610615479e-03
-1.851790141438870892e-03
2.433224874958720557e-02
-3.103358227829731975e-02
-1.904342674250151385e-02
2.280266615897507884e-02
5.334097212694456983e-03
1.647070308849464537e-02
9.146798514255791851e-03
4.023129244551938710e-02
-3.334857928279504145e-03
-8.787898387376565437e-03
-5.878873868782418660e-02
-7.988726394033592026e-02
-1.331347244199206602e-02
-5.490228090355076668e-02
-7.264119876055652458e-02
4.963112689456684878e-02
-2.901669412683382729e-02
-6.696429392980683681e-02
-5.188362807973836976e-02
-3.895188444274443745e-02
3.321211528467582497e-02
8.659045255396256857e-02
8.243745372261805648e-02
-3.078527375221048676e-02
1.166003917619775482e-02
7.285571745589010384e-02
-1.629557554540361775e-02
-2.208820443081870900e-03
8.605975086464145996e-02
-1.320867425728088421e-02
-5.774417220415124785e-02
-2.592580119149638998e-02
-5.712173868266915040e-03
1.613895494414246956e-02
4.195584555854088918e-03
-1.679458241111302097e-02
-1.476114276235971842e-02
3.787301064900929631e-02
-1.221647589561094815e-01
-4.673783735363780389e-02
-6.782836519864807179e-02
2.415844783526995346e-02
7.178162485734554399e-02
-6.998909221244242751e-02
7.287289463270794909e-02
7.073382020769405920e-02
5.992910627276915730e-02
6.512184334902248149e-03
2.840530800453758969e-02
6.591039870550129132e-02
-1.114414633339069066e-02
-1.773952315098529381e-02
2.982672173839453003e-02
-2.872968285279723505e-02
-4.212697439788117698e-02
2.331675284218210145e-02
4.653146503712191767e-02
4.101477493665168367e-02
-1.310179674661932081e-01
1.294756376352713956e-01
4.944645891476230626e-02
-2.344398610711358535e-02
9.862141054920704752e-02
2.577668874457191006e-02
-5.369004641943080774e-02
-2.193644656694227965e-02
6.105187642497266615e-02
9.690261556958659761e-02
-2.189989998277967406e-02
-3.288552625222165848e-02
-2.565170651463422741e-02
-8.967986361673355167e-02
-1.458634844458125690e-01
-9.676809290293538965e-03
4.631656685696180879e-03
-2.292111403654832538e-03
-9.761427036452186359e-03
-4.872222310014384661e-02
-1.095850956959508737e-01
-4.812229522424236322e-02
-6.423073927470716871e-02
-8.111793009656809161e-02
-1.214052090989551219e-01
1.341569028669468283e-02
4.654448356203901710e-02
4.147681339415575097e-02
3.781144472432003412e-02
3.777939236954943464e-02
5.441597580269663670e-02
3.242894484924799953e-02
1.411862414396746141e-03
-5.833272964832857121e-02
1.279077286452977996e-02
-1.310723498372032107e-02
-3.423794901736591789e-02
-1.895530472055001817e-02
-2.014169973784463163e-02
-9.023985463493945647e-02
-3.996230826886257304e-02
-2.173472293955151097e-02
-4.244054176918000965e-02
-2.995513344484314333e-02
1.462300714926078986e-02
8.082367881656399300e-02
-7.626265539073270872e-02
4.311035914604875730e-02
-5.003612972351337632e-03
4.693046824232322001e-02
1.768746630062719219e-02
-1.027420041989794003e-01
2.398978407918305952e-02
-6.178098281757142714e-03
-3.692833178502971658e-02
-3.562513384711656766e-02
-2.343230675592320247e-02
-1.219375933800897691e-02
-4.465381802273549194e-02
-4.413208754288809599e-02
-1.349269434410001883e-02
2.063564471504133330e-02
5.377764625771603441e-02
-2.808068696157643013e-02
-4.389779016112001393e-03
-1.027729369166997982e-02
8.419093863336547801e-02
-3.006894439418465736e-02
-6.176444856959192181e-02
-1.615500464331453764e-02
9.789064665470062487e-02
2.931571248895645937e-02
-9.388661600332175172e-02
4.324426240564838153e-02
7.999616040436183240e-02
-1.543682020037218973e-02
-5.185963115287660526e-03
5.710959673633897449e-02
-6.449174799753015774e-02
4.420411835415519880e-02
8.668708567850558905e-03
2.558352111895991210e-01
-4.893652779551570936e-02
-1.364327132346315752e-01
7.978680177620756098e-02
-2.732715890481055010e-01
5.094429987774263396e-02
-1.450470325054583620e-01
2.073128916566711888e-01
-9.418997665042430981e-03
5.944426596026534254e-02
-2.668003344047682468e-01
-4.636896133759692562e-01
-1.455619641802464170e-01
-2.988347011207915238e-01
-3.209661331777304283e-01
-2.858703461999436701e-01
1.575472705962256970e-01
9.148760838250330485e-02
1.127095061672285237e-01
2.394904026821237375e-02
2.425906068596297982e-01
2.026823374846438708e-01
-2.368411050580912502e-02
4.172392651784494200e-02
-2.683936528567772151e-02
-1.151724787364575946e-02
1.077283414393463701e-02
-2.046798991074202101e-01
1.192300440863557215e-01
-1.797832371787180111e-02
-1.629865960528421864e-01
5.600333321033396095e-02
-2.151819779865053739e-01
-5.741799236721226857e-02
-1.254504142853479220e-01
3.429649796484238178e-02
-1.698044720492721815e-01
-5.270696552756164444e-01
-6.488212712618542100e-02
-6.381116074100708080e-02
-3.215981685328063722e-01
-3.986971499670388108e-01
-3.779202897003742234e-01
1.139030495138653593e-01
2.396223471464968002e-01
2.815210862282375159e-01
-1.077474880295874043e-01
1.339411949119075074e-01
1.771491681779280569e-01
-7.180583572208344700e-02
1.064528176014231525e-01
6.772555803622139214e-02
6.639393207691390852e-02
1.741812171531040565e-01
4.099390636992519821e-02
-1.049269515024667948e-02
5.373624711840161057e-03
9.272155823727597224e-02
-2.270885530535273200e-01
-2.728778768977249691e-01
-3.050573825245585582e-02
1.350149869823756843e-01
5.539839514822629367e-03
1.024969294314491963e-01
-8.253405253274448405e-02
3.060445716941906369e-01
3.806018017197275727e-01
7.170261114307199812e-02
1.444006708468122402e-01
4.698116149005026471e-02
-1.572805638972746556e-01
1.164916067767941682e-01
2.712954535600057282e-01
-8.652552296664101084e-02
4.096943292758318256e-01
1.742105029670320826e-01
3.180763119554155111e-02
2.538220251893379409e-01
-8.951557290835342184e-02
-5.432803426703863153e-02
-2.633556894800443415e-01
-2.364246726566619494e-01
3.066517972158186445e-01
3.466333444463033375e-01
3.687127902259776380e-02
-4.282930769193113441e-02
6.780690927826254870e-03
1.833778887914321587e-01
-9.649636113861413678e-02
1.100611623109198772e-01
1.222790772403361675e-01
6.258516950404648116e-02
-1.974916169279369860e-01
5.196787469240906135e-03
2.151949310228548906e-01
-1.910602463971357821e-03
-3.593079281109606143e-02
3.057934854151820314e-01
-1.634681498148371492e-02
-1.477908995632238875e-01
-6.498397448043377947e-03
-9.759306342216733654e-02
-1.497758049653324375e-01
-1.902925464878094663e-01
-2.031131476376948908e-02
1.694759920706451206e-02
-5.061540831470359714e-02
-1.648155347080718369e-01
-2.082391069701965969e-01
2.694069934667385202e-01
1.539013648515950849e-01
-2.353424351906637235e-01
-6.632114099913305472e-02
-1.138886361443618433e-01
-1.108481117065902438e-01
3.647815654603819291e-01
4.750206905389660617e-01
-1.597492472002196851e-01
1.556091947936050768e-01
9.903884469265780699e-03
-1.189337547577949405e-01
1.607410469067742098e-01
-8.823952271728800192e-04
1.984477196018386708e-02
3.000207607547070165e-01
2.458336822761379437e-01
5.314943855813235585e-01
2.626018567993672059e-01
-8.432207811440819989e-02
2.806843430338046286e-01
2.458573365071984318e-01
4.798883489926225772e-03
-8.959455358248337442e-02
3.997965948274909251e-04
1.837262079302242612e-01
2.010885599577139082e-01
-4.614769514074339857e-03
5.908961475359690574e-02
4.553417316912087426e-02
-3.833980428939151586e-01
-3.427883545300984824e-01
-5.610625305857887268e-02
4.666439187945198123e-03
7.360891183758072609e-02
-1.708798115188276401e-01
-1.264964837711450019e-01
-9.367229844119490112e-02
-2.727945073090481953e-01
-3.137158521386531063e-01
-8.781777137884257123e-03
-1.802844401388416784e-01
-8.725257100020129483e-03
-1.344785816824019958e-02
-4.452446558310361319e-02
6.210593881945365713e-02
2.185630687374629996e-02
3.162738492589937250e-02
-6.968847533262935434e-02
-1.186693553060763351e-01
-8.002872634450761136e-02
3.173131790500449689e-01
-7.365688516682876441e-02
-1.514974783907370448e-01
4.694695447211960637e-01
2.430585031427239529e-01
-2.329853110510723690e-01
-7.557491997462081890e-02
8.977043072529088119e-02
-1.575681426749630371e-04
-7.037683443146525164e-02
-8.127893774109519465e-02
-2.312698747125259136e-01
7.900723715469797070e-02
1.116561706335433418e-01
-1.989977982108827870e-01
8.362045729091381260e-03
-1.622599398159817533e-02
-1.921160474797503279e-02
3.134347241551137166e-03
-2.005899096124528491e-01
-7.642537605354836339e-02
-1.269402311303758357e-01
1.158423125792127917e-01
6.678084912695465836e-02
2.222775468196519066e-03
4.954415698647082200e-01
5.510849329313576295e-01
9.833797580222372603e-02
5.866356552408041880e-02
2.263188506277351020e-01
8.859209621418451253e-02
1.131468581379042465e-01
5.999850394639572038e-02
5.762756402620669571e-02
8.238663011995624175e-02
-6.651679398142682637e-03
3.194933495952898550e-01
8.817327345713188436e-02
2.943232214851785877e-01
4.096661119983579513e-01
-2.436601208267389906e-01
-3.248157692487396025e-02
-1.797098485120313394e-01
-2.618878607407170156e-01
-1.860242301312748925e-01
-5.591364342640816470e-02
-3.163746478645001331e-02
-1.475695463004370600e-01
1.056590216573615043e-01
1.554560458169311765e-01
8.878794311605699152e-02
-9.756276051983668596e-02
-3.260542821499256422e-02
1.230089034686771693e-02
5.192141314436648364e-02
-3.658337572643069469e-01
-3.481102597030332757e-01
2.200369208563577317e-01
-5.075100163319037211e-02
-2.425632127509798064e-01
1.558930851417555108e-01
1.400512129979849252e-01
1.771539726344292243e-01
7.032531514420646557e-02
7.681259387681324546e-02
1.790325982347759637e-01
-5.152952542104280442e-02
-1.436669108213030344e-01
-2.206634631425509474e-02
-3.382072419355580672e-01
-4.121082322765617367e-01
4.988357956989667753e-03
1.290239049187278386e-01
-6.929158527568338166e-02
-1.287233968499444381e-01
-1.984474425738691136e-02
-7.159451482933817945e-02
-4.014452515951966727e-01
-4.879060924884809358e-02
-1.772706053671688209e-01
-3.642533324855111720e-01
-1.735575876181339461e-01
-1.896109785317709184e-01
-1.165840153923643624e-01
-6.369837473950236417e-02
4.115861137047340662e-02
-4.950531766513437820e-02
9.975865438112696548e-02
-2.163122046119213548e-01
-1.316699771456858736e-01
7.212916298047616914e-02
2.808714398093805076e-01
1.980684445662161952e-01
7.464597791436614060e-02
1.023828888889964789e-01
3.810099034943570939e-01
1.152256918518732992e-01
2.433577804158138652e-02
-4.052333083061084723e-02
3.442171460709682607e-01
5.336995282192558143e-01
6.885945726100561708e-03
-2.075110062303518743e-01
-1.153917067989634199e-01
-1.806062674886562136e-01
-1.725322793998863569e-01
-2.829742324851766688e-01
2.044600972012630968e-01
-3.473426547747250348e-01
3.287887460868948314e-02
-2.086115710753096431e-01
-2.734144959049894519e-02
-3.612630332186261284e-01
-3.579202950112869708e-01
-3.859350650394155480e-02
-4.291095970719642216e-01
-3.993238268096743759e-01
1.516038531735169545e-02
-3.296431399205329571e-02
-4.364737128612883321e-02
3.610225729410224682e-01
3.315459658927945308e-02
-1.422676267167369557e-01
5.150737109856048379e-01
1.631034860258392671e-01
1.761924006368993378e-01
-7.189983922725000365e-02
-6.225388362784169821e-02
7.987106972701424334e-02
-3.094712295886032916e-01
-1.429926405734919803e-01
-9.597709199733080176e-02
8.223584775365112842e-02
-1.515934250492331492e-01
-2.406618550269570556e-01
2.971124578092780300e-01
2.819300982376242715e-01
2.803870524470109538e-01
1.315458211248007013e-02
-1.777799687797681008e-02
-1.228257127874725213e-01
-1.352204230095383625e-02
-1.993191704433187050e-01
-3.145818811470139642e-01
-2.054928178964683938e-01
-9.449751331455043257e-02
-6.887432179034530533e-02
-4.707344346426294707e-02
-6.137561789830980191e-02
-1.405949160061860936e-01
5.741975743113279101e-02
-1.700675496818216184e-02
-6.468633167236442771e-02
3.395986940636695848e-03
1.494047457877794305e-01
3.994090326980352934e-01
-1.223989432852350956e-01
-9.125076134113156712e-02
2.380861083288505348e-02
-3.156537419367798636e-01
1.211363962289159490e-01
1.654295869903790184e-01
-2.120547794121340757e-01
-1.423445138509253118e-02
-1.583224740059854807e-01
-2.706515970257131198e-01
-1.259766170409558350e-01
2.543952316763003693e-02
-2.542941837456214604e-01
-4.680159591770479549e-02
1.530666202160856915e-01
-1.828440598515757021e-01
-7.737604897924610370e-02
-1.349018566746801595e-01
-2.392601647365979467e-01
6.708094956886850868e-02
-3.228282518686321351e-02
-3.028099733335519184e-01
-5.785238409615581223e-02
-1.290338502228361162e-01
-1.260283658656751182e-01
-1.483086569233017515e-01
9.939511453417713971e-02
-1.669865118822687622e-01
-1.218298961753589427e-01
-2.384800975072006932e-03
-1.790742909441991881e-01
4.262759571218820154e-02
-3.310671824104954863e-02
1.898261817736328627e-01
3.284425798511806695e-03
-2.399924960892925452e-01
-4.086952081157953220e-02
-4.287808638106220538e-02
-3.007328176175700918e-01
-1.300113315409052728e-01
-2.073623371917004965e-02
3.178514443949573276e-01
5.082693895719726795e-02
8.080680293006628490e-02
1.811005566221674246e-01
-1.718372953750348375e-01
-1.536916032305643554e-01
2.204094918151161819e-01
-7.738689264548433144e-02
-1.303370174945819027e-01
1.834927208423694223e-01
4.809716866554143017e-02
-4.115843723860680980e-01
-1.419814647392358790e-02
6.895728375215250117e-02
-2.009980786653035312e-01
-4.737910425328068637e-02
-2.064435106098782557e-01
-2.204527319236266880e-01
-2.169684482539969705e-01
-4.756983801034303516e-02
-1.780733888900724315e-01
-1.325826299613286630e-01
4.229724183722397696e-02
1.436466996521502670e-01
-4.296968963674938774e-02
-1.288086660589840907e-02
-5.879325023173009000e-03
-3.496755073066379338e-01
-1.893006834605761579e-01
-3.277825567560913589e-01
-1.434879309652361268e-01
-7.058905368634048327e-02
-7.271325270910102055e-05
-1.038241189857008334e-01
-5.048191645124327359e-02
3.534393280277531302e-01
1.076264624247586232e-01
2.996961393799421058e-01
-3.104000647952125450e-02
-1.117215254891119058e-01
1.893351378249082673e-01
1.002982138424115266e-01
-1.175568347254595802e-01
2.932640525339623785e-02
-1.879024520622945421e-02
-3.652961251261822168e-02
-2.639386987995878675e-01
3.174190037344281484e-02
6.929365902791287390e-02
8.710484781418892375e-02
-1.119828815907074754e-01
-1.604962175023358639e-01
-1.937523329698426222e-02
-3.891648945614348959e-02
-4.471987319776717790e-02
-1.946357158017270605e-01
7.454433239478135131e-02
-1.107208371422759886e-02
-2.765955289289367958e-01
1.283818609388648890e-01
1.823290450683967556e-02
-2.517146575945011788e-01
2.023705820802951805e-01
2.641749245067991775e-02
5.386635528309050569e-01
2.082319992240054263e-01
-3.564286972721688040e-01
-5.981644512232393851e-02
3.583006544135332316e-02
-2.151062741575014425e-01
-1.538373516029078181e-01
1.221253662926382287e-02
-7.814495989655378949e-02
5.799498226473077424e-03
-9.367742741617472724e-02
-1.573081954584699960e-01
6.416656783827826005e-02
5.076604425193907699e-02
-9.704376444898051013e-02
1.863985463662417782e-02
-5.495308060219607216e-02
-1.169892558638222640e-01
-1.154381485592938933e-01
1.043910725556353725e-01
-2.977388061758925314e-02
-3.036947610929964514e-02
7.655716221622449469e-02
2.565216469228176477e-01
5.185197806256009595e-02
7.587383315380784310e-02
2.549613858226655316e-01
-2.847078972641220451e-02
-2.538830900689203474e-01
-2.420951779539008419e-01
1.923941202405393637e-03
-2.322732304429547534e-01
4.720467557099989470e-02
1.468340766166012501e-01
3.748024586289174787e-01
3.468482548300260149e-01
-2.969843125856307942e-01
-2.594100988354542947e-01
6.671481357408938495e-02
-2.325440054955163482e-02
1.169851954252965620e-01
1.622282121983789072e-01
-2.389688262936079943e-01
-8.397785898956602879e-02
-2.454655793827747179e-01
-1.258050496618466629e-01
-1.972053164364511238e-02
1.989662565977738315e-02
-4.900954643198585786e-02
-1.003750693162604873e-01
-6.949644350165236698e-03
3.799088756169358844e-02
-1.106145177650899869e-01
-3.052281742253528871e-02
-3.208917076349290104e-02
-2.127725034757464717e-01
-8.232566022139202466e-02
-5.260097858393913278e-02
2.220212563723573604e-02
-3.380411636677891352e-01
3.778502807749165721e-02
3.244539311450315294e-02
-4.729500251925574522e-02
-2.853163298361889866e-01
2.005121874368133092e-02
-2.074989198957929437e-01
-2.068391738286732007e-01
-2.371116505731923063e-01
-3.370646598626984014e-01
-1.150395330138515998e-01
-1.717086040105332834e-01
-3.738950733022392697e-02
-1.231714634812322746e-02
-1.427489271960168393e-01
1.639608757190913826e-02
-2.385071512672022956e-02
-1.144573983111835669e-01
-3.939547081556367403e-02
-2.386935594303966068e-01
1.328292640051117468e-01
3.633633009823565296e-01
1.120820655189053439e-01
2.871907406538555807e-01
-2.719865750234526369e-01
-5.735076559407774853e-03
-3.410261004646913952e-02
-3.154595453300976793e-01
-2.212744483294805387e-01
7.425662301819301037e-02
-9.975067993314520876e-02
2.771530160573962287e-02
5.113526317226549378e-02
2.277212493181878517e-01
-2.563773311808311903e-03
-3.243865975182516070e-01
1.587555557883871260e-01
5.023901832750723440e-01
2.609102211209509692e-01
-5.645150114445095929e-02
1.901034115778859127e-02
1.498021067922737370e-01
-1.026989184391617210e-01
7.691360618961042006e-02
3.524194851755912961e-01
4.660001849440423283e-02
-1.715364548726879684e-02
2.015447854482035200e-02
-5.173907729232511687e-02
-4.774772558470128520e-02
4.966302177313682009e-02
2.576129392458790246e-01
1.615862711146189290e-01
-9.874510402141724319e-02
1.750604089475628622e-01
6.834391612468446175e-02
3.303104211484254871e-02
-5.785234847827400856e-02
-2.273652050565866389e-01
8.372165165066242087e-02
2.078942823413637564e-01
-6.425539487795590698e-01
-4.432354906938764522e-02
1.031303182660337076e-01
-3.611908318146662689e-01
-2.703615447840105462e-02
-1.719995585719082676e-01
1.789706349930636486e-02
-1.596067875456295138e-01
-6.406977426570369116e-02
-1.860365499608367945e-01
-1.993675236966393205e-01
-2.529834456952209654e-01
-1.524381545642750357e-01
1.963907275645005931e-02
1.094725807716452476e-01
4.726068666890845954e-02
6.664137741689363237e-02
-8.891752097006126732e-02
8.132040487060029910e-02
-1.554921188161141436e-02
-3.370689340085149255e-02
-4.466860719322344325e-02
-9.556889524168314665e-02
6.000828105495101261e-02
1.418780145803063275e-01
-1.616497975855882008e-01
-2.701089585964236983e-01
-1.448141390489669222e-01
-1.665960726194718189e-01
-3.194727307992675791e-01
-2.802232497661351074e-01
-2.755542995175226939e-01
-2.310447499118102599e-01
-8.819218894079615401e-02
2.077772837799909400e-01
-7.368372138630695234e-02
-1.432360961740399355e-02
1.935495143844569166e-01
-3.753117251568918733e-02
2.971000855184625922e-02
9.949636094920906448e-02
-1.483040806680498980e-01
1.300454205357182147e-01
7.352793054916585691e-02
2.794888063692955657e-02
-3.054040804532092909e-02
-6.992141442389201988e-02
-9.700841004430617309e-02
-3.264389425821823815e-02
-5.508369096125606545e-02
-3.278278285659005226e-02
-8.763752159936552544e-02
-2.717435465962893953e-02
-6.375112485620594571e-02
-9.576993320115131936e-02
-1.590038027859297931e-01
-1.499704283697467222e-01
-7.973859026421548091e-02
-1.360525185055899700e-01
-1.976096258779147796e-01
-1.303920129298753727e-01
-2.239518689222543338e-02
-1.269780724657308124e-01
-2.003567258863722389e-01
-3.188827807808618242e-02
-1.781839912366158241e-01
-6.525224333841860014e-02
8.867376541967003645e-02
-6.004463536609034452e-02
-1.559853316554137559e-01
8.390046407268784631e-03
1.744624589766864409e-01
-6.787851126840159510e-02
5.171302676062707743e-02
6.303070126017802643e-02
7.096828431130157433e-02
7.315811520639663168e-02
4.057693812664200927e-02
-5.166153320316441144e-02
1.956224325607921477e-01
1.027857726660573873e-01
-1.327389262692902083e-01
5.136570319803831358e-02
6.238146823108766531e-02
-1.564383109121275095e-01
-7.232261609147511150e-02
1.670734526710733730e-03
2.322838598137503818e-01
9.073472509505780409e-03
-5.133287113739864321e-02
-6.341565216063305144e-02
-1.259348658435090751e-01
-9.334898627439990049e-02
-6.957367146012168047e-02
-1.207255579973652154e-01
-1.939404222662964028e-01
1.265428305386346874e-01
-4.556549991370777847e-02
-1.882280779622351463e-01
1.181957337815718878e-01
-2.638183748509288079e-02
-1.208166014574026254e-01
2.446542275675595967e-03
4.969903630606170575e-02
-1.481136057243433689e-02
-7.678296621518393428e-02
-1.158751016790312942e-02
6.647514666513168469e-02
-1.594638079403137287e-01
-2.222157707213938960e-01
-1.697317027247882137e-01
-1.295039958793839374e-01
-7.415273809882262646e-02
1.669109551265418601e-02
6.907646579208280568e-02
-1.876578890655710707e-01
6.672210715381614310e-02
-1.304266413637175659e-01
-3.351482720571120066e-01
-4.024331005396511451e-02
1.146990339586049096e-01
-1.728449288302228992e-01
-1.193563430425178123e-01
3.466955742708519583e-01
1.461705014924953028e-01
-3.366799771334612335e-02
1.606641786601826216e-01
3.900739044456345145e-02
-4.641534774516027639e-02
-6.114066055658736593e-02
-1.777325893737266224e-02
-6.159839055234912764e-02
-1.352876866340077255e-01
-1.782635030199171411e-01
-1.046540304888098939e-02
-1.177588031152047437e-01
-1.412457963189616902e-02
2.908959395120296332e-01
-1.123671374083996810e-01
-9.791414215532587284e-02
1.346187862875615482e-01
-7.180023892951149789e-02
-9.440099289840511720e-02
-1.599343723545349205e-01
-8.623121747630964340e-02
-4.741281365798531711e-02
3.586099081912001024e-02
-1.155076876863902558e-03
-2.735980421218621797e-02
-5.122531143613959226e-02
-5.947773116009619915e-02
1.256411105752016331e-02
-1.362240424543127437e-01
-1.410154448593708421e-01
-4.318892414736189012e-02
-8.061644147544710926e-02
-8.635976208270736143e-02
-1.363038882739533997e-01
-9.245013160045518347e-03
-8.963706683801302144e-03
3.717838560319520341e-02
6.399394329428292894e-02
-5.528952786505612199e-02
-1.960875967208610682e-01
1.220121026697473278e-02
-2.196687176535217501e-01
-1.995065514416101693e-01
-1.759568707515086761e-01
2.528512566434282238e-01
3.719991238950653423e-01
4.407627312517468088e-01
1.141894466769221433e-01
9.870560414618119449e-02
1.525099210818057494e-01
7.538885070699812008e-02
-1.169365095702307594e-01
-1.640614395764507794e-01
1.879465113087977826e-02
4.816189014889658837e-02
-2.851977175220916233e-03
-5.931942391586560864e-02
-1.168250342207719783e-01
-1.594760744969963284e-01
-5.549343849263281558e-02
1.036613116035180054e-01
-1.390787392791780763e-01
-2.392159303877862964e-01
-1.219876697672839655e-01
-1.413240461872033726e-01
-1.296249541493643687e-01
9.860371563966069744e-03
9.503199125488383248e-02
-1.045183263702062215e-01
2.248701348190280599e-02
1.392242306625236237e-01
-3.035590864057325505e-02
-2.629551507198442384e-02
-1.248052291742473285e-01
2.981293628253349828e-02
2.673185412287948717e-02
8.976929326717296431e-02
-8.011412505141672635e-02
-1.039948023501442997e-01
-9.560062502681267171e-02
2.157239711771182511e-01
6.128444835460245682e-02
-1.068472091703278753e-01
-1.382030815732412377e-01
-1.842183873984392928e-01
-1.089711532532507132e-02
-3.556916182703592083e-02
2.260722685084655750e-02
1.219362021904254545e-03
-8.241898692722682274e-02
1.708271860341125936e-01
1.534563462419836211e-01
-1.551792537189560471e-02
1.888624649318004778e-01
1.828696785633108501e-01
9.427954841997525370e-02
-4.003218795297412008e-02
-9.085216856044567302e-02
-1.776109444734931542e-02
-2.946434338185534643e-02
-4.425338290379375594e-02
-1.340402205018104698e-01
-1.242782348877714133e-01
-1.204098936567136319e-01
-1.130272451760921532e-01
-1.692299281819305001e-01
-7.880242744268428634e-02
-2.458088798471210756e-01
-1.452770322266432879e-01
-6.271806922718443922e-02
2.362701641222793997e-02
1.528439574211195584e-01
-6.461926303299330744e-03
-1.341196729008736765e-01
-1.002315266823453482e-01
-5.244242108812300490e-02
3.917468326632158465e-02
-8.938192988204510248e-02
2.991783111610780282e-02
3.878856323867896361e-02
-2.233493156158256054e-02
-7.262346035320579873e-02
5.787990359037984561e-02
4.383413018280608864e-02
-1.985409563070705471e-02
-1.247289352743480573e-01
1.589665948492450798e-01
-1.846677219475395884e-02
1.337153516042533519e-01
-5.061949941964514338e-02
-7.145337559476801215e-02
2.700273680957966937e-01
-8.841414866524043015e-02
-1.776176882960324444e-01
4.739987160559434864e-02
1.185722484087017858e-01
1.730608870351041939e-01
1.778144468344329196e-02
1.056956374481178296e-01
-7.876985147657142305e-02
-2.945933654828051806e-01
-6.227620595754011085e-02
-2.283559264997589988e-01
-2.687649334240833077e-01
-7.168659234384716639e-02
5.049912014598619686e-02
-1.023218964016522764e-01
-6.802565798738422626e-03
2.852110492835451330e-02
-7.722010843789929579e-02
-2.097598080113929550e-02
2.210796129204857519e-01
-1.542878703244673078e-01
-1.961965482402005800e-01
-8.143045834223586188e-02
1.246764989921055403e-02
-4.852050785126903881e-02
-2.522920204271787356e-02
9.986427599635908092e-02
-1.004325720204337080e-01
-1.715790164690657593e-01
-1.191528777967268554e-01
5.019161000352876517e-02
-1.806033347889385299e-01
7.594551855494972858e-02
4.315778824902295752e-02
1.817302063796137623e-02
-1.425820752907527300e-01
-2.228521322168760532e-01
-2.495757222807208978e-02
8.413273067395739269e-02
-1.199662674175006882e-01
-7.099151839445830281e-02
1.255389177244608800e-01
4.532577687904177613e-04
-1.095030467393698775e-01
1.941399533063131733e-01
-1.288640564835562552e-01
-2.062871216897077531e-01
-1.839015539306001201e-01
-1.873927532885130698e-01
-2.258448157419970168e-02
7.777755199246109974e-02
2.388632808013429476e-01
1.308125387004673013e-01
-5.916059705955163672e-02
3.518186302226700701e-01
2.344193541309836926e-01
-6.522025008014210867e-02
-1.985822654676990540e-01
-1.827247067920486634e-01
-8.986329109305588037e-02
-1.284866325352804484e-01
-1.112662055952296225e-01
-7.767770110761043623e-02
-1.475701805614881290e-01
-2.778762719218622057e-01
4.885610302683300321e-01
1.030623027938009084e-01
-4.984365919492506763e-02
3.132063899214553859e-01
-1.503588495366157129e-01
-1.667522099235552724e-01
1.162734956863862718e-01
-9.074299435021325466e-02
8.013477220870120210e-02
7.753494511073234785e-02
2.144537571702136852e-02
7.180998536758968764e-02
4.872772172709005645e-02
3.102434133614440787e-02
1.549406144466353441e-01
5.297360938641474531e-02
1.636553033490534825e-01
1.610726568534699976e-01
