4.168719204279493912e-02
-1.154606460880643407e-03
1.027318418791969695e-01
-8.341329401509080255e-02
-8.578523005271837532e-02
1.214371604112027964e-02
-4.421496676965661066e-02
6.808182672982117378e-02
1.181871134856058922e-02
7.525926949750823269e-02
-6.513628316444072808e-02
-9.517163594479327582e-02
1.706944782096327107e-02
-3.097956080566584280e-02
-3.501106171168973796e-02
3.914758073851576717e-03
4.550174245695806641e-02
-9.386273907825394558e-02
-1.936435104134481833e-02
-1.600093030866460084e-02
-1.563869212975970147e-01
-6.817881857226801290e-02
-1.228538709443314017e-02
7.368057206412609306e-02
-9.454535852156141507e-02
-3.446913261460838457e-02
5.468936282511222685e-02
7.795122422974075371e-02
2.320001672463655254e-02
5.442322553970026233e-02
5.022873735029220049e-02
-1.077494121466193722e-02
-7.725689864571128052e-02
3.390639775920128302e-02
-8.128220159790814497e-03
-7.066907174665868450e-03
-8.801912427227562286e-02
-1.288550952834943975e-01
-1.381559170169988637e-01
-8.803151796913824545e-02
-1.212299937768992249e-03
-7.149329238226923011e-02
1.204512911264304063e-02
1.225250842508400495e-01
4.175208540419497044e-02
1.479997312382715924e-01
-7.211049450660327043e-02
-8.272308492473919028e-02
3.551831675568628555e-02
-1.320682087271456973e-01
3.507563008674677990e-02
-1.335883378734631644e-01
-8.309161059452481457e-02
-5.293242254195267699e-02
-8.361956085727466348e-02
-5.188114257058120543e-02
5.226377308981090819e-02
-6.001981535234249265e-02
-4.237290438333944122e-03
1.652349353589088049e-02
3.815172088718572080e-02
1.118866032540458827e-01
3.448322862088667139e-03
1.296077503891120974e-01
-9.319332690306228462e-03
-3.767159225426736785e-02
-2.380219652107521192e-02
4.512457922498154354e-03
-1.983344340335018233e-02
-1.354355713009793571e-01
6.799706719646117503e-02
-1.502439719618097781e-02
-9.447653216217376249e-02
1.009679641324707222e-01
-8.687117081242595740e-02
1.515070634403190009e-02
1.656773302033770490e-01
1.557265357838912567e-01
5.133908524759581843e-02
-3.836646611457618372e-02
1.597890640425049802e-01
-1.865063239472544362e-02
-1.446343826954479134e-02
-2.159426362550257994e-01
-2.871186137406320921e-02
-1.782197912225981784e-01
-9.302719697963349188e-02
-9.004153418182957169e-02
-6.425327095182915144e-03
2.510970943216750961e-01
9.417998101879905548e-02
5.074678768893381431e-02
1.031220067756845743e-01
1.266873634196288567e-01
1.185807073196307737e-01
2.562846280248987085e-01
3.533951236488085124e-02
-1.179715016279674587e-02
-4.294818769101058781e-02
2.661126571952262057e-02
-8.752006021059730023e-03
3.396644727653674607e-03
6.987551257765314827e-02
-1.319303725126801455e-02
-1.102003397627167314e-01
-5.765819707840700442e-02
-2.492551513180961686e-01
-1.603960368348048837e-01
-1.618205492509567078e-01
-1.810690592419612333e-01
-3.417157556112442041e-02
6.243139751302348439e-02
2.167855889265829783e-01
2.597187388141580441e-02
5.579110853288810762e-02
2.762382367866633021e-02
-1.123079403099632063e-02
8.174448251145938205e-02
1.824680149089635828e-01
-2.828557546148748741e-02
5.342855509416972667e-03
1.633710016127875100e-02
-4.667194311115819248e-03
-6.299259807916503424e-03
3.637276775356931141e-02
1.025761513129899577e-01
-3.672068442546813551e-03
2.348845647418518201e-02
-4.951947344844239915e-03
-3.256476128209497001e-02
1.865307222416846544e-01
1.718853210235913587e-01
-2.476316787254991339e-02
-2.884223285120151442e-03
2.539464618266533413e-02
-3.410662471914671645e-02
-1.924711166541307177e-03
7.918825047706726239e-02
7.861613302275095860e-02
3.005408260550776478e-02
-4.347723008473620976e-02
6.296094617799090354e-02
5.115055116362370036e-02
8.087495170510330955e-02
-4.965910703635592616e-02
-1.729704106285911147e-01
-8.168376975668925621e-02
-7.862478606048202423e-02
-1.012436653016906968e-01
3.540533204789798188e-02
-5.171465007735478320e-02
-7.750512630959557892e-02
3.160576416738414621e-03
1.428195285194925612e-01
1.219983786636759382e-01
-1.000431458535601566e-02
-5.206664344868540406e-02
-3.861277260069137518e-02
1.703705220954572497e-01
-1.122442540406942829e-01
-4.810068919293470496e-02
1.880839668331154291e-01
2.952737701834365347e-01
-5.230417972512274583e-02
5.654862516890196526e-03
1.281625759160786859e-01
-1.002851877229703759e-01
9.650072618042698173e-04
-1.182005617299896616e-01
-5.802397473442161974e-02
-1.542391462481408071e-01
3.108263121920148281e-02
1.772028492640112659e-03
3.888833891163297196e-03
-1.375543894040376358e-01
2.306774286145645350e-02
-4.305697189504595346e-02
-7.355986948338961995e-02
-2.622223716983975578e-02
-1.871119592107277629e-01
2.685322136806634480e-02
1.109035571499537506e-02
-2.402854177119813708e-02
-2.531552306210435241e-02
8.070836856942746607e-02
-6.175559393975301598e-02
-3.971710272367104388e-02
9.773926681989598964e-03
-2.406829511763682386e-02
2.492690793042243516e-02
1.415728941725290790e-01
1.349415699517190481e-01
-2.995054239878922400e-02
5.290890414251910728e-02
-1.211116876940933756e-01
-1.367739203312011431e-01
-1.245881705122626054e-01
-1.902773593533285679e-01
4.643707083841679822e-02
1.419951111234430685e-01
-2.221044215339577216e-02
7.814428380380880612e-02
6.079088856152110171e-02
-4.740704232188003298e-02
-1.149637817638777051e-02
-4.006623975244966163e-02
-6.330906624270302152e-02
-5.021959793844238927e-03
-3.452092482588214190e-02
8.981615725836127051e-02
2.529053890794015144e-02
-1.330136161068200436e-02
4.941046374367923794e-02
-6.575059578435103746e-02
-8.107831798890619696e-03
9.987508369840500388e-02
-6.873559092313738517e-02
-1.200148256246281464e-01
-4.837847292769955482e-02
-3.714549905633460908e-02
-3.291014659778478124e-02
-1.006113502070118612e-02
-8.233287360163116936e-03
-9.293802028495858070e-02
-1.731077781552695372e-01
6.188470194957827047e-02
-1.930381957147349684e-02
-2.936397078997991447e-02
-8.548295295949097372e-02
5.225520406215490923e-03
-8.107919125152851514e-02
-1.783766247679842987e-01
1.521147879017115678e-01
2.335836245137371814e-01
-3.382801856996286299e-02
-7.738834125130658603e-02
-9.060975180002999244e-03
-3.514444760296863476e-03
-7.543223960967998520e-02
2.325181556828465664e-03
-2.783590048077795240e-02
-4.754517036081686021e-02
1.482532714340076448e-02
8.912024653686291542e-02
-2.026658387481326817e-02
-1.993659893235660147e-02
4.754595740257267639e-02
8.300109194944038649e-02
-3.469300177830852289e-02
-5.808253196752905662e-02
7.351446645940323821e-02
-9.591890114085849239e-02
-1.405662766100085892e-01
-1.044491625688005049e-01
-1.626254564124695323e-01
-2.672072863653280478e-02
-2.179308452208649979e-02
-3.136830747943897268e-02
1.476536097290292726e-01
1.712130967216766997e-01
3.156934358905470056e-02
3.017048519687609565e-01
1.465258540598569081e-01
7.738836557001251004e-02
1.856946097588703937e-01
1.187693254136779585e-02
6.508200823436982585e-02
1.791214404071241328e-01
1.350579902294189727e-01
1.616825405947581173e-01
3.721792237340965093e-02
4.948149205135001644e-03
5.455421935463143635e-02
6.898670809144541449e-02
-9.396083631642525302e-02
-6.532123355547414523e-02
1.254479848902007207e-02
-1.174601499874160654e-01
-6.243416542391752588e-02
5.728462859332641294e-02
1.474991638384080261e-01
8.648083347420533473e-02
-9.256658963520907057e-02
4.817380006615035876e-02
-1.171703262824204048e-02
-1.088161411286358848e-01
-4.798916802908557988e-02
8.340273527513077101e-03
1.540100994108672960e-01
9.099916060584206656e-02
-5.062579770530897805e-02
-9.335444938385929758e-03
-5.266794556091884683e-02
-5.134015084907419396e-02
2.457606638143669531e-02
-1.790938165679699379e-02
9.260379725529434281e-02
3.805470251524148417e-02
-2.150549813803714558e-02
-7.193307407124485686e-02
1.020243775615865683e-01
6.085560063802231828e-02
-1.095864560363475210e-01
1.388556988343242760e-01
4.422835090108834244e-02
1.082553893531584682e-01
1.844260907873540578e-02
-5.395009848330062363e-02
1.255796972123527852e-02
-1.176068890590464266e-01
1.454864526709404547e-02
5.229963433790377203e-02
-2.780862594667267429e-02
4.276056224232398228e-02
7.984642519932406979e-02
4.690278953267111930e-03
5.293550659602391795e-02
-9.785193317371565502e-02
-3.961845499842895496e-02
-4.714165891635214989e-02
-1.221040014359393577e-01
-6.191456974205312297e-02
-1.571593718298482933e-01
-3.912924885582135665e-02
-9.078283466256563405e-02
5.985733986717875488e-02
-1.992074313608497779e-02
-7.339585307658598456e-02
-1.500878149186070376e-02
-6.132900625414451634e-02
-2.344690685969425814e-01
-1.376729762573574989e-01
1.309493338072236467e-02
-5.211399196914684451e-02
1.287553090006561263e-01
1.206597002255282852e-01
4.212012027827893070e-05
1.196022698323459255e-01
-9.245241773241270888e-02
-5.421156878796393186e-03
1.228310975816161374e-02
-2.354992974121374594e-01
4.894081205143730601e-02
-8.118607638570926599e-02
-3.716401001313637820e-02
3.928586353285402205e-02
-1.799006338532945989e-02
-4.605683460632627180e-02
2.025740909030026432e-02
5.843913926061357345e-02
-5.746838294618596653e-03
-9.415370576242869556e-04
2.198887110740678497e-02
5.990844673310334947e-03
-1.725763923226080604e-02
-1.053064256934065426e-02
-4.647487316140181540e-02
-1.471465094404341735e-02
4.122805045310114908e-02
-9.857565786243283057e-02
-1.356237759770255735e-01
-1.377322188358141020e-01
2.764474439814742363e-02
4.758019150815914929e-03
-6.121899063927210144e-02
6.956271874950325715e-03
-5.707815835832923818e-02
-5.868072791777678016e-02
9.513410554915646689e-02
-1.718995054615276297e-01
5.033358192396559551e-03
6.519533340404126687e-02
-5.720132154994835710e-02
3.394727529309174430e-02
-1.508173186161716750e-01
2.606547658057146166e-01
4.596266373376823450e-02
-5.414151322853068271e-02
-1.282900987884350585e-01
-8.314334974680379076e-02
-1.346862124854119984e-02
1.791609472503162548e-01
-1.453055811901302887e-03
1.544774828310826742e-01
-1.955097389610934572e-02
-1.079510341159690828e-01
8.401254230206819940e-02
-8.136970472345624039e-02
-2.174422160948255578e-02
-1.520197017614936530e-01
1.668039716336591760e-01
-2.091070238503786941e-02
-6.417588440795128635e-02
1.762871482890360220e-01
1.065635170839234203e-01
-1.944038679164739047e-02
5.360132402431962151e-02
1.190709812745082002e-01
2.009955194847331053e-02
6.983014713712140664e-02
1.026976630433967252e-01
-2.092403677366200601e-02
4.918661668789359176e-02
-1.772758053818255033e-02
-1.576157543518138041e-02
1.047794437573113108e-01
9.287916680579696993e-02
6.911793625027017052e-02
1.541750907766999135e-01
1.359331054949750039e-01
2.236939142619849552e-02
2.228878375917956456e-01
1.609410411427916743e-01
8.965371714586072016e-02
-1.136984220133418766e-01
-4.744886386371918036e-02
5.312674668872949951e-02
4.755499511801584284e-02
1.383991615569573133e-02
3.929824838655084085e-02
-3.043245071882395500e-02
-7.527644734706631473e-03
3.641459371699135722e-02
-9.808688503494922273e-02
-7.454459357819147314e-02
-8.881998347464547042e-03
-1.538512982610916735e-01
-3.169383325554316760e-02
-1.220456586496024565e-01
-3.058566519860818692e-02
-9.566520176813814169e-02
4.126490655734602747e-02
2.644080043406249816e-02
8.057041518301510941e-02
5.936547635324955496e-02
8.228687587474501491e-03
9.253447125703923026e-02
-5.371307953206234075e-03
-7.330550687323458825e-02
-7.435044187314765463e-02
-2.283460827079390743e-02
4.866290230155986135e-02
-4.027627157247103823e-02
-1.387734905542963304e-01
-3.935688078656755101e-02
-1.001254536192032890e-01
-6.332409299218130783e-02
-1.498745796617761972e-01
-1.153894077552059111e-01
-1.871414622226135194e-01
-1.187040473745658020e-01
1.673539944382350028e-02
4.525547576508896080e-02
-1.724791285528129783e-02
1.030512194442817359e-01
-2.873323862197850465e-02
1.186178861994272027e-01
-3.810699215459125572e-02
-2.295073009164822486e-01
3.929719383902971486e-02
-4.405357015071993676e-02
-5.933228795201842681e-02
-2.717576478650595567e-02
-1.181061697782867376e-01
-2.229350822050589834e-02
-5.752153921578370688e-02
5.888235209791792268e-02
1.742192756641265661e-01
7.634016744192083370e-02
-2.599388231028976551e-02
-8.798765365600030863e-02
-3.462263007569807427e-02
-2.022516469701782574e-02
-5.101361253048639077e-02
-1.486138448869515037e-03
-9.857797919345419324e-02
-1.474048072593682757e-01
-5.029803239746703097e-02
-2.496244861375521151e-02
-3.216272885710957929e-02
-1.706248603869063574e-01
-1.641001957995492921e-01
9.117452058357009004e-02
-3.175780692770045488e-01
-7.185803317709431315e-02
1.473759785388744081e-01
1.082963044705035488e-02
4.311502064612014740e-02
1.619517796205729165e-01
-1.692567342066591055e-02
-4.424950375367157906e-02
1.324409326898928242e-02
-5.171751747386402198e-02
-1.218779480102876872e-01
-1.988534394340493380e-02
-9.217715872148250777e-03
-1.415707607587808614e-01
-1.640425383585615571e-01
5.984820266612038940e-03
-4.719447693485819863e-03
2.729067288285481918e-04
2.883946051872457103e-02
1.044952973647564690e-02
-8.492459104956982807e-02
-1.604740556650371269e-02
7.730848083179737984e-02
3.290644573289929625e-02
2.088494113767937199e-02
-5.477829191114488155e-02
-1.854817105423397713e-02
-6.064056800774349915e-02
-8.591247657614363431e-02
-1.250931197007779383e-01
1.044496091486731698e-02
7.777253480009066813e-03
4.737249870549072039e-02
5.726610437177594159e-02
-3.330182257022772097e-02
-4.113301737187803619e-02
1.125574612868451285e-01
4.130457478831392470e-02
-4.780786544394286658e-02
8.893728806892496619e-02
-4.286979965860637093e-02
-9.314714346969443781e-02
4.713060716989900950e-02
-8.664989932867829536e-03
-9.051633701814748578e-02
3.649443202858605739e-02
-1.012546374596516585e-01
-1.389319711393118828e-01
-3.695654492198719582e-02
-9.061594864846128639e-02
-1.416987324218013933e-01
1.051898108660591184e-02
8.960975997948190941e-02
-3.738239199246030930e-02
-7.488920290608272294e-03
2.649199131006214902e-02
1.297043708185955171e-02
-2.640934087174442307e-02
-6.687941484421033866e-02
-1.181627571962131917e-01
-1.700689723526165736e-02
-8.958582374046450414e-02
-1.140682034126704880e-01
-5.383148952206628229e-02
3.145559394742507373e-03
-5.100931254111824853e-02
5.899634050502403776e-02
1.528785411804027897e-02
7.032242406905153675e-02
1.134637752413282796e-01
5.660261711766739062e-02
2.266247383778985033e-02
-7.633671639646907869e-02
-8.551888716370165122e-02
-1.513143708576314972e-01
1.092599066638024613e-01
-3.335483403298555860e-02
-1.665877783378696964e-01
5.756829524413683251e-03
-1.219028768946656648e-02
-2.032913490267317380e-01
-3.046168401415297322e-02
-6.362469651628187284e-02
-1.375228458316445079e-01
1.331147686587737591e-02
-1.588334494387109996e-01
-4.629064127758928532e-02
1.275297987659870236e-01
7.017832910399408528e-03
-9.586191578047123518e-02
-1.814232943558210520e-01
-1.717313305560085601e-01
-1.561402743495986511e-01
1.959616253359553611e-02
-2.705313656409501569e-02
-4.112534860205699361e-02
-6.294891675380370755e-02
-1.663404913544190289e-01
-1.989659409498064357e-01
9.980630130641555964e-02
3.823761082462477645e-02
-1.025969829502044045e-01
1.499839730469760823e-01
1.469278013668467442e-01
1.192203063979225819e-01
6.297201612458527831e-02
-6.439721931698133561e-02
-5.213373611585209177e-02
-3.318980843260973396e-02
3.889507316739173465e-02
1.440307975024417708e-01
-1.868272938525027127e-01
-7.168718429313582219e-02
-2.126530744598260220e-02
-7.621083454430356910e-03
5.741782189659973973e-02
-5.820156531135417706e-03
5.771027979443386913e-02
5.731949089864132180e-02
-1.652284328825302795e-02
1.049644809752683650e-01
7.407248103362264191e-02
3.085572758263319115e-02
-8.115604053867195647e-03
3.209047299684074893e-03
2.618803961274841080e-02
-2.416236618259629682e-03
5.610720467944736722e-02
4.781373309276641670e-02
4.744762205829184537e-02
2.857630311065132746e-03
-1.892282566085683182e-01
1.250267847506924268e-01
7.312657195147621858e-02
-1.253285087354993610e-01
2.970076087262862180e-02
9.899385972652034738e-02
7.463309575713922284e-02
-6.503437711346228556e-02
9.788826154266710988e-02
-1.149038865300638507e-01
5.212567538839668613e-02
8.366434430936157962e-02
-1.129879758080122587e-01
9.993489432746217871e-02
1.070655982051375854e-01
5.458148474611371377e-03
-1.323098083924486024e-01
-2.371301034940365149e-01
-7.198111093708901842e-02
-1.390226183323160780e-01
-2.001244688661544813e-01
-9.404813610431672632e-02
-4.395652593585327311e-02
-1.863986065512470217e-02
7.184020093426687903e-02
-1.661025380214688485e-01
-1.239478782382158056e-01
-1.331596508697815706e-01
-1.735446087600902784e-02
-1.257178453468354440e-01
-1.443163415019819429e-01
8.848308266623297613e-02
7.051754109638239121e-02
1.471422364711557403e-03
2.146272027662157744e-02
1.624605872229213099e-01
-5.925062682952856458e-02
-8.324157954849630350e-03
9.029003730165165165e-02
-1.351787835326587750e-01
-4.395793615161640300e-02
-6.188205469113283036e-02
3.883707690096194209e-02
-1.254919364636910284e-01
-2.127179517012245669e-01
-8.075384919791525618e-02
-7.690288832742375735e-02
-1.430794670460775186e-01
-2.494513287203619645e-01
1.741568545738295115e-02
2.978301065529592381e-02
-7.968867719927177906e-02
8.084242025902273199e-02
1.036155757599712124e-01
9.898733176276078294e-02
5.115130774975406441e-02
9.472478360031258426e-02
1.765992897452170751e-01
-7.772412775144434127e-02
-1.697639318726261448e-02
1.759636683705792515e-02
-2.461295298233704548e-02
-3.931813240911026519e-02
-2.274300688042488194e-02
5.234708292135555052e-02
3.302350357160948463e-02
1.117423108242769636e-02
-1.053824736830519249e-01
-1.722563739168593566e-02
8.008184206170027020e-02
5.270494300471794714e-03
-6.704301089374495315e-02
-1.218868030880955744e-01
8.703976067053006971e-02
1.056293858186062584e-01
1.028001198667457400e-01
1.248292447994366616e-01
1.720485454264757130e-01
2.125063571482516955e-01
2.375877377144456834e-02
2.774991850252998479e-02
-5.607585984477449909e-02
-1.085580253403901560e-02
-1.109884069166038739e-02
-1.539162709923971306e-01
9.060319848382156205e-02
1.162885611091272475e-01
3.692772340784788304e-02
-7.952272534948072458e-02
-7.261702679258011384e-02
-1.943005338347291999e-01
-4.399415546749387007e-02
9.422380399319175981e-02
-2.098435076308824074e-02
-3.503114050676776892e-02
1.539459751480304062e-01
4.876129199932056207e-02
-5.765971688320690319e-02
-4.838394862372875221e-02
-1.507766661189665902e-01
-6.413264930467309222e-02
4.771745797355996313e-03
-7.161622538194167484e-03
4.697456874724299791e-02
4.363031797153235636e-02
2.581461411285650848e-02
-8.686853377241102181e-02
-9.705901809247342860e-02
-3.941551777600572903e-02
-5.649212041983731059e-02
-8.372136385047683482e-02
-1.308907033315107604e-01
9.690192444623728363e-02
6.701937926253917488e-02
9.190379237752132474e-03
-2.358202124191123572e-01
1.218479188119498020e-02
9.631135681307474716e-02
-1.551053517545394056e-01
-1.502605472694703848e-01
-7.060041276408142441e-02
-9.109181355325267349e-02
-7.904794539293200084e-02
-1.333836940978308239e-01
7.596234208913919470e-03
1.388738231931063161e-01
9.724261684457666255e-02
2.179855922810301772e-01
2.611152214681477512e-01
5.530227510492074366e-02
-1.062933121075559650e-01
-1.337770180896644956e-01
-6.135998769421545374e-02
-8.600982760430227192e-02
-1.017133684575011882e-01
-8.928804882223205508e-02
7.784292791231481323e-02
8.476627702967486078e-02
1.940024862879039967e-03
-3.200080632063324187e-02
-2.332380177322113753e-04
-2.357926482796176768e-02
-2.233361081866820294e-02
4.603310980122068963e-02
-2.022341040918847893e-02
-1.461178875666981590e-02
-5.450735422125774915e-02
-9.491311782402508945e-02
4.954373311365561222e-02
-1.315715320898081797e-01
-1.233970984435686924e-01
-8.354300356522911808e-02
-3.772863816577259194e-02
-3.753652324688187825e-02
-6.691925577243047762e-02
6.731675919749210979e-02
-3.116649084928370741e-02
2.350081037306165146e-02
1.237596574170679031e-01
-5.083445549701345878e-02
-3.012431762237254354e-02
-1.079862422933331317e-01
-1.185060641226849398e-01
-6.543009719174174010e-02
-7.431357854413030151e-02
-6.975909376983041588e-02
-4.040823102308441911e-02
-1.452436726833422342e-01
-1.628610628926198955e-01
-1.634974890596517516e-01
-4.863107658997056770e-02
-2.935498547869165586e-02
-2.565351296631294964e-02
9.874828281471061120e-02
1.289858511885822456e-01
1.362541599330435171e-01
1.824203805671589795e-01
1.702130243192170878e-01
4.985713390447011478e-02
4.620759062131457595e-02
-3.198527382742894637e-02
-3.918640618494789035e-02
-7.066458398306157962e-02
-1.165852898938704862e-01
-7.547501285846487662e-02
-1.235386431349379428e-02
-2.888873997966663956e-02
1.090655383984913962e-01
-1.118276883228391388e-01
-3.243642763999274314e-02
9.006351750791723176e-02
5.128624582719797098e-02
7.793686364635779573e-02
1.098768240038570237e-02
1.621932315314856266e-01
1.014087069804561342e-01
1.319415061277739998e-01
3.134997619882233522e-02
-7.212946344048208613e-02
-1.512698575306017923e-02
-2.110846255375915803e-01
-2.284247190402939887e-01
1.459239143090067525e-01
-1.111757479533392323e-01
-1.316435957614704721e-01
3.472739173746047098e-02
2.067075243232248741e-02
4.241530277449328569e-03
4.575643680875077224e-02
2.677769819632045550e-02
-1.218681648278798803e-02
-6.229090568894993935e-02
5.439707205624835090e-02
1.952000722423919907e-02
-1.464469269369871041e-01
-1.118219102792649133e-01
-3.016086434242848044e-02
-4.864742119186335305e-03
-5.452361834391113854e-02
-2.793203570499880675e-02
1.310378596207545654e-01
8.359997920857742404e-02
-9.725072878609349741e-03
-6.607105946135796715e-02
-6.121764552674670984e-02
-1.081100760648133902e-01
-1.945314726703361585e-01
-7.157273001119296429e-02
-7.709509652906922084e-02
2.613780410569989908e-03
1.806215433604780318e-01
3.130569615548946250e-02
1.995567792858651476e-02
-6.846015335868560481e-02
-1.148623025412508769e-01
3.348179625852282931e-02
-7.130412323339932468e-02
-1.491822260605530359e-01
9.499029192738929483e-02
4.085567913248854682e-02
6.981426594658669826e-02
7.708469824552395544e-02
4.639981162647540541e-02
1.636468073139176194e-01
1.626791249393660932e-02
5.904306355482021040e-02
9.197342155219173643e-02
-1.095181243757018018e-03
-1.281946305208580585e-02
-1.037758026093231062e-01
-1.607066519446049419e-02
6.973281912723978439e-03
4.479629753381943885e-02
-1.787424884719246085e-02
7.031119232655952400e-02
1.962246644136413434e-02
-1.478803646188327214e-02
4.982275097850987627e-02
7.561384869179882395e-02
5.064461594570943137e-02
-7.311583163116350259e-02
-9.574406597083516546e-02
-5.321332670186361413e-02
-3.348603970932758495e-02
-1.277141328801646714e-01
2.051783273209344116e-02
1.973728287988429919e-01
7.885992394080897777e-03
-1.599878077201325258e-02
-1.577021150128455132e-02
-5.866027502705351004e-02
-5.170546950152962035e-02
-9.051246728676562436e-02
-1.201130955239174403e-01
-1.596264010630156147e-02
-5.040708695783975568e-02
-4.186033988847095988e-02
-1.188293967832709241e-01
3.416779763702537664e-02
4.825218947624116544e-02
-5.224885618059362663e-02
-1.673259047686693340e-02
1.364153104645748731e-02
1.210736993835489494e-01
7.346628762450105321e-02
-1.046919727834374481e-01
1.184753722672954035e-01
7.360359435228641667e-02
2.030840197321626406e-01
-3.088812047649189263e-02
5.086310976438727753e-03
3.254581721707423825e-02
-1.087326982132144210e-01
-1.554532049761118105e-02
-1.917744185451013619e-02
-8.726057375456154619e-02
-1.694281871184362409e-01
-1.467075699282273105e-01
7.873891791714947297e-02
-2.020202670946504020e-02
-7.595208098611563874e-02
9.612506749367245862e-02
-7.854284305386555198e-02
-5.918776156911505215e-02
-8.990521850216370847e-02
-2.417254863545408028e-01
-7.821555593610721169e-02
-1.591251983089128630e-02
-1.719348044832457179e-01
-7.510483579332695447e-02
8.217366211034510259e-02
-1.767317329662395839e-02
3.603746571974687785e-02
1.705675902409849176e-02
-2.135784576777781038e-02
-1.673968911159678594e-02
5.057290528525634765e-02
1.108752165245343278e-02
8.387543952523545190e-03
-2.997210760270912003e-02
-3.725559582916548179e-02
-5.753170002035142699e-02
-5.237937704523861621e-02
-5.453429281757343761e-02
5.804550509171488987e-02
-6.342575441817799309e-02
-7.207686659938662699e-02
8.441916641199329052e-02
-7.602806070440418229e-02
-3.710957356556777997e-02
5.590803502359375371e-02
4.983145919802772772e-02
-5.913698648534782693e-02
3.790383232457934098e-02
-3.354424449015036558e-02
-3.446751146992092091e-02
6.439104253535735123e-02
-5.862705356284370756e-02
7.078255740265458618e-03
1.254917901378012346e-01
6.844183152820663973e-02
-1.612422339665207493e-03
-1.649926652925592929e-01
6.503978019694385548e-02
1.375758942596748968e-01
1.339714047179946244e-01
-1.668976454706413981e-01
-2.768884024704587610e-02
5.931368414267247646e-02
4.716697083069248259e-02
-1.617393286212668452e-02
1.391585916654304589e-01
1.196018255485950949e-01
-4.628861492465464328e-02
9.263679546090738959e-02
2.008372771476718832e-01
-7.728932402799419676e-02
-9.367647566047075658e-02
-2.726172229095848512e-02
7.864583087326745825e-02
1.714249502109073675e-01
1.659756643296276049e-02
6.240250844511494033e-02
-6.273966341506795330e-02
-1.601569330126590210e-02
2.799483877690915265e-02
-1.710154206267762433e-01
6.555124771221744473e-02
-2.529295865750425670e-02
8.406896831803654241e-03
-9.325608137902053479e-03
-5.863017762059134427e-03
2.747624061811730634e-02
8.924969497743684421e-02
7.369333967865969448e-02
-6.192767727450479258e-03
-2.008244004693677739e-02
2.660016099420297112e-02
-1.233835706150549355e-01
-4.198958223065366036e-02
-6.514974959036375080e-02
-6.767676112606672845e-02
1.753667136123261000e-02
-9.783761449405348198e-02
-7.303792772742382158e-03
-8.396109321391467817e-02
6.216946251669459161e-02
9.046404256260362486e-02
-1.027953715916211097e-01
3.074722510625873054e-02
7.608791530963467109e-02
1.473252041928591327e-01
8.000024708738991130e-02
1.743724840632141504e-01
4.834221099273148387e-02
8.334272731983375163e-03
-4.634723307611616355e-02
1.805671357364960553e-02
-9.921013122074655299e-02
-9.790308618437940091e-02
6.748985357977996258e-02
-8.316699541338190560e-02
-1.689248626389310837e-01
2.114261684551655210e-02
1.889920134594554046e-02
-3.006115056481127243e-02
-2.723296559546179232e-02
-5.047273241015983597e-02
-1.278922114880744754e-01
1.316385658090079291e-01
1.343755824327056425e-01
-5.663699585427355715e-02
-3.876163127217121997e-03
-1.578750447785073549e-02
-2.401859733770181013e-02
-5.496822407290552492e-02
-4.015225948587666099e-02
-4.864484768527616021e-02
-2.337863740043083852e-02
1.103135427673901728e-02
-7.687442245463307899e-02
1.297726528144339253e-01
-7.191513259336959618e-02
-5.445053770731461684e-02
-8.795816780168500687e-03
-1.290270419265663049e-01
-5.418495804636662416e-02
9.249047322923556469e-02
1.087777153732172736e-01
4.968321826812565484e-02
1.334607712602930117e-02
-1.898203826124574001e-02
-6.408876434124272103e-02
1.256325373530709499e-01
2.649098358966171449e-02
-7.720284908525837375e-02
1.189205248893029782e-01
-3.704568402392552362e-02
3.893418790681399400e-02
-3.093557213348659476e-02
2.029629167676011148e-01
1.377969926791914879e-01
-1.017138385294222430e-01
4.034862334279299551e-02
2.306453973256607573e-02
-3.315372995540121631e-02
6.920140922225746782e-02
8.126216887748412276e-02
-2.988204584659909929e-02
1.157766911976566560e-01
1.358560968114533134e-02
-3.533275840530458733e-02
8.480013318243175002e-02
1.884727394579599480e-01
-1.629596133794130319e-01
-1.399716624466519066e-01
-9.919460055661589223e-04
-1.055930000570291238e-01
-7.561782326878103977e-02
-1.464265986127439578e-01
-5.103236857928824394e-02
-3.369125628257796379e-02
-6.746563664501489810e-02
-5.882613542316343647e-02
-8.236877305182986608e-03
7.961969551666382705e-02
-6.949963053107685584e-02
4.302097672670602418e-02
-1.444246043697118287e-01
-1.285871131388252771e-02
5.824227683204909189e-02
-9.352090929070959457e-02
-1.235496614744413107e-01
-1.063841804851336226e-01
-4.839680335314935911e-02
-5.409872271227537249e-02
2.829345699470467781e-02
-1.083980216380202310e-02
-1.536714860694660401e-01
-3.884001439320006188e-02
1.342555769123177645e-01
6.908162501977795078e-03
2.353730039183528355e-02
1.093146033536996908e-01
4.459116875610294461e-02
3.303287940299963477e-02
-2.168120403539449542e-02
3.681112910976641617e-02
4.724551491020011207e-02
-3.309282180376402205e-02
-4.480481735875415511e-02
1.077654054313445520e-01
1.184835299356528163e-02
-6.585818272777556326e-02
3.777252312920294924e-02
-7.698210550602455592e-03
-9.542734358232177194e-02
4.239682730183000348e-02
-3.569830791417698268e-02
-6.828844541420379943e-02
-3.054642757488088001e-02
-2.164610777072139072e-02
-5.025145657050180542e-02
1.810866475175624407e-02
-4.630173669882416826e-02
-2.713055942147191493e-02
-2.429504901226336652e-02
-3.748991113468001096e-02
2.786853758511181542e-02
1.159324916888415137e-02
2.037616183464423247e-02
5.176526374733056435e-02
-1.334654994156077822e-02
5.483653625928922720e-02
4.280063371459559562e-02
-3.744329536433090022e-03
-1.410929193297894013e-01
6.524250008469920092e-02
5.550517058374387219e-02
-9.214448200461110294e-02
2.087749445297423789e-01
9.185788811681146193e-02
1.830932510261238932e-01
6.451113402220548521e-02
-3.587008719253008404e-02
-1.779185456770896456e-01
-2.746521587685625543e-02
-4.153641460803123020e-02
-1.022550815342003899e-01
1.816106405290045800e-01
1.397080325781857417e-02
3.558345672325798764e-02
9.254178240250061915e-02
1.089706734950480690e-02
-3.787936480672797479e-02
-3.284463846204189325e-02
7.318734475166532860e-02
5.663035082980215351e-02
-1.686321414877994460e-02
-1.180370781858779278e-01
-1.647799069794531335e-01
-1.131769066550335628e-01
-1.518549614871108344e-01
-1.078803020766380127e-01
4.221516898752144392e-02
2.460721607674645761e-02
4.019598272086042159e-03
5.816405509202750290e-02
1.497524544443463446e-01
3.588337001047356423e-01
5.334005302176373503e-02
2.691772475167201750e-01
3.784051615720340767e-01
-5.750626259036538401e-02
1.031405099299824157e-01
3.266580722446991991e-02
1.683485976481025881e-01
1.865860434386348299e-01
3.282838578476793279e-02
1.415208240042578891e-01
7.659116016718992004e-02
7.159439555908250763e-02
7.529858700789485160e-02
1.056105970284268725e-01
9.417096655430592933e-02
-2.275582637078938861e-02
-1.270970849596659014e-01
-8.357524305324657773e-03
-5.253666997669821648e-02
-1.080543217866158229e-01
-4.658805529961820152e-02
-3.216249674125831043e-02
8.541775100000678633e-02
1.275845026672801086e-01
-1.629135510367057255e-02
5.965218770681179200e-02
7.491206987688284191e-02
-6.725876806046947320e-02
-2.462502110831839286e-02
-1.202502988139637907e-02
-3.874767184307922191e-02
-5.697833861993734789e-02
-3.109438033135547563e-02
-1.009065533221758376e-01
-5.086017646817640042e-02
3.021986254171624142e-02
-1.219376004698027732e-01
-2.835030625679128141e-02
-4.845305396753227245e-02
-1.268953044158407650e-01
-4.812248541278507999e-03
-1.108676845942124928e-01
-1.830192959400288033e-01
4.970980802569396201e-02
-1.094228964481842037e-01
-7.316209509875006012e-02
-5.528225442434159947e-03
-1.701398471244754407e-01
-1.291821123046308917e-01
-1.411880767437044548e-01
-2.679892934548830929e-01
-1.146996836363340794e-01
-9.847572414700217491e-02
1.723574457735530530e-01
-5.179339860250564004e-02
-6.656833619047226869e-02
2.487300346412246125e-03
-3.431076249434790448e-02
-5.801078313855857066e-02
-6.051469906094042450e-02
1.648024889707151025e-02
-1.698807401201729017e-01
-1.197079953852145662e-01
-7.248292772661052430e-02
9.668119777932884795e-02
-3.489271248037660242e-03
-1.512981814415382820e-01
-2.319440191052326086e-02
-1.913339291829408984e-01
-2.895725541984806028e-02
5.452400591982964340e-02
-5.694135361677792051e-02
-2.541707341109295318e-02
4.259374561912882343e-03
-2.655108389484638412e-02
3.867110947127064269e-02
-1.092902485949486663e-02
-1.181189091982814549e-01
9.603305341135193185e-02
3.152675038699771087e-02
9.773885051296765658e-02
1.115546835304663531e-01
-5.742528539510214497e-02
-1.725911178596662918e-02
1.080744659827324317e-01
-1.962621087211073242e-02
8.379251596187230200e-02
-3.289590505538209780e-02
2.276445787323824396e-03
-1.514333024202836053e-01
-1.292258071328341307e-01
9.739382595077636026e-03
5.175458230879016047e-02
1.148940124174624780e-02
-4.452718803552619536e-02
2.706166654473557767e-02
-5.711346548707674914e-02
1.284379164525691619e-01
-9.293363241979013534e-02
3.104309536319482810e-02
-5.862118584473793859e-02
-1.593600377037740767e-01
-1.074989343462410124e-01
-8.779814607996301590e-02
-1.218703844514832518e-01
-1.539811280972522844e-01
-1.297141228205441477e-01
-1.361588082003255783e-02
-1.376281303402503153e-01
1.310033013206573366e-02
2.243420729177087597e-02
-1.574369765261237064e-01
-3.225790197409382498e-02
2.316340834833099244e-02
-1.358700590202700266e-02
-3.403143474480582742e-02
1.144082287392029496e-01
5.927417930523225936e-02
-2.379105816074407742e-01
-2.374685398645370316e-01
-8.034567088753528930e-02
-6.443565996068544022e-02
-6.606155155475883223e-02
6.718007556210574271e-02
-1.189800279472123107e-02
-5.527021265846657205e-02
7.387223836789964804e-02
3.143758243558182619e-02
-4.621700992402753144e-02
-5.470425260653744362e-03
8.110787050446882293e-03
-1.541338170997081855e-02
9.161801797449556362e-02
-2.644269475308450457e-03
-6.181974089468066785e-02
3.394494895688923708e-02
-7.023018125332361472e-02
-1.694237153585557154e-01
-7.934553893137823166e-02
-9.683023008906671558e-02
-1.745082229267138907e-01
-1.401593831321064076e-01
1.415627346490576366e-01
1.324357650578951717e-01
-1.470588026882114208e-01
9.466909525073513576e-02
2.171566540615793017e-01
-8.044188724665407575e-02
-7.823362170217887379e-02
-3.126771993181808734e-02
-1.554036110065399288e-02
-1.524660089724409751e-01
3.988676842721140120e-02
-9.394934506665883478e-02
-3.871305691853333536e-02
-1.023842458142723844e-01
-1.004505766947032946e-01
7.177841081799568590e-02
9.022225659750172932e-02
-3.303621665350093412e-02
-2.619447686151759810e-02
-4.340450093357113570e-02
1.851530291365513781e-01
2.489046255254273032e-01
-7.359405296680733219e-03
3.419291953590516409e-01
2.536260871013401030e-01
3.222612967178567489e-02
6.749507814712646381e-02
1.802787872880745601e-02
-7.307398411406990091e-02
8.318701828795399544e-02
-1.403307530647522894e-01
-1.304097806402793047e-01
1.075178449237997602e-01
-1.011811968542344897e-01
-1.398385422043643689e-01
1.987487569278762189e-01
-7.074395541279925037e-02
2.173069729854217036e-01
1.881644569113144483e-01
-1.034657671532776685e-01
8.110466132970017838e-02
1.560421131292257235e-01
4.028008959757235947e-03
-1.080002722174388669e-01
-3.645864550182288388e-01
1.544835494329591975e-02
2.354302899220714340e-01
-2.807471174909016431e-01
-6.811955117093829171e-02
1.515493921093917229e-01
-1.779638740943839392e-01
-1.108525514214502433e-01
8.791033765219619101e-02
-2.339369755205047419e-01
2.036448535509472607e-02
-3.514976149095136448e-02
-1.349828164110435380e-01
1.127255023655570620e-01
-2.681950339437208855e-02
-4.721803986028041272e-02
2.092759395219501162e-01
2.767686240368867345e-01
-1.966203085650322993e-02
-9.419528562181882225e-02
-1.367323318944387855e-01
-3.450603341852764155e-02
6.900085533474425992e-02
9.371146572298193200e-02
3.905746467144570466e-02
-6.874959167134417348e-02
1.621811584705591669e-01
2.753743995307454673e-02
-1.561908804612303914e-01
-1.855264681443318797e-01
5.472079310548265407e-02
-1.106470876871337300e-01
-2.286554393425366954e-02
4.647104702103502065e-03
-5.934085359129724624e-02
3.008618421951828742e-02
1.236420255755999731e-01
6.218148260763929625e-02
1.059994459634909653e-01
1.727987131926364550e-02
-1.164848445132376231e-01
9.175721666613498306e-02
-1.413387106966295936e-01
-4.300026562479974251e-03
1.997486798460437751e-01
2.950905977243070341e-02
-1.629008556590888224e-01
-1.243145832253949173e-01
9.286922810963949004e-02
-2.513919715068935884e-02
-2.671324437916535940e-02
-3.584528093342583682e-02
-6.714813102427101554e-02
-9.945362152714745663e-02
4.362093769023878825e-02
-1.560298417159819151e-01
-6.405506949830579166e-02
-9.651720306025678153e-02
-1.035368253487284340e-01
-1.909834078048844030e-01
3.039356427841420974e-02
4.521956601976383910e-02
-8.110728755345580909e-02
-1.596421565521057573e-01
-4.614243930151343959e-02
6.800257233432546733e-02
-2.462725428176978648e-01
-6.697559518959908531e-02
3.855154268546364532e-02
4.157339291773223117e-03
1.395898870995377072e-01
-6.242014510772762176e-02
-3.915234142091335301e-02
-1.675059390145840210e-02
-5.432652095947924226e-02
2.539506259405586996e-02
4.382590385525629573e-02
-1.497178277430123161e-01
-1.252820905342020563e-01
-8.923094839985993426e-03
-9.132254424841101947e-02
-5.877751681892671304e-02
3.792261803573420548e-02
-3.002542776949456912e-02
-1.208936235313936569e-01
-7.002375771077355704e-02
-9.633059396375535932e-02
-3.935114538153564046e-02
-1.015536053930525956e-01
-5.964586945997369521e-02
2.768886589500223899e-02
5.930089200493496998e-02
-6.342909493400587795e-02
-1.125449170961901994e-02
3.143786949479278336e-02
1.437276027292301757e-02
-1.732097525407567951e-02
-1.499442453276301698e-02
-1.374095531523378960e-02
-8.248638183103190746e-02
-4.790478559558921691e-03
1.234781868989707904e-01
-7.453583093772161994e-02
-9.910193719126197259e-03
1.431741614030958287e-01
-2.616956012200651049e-02
5.533972220627671190e-02
2.644676510548602671e-02
-6.038052022524644652e-02
-6.891553544885371807e-02
-1.895451675530630126e-02
2.115513327588337544e-01
4.433196421849901897e-02
-3.986765175586017007e-02
1.006587814764597910e-01
-2.606237368473361682e-02
4.104332262766534345e-02
4.206630155281756468e-03
-1.533173117684556164e-01
-7.095453321736633345e-02
-3.867325873510652628e-02
8.656884371495993796e-03
2.113604486882368627e-02
8.002588987072602189e-02
2.071303264903894548e-01
2.056758048289619722e-01
2.355851664629246833e-01
4.433942186958984150e-02
-1.402234635805831575e-01
1.358053573462187913e-01
1.263803820195213146e-01
-4.730461102991102840e-02
1.119477338347000250e-01
4.450613997091969892e-02
-5.939664906931621698e-03
1.098438695171021773e-01
3.018641646339343398e-01
4.128257396716076416e-02
1.193936846864971785e-01
2.046914714340971608e-01
4.628249769868722496e-02
-1.158875817584275048e-01
1.634819724373564875e-01
1.103350057455721733e-01
-1.273790507097517510e-01
-2.778510875189433779e-02
2.384099763085952353e-02
-1.945183579755075109e-01
-3.848171810857071301e-02
3.250690302207216026e-02
-2.962097164594550969e-01
-1.080868021683109859e-01
1.190584113048873266e-01
3.692529778774600313e-02
-7.083783407947187583e-02
-1.710032917890643225e-02
6.574287166764081550e-03
-5.498489641215437845e-02
-7.020680138466503517e-02
-1.809693781447116734e-01
-1.192684650423821019e-01
-7.313969270350725860e-02
7.949071728719668550e-02
-6.525383465165709822e-03
9.337416084541762251e-02
5.020133288817263395e-02
-8.655764987783111375e-02
5.854059728348338237e-03
-3.237284489845663376e-04
-1.847358216956417332e-01
3.943679796169119456e-02
-4.750179273796677898e-02
-1.301972302236984180e-01
-1.350441499236862131e-01
-4.081227676530774923e-02
-1.606280297620200914e-01
-2.314867705846407608e-01
1.233230453803843552e-03
-2.815270352855945429e-02
-1.250421443642062702e-01
3.463123245326348021e-02
-3.814701590118573654e-02
1.419537299037605671e-01
1.578443267953586193e-01
1.522849290779721559e-02
-9.407166467669399526e-03
1.213407675677598274e-01
-2.456244661662527681e-02
-1.702879696773293705e-01
1.181591740369383747e-01
-5.416476383015412371e-02
-6.791673132555964276e-02
2.433523704300488699e-01
1.258471614386264814e-01
-1.503772984369846355e-01
3.371288587445588902e-01
2.278479933055622131e-01
-9.139410590155487568e-02
2.479815726476585214e-01
1.671454132550010416e-03
-2.517398872705737395e-02
2.132856120225704866e-01
-4.062942740842059863e-02
-8.682049895656573923e-02
4.604972653686685569e-02
-4.928951506629117296e-02
-1.214073093649582213e-01
-8.389504467943509347e-02
-1.023167353762493154e-01
-2.773971512200164302e-02
9.954046061870832490e-04
2.957269711925361588e-02
6.315886180910634286e-03
9.259660724094417872e-02
2.266392708778370013e-01
1.857087021640385915e-01
1.811596527665222320e-02
-1.194633267231739147e-02
-1.331394045957934591e-01
2.119188980935285058e-02
-3.125197142187541993e-02
-8.792709602172202321e-02
-3.935585904098941323e-02
-5.626273386528698323e-02
-2.140918803807307855e-02
2.971285120283105874e-01
2.484966775841941922e-01
1.702081024443484747e-01
1.633944473478863846e-01
1.557181690178082722e-01
-7.602651617133565631e-02
-3.130295755403696978e-01
-1.727019757106423858e-02
-1.855644659512714900e-01
1.118394462677358703e-01
1.638595804281391954e-01
6.313968919801143942e-02
7.506946370620141366e-04
7.622932129572912441e-02
2.386076055346003991e-02
2.847761333660450006e-02
4.874906942587132509e-03
1.071781169720752505e-02
-7.798956543312159095e-02
-3.961261363186063117e-02
1.084960455562397098e-03
-7.360995457499585476e-03
2.332506831915393680e-02
-7.089813123475806333e-02
-6.807531755467756407e-02
-8.604604853576766632e-02
-6.364045589498441846e-02
3.504293424571679888e-02
-5.767149092799531140e-02
3.039125455583989444e-02
1.969132561700603912e-01
7.368662146579918470e-02
1.861283856746550822e-02
5.965492286585773185e-02
-9.151063427602128264e-02
-7.777069971389968805e-02
-8.894847330368695071e-02
-6.019289243657075655e-02
-1.539304231359076187e-02
-4.965970073634749099e-02
-7.923065930725167738e-02
-2.749020325583764746e-02
-5.044953458665584617e-02
-1.114769567287302449e-01
-6.179761230976216907e-02
-5.535764353363154672e-02
-2.561947518049257910e-01
-1.230151942499627393e-01
-4.900700169555672475e-02
-3.311477960719511060e-02
1.666694131434903470e-01
3.730527585714225880e-02
4.858515714431625721e-02
1.594949555329239488e-01
6.298004894635482465e-02
1.983964543106132503e-02
3.940912398165640623e-02
4.405070801989871727e-03
1.555677794332370641e-02
7.545867183330381978e-02
8.399212368828526398e-02
-5.631579712845705132e-02
3.448558891431342116e-02
1.578419154979865957e-01
2.586744428740999080e-01
4.415732328294673659e-01
-4.615589428196548161e-02
-7.435549886929979091e-02
-3.013717182377835535e-02
-1.661454255644987388e-01
4.764407694809937727e-02
-9.060050053484411392e-02
-9.358971434297463921e-02
-9.767554438831123342e-02
9.904336239124152119e-02
-6.823729255458330090e-02
-7.113803029760128183e-02
1.482813922839736342e-01
-2.233668841988360743e-01
-1.720239948499081295e-01
-4.582475749719044922e-02
-1.790409791378360371e-01
2.981573027984108469e-03
8.306139234464803012e-02
-6.398257747889873892e-02
5.471160721073201755e-02
6.083748021452883847e-02
-1.322571936193005504e-01
-6.435431179659571732e-02
2.016681343823256700e-02
-1.117504225819747204e-01
-5.097842130951447948e-02
1.430731901657647520e-01
-2.785037571177637755e-02
-9.782014568151075132e-03
2.972497835042011219e-02
4.233267483540362197e-02
-5.295489610978211525e-02
3.234068543423832508e-03
-9.928959442190800257e-04
9.848810743973331061e-02
1.298273801921041581e-01
6.259639063066423613e-04
1.445367799540614728e-01
7.064222751683008061e-02
-9.057749457920902941e-03
2.492831609382761826e-02
4.396043599459453083e-02
8.916318181669478926e-02
2.910513654854506027e-02
1.449380004050685733e-01
1.327414875338601419e-01
1.870785045557707693e-01
2.620815265674730429e-02
-3.673395147821452433e-02
9.056168424112862048e-02
-9.029142461845576090e-03
1.184708526235060677e-02
-6.298356431761514829e-02
-8.957759227042072503e-02
-5.071796586296969250e-02
-6.220164741313514989e-02
-8.646692150198644067e-02
-1.693593787649368965e-01
-1.013348603859091368e-01
-1.254069068233232831e-01
6.941004867132337386e-02
-1.756589623380228060e-01
-1.961213260514628465e-01
-5.167985858803022386e-02
-8.906286419110561597e-03
-6.150046333556445644e-02
-1.476520407256740608e-01
-1.749607725088371535e-01
-3.240966061028652950e-02
-2.635305425804441992e-02
3.449589949233159564e-02
2.380483405867298702e-02
-2.104155498684649739e-02
6.923378842740159078e-02
-1.043824429002676232e-02
-1.152655995253076826e-03
-2.282400425828038371e-01
-2.501692906410232786e-01
2.255591745301968876e-01
-3.717843396046063842e-02
-1.608328869917473036e-01
8.425741056216523583e-02
5.480175852395775815e-02
-3.419799091529874407e-02
-6.509516009662810743e-02
1.663343340788848296e-02
8.717556911904202066e-02
1.505635683986519813e-02
-4.579908368061796908e-02
-1.656458171552452341e-01
-1.010706213402805392e-01
3.395144201055424332e-02
-9.788623099573076636e-02
-4.369975458045569083e-02
-1.534436568810373415e-02
-9.611901433299884639e-03
-6.448225494816750558e-02
1.578525758712972238e-01
-7.035277971270199882e-02
-6.084374468222887578e-02
-3.312888728883582601e-02
-8.729173266279446897e-02
-2.843511171031992343e-02
-1.146379183844335216e-02
-1.378507382672012060e-01
-3.388084809261473346e-02
-6.066577632424813987e-02
-4.709046461078031376e-02
-9.866338743891906946e-03
-9.491472261043140679e-02
3.013877514653067954e-02
1.366639033452685982e-02
4.571230147085604892e-03
7.165356225670382884e-03
-1.633230590839867269e-01
-1.349876951771871447e-01
-2.268985452855914464e-01
-3.990773916456754472e-02
-1.136888712053387290e-01
-1.091148060813101756e-01
-2.004160270614562325e-02
-1.550354422034133928e-01
-1.021102843061379439e-01
1.728281545686640233e-02
-1.125376262149271542e-02
-1.220908346493277397e-01
-3.409533828416787954e-02
1.519432758779289405e-01
-2.390646200683245459e-02
1.257139513894074863e-02
-7.259764448607333720e-02
2.077079237421337182e-02
6.833897678040629087e-02
1.149098124956603878e-01
-7.537277399360085145e-03
-6.231884589423761917e-02
-4.074542872361550626e-03
-8.242166552664447615e-03
1.772063706588964394e-01
1.290971267267246869e-01
-5.973408932718086983e-02
-5.485355933087533720e-02
-6.947733097856189505e-03
-5.550375892402622385e-02
1.956567316002504886e-01
6.735816077987408224e-02
3.564232062330416340e-02
-6.936038817966528117e-03
-8.419286225265271498e-03
8.941994137636192358e-03
-2.100805183144011656e-01
-3.755704584887232800e-01
-1.952766776332066911e-01
2.629148765378871641e-02
-4.700892629801323858e-02
9.349067342384645776e-03
1.871329258589542535e-02
-2.522648567897555101e-03
7.736790148411759604e-02
2.439299435425273110e-01
6.087400188997089262e-02
4.459476702421637934e-02
2.438560458915628448e-01
-1.427304703808138786e-01
-7.947009174174869683e-02
-1.626934330207395474e-01
-1.618307691100602796e-01
-2.590560540301211634e-01
4.023453446186524111e-03
7.683987456157645446e-02
2.399475614196269480e-01
6.077097840398898443e-02
2.640585291757998124e-02
4.590167394123151334e-02
-3.508438868342838440e-02
-3.961579513395415385e-03
-9.281005766976084537e-02
-8.158640389969695761e-02
-1.279940975381022306e-01
1.581579904058105779e-02
-1.399900144864023310e-02
-9.444109196381954285e-02
-5.242500076785638202e-02
-2.140855621758153485e-02
-4.028243859072749844e-02
9.453415126632892795e-02
-9.561956781785306558e-02
-1.224723441289401332e-01
1.429601016431551186e-01
-1.548888655426285295e-02
1.285785684277022944e-01
-2.275677382269067003e-02
2.071784880579630519e-02
9.585486841073434516e-02
9.770259330720998392e-02
-1.913362685033699329e-01
6.346628535821191575e-02
-9.690752813764286211e-02
-1.687898520892218979e-01
3.874377480200977969e-02
-1.634011082183373098e-02
-5.565820532621491845e-02
-2.725409260520300289e-02
9.855659894398038912e-02
-1.325304502379776872e-01
-4.879206944730898887e-02
-3.542572975622381576e-02
-9.326471990204247831e-02
-3.872668889215793997e-02
-6.106318735659022751e-02
-1.200763491533221317e-01
-1.627191055197270697e-01
-1.663010222156018902e-01
-7.036383163468934443e-02
-1.405323565464753344e-01
1.223277154239483105e-01
-9.898242831379586160e-02
-1.124680483507292938e-01
4.761590308966368035e-02
2.999145202908594099e-01
4.010617820038610282e-02
-7.465030368216382661e-02
-1.002186384608056424e-01
-1.870822166737500653e-02
1.040275122653089822e-02
2.328414779044998828e-02
1.555125043689502551e-01
-4.628896183690836552e-02
1.487454056792913704e-01
3.136959646863459183e-01
7.765968032807974916e-03
-9.165598580590241309e-03
4.977232755330206898e-02
1.397431383610165667e-01
-1.499454867006166092e-01
-5.666831546514505824e-02
-7.484879881910921906e-02
2.726426872626580566e-02
3.504400522229186160e-02
-1.436669758413308129e-01
-4.916980145104754563e-02
9.194525256607386648e-03
1.050581803504964801e-01
-1.414671633895407121e-01
-7.779455990391859199e-02
5.045804539320079135e-03
-6.566372597902840613e-02
-7.074502944137486815e-02
-4.715457105674670385e-02
3.885279175837570015e-02
5.989865574930552938e-02
8.513214160221892202e-02
2.190088131802090526e-02
1.698812091267324839e-02
4.296022017627169204e-02
2.914881777905294347e-01
2.519784293699479649e-01
-1.311254941348937442e-01
-1.538008340552478315e-01
-6.398504936136603649e-02
-1.478978423219196869e-01
-7.387265479575103044e-02
-8.907527163670736492e-02
-1.371151309418959519e-01
-2.535176884539560443e-02
-4.216337847102130665e-02
-4.096803487818474407e-03
-1.787044359321580955e-01
3.222182868645101506e-02
8.362415266296524541e-02
-6.106850449672288073e-02
-3.752820675294763625e-02
1.807655196474622708e-02
3.495395668025618602e-02
-5.786383047809141866e-02
2.331430214612613752e-02
-2.830948882040956183e-01
7.663308892477591061e-02
3.897980470953996690e-01
-1.774921342153696902e-01
-5.739590656277081954e-02
4.117301592873861549e-01
-2.686495025561118632e-01
-1.262864820891785589e-01
1.878925444665467681e-02
4.202668495874798370e-03
-6.075605862097898519e-02
-1.476716612788790961e-01
-2.077301616054669786e-01
1.266041173191551072e-01
-1.337511951743554015e-02
-1.934391163908767419e-01
1.088179220348056697e-01
-5.882429735322727143e-02
-6.047269494604273765e-02
3.052276554264108932e-01
2.413285966255724613e-01
3.671328178447937768e-02
1.991599664657331403e-01
4.690766532243285936e-02
9.691804086546668140e-02
5.090436725795897260e-02
2.998142395266340660e-02
1.475836573112437600e-01
2.152224047602755708e-01
1.271679928617465982e-01
1.399721680946089120e-01
-7.492246271537854850e-03
-1.018615786606713314e-01
6.428446419203687201e-02
2.551395408635886639e-02
-1.030555072584198456e-01
8.034953612281146851e-02
5.087920278584225769e-02
-2.966386664091858957e-02
3.090679957296125699e-02
9.790055860017969624e-02
-3.893101231283608438e-02
1.547236477240866992e-01
4.838564795065065927e-02
-3.185028339031113851e-03
-9.244620446145650206e-03
-1.402316077556774176e-02
-1.461329164552003894e-02
8.171040609038750712e-04
-6.640057687931191777e-02
2.276747199590600443e-02
1.446332460663652675e-01
-5.533708559291580092e-02
-8.978061552081205432e-02
-8.122284054721461144e-02
-1.837056643861291819e-02
2.163911159015097577e-02
5.077968250355854168e-02
4.505259585343516365e-02
-9.850233980413894419e-02
-4.883218175299912540e-03
2.917725481690194855e-02
-6.754667614970062683e-02
-2.258722686719437656e-01
-2.858456199549065935e-01
-9.087002148580033967e-02
-6.616983606135098950e-02
-1.273302747213172215e-01
-5.414944343810257354e-02
9.181422215088205774e-02
5.697565613834657677e-02
5.230608507933259821e-02
5.607065146054995147e-02
5.879354146880223786e-02
-2.309214573559039557e-02
-1.017444270409137291e-01
-1.948135316638552050e-01
-2.087463400162835880e-01
-1.528207162020718546e-01
-9.544893624057121384e-02
7.205690130811527594e-02
4.623437544049368436e-02
-1.156424682783480269e-02
-8.646988232189081747e-02
-3.045614233779010416e-01
-2.186028404925654256e-01
-1.559983151935448176e-01
-2.480265724935067639e-01
-2.720735101635802788e-01
-2.846172234481738617e-01
-2.173050562421201953e-02
-7.775273963058913773e-02
1.181915632291105807e-02
1.596780940717323072e-01
-1.161232861026538637e-01
5.281225437951127255e-02
2.316157337343749401e-02
1.222906388125660215e-01
1.339546116268163223e-01
1.723098237908782596e-02
-7.801540198972166384e-02
6.117628411156907087e-02
6.736572508180960206e-02
1.660360223095177223e-01
1.476946097564856564e-01
2.250685888626775127e-02
2.358591419335417105e-01
2.260938681229591185e-01
-1.328597887863587623e-01
-9.928167484108620100e-02
-1.014275959270885541e-01
-1.765929765216814329e-01
-1.608672291398653142e-01
-1.307619089653065114e-01
-2.696132575806263199e-01
-3.182642171102880724e-01
-2.244237687442446616e-01
-6.045914029045251076e-02
-1.451985864717131140e-02
-9.114359863083237867e-02
-3.944566223335531363e-02
-7.220096588510943603e-02
-2.424534553859939434e-01
-5.746180356970215924e-02
-1.689705787526055714e-01
-1.535744192575120570e-01
-1.038935365409581063e-01
-1.923271297223356213e-01
-2.742105579213542366e-01
-1.275520642928180126e-01
-1.197698375301061158e-01
-1.898041373791997388e-01
-3.720176987951585856e-02
6.179088753974039394e-02
2.935488033466311306e-02
-6.821303286738124305e-02
-7.427598449697465910e-02
-8.146704563561698448e-03
1.422017640112921422e-01
-3.164091398494672108e-02
-2.359158352389421065e-01
-4.753931881806944260e-02
-8.775912050068081227e-02
6.523340851906578308e-02
-1.559381623186559540e-01
-1.073431480793701348e-01
-1.109666699942548490e-01
-1.276960758854145950e-01
-1.203087262541492203e-01
-1.137751111042078767e-01
-1.461741040324882612e-01
-1.948045430166438496e-01
-1.498509656520801148e-01
-1.112308626674583800e-01
-9.658582869269972948e-02
4.443786463936381936e-02
-1.240059743998886549e-01
-1.494742091846027188e-01
-3.662245094339721535e-02
-1.624655720606230369e-01
4.033486509375886625e-02
2.144472741911119806e-01
1.726128072765619470e-01
7.751279199436801083e-03
-2.182727165284085655e-02
1.928464703204045005e-01
2.179846590591934599e-02
-6.210489489684797859e-02
-5.123158331370796306e-03
-1.366124554952276304e-01
-1.222041433418968454e-01
6.537283228617861430e-02
2.265434251526983814e-02
-8.896440645988502871e-02
-4.497697153445573415e-02
-8.833298204384970598e-03
-1.135272376254560511e-01
-2.735869627292422321e-02
-1.624064726402270342e-01
-9.215490559380175306e-02
4.189405721980588027e-02
1.865002641013992213e-01
5.131476570116436792e-02
7.172643762046813920e-02
6.311178857117266672e-02
-2.820242605329522090e-01
2.076316729605712230e-01
1.743584935735046360e-01
-7.618116006406307206e-02
-1.999313569597740703e-01
3.302535577598308958e-02
1.085931684537701745e-02
-7.912047886947372322e-02
-3.377629117583254986e-02
-1.043216972242666865e-02
5.073574597105552642e-02
-5.999116339073433390e-02
-5.651480408173701177e-04
1.435701795804280589e-01
1.757538096329600286e-01
-3.857796168817757658e-03
2.199016439134815204e-01
-9.932075862611759731e-02
-2.227748942918510444e-01
-8.899011947635304676e-02
1.293511900298044137e-01
1.720542083566226343e-01
-1.251358604446207723e-01
-6.803391443630030233e-02
-7.098072897560255001e-02
-1.395811993416655418e-03
-7.149792214720515626e-02
-7.111753780685881043e-02
7.220615835607133159e-02
1.829164773679630984e-01
1.477921415654958603e-01
-2.186782653408716470e-01
-2.249703495561232724e-01
-1.368524342987414710e-01
5.635459173040092973e-02
-1.705043523931004668e-01
-1.695294394778034675e-01
1.017178569238967462e-01
-6.478308165719712242e-02
-9.971451685175657109e-02
-9.025116372217703575e-02
4.668762579441652905e-02
5.079179099676803255e-02
1.159502141263545061e-02
1.345819281936752598e-01
1.258154726118818068e-01
8.369462191173400456e-02
2.543622722181467233e-01
1.547839439685218810e-01
-4.043092892328342680e-02
1.343319665063133321e-02
1.427327050756996459e-02
-4.116172401859756469e-02
1.706334940703553571e-01
4.963134542155480528e-02
2.029874035097618268e-01
6.982533250180486539e-02
-7.763687522001955221e-02
5.929582732431193035e-03
-1.468005354482349034e-01
-8.336922914260729012e-02
-1.319491958129830611e-01
-1.117444996509652372e-01
-6.106321540715364121e-02
-7.579735355497951854e-02
3.870897028626451436e-02
2.453227786854847089e-02
-1.221911372306579285e-01
4.578359976961031766e-03
-1.273095266545744633e-02
8.833886642870929229e-03
9.137817614252327636e-02
9.149202402925591272e-04
-2.390370744150464161e-02
-5.063712642353049992e-02
-3.310187459626268147e-02
-2.272929455574598107e-02
3.285880088058489717e-02
-8.403364725468266683e-02
-1.458094467080325585e-01
-1.531275114476513266e-01
-1.720046959954576460e-01
-1.027926984130116822e-01
-1.441775584301542004e-03
-2.481108488529365150e-02
-2.248988362030494847e-01
-1.100965508671644943e-01
-1.837986675875117465e-02
-1.410923081269173374e-02
4.505544142725762674e-02
4.603068783258638594e-03
-1.065032207087071581e-02
-3.887113059339362508e-04
3.612236861548059202e-02
-3.388594706169858334e-02
-2.434588499135402831e-02
-1.065075623125786436e-01
2.249751804864900343e-03
-1.031598740547166188e-02
-2.492863856312695081e-02
4.088631423675543469e-02
-6.259602286157518736e-02
4.702614934395291796e-02
-2.522823104736610436e-02
-1.531502168203749230e-03
4.960893925484102240e-01
-6.786866545046574273e-02
1.397168705667386768e-01
3.446328188796466963e-01
-1.099075617544891109e-01
2.160443797703499522e-02
3.749474243078797144e-03
-1.332194655774428527e-01
-8.601581226817026082e-02
-4.553099821255764124e-02
-1.035926786646357983e-01
-3.197825941081948453e-02
1.361457377541341052e-01
-4.919198321325397166e-02
-1.390768751452140239e-01
-7.214113403333527463e-02
1.788031645652075202e-02
-2.832289698972416739e-02
1.061190308419235340e-01
5.012843880610258658e-03
4.862769314566972589e-02
2.182806953553368678e-01
3.627099920085362361e-02
-4.130291185447657748e-02
-1.200278403789817316e-01
-1.991383831155463247e-01
1.679375388364445082e-02
2.267877050426032187e-02
-1.265871311446398750e-01
-7.853537528383208732e-02
-4.840578825518598166e-02
-9.393020705225707534e-02
-4.842787339878507069e-02
-2.108503722609125601e-03
-1.593884439538607867e-01
-4.153683796975028014e-02
6.695382749182589299e-02
-5.066858980549956808e-03
6.254811249925438729e-03
-9.768547934679472529e-04
-3.675039579661287109e-02
-8.273114739285369890e-02
-1.761407702720636514e-01
-1.561570034642684179e-01
-1.851452504681193600e-01
-1.206987537548534078e-01
1.114291801508354588e-03
-1.649330523387513778e-02
-2.745860614636655081e-02
-9.542609061503053158e-02
-4.150238876114165781e-02
6.196156586796127720e-03
-1.447043604780926807e-01
-3.307047666560826438e-02
-1.165553987986753526e-01
-1.500197614758226328e-01
-8.153723749548079380e-02
1.195226092143129581e-01
-3.168487856801315006e-02
-7.478466899767330367e-02
2.251303312694934514e-02
-2.989937293793160089e-02
-6.304907997828336497e-02
-6.918398441977750488e-03
1.551439261990743279e-01
-6.011649019136415528e-02
-3.450183302396403473e-02
2.263720673774969050e-01
8.788038308634404938e-02
-1.034724726501946995e-01
-1.484265736252756152e-01
-1.057794070869552266e-01
-6.594376410383477605e-02
6.246204713722430107e-02
-3.307868924723168791e-02
-9.249508724330916809e-02
5.404387358430801092e-02
-1.715798733291959977e-01
-1.201721729946930023e-01
-2.915330898592935829e-02
-4.543293967630101376e-02
-1.362439552435834311e-01
-2.013898179542164199e-02
-5.889766516021605058e-02
-7.568003363184139243e-02
-2.191868843902556319e-01
-1.003922059970587394e-01
1.612268373629054952e-01
2.459089232587021445e-01
1.465443932867327714e-01
1.374093626517926547e-01
1.563375929915642587e-02
-9.457791637872214885e-02
-2.143645873636093602e-01
-4.386927971884710398e-02
-1.131086047835223457e-01
-6.584229274902875240e-02
-1.595983168316434178e-02
-7.607538387611956221e-02
-8.970012415832990735e-03
-5.919357761751076891e-02
-8.433305845311819815e-02
4.474447596712173049e-03
-1.436874918736458749e-02
-3.754963428378479268e-02
3.834902446600362003e-03
9.968287255178835682e-04
4.623952317727934164e-02
2.197805514056687046e-02
1.843964552912701060e-02
5.227005777616755555e-03
-4.263228537900234927e-02
1.665870637199695983e-02
2.240196598503945097e-04
-3.123237686684343997e-02
-2.985368199292787877e-02
-3.947473009729355188e-04
8.173793269333859413e-03
-5.110854820216707839e-02
-1.397999581970496390e-02
4.613327750237950289e-03
-3.251907241401072457e-02
-3.348342036681381702e-03
1.915664536149673178e-02
3.836307802691830277e-02
2.196707674563180487e-02
-8.108985325039756373e-03
2.897122880104429851e-02
2.150453091978533210e-02
3.674442486073094261e-02
-3.710104457747784214e-03
7.054819474983973528e-03
3.257627783552864004e-02
-5.086823995915006752e-02
1.908505109691302655e-04
-3.801036434723171348e-02
3.916160485759805077e-02
3.575616500401411924e-03
-1.139424119604860383e-02
-1.449406613012166507e-02
7.368641472899731260e-02
-4.754314523429353789e-02
-3.852713996550510139e-02
3.650037612621572641e-02
1.767854352080703434e-02
-5.028160411366820216e-03
1.557814700623094510e-02
8.992264149220420555e-03
-8.924978260278345829e-03
7.372567941216123799e-02
2.385780194762597214e-02
-4.078624804896614775e-02
-1.678461948832896122e-02
2.358782961629042607e-02
-5.970326935258545714e-02
-3.054923005416755946e-02
9.370678672648198333e-04
-8.724944737905452122e-03
-1.963654203866260772e-02
-6.002280791117745561e-03
6.110350610470916509e-03
-1.349276903651067333e-03
-8.550566586632007623e-03
-2.333818062209512805e-04
6.068347929440573441e-02
-1.140825232281603846e-02
-2.449651025444377073e-02
4.442627329835050626e-02
1.660875666578017981e-02
-4.639031213370948398e-02
-9.389688751512855619e-03
2.930260177181339895e-02
-1.139697793660695430e-02
5.095913390255644299e-02
9.736347445101928288e-02
6.227629163655381411e-02
-5.304620452326140601e-02
-4.491204160418751229e-02
2.002773563172820237e-02
6.932768704256968458e-04
-2.697562000788913256e-02
9.155636663884018922e-03
2.201884745303174518e-02
-9.998617716772680714e-03
-3.585650866529788844e-02
2.058609357103498988e-02
7.029280928759046830e-03
-8.566493012687596831e-02
-1.122744461241689806e-02
-8.729913200282058902e-03
2.864709582922550860e-02
1.295928903281547487e-02
-3.005607192016897244e-02
7.550503750439752082e-02
6.181486376712991282e-02
3.382386795855377160e-02
-4.333916283367903084e-03
4.048822412690751028e-03
-7.550885133886626847e-03
1.790220081399506238e-02
-3.166903576735486075e-04
1.585469243936312583e-02
-4.284818927244619935e-02
-2.623981189459945185e-02
-1.476114874841741829e-02
4.814228396074125838e-02
-5.784788498483062896e-02
-1.132347885030231677e-01
-4.750286317935237257e-02
-3.945447695985369874e-02
-4.817682849987173915e-02
-8.324589140958371658e-02
1.109239715298088007e-02
2.634004344591395035e-03
2.962218747945790168e-02
5.624436037795491755e-02
3.242386380842238874e-02
-3.079080608281841228e-03
6.656179474893803016e-02
4.361078223858184250e-02
2.072052075849147718e-02
5.377027147472226987e-02
-1.440250371792653819e-02
1.345303391057848554e-02
-2.810360660556326245e-02
-1.465579209509634828e-02
-6.424536179969272953e-02
-2.300755679738239121e-02
1.918982362586147804e-03
-6.902157653412920903e-03
1.400282853419484476e-02
2.275403215107172500e-02
-2.764457495576300595e-03
-6.689570014770464257e-02
3.564918275613856991e-02
2.078717589788679071e-02
1.090727739979158173e-02
5.956611485438111780e-02
-7.076438887189564000e-03
6.173734653379568497e-03
-2.703412883876945075e-02
8.106611108307282959e-03
1.140371710784405558e-02
-2.914940297492222350e-04
4.116323929966250890e-05
-6.801059083410816372e-03
-2.669338158860695351e-02
-1.233631279318129874e-02
-1.012173856144005582e-02
-1.043197827912265875e-02
-4.271625050720490729e-02
1.409012500489559110e-02
3.067953431892224067e-02
-2.827904822990972688e-03
2.367674958603219887e-02
4.404990755841729083e-02
-5.287339486380107645e-02
-4.240999645609349472e-03
-4.031524577861490821e-02
-4.415191296186244535e-02
-1.275589430687780641e-02
5.914613414537345931e-02
6.099443462992958087e-02
1.760535666600560739e-02
5.233392902595202650e-02
-4.101175148949866983e-02
6.479981370193919898e-03
4.521385631006701739e-02
-2.888815112278543540e-02
-5.710320446761747715e-02
-1.620301077960013825e-02
6.977556217879210543e-03
3.859397531905663266e-03
-4.006989468249402137e-02
3.862733903636120930e-02
1.457232098418830522e-02
1.230803803027638458e-03
2.915853417475607751e-02
-2.171405607030451115e-02
-1.290245975596081979e-02
5.359115012876749379e-02
1.186790372071747264e-02
1.110929956442318484e-02
2.270671964852468902e-02
1.909925134376881661e-02
1.075757706259578873e-02
-3.623707486193034760e-02
-2.467153277610135628e-02
-5.121369268475191305e-02
1.085107782472695959e-01
8.838419934188380955e-02
2.084834288757130005e-02
1.622619868361884279e-02
-9.450912320060358973e-03
8.673281949447896738e-03
-5.395354403281035077e-03
7.698178773891558441e-03
-2.047982589324397890e-02
-1.950786703561092341e-03
1.985702043795552034e-03
-1.808985299518188483e-02
-3.284215134256699559e-02
1.317369672966004109e-02
7.274969612095826335e-03
4.592800100536877789e-02
7.487116564260932507e-03
5.033106870852260828e-02
1.050422697255503912e-01
4.653410521850559478e-02
-4.578478942555348763e-02
7.267991866653084054e-02
4.920060626171395002e-02
6.960638718740103786e-03
2.094351901270124876e-03
-1.027739120457458848e-02
-5.792467926602654776e-02
-2.325928558867122742e-02
3.597281699575760605e-02
-2.730540457946739608e-02
-1.060282339472889100e-02
7.027144028924148592e-03
-1.230583250237618151e-02
3.637783678652916752e-03
5.403081294780141125e-02
1.160883277419791360e-01
2.742464558099251548e-02
1.564286222405513599e-02
2.295529469207974876e-02
-3.922671246031469994e-02
5.454190239034349685e-02
1.911621452510101071e-02
-8.470435200275931373e-03
1.884057802092532763e-02
-2.297029542507128541e-02
-1.720690421436870537e-02
2.064628719472458643e-02
2.353353381519001850e-02
-3.405578890900967659e-02
-8.294082551459526498e-02
-2.733999312438020746e-02
1.779439083830899535e-02
1.648041694487959244e-02
2.136130048034903459e-02
1.521533557113429261e-02
2.699502865341090949e-02
3.003595184783283342e-02
-2.473007513519678846e-02
-8.393836849587065635e-03
1.919727631942638735e-02
2.809085016747064900e-02
1.458568197790962272e-02
-4.028398490905176193e-04
-3.541486139503213608e-03
2.886386412196515969e-02
-2.711441843639057683e-03
-3.993963337576494216e-02
3.182601067947279233e-02
9.953778967846722836e-03
-4.754202413460080490e-02
-8.485911614819342808e-02
-7.375381377566538228e-03
-3.271584217419400836e-02
-5.693869408915357838e-02
1.573352670873934961e-02
-9.122297044984056802e-02
-9.197436289661604925e-02
-1.034180624009787240e-02
-1.072390425705816927e-02
-3.923307653464525729e-02
8.069479238727039067e-03
-5.928404931495810139e-03
-4.045062852020202965e-02
3.687748053463808795e-02
5.904794991069411969e-02
6.412663000793458745e-02
3.643995199604725677e-02
5.994152294467026271e-03
-4.813637985161173943e-02
-2.375272033044447187e-02
6.547279308338298243e-02
1.815261571835427579e-02
2.151338341633108470e-02
-6.222143633336375129e-02
-4.639282884535617796e-02
-3.049963029869598788e-02
4.034385372815748466e-03
-4.398066760318834062e-02
-4.787922158498852943e-02
-3.219127229366428034e-02
-3.030847861005706717e-02
-4.333879716658298360e-03
1.235407436513579968e-02
1.491014289758245924e-02
-4.065077205703075507e-03
2.764129233395239485e-02
4.926753277010031555e-05
6.977970710438506641e-03
-1.953787897916122243e-02
3.336624554154485334e-02
1.251194930027809023e-02
-6.972030348926400167e-02
-9.280245323096899396e-03
-1.450783889223480200e-02
3.196508152472200825e-02
7.073956122860670936e-02
9.049511481007226771e-03
2.332480810304986621e-02
3.090190601461214204e-03
-3.684130987707478350e-02
2.431618503601519835e-02
-2.191074200995002039e-02
-8.951594948170402133e-02
-4.691318360059255205e-02
-4.660358615778064512e-02
-1.029600460274422702e-02
-2.773386268811426497e-02
-9.419494286988886259e-03
1.746056402129653531e-02
-4.674081504671226406e-02
2.723142562058399746e-02
4.526101584013261792e-02
-1.107082803309795416e-01
8.723488356061612214e-03
-1.841219744627590332e-02
-5.034377066326567451e-02
-1.889669272769545216e-02
2.259160261745809389e-02
-4.354179688823638789e-02
-8.562065716658000258e-02
-2.734550432473890555e-03
-4.235726286026587212e-02
-6.109456873986891801e-02
1.291460325637095764e-02
-2.803899563953293414e-02
-4.163694059133009329e-02
4.099252829691672415e-03
-4.864465187632786153e-02
-6.759773277529793067e-02
-5.191152171237578550e-02
-3.053621272465111523e-03
2.640278207068173094e-02
2.466198352133535179e-02
-4.391312396609261572e-03
2.712946736619134113e-03
5.319569426135603921e-03
-4.108196795399269609e-03
3.275037099697365034e-02
2.539654585188235586e-02
-3.258740710743170815e-02
-3.988430134326629434e-02
-4.214234071487071159e-02
-3.295870903912660049e-02
-2.696345974337144291e-02
1.056548658393378741e-02
-3.562095514228615784e-02
3.089537744247620316e-02
2.553649681277820813e-02
-1.402185474851302266e-02
4.892596407866762337e-02
4.056855144377063960e-02
-4.264780894259826566e-02
-2.365585417372163823e-02
-1.996068024926501115e-03
-2.834799062222957688e-02
-4.794302682609950100e-02
-1.143048310106902291e-02
1.127098833403423345e-02
-2.076801661846489760e-02
-5.606557745742140469e-02
2.286196366653757070e-02
-7.224579848055727276e-03
8.276077376067118158e-03
1.180925344267965554e-02
-3.552657321675162932e-03
-1.267469735193526735e-03
-1.586149657151700310e-02
8.511421347734408893e-03
1.449996080944068386e-02
-6.438686867932101598e-02
3.260742135633890731e-02
2.222010789852632215e-02
2.822455754605899397e-02
4.171512000691273564e-02
3.716636382705237190e-02
8.052842852716493929e-03
9.450999807746664205e-02
8.039458284468926907e-03
4.440509080069807157e-02
-3.207851481073604842e-03
-7.597289860009563689e-02
-5.475737460801780032e-02
-9.039770486761063151e-02
2.022544627744801010e-02
4.111658269282355421e-02
4.529546084237449227e-03
4.193279356146036724e-02
-1.566493950594832069e-02
1.296035250588849436e-03
2.486764140179294202e-02
-1.292054403698575382e-03
4.934956793042060558e-02
8.113048525608394790e-02
1.093116730081414908e-03
7.866501939067490137e-03
3.628335427634930832e-03
3.632137736779744025e-02
4.169007652573904210e-02
4.367878374536517116e-02
5.847455875793739627e-02
5.313542415142572667e-02
3.133174820988902237e-02
-8.584280778560153535e-03
1.212943218062891709e-02
3.964858122693573628e-02
-3.084759554491762687e-02
-5.767812220191841088e-03
3.904441117270808330e-03
-1.092097053239383421e-02
4.046522586685552536e-02
2.251666705668733948e-02
4.032138353749347738e-03
3.757592669097133825e-02
-3.272272384034532328e-02
-1.542298523712075722e-02
-1.584752892665353824e-02
1.246727190588734803e-02
5.816080800747874813e-02
-6.546893629088862410e-02
1.528272623574858206e-02
1.050689759966422047e-02
1.776895340060775583e-02
5.678274597862339144e-03
-3.554366946318754383e-02
-5.100185827841702962e-02
-1.573970009134647088e-02
-1.805759256570576773e-02
-3.222762002211364274e-02
2.907060643063021175e-03
-1.052984190024501381e-02
9.239751621297849146e-03
-6.059982849321982751e-03
-3.224758502645489605e-02
-2.024470299824506977e-02
-2.178393934816088423e-02
7.620538953020841548e-03
3.504879719919146153e-02
4.189898454754886065e-02
-4.277032208836676480e-02
-4.263034598130958225e-02
7.414512890851075039e-03
-4.422210428019514306e-02
-4.160943278634582354e-02
6.145356162559156496e-03
6.887426717777345164e-02
4.343617986736985660e-03
7.219454012619447303e-03
-3.088846224810977426e-02
1.072245835278155292e-02
3.866295647837520583e-02
-9.203159765532218164e-03
9.184454164771030035e-03
2.328689607381427898e-02
2.501908520617445592e-02
2.994795704727674836e-03
4.481058103423789934e-03
1.514869510033308407e-02
8.926578184793124496e-03
3.691334943826540815e-02
-8.371024042474906751e-03
6.193392665001225955e-02
-5.106061123661361813e-03
-4.987758912159321462e-02
-1.218422252290219873e-02
-5.812018228833270433e-02
-4.494435651701318701e-02
-4.494855592595570215e-02
-4.459434500191311601e-02
2.756178855387290960e-02
7.029229064801298388e-02
8.021538501249376790e-04
-4.481820870317541200e-02
9.374389407855494502e-03
-1.169812836472459115e-03
-1.132508925238431656e-02
-4.605242840266871723e-02
3.645569349304137678e-03
-1.330133445355675958e-02
-4.276436873467130001e-02
4.633571038764620204e-02
-4.920953943552731219e-02
-2.171065086095740407e-02
-2.586329003891462905e-02
-8.782003473482265579e-03
-2.239484228708530766e-03
6.139768895062426395e-03
-2.056769705850684717e-03
-7.301955948559470284e-03
-2.529866965767933740e-02
3.351407039420792842e-03
5.709477316927404067e-02
2.659570551593787302e-02
7.786003209204615111e-03
5.319148961362991229e-02
2.223021455986852815e-02
3.366079300679927083e-02
5.236419871765598394e-02
1.695722273971501937e-02
4.487676468310822925e-02
4.079437864113030776e-02
1.945088059524794147e-02
2.331617249214560468e-04
1.203369341013915683e-02
1.750932557139035610e-03
2.100122107090548335e-02
-1.463296933429533014e-02
-1.672770534317980645e-02
2.733256557697662931e-02
3.533762181722929774e-02
7.305741493596728739e-03
-3.654964688607653667e-02
-4.356019235300781500e-02
-5.749397371921058895e-03
-7.137766183652564933e-02
-5.161408243856813183e-02
-2.072679263023048321e-02
-3.428364770665367350e-02
-2.544010214658035812e-02
2.496772521940961338e-03
-3.354367999917691467e-02
1.975846844066669189e-02
-2.735428766934099032e-02
-6.824939554622883042e-02
-1.756891044842436370e-02
-4.145864068664551622e-02
2.935251480654490347e-02
-1.238954931223557737e-02
-5.364862272824956480e-02
1.741389798464708461e-05
-1.270625683216423767e-02
5.828670645521664279e-02
5.024348986738522843e-02
2.227133691570089280e-02
3.236822163993396950e-02
8.223608862690201526e-02
6.470088870325726993e-02
2.656012998419276377e-02
-5.279232259190847626e-03
-1.229026388524121806e-02
-4.209827835367589005e-02
-3.024923006293087687e-03
-4.398291713687087212e-02
3.557714529046138857e-02
-2.153611764168907733e-02
-4.234607281847291987e-02
1.817705988268288053e-02
-3.249820948215854932e-02
-2.038575305594249321e-02
7.241317447365634707e-02
5.450449328433456392e-02
5.683861446256380928e-02
4.217153226490753803e-02
2.340916823553668494e-02
9.416313297580328201e-02
3.788566453318401028e-02
1.697284584019954218e-02
4.090705230352076859e-03
-7.095052285359200461e-02
2.856395633332003275e-02
7.374421946736031686e-02
1.251542890035246824e-02
4.331859013043889983e-02
2.367912694603483900e-02
4.451045007341095094e-02
-8.690854036649775516e-02
-8.304354760171042682e-02
-8.728784442377723884e-02
-1.106762127745974794e-01
-3.723262117124844645e-02
1.259199886529456308e-03
-2.422393041051862719e-02
-1.553862336076773870e-03
-2.034524787936214940e-02
5.123717538091415724e-02
6.614953978821913605e-02
1.212507161150663121e-01
-7.714765909284534984e-02
-5.893709706801256165e-02
4.395571326640262955e-01
9.856103882205011213e-02
1.321883371357595325e-03
1.139659745995042633e-01
-1.249518987981100560e-01
7.905777689579379652e-02
2.120481782093014411e-02
-9.981273554562314354e-02
-1.186150241642386360e-01
-1.599609660790113630e-01
-2.543575708262040685e-02
-4.204179349117935505e-02
-9.456875463908759327e-02
8.000384943853564024e-02
1.481609852262954496e-01
-1.379624372213829678e-02
4.478253558899237402e-02
-3.452973082686176115e-02
-2.152965715897365850e-01
-3.191287276954704946e-03
-1.170024066925270945e-01
-2.328036141052998997e-01
1.334152543850531669e-01
-1.595254856151182843e-01
-1.224948168926287967e-01
1.542056225676891046e-01
-7.112279680640436197e-02
-2.223200621534788396e-02
1.574912224860594012e-01
-2.992078860359335263e-02
1.138101843863460316e-03
5.920302716523374170e-02
2.778868201132113705e-02
1.220971668527243426e-01
-9.075538711213882240e-03
4.386288488723488060e-02
1.093749117774105301e-01
7.546698471770629801e-02
4.640217044571610244e-02
-1.512867316736205003e-02
8.733164975650914430e-02
9.230236857160484254e-02
2.827786733323113706e-03
1.766717060311925880e-02
4.201394791022671632e-02
-3.400441343744216999e-02
-2.465673402997694275e-01
-2.135614751542370612e-02
1.052727996534118110e-01
-2.588425650206609835e-02
1.048339571368970269e-01
1.014373214980792554e-01
2.059099126348252345e-02
4.686598706762951788e-02
-3.603954307490872533e-02
4.382575566851155263e-02
1.219508149157603333e-01
2.536736290745882777e-02
-4.743412063710640558e-02
-1.059725651816413421e-02
-8.395628489946464768e-02
-1.211153728341491514e-01
-4.421082933869621007e-02
9.915862567884831114e-02
-1.673140124527145167e-01
-2.965536508051819231e-01
-1.144575141581033878e-01
1.433058213062656516e-01
1.120369855765268319e-01
1.820776520231083273e-01
5.814656145135593812e-02
-9.373297928501192477e-02
-2.779616064542417275e-01
-1.371359988286723341e-01
-8.705234076947367117e-02
-2.034010375221833034e-01
-1.557581123544481659e-02
-5.422271276934058359e-02
1.693771449757369429e-01
1.951241358813107507e-01
5.907178446871960698e-02
7.905905399587770388e-02
5.633391651264030991e-02
-1.477346897515235957e-01
3.686442975102474304e-03
-9.128443182080120399e-02
1.196038089060288689e-01
3.600846075178101291e-01
-2.028154831344428782e-02
8.083186887581780833e-02
-6.821300025134661993e-02
7.045122879484996131e-03
1.853068222477920468e-01
7.945117704523113611e-02
1.171410587024716565e-01
4.616466982280534315e-02
-1.085922200614780064e-01
2.572258469645464368e-02
-1.092403683504081374e-01
-1.794473217596892767e-01
-3.454316837262978723e-02
6.781410777169456783e-02
6.388563326787216612e-02
1.167735871507712409e-01
6.352344875054832807e-02
-6.552725877489246065e-02
-1.785479100281550310e-02
-2.486404283378509245e-02
-1.357008529435685396e-01
-9.186986089809499878e-02
-2.782656842508376971e-02
-1.683742348138119738e-01
-4.254782906889371247e-03
-2.422629264574689689e-02
-1.119150958384560052e-01
-6.093546808573629958e-02
-1.036607047529245901e-01
-2.191588955086283264e-01
-4.177219206448941347e-02
4.118530991925046375e-02
-9.157981787152341679e-02
-2.036095727686607904e-01
-2.383497478266765612e-01
6.783856197204861382e-02
-4.780620201353558141e-02
-2.035128304376701280e-01
-6.682492310294695093e-02
1.997683569945796489e-01
-3.542453539984698196e-02
-1.630942578149323641e-01
7.996117456600328188e-02
2.123403755090834399e-01
2.522071635763620603e-02
6.993228357495132053e-02
1.682083851045857717e-03
-3.873906603431426232e-02
-1.266177705434665401e-01
-7.699466570220908634e-02
-1.102697376798334773e-02
2.375193554894472481e-01
3.292172477958680843e-01
7.502329508646805867e-02
-1.840023138364069166e-02
3.930614113044394835e-03
1.460294891891781612e-02
-3.738343096069741273e-02
-6.416539550545932377e-03
-4.627772917365717553e-02
8.572185043675728533e-02
-2.117523655698246576e-01
-2.578565051145403908e-01
-8.772820399655036072e-02
1.521564688249170405e-01
-2.105425465310489450e-02
-6.853050492899175061e-02
2.980760394229486996e-03
-3.776240174551242362e-02
-1.628617216186525607e-01
2.092708721228648400e-02
1.759719938265573436e-02
-5.563821157611805596e-02
1.425427660039405575e-01
2.982806687161423942e-01
-1.289824693217925811e-01
-1.864082210884215607e-01
1.243438418535675882e-01
-2.204578689309233397e-02
1.618058984540862721e-01
8.063384904213977133e-02
-4.543605089769056637e-02
-2.197804459887128525e-01
2.253117557508692304e-02
7.611109107818715691e-02
2.278272163274093765e-01
1.337171165863052513e-01
-6.784290251262606319e-02
-1.744472856324377763e-01
-1.472496929979472298e-02
5.017167931633866734e-02
1.121471041311520589e-01
-1.269938991807044171e-01
8.594741190690033394e-02
-1.887130907939232882e-02
2.600304813930707781e-01
-4.134495009591841741e-02
2.403575944471105647e-02
5.924578735551700587e-02
3.443518676104684317e-02
-7.438405717014839880e-02
-5.487018651480259079e-02
1.828024529788699684e-02
1.113189753805015302e-02
-7.562121521573074434e-02
-1.382154310146227194e-01
-2.201760004113606159e-02
1.840294022223202056e-02
2.967659053723630258e-01
-3.555473295391248234e-02
-3.902544839613594774e-02
1.821054602775449560e-01
1.230939927925376598e-01
4.016962075794730525e-02
-5.610343327474173747e-02
1.350469243770143803e-02
1.539814501771780419e-01
1.903685377765907127e-01
1.972439060600375826e-01
1.948789140019427657e-01
-1.241865825753859232e-01
9.377193483684062580e-02
1.329650912694647635e-01
-6.658031977727309203e-02
4.645902672815721557e-02
1.448545251178281201e-01
-8.036923870387795155e-02
-1.766404157460470248e-01
-2.833934410511986662e-02
1.008765199228210500e-02
-1.270749030528322554e-01
-1.222371039612919624e-01
-1.304610792686246301e-01
8.168902165885538746e-02
-1.184259973547422684e-01
2.280762908364667579e-02
1.857012302131620107e-01
1.377903886443173354e-01
7.927172448709447761e-02
4.774317352505220713e-01
1.040002694015389056e-01
-2.653100238046567430e-02
-1.864618113007107114e-01
-1.472556759052296715e-01
-1.251104458410944864e-01
-1.077395597912616937e-01
-1.977731853925149622e-02
-6.113410114074899204e-02
-8.359283927913518930e-02
-7.459888193457560324e-02
1.263356727324482787e-01
1.681407174633967327e-01
1.999378407067586294e-01
3.892003298252953020e-02
6.795058417899096925e-02
-2.761168767088252596e-02
8.779977225866368584e-03
-3.379606748972454472e-02
-1.327329843281192523e-01
-1.512028643244778259e-01
-1.985290206801694213e-01
-1.278102834097064877e-01
-8.392024614824510065e-02
3.644738325368727418e-03
-1.526789280696812072e-02
-9.936232447532115930e-02
-1.091868447926118701e-01
-1.171515794476305078e-01
-1.082836230902636202e-03
-1.567121727716187796e-01
-1.836009471419784989e-01
-1.818716629782595462e-01
-1.841042952105392538e-01
-1.721079795497257592e-01
-1.783986706185587134e-01
-1.178317538873077802e-01
-2.870967380147571579e-01
-1.421719617275953029e-01
-2.453338589160152794e-01
-1.738395672927192381e-01
-2.342418047676392279e-01
-1.255327180506750906e-01
-1.105041641975318262e-01
-1.052274346055461218e-01
-2.172147812481227402e-01
-1.640111570192230583e-01
3.579395059656027139e-02
-8.924454571872152131e-02
-2.141035361522723723e-02
-8.742233719336503506e-02
-8.235222586464108208e-02
-1.556569148371522715e-01
1.858021851081037221e-02
1.194525405336687579e-02
-1.284235500694137777e-01
-9.520972290604284849e-02
2.552984123243434017e-03
-6.550274058622523876e-02
6.674914494306224966e-03
-9.982920187154841266e-03
-1.623045887066833920e-02
-5.571697052492510793e-02
-9.117306016170950711e-02
-9.612450782981886432e-02
1.741036150670610128e-01
1.787023218264001401e-01
7.110138738328584951e-02
6.497572750650634776e-02
1.072905378005916954e-01
-1.413798397340077298e-02
3.726490594142802502e-03
-6.835929886471632522e-02
-1.201140757109523116e-01
3.854010770537624644e-04
1.366060636159848185e-01
1.871798401599940320e-01
-5.630281019389515168e-02
3.121549880452265460e-02
-3.405073831000555995e-02
-8.862926076096931671e-02
3.172736531727563675e-02
-2.372651192564599262e-02
-1.389025508524598454e-02
7.588655608723469947e-02
9.851995832498784689e-02
-2.052185455727007224e-01
-4.568094217077373759e-02
1.114150911592589610e-01
-1.402245760645783046e-01
-5.925653472595171500e-02
-4.360531859578241874e-03
1.447821383385420324e-01
-1.445473972116372019e-01
-1.019413654395458502e-01
-1.506352986512804193e-01
-7.468754840720687183e-02
-1.750213487856027740e-03
-1.173686811295350935e-01
-1.844550578139602659e-01
2.635519715618034331e-02
2.472239670401960368e-02
9.575174924374184326e-02
6.057400876929518868e-02
-4.920218705097253314e-02
5.171785292335079331e-02
-3.918970106371237605e-02
-3.376095390286641684e-02
-1.207741178275949755e-02
-5.756415315568022550e-02
8.342057740769226459e-02
1.855326743315241500e-02
5.488735937835256817e-02
1.262579642584492901e-01
-2.614264797614063163e-02
-2.066807318524829448e-02
5.611365007541298244e-02
-7.271366091781404639e-02
1.158691576690116798e-01
-1.123840608534007746e-01
-2.802605998996496664e-02
8.774060973076834580e-02
1.856614081529256384e-05
-2.369416849951266890e-02
-9.710999717348026139e-02
1.240467307845692091e-01
2.370884315266886533e-01
4.126934523771524227e-02
1.170178625363400317e-02
1.379631224295699565e-01
1.202029688088594173e-01
-5.598021311299269248e-02
6.671586835402837368e-02
1.745392421708384378e-01
-1.922539534244715187e-01
-1.565629093664050175e-01
7.014594321884269623e-02
-5.878761503606210609e-02
-2.040123125456428377e-01
-2.820965312520037904e-01
3.684485465955076450e-02
-8.833298687240172253e-02
-1.492959859298841896e-01
2.263525523265568218e-01
-4.096751769679947419e-02
1.509983416784727583e-01
-2.874678702312074424e-02
-3.017305986213008467e-02
2.805186594343495737e-02
-9.532548309694686972e-02
2.602593195980846263e-01
3.106401847087514323e-01
-3.666715111530772231e-01
-9.448927582175722928e-02
1.352442590025054181e-01
2.969326055929186192e-01
1.740471187188815383e-01
1.610017013325654722e-01
2.192635430624765847e-01
1.670594082869263919e-01
3.278029301067047485e-01
2.307812101436172159e-01
5.736101958930715089e-02
2.256105945043234973e-01
-2.136547647824956365e-03
7.962439607519206097e-02
-4.094317547599350508e-03
-6.345461598882348730e-02
7.489577970919672478e-02
1.565504743042101660e-02
1.475681415032117916e-02
-2.245423496084609366e-02
-1.656809133884255825e-01
1.890189975898043662e-01
6.684901736903935132e-02
4.809847130016992045e-02
2.664428035805421063e-02
6.104573061406618623e-02
1.808531556649967120e-01
1.341047951140723199e-02
1.492752590487729236e-01
1.423917535848331917e-01
1.003607687862220210e-01
-2.058453031017703355e-02
6.948938846526840629e-02
-5.551185598702312873e-02
4.081215673857550505e-03
2.712058536575680523e-01
-2.325352497859980994e-01
-2.817097218988241086e-02
2.851274176912175773e-01
-1.015512740191359120e-01
-1.670043623405123578e-01
6.152291546107501591e-02
4.687530536573650958e-02
4.069754567112902205e-02
1.338031702028149583e-01
-1.177537947924154893e-01
-4.960663051679305158e-02
1.253575900360375805e-01
9.209150841641514096e-02
7.031430980172072298e-02
1.443236407451617687e-01
1.129127242983638119e-01
-9.643102784703456998e-02
-7.293248228563536939e-02
-9.447074054037245261e-02
5.311440852324694761e-02
-1.132095527523123007e-01
-9.363446127833048582e-02
-1.687103600905928355e-02
9.513377144447661415e-02
-2.956034510162398876e-02
-1.639555218470917924e-02
5.736261663095695851e-02
-4.930247806716503423e-02
-1.532969431954624706e-01
1.815684383591726486e-02
-9.761210546847311209e-02
-3.439256387901894890e-02
-1.326279635091107689e-01
-7.140397211924093268e-02
-5.072274133709477745e-02
-5.335065870787095849e-02
4.566598490256765924e-02
-6.867911778635484021e-02
-2.319040184073652231e-03
-7.578661167440527147e-02
1.106310476902104961e-01
1.692947866843134419e-01
4.994566459564390992e-02
1.396931584559688022e-01
6.123263781068843947e-02
1.381741638849803278e-01
2.129245941407862386e-01
4.804024726753456376e-01
3.443044229424243596e-01
6.669633858760956602e-02
-2.516657157996614047e-01
7.805507202970696223e-02
-2.112889835352049217e-01
-2.824778216131715869e-01
1.578223353449743904e-01
-3.416821818682633238e-02
-1.238700510533370797e-01
2.030510747726770870e-01
4.748245580917557357e-02
5.017691835948036999e-02
1.754375954290254558e-01
1.525044266072769494e-01
-2.122746701761653032e-01
8.648604419782102148e-02
1.687237816392825607e-01
2.984812454161679066e-03
-7.531226097643441142e-02
-2.510439626899184651e-01
-2.722684862451286714e-01
-5.275449825722075547e-02
-6.317151302805233681e-02
-1.170822694397365277e-01
-3.087295070080626688e-02
1.655608659805384367e-02
-2.495410105222804764e-02
2.807805849296375333e-01
1.716310533221493684e-01
7.012613350355371977e-02
2.267701293936577600e-01
3.060395183073211147e-03
-8.091074247035265690e-03
-1.347943331769117514e-01
-4.846670271308937267e-02
1.536122456086622956e-01
1.090272606057179558e-02
7.605970046416357655e-02
-3.811989911889573923e-02
-9.223753507945382790e-02
-7.322455694115044544e-02
-7.172403099705389196e-02
2.280432568697870338e-02
3.819995649722443022e-03
-2.812047741224337968e-02
3.054002217350477305e-02
1.342820614048419459e-01
8.329569888215994367e-02
3.824086902496458967e-02
1.242910115024974532e-01
1.099973234335432787e-01
4.702297706165988606e-02
8.114327066809329247e-02
2.526165821335324413e-02
9.476998188696382497e-02
2.366469388275362629e-01
2.709080307185855463e-01
-8.858224268167978754e-02
1.542119947372100619e-01
2.516329324538749482e-03
-1.024160360790826035e-02
2.336134128704037485e-02
1.955053595879856776e-01
-1.617119396147189969e-01
-4.803258733321084245e-02
7.567368563253921987e-02
-1.305824837619871670e-01
-1.176881721110685647e-01
-1.725254153093017453e-02
-4.955908186774006519e-02
2.063281989057305990e-02
-9.545580596145901431e-02
1.108083113148004145e-01
5.870180670808626544e-02
-4.549280319912275827e-02
-1.425488182318956076e-01
-1.219015599116891890e-01
-7.834893035945196538e-02
-7.559193523009095916e-02
-1.359118650710020582e-01
-2.141021497388200800e-01
1.745589985625330964e-01
1.439078500184704790e-01
-3.380766003912918233e-02
1.828543288376018386e-02
-9.833303246510759210e-02
9.560976450915244923e-03
-1.296618305766565060e-01
-1.845398689907223541e-02
1.920439651100489253e-01
5.402122156967247013e-02
3.655009782724150114e-02
9.670841718467458603e-02
2.252554566999887264e-01
4.331554218718242089e-02
-4.981124647908816150e-02
1.284733089814512341e-01
-1.027739307132435886e-01
-1.376751830187941950e-01
6.571196232651631275e-02
3.229327824881060571e-02
2.640827294222387878e-02
4.012435190268931473e-02
3.530444897927269201e-03
4.101050471102052515e-03
1.086986395029759279e-02
5.651866387297516808e-02
7.173571123120039972e-02
-5.440782939634247924e-03
6.824791657067770176e-03
-1.348769085378934696e-01
-6.580024216658665603e-02
1.772322174824304125e-02
6.667950264003476291e-02
-3.263492280290820891e-02
8.440468101107344301e-02
1.473044520384556855e-01
-9.556211966575323125e-02
-1.243136981580364592e-01
-4.583316318854356586e-03
-5.760898295684371839e-02
-1.598048404125212152e-01
-1.050630080537893613e-01
1.023637792947034234e-02
-6.994703511182462363e-02
-9.209298053428352504e-02
2.256258189171705952e-02
-8.840791745249389211e-02
-1.048788923324435046e-01
2.818730531215059634e-02
-2.427604256074685982e-02
-4.614850786218632067e-02
2.629497095985719457e-02
-1.306135130166871140e-02
-1.653107107268173351e-02
9.383361866634790105e-02
9.207782705646845589e-02
4.167687275761982474e-02
6.055240872766197435e-02
7.925702997091814417e-02
2.543554164495563305e-02
-5.569495051325164953e-02
-3.961736720297245884e-03
6.552744093020436422e-02
5.186561616698994598e-02
-7.126185803356127439e-03
7.795233788455922797e-02
-1.867524154469138442e-02
-5.444425735248142016e-03
6.522303568217788228e-02
2.835250747308750915e-02
-2.473266699094845908e-02
2.464356200247769940e-02
1.986883526406065248e-01
6.540225570699416402e-02
-5.553807848758787052e-02
2.074637230882627470e-01
-5.030096921817499463e-03
-7.358137778407808360e-02
-8.867065132645234049e-02
-7.828374121553322018e-02
2.242100132855069997e-02
-4.163825774426573034e-02
-2.060329047231600555e-02
-6.312006633243882892e-02
3.146855208151867755e-02
-3.486122562142039000e-02
4.155209182952890323e-02
2.166294108068667415e-02
-4.399924465152069836e-02
-4.023456992740560845e-02
9.650462679820075163e-02
2.215586100173216194e-02
8.718328683852487326e-02
-4.386425975617039980e-02
-7.122063372986403573e-02
-1.425783911176547181e-01
1.508451307083337294e-02
-7.797257195837821453e-02
-3.036444832788391390e-01
-8.671356214258149619e-02
-4.236467534477451891e-02
1.946293676278252824e-02
-7.723066695712307861e-02
-9.852338133661131536e-02
-6.439341657805001951e-02
-3.744381040913327598e-03
-4.055332558239590872e-03
2.601280608293100177e-02
9.167308762652201515e-02
8.564517158443113454e-03
4.787640172898934704e-02
-2.902853582729774534e-02
-5.552408684079814666e-02
3.101279557496903344e-02
-7.763193193276808624e-02
-1.516959994535426182e-01
3.174331270039027625e-02
-9.697686005566914791e-02
-1.327498029075186992e-01
3.674606326592201599e-02
-9.338679114859275987e-02
5.094694174887696991e-02
-3.055233517059825765e-02
1.385817282665011835e-02
1.117382571555501358e-01
-1.076018710150545774e-02
-3.912247134127580343e-03
2.301657909356681908e-01
1.229708091519109564e-01
6.011185675325985550e-02
1.787130332173338153e-03
3.958483593426292968e-03
-1.264314125509308495e-01
-8.946527475544399644e-02
-1.107453745752723095e-01
-3.348886170729928335e-02
-1.475571958214124020e-02
-7.266475105865109752e-03
-5.257242614413758230e-02
-2.489211381078478003e-02
6.355458285683519837e-02
-4.095825543120397427e-02
-1.653728866246817752e-01
-2.311953498445131622e-02
8.462611882929984425e-03
-6.813315195067816410e-03
-8.172751600269438643e-02
-9.855081269146140355e-02
-5.194524988686458067e-02
1.080577448085842246e-01
6.020541036788940037e-02
-2.780189063696650656e-02
-2.614659051154489752e-02
-1.191684618498221881e-02
-5.455439396623512627e-02
3.273559780699355354e-02
1.145768504438040084e-03
-7.097756267313967693e-02
-1.234613695348883537e-02
4.507933907042752097e-03
-1.497142192906130743e-02
3.822165490075184191e-02
-5.349894085190137066e-02
-1.379166558960690792e-01
2.953314857032509830e-02
3.665568881837368703e-02
4.169144531992222125e-02
3.291495167695170782e-02
7.364532264557015206e-02
7.922626766583626412e-02
-1.796503824823553197e-02
-1.954570521867066840e-02
-3.919299807211570896e-02
-7.919125819223182816e-02
-2.265124256951066978e-02
-1.169006146031497219e-03
-7.492726933689140834e-02
-4.402757014711236594e-02
-4.187244948668122912e-02
9.588734404265185363e-03
-1.741696474577950349e-01
5.944651393285037277e-02
-1.049412338119267291e-01
7.000745584452962300e-02
7.283484201688347759e-02
-1.365916441853881093e-02
6.100578775813482457e-02
6.229918993778430641e-02
8.931562760774777732e-02
-1.587535571952879143e-02
8.878769545340420288e-02
3.198096371879214500e-02
-8.054364606388991765e-02
-7.443738507885749867e-02
-3.684150175131239296e-02
2.805552028158386779e-02
-2.634899196299505392e-02
-3.175668617580309355e-03
5.180564802404303421e-02
7.945021956497497206e-02
-1.327122324382099677e-02
-5.227074471374058146e-02
1.031163449925164705e-01
1.171964344442407401e-02
-1.785880936068582128e-02
1.012600591384855836e-01
7.752392304281613411e-02
-4.963506342026154788e-02
-1.932588347704388776e-03
8.711328996886517906e-02
-1.624875993199225432e-01
-1.608578511979774639e-01
-2.955562351538536595e-02
-6.617590270457580914e-02
6.868280565371640001e-02
6.234150156077842425e-02
-2.208199918111999199e-02
-1.004978869470876945e-01
-5.397058353492934640e-02
-3.208106056705846681e-03
8.639903709795188069e-02
4.517823269226380056e-02
-3.645950219701632466e-02
-3.733623755077752904e-02
-6.321785607681634778e-02
-4.929202798056591533e-02
-9.741650133116779020e-02
-8.118426478891692388e-02
-8.258563170342002324e-02
-1.074349288672733216e-01
-1.400684607845834873e-01
9.419317363221380024e-03
-1.138388807656893209e-01
2.404480231068671647e-02
-1.398287924301257479e-01
-1.631760628537056723e-01
-4.127235272331832711e-02
-4.455233417314931332e-02
4.884175912483310761e-02
-8.666466865023955690e-02
-1.203962440339359334e-02
5.286495367070784962e-02
4.417314398698577588e-02
-1.006564920603617019e-01
-9.186432335747685141e-02
-6.766067308047518658e-02
-7.747595956723318800e-02
-2.904666425486416084e-02
-5.785837095232580773e-02
-2.919267412633377856e-02
-6.921807583346704928e-02
-1.957122024225234624e-01
1.464958893968535958e-01
2.158801539817363502e-01
2.246148603435056401e-01
-1.756346860241191632e-01
7.889576399499115267e-02
9.367337429504761503e-02
-1.212943311374431177e-01
-6.400838688012966404e-02
-3.332418940754257319e-02
1.747293768023380767e-02
5.028797658048544950e-02
6.105091150895510660e-02
7.112981497163856082e-02
5.687118713942881237e-02
9.645599823644891713e-02
8.121928806098958897e-03
-4.887338245433280742e-02
5.173016764310697096e-02
-4.430214034712232074e-02
-5.587330399426281013e-02
5.236093426181458177e-02
-1.784639239509100764e-02
-1.268791976823814560e-01
-4.823965192464844953e-02
-4.069974664821891103e-02
-8.755786281691080308e-02
-7.928305112231465168e-02
-1.448789214161872729e-01
-8.964817897127887181e-02
-3.821464251919510103e-03
-6.670939288192422045e-02
-8.735225184174932878e-02
-1.083265748458086541e-01
-2.967637943029230105e-02
-9.585493144076914773e-02
-7.636496209886850517e-02
6.535895611367446845e-02
4.886554492437564928e-02
6.574316066319439711e-02
8.369231301092097675e-02
-2.985909736680602070e-02
2.900785192341431146e-02
-1.201743867422752077e-01
-1.931707453492301566e-02
-7.669442536520873488e-02
-1.175382611381190351e-01
5.485779744546778920e-03
6.955459011707509909e-02
-1.678543093223806293e-01
-9.675217407802036429e-02
3.757684144138156990e-02
-4.294764406951800256e-02
3.626588761013786744e-02
6.463312080852517960e-02
-1.098048985773488959e-02
2.420197790265164739e-02
-4.376082643828498736e-02
2.108588086004118192e-02
5.531276881917489285e-02
-2.370481633247089465e-02
-3.950073151068032862e-02
7.551518067295646605e-03
-9.512043897664954062e-02
-7.332803514760000141e-02
-5.418438528083479970e-03
1.349353312523981184e-02
-3.786560336597065424e-02
-3.668214048197911831e-02
-8.582214245892519355e-02
-6.459610503763944800e-02
-7.966693002798425072e-02
-5.635379149542905919e-02
-6.206665263171012858e-02
-1.856399967363210265e-02
-1.123927598993146454e-01
-6.133904836293317675e-02
