4.993335496977603649e-02
-7.122820377879765866e-03
3.353394939288102672e-02
1.965265468430125312e-02
9.627756372732056492e-03
4.357609986134176948e-04
-2.044193440302692621e-02
-1.286870096539535248e-02
2.298896330313665928e-02
3.795041597453562010e-02
4.733195448591734356e-02
-2.922528941461005267e-02
4.247499112076243317e-03
-4.465181964059521807e-02
-1.347722703959401136e-01
-1.007229927468268060e-01
-7.462034211482204693e-02
-2.425975566188865243e-02
-8.888487078514171330e-03
7.752215038263718383e-03
6.793502151527685455e-04
-4.079769521894466289e-02
-6.902721997864470641e-04
1.083972685342648144e-02
2.314772464601780322e-02
4.903680636464959747e-02
2.014538913865908040e-02
7.185348466204788398e-02
-3.468083028239784399e-02
-6.540755792394439827e-02
5.488851869708023107e-02
5.118475157015075355e-03
1.121805354216062929e-02
-8.487415284358146295e-03
4.942451161265238452e-02
-3.757938156776724492e-02
-1.053147050071569640e-01
1.754666109205754720e-02
-9.613787034537671361e-02
-8.840147452090966682e-03
4.316510969173881912e-02
-9.167319170379033266e-02
-1.086880942984726206e-02
-6.080455522173989352e-02
-9.955666846334412790e-02
5.784253879950145699e-02
1.992000175502317214e-02
1.802100982399238230e-02
5.803612175762856706e-02
6.159089768163125006e-02
4.024073345830065512e-02
-5.378212967261513516e-02
-5.012076306381167690e-02
2.293230359637054086e-02
-2.720515291539553696e-02
-8.455899578959062690e-02
-4.031620760778691775e-02
-3.056667529347684067e-03
8.758798946412668651e-02
5.764139227876858423e-02
-8.841627707821263227e-02
-3.897505425518298788e-02
-4.004851336243642201e-02
5.372332313483185046e-02
8.349019689618865370e-02
-3.446115432509340437e-02
-7.444605076268365207e-02
-1.084698684007796288e-01
-1.039305682060041452e-01
-7.559496625700047601e-02
4.857378036990341041e-02
1.418363536709623014e-02
-4.520417770418776182e-03
-3.106914355556045226e-02
-9.237165538397820730e-02
-4.362459450527354961e-03
-3.237691647131842737e-02
-6.786135913292204447e-02
-4.810266278416287788e-02
-1.278750247145191143e-01
-7.394761941488578461e-02
1.449394650917846250e-01
-4.253639420181429959e-02
-4.799338674397923832e-02
1.550901649558575623e-01
-8.247400868452421652e-02
-1.450216243713280673e-01
1.439224533496058674e-02
-8.939216235241394248e-02
-2.633801242345787733e-02
3.135726135766538081e-02
-8.597497738539508494e-02
-1.334132189801589055e-02
-1.183910648434109356e-02
-1.207287337169820202e-01
-2.877409157872109699e-02
4.015049066159143837e-02
3.399084250744430907e-02
-3.617900345306003518e-02
7.164661864115495771e-02
6.355749339405682152e-02
1.195384656874877577e-01
-5.088064597270855471e-02
-3.425912775704623853e-02
1.088890615802112077e-02
-7.328152371344100191e-02
-1.012250605470132597e-01
-3.136407889851114406e-02
-3.386355214095196353e-02
1.775921108826478828e-02
3.547544680180926557e-02
-6.161532585735714912e-02
-2.747818396143178465e-02
5.229453483214729914e-02
-2.435013894321501685e-02
-3.516857995499562961e-02
3.378217279324852163e-02
8.206073039190409091e-02
8.310751841385448369e-02
9.296129031408530141e-02
7.079811093079457426e-03
-3.471491475709522715e-03
3.946100507877505631e-02
-1.691933268588160719e-02
7.690829396681563186e-03
-3.316719088572410434e-02
-4.346292416195810665e-02
-6.138088609712689242e-02
-1.047460248917242848e-01
-4.494125993582016171e-02
-7.094932243657851682e-03
4.422964721842075758e-02
6.325109967359747454e-02
6.984891288955345778e-03
-2.474468272401785223e-03
-3.444151554447611591e-02
-7.411542102361841355e-02
-6.726174818023200608e-02
-9.080381799086979788e-02
-4.222603138722921118e-02
4.003753779987633682e-02
-1.169858618087494112e-01
-4.876334902046477321e-02
-2.364026532848991467e-03
5.363319337172262752e-02
4.435507898957594120e-02
-1.020733938626765119e-01
1.407177408700399646e-01
-5.197949242652217389e-02
-1.229655394797409540e-01
-3.323670654972460392e-02
2.072798691978326724e-02
-1.935323029266481504e-02
-9.342558874421435372e-03
4.495892708750028749e-03
-5.460065441319244400e-02
-4.750584214662716132e-02
-4.207662841904528245e-02
-4.805068024628821738e-02
-6.887198286193500774e-02
-5.163767236105686054e-02
2.382066695409120870e-03
-4.101521707878622719e-02
-8.080593632446651797e-02
-1.026600770010578645e-01
1.052888445342424761e-01
-4.754413793030743546e-02
-6.372780434870947697e-02
1.264182638253657787e-01
1.454339870917881715e-02
-6.730143912148944807e-02
-4.614625462862882027e-02
-4.612652542113153398e-02
-1.254156396457014044e-01
-5.302057386643822118e-02
4.864037976702388633e-02
-6.636733913967701563e-03
5.324769873798271963e-02
7.843809070922663773e-02
1.068674072012252563e-01
-7.373809548962713400e-02
-1.032387299095420402e-01
3.017205723345114596e-02
-1.255466940310737967e-01
-1.285777061627527418e-01
5.269026708051585683e-03
-9.126528250717025337e-03
-8.547121892550574654e-03
2.164024396577839821e-02
8.754801109457210906e-02
6.240039265233421339e-02
4.743329395261521031e-02
1.024035488606217376e-01
7.231242207000546096e-02
-3.368494290529353702e-03
-2.449190245480460659e-02
-5.605037815336286200e-02
-3.725461181347920064e-02
-6.333810970934666829e-02
1.050048879833833000e-02
-2.274910519655208227e-02
-6.120186025191417384e-02
-1.016403782887305290e-01
-4.905703291998688570e-02
-4.591025500471855592e-02
4.468973918386406896e-02
1.061329794590485515e-02
5.464600026398133692e-02
1.375774413948174096e-02
-1.506417114801684477e-02
8.645437871924996354e-02
5.378653475348373764e-02
2.052498987754180701e-02
2.664853994414582289e-02
5.778863791995821758e-02
-1.852358143108170929e-02
-3.515244037168122754e-02
-6.143090992419011215e-02
-4.677196503955903528e-02
-1.659661045451928801e-02
-1.563313788436379234e-02
7.892286598337869274e-02
-3.765289377691062589e-02
-6.879745335039161823e-03
6.699350168500722846e-02
-8.844746789275000076e-02
-3.879597350793598937e-02
-1.850203238262441291e-02
6.002506259800857377e-03
-1.555408056975750991e-02
-2.926498358539891473e-02
-3.551672344299813128e-02
-6.193992121694804481e-02
-5.749234132951037274e-02
-4.397818298326466174e-02
2.881311400697280506e-02
8.393473382350613576e-02
-6.534855115521254199e-02
5.999169507928833744e-02
6.186967890837611478e-02
-9.396315555386393348e-02
-2.154697025382344006e-02
-3.677314842380716153e-02
-2.941522300222284766e-02
2.612164673586775052e-03
-2.261486810795683249e-03
-2.849934403673055547e-02
2.674412438583793558e-03
-2.785217823375447238e-02
2.029116695781441396e-02
3.720589756141027410e-02
2.498431880031671756e-02
-7.361778252578626836e-02
-1.059583748423615843e-02
-5.101580993682382215e-02
5.695926195378082230e-02
9.562852479611590184e-02
-7.624322687113085917e-02
-3.064774299139742201e-03
-5.030338660703584375e-02
-1.526152216193826239e-01
-3.751002576557246199e-02
-3.883038900960480294e-02
1.303461168347654249e-02
-9.606851615794763377e-02
-8.632439007924902485e-02
-5.247940612924576961e-03
-8.573593715764479817e-03
1.039413613000385143e-02
1.907663868822854353e-02
-9.928017697438215605e-02
-6.472077868846518034e-02
-9.689976525235360905e-02
-2.806665948975601427e-02
-3.529316235938510099e-02
4.488981672969407158e-03
-4.163262113488209321e-02
-2.350481555084322442e-03
3.086404408835897659e-02
-7.252184103549268179e-02
1.239491174978051558e-01
-4.306091693402378656e-02
7.278840333007745300e-02
3.122324872150441383e-02
-4.944923206097255608e-02
-6.039026447101691203e-02
-2.001947778208674686e-02
-8.398815673239795609e-02
-1.369169699223555248e-01
1.399634030666059743e-02
4.470464024187559976e-02
-6.968991821302661371e-02
2.739565490053976274e-02
-3.394124497852966937e-02
3.201306938674437774e-02
3.258866715849708523e-02
-5.390524586973601505e-03
3.691812531916820878e-02
4.619759126021776019e-02
-5.244376663516550630e-02
-4.032836517884985650e-02
-1.813641712959321306e-02
-5.494652108153778164e-02
2.406417039427581964e-02
-6.691777240253811432e-02
2.998734256862695818e-02
9.152006831540064960e-03
-2.926109200002745617e-02
-6.632525834516243834e-02
-6.198147398307406186e-02
-8.245393553192978398e-02
-5.544363478051278493e-02
-5.636533013210798249e-02
-8.941074992055121629e-02
-4.847679592633699630e-02
1.002656846374749416e-01
1.040843584926338244e-01
4.883376087943670785e-02
6.720833818946590765e-02
-3.993376972554416211e-03
-3.452219569862527426e-02
-1.115339670819445045e-01
-6.602033567626880428e-02
-4.236939836117310093e-02
7.806209412741821341e-02
-3.151174922308363352e-02
-1.507658627421122055e-01
-6.309557835812207305e-02
-3.877067335872438208e-02
-3.679687094691590915e-02
4.227346835961812155e-02
9.344896247792880417e-02
2.735855565825378449e-02
-1.663408529131041591e-01
-2.863866763732584100e-02
8.734304565292491662e-02
3.216624606240262724e-02
1.002748355147778658e-01
3.170407104918787633e-02
4.314767022202441182e-02
5.714873210363360934e-02
-6.896938875935287004e-03
-2.380748077726825909e-02
3.742676037151471818e-02
-1.710589625744866199e-02
5.320638495718241906e-02
6.831448015477672997e-02
1.278133002950900855e-02
-3.022531705100581570e-02
-4.089046512399675815e-02
-1.203241703149219785e-02
2.488316826120742092e-03
-2.053737190103903931e-01
-4.273941385077575927e-02
7.222083740298766708e-02
-1.657431699906769876e-02
1.258787609116247541e-01
8.072457150965449413e-02
-1.027531940807385330e-01
-8.882547485787271879e-02
-6.620219705007583666e-02
-1.499965237651923813e-02
3.102382354102298581e-02
2.350106929438605663e-02
1.008505156395820140e-01
1.847004710335561212e-02
7.369512657396967703e-02
1.444398242844667224e-01
8.833645920895491499e-02
-4.104438943618071885e-03
2.550457532150902928e-02
1.577893508070769835e-02
3.363849578428749348e-02
1.197590733646093294e-02
-1.051382191884128216e-02
-3.846481089618503796e-02
1.779751817530506389e-03
6.016802749528959993e-02
-3.251600431611942343e-02
2.181870141345967906e-02
-1.996823642167494875e-02
-9.199738498671837517e-02
-6.149396006627056571e-02
-9.357975365648973920e-02
-1.371564073824715346e-01
-1.013706429795171830e-02
-8.258939822770218486e-02
-3.530810863083663070e-02
-7.218161635855309399e-02
-8.152485424195739239e-02
-1.292165478484715892e-03
-5.353019392587046732e-02
-8.133651281333889593e-02
-5.456767282347792236e-02
-5.246726955013710642e-02
-1.197762318650894692e-01
-4.986990759532986678e-02
-2.477315427309234250e-02
-3.688639678764797647e-02
6.893905538540978650e-02
9.987579784099213931e-02
-9.826577630836343114e-02
2.021937124462532681e-02
-6.930201434884096165e-03
-8.320580274382090302e-02
5.291983993688321834e-03
5.587449787176159560e-02
2.617551370533099594e-02
-1.757495017260632050e-02
-4.079073234918461320e-03
-1.876824911734632437e-02
3.385562364129476517e-03
1.773521405498461670e-02
4.020219223023181049e-02
4.635728351553319165e-02
-1.404897359511812077e-02
5.045653260214551239e-02
-4.880461758782506793e-02
-8.262659274116530839e-02
-1.424616716938239408e-02
1.279123742454908036e-02
-4.247882295980245915e-02
-8.722851839463837201e-03
1.238458774518615656e-02
-4.784404675165816745e-02
-6.507997363301633309e-02
-2.107277815416289113e-02
3.300258812787149054e-02
-9.154847365908086454e-02
-7.867563566392547780e-02
-1.900862314157662422e-02
-7.904261539398525771e-02
-5.277625335480218283e-02
1.258834921751676543e-02
3.747641926152650571e-02
5.393052018269619413e-02
1.411769802391861506e-01
2.608326214007318511e-02
1.122569073808296902e-01
8.875612228520936287e-02
-1.572763720349589899e-03
1.153354969695146864e-01
9.870108969392084666e-03
-1.720080572707220062e-02
6.271313240205075856e-02
4.534409392380019804e-02
-1.310565394698333993e-03
-3.130294063903642232e-02
-5.061538033499236866e-02
1.381184686473927239e-02
4.706374028600684295e-02
-2.845556289391881419e-02
-1.240411785207086968e-02
-2.778408356358255324e-02
-9.702780002584024399e-02
-1.913683069499468904e-03
-1.091151126325556886e-01
-8.770151072337321885e-02
-7.520026422915764008e-02
-2.703049985573714037e-02
1.528410788998414011e-02
5.492992128999481249e-02
-1.809485467487291282e-03
1.083146894156356531e-02
1.081150010283427922e-02
1.321045482546637749e-02
-6.863793064547618963e-03
1.299863308859628558e-02
3.686614439605925830e-02
-4.803632820861954839e-02
-2.052334120174751069e-03
-3.158447181179272617e-02
2.548819998240033947e-03
1.497260182127332917e-02
-1.438663886840054786e-02
6.063738014210440057e-03
4.022827069651770809e-02
-1.970634725906735343e-02
5.251474366213744471e-02
1.603302169538380756e-02
-3.748153160977796966e-02
5.353417270859048283e-02
-3.326512158199909641e-02
-4.985114724726116137e-02
5.292688193016326786e-02
7.747150648553968733e-03
1.252293602729000893e-02
5.455097453122637052e-02
1.188736488804886977e-02
-5.238902607745083567e-02
1.000056427668445137e-02
-1.200328891867827319e-01
5.725208356841149371e-02
8.357067681938923354e-02
3.769572382271665217e-02
1.493990281555880872e-01
1.286045031997814780e-01
2.595050094734080437e-02
-4.949540144227574517e-02
2.827413427732322279e-02
7.875400508833746427e-02
-4.094999992111718334e-02
-1.719881472094647590e-01
-2.559363126541823810e-02
7.920570188683213886e-02
-3.738117715016581882e-02
1.283758765961226858e-02
2.899655623641412411e-02
-1.138187733703266424e-02
-2.953100008917225461e-02
-1.083005763632926832e-01
-1.742125192762235611e-02
-6.130130236889774070e-02
-7.996543785204904276e-02
-7.388733859600535303e-02
-4.595186105811313593e-02
-3.441292773227020568e-02
2.898509301460832840e-02
1.954172189449474451e-03
-1.159726189297478477e-01
-7.326691008372659963e-02
-9.805097532875045596e-02
-9.829621464207793924e-02
-4.718944818209917097e-02
-2.292831835458765399e-02
-1.892837735940462035e-02
2.002180465948105031e-02
3.948999819717526755e-02
-5.204565906643121576e-02
-5.209003282826011466e-02
-2.927571531833613253e-02
-6.363310802816021794e-02
-5.148123708818716504e-02
-5.618963716332957964e-02
-5.934188106054080758e-02
-3.318372608663851253e-02
-3.048875638869913765e-02
-5.181706314332101132e-02
6.504904441052468574e-03
1.499563645418778256e-02
-2.180623703691101853e-02
2.313616453826914960e-03
1.224631697183659190e-01
-4.734858172847745961e-02
1.507496181990263494e-02
1.373678771004159006e-02
-4.134654924093718320e-02
-3.086391652186754736e-02
-1.302323404425360411e-02
-2.173185446904762549e-02
-6.987987440735940470e-02
-9.290314583024487927e-02
1.010064051216402609e-01
3.701602372012890996e-02
-2.342290655998549576e-02
-3.812568425993116683e-02
-5.385679643924423665e-02
-3.216989704768265235e-02
1.246701992013532073e-01
2.169344080747021009e-02
5.813925199950359390e-03
5.010320087190297395e-02
-4.532693219378864519e-02
-2.966191721945890883e-02
1.190631836209700423e-02
-7.113440203845413159e-03
3.321754896929017542e-02
-3.591486169228099573e-02
-3.683134619491615358e-02
-2.232526956569189092e-02
-1.042692879212980123e-01
-6.859651513443588977e-02
-7.637146994939462974e-02
-1.145087369237944575e-01
-3.647287789493643823e-02
-1.848072070472711603e-02
-3.923084701536667593e-03
4.022110074822914799e-02
2.690125503700376355e-02
1.010351043072405842e-02
-1.518561532329442409e-01
-3.855496401496585901e-02
4.881896413791019657e-02
1.564627443078573099e-01
5.928726983772682896e-02
1.222824270974761859e-02
-1.038355397756477033e-01
-3.409673750111638091e-01
1.814301352664444145e-01
2.000925228510570461e-02
-2.305590942804669752e-01
7.085488106978811429e-02
3.669719718735470898e-02
-7.775004160340255599e-02
1.459272517267136415e-01
1.151147914572190484e-02
2.991294456684874883e-02
-1.973134702222140505e-02
-9.498609450065328974e-02
-1.209038873385670926e-01
-6.147655085996493740e-02
1.515655895474043134e-02
-3.855271893623071766e-02
4.515404028949406706e-02
8.636726965016769397e-02
4.138339643407400181e-02
-1.773472821639406755e-02
1.075237639928819794e-01
4.943659280429191227e-02
-1.617624778524443807e-01
3.609123917722463493e-02
5.272737155191649025e-03
1.342450459438944699e-01
8.831030852602937686e-02
3.290148044274734951e-02
8.573646223513170517e-02
8.691206461864689481e-02
1.530457037651969561e-02
7.478136682677035373e-03
3.901296519489686615e-02
-3.930497385132483874e-03
-1.589339754878741351e-01
-6.514077695974682114e-02
-2.827341099300485425e-02
-4.275608636396878437e-02
-8.644796282963010392e-02
-4.246258838099385702e-02
1.164830441152368556e-01
-3.851699215897274459e-02
-5.505862821434953300e-03
1.049290193626943729e-01
9.304980109691834977e-02
-6.111680940640806803e-02
5.118100533360750437e-02
1.088463303222316075e-01
-1.396928079701295969e-02
-4.978837924102354900e-02
-2.756179268541166655e-02
-9.502541408628224773e-02
2.701692435949659341e-02
-1.479176948600324434e-02
7.169939916737032293e-02
8.379998629080051553e-02
-2.954170476171521370e-02
7.768762807336803550e-03
2.018191351132582745e-01
8.867088079519717947e-02
1.104370607293761186e-01
7.548313476611373703e-03
1.463279880450164307e-02
7.029522354360327741e-02
3.807859959224980245e-02
-3.734742043908122894e-02
-9.848698600449244667e-02
-5.483907282074965269e-04
-5.709250065569316385e-02
-1.136157749047870258e-01
-3.703485975870010605e-02
3.661806157391447186e-02
-7.177639547326200575e-02
1.691347466190549209e-01
1.097425193504598662e-01
-1.341648048509554636e-03
2.683329704960661297e-02
1.226758174362701896e-02
-1.647480401932097105e-02
2.212371895867266611e-02
8.466227735970703605e-02
4.163177106405144962e-02
5.321510808318004326e-02
9.119704304678925844e-02
4.943857857302117603e-02
1.693214924729630200e-02
1.772084148318425756e-02
2.617478611361311047e-02
2.972692716933875504e-02
4.455537537327945719e-02
-7.453152163610166081e-02
4.873586551694583657e-02
1.252703778198746565e-01
-1.098640879755865274e-01
-2.906081606179123505e-02
5.559594584233014392e-02
2.681532788979101856e-02
-4.421584986426021699e-03
-3.802275069973264782e-02
-5.808777169597210271e-02
-1.702220061779341140e-02
-3.535803501762852658e-02
-4.707881486980976249e-02
-4.228533975605123368e-02
1.999605988855638651e-03
2.988804739431017918e-02
4.285670547019908988e-02
-6.826588390940195594e-02
-6.997732994823273323e-02
-4.089070059894792109e-02
-9.968875993274618763e-02
1.611206855878828323e-02
8.774057714731333182e-03
1.055203604772296522e-01
1.717262430502214665e-01
7.029171262260255904e-02
1.182826282602779111e-01
8.405794856704813800e-02
-6.642783317217235139e-02
-9.456271120650773521e-02
-1.520241247012290020e-01
-6.224018470755407484e-02
-2.795507042907153725e-02
-3.116573091481252694e-02
1.065228154282636848e-02
-7.607366041891998332e-02
-4.192746635812886341e-02
2.720412741788875294e-02
-8.814530547491720991e-02
-4.311289863805129602e-02
9.583767879589581706e-02
5.603074560068209420e-02
-2.117545809288138865e-03
-5.869886302062654604e-02
-1.366566289986105576e-01
-4.445446283730565551e-02
-5.012565625933387836e-02
-6.690520583313497305e-02
-3.706785013300124831e-02
-3.588902002230755922e-02
1.290060335903561381e-02
-5.099799900294213484e-02
2.972414129276238631e-02
-9.703718205561119581e-02
-1.422283548555530186e-01
3.931790523188139624e-02
-2.101563271195249719e-03
-1.829364875624639453e-01
1.261022340828274746e-01
9.979599315011339344e-02
-3.469829406509396252e-02
-2.943369361433035344e-03
-3.916128198832779378e-02
-4.692013250009101355e-02
1.099133978203895370e-02
-2.002206765855436832e-02
-1.007453526714559150e-01
5.749791990798377994e-03
-2.912162255218402052e-02
-5.390787182376648862e-02
-9.198335628397193153e-02
-9.786583106322808978e-02
-3.517605739705229745e-02
-4.369714284716239711e-02
-3.805714851321046616e-02
-1.140552883048906625e-02
-3.520864004048893103e-02
5.061415877870692470e-02
1.695143116401668093e-01
-8.781736361681868538e-03
1.719998492261661238e-01
1.811715417750509038e-01
-2.014201218417051298e-01
-6.007987134255217410e-02
-9.058277688054962307e-02
-8.434307697838579199e-02
-9.653002627568334215e-02
-4.812928311561737865e-02
3.171259524537815150e-02
9.431126409415793721e-02
1.068032916133773713e-01
-7.507697170354309113e-02
6.869061663917024052e-02
-7.154220612419852354e-02
-8.466606465058243436e-02
-3.345190346194635428e-02
-1.785074726619746144e-01
-1.542840728180309984e-01
-1.238958539540830073e-01
-1.454521514402762616e-01
-1.161778942418659893e-01
-1.167960927078658950e-01
-1.075413766014394756e-01
-4.300469300816201629e-02
-4.637878021313729393e-02
2.045500277324559940e-02
5.453109953909103524e-02
1.302829767125522065e-01
7.384608169719453219e-02
4.825315994099379363e-02
1.433661218620255473e-01
2.786746970872871348e-02
-3.747606720377638645e-02
5.667588671749067275e-02
-4.395582334388682677e-02
9.563556029420471885e-04
-2.885788209837110083e-02
-2.222396957173671667e-02
7.114262987697468621e-02
-1.383738839227705020e-02
-2.984237130156331200e-02
-7.662662194659763948e-02
-1.255341575113858299e-01
-1.953419055397183079e-01
-2.728074499469291050e-02
-6.240251447722399564e-02
-7.843754066847480333e-02
6.197403369427856995e-02
-2.082083630595384094e-02
-3.689586447758592958e-02
3.853357946941488726e-02
5.003817837004646829e-02
-1.202527633257675088e-01
-6.036701623038295828e-02
-1.518024317060674422e-01
-1.930717044417626371e-01
7.565162997237091791e-02
-1.021406520454821026e-01
-1.247271062976800238e-01
2.262265614680219680e-02
-5.019458836523997547e-02
-1.167909065077482045e-01
2.431373526125639450e-02
3.406499932118575019e-02
2.563499309866845363e-02
1.227049727520632648e-02
-1.316714794348452383e-04
5.565484333340329354e-02
8.165742030731970927e-03
-6.088049610367796127e-02
-6.809737505524972312e-02
-2.253393032811147612e-01
-6.603405216238264486e-02
-4.751044490453716629e-02
-1.454444403795749907e-01
-3.109806976913263507e-02
8.582572629268332698e-02
-5.285012413193844460e-02
5.879039262875588451e-03
6.413815993995908814e-03
-9.340859913973011824e-03
1.966959882707040516e-02
-7.353479027105274193e-03
-5.258532767224629971e-03
-2.340067402277691208e-02
5.147382774577762693e-02
-2.129324625108018447e-03
6.175721129166174966e-02
9.032410661974647759e-02
8.818541322648511260e-03
9.669265800503118458e-02
1.484579979650544647e-02
-7.811496413911643262e-04
-1.355799397344448487e-01
-1.344109361081846366e-01
-2.123396320697195847e-02
2.171671143259602116e-03
2.732138672015449812e-02
-2.755173248077552248e-02
1.975811822134854734e-01
5.833954294582924943e-02
-1.187894871984884748e-01
1.935148174741848082e-01
5.689303325761484870e-02
-3.078599700099942868e-02
7.167776554773473696e-02
1.341721150047397483e-02
-8.966930791120562849e-03
-1.538310292359756394e-02
5.720328573774622477e-02
5.163440546692095283e-03
8.652900232442933826e-02
7.557070136671893701e-02
1.713216512015680246e-02
5.364018201032448585e-02
2.592531794604506501e-02
-1.163453539140865134e-01
-1.623277907251391150e-01
2.212330781583439140e-02
-1.815696338136884025e-01
-1.157095155437389833e-01
9.048154361904223175e-02
1.718970635165971775e-02
2.205592901098327521e-02
8.267564369509308730e-02
-2.452887556080873832e-02
1.541425850900839459e-02
-6.636389619585326971e-02
7.896933601692221472e-02
4.849163643508876478e-03
-8.941063594441560347e-02
1.643986199602817666e-02
-1.187280034313040050e-01
-1.187872352958058153e-01
6.087833803027374591e-03
-4.480503631736503650e-02
6.117859342728355909e-02
-9.579431943333310828e-02
4.936805307536840798e-02
-8.083682355778025116e-03
-1.615772332669913602e-01
6.379204420361928030e-02
4.057170664203926108e-02
-1.438393626227628397e-01
-1.013601954612612793e-01
1.016325392069141256e-03
2.042512582500193366e-02
-6.651220616533667918e-02
4.770232407296963462e-02
1.109117856986997219e-01
1.334549692996527259e-01
1.793219193288087543e-01
1.517272727480463990e-01
9.562668233847697319e-02
-7.151375367500033275e-02
1.457266447293989464e-01
7.640917344679555578e-02
3.779062900676870285e-02
-3.487326860952447150e-02
-2.168175064344754141e-02
-1.057708675908081153e-01
5.160708238103786649e-02
-2.298514850420437308e-02
-1.148218223301771812e-01
2.486544288857664708e-01
1.613699985106447354e-01
-2.248994316237661745e-02
-3.443395822185964239e-02
-5.263968382624273357e-03
-1.554470850183657660e-02
8.653879980708582831e-02
3.647661990761321901e-03
5.968082224527452434e-02
2.741180402483754386e-01
9.851754193551466587e-02
-2.331050749816534692e-02
1.733332724560252558e-01
4.598772878235688616e-02
-8.124950178424869551e-02
-1.154746864495952013e-01
-3.008105080809709772e-02
-2.822894615094336673e-02
-1.770151435781153471e-01
-2.488028668042659430e-01
2.853831151789672227e-02
3.444488165585748302e-02
-3.480087505623720434e-02
3.675777848747922849e-02
-3.114434295728778571e-02
-5.399902782076892310e-02
-8.927290479958011060e-02
5.143414478494305608e-02
-2.680621109589995804e-02
-1.636204101607829642e-01
6.358499710582951603e-02
-7.983849709499776792e-02
-1.215756708524933088e-01
-1.181660001731580645e-01
-4.110263534915122030e-02
1.095781713983099391e-02
-2.026606984415628976e-01
-1.594494325999639972e-01
-9.670685181587954093e-02
-3.521115978311188666e-02
2.461750840321445637e-03
8.650802380375598177e-03
9.432882552310901947e-02
-8.418842244369265440e-03
1.304468282225198367e-02
-1.033900451855399444e-01
-4.141251592414259275e-02
-1.591824558890381769e-01
-2.224172036523156676e-02
-2.213438649463838909e-03
8.475847284195538092e-04
-2.727362079347863538e-02
5.753180933737111341e-02
2.092348041861166741e-02
-1.516437237465455001e-01
-2.072901838604164840e-02
1.442990066680600592e-01
-1.310926551460544764e-01
-1.073390567932964307e-01
8.767213295365514081e-02
-1.062302096764274201e-01
-9.873417838556149129e-02
-9.230521800482723027e-02
-1.045648730510112534e-01
-6.003900101484856144e-02
-5.214448189638874742e-02
3.399577037356239784e-02
1.012452801849697548e-01
7.259721400109599154e-02
1.605226604167485360e-01
9.891948268055530957e-02
-9.927512464763758870e-02
2.539342194437168437e-02
1.096919453693781799e-01
-1.040714231696838465e-01
6.822007133770462139e-02
1.088334074716094529e-01
8.877672533924341192e-02
6.414971288311596687e-02
8.940391435610520188e-02
5.414588599541676067e-02
-8.041204647235304648e-02
-5.699552383145339851e-02
-1.522711601315049901e-01
-4.763977235799777415e-02
5.405023301699650451e-02
-1.001596327836929146e-01
9.595338906207379059e-02
5.773013884219992120e-02
1.021114626099514089e-01
1.986402418092249045e-01
1.275044358797734201e-01
-1.072903048062034785e-02
8.440649874666687758e-02
2.589178165594206368e-02
-1.538274040138538912e-01
-1.052754609425284177e-01
5.321397871986494749e-02
3.098369017272170275e-02
-1.196961168664273101e-01
-1.856392484579970359e-02
-4.014638364081021468e-03
-1.563614086871370767e-01
-9.318724051799721908e-02
-1.346293706684038340e-02
1.343185910383262738e-02
1.178062245998635765e-01
2.227314805554989063e-02
-5.448772482264638110e-03
2.638628583716180059e-02
-1.047271431111403417e-01
1.610328443233898302e-02
1.454219384126170800e-02
-9.211172156083176354e-02
-1.123188836779935931e-02
-5.372681543610589860e-02
-8.450059245307807443e-02
-1.247360627288042895e-01
-6.130151148803296424e-02
-3.379158762774550628e-02
-1.095180626565514237e-01
-7.761834282817761665e-02
-5.429764376438628998e-02
9.524210512790924621e-02
-8.201619276032827421e-02
-1.094784069915069324e-01
-7.034829679546533709e-02
1.102466981832807003e-01
1.841200415508306154e-01
-1.870616491396118186e-02
-5.971335200311784011e-04
3.565929865288491318e-01
1.391913331265148650e-02
3.436243130990783174e-03
2.380292184545609174e-02
1.464282028323559770e-03
-8.170796016866375966e-02
-1.308933105790315889e-02
9.909582542646422701e-03
-6.449428470132863300e-02
-2.291442511207342214e-02
3.019658706361322276e-02
4.315459807537898318e-02
-2.950337294249024203e-02
-2.515311833832736127e-02
-5.163774920120735128e-03
-4.383100140177844523e-02
-1.749160461403576408e-03
5.923778427627511556e-02
-2.845619895734947252e-02
1.984833848454686106e-02
1.079587906474890752e-01
1.907133311178590973e-02
-6.500336312847115883e-02
1.006577383032180445e-01
4.447016474055665025e-02
-7.029293410920921248e-02
2.338822373052074771e-02
2.808165806760156216e-02
-9.074789082080904346e-02
-1.573679409468162482e-01
-8.432854879410879578e-02
-3.021310442859324874e-02
-1.440800773716454652e-01
-6.189571183658049147e-02
1.238810442819706682e-02
-4.510556296628891182e-02
-1.902065506550450202e-02
4.611019816855662506e-02
-4.938139901073699406e-02
-2.190631481452948726e-01
-3.934370828345368221e-02
2.098195482493838554e-02
2.114001280345875061e-02
-1.378534811547131415e-02
-1.251036346621440809e-01
-1.556790651144186188e-01
1.610894830878327813e-02
-3.551089144214930604e-02
-5.710438456030490773e-02
2.708430231135427330e-02
-3.949583113361570391e-02
-8.890748923365766887e-02
-2.877033085164781845e-02
1.740310313261986958e-02
-4.072705892536665484e-02
-1.900802905659961309e-02
-4.753828661043201648e-02
-1.090724179395981264e-01
-9.496732523299059384e-03
1.661337962766246470e-02
-7.995975181853837155e-02
2.284347994164796780e-02
-3.757991233119830493e-02
-6.422705721033133974e-02
7.742088167067112670e-02
-2.246852449708802019e-02
-6.635230742697191542e-02
-3.107396417450675880e-02
1.593931589167135177e-01
1.304649884528660819e-01
-3.075767420680418363e-02
2.833926891055172370e-01
2.711307036812540816e-01
-5.155744328076687644e-02
-7.817549084766077516e-02
-1.405020155512527735e-01
-5.005627206690436287e-02
-1.592286096581116764e-02
-3.728913880927203772e-02
-4.250333246566829343e-02
-6.238965133614267355e-02
3.307212348648747025e-02
1.836324619703600877e-02
6.648890750250542603e-02
1.692264775336361701e-02
-7.562170696248146640e-02
-7.251464935402530954e-02
-5.139628381809718816e-02
-1.159371044295606085e-01
-3.031817274860870368e-02
9.548012271153327735e-02
-6.508177881544768839e-02
-1.111043574978057835e-01
-4.132600021145595853e-02
3.749014159554309167e-02
3.036535863974509225e-02
-1.235445503116386484e-01
1.400140794195241494e-03
3.542048778536130427e-02
-6.914953905201687290e-02
-3.378016727382925771e-02
2.115410129882145177e-02
-4.547055494517514111e-03
-3.546714317369839553e-02
-2.538888993915633940e-01
-9.693533314410379687e-02
-1.179038946327150700e-01
-1.105855672535508011e-01
6.658824804654149554e-02
2.144733009194598264e-02
-2.633832687320534771e-01
-2.133133375772870155e-01
-1.692778405913537287e-01
-2.009104540140390083e-01
-1.388084177110884485e-02
-9.077920663261707102e-02
6.194665736838369380e-02
3.786155095041514040e-01
-4.635768271045200700e-02
-2.359842848469476465e-02
-1.818207577519933074e-02
-3.402108046161370775e-02
-2.462993849969627447e-02
-1.968380500221408522e-02
-2.176851719654513198e-02
3.099290972169152156e-02
3.992599094852690433e-02
-4.002262945992828003e-02
-9.983277807001392223e-02
-6.109886648478624060e-02
-3.442553202192325662e-02
-5.198367165866976669e-02
-4.908580181806044412e-02
-5.045361837081905471e-02
-7.147582937420593474e-02
5.061362564840706652e-02
-3.383363660325771488e-02
1.732496715768824889e-03
-1.223767350099485840e-01
-9.977151505198855741e-02
-3.119190695693236509e-02
-6.366465741996224503e-02
5.752814421797767912e-03
7.717582609209182321e-02
-1.690703773341311472e-02
-1.609162992176248847e-03
7.116948739074374641e-02
8.868651249634136591e-02
-1.487829137683505942e-01
-6.956834694944860620e-02
1.938991301943875784e-02
-1.943517988157233423e-01
-1.728807945206308483e-01
-1.700602591552777612e-02
1.069755834064019251e-01
8.933432184862259706e-02
1.112197282381200691e-01
-8.352048833135149175e-02
-8.178488121309111791e-02
-1.210091336038731091e-01
-1.128356411885466093e-01
-7.812086596580407327e-02
-9.331305904268030749e-02
-9.139864082672509438e-02
-1.168331122800391197e-01
-1.206763931223891161e-02
-7.006912505846896178e-02
-7.384457015162355920e-02
-8.246988942688800173e-02
-8.888211041398853124e-03
1.635349651395171522e-01
1.321994343249182358e-01
-1.653970516141310410e-01
-1.018008431114111739e-01
-9.629723497523300091e-02
-6.451037213806735948e-02
-1.650512571076472599e-03
-6.790110537909089042e-03
-1.072771814055007850e-01
2.360773626807429956e-02
2.969100873398125562e-02
5.269527200250329751e-03
-1.379548958577187512e-01
-1.490119777525608646e-02
-9.803198419609432390e-02
-2.389517896008901965e-01
1.957927329687485923e-02
-1.077695284538754406e-01
4.245607291296802505e-02
-2.399760895126728036e-02
5.657488574096931899e-02
-5.110477863269025783e-02
-9.144222416606306858e-02
1.100165123446345677e-01
1.938069990059980777e-02
4.886726657465655099e-02
-3.678870991291482984e-02
-5.143555859002410177e-03
1.349636577352918421e-01
-3.932149600222971386e-02
7.185492051923984130e-04
1.008577072858447485e-02
4.152970508201916933e-02
2.599659594969945184e-02
-1.005760238016044500e-01
-1.018588681718552054e-02
-6.390610578512100071e-02
-2.716592355125616726e-02
-1.510009147115566434e-02
-7.669099035229244576e-02
3.925632000390467252e-02
1.271705957531018075e-02
-1.551195160749929691e-01
-1.496654777346112519e-01
-9.838649214324547698e-02
-4.911368751752948764e-02
-1.235294801809019329e-02
5.893370556696043636e-03
-7.689678622272065828e-04
4.626200966979125001e-02
-4.995455874593030671e-02
-5.100987474142174016e-02
1.303411855292649357e-02
-8.866444920398491858e-02
-3.290289860530749150e-02
-5.560370823458856554e-02
-5.342248661686603561e-02
-1.513142301368862463e-01
-1.248296922671495446e-01
-1.708604488352295225e-01
1.636513675630988859e-02
2.579311290611505450e-02
-2.852918975166628401e-01
-1.459924075012973832e-01
5.144766328028451546e-02
-1.574677721988416990e-01
-9.638660152874407860e-02
4.149567156607926466e-02
-1.190332452912100242e-01
-1.193613897016753550e-01
8.304721672577113079e-02
-5.745938602737828138e-02
-1.514433100787722641e-01
-3.431401611738246066e-02
3.542998734151936446e-01
9.012622838127330727e-02
-3.598583493342406847e-02
1.351836075681373817e-01
3.591796960155971968e-02
-5.074765396400539308e-02
4.985434342092166793e-02
6.984528107065850200e-02
9.233663733589790937e-03
-1.704526356079958532e-02
4.968112882632213373e-02
1.121800354583349368e-01
-5.275242840821414529e-03
-3.683131567951125618e-02
5.023637400751403831e-02
1.326468856391877227e-01
-5.818639894172555893e-03
-2.545037886119900020e-02
-5.056911717833157370e-03
-1.448119783308904063e-01
-1.474642313393550730e-01
1.441672778481806472e-01
9.547827912584395949e-02
-1.108632490094846150e-02
-5.933017249599179671e-02
3.051032764339809203e-02
-5.291676282346688409e-02
1.200982563341106563e-01
-4.213517894572466407e-03
7.987885371777853419e-03
-6.382091307726292517e-02
2.516287834851317975e-02
7.288793925035690069e-02
-2.960645070883844224e-02
2.021684543210536603e-02
1.553209525357539533e-01
1.536874513439803747e-01
1.015474056973341838e-01
-8.887074797978497531e-02
2.940496046140666608e-04
-2.681264462953249911e-02
-1.114382554135233266e-01
-6.960880797254744012e-02
9.807656258884185456e-04
5.342322618358934239e-02
6.026265856074257410e-02
1.280494887790813163e-01
1.394974921971967596e-01
9.580760684306657837e-02
1.249587722090355311e-02
-9.006624817534618355e-02
-5.261588287642303408e-02
2.432738847652450576e-02
3.208528204402102957e-02
-8.931456062577579347e-03
-1.512136544411833532e-02
-1.468588408449892913e-01
7.143302863092790278e-02
-6.005235536730248874e-02
-2.137742624525884247e-02
4.961109858095864161e-02
-6.483859453920531868e-02
-8.381616441799680239e-02
-4.441069666533582760e-02
-2.679724281635289737e-02
-4.815500196543880812e-02
3.324430143012158936e-04
-8.661923794067917515e-02
-1.728602480123905549e-01
8.628593807781900771e-02
2.099143964903014969e-01
-6.564304950215042733e-02
3.494977187674052493e-02
7.144242785164776899e-02
-1.428735120944267696e-02
3.284696584635703187e-02
-5.273751336440515858e-02
-2.232757316336222986e-01
1.275377597038889199e-01
1.645017724788965241e-01
-4.253265975350033895e-02
2.319009352675445446e-01
-7.179567719070251153e-02
-2.061253406801045185e-01
-2.982324057477532542e-02
4.240097384741475101e-02
-2.715970043344621138e-02
-6.440494219532599818e-02
1.284708885193555639e-01
2.703206735300435759e-01
2.618720246429766529e-01
1.877826874886068531e-01
-3.663075056281700492e-02
1.001083971071230899e-01
-5.517169369483467672e-02
-1.044184575038895751e-01
-9.988411475794570227e-02
-1.787265316016787287e-01
-1.060215477120007334e-02
2.211950749542685238e-02
-2.147042608838153205e-02
3.756287894620705115e-02
7.242412334150074085e-03
-2.803057117747797741e-02
2.778035827431462115e-02
1.473619613635224028e-02
-7.655888491017473485e-02
1.207347382135243175e-02
-1.245360842779959509e-01
3.445674442698042766e-02
2.847643309562574720e-01
6.887242273081566925e-03
1.516407340538926118e-01
1.509024178706796226e-01
-7.450096923522932235e-02
-5.722402900268602766e-02
3.752491900329976704e-02
-6.091565832675465558e-02
-3.591161605107311139e-02
-6.943742481408816947e-02
-6.210211967229026936e-02
-6.838558881619660745e-02
5.881255109101476974e-02
7.657288289124682124e-02
1.717853644260671636e-02
-2.679582015891060834e-03
-7.279709087406566193e-02
-1.617374334271807351e-02
-5.715456889603287571e-02
-1.703483298066738871e-01
-5.658472063372255167e-02
-1.505001876998735277e-01
-6.965460194405471983e-02
-1.318264506563520955e-01
-1.402505271028703648e-01
1.427889002826131411e-02
-1.199190499043855523e-02
4.210840125167381043e-02
-4.054002765022154259e-02
1.622278145727381882e-01
6.792727528376185653e-02
-2.422740712353378123e-01
6.423436314759498056e-02
3.048550509483031329e-02
-3.875766915771389903e-02
-1.102710523854626840e-01
-1.096510937713144895e-01
-9.728408591748080592e-02
-8.239330527568922147e-02
-1.398899331939197806e-02
6.650359320539126276e-03
-5.981849092272456536e-02
-7.004057778294925374e-02
1.070286439571324216e-01
-1.703961300210015198e-02
-1.567131936157165339e-01
5.667223692575860255e-02
-5.261288426952671210e-02
-4.189426306860667693e-02
4.741371137933135527e-02
6.183729830934141247e-02
1.195307477919795303e-01
5.007238382695432255e-02
-8.707322433544920082e-02
-1.410053611726817535e-01
1.330895606970914150e-02
-1.949274237664760934e-01
-1.469370574216464220e-01
1.300337678123870411e-01
-4.854274738580220683e-02
-8.656964663021440853e-02
1.842546852850701286e-02
-1.107360650477438313e-01
-5.575775325971992283e-03
-1.044937964936596547e-01
-1.489302085662983222e-01
-9.840083704834411138e-02
-4.225851984983778481e-02
-2.119236244708513905e-02
-1.751060754897278138e-02
-1.142004591344089187e-01
-7.472982883009060551e-02
-7.454309764512252745e-02
-5.792587782310604227e-02
-5.957403857200239961e-02
1.597109856439787590e-01
2.619277476339110788e-01
1.153992591422228625e-01
8.802956747802712090e-02
8.417863548175780197e-03
1.154546916851350163e-01
1.029656176712858417e-01
-1.120783087278772183e-01
8.124652773585958054e-02
-3.062255084265973551e-02
-9.242597430674005798e-02
1.877222850573140658e-02
-8.881750455437381619e-02
-3.459134019195554688e-02
-2.378917484463702048e-01
-2.187120939774347683e-01
1.589393835795497797e-02
1.239976931500948731e-01
-3.794433670475555465e-02
-1.665376840268233682e-01
1.259795248898798181e-01
2.252089590483513648e-01
-3.797686957258051416e-02
-3.707981009854300486e-02
-6.729074499634447870e-02
2.643038679425605553e-01
-1.345971096418852216e-02
-9.465202711456280338e-02
9.075724553493512425e-02
3.962429344408709836e-02
-2.945981748694139965e-02
-5.006202989282799998e-02
-1.076299789365209175e-01
-1.075974433793624174e-01
-3.569084462683128761e-02
3.861588749352175970e-02
7.635325308909242381e-02
-1.390699123684491778e-01
-6.306626995013281389e-02
1.166050998252426973e-01
6.158249202449292414e-02
4.761327068528191375e-02
2.512356486403556632e-03
-9.373311142685136765e-03
-1.377843194993212672e-01
-7.744212389915376693e-02
-1.187446071904370900e-03
-1.444452742561385394e-01
-4.182915430362011550e-02
2.630693428280104357e-02
8.594405386230137556e-03
-1.259319586475701469e-01
1.434411174525652977e-01
-1.783107606365022350e-03
-8.880143578647647917e-02
1.486680254395515155e-01
-7.444747032313193957e-02
-2.393657183725922399e-01
1.763478671835010669e-01
2.480986567080990524e-01
2.313986484424086221e-01
1.557004309448175305e-01
-9.988055676967320939e-02
-1.952767977759007007e-03
-1.373319144326723695e-01
-1.705860131048776429e-01
-2.150817895260629387e-01
1.475826507630912665e-01
-6.545052818207222622e-02
-1.496597171821700649e-02
1.185402554921194951e-01
-7.831311297386125969e-02
2.242994129986908627e-02
5.146274237343940322e-02
-1.200343093612130652e-01
2.215133844719806011e-01
-1.233657535550291007e-01
-1.249853508924044787e-01
-8.834794153974415143e-02
-7.967443209678891705e-03
-9.950128006062508579e-02
-3.058556174916014087e-02
-1.290222825749192115e-01
-1.798751056163126194e-01
-5.017155031188263309e-02
-1.804409951796530909e-01
-1.006264434267993280e-01
1.606781856260548411e-02
-5.259736681500491728e-02
-9.063343668678615350e-02
1.923383916108534208e-02
1.828685839535777735e-02
-7.077000034014775329e-03
-1.032928746016831822e-01
-6.961568459840743184e-02
-2.109152857536245040e-02
-8.284416666488655934e-02
-8.343594644220991841e-02
-2.120064559438619364e-02
4.997540377019346267e-03
1.548922028469167968e-02
-1.194288274295069591e-01
2.308067261304076745e-02
1.068112651271504315e-01
-6.382976367394077588e-02
3.275245190845171156e-02
3.827994401579244421e-01
1.457839034719951021e-01
-1.370702207646297237e-02
2.091115766421483280e-01
1.208483491088922605e-02
-1.199093575463099082e-01
-1.958363674054238168e-01
-1.077439663385843516e-01
-2.406944373943564752e-02
-7.368601780348031649e-02
-5.057085717713150075e-02
1.777099231838185148e-02
1.623137038179829350e-01
1.578815207851966274e-01
1.143598344186151777e-01
-1.074812776171321510e-01
5.823349186133232325e-02
1.362583566877838270e-01
-1.733757233292032296e-01
-1.295553676477472285e-02
1.787052320800474603e-01
-1.044291987020455614e-01
-1.694817888896404251e-02
1.045889128422777675e-01
6.681144928363608182e-02
-4.490073626553375136e-02
2.839095262907894920e-02
3.877522781639201888e-02
-9.134895270025292224e-02
-5.178445658741224339e-02
-7.272531794056869003e-02
-1.759407451149870016e-01
-6.046380726281485457e-02
-1.755117695221325436e-01
-2.334642717472776852e-01
-8.531488428078105868e-02
6.237860736413264329e-02
1.110114043941649309e-01
-1.848104629543028121e-01
8.684881558759545775e-03
2.088245333161641848e-01
8.742390536097388587e-02
-1.202680931257848196e-01
-4.323461883659546201e-02
-6.534167740706886551e-02
-2.306328069304208472e-01
-1.004511930067105430e-01
1.049456072175963470e-02
-1.456218173395812110e-01
-1.388370698706161976e-01
-2.196978422929314612e-02
-6.979346030268962497e-02
-8.764879549953115412e-02
-6.983980558757246770e-02
-3.355661911270810260e-02
-9.120663854801998316e-02
7.850553209926496023e-03
-3.203530346952659230e-02
4.126741976059787424e-03
6.805237501200968320e-02
-1.223025174722644076e-01
-1.082949354794487534e-01
-8.955069217852734687e-02
1.602233843632224625e-02
1.259658711435007739e-01
1.479182526954610777e-01
2.924276675565120470e-02
1.143087101880329998e-01
1.177448044178639741e-01
-1.068321962100868411e-01
-4.283735855417000749e-02
-8.591302702125841462e-02
-3.992098340947672352e-02
-5.300388916213973761e-02
-4.211940869385018271e-02
4.805735495396019992e-07
2.203402433954651518e-02
4.583955033210251190e-02
6.764703597163215787e-02
4.113747923197928757e-02
-1.865383059666352317e-01
-1.465014606896181959e-01
-9.783837638526626801e-02
-1.047170999254287277e-01
-7.266522747196646481e-02
-1.514254529040712748e-02
5.611380757365615896e-02
9.478371033131485768e-02
6.225110068236713173e-02
-2.399618091515791016e-02
-7.401933380234172744e-02
-5.968596594457471066e-02
-6.028169366353377384e-02
-6.686379716097864273e-03
3.599625341155533904e-03
2.381596598535557288e-02
-5.227140345403996635e-02
-1.097347589377222453e-02
1.400561985506537654e-02
-7.944009432950807637e-02
-4.098225358942417240e-02
-1.248973962390015173e-02
-4.814184305643099543e-02
-3.053857371356140729e-02
-3.854212176387217248e-02
9.042598956556480161e-02
2.318040116867880196e-01
-6.645299608418278603e-02
-1.708228089230134084e-01
-1.078943834527711920e-01
-2.079202287775717695e-01
-1.570542979245077853e-01
4.014959020698530279e-02
6.727375916571022574e-02
1.602846473812477857e-01
2.726018200247524725e-01
1.650443186271158547e-01
-1.565665335004841341e-01
1.140487887907927628e-01
5.437431705776502033e-02
-1.423296750661085797e-01
-1.885572531985961128e-02
-6.329516450633011770e-02
6.335692774039378139e-02
1.225970882428250586e-01
2.982159201331573140e-02
1.520642153383262689e-02
1.243348011092467037e-01
6.473874496355802588e-02
-7.257944848939681948e-02
5.826207947685512617e-02
4.045565518909294278e-02
8.179502000053429089e-02
8.452561867366595316e-02
2.009986991154642105e-02
-6.523616947365487584e-03
7.482926155903930898e-02
5.137568595743856326e-02
4.705793675608321153e-02
2.331068324265687247e-02
-6.244376991578999558e-02
-1.546738931370584547e-01
3.523631832171718412e-03
-2.950739903252847657e-02
-4.717161973163967043e-02
-7.228419933940298525e-02
-1.008001866479766445e-01
1.576371082393609457e-01
4.584382510159081686e-02
-1.655912753530568160e-01
-9.702610566229065425e-02
-1.197076412610202506e-01
-9.646717714417256395e-02
-1.059124427428452531e-01
5.658564342085141072e-03
4.576754475350863077e-02
-7.241329123276657453e-02
2.430846495667762092e-02
9.823921756264602373e-03
-1.066680195869897929e-01
-4.209409266186168314e-02
-5.913570516136983785e-02
-3.501662268543265233e-02
2.955443711018967620e-02
-1.478451160135310638e-02
-1.254509991203355511e-02
6.771982473717202793e-03
-1.179051725117148675e-01
9.879866069375232290e-03
7.990155715338601028e-02
7.148577973872025093e-02
9.379525994912011819e-03
3.390568351808097985e-02
4.561341571299919184e-02
1.324142593209126639e-01
3.284430158149473367e-02
-2.386285176802719135e-02
-5.916762341932957359e-02
-1.341648256745491333e-02
-5.203669250503877020e-02
-5.670163963893386921e-02
-3.922872999399990707e-02
-9.061880392772818371e-02
-6.126871473408394830e-02
-1.230699411862240938e-01
-1.091794829028538000e-01
1.373490302972208083e-03
1.315733743465497332e-02
1.092314588146638642e-02
-1.651854589021619496e-02
3.875307565952771510e-02
1.384276591205264861e-02
-1.208358493699336969e-02
9.957810332786000418e-02
9.084420686710587001e-03
-2.329317519006946641e-02
8.736845438230420036e-02
8.496007049851836412e-02
-3.727048054154670498e-02
-1.057306397762598632e-01
-1.305309228163157864e-01
-5.585857368571612441e-02
-7.725969580738355214e-02
-1.476580884998462406e-01
1.799889312965390759e-02
1.493005812248808170e-02
7.535494160032467359e-02
-9.289761806323280913e-02
-6.173647833607012747e-02
-2.929834608294790838e-02
2.083600354446249470e-02
4.604009849529729775e-02
-3.089608953284983181e-02
-9.947508270869476199e-02
-1.286646273532431051e-01
-1.203337610816333642e-01
-4.145609753391091279e-02
-6.773398884703822620e-02
-7.097971667772041970e-02
5.246301015716905297e-02
7.470255446247006659e-02
-9.099562316200598966e-03
-5.259938259904691632e-02
1.968172171081264063e-02
-6.680455858170725181e-02
-2.920193456487421828e-03
1.673810601174716139e-02
-8.968974124310308271e-02
3.586668247421408162e-02
4.421369779150172846e-02
-5.351556525573832740e-02
-2.659245707905892250e-02
6.704636052164282545e-02
1.892893749981749418e-01
-2.637292807936105019e-03
5.498082036655442539e-02
7.596654933467002213e-02
9.945570875495734001e-03
2.707557575239831482e-02
-1.519097670966694600e-03
-6.587505480023508886e-02
-6.160657776515360978e-02
-5.470276026579180828e-02
-3.968675760835659733e-02
1.026902180224963934e-01
-4.522353511097280260e-02
-3.099653463653593774e-02
5.699589289505908526e-03
-1.619017134243406000e-02
1.334337272548775100e-01
1.356136229718944153e-01
1.118458765851660514e-01
1.974433908405763549e-02
9.606360293558349056e-03
-1.943895915996572688e-02
1.705944408460372333e-02
-4.050458547030928724e-02
-1.005043160367455890e-01
2.083700091344441868e-02
2.014740872686444917e-03
7.004398852962887001e-02
1.636520322736351521e-02
-2.876571061272072821e-02
1.299453667518644907e-04
1.271893201353904972e-03
-3.169198507935226672e-03
-9.664170446331978026e-02
-4.769598831179182319e-02
-8.756314717897542566e-02
1.314043117272298000e-01
2.199797761701718923e-02
1.818074339162344816e-02
9.599692624607669353e-03
-7.650039414541950911e-02
1.022303378013821179e-01
-8.254314894020416127e-02
-2.618857655321496156e-02
5.090192430579455057e-02
-3.755224830636253591e-02
-5.118733357013652979e-02
-3.129290025645089374e-02
-7.704363186847301703e-02
1.051681114177622917e-01
6.309116762109848175e-02
-1.474675640683795717e-02
-1.209370026791131286e-01
-1.105608266901338260e-01
5.689696222388116592e-02
-2.765923755094538278e-02
-4.812048521415902835e-02
1.214692864971316823e-02
-1.412339074592702109e-02
1.756763862358998174e-02
8.330176445151724063e-02
-1.172032649011654215e-01
-2.409162664774671531e-02
1.127299939516153704e-01
-1.205734433061650956e-01
9.109933483289825440e-02
1.177996964534344104e-01
8.374691203794022709e-02
1.354849231646170771e-01
1.129256939194206999e-01
8.216565825850365851e-03
8.532534769863182877e-02
8.113177625979257901e-02
-8.881009610857517819e-03
-2.456873905235219119e-02
1.476342570174156606e-02
-4.368380324807132065e-02
-5.255166082127279981e-02
-1.531941357421267962e-02
-7.272820007402366893e-02
-1.735861655078870247e-01
-2.516023277047233289e-02
-3.536439324179453669e-02
-1.618812195747193206e-01
-1.802696649343023538e-01
-3.783318288824505382e-02
-4.885976598034332680e-02
-2.842675219114757304e-02
-1.481170277143534775e-01
-8.767792302911439628e-02
-4.985292003684398121e-02
5.351954247897585532e-02
-1.572633766830124763e-02
6.874253963403875733e-02
1.460968433634992070e-01
2.019415372017616395e-01
1.008421643645870114e-01
-5.067432078325772443e-02
3.638554959646837783e-02
1.315465483066353275e-02
-4.432740520705562987e-02
-1.776134042267819291e-01
-9.240745164249286603e-02
-4.963574355366366653e-02
-1.642375099208692180e-01
-9.393093643819487581e-02
-6.541490747047454257e-02
-4.156685940274177510e-02
-7.294875094808385418e-02
-4.649058090303150037e-02
-5.103558645260113102e-02
-3.402738703925657637e-02
-2.320271847943087412e-02
3.072123996795048800e-02
-1.364481267452034158e-02
2.268730097957426944e-03
-1.903961212949416282e-02
8.688708539312474388e-02
-1.844087339566131967e-02
3.681755004631141748e-02
7.063170106755461974e-02
1.168465596831128467e-01
1.089623848368907605e-01
2.004511199663597254e-02
-8.077061596358486861e-02
-3.536042827124721670e-03
-5.913986617496028858e-02
-3.104710884058760681e-02
-8.360332276153713271e-02
-2.400913565605813926e-01
1.051957657395339307e-01
6.650336785239323832e-03
-2.230090577780094452e-01
-3.164922319056935607e-02
-3.931360682952338842e-02
-7.069522881568116209e-04
-8.846604056788061332e-02
-4.146564237957334892e-02
9.869867874175560982e-03
4.527525616682678833e-02
7.464689784252521998e-02
2.326489598109784604e-02
4.255340435815088002e-02
-6.217608280544859728e-02
-4.987056146018770814e-02
-2.248039788701542904e-02
-7.412221069242798388e-02
-3.350690746297253081e-02
-5.576943536454258277e-02
-7.473346309875766869e-02
5.322063810165236081e-02
1.965360178681356540e-02
-7.414436845737784609e-02
-3.494320456578016432e-02
-7.446572956529197429e-02
-9.969394516204597989e-02
7.313793003416703409e-02
-5.821549136960404991e-02
-6.417139664574371405e-02
-6.317059936109900402e-03
2.207758579575653038e-02
-9.495861857566692543e-02
-4.264210158247737359e-02
-3.294229002079660656e-02
-4.512295277715650671e-02
-4.888964048957841757e-02
6.650425984823948866e-02
1.250392915759945822e-01
3.701170617515208566e-02
1.188453189798909793e-01
2.209634711498414950e-01
2.131903399843247671e-02
7.790786066819672950e-02
8.834344014978268156e-02
-5.031560857455109892e-02
1.125320051812814942e-02
-4.376286005575186211e-02
-1.066541544427643678e-01
2.700447094065477199e-02
-8.601702921394395462e-02
-7.883580345693794178e-02
-3.352310551941121985e-02
-9.195300181367330183e-02
-1.350737547386447225e-02
-3.531974198818346039e-02
-8.160650674142402861e-02
-5.960887219973230039e-02
-5.086498489539262313e-02
-3.010506810650723578e-02
-3.525995376110464125e-02
1.258505593476165196e-01
3.639819682328835487e-02
-3.267802277338726497e-02
1.905962812419781660e-01
6.844639456254733578e-02
4.209719994409530201e-03
-4.313023650718287444e-02
-5.854112131478234060e-02
1.349489733416919801e-01
-2.201921888074041475e-02
-8.619851361058425421e-02
-9.157777542912094726e-02
-4.972986626920880560e-02
-1.816762639666137311e-02
1.505366889741954241e-02
-6.860543203074914720e-02
-2.012815092863010080e-02
-7.769358807259280335e-04
-5.335721638872550215e-02
-3.963470082879125278e-02
-5.395665965224459570e-02
-4.606975735718495807e-02
5.897396720024888905e-02
6.310907860362652277e-02
-7.912226890317480832e-02
-1.679133537376423790e-01
-1.600849996974137157e-01
7.801986986088950849e-04
-2.802355536541652550e-02
-3.295803962877412452e-02
3.774528208878127900e-02
6.535165418260839576e-02
5.373894405069568753e-02
-6.729137266640966564e-02
-6.478839556377516407e-02
3.268743774053362028e-02
-1.398154576250016101e-01
6.081758293376938324e-02
6.416192531622245954e-02
-6.608072600732166346e-02
9.597870404521767485e-02
2.290393785427835560e-02
-3.077765257888039410e-02
-2.111040009085659794e-02
-6.542649851539966699e-02
6.320366692139910147e-02
2.350714391895654051e-02
-1.563773846549632029e-02
1.701240061575884366e-01
1.208799100438773533e-01
3.543977179187833212e-03
-9.437508175455985859e-02
-5.980375858890863566e-02
1.456506248919531114e-02
-1.540711833063332092e-01
-2.230267261572716625e-02
4.982538334089821330e-02
-1.397647829488903315e-01
-7.757537411758493040e-02
5.484370296111266280e-02
-1.210002510659032027e-02
-1.064574424027488753e-01
-1.024027650094297692e-01
-3.626010287843799834e-02
-3.805074655643553988e-02
7.385528093543912431e-02
-5.966709208246607360e-02
-1.602693536740978572e-03
1.261207042105127185e-01
7.636951580982540011e-02
2.373539928461177728e-01
2.807659113492850800e-01
1.336256901521731821e-02
2.541832098621599756e-01
2.521678138626341492e-01
-3.918572795248916052e-02
1.317985126278191921e-01
4.605956066840410923e-02
2.962255716660154928e-02
2.581829535442557721e-02
-5.458436252043099603e-03
-2.971741014248234850e-02
-1.501474063034505813e-01
-1.601622406564072731e-01
1.899585042119129041e-01
2.128380751411991512e-02
-1.827338647230055957e-01
-3.457111486991790161e-02
-8.318525362044655591e-02
-5.061726000501647060e-02
-5.956018245943273115e-02
-1.811792066329077078e-01
-3.932986124833697666e-02
1.599854343368836695e-02
2.319620739986089086e-02
9.888570380490237580e-03
-3.533050720178938092e-02
1.980819152847435732e-02
1.004170523771719947e-01
1.692763895552320055e-02
-2.469892388568123778e-02
-7.951630316717751834e-02
6.050642341571216970e-02
5.306552639538922311e-02
4.151358225523294333e-04
7.081483222575722658e-02
-3.983736277516575913e-02
-7.189199807785354168e-02
4.194856991094569193e-02
2.611671942629339993e-02
-5.630602722843394692e-02
-3.769639508016955215e-02
-7.551726769057501287e-02
-5.828642709422288126e-02
1.474192223044815467e-02
1.200468006267126214e-01
1.220888143704195322e-01
5.873714720414687646e-02
1.711420233730341287e-02
6.230661071410312744e-03
-1.273955819221444900e-02
1.219025097654562600e-01
2.750512076312613963e-01
2.192555931688467546e-02
2.292002098048300240e-01
2.093435098758709700e-01
-2.862609488374806901e-02
-5.607290999530906844e-02
-9.100317081916652062e-02
-5.656996242793898427e-02
-1.296906676302289341e-01
-1.312641360503151999e-01
-4.617983062482682033e-02
3.491267453761959932e-02
1.184544459099587388e-02
-6.870543603758821893e-02
-6.938212761171495824e-02
1.294962934035027990e-02
-7.812458380183977258e-02
-6.183867802499225241e-02
-7.135484259021317166e-02
-4.717433982886311272e-02
-1.012756155329492258e-01
1.963242423707935863e-02
-2.493103149713399649e-02
-2.470617502773904059e-02
-4.694051684078296566e-02
-9.642563807387120878e-02
1.200981001900238709e-01
4.509415405412058736e-02
-2.853427322342167935e-02
3.426839010379139489e-02
1.280488782096116107e-01
4.047509569554633840e-02
4.308753098077486299e-02
1.499133064045720110e-01
4.378120478351282124e-02
4.450238832627811253e-02
1.709638692575890240e-01
-6.780522843837391567e-02
-1.278757403455326180e-01
-7.998949471092035857e-02
2.292556507774273864e-03
-7.160866686976874451e-02
-3.133349096853112192e-02
1.336828612046261737e-02
5.618621797316259575e-02
2.651705892467081521e-02
-1.566644725378620040e-02
1.027124640068156625e-01
-7.356060618677116685e-03
-2.019289169308600973e-02
4.467262965439485617e-02
-3.370585929475578696e-02
-5.583642327238038522e-02
8.105015618932310054e-03
-7.859132798000167952e-02
-6.201047054368777345e-02
-8.217818050788364137e-02
-3.012135193177729181e-02
-6.284684162698260523e-02
-5.556984394233111663e-02
3.652257388146465823e-03
-1.586711617757347870e-01
-1.479485434220108031e-01
-1.435213866972812058e-02
-5.504579883320012690e-02
-2.178603058201240145e-02
1.269730699555889769e-02
-3.901939523254483594e-02
2.574463953258329663e-02
4.737524719000160006e-02
-1.084502395404778191e-01
2.222165047653924114e-02
1.014897778543413925e-01
-1.072481109516138370e-01
-1.123666110174061650e-01
1.236167297388962999e-01
-9.905128666020673878e-02
-9.650008051842404178e-02
1.509559368240827870e-01
-7.795823147759115002e-02
-4.199557368107433714e-02
-2.789493275008742695e-02
7.491514353844110075e-02
1.714231981076445033e-01
6.630217377830417702e-02
-8.851148334527833561e-02
8.894541972017228071e-02
5.465806000141994886e-02
9.998531413489915656e-03
1.049581272637268581e-01
4.425977525825157931e-03
-1.316429353193286113e-02
-5.151239744102779211e-02
7.149997570558095511e-03
5.844035028953704219e-02
5.620364129862083849e-03
-1.303155940388170120e-01
-1.503662491524974942e-02
4.707437258009463527e-02
-5.764220514911468085e-02
-5.837981219781824410e-02
6.306190819691120941e-02
2.346847932977507226e-02
-1.293084841681834962e-01
-5.222325686703419706e-03
5.593585140278024836e-02
-2.581410370910963703e-02
1.030084718481769079e-01
2.042302172034118346e-01
-1.923396185083992363e-02
-6.161985723078769461e-02
-3.025250472763179807e-02
-2.287398860363306502e-02
-1.070617426326615496e-01
-1.771913970710625175e-01
-1.288773046485835738e-01
-8.064425887067293297e-02
-4.564889950380587175e-02
-8.059620381972550096e-02
-1.249766607247903560e-01
-6.987005424068715165e-02
-2.406686151032321960e-02
-2.637410678815787363e-02
-5.335941942242268532e-02
7.228060440009957677e-02
9.552893229351482052e-02
3.766633555531250649e-02
-2.993029328301808831e-02
9.123321262705227919e-02
6.348176868130837869e-02
-3.932898395571896022e-02
-1.499458127916611502e-03
-4.294967106230724967e-03
6.358991337551343770e-02
9.941462793526929798e-02
-5.777615155833379888e-03
-1.876853606214308468e-01
9.566142553367674994e-02
-9.401022359645108684e-02
-1.386541255934131689e-01
-5.845708501380628835e-02
5.740080754795556621e-03
-7.468478806168633855e-02
-7.235315502928620079e-02
-4.017571346330520848e-02
1.115002894581970244e-01
1.853409063740099616e-02
-9.780695245469475663e-02
1.040674326531804833e-01
4.494227215699304889e-02
5.835913945892010068e-02
8.006114109157056596e-03
1.750293608752748198e-02
-2.039999646492546975e-02
-3.986422557315075915e-02
-7.705321102166799545e-03
-6.492703965441531250e-03
6.515159225709341029e-02
-2.051461793116797147e-02
-4.167986596441648761e-02
-1.249234791482650578e-03
-3.776069352250939481e-02
-2.586012358821557222e-02
-1.679252412976702247e-01
-5.829937818775971642e-02
-9.756929927565943794e-02
-6.138809024412237442e-02
3.228130517023169305e-02
1.760975013957730151e-02
-1.506376780973262171e-02
-1.159367043156384613e-01
-6.880744213400524778e-02
-8.605636391624760240e-02
-1.580303982817370390e-01
-1.383222748252650181e-01
-1.695553967464305256e-01
-1.109750100908346720e-01
-6.249960306614044808e-02
-1.269735403188741174e-01
-8.585751170123273601e-02
-1.184086625401598175e-01
8.944333325298123999e-03
4.356476076471217651e-02
-2.032522240507003697e-02
1.193220681406528816e-01
4.770980243871260351e-02
-1.374643243182264163e-01
3.400025871213441654e-04
-7.590588941821406477e-02
-1.155917797988874063e-01
-2.235147583660859749e-02
-4.075538692621608061e-02
3.998663276089019225e-02
1.504632473887906330e-01
3.055839033975505173e-02
7.814291210521096334e-03
6.681515923048951533e-02
6.940751771378995960e-02
-1.507530023213893983e-02
-9.085498575134513810e-02
-6.561186498884064022e-02
-7.314920524063500684e-02
1.662422472673467100e-01
-3.871165587614647935e-02
5.343430509491346042e-02
5.431521102660679529e-02
6.203906410372089092e-02
-3.289962505165919954e-02
2.386180737244677358e-02
1.025943423789572595e-01
1.343534567847642358e-01
1.751274886264381214e-02
1.634105971587714867e-01
5.336303631163812067e-02
-5.989118045476939101e-02
-2.039431577134545939e-02
-7.826568202889605530e-02
-1.154193806545915357e-01
1.894936984227162113e-01
4.952915567351562354e-02
-1.879496829422871440e-01
-1.553666903655554106e-02
4.837491549344633684e-02
-1.273127716623041472e-01
-1.575473708134334516e-01
-2.285045282564815775e-02
1.785179662210262808e-01
4.489922310084484836e-02
-4.940906841040408615e-02
5.067191814125752980e-02
-3.205756039461511719e-02
-7.336713745450768043e-02
-1.087098916279891081e-01
-1.358276997443423097e-02
-1.169471027922807521e-01
1.646982530104981399e-02
5.915363131983353978e-02
-8.444564059998982408e-02
-3.670387544906380216e-03
1.415329377565351099e-01
-2.485309926861102928e-02
-8.518257212873350803e-02
1.475690683673845996e-02
-2.625584210788646788e-01
3.941964905289613991e-02
-4.665977216119253368e-02
1.505221322128518250e-03
-4.113252358439588308e-02
-8.865774242125501470e-02
-6.852991417122041018e-02
2.452392471879476232e-02
-1.157260465361222984e-01
-6.114375585030908111e-02
6.896290068145174978e-02
7.822583051181561387e-02
2.291870573813629408e-01
-3.856590505951006803e-02
-1.430037340066421248e-01
-2.249343399941197696e-01
-1.743079082305619698e-01
-4.403043158889349273e-01
-2.796262971650254059e-01
2.588540997878250316e-01
-1.474515045879929917e-02
7.793747845788706607e-02
-1.301886368561079588e-01
2.877153677375178173e-02
1.716918366407834129e-01
-2.292433635403949566e-01
6.230947162034768116e-02
-6.665531595640974971e-02
-8.667854166765613655e-02
2.101490175421746875e-02
9.543654129465384273e-02
1.142738845896828920e-01
-4.527697524285877184e-02
-1.571082549331574707e-02
-1.904837678406444135e-01
-1.093634887679505868e-01
3.491450901113087035e-02
-9.959540164190935907e-02
-2.975466820321878703e-02
4.246859679028752027e-02
-2.059856938759427603e-01
1.781585873326399228e-01
2.317926551341711605e-01
-1.342121183505110560e-01
-9.925283819634286853e-02
-1.031094811245376747e-01
-1.590395795338937768e-02
1.450976397233410264e-01
-3.432031242823638945e-02
-1.336644332442538108e-01
-9.759274246479818227e-02
-1.484385071985408200e-01
5.863910381337114619e-03
1.765391007999990783e-02
-1.327206524553677797e-02
-1.815711268391443367e-01
-9.817031886181329381e-02
-1.679530164196621767e-01
1.458173207258648962e-01
-7.524302606301196128e-02
-1.398888976636288584e-01
1.004233823309422513e-01
-3.657155915887565917e-02
-3.091739357076676506e-02
-1.569308576356569229e-01
-4.184048492577482209e-02
-2.944404836864327954e-02
-2.638633953722687234e-02
-9.699592264735552860e-03
-7.187106604239873464e-02
8.901648035751065502e-02
6.476596947551865879e-02
-8.981330270803060400e-02
2.154045915545894641e-01
8.692309461853367503e-02
7.110428567005812328e-02
-3.502537675087884802e-04
-6.784654883726785879e-02
5.452815782142308304e-02
-1.214117355083285388e-01
-8.616191302672554508e-02
-9.892892391095030324e-02
-2.555986360005049404e-02
-8.610086127509664067e-02
-1.973462534142615410e-01
-9.154778708918219488e-02
-4.680777692207666041e-02
-1.656597024301396104e-01
-3.873509732079437329e-02
1.070352131742918073e-01
-1.133949800416294944e-02
5.652669325684563095e-02
-6.198191749090160158e-02
1.237027106592814285e-01
-4.723224004238442755e-03
-1.111254216057460387e-01
2.339773256151807951e-02
1.198577725357252016e-01
-1.119141896074711678e-01
-8.657384574511377273e-02
2.275126229988412227e-02
5.413039184300991874e-02
6.141906813638641632e-03
-2.892303918070016633e-01
2.407215852336950720e-02
2.673279114273857671e-01
-1.694101213379969884e-01
-6.499361996689634324e-02
1.021433243147441688e-01
-9.375515618952265373e-02
3.726424588937810294e-03
-6.983605151683512646e-02
-3.048494189476370214e-02
1.570643964040810969e-01
1.316465546375754359e-01
-9.549190724907027569e-03
-3.712974993747394925e-02
1.240562573077499259e-02
-6.553964751151753441e-03
-9.205999273593930277e-02
-1.416166966169270514e-01
1.776685221250468572e-01
2.240475975777925233e-01
1.813981758817557743e-01
-1.086349129628446375e-01
-1.181441700354147473e-01
-1.337315506951859134e-01
1.669018549253021427e-02
5.753385190178195857e-02
3.478844731011224850e-02
-1.900223672008571063e-01
-3.220642895522506793e-02
5.449310920060686236e-02
-1.708112384510071247e-01
-1.815350891994774174e-01
-3.885723902649704242e-02
5.165961688524533385e-02
1.701259927078234424e-02
-1.322062459233141474e-01
1.292675186064659032e-01
-3.519390471409390708e-02
1.454014446662221793e-01
-6.992280077971768648e-02
-2.226798863804688999e-01
2.498252490713683688e-02
7.918508541323474037e-02
-4.214760286956997087e-02
-8.953659815507331032e-02
1.783752588658316929e-01
1.410754316437671518e-01
9.881165513932745059e-02
6.068978983076634554e-02
-4.293403203272543045e-02
1.317400699779172624e-02
9.258631418607832231e-03
1.092158660315152297e-01
-2.724603462258149908e-02
-1.244148870037450755e-01
-2.210461800489017803e-01
-9.591265412043475935e-02
8.039167567693325522e-02
-9.137252276152056651e-02
-1.370296017191112437e-01
6.673981976447676545e-02
1.752012511804206928e-03
-3.275638498459439857e-02
7.452374830851736520e-02
7.561457879716564079e-03
-5.221702026900755522e-02
2.712577120375192496e-02
1.274367661865833355e-02
-8.847959168664716600e-03
-1.229990004010740323e-01
-6.720984566737402133e-02
-9.866705464075342658e-02
-1.096087611982066168e-01
-6.277764045995232189e-02
-9.202982978335118303e-02
-1.784843353353866013e-01
-8.777314358655695370e-02
-3.997470723101454598e-02
6.748864074300928162e-02
-1.746589462518169031e-02
-8.005937807724833322e-02
-3.502175388568971870e-02
-4.834181519731881732e-02
-1.086622701580923778e-01
-6.389753876443558800e-02
-2.274470845822973986e-01
-1.617211237471166962e-01
-9.032647615005792371e-03
4.092793463557537620e-02
6.026517602303713139e-02
1.982123240631944450e-01
1.695405614636700739e-02
-1.102053475562639467e-01
3.529683271238170245e-02
1.982721533365872785e-02
-4.724228516302891867e-02
-8.484135425816990983e-02
4.049558483275864096e-02
9.056984270278621574e-02
-1.313385686493383775e-01
-1.638195755547559307e-01
-2.366661198034980262e-01
-8.371257176289478852e-02
-1.542354098548569530e-01
-1.108641869206057201e-01
-1.646682853148505044e-01
-2.167752825426134400e-01
-1.324388224077228948e-01
-6.491487623857347677e-02
-1.093040330295743101e-01
1.803384825080399656e-01
9.084997061927605226e-04
-4.622288051215158594e-02
1.857648214490531524e-01
4.258147864782371034e-02
-3.389338737259214168e-02
-8.309505046504508594e-03
-3.238341451526419168e-02
-3.018549627531459945e-01
-2.861829191084541701e-01
1.089415724773012614e-02
-1.665774312739778662e-01
-1.848476444183075329e-01
4.830469515504706018e-02
-5.263246973468249656e-02
-8.475091421464064911e-02
-1.535421118852365041e-01
-1.835649124372538687e-01
-1.887823688991140114e-01
5.425029446097121531e-03
-5.678791945255374368e-02
-4.623483575503991444e-02
-4.298780409624728543e-02
-1.170730053164457107e-01
1.502792538024747340e-02
-1.541511416285333280e-01
-6.593685318740584445e-02
-1.051739752033977043e-01
-9.907732555278954412e-02
-3.104305839083028318e-02
-6.476820007382784461e-02
-5.988210737411120421e-02
-1.339524711891911801e-01
-2.834492794945678851e-01
1.728400641805007409e-01
-2.534057095466859047e-02
-2.333303990465663558e-01
-8.655920571929384168e-04
-1.196496434936794584e-02
-4.284563794235513035e-02
-1.121181736842477850e-01
-1.206145099097793438e-01
-1.248033124843859198e-01
-3.294614501772864801e-02
-2.479089295420363881e-01
-1.351528429438069723e-01
9.163039775386978836e-02
-5.370348588858810807e-02
1.656109943129219480e-03
-4.900998444764268110e-03
-8.602674853203604380e-03
-9.283521584859763531e-02
6.360184335165854075e-02
8.836457261455592238e-02
-4.972389051391602061e-02
4.819259644763083245e-02
-7.469711949279954355e-02
-5.567390856929756854e-02
5.687730680649083492e-02
1.573777519581813777e-01
8.891671679507347215e-02
-7.214360652886446512e-02
-7.518941954341790135e-02
-1.143124542025019119e-01
-2.511892885892677216e-02
1.472384962447932932e-01
-5.698699451516373027e-02
4.986370721744826096e-02
-7.557711705524804320e-03
4.671536308556212963e-02
8.268946784193856661e-03
-5.068531658761897540e-02
8.738674071313652647e-02
-6.377049865635651960e-02
-3.260817435497954941e-02
-7.557009629482294710e-02
-1.222586370193656097e-01
-5.702071453984147720e-02
-1.259170708070342926e-01
-3.140509871620968396e-01
-2.691603553666331583e-02
4.345410738312711907e-02
-9.644326910090628147e-02
-4.663828753066555366e-02
-4.673930752906756136e-02
-5.909971918068047253e-02
-9.659043128564508141e-02
-4.139024364460755501e-02
-3.367111918122595721e-02
-1.884831376378278411e-01
-2.681876362257530899e-01
2.241228988413603712e-02
3.015539911582599056e-02
-7.403579696954079581e-02
3.524907541156985930e-02
-1.750150142616472768e-02
2.258946857875759190e-02
-2.030331330293331030e-02
-7.454190932634008337e-02
-4.238351357847319062e-02
-1.014947486739259108e-01
-6.924909641960282081e-02
-9.078926905672518588e-02
1.422733223618240402e-02
1.022822326490315792e-01
7.662692236281494484e-02
-1.147022677053066014e-02
9.892175034074569828e-02
-4.775273349732170325e-02
-3.912545839197562048e-02
5.423484369437668075e-03
-1.672726818130031712e-01
1.877727419517670471e-01
6.086040194958522442e-02
-8.758259828094468180e-02
-9.293142870601935057e-02
-9.123744316115302289e-02
-2.785923161590696251e-02
1.843559365055847665e-01
-2.477538382276276221e-02
-3.801996028685278306e-02
-2.108206589702662018e-02
-2.744419282651444983e-02
-6.189729058606774359e-02
-1.888819499387590084e-01
-2.243227485646581421e-01
-2.433892619594277551e-01
-9.554260401577957529e-02
-4.787001924780895021e-03
-1.125178030930277101e-01
9.869221731777881590e-02
2.657386260497778818e-01
1.836806233980689818e-01
-8.536531564615876255e-02
2.794988920113619657e-02
4.527502055109592326e-03
-6.869427382322781939e-02
8.233228134941653759e-03
2.053555021005423059e-02
7.131911924117971535e-02
5.123441518433662772e-02
-7.640970113888857773e-02
-1.613063003770661419e-01
-1.278034565984474402e-01
-5.350812707492139109e-02
-1.516395749490727363e-01
8.359431821713732280e-02
1.537816284804644773e-01
-9.188506374084937089e-02
-1.611468051697063641e-01
-1.419949857155273013e-02
-1.069162528833041415e-01
-1.167247815419633489e-01
1.750931594850003992e-02
-1.117859461223784795e-01
2.458975071485421104e-02
-1.716321453206637038e-01
3.027001281752992115e-03
-4.642484198170781368e-02
-1.796845839932355859e-01
2.153880796089706062e-01
-4.105929798699965022e-03
-2.168219234830916775e-01
8.626089343904275175e-02
1.694250924516725338e-03
-1.164557429462779736e-01
-1.069544001468714645e-01
-4.154415917265730923e-02
6.330614157180734780e-02
-7.945919219994042326e-02
-1.245067766178215712e-01
-1.356009576222094448e-01
2.302403093984009275e-01
-1.032702391349364368e-01
-8.669389480578043594e-02
-1.057512926727308677e-01
-8.268477743065093255e-02
-3.423586167912058553e-02
-1.743626650682184309e-01
-6.811438617829768116e-02
4.316585508002685617e-02
-8.418677022171576485e-02
-6.338556020998968588e-02
-3.690964867367549362e-02
2.842410888353767984e-01
9.991545111329523665e-02
1.415711932603629097e-01
3.006583136145475899e-01
-1.827144623435593973e-01
-8.943159024589779349e-02
1.788270452236584234e-04
-3.200669808397802601e-02
1.481829031293037044e-02
1.606255328093652013e-01
9.009605173671057787e-02
-1.114686132692949442e-03
-1.006704184407367642e-01
-1.954970003992684280e-01
-1.347111802338725739e-01
1.364544851350745630e-02
-4.843373876912410170e-02
-2.483490323188050075e-01
-2.265855133324277265e-02
-3.577525041900350700e-02
-2.253569227051963886e-01
-7.858349029018250193e-03
-3.989282453513766369e-02
-1.594706941243261705e-02
6.224831162845829990e-02
1.951839653212334991e-01
5.405959846793749468e-02
-1.791700501196990397e-02
-1.554888108476775929e-02
-8.992753650764380782e-03
-1.153322196542475170e-01
-4.155919183471624978e-02
1.070183637737431720e-01
-4.504943299174157256e-01
-1.820480206926871625e-01
8.846668350499497721e-03
1.965359795584289276e-02
1.207624849576507814e-01
8.699339772889685962e-02
3.683348148802375460e-02
-3.857932472945200392e-02
-3.722397414540402558e-03
1.091458282159081528e-02
-1.437940598191749832e-02
-2.836984018823242304e-03
2.495584474410663389e-01
7.284029390428869988e-02
-2.613354122533014315e-02
1.070714078684543297e-01
8.239415869832637795e-02
-1.034560919069030249e-02
-9.641371738743619024e-02
-1.186542214887524177e-01
-5.298765272120654207e-02
2.392205899509131095e-02
-7.659571096535078283e-02
-4.013787836251467983e-02
7.799478212520196199e-03
1.709768099694603666e-03
-3.907384688894734170e-02
-5.769076207703843773e-02
-8.640210877652908239e-02
-3.660960030454055852e-02
-7.020570049581911776e-02
-9.797496641522071559e-02
-4.290424049279582819e-02
-1.716051913734452372e-01
-3.845888939962048558e-02
-2.953782051430898364e-02
-1.906531001775599310e-02
1.544821339780182989e-01
4.117128845415538724e-02
5.691267165865631847e-03
-1.407000289521131153e-01
1.246791418043886879e-01
2.503566450796018139e-01
-1.133630810001575312e-01
1.112000161240836865e-01
-4.800501819857064950e-02
-1.171700076910615340e-01
-2.133032872977327910e-01
-1.343447232813938241e-01
-2.528384669110099181e-01
-5.976794361231359265e-02
-7.115290252587969100e-02
-6.520985217197201866e-02
6.167370228799527732e-02
-2.588804170276289354e-02
-7.884568640351888313e-02
8.832917592701970688e-02
1.481915496159941226e-01
-1.439127696719129119e-03
-3.702119556799905731e-02
2.183817717545640663e-02
5.242951075684338519e-02
-1.035984342165132271e-01
-2.167712415728887398e-01
-1.311393895911840135e-01
-3.648096630556691561e-02
-2.768949072506707298e-01
-2.149412383453973285e-01
-1.579107397349513442e-01
6.129044050448692257e-03
1.045732778378000716e-01
6.812467112540167291e-02
-1.398333852665070709e-01
1.771397493513615987e-02
-1.303737659039799490e-01
-1.061843655785515809e-02
4.421065436663050574e-02
-5.915134279503965475e-02
-1.793654811985302411e-01
1.098760768723583275e-01
-1.016568380044057252e-01
-1.539454016942784220e-01
-1.726307849607027489e-01
-1.350686078964379866e-01
-3.107745686515468383e-02
-6.181344699002235682e-02
-1.866297818133412223e-01
-2.062322814576609542e-01
7.054354863956693866e-02
8.266992111160403889e-02
-3.378916883817712196e-03
2.542966585719942385e-01
2.829919497774172621e-01
2.336655963697184188e-02
-5.336960018270467399e-02
8.198255624552958087e-02
-8.916574351403039334e-02
-7.628394325990747737e-02
-3.477126515388573313e-02
1.540109861996848961e-01
1.388953213495155714e-01
1.573845493367630188e-01
-1.129130382973738411e-01
-1.196970495252705075e-01
-9.659761697154044258e-02
-3.555110987007897155e-02
-4.408448332560694488e-02
3.527694004916684389e-02
5.898875209575320938e-02
2.942002847764299545e-02
-1.427253045320374218e-02
-9.004764620357408322e-02
7.669171935365783066e-02
2.710121105627782967e-01
-2.395144871334864770e-02
-1.793842987605303030e-01
2.911102923280756150e-01
4.774275981581287825e-02
1.509376747524643625e-01
2.513866879943198462e-01
2.539707111767848177e-02
4.789598130004125466e-03
-1.700833681877467474e-01
-7.686617667025937017e-02
-9.730891448459261239e-02
-1.377450128054856782e-01
-1.252863592222489553e-01
-1.943675158286422289e-01
-2.464041520875396851e-01
4.261638746623917090e-02
-2.678834257884543657e-02
-1.392117855797540549e-01
4.026388201924459981e-02
-2.530626253294842448e-02
-6.519059321880511793e-02
1.667984992314598940e-04
1.615274832938765615e-01
2.385362587842646820e-01
1.307834359605864472e-01
3.412483046345855114e-02
-4.821185995433858312e-02
-3.241976309917946747e-02
-1.826691487251650130e-03
5.315580482396065759e-02
-6.641209513617490900e-02
-6.962989190763725633e-02
-1.539929567912488306e-01
-1.558816006304342833e-02
-1.266007588060847067e-01
2.815952720259397996e-02
6.388954160115173364e-02
-1.744428766153681420e-01
-8.111076977602832416e-02
1.297280508592513204e-01
1.170904864169850651e-02
1.001137852592980104e-01
-1.224986189177780654e-01
-2.267758997629116535e-01
-8.862836205549363966e-02
-1.071535285791496289e-01
-2.601846214947747260e-01
7.056828526648547054e-03
-1.371873197749801376e-01
1.914111106614739821e-01
1.131028218772561905e-01
3.325977336936723761e-02
-1.056408023372417126e-01
6.501456909090161385e-02
4.001044475192381406e-02
1.688267127222570219e-02
1.121187251075216607e-01
2.321649519838499265e-02
-1.190406822007716164e-01
-6.496216795735894334e-02
-1.998017396942067606e-02
-1.469970778573008452e-01
-1.792880142494318596e-02
2.075757825831331671e-01
1.727531798282248565e-01
-1.679614530505428582e-01
8.551402863964047141e-02
5.696088678524539699e-03
-1.007789014048849074e-01
-1.145256321420848461e-01
9.667233329635319117e-02
2.575066719313525709e-01
-7.091933962583020501e-02
-1.104906372399359210e-01
-9.856543067796659507e-02
-5.829926966046462128e-02
3.631123492079525727e-02
-3.991449259473788674e-02
5.284957392895285599e-02
-1.679678310803881247e-01
-2.422954347570402400e-01
6.606483594198377107e-02
5.318439359098920544e-02
-6.918673436594124926e-02
-7.304991179113673461e-02
-2.492207723643719355e-02
-9.612966582796950155e-02
1.379691617799239378e-01
-3.969968118260413376e-02
-5.355980790948491888e-02
5.292612927874829065e-02
-1.265864359350922334e-02
-1.975306641210580749e-02
-5.711283582878007997e-02
1.243583732887760251e-01
1.302819993690089717e-01
-8.364681371462498460e-02
-1.006232046753270104e-01
-8.405120296374285439e-04
-4.699768881469664622e-03
-8.467846241605457569e-02
-8.636611443531692911e-02
-1.785295509682782375e-02
-2.517405847709355826e-02
-1.308723770328556191e-01
-9.241881411407622260e-02
-1.591830049851884754e-01
-5.598758043920443878e-02
-5.446641240791820840e-03
-1.844387687150840505e-01
-5.099073748780856563e-02
-1.989321435952528527e-01
-1.649416189304865055e-01
1.159432861733561970e-01
8.183938767583649743e-02
-1.663173805424019575e-03
-1.045371562825314488e-01
4.075101789675709268e-02
-2.163678286714231652e-02
-1.874393547956916817e-01
5.536613559772438076e-02
-1.017944546811218320e-02
-1.471691422257321580e-01
-1.060918762326067133e-01
1.049564476480322195e-01
6.563204784235879274e-02
4.140572819960634116e-02
2.015689129262744905e-01
2.056196740649788857e-01
-1.691052791106406883e-01
-4.272287049453935698e-02
3.340015966202112413e-02
-1.121341526596139060e-01
-5.563840308814667346e-02
-2.098253121269236243e-02
-6.203584556718793296e-03
1.209499193214326890e-01
-1.843068621951127542e-02
-2.366808281794050093e-03
1.297571903841920615e-01
-1.400673151950194151e-01
-2.191680654830052699e-02
-4.014497528516640509e-04
-1.320123161348144836e-01
-1.743438826285636720e-02
-6.178475060363166488e-02
-1.304886981804015966e-01
2.670369678523634716e-02
-2.169335868235394982e-01
-1.852405551200551892e-01
4.013044667127568244e-01
1.812712460121241875e-01
2.043239875890563995e-01
-1.817240766353125647e-01
-3.402067074727074258e-01
-1.073901962176266184e-01
-4.515064935480959246e-02
-2.229443655954646830e-01
-2.388981890297376121e-01
2.513282126973661601e-01
-8.536864754247251719e-02
-1.458844709080536206e-01
8.477110369521660693e-02
-1.478697727608296875e-01
-9.809082929086962443e-02
-6.933793640449156803e-02
-3.631172870375102288e-04
3.584995934295318737e-03
1.393040217036703166e-01
1.262206092356542297e-01
1.196930517824940365e-01
2.712389025421400035e-01
5.732449146138245133e-02
-9.579784051642130371e-02
7.311817411949564360e-02
-2.389686797119481843e-01
-1.110050831132325388e-02
-3.227078941448080496e-02
6.088022252583287497e-02
9.654639965098144039e-02
-9.479645184740899400e-02
1.035792996455102144e-01
-5.219494750590057686e-02
-9.035053773307977210e-02
-9.983655145183987362e-03
-7.805633603103964702e-02
1.765604331684048067e-02
1.240892172640301050e-02
-3.754397673095938998e-02
6.578547823476076084e-02
8.259157421595628157e-02
1.621833694965210959e-01
-6.719167396923812242e-03
-1.076120187146771406e-01
7.933116334235651435e-02
-2.196126758860903472e-01
-5.610122332036318604e-02
-9.570548727731680028e-02
2.467744893043619936e-01
1.053048811593809836e-01
-2.253769746659303741e-01
1.476893489001793458e-01
5.226768869889027863e-02
-5.582640778327813136e-02
3.124968297915676207e-01
4.302588230450862805e-02
-2.331017975230483541e-01
9.187181971427887950e-02
-7.309346281477999141e-02
-2.101077812998229932e-01
-4.309026084000392581e-02
-1.928202975811641184e-01
-1.197212322290014536e-01
-3.489609095288236928e-01
-1.824971666538929838e-01
-4.323380291218920091e-02
3.009270013550812903e-02
-3.937827279225732807e-02
-1.285017662108164094e-01
-7.903222207649693298e-02
-1.818061997044617406e-01
-1.289259067781647894e-01
-1.237841701820060064e-01
9.096430045126729924e-02
-3.157252017479992429e-02
-6.355803281713927333e-02
-1.063225425090059788e-02
-2.615108718695488207e-02
-1.769347871196557884e-02
-3.139057698197798840e-02
-7.337638462205547940e-02
-6.771936018935498236e-02
-2.224930732961000190e-01
-5.947804985633484143e-02
-3.030531168126845420e-01
-2.273208493948281061e-01
-1.528622413016815784e-01
-1.583185271364875857e-01
-1.172325882888827081e-01
-1.867058560412823143e-01
-1.058354762675513538e-01
-5.943107400475482888e-02
-2.839326379608996670e-02
9.595015989717280147e-02
1.685202665885249251e-01
2.368802816755044005e-01
1.724403145160678386e-01
1.587954296787694175e-01
1.208147937164228691e-01
-1.534265149396552841e-01
1.217076545892540815e-02
3.598507102075141351e-01
-1.996241993994070374e-01
-9.684074493702200803e-02
3.298802181882820594e-02
-7.193388634450345598e-02
2.013864474630185780e-02
-3.974946779870155295e-02
5.236312808146828535e-02
6.832048712831554054e-04
-2.536405096514949761e-02
-4.302805051812848280e-02
-2.327291338288382458e-02
1.460978421198997346e-01
-3.217847732395595628e-02
1.078291027945175572e-03
-1.441289585504027665e-02
2.027668272116805309e-02
5.117873585238930101e-02
-4.137527350275457816e-02
-3.775619894785074704e-02
-1.227251481792851345e-01
-5.637369655368372479e-02
-1.094342424157617316e-01
-1.232302976388569005e-01
-5.694346194440260550e-02
3.328626355883378650e-03
-1.565293710670623284e-01
1.631415838096577087e-01
-9.305675320544398721e-02
-1.784579397785911459e-01
1.411063168311043614e-01
1.827540097574984201e-01
3.433876509431828955e-02
2.926267630907313996e-02
-1.124220028006209654e-01
-2.045419611112722635e-01
-8.908677622441257826e-02
-1.684871451471845194e-01
-7.675019465061147517e-02
-4.600324792509395688e-02
8.966217580526772424e-02
-2.491838810800807991e-01
-3.231194115940309031e-01
3.889469784952197251e-02
1.176855835063896766e-01
-4.056594424660663750e-02
-6.391585453519825488e-02
-1.042192233645271165e-01
-1.845569822538589699e-02
1.370436669181573641e-01
2.374343314740735011e-01
2.044885629159919893e-01
-8.992907498868378535e-03
-6.642795000044041109e-02
-1.154096207480890951e-01
1.541468144958240694e-01
-3.573706030150344826e-02
-7.405908070697768408e-02
-6.045449932080574490e-02
-4.330601233891884921e-02
-5.139091375542565593e-02
3.164635338778793994e-01
1.115291355972390236e-01
-1.090427769859283608e-01
1.360836389022409276e-01
-7.656410494707127645e-02
-1.319147401913702000e-01
1.242093869429759384e-01
4.441295977582695315e-02
-1.516065100965962587e-01
1.244247586088479546e-01
-1.094890048447210995e-01
-2.080572842705093878e-02
-7.046949702257926385e-02
9.960613523219387366e-02
1.267570727643373141e-01
-5.616902351851989911e-02
6.616455477684506092e-02
6.755377830485574664e-02
1.297883335284340522e-01
4.124616825147466026e-02
3.812845115626437020e-02
2.709007561757029517e-02
-7.295197500630169751e-02
-6.536073943036981027e-02
-1.137006569298449898e-01
-5.873473874831735414e-02
4.547588139778820787e-02
-8.789220763505936618e-02
8.471363812110198344e-02
1.327928920296153094e-02
-1.024268323836865502e-01
1.353845561867931743e-02
-4.113582358723838137e-03
-9.818310023281483223e-02
-1.695052116520552599e-01
-6.083804839697013606e-02
-1.937049445644427603e-01
9.372240111729093770e-02
-8.878475831090554271e-02
-5.307488139417194245e-02
-9.363654935377064550e-04
-9.841017075640801082e-02
-4.647264559950326640e-02
-7.857392502276622226e-02
-1.428708312318718310e-01
-5.876640732826870356e-02
-1.867319569018798808e-01
-1.550750821388037770e-01
9.212147131227215249e-04
6.700518860627824314e-02
2.435755512434794046e-01
-1.684073675470751721e-02
-2.269238763858727123e-02
1.675334983263887245e-01
-2.156360296698807411e-01
-1.985638321546592810e-01
-9.138077788697528125e-02
-2.952134261128445264e-02
-3.670602072447860797e-02
-2.883731711071212123e-02
-1.897569915693484988e-01
-1.419955439678252107e-01
-2.168121320427985610e-01
-2.388792923358536158e-02
-1.227293674913366127e-02
-5.116330830029706955e-02
-2.264979379421213149e-02
-1.512185771140617807e-01
-6.161660484609288863e-02
1.380363130966323626e-02
-6.899857457231728386e-02
-1.352142105628809654e-01
2.918018290270711981e-02
-1.051218016327057359e-01
1.844335206885413803e-01
1.430914952381415195e-01
-4.682288015253042307e-02
-3.518946133411282595e-02
-7.468293748828011558e-02
-1.009987677617645158e-01
-2.034195861222719282e-01
1.317134824883170741e-01
3.265958208580234667e-01
2.943296337539124188e-02
9.955888716693310492e-02
8.441377259483802409e-02
5.603891170967631279e-03
-2.183435745578951315e-01
-1.333019474389781633e-01
1.272848539427148817e-01
6.624895367897626342e-02
-9.573617778718269966e-02
8.189090569755445859e-02
3.091472847639019084e-01
3.389983002994914705e-03
2.618840894869464350e-02
2.467288143809539258e-01
-3.518169374838563124e-02
7.554914041205083863e-02
6.587569491299898050e-02
2.132747659059721357e-01
2.262200457573887713e-01
-6.502016529773360642e-02
-1.138419928051061097e-01
2.794237032142035115e-01
-4.539727494956113940e-02
-2.523523691920246947e-01
1.875736859165867410e-01
2.036495560380925107e-01
1.933734136235027920e-02
-1.380652911925298876e-01
2.550903323762241937e-01
4.665919426797029285e-02
-2.609927606073882411e-01
1.324080167030761424e-01
4.850241640577626460e-03
-1.750805751458087492e-02
-1.249900008210810265e-01
-3.795774785623676206e-02
3.483955786888806583e-01
1.889171110754503946e-01
-1.541654801246069850e-01
-6.514149346746025970e-02
3.384691928707391217e-01
1.666649341072013457e-01
-2.401865067446279922e-01
-6.729893249000087896e-02
-6.788952222729646713e-02
-6.414070303549050667e-02
1.038460373998830594e-01
3.448215839856176579e-02
-2.963075351929027670e-02
5.108735435281955110e-03
-7.201949438182121688e-02
-6.154808929570539100e-02
2.308001358941205727e-01
9.759598596786174529e-02
1.411195476820985284e-01
-1.692133732640977994e-01
-1.809432728406859883e-02
-2.610542175937285991e-02
-1.805736794635726672e-01
-6.499964165231586488e-02
-1.158172987183033603e-02
2.970171266225372572e-02
-1.520068224710537375e-01
1.868758313279776928e-01
-4.951908069366364740e-02
-5.296091248965137388e-02
2.737222193238321791e-02
-2.208426544108674228e-01
-1.796900770211619924e-01
9.427654587412076514e-02
4.691158699442313229e-02
6.950013144435833456e-02
5.049901829157846939e-02
4.783082410680801998e-03
1.312417963198243276e-01
-1.849176337280875049e-02
-2.830186647014342263e-02
-3.287515126485667655e-02
-9.843031140350751163e-02
-2.437258859965817648e-01
-1.843331972860868251e-01
-2.776670703490761172e-01
1.328198285229072462e-01
1.891124148955561704e-02
-7.716466530174284633e-02
6.704568513920154682e-02
1.620724234299668887e-01
2.201292171716735802e-01
-2.110786029047083678e-01
6.849736271529019427e-02
1.534928432847707525e-01
-1.618804937933921717e-01
1.014238294242419541e-01
1.623542532172440600e-01
-2.239994468303654895e-03
-3.230858596752418654e-02
-4.011456331953196924e-02
7.820977591926768502e-02
1.339517468171103343e-01
6.829867521582731749e-02
-7.375959817903197067e-03
-8.339323084463774738e-02
-1.053442666806538169e-01
-1.321213155570238329e-01
-1.181571968735491973e-01
-1.570061406677791468e-02
-8.747832889041984306e-02
-2.878966547284329824e-02
-1.719728191721483709e-02
2.683313755570415626e-01
1.800707805147800378e-01
-1.324702998262848042e-01
3.692846361549919632e-01
6.283559986537957942e-02
-1.155967075133668837e-02
-1.900318862383175156e-01
5.639991452946953310e-02
3.606057043468760027e-03
-5.148965768547686395e-02
1.388096151886617502e-01
-5.300466292564212645e-02
4.953830657618484012e-02
-7.748689033313187202e-02
3.840221582193074218e-02
-1.257847191661789522e-02
-1.349927647335980030e-01
-1.763844311974288315e-01
-6.181743840224811909e-02
-1.297299183717121884e-01
-1.594081541866397000e-01
3.279838384161229414e-02
3.660303216017306571e-01
2.357255892251044205e-01
2.988305445275774019e-02
-1.546774602484001504e-01
-1.649263717990896438e-01
2.315182419144666548e-02
4.277306384852021248e-02
1.127863703081191660e-02
-5.666935542899762153e-03
-1.557998384026758332e-01
-4.817090762176381297e-02
3.073603152218467097e-02
-1.904186906465121440e-02
1.324246921019035100e-02
-8.657613637234412574e-03
-3.284405954538331522e-04
3.413314843888597128e-02
-2.477032767797365115e-02
7.291866554132810097e-03
-5.698045692277644431e-02
-1.593412107890108675e-01
-1.000128352058273808e-02
-2.989720418516282250e-04
-1.058818104239796637e-01
-4.518941893446702662e-02
-1.666225935608917422e-02
-2.966001194089934109e-02
-1.650933799358317300e-01
-5.608850698968548959e-02
7.455141895676860135e-03
-2.311801126412324492e-02
2.867573631797816752e-03
-3.585415121860666826e-02
-8.482669183010287106e-02
-7.696258514427903319e-02
-9.879323448638435701e-02
-1.379513232584577143e-01
-1.133841670472032215e-01
-1.202895718664107570e-02
-4.011663924833226008e-02
5.872830906273957680e-02
-9.289318779913248447e-02
-6.427478917726774099e-02
-7.096524772417832708e-03
-1.379241991527518085e-01
-3.305415852271739729e-02
2.550451203747340634e-02
3.258977701188124632e-02
8.544325989950646294e-02
1.041174427174311468e-01
-1.704126763908375003e-02
-5.548722934638215809e-02
8.892224395551229232e-02
-2.523648101669673585e-02
-2.908711157903842021e-02
-1.457654206628777177e-02
-6.436559535647339535e-03
-7.700952736918238728e-02
3.725790148671050128e-02
5.632036692913732628e-02
-5.024272813852141695e-02
4.637367841602594437e-02
1.189726159330407179e-01
1.464978528191664964e-01
6.656623362730371141e-02
7.745046580281822815e-03
6.785596733158800672e-03
4.820226927642573544e-02
-7.761639524161001447e-02
-3.019630947856424136e-02
-5.087076542926277645e-02
-1.135629450417004749e-01
-4.891399179252334251e-02
-8.209590695575946784e-02
-5.822149339542128516e-02
1.276393466340224603e-01
2.766112094601830274e-02
-1.610561551509092845e-02
1.180250889176227141e-01
1.688522623345215246e-01
-1.199186851153871691e-02
9.542173478062752900e-02
9.618276008979431690e-02
5.174596710318193210e-02
2.463809661133536943e-02
3.335857929977963099e-02
1.301438786191891697e-02
-2.187603561055732199e-02
-1.659228364900812783e-02
-3.143597222389166862e-02
-1.037803889077676817e-01
-1.212691151388997080e-01
1.299684424266559224e-01
1.623261632523257114e-01
1.908795341086246544e-01
2.672393052778250164e-02
7.637140579852121081e-02
4.084999937144157683e-02
-1.087241419564964062e-01
-1.080808002220290942e-01
-1.430797893643998842e-01
5.820640201960577964e-02
7.306820557216568701e-02
3.544081629347526491e-02
-4.697357952848672802e-02
-4.762469824168563681e-02
-3.284198774030665235e-02
2.683156346486380295e-02
-1.380188321437702485e-03
9.107224495530796826e-02
1.741078991442287019e-02
6.228167624769521959e-02
4.032646908725313201e-02
3.133998232670666406e-02
-3.523782144883976647e-02
-2.881063073349713483e-02
-4.659029278577971750e-02
-6.784776141351035739e-02
-1.154686636821597306e-01
1.788335603654561123e-01
7.718289736368924570e-02
-8.229093978900427209e-02
1.876105985665004472e-01
1.668042563827555336e-01
1.084004861934653452e-01
-3.637373413940141881e-02
-3.458749613325478450e-02
8.311102135519381207e-03
-7.358242254584714502e-03
-3.159063149163044565e-02
1.348329734620474021e-02
8.404999201189197744e-02
-6.725119369243814926e-02
-6.417278291513753286e-02
2.052508693489434044e-01
7.359629158470266941e-02
-3.721171341006915961e-03
-6.018969700414655843e-02
-1.629992363708768557e-02
-1.744363349176192637e-02
-4.946571432549511094e-02
-6.185481992082535185e-02
-2.149309846743496788e-02
-3.421174246259240520e-02
-1.378031934007643323e-02
-1.289779065321025597e-01
-2.578619482390743980e-03
-6.293149973228058525e-02
-8.660494539665772318e-02
-6.754331540472188755e-02
-5.975349092094291159e-02
-1.340307699756600746e-01
-1.102234840212157063e-01
-9.506488247644261091e-02
-9.717127464272347359e-02
-1.165177371815854096e-01
-8.057216861529309382e-02
-1.039128554705175123e-01
9.536739124936101375e-02
-9.193680725133006456e-04
-1.436330678538230189e-02
9.303186417006202580e-02
-9.824042698918435124e-03
2.899315984462842374e-02
-6.650714653150444078e-02
-4.584621758959463861e-02
2.114737139205342259e-02
-3.203897683867973356e-02
-3.689927735463863212e-02
-1.228393583543479703e-02
-2.778651000955835795e-02
-4.118141809557853555e-02
2.475418498023156111e-02
9.160614828250537856e-02
1.571879072366031416e-01
6.124069932886684609e-02
8.199732940487249044e-02
3.779290379576184800e-02
-8.162553991875462489e-02
8.408037381380774333e-02
7.055492658856979404e-02
5.954901861855992767e-02
-8.394866420284503861e-02
2.007443877229705791e-03
6.401980015543100311e-02
-1.226219926398573225e-02
1.710240327070103594e-01
5.122902229954162667e-02
1.604603780239258551e-02
4.109079414550682700e-03
-3.269458119209875391e-02
-5.867061531893367349e-02
-1.022544862458951015e-01
-1.990006343367586028e-01
-1.032643160004451527e-01
-6.348670985052347338e-02
4.025792009411458677e-02
-5.617266320726484533e-03
2.265039168175320833e-02
5.788812341778857423e-02
7.308342030308724591e-02
1.375551935670955572e-01
1.333019852055752630e-01
-6.290178516934755854e-03
-2.374197222931458476e-02
9.276848700101368583e-02
3.595712750043447703e-02
-7.835155522785763882e-02
-5.738715870743237718e-02
4.359961832765912176e-02
-3.746069167401094857e-02
-1.155448831200746596e-01
-3.114361781902150184e-02
-9.684051474699384432e-02
-1.688698796864859797e-01
-1.086142830204558651e-01
-1.258871462265709895e-01
-1.476459888793279218e-01
-1.817486517858680345e-02
-8.603074419913298021e-02
-1.315955972023966913e-01
-5.938756640941283971e-02
-2.696223577152559447e-02
-8.342347142825003170e-02
-7.283342996657078683e-02
3.623784727598376026e-02
-2.451522371160628003e-02
6.325969159898420235e-02
-4.171536627917816348e-02
1.142458921757861200e-02
7.155530565988112157e-02
1.585030128433823765e-02
4.978680766655043527e-02
-4.107086949235416728e-02
-5.062702415027794944e-02
1.373614531589391341e-02
6.217467971082014239e-02
-7.943647459969215355e-03
-8.482396119661887723e-02
-1.166062640948542090e-01
-9.751012270847496388e-02
1.812694592517301306e-02
-1.170151862714190888e-01
-1.028813825019054690e-01
-2.601006611847979724e-02
-9.539823002587420608e-02
-8.617214559649621908e-02
-5.384562520208237973e-02
-7.576246051396665071e-02
-9.540841803622411577e-02
-3.606561831620788000e-02
-4.114625347977808600e-02
-2.070841869527251244e-02
-6.197882824823516129e-02
4.977061450535587295e-02
-6.822033027961646456e-02
-1.091177961351621206e-01
3.460905804508777189e-02
5.184837426940682353e-05
-8.023206176675481277e-03
-7.108099686653287716e-03
-6.327732577209947695e-02
8.820135391221485544e-03
-4.196358759133281963e-02
-1.392874693213943527e-01
-1.312180604897468239e-01
-9.570976334621045245e-02
-5.889465903030198513e-02
-9.725127042899869845e-02
-3.577890600567705526e-02
-1.247550463301964202e-01
-4.596870079932961761e-02
5.597707247251764578e-03
-2.736374542762675874e-02
-3.848101221962575962e-03
1.208439885870397044e-02
1.015719680511554916e-02
1.438479664661925991e-02
-2.078978091969977543e-02
-3.282620669730731272e-02
-5.914477272192450452e-03
-6.276506005191376247e-02
1.625873144224147804e-02
1.233187303140946545e-01
-1.117531742455491264e-02
-8.384393291428111211e-03
3.400325270868728017e-02
-4.337061798384759387e-02
-5.143483749046551257e-02
-1.310084493257866831e-03
-4.865868316882093064e-02
4.745131142602793811e-02
-3.057987377025986678e-02
-5.942215630256007797e-02
-2.632117610652025610e-02
-8.048169885910394505e-02
1.631054899735905062e-02
3.932262485887177972e-02
-6.213832359683623546e-02
2.336567299266043755e-04
-9.754899358450727642e-02
1.889018517814092940e-02
-1.583423147824973218e-02
-6.376892110144594117e-02
-3.510524274508443343e-02
-1.586717850566636556e-02
3.395039784926881521e-02
2.406179276995745048e-02
-2.414956553496426430e-03
1.180611086085901242e-02
-7.520217321169962721e-02
2.746784872655987086e-02
-2.542475455083488892e-02
-1.400230554434629127e-01
4.466037972338327000e-02
