-5.410269384122121106e-02
-1.915726953966374879e-02
6.671983103993013586e-02
-2.238483989019603507e-02
1.827098800550442173e-02
-2.369860072893955477e-02
-7.751623184042687187e-02
3.885398375386026060e-02
-2.541525614263000221e-02
1.517977280391516193e-01
7.530725722239210718e-02
-5.587515002870498820e-02
-1.344205075014809694e-02
1.179954070922508286e-01
1.259156702777413095e-01
-9.678767148790093366e-02
2.512935161944065358e-04
5.192577492318126153e-02
-1.067531892285692174e-01
-1.896580663226068997e-01
-1.193534007782677958e-01
-3.511725704730458281e-02
1.203066709444915311e-01
2.344850940837579223e-01
5.559562671888083896e-03
3.410129229343827201e-02
2.366646080684685696e-02
-3.464198533612234537e-02
-2.022720483990703977e-01
-2.593976614434442829e-02
9.462928570662779149e-02
-4.564175043874681842e-02
-8.395749006180527885e-02
3.873100436658687140e-02
5.508125931613398057e-02
-4.518368042254086031e-02
-6.173293414090880865e-02
2.379133432280215038e-02
6.711533582828813072e-02
1.184541339998035486e-01
-1.599098172960570358e-02
1.684261835512300132e-01
8.381152381676250374e-02
-1.069402814501941579e-01
-1.366555446046293365e-01
-5.373708026670708654e-02
1.254158354269837780e-02
-4.181028546374732091e-02
1.485061173792896934e-02
2.911526132905925199e-02
-4.556988264108507991e-02
2.967889922661610339e-03
-1.542387717516851067e-02
6.576589562894338825e-02
-1.558944029198782444e-01
3.767038041225976436e-02
4.171713957260567845e-02
-3.523362926625100283e-02
-9.478167779603361050e-04
-8.777312992305054407e-02
-1.356169465356545922e-01
1.851955602017940974e-02
-3.580999868248745110e-02
-5.849190997926070196e-02
-4.529823230934199724e-02
-1.440763409043349999e-02
-2.837023897868552226e-03
-1.035388439784384190e-02
-3.675024388303457096e-02
6.049551770866545310e-03
-2.680220593583731645e-02
3.314068993310935463e-02
3.401067422942609386e-02
5.640794710620000707e-02
3.614579280273476358e-02
-2.083681814175659258e-02
1.356334609837879686e-02
3.871145698518483474e-02
-2.501456849532897667e-02
1.937073888728629151e-02
-1.826395745066959966e-02
-5.233488081141175058e-02
-2.741273534053895178e-02
6.369902009241969199e-02
3.502995825735814861e-02
6.471157186328790889e-02
-3.178319883726616821e-03
-1.844544204199760964e-02
-7.306419282970370854e-02
-2.009028699013164915e-02
-5.565300824892068648e-02
-2.262562453766943718e-02
8.843187033526236224e-03
1.359496760119572462e-02
4.071123180592575719e-02
-1.461893516796355409e-02
4.722048102847651446e-02
3.285495785527624973e-02
7.485343272487697541e-02
8.149322040171411846e-03
-3.493450100748258375e-02
7.883742468176997698e-02
7.193788540904940201e-03
1.995446756308293101e-01
-1.766752979311401670e-02
-2.049388597429032885e-02
-2.053666938273520509e-02
1.959679538096465584e-02
1.057200545322041774e-01
-5.902195940209275377e-02
-9.534640624312218371e-02
1.119244091367484553e-02
-2.231565451871101238e-02
4.194147716698456985e-02
-4.222796767126625606e-02
6.245569127595107517e-02
1.349461371582754976e-01
4.062271156751474238e-02
-9.322829546040098045e-03
-2.167488803606128570e-02
-3.520692881234730592e-02
-9.906332674313686817e-03
-6.047467990152879252e-02
-2.364342773410730431e-02
-3.814243851042789513e-02
2.688674937772651471e-02
-6.101725437114544764e-02
-9.451999345554489007e-02
-4.257404912830396043e-02
1.823714064607800164e-03
1.269462575667642257e-01
-2.237255168084534285e-01
6.816104626660385302e-02
9.807875362180691614e-02
-1.360958390846407351e-01
-1.026216700181886710e-01
3.905689019730437805e-02
-5.400251541373938396e-02
1.573137695681266560e-02
1.108493292657944662e-01
1.809952990143842352e-02
2.836589666704974685e-02
3.058173285496028695e-02
-1.570574364804616929e-01
3.462241502163518336e-02
-2.293115760140391687e-02
-4.511367523836675580e-02
-2.062501373851399755e-02
-1.231858627781997340e-01
1.352301650371197095e-01
2.174508013257589467e-02
-7.241935020465591066e-02
-8.731083798535423102e-02
3.031976237641119051e-02
-4.273397543855033884e-03
-1.003438757623089789e-01
2.385004307389669738e-03
-2.750437913251899819e-02
-2.507304452885349144e-02
1.280140052767714080e-02
1.504806987313721811e-01
8.716734423998957759e-02
3.378850450277788228e-03
-3.481767595476288613e-02
2.762070197043937220e-02
-2.390181370908507977e-02
4.661927105295331220e-02
-1.128937816036746505e-01
7.229267250092398511e-02
-1.789929649978116294e-02
1.965382124243084810e-02
-9.723026524083344668e-02
1.115827296846274019e-01
3.182364841103689501e-02
-2.453875635235239910e-02
-6.223876869296233322e-02
3.723934028660746444e-03
7.781073747255557241e-03
-1.548386477000502498e-02
-2.361145477316421715e-02
-1.543105295283420456e-02
5.854413366289661080e-02
3.808735624483709781e-02
-1.936266442694294793e-02
4.770298720292631169e-03
-5.630391593103431513e-02
3.572178888168436178e-02
-6.982849379092589959e-02
6.758312401135875558e-02
-3.829338667692967161e-03
8.200678079049189160e-04
-7.895568577606454364e-03
2.482371321539421014e-02
-1.629373857535665673e-02
1.189675111805417809e-02
-6.251241503130192112e-02
1.726237248967712676e-02
-1.592651038388315926e-02
-2.405341368565650992e-02
3.613506243946458529e-02
8.501267266747360163e-03
-2.632658596866001288e-02
4.479215293416081295e-02
-4.483286825878689263e-02
5.494755267642360830e-02
-8.424769751592760259e-02
-7.430533774842043582e-02
-2.465909326387885972e-02
2.388302666649928449e-02
2.125805979883000491e-02
6.935862899389237668e-03
-4.131406210743589907e-02
-1.851777751715817308e-02
-1.655529411472805509e-02
-2.684097597877165616e-03
1.157379014234211634e-01
7.100289174270137116e-02
3.306315215268906121e-02
-2.028797201280941806e-02
-3.435516984573161285e-03
-8.902032642582641264e-02
2.529967181529896997e-02
8.905163027649719287e-02
-6.450902226807808670e-02
2.313724831756814107e-02
-4.804459114349252102e-02
2.902361965165647581e-02
-2.111218953466568668e-02
1.711977345339025028e-02
6.330748118135991198e-02
1.047365675041683764e-01
4.092919173967909940e-02
-6.297716785617828161e-02
-4.305359264540075531e-02
6.132315202332140787e-03
3.496547811251519977e-03
-3.654631530410936552e-02
7.456724088759144643e-03
-1.121060160489409895e-02
-9.070199824168291916e-03
-1.439605069172144106e-02
8.379366898498210800e-03
-1.785566354659463622e-03
4.682293587337667262e-02
-1.279329103785547747e-02
1.241538847717067393e-02
5.178683744449727455e-02
2.669477176813367728e-02
-3.162635296344478569e-02
-4.345824741290112841e-02
-9.722887839447802438e-03
-4.113254458577791928e-02
1.368954055260099105e-02
5.628136292445683891e-02
1.397501004304048562e-02
-5.556284159978237130e-03
-3.471706274914172340e-03
-2.422896289628004990e-02
-1.193689671079256609e-01
-1.085405180941885067e-01
9.646750359872809100e-02
-1.061157815726543850e-02
1.816794881884062005e-02
1.230829916575389149e-01
-7.099346509117447634e-02
3.814783261403601605e-02
3.781796271116422310e-03
-2.748877435697148069e-02
1.891088572032523576e-02
-2.269276146383857745e-02
-1.075224112884335670e-01
-2.834033397201636550e-02
-2.944280875361456398e-02
-5.224004451153135831e-02
2.320026505588336160e-02
-3.983073692022123802e-02
3.923428171743058995e-02
3.535176775892821810e-02
-2.084591650301382063e-02
3.400413589312104717e-02
1.846992807228999001e-02
-1.956181538658595051e-02
-4.552910992854220656e-02
-4.631295747592800022e-02
-2.921220205453523705e-02
-3.484639267945927044e-02
1.932213139393136603e-02
3.736804786998397521e-02
-2.216024492976055842e-03
-3.974302213886894003e-02
-5.368924429558322858e-02
8.019459242618265371e-02
-6.053409484401066180e-03
1.574519305559635152e-01
1.722583547146659400e-01
-1.682591175222553637e-01
-3.081208332086972368e-02
-1.814106389830998436e-02
-8.964939370102266436e-02
1.371626652555217596e-01
6.317203722018782663e-02
-9.232067658451009740e-02
-1.245646807829452751e-01
-1.234167060166551089e-01
-5.254861416609683811e-02
3.887195963047287289e-02
1.064707219263078819e-01
-4.960601101214939801e-02
-1.614541614172613215e-01
-2.579250525123836721e-02
1.638497138655297392e-01
1.635127316118077101e-01
-1.410230308840020041e-01
-1.031870603932044314e-02
-1.147860516384342430e-02
-5.788771691779114742e-02
1.562114522667276961e-01
-1.773587715694475639e-02
-3.336866555684891988e-02
-7.832817095372883454e-02
4.080310638994765274e-03
5.389580287417627957e-02
-3.725027753157476862e-02
-4.487464585894841707e-02
-1.973375316184607098e-02
-6.443330042962422399e-03
-3.687682315572809316e-02
-2.223466899118637513e-02
2.116226854154943174e-02
-1.604044097695178986e-02
2.636038788780645584e-02
5.130512860508099071e-03
-1.352756017361926230e-02
-1.888356057976832425e-02
-2.239824488214183017e-04
-9.660030830505465793e-02
7.574798513772385000e-02
6.632131112250444493e-02
6.378225474165570563e-02
5.036565723227446473e-02
-5.294621170781506347e-02
-4.940565171980257353e-03
-7.563079148557957931e-02
-4.330105444655625579e-03
-4.353865424246743804e-02
4.527617171630077264e-02
-6.159246116192762521e-02
3.441188100335298983e-02
4.103174280029959348e-02
-3.203970510837398505e-02
8.512543061095895203e-02
-1.339068622826722170e-02
-4.469979580081280546e-02
1.030583453402027644e-01
4.694182792540696481e-02
8.375385955272412336e-03
2.954146208665505147e-01
-2.042262864628784091e-02
2.631031451013589317e-02
9.981665516391104165e-02
6.745170109700304728e-02
-8.030154741420870990e-02
5.285915180115341450e-02
-1.093484048835125511e-01
2.942123477784384152e-03
-4.185178095137589288e-02
-3.324194557283791096e-03
-1.040772775221491947e-01
-1.119103070586080773e-01
1.060478306246542546e-01
-1.138328584197015325e-01
-3.577557047105100335e-02
-6.643247694980611295e-02
-2.300600928927349145e-02
-2.822521195795035243e-01
1.766163448213378118e-01
-5.258485929574132321e-03
6.325650992088810431e-02
7.145337682034397231e-02
9.714119177751910639e-03
2.334307122694174730e-01
-1.311642430443071133e-02
1.952606971774379502e-02
-3.007441766677410380e-02
4.722925624179405424e-02
4.913072443639023706e-02
1.162080916264045111e-01
8.111034575125769530e-02
-1.220125379712405818e-02
-4.728111755719368453e-02
-3.524184287460921383e-02
-7.708413252058068932e-02
4.758399663559011172e-02
-6.005038935057680632e-02
6.253122424984106781e-03
3.655667917243712178e-02
2.975665959280085135e-02
1.027402225708949901e-01
-1.653956748034460245e-02
-1.656419200527557423e-01
-3.350456451066282509e-02
1.279582342642705262e-01
1.330564912102641939e-01
-9.539165410801898892e-02
5.856087685754250705e-02
-2.929849443888738261e-03
-4.340831047049283770e-02
-7.509043412756964860e-03
7.792990423065046524e-02
4.952815414227006163e-02
1.796486059035368871e-02
3.344001598876264469e-02
-3.377636465079009859e-02
2.881330369195002697e-02
-6.521228529804615551e-03
-4.034799147369508981e-02
-2.131580438345135470e-02
-1.362722028613706695e-03
7.139105669978737523e-02
-4.082159703602929179e-02
2.449231327459399179e-04
-5.047623873581599807e-02
4.905934334878893355e-02
-7.032381417575769844e-02
-5.251872882220453252e-03
-5.491396344724962242e-02
4.162817803712681730e-02
1.538701772538678403e-01
-1.901356266601770748e-02
-3.743136725954163135e-02
1.684461521814241691e-01
8.877968942853774192e-02
4.535571941181291977e-02
-9.837088133406873824e-02
-6.528552559726136240e-02
6.511877861436816961e-02
-6.669971674646504867e-02
1.027269584135060004e-01
-8.183328907644869810e-02
-9.017212535623600478e-02
-7.362757878513959131e-02
-3.126222434330132305e-02
2.719663328177206532e-02
1.945658530797588215e-01
-5.563523181096495518e-02
-3.348309002657499922e-02
-8.659194537535744307e-02
-1.178218730572096369e-02
-1.557916132025715175e-02
-4.148049184095379399e-02
-1.351353582496383349e-02
-8.413731661923651989e-03
7.877421537504064597e-02
-4.858690175292496721e-02
-7.571342652844580134e-02
4.395456147549595821e-02
3.826763742792824857e-02
2.016446541239536733e-02
-8.071490359371009254e-03
-9.146492536991802577e-03
-8.428449467228847636e-02
7.947189668411969166e-02
-3.907286959148042332e-02
1.616483740224594623e-02
-8.951830305373286584e-03
-3.934657241313423495e-03
-7.126941958456896320e-02
-1.342078705517854575e-02
-4.094608801945556764e-02
1.144496400535102883e-02
3.709212655998739977e-02
-1.407961695048785822e-02
-9.850386341875103785e-03
4.246103064692271709e-03
-3.151398854341878192e-02
-1.809972519602711868e-02
-5.421300993613957508e-02
-3.846812564457569722e-02
1.292946139665258377e-02
7.679667910497577077e-02
-7.606733718484090523e-02
6.088648220764704411e-02
-7.006399770355058176e-02
-3.772467439265352745e-02
-4.198257637749554239e-02
-3.756710042916356490e-02
-1.034829307331402125e-02
-2.738036357472760710e-02
3.058687396121870239e-02
-6.137807828158230866e-02
-3.878901681049775479e-02
1.627557000824069455e-01
-2.204391741590505660e-02
2.195564974779015341e-02
4.840757236787895934e-02
1.030370952615674018e-01
2.337756318132872338e-02
-1.260614468909246506e-02
-3.187166482281852866e-03
-7.598441100701380790e-02
3.677238854812345248e-02
-2.808313620141633313e-02
9.877130494184160892e-02
-1.546975572032576463e-01
-4.349698524117834308e-02
3.425293698660931974e-02
-3.075910031172664986e-03
-4.617781680745795814e-02
9.112364916683653171e-02
-4.288527446940541138e-02
-8.502893991482429747e-02
3.782866825253498877e-02
1.869277263129100891e-02
7.248542774897952408e-03
-6.916921121116125296e-03
-6.142500206879046402e-03
-4.384803370518733368e-02
-4.771618321831101630e-04
2.454544536157841211e-02
8.385627514990945386e-02
-8.970518348675236495e-03
1.486411658158218463e-01
-2.466627577541312399e-02
-7.977533734933943410e-02
-4.253636797672696868e-02
2.894947997078240604e-02
-8.819315143502284848e-02
-3.175348669826406206e-02
-3.686754483632794649e-02
5.591852984994422071e-02
1.052246957188735510e-01
5.965629599444687708e-02
7.168342415709137716e-02
3.594060085754189476e-02
-1.195645487058924067e-01
5.484307046180668388e-02
2.584853364775514459e-02
-7.719257965169271964e-03
6.563740394475578270e-03
-6.832395880254645004e-02
-8.397091636015711902e-02
6.035155616475706801e-03
1.516205305721690308e-02
2.292661482564441189e-02
6.576968849021214321e-03
-2.063012174234783724e-01
4.674001774972838530e-02
-1.142435205528168352e-01
7.721668840530729327e-02
-4.131338167487884350e-02
9.472790774020838555e-04
-3.711903377672447907e-02
1.870951722774911660e-02
4.970450812787105543e-02
-1.103860251631061905e-02
-1.783936903561067766e-01
-6.887721580867375848e-02
-4.119917924010985111e-02
-1.405967723701734562e-01
2.923953653725864243e-01
-2.012375158600935784e-02
-3.165367340189820244e-02
8.790265259500570916e-02
2.770722366344303619e-03
-1.684845803749251136e-01
7.724444400672461630e-02
-1.252061712925387482e-01
3.426435239737706251e-01
-2.470798546279910635e-02
-4.469229709608753265e-02
-9.007552997096695407e-03
-5.794211891625707794e-02
-8.509840974367520461e-02
-7.271921936477920845e-02
5.902694597317582892e-02
-1.370274010671728403e-02
1.600526575489356201e-02
-4.879716982368409450e-02
-5.264200809568918282e-02
-1.098916660678695735e-02
-8.423613172970920507e-03
-4.160673933001429736e-02
-4.377263614951510534e-02
1.485046106865927848e-02
1.031013074303820630e-02
8.854855931296127039e-03
1.552392349023213464e-02
-2.977569343550546740e-02
-6.232456401458105755e-02
5.909888031831724009e-02
1.406966635817576833e-02
3.060051766495580985e-02
-3.960160099991615057e-02
-3.625745637406314458e-03
-3.222959836528239974e-02
-3.996841781258828052e-02
-1.518906364405873781e-02
-3.049150775130993890e-02
7.324508404157020758e-02
1.815716372799272213e-02
-4.628994180982914410e-03
1.758414264266516466e-02
-8.362555961242423841e-02
-5.729069830494643023e-02
1.491784288597938768e-02
-3.096422512114469991e-02
-5.806301248358284282e-03
3.737997531107871418e-02
8.951752513540316494e-03
-5.967605681957503447e-03
-4.282090231704540652e-03
-3.210730846321485188e-04
-1.192962876419981395e-02
-1.457940569497563599e-04
-1.331177565553808007e-02
1.134015694584613503e-03
-1.291279285293519576e-02
1.223697549872925991e-02
-3.876923603041378986e-03
4.943468201699057103e-03
-7.344391944876026840e-03
1.152693692076925576e-02
1.012506054569097111e-03
-6.500701550885329763e-03
-8.623215525108203494e-03
1.088651793049140622e-02
-4.689658087861073646e-03
-8.837240421258026404e-03
-2.526545217546346742e-02
2.632360188895804635e-03
6.208634705911186477e-03
-8.226868469379068627e-03
-1.202184983264644597e-02
3.246783874128744696e-03
-1.485418928373184039e-02
5.509186278937802661e-03
-2.511454198303839699e-03
-1.246996379639961610e-03
-2.788238557567179234e-03
-1.281278526509817620e-02
9.339447830990799462e-03
-6.267213990593302475e-02
1.049228460595455492e-02
8.326366978085360249e-02
-1.606766979521263503e-02
9.075086620225805700e-02
2.671631940921613546e-02
4.038336542028225090e-02
-1.538729559766617572e-03
-3.640645953888012928e-03
-2.798832371344613448e-02
5.157638975391371644e-02
5.402355603310786403e-02
-1.414027562985291919e-01
-7.164136855195125941e-02
-3.933090545109332176e-02
-1.664462945255240078e-01
7.909203429249632433e-02
-6.920501424445332957e-03
-8.113768529331426716e-04
3.311348023214882169e-02
2.262791283211977415e-03
-3.450696706273051473e-02
6.280463131075024463e-02
-4.973096384897600364e-02
3.905939518205650551e-02
1.041492262138806954e-02
-8.694722261480331005e-02
-9.674170095642817269e-02
-6.072376979945801750e-02
4.850394334370845134e-02
-2.961265688011145356e-02
2.048033015175379501e-01
2.207542132281351682e-02
9.888920819255307693e-02
-9.410727063997972874e-02
-3.047739396081820124e-02
-9.786765742723376946e-03
4.728571085369854404e-02
-5.377730225115307655e-02
4.606012986914827245e-02
9.889552896001671534e-02
-6.432221190326066484e-02
6.586660092435683844e-02
-8.436876331388361294e-02
2.581397327110164855e-02
-4.973485492520506729e-02
-3.518656503806905089e-02
-3.189614561129748560e-02
8.155254982170746791e-02
-2.641527608999041932e-02
-9.989924507160061196e-02
4.111040512079738862e-01
4.683888798728710889e-02
8.231560197023949851e-03
-1.190344239147033967e-01
1.110635849893166216e-01
-1.586190017047731798e-02
-4.128743606805342775e-02
-6.647596643113230785e-02
-8.171436245794191922e-02
-6.230896833285518716e-02
-1.558966550715111532e-01
-1.699043462365464330e-01
-3.444314508221060778e-02
-2.551308281495643510e-02
-1.754001337782095174e-02
-2.714364225706584685e-02
2.767585748125898221e-02
-1.393211615679072757e-02
-3.243987060805954975e-02
6.307998585138205327e-02
4.206629464934136253e-03
-1.488753822031275639e-02
1.055226626821702957e-02
6.214726675899011343e-02
2.505776056899544288e-02
-2.418705266574271845e-02
1.693252299776770720e-02
2.478653684173049918e-02
1.407771792952219048e-01
4.476445360225950881e-02
7.135189179291617778e-02
-3.587303116893989646e-02
-2.929947827719979470e-02
-8.202205134464367331e-02
-4.142155370110238259e-03
-7.356355805003626791e-02
-9.415257247995575257e-03
2.306818636783616872e-02
2.819172002324492592e-03
7.861091736813596853e-03
5.875392754814548002e-05
-1.881556804522051610e-02
3.366207234898682676e-02
-2.740393592004647036e-02
-6.398788521636762650e-02
-7.806764893553558293e-02
-3.852059227240155204e-02
8.165177407394136680e-03
3.471521429622245053e-02
3.273539027867949924e-02
6.080562881951973725e-02
-9.693267495517717339e-03
2.197160749105880190e-02
2.291930104928125433e-01
1.435024832726005143e-03
7.825888607117440984e-03
1.114680082488275908e-01
6.460047116080979909e-03
-8.829824777621513021e-02
-2.592745006527462370e-02
-5.349536416718125853e-02
7.701681553931187529e-02
-4.359196197865317784e-02
1.380256290287754789e-02
5.142365180746164000e-02
-2.192750703355053274e-02
-4.823365564291540175e-02
-2.723126529224183592e-02
1.030459381303995281e-01
-4.383034682376253655e-02
-2.433394091968619968e-03
-2.124321155571963840e-02
7.812316983024718622e-03
-4.786262703742029390e-02
4.195460916645217531e-02
-2.103618988918165914e-02
-6.044114116804114034e-02
-5.403163101122686329e-02
-7.754391266671539253e-03
6.803795423831966727e-02
6.091539835814063775e-02
1.392559030081763904e-01
6.528249247260121957e-02
9.114320025609931597e-02
-2.108582059533774949e-02
-1.307978340863570621e-02
1.840703227948491116e-02
2.011869255265626155e-01
-5.279141578354206582e-02
-1.731552361565307646e-02
-4.399089542471250336e-02
-3.297626243429824938e-02
-2.165863245524681652e-02
-6.446574936253429700e-02
-9.462712638332039516e-02
-4.360265894401449405e-02
3.325248637933917589e-02
8.258836502197480734e-04
5.744664473208708350e-02
-3.926800853600816849e-02
-5.757386900813885738e-02
5.684368644411371546e-02
-1.171307577593899696e-02
-6.007863967502095892e-02
6.827103524763475373e-02
3.753823638683493995e-03
-1.308983637972668812e-02
4.521521876539855156e-02
-5.200261654532353089e-02
8.518222406357868134e-03
-3.879945823750213102e-02
-1.393783853128301685e-02
5.416662215621792162e-03
-2.377381316709581763e-02
-5.562631763394840223e-02
-5.316771802582340861e-02
-2.548764829902783191e-02
1.443780786704449825e-03
6.584526677915947604e-03
1.070715246808967049e-02
6.621278961776845551e-02
-2.873099445414432820e-03
-1.726335837234161882e-02
-4.294286863181876260e-03
-5.386181521943261830e-02
4.280187413345612479e-02
1.174774313887359464e-02
6.331039289279559446e-02
1.142658666735216731e-02
-6.580669017033304036e-02
-5.489537647763033379e-02
-5.381590009731695295e-02
-8.199205248137435287e-02
-5.716642134897984701e-02
-3.894532601334303040e-02
-1.753701636916662684e-02
5.328867522881763213e-03
8.506566155765451012e-03
2.945347171828710531e-02
1.510371465599370626e-02
1.662747747819714669e-02
5.806389598358181053e-03
1.150129017886961785e-01
1.680848619776428576e-01
8.111445149209615957e-02
-4.032761800641916639e-02
-8.378322919497344090e-02
-6.382066373414327365e-02
4.762501307878167639e-02
-4.520537618474031877e-02
-1.501135402533089469e-02
-1.549742568658800043e-02
4.159827284837547962e-02
4.424709865514884349e-02
1.538130414126108285e-02
1.692482709076396641e-01
1.996086472162832918e-03
1.781863547827418348e-01
8.728346570937843552e-03
-1.068448554030587139e-01
-1.324746494639007233e-01
3.786896106876457870e-03
1.895241459084439084e-01
-1.208515235738811672e-01
1.367072369944285493e-01
-5.257878953099776043e-02
1.013949002097726607e-02
-1.264490933930322580e-01
-2.123536331365460765e-03
-7.346785254048320002e-02
-1.103356544043693349e-01
-9.468801927252654127e-02
-3.130597687987839162e-03
-3.661112257404463850e-03
-1.631090700388881931e-02
3.930557133578674485e-03
1.491313207042675552e-02
-4.974538271943244883e-02
3.200906945937852677e-03
4.352683100976525998e-02
-7.278848139457330321e-03
-9.846614693338714194e-04
9.834484490335719184e-03
6.506746655764233597e-03
-4.487041004937219330e-02
1.556571460112770589e-01
4.013798797159183994e-03
5.091946021673932066e-02
1.107429964177232204e-02
6.954403664974496968e-02
4.261671535847651876e-02
3.163379818734247517e-03
1.228399681074718308e-02
4.776041020784114327e-02
-1.039459549900700885e-02
1.113652393328543478e-03
1.664310545146255663e-02
-1.330542006765870512e-03
-3.889065777392620993e-02
2.752925132725065824e-02
-3.132347542814375996e-02
-1.404380828849223495e-02
2.149652737367993647e-03
6.016271677410996860e-02
1.223831315605753735e-02
-1.663434804106343756e-02
-3.371192157381139309e-02
1.088005453872840575e-02
-4.915651892030824949e-02
-1.858618217628270688e-02
3.423942886445700134e-02
1.197241601708954641e-02
-1.524798720133462536e-02
3.279042344863226238e-02
1.491485933778933202e-02
1.079230677549740738e-02
3.527219750780459517e-02
5.144382150278304505e-02
-8.741674100198965286e-04
3.331476839021171865e-02
-2.812757315569244798e-02
4.466563063703352099e-02
-8.128101920813670528e-03
9.311370542130111005e-03
-2.007267033656684289e-03
3.714229828170224207e-02
-3.482332766843827115e-02
-5.214728827955410900e-02
-7.498065854394671270e-02
-1.261102271757972432e-02
1.617237375379460256e-03
-7.446261231875839215e-02
-1.596611770164516053e-02
-3.010603820442663697e-02
-6.189761588446489327e-02
4.329766227186748057e-02
1.270625271134264919e-02
-4.920935643573360468e-02
8.770821553222946446e-03
-6.234368304443195161e-03
-4.345246256077649194e-02
2.070669496398366491e-02
-1.559117826550162310e-02
5.922107412636298113e-02
7.255701299149448780e-02
4.194044873895030195e-02
-5.185098154402155088e-03
3.438097541235292376e-02
-7.325202234576334848e-02
-9.879960936258494475e-03
4.060516461324240739e-02
1.686465202683965284e-02
-2.145839178222923305e-02
-1.096170330786876146e-02
3.517104387422732154e-02
1.974972307081685960e-02
5.717599183099061379e-03
1.132541230228833046e-01
1.890481704282088310e-02
1.449580132075917356e-02
5.271735786044344507e-02
6.962204792498206951e-02
4.555716112347365371e-03
-7.772488390732415313e-03
-4.178441661098815374e-02
-2.660098513807122519e-02
1.946329025035261132e-02
-8.260334758258136437e-04
-9.543839795951591237e-03
1.037134817401372776e-02
1.874729459689124331e-03
-1.248213490777010971e-02
-5.054538710499656418e-03
-1.787649457702202363e-02
2.139277203715138700e-02
2.016548198129052699e-02
-2.094633361986070717e-03
-5.378446358111901512e-04
-3.844227102048859896e-04
2.083402295352035187e-03
-1.250834161509550672e-02
1.626132469888158516e-02
-8.026526491112691286e-03
2.561417714355838579e-02
2.024193890205609747e-02
1.082944201290217748e-02
-1.613344567578037236e-02
-1.001507987544056344e-02
1.361532597652268840e-02
-1.577592953992649366e-04
-1.589652150135072162e-02
-7.328169669935376100e-03
-1.121443871763404265e-03
-7.811209897840161107e-03
-1.745072421156325382e-02
-1.848680092987013343e-02
9.779703614079498890e-04
1.409291172948686638e-03
-1.708366779008541059e-02
-1.423420838916665846e-03
-5.282839534007915255e-02
-1.337752162094505426e-01
1.126913417632871041e-02
-2.891849482328334719e-02
-7.897158742892963768e-03
-2.432313873559206752e-02
-5.103336615606948040e-02
-6.632909461908635673e-02
-7.518260603889008464e-02
2.725699611742037343e-01
4.832119241039894986e-02
-9.853737662451776680e-02
1.213460158206774823e-02
2.381262975023104300e-01
1.704527496557448341e-01
-6.718065818573864352e-04
-8.004526207317788633e-02
-1.966742431912219327e-02
-4.825184838886120708e-02
-1.700438363904987205e-01
-4.741064106867775435e-02
-4.346714516660011435e-03
2.931593826717151519e-01
9.658631204215027688e-02
1.340543851511729889e-01
3.660535237857749907e-03
-5.627181731010291038e-02
1.893717445748687722e-01
-1.273228891911382943e-01
-5.891212050413150575e-02
-1.118316833637869601e-02
-7.000964807876819407e-02
7.593250452913757886e-03
-5.293716085730634791e-02
-4.617608194330057730e-03
8.963635058857345392e-03
-5.660613374297243476e-03
-3.583955431761397248e-02
-6.849182020286778694e-02
1.523658169374194488e-02
4.406274619323750918e-02
1.105383446639685574e-01
-2.812289121475617173e-02
-4.141189517726445724e-02
1.815337247203584886e-02
1.189437648162035427e-01
2.564011973966180691e-02
-1.272228368031619143e-02
8.565637441895425364e-02
-8.428381708349428139e-03
4.170055313923782397e-02
4.511264109491580632e-02
5.536866568592598015e-02
-5.583207196254121214e-03
-3.155134455637074314e-02
-7.719087704071425637e-03
-4.302124776175095602e-03
-4.882570497270701665e-02
-3.242056185060563506e-02
-2.903557654442729882e-02
-1.210444957771476988e-02
2.277306465816690117e-03
-3.669201900679055356e-02
-1.414958546362203107e-03
1.942558855996156597e-03
1.206297559164132109e-02
4.674233696650269450e-03
-7.291858324853216222e-02
-4.490680851801719109e-02
3.397473074296301996e-03
-1.573606143935759108e-02
-2.477399127947126078e-02
-2.949117153432278399e-02
-1.369805933384251294e-02
1.456462315532461652e-02
-3.571302322460229162e-02
-4.753916244308106082e-02
1.121058942161853519e-02
2.132952312189225624e-02
2.107487808284935066e-02
-2.936186303926440269e-02
7.942268308439935642e-02
2.499742199218977015e-02
-1.533764687787774958e-02
-4.232585554668622657e-02
2.641951461137359916e-02
-9.628407900428260016e-03
-2.417570605630821323e-02
-1.238018133442773082e-02
1.533820190920485646e-02
4.445375084890494655e-02
-4.319870286453927899e-02
1.689890780719223093e-03
-2.345054759989272097e-02
6.269589072615359970e-02
-6.494989352154889074e-03
-1.031703676139071948e-02
6.112936779317080724e-03
2.183571198390275164e-02
1.232455207140743976e-02
4.315077444524239962e-03
-3.324419541481377430e-03
-1.393380268006930503e-03
4.251855675214549768e-03
8.107565923443710992e-03
-6.647213617271712817e-04
3.760323987304867947e-03
7.064944914365781092e-03
-1.076488456808479162e-02
4.100782519417336264e-03
-1.348154871485504960e-02
-3.990661438192788860e-03
9.469538271765274131e-04
1.489717568945192472e-02
1.383952305108611738e-02
3.332144140878864013e-04
1.365515636556452125e-02
-8.038302054311470893e-03
-1.044684413520315970e-02
3.216036538769643724e-03
1.830951674581888025e-02
4.578555655804680520e-04
3.268438456523666772e-03
-8.625383539077841749e-03
5.808182622480422518e-03
1.448445726336744510e-02
-2.329922908865257689e-03
-1.608904767993442689e-03
3.643611536826613095e-02
6.282371628008454403e-03
-1.596767283423374678e-02
4.571569699609448478e-02
-9.768108950933931597e-03
8.314292559053718112e-02
9.980427128117860813e-02
3.444497919889237536e-02
6.842877785174597896e-03
8.110817453349291467e-03
-2.420387232572101394e-02
5.112320732685821795e-02
-1.038350628935811280e-02
-1.396231674989650319e-02
-6.129506552365631550e-02
2.287551781465675324e-02
-1.475287473689826379e-02
3.815420805492181905e-02
-6.468233175006590785e-02
-7.117245600576259379e-02
-4.194902298289673870e-02
3.454952361778988040e-02
7.935136507651120719e-02
2.268273403944866262e-02
1.575871695759258062e-02
9.391600575113286109e-02
-3.291039962873110181e-02
-1.443511869465161079e-01
1.092523786970296673e-02
-1.981790451944203529e-02
4.371776925016566950e-02
-4.794053631314378755e-02
-7.048536325561913229e-02
-5.630762262010622493e-02
3.044022100809190209e-02
-8.610399472622716488e-02
-1.581910063256697363e-01
3.566648086594153416e-02
-1.272648943260169252e-01
-1.297669256256540615e-01
6.432766220498385527e-03
-7.205786611231497496e-02
-2.975635700856927093e-02
-1.512707268298167651e-01
-1.166629205570508393e-01
-2.066313806836835854e-01
-2.191193937806015513e-01
-4.572158740315498265e-02
2.413934367896168609e-02
-8.223240981751563095e-02
-1.021268993182199991e-01
-2.077904329278188952e-02
4.937876139748791776e-02
2.501623411140429382e-02
3.790752841904469067e-02
3.718781225668819079e-01
4.277451885297835210e-02
-3.665622230317544528e-02
-1.673687632468753295e-01
6.667541277080991924e-02
2.882004772837684636e-02
-1.820100382582400672e-02
-1.269362845207692991e-01
1.950694166172274591e-01
5.960544486324811236e-02
3.681881651658856086e-02
6.756497341209050100e-02
1.682673809169080159e-01
-2.746691803117969760e-02
-5.794208559244495675e-04
1.129358324121960402e-03
2.880496486623550581e-02
5.931054460476373191e-02
5.758070831102345827e-02
-2.420715555220634765e-02
-1.396800574713508158e-01
-1.386482641355712975e-02
1.768960663300507205e-02
-7.720881579671785844e-02
-1.589628731442682963e-01
5.126275641367100677e-02
6.097968999075047136e-02
7.702513486876403151e-03
-1.313211809017656995e-01
-1.229828448699966763e-02
5.824342209141444154e-02
-2.149371047266600276e-02
1.624378236763346917e-01
-9.552716031968494503e-02
-4.491011862062606677e-03
-4.983824633522433017e-02
-5.128727982438699429e-02
-1.120109094108511089e-01
-4.945544229254938279e-02
-6.722960114273003607e-02
1.898226171950831778e-02
3.148800200842541419e-02
2.751023319315284987e-02
-1.357511531447328813e-02
-2.221950108808917377e-04
2.505647338436040733e-02
-2.247568781374886457e-02
-3.572699623464748592e-02
3.593454309088112836e-02
-3.550149671726145900e-02
-3.580786313718162944e-02
-9.575658457888514344e-03
-6.593788970930493376e-02
-3.927995934903723979e-03
9.221098456757025053e-03
-4.422182489004795186e-02
1.734260799923997972e-03
-4.132914649428415244e-02
2.755757628213039573e-02
-2.121057816926282327e-02
1.104809246696897979e-01
8.755298508232051830e-03
3.513471174663399671e-02
-9.987785071442828108e-03
6.900390279384732532e-03
-3.088957649018236537e-02
1.177949784513566099e-02
-2.176439639748206298e-02
4.719460353826942373e-02
8.563361300023474010e-02
2.988694630043049055e-03
-2.453968076625981376e-02
6.685692045990968002e-03
2.495275448822017461e-01
-2.354786356504307357e-02
-3.236237409669334708e-02
-2.195970305604397765e-01
8.285304189946983422e-02
-1.236001945021337339e-02
1.265640251976825892e-01
-5.615075959973684500e-02
4.738812077498307657e-02
-1.888082362048706594e-02
3.589943260032918415e-02
-3.389726402288607138e-02
3.151009988984984633e-02
1.244438784574942308e-02
2.577900174371323613e-02
3.041849643854891219e-02
2.905332062826134279e-02
6.461848772159023424e-02
-1.312766753356224211e-02
6.917113728072546430e-02
-1.667821209918943920e-02
-7.567282773316753863e-02
6.495279405678197615e-02
-8.939879107402029512e-03
-3.807519754433282000e-02
-5.295798175846624239e-02
-2.761218396776395773e-02
-5.261563737308096872e-03
6.305070558365320765e-02
1.651576540136402427e-01
-3.966208727587274691e-02
-9.812949663917666654e-02
-5.893604549334723053e-02
3.438260737770337111e-02
-5.259604429336799114e-02
-2.127160385253758917e-02
2.017853986563058685e-02
-2.628854587537986925e-02
-3.585587259636852792e-02
2.581993618655158661e-03
-2.890682535399429105e-03
-2.965724854622243944e-02
3.227663772973990430e-02
2.052635814471298961e-02
-3.930390954247051094e-02
-2.312548636467608512e-02
-3.123973927993888358e-02
-2.355650891395678209e-02
6.777116569436899239e-03
6.857755229222804727e-02
-1.503030894757319269e-02
2.902815081310592890e-02
1.315116248500210021e-02
-1.961089662130402825e-02
-4.622637230420715421e-02
6.148071930763150325e-03
4.782449329668669868e-02
-7.963316902770121476e-04
6.303360135092981112e-03
3.301776349510269441e-03
7.751486842827733093e-02
2.684647345766916215e-02
1.005179208709140043e-02
4.296363806827235843e-02
2.516751976005103184e-02
-1.143252051684993942e-02
2.508990933398093370e-02
-9.554327987027901731e-03
3.817753877390708383e-03
-5.803129400245416424e-03
-7.886829797799001923e-03
-7.479086503427768463e-04
-1.248256694274965661e-02
-1.240712686711423728e-02
5.012731791880776534e-03
-7.229253815137225451e-04
3.093488474632996935e-02
2.063829213451843017e-02
-1.067001985187736486e-02
-2.681107563671840388e-02
1.484497567943475309e-02
-8.875988998474727831e-03
-1.806580239118845072e-03
3.108618440050895868e-02
9.046688473098795161e-03
3.966549648462313997e-03
1.456828684481553671e-02
6.936764367661558961e-03
-4.625827125367304102e-03
1.111485691478169939e-02
4.658295376825100781e-02
2.377558204610111074e-03
3.554432220352387456e-02
2.927598159059398644e-02
1.170922248581068213e-04
4.148664059904008661e-03
-5.554475505445593403e-02
1.178445430683078832e-01
-7.796670705824854108e-02
1.177123476009362263e-01
4.669216234470212681e-03
-7.810238425219556690e-02
3.380646056248052395e-03
-3.469768527324208415e-03
-4.944896774717154331e-02
5.729144977523168564e-02
1.031979290052087855e-01
-3.086802101097730136e-02
-1.019207166596454717e-01
4.123118129420059730e-01
2.507877433469135608e-02
-4.656178422846032894e-02
-3.139587890733053915e-02
2.595301384927025529e-02
1.783631495231084371e-02
3.381241559992017448e-02
-5.317897752963560848e-02
4.132912856536417878e-02
1.945675210987795056e-01
-8.556226185568864551e-02
-1.674661958869798628e-01
-4.784773454511263846e-02
-4.014654085910077802e-02
-6.930937495958601480e-02
1.360387060842391249e-01
-2.153991990785386959e-02
1.881366925667003103e-03
8.476881981425431201e-02
4.253411821073362423e-03
4.922802239562026894e-03
-8.359492105356765290e-02
2.735039451862714827e-02
9.213076134203071477e-02
-1.448517429896747054e-02
-8.138761605489455708e-02
5.266689688072465070e-02
2.902905541719223992e-01
1.361586419538668088e-02
3.792855666074399640e-02
-7.208861123953301531e-02
1.884611541761095415e-03
1.070394372173268799e-01
1.524025505896378294e-02
-1.137070227221470692e-01
7.015592273044787830e-02
-5.015664481696401056e-02
-4.513743370617194495e-02
-3.199199167290941309e-02
-4.189621950416608231e-02
-1.641069814445980310e-02
1.477534944657162008e-01
-9.430137457866799577e-02
-6.152303381695518186e-02
1.438553722813477875e-02
-6.174603578053931147e-02
8.618788276579376212e-03
2.761376369254675556e-02
-4.305377294976008018e-02
-3.632886820632184183e-02
2.379306619199765896e-02
-2.582595649020021783e-02
-5.515674668897275167e-03
1.137687794096631233e-02
-5.602299146268683444e-02
3.886386775501673302e-02
-2.739522819855131838e-02
-5.588365229004935847e-02
2.733512750037505462e-02
6.410491923908510914e-02
2.273079796382330292e-02
3.427074362185630191e-02
7.603229459207810209e-03
4.763299478742784310e-02
-2.913890090907296157e-02
4.269771330957544686e-02
7.835756962450345087e-02
-2.225023665101772199e-02
1.106508342154701938e-02
-1.261820941501492349e-02
-2.462185935211129439e-02
-2.572102824771258997e-02
1.504571827784548330e-04
-6.613171094101560898e-02
-3.730490627806919146e-02
9.847143922087094048e-02
-1.192952080039057228e-02
-1.540730363470911059e-02
-4.355991776251660202e-02
-7.180970716498728812e-02
-4.962150352335584907e-02
-3.446210322179582564e-02
-6.003929271394778909e-03
-5.399582899868745484e-02
1.343361569166559022e-01
6.859026530671281929e-02
-3.249286974880115364e-02
3.461435950973994896e-02
-1.822686434987266096e-02
-1.017464563744668593e-01
-2.792815429649091533e-02
-1.133156520149587038e-02
3.459384064873669007e-02
3.046960181000405929e-02
-1.062492544308482612e-01
5.663851302123194820e-02
-1.182717307960064884e-01
-4.319370263399817389e-02
-2.132795738807284971e-02
-4.280494570384711650e-02
-4.035851067651125695e-02
5.539555334384445306e-02
-7.919242535361929736e-02
-8.896999494936101704e-02
-1.741224752739730861e-02
-1.068756683862103624e-01
2.476605633924406150e-02
1.043145280833771144e-01
-9.140490770097847717e-03
1.468245424586482328e-01
5.832474371330452489e-02
-9.465177770405461266e-02
-5.181715323859811123e-02
1.320996865229920048e-01
-1.526715442975098980e-02
-5.030498009555148253e-02
-7.110304749829823856e-02
-4.773268518322351661e-02
-1.071973425446089007e-01
8.914483536401913988e-02
-7.692137957106609178e-03
1.166599161568636078e-01
1.418934104622339709e-01
8.771292112292798648e-02
5.626286765532992340e-02
7.547341285315333805e-03
3.176918548817087018e-02
-8.962330591224291002e-03
-1.952757309864494931e-02
-1.272497362515857648e-02
-1.954286780469085064e-02
-3.688236151274825684e-03
-6.523782220804805188e-02
-9.449034421122719241e-02
1.123050165931646291e-02
4.506013893840402768e-02
-5.033003346600233713e-02
5.051848825696438582e-03
2.554011137443105289e-02
5.710541640221316467e-03
-3.258454457176710589e-02
-9.405467143603378141e-03
-2.920384601828746388e-02
-2.453841183930982606e-02
5.617713206172327695e-02
-8.650590810036667966e-02
-4.121137120578946544e-02
-7.239071131284269267e-02
1.647192925224550408e-01
-4.426737361200421689e-02
2.289221613908073646e-02
-5.299509336102603552e-02
1.651991980026710355e-02
6.920331935539776602e-02
-5.436517487365896684e-02
7.407158651176555877e-03
3.880696088469252208e-03
-2.772156125612336777e-02
-8.468170803028817611e-03
5.656394232036009162e-02
2.530870445611651046e-02
-4.322605826104063825e-02
2.003141203142239785e-02
-1.981769439348344056e-02
-1.227212300058322658e-01
-4.629806887113703875e-03
3.927218846938952679e-03
-1.034743954300967883e-01
5.038863568006234908e-04
-1.180403350672935489e-02
1.263671070650135286e-01
-1.453100288022947210e-02
-3.778491564725999091e-02
-2.567628757459787352e-03
-5.001115760322601828e-02
9.318978288929521264e-03
-2.591924507624714796e-02
4.605814417796315341e-02
8.966727120470659174e-02
3.679784175976300725e-02
-8.204835970950742630e-02
1.973102377297977078e-02
4.401932181989717113e-02
4.544127590139133976e-03
-2.704264408426875280e-02
-3.674866979843276118e-03
-9.192333810798626603e-02
-3.327158902416357117e-02
-1.099367435355753930e-02
2.183921362644319214e-02
-1.753365668935265992e-02
-4.174870451208398565e-03
1.065447230962905147e-02
-6.862561119739413185e-02
6.322564114158941984e-02
-4.378848232439922633e-02
6.354339895326902021e-02
9.034217263980647006e-02
-1.226864373810643283e-02
5.644030554349054735e-02
-3.588712782876159191e-02
-1.343498067800874898e-02
5.447011010490085230e-03
4.900216531804871961e-02
-2.212786997641720196e-02
6.463494139324481823e-03
2.950903237257629375e-02
-5.990100087936880285e-02
7.367638639966010879e-03
-4.227244007507132556e-02
-6.561295531475356754e-04
-3.408915505618383308e-03
-5.046727476133480023e-02
2.459339275264489644e-03
3.510473403124920316e-02
-1.727181765119734785e-02
-2.901668523925721860e-03
-3.329010317616330067e-02
-1.697025386243857653e-02
5.109156226003313400e-03
3.223112373389596785e-03
-3.655459551151374331e-02
2.802072092109651053e-02
6.902395022975525707e-02
-6.115337859341144627e-02
1.589183560242362486e-02
-1.811361635930800948e-02
-2.877500839234558086e-02
7.150202112765448488e-03
-1.920357712565243583e-02
-1.245786977997111536e-02
8.437145506684879878e-03
-2.168211741539706472e-02
-3.019881789404980921e-02
6.770340181606207194e-03
-5.078836218007494463e-02
4.496362430043045720e-03
4.005346060571404049e-02
4.587671024999819686e-02
5.031830499731188878e-03
-4.399324622468437501e-02
-6.443708163084631291e-02
2.827889191962274992e-02
-1.681541806162259803e-02
6.661057767368477878e-02
-8.203374069085776765e-02
-1.747205134687245531e-01
1.119632426449766183e-01
6.678816658413344598e-02
3.543873053249939342e-02
8.758233197756351909e-03
-1.408534190872571742e-02
2.079046871291489185e-01
-1.662183059920373370e-03
6.201198912107907385e-02
1.739329344233010444e-01
-3.679179634765820939e-02
-6.519374601213777376e-02
5.988251820281162430e-02
-3.587354973934890612e-02
-7.646472303639068047e-02
-1.332296778992057285e-01
-5.325870386080067131e-02
-5.746759857298893576e-02
3.306960495193234095e-02
-5.092128520106189299e-02
-1.336905454561973239e-01
-5.584189184567754649e-02
-2.210986287832657465e-04
-2.475799542077638735e-02
-5.044790822860684143e-02
-1.769091880501915126e-01
1.901912791329410379e-02
8.898417820470133285e-03
-2.295742056510880966e-02
5.553957811069249600e-02
3.637596530385660276e-02
-2.307336821183418596e-02
-8.911964091556748291e-02
1.066063590003882679e-03
6.199948479765422099e-02
7.845451350598791132e-03
1.995996954093565492e-02
-8.072576277551511692e-02
1.074780919021000869e-01
-3.160561594080755349e-02
1.259289263298711270e-01
-5.158547077648301810e-02
1.345279593507080207e-01
1.483262636206984439e-02
-9.085694989591293347e-02
-3.232741534403461153e-02
3.076933659690523903e-01
-4.574453901933135669e-02
1.711232796155125885e-02
-1.332558671085635749e-01
4.632334603381780408e-03
-2.488532953575416790e-02
-2.033677091382709579e-01
-7.019490731615243839e-02
-1.895168472966391252e-02
-6.722051913803629708e-02
-8.999376122735057437e-02
-2.487282240918686077e-02
-2.895140502030340776e-02
5.656059496950931187e-02
-3.373592164094617579e-03
5.444898491724990686e-02
-2.349884368841162474e-02
-2.685624866236576216e-02
-1.098912678952038285e-01
-4.104643428254071968e-02
-2.231808072973580359e-03
-5.532216528223759177e-04
4.924948931390044256e-03
-1.285931981240192321e-03
-8.499663575476645860e-02
-4.065889265612337988e-02
-2.430327395646599345e-02
-2.667134228094672488e-02
1.541404148459771598e-02
6.782033284381201732e-02
-1.158922806269070960e-01
-7.608730950039664653e-02
-8.436639289031952482e-02
-9.671702712964129478e-02
-2.913584241094849259e-02
-4.713236618342082906e-02
-3.300483600491588287e-02
-1.121862347636867069e-02
7.217099458987601135e-02
-5.998701487953437411e-02
5.640454577869838393e-02
-5.520388263515153132e-02
-5.702796226224069592e-02
7.013565040160466002e-02
1.697665741893701272e-02
-3.496204841013161174e-02
1.226068933070876138e-01
-2.065767875162913964e-02
7.892131369367670624e-02
-2.603368254235858756e-02
-8.868724840533859233e-02
-2.785967110964969462e-02
-1.566314639230385495e-03
-4.816789953636763100e-02
9.412724350109451243e-02
-9.129907916119712682e-03
-9.287141145781584173e-02
1.923179434962719869e-01
-1.104887839879879208e-01
7.481322227878492437e-02
-1.883545064170620217e-02
3.068702933673466554e-02
1.370473402140662544e-01
1.353457311513345598e-02
4.869533544713727791e-02
-1.917077926695723300e-01
2.041972653462920118e-02
-1.011419353788584052e-02
-1.109280523617164373e-02
-2.914491785604296156e-02
-5.288986941862609120e-02
1.189771561100446719e-02
3.744604377161798656e-03
-7.606545289947783117e-02
-3.220355052217446085e-02
2.686978897815975875e-01
1.484150665225168197e-01
-2.384711668483786157e-02
-7.323956048504341731e-02
8.665133469317609638e-02
6.935520935432246126e-02
-4.527410498658522575e-02
-8.389630042972420765e-02
-3.844068542773797920e-02
3.441608017467592123e-02
5.083892610172668219e-02
-1.497704521615746132e-01
3.952353671420640036e-03
2.058001503278491639e-03
-1.445862890057680872e-02
1.244796958053293323e-01
-3.615217141306954068e-02
3.859768591977343066e-02
-1.707270512416547148e-01
-1.739155213517445606e-02
-1.154981015168664998e-01
-3.861553111218762185e-02
1.617043951692428636e-02
-1.075721636715503970e-01
2.053928502288758853e-02
1.454806174692486326e-02
3.007185579570654382e-02
3.506972060900904326e-02
-8.034786306563293512e-02
-4.785407946883100255e-02
-8.685593754914985865e-02
-6.266426815007188067e-02
-5.849825654461221491e-02
7.387441987128738619e-02
-9.955944451507052484e-02
6.453971777632205864e-02
-1.086741756341260828e-01
5.999232905702997498e-02
4.391184962963146088e-02
8.442572968047669379e-02
2.305264195314863859e-02
-4.388039932907025070e-02
-4.090852447534921998e-02
-5.913801462987085256e-02
4.716836891950102612e-02
-6.992751743645524154e-02
1.062360006911531110e-02
3.543913465509378885e-02
-1.859579888307700407e-02
-8.676078238666808107e-02
-4.284460113468335773e-03
-9.074768046154122608e-03
6.954161472227526897e-02
-5.123772795299940536e-02
1.009239664607473330e-01
2.439931491900829141e-02
-1.261062173160903792e-02
-4.441318887852151696e-03
1.000989805597989196e-01
8.921443827570395280e-02
6.986056144397990997e-02
-5.015509058898851014e-02
3.367116817922279765e-02
1.660289870462807182e-01
1.236304589436789392e-01
-1.518716238399479140e-02
-3.236918498553662676e-02
-7.692223882723366046e-02
-2.854733591406765844e-02
3.103466451274120713e-02
-2.841823224637815212e-02
1.381386512552931940e-02
-2.669662949488825834e-02
3.398804895714479211e-03
-1.943723849593547229e-02
3.299702809030452544e-02
2.012962857702539285e-02
-1.949352332053349429e-02
3.719125684723729314e-02
1.114553758432828071e-02
-2.941932308832442226e-03
-3.297257448207518288e-02
9.264651668123924724e-03
7.808538995474002126e-03
2.897194484483953114e-02
-4.059157921982608185e-03
3.825487962133845930e-03
1.434664413229947647e-03
2.058748238686389925e-02
1.087255892357424578e-02
2.671011674629579155e-02
-3.712615819906710246e-02
-1.373566083254466582e-03
-2.883705085196908418e-03
3.931627218054768724e-02
-2.953879888610721691e-02
2.226766113411040096e-02
1.849112549390495921e-02
-1.338762488026907539e-02
4.742311763196592651e-03
1.393108298644774867e-01
-1.682659483904285977e-02
4.345470644805649735e-02
-7.036042520359291064e-02
8.121996767374371762e-03
1.270819861620625831e-02
-1.276684450852409018e-05
-7.384619330582692376e-02
-3.545887651007096492e-02
-2.351163788997611900e-02
1.704242362778557451e-02
1.584187650426011409e-02
9.690675726546828239e-02
1.486008673692526018e-02
8.319809083721041443e-02
-7.761019449956321758e-02
9.704301814279278626e-02
5.072258539562295165e-02
8.434480340382090324e-02
-8.422036532265041869e-03
-3.976579672734296272e-02
2.991423560144958541e-02
-3.631276741112098028e-02
3.971821504286773830e-02
-5.968296037156931716e-02
-1.968338799343120546e-02
-5.029738897349513710e-02
-3.074822945460034540e-03
-4.770966884712617151e-02
7.982898309350312804e-02
-4.203887919684304308e-02
-5.181984721262679339e-02
2.048653800634606115e-02
-2.185353472129654070e-02
6.768082793408013165e-02
6.743477805481891407e-02
-6.271883985490472879e-02
5.285382530069041712e-02
-1.491964728574232549e-03
-2.029713477703812968e-02
-1.216769204266070908e-02
-6.677683367702985651e-02
-8.280417259393643486e-04
2.878436344228738758e-02
-2.392738131298271023e-02
-2.814390440618544029e-02
-1.771308018582403582e-02
2.432012630597284869e-02
-2.254756077452770707e-02
5.576618176675644106e-02
8.619813714866236126e-03
1.742887493421081332e-02
1.624866434173060856e-02
2.296481964479739953e-03
1.578988690763991343e-01
1.152491805237554207e-01
1.048192846093184832e-01
3.296147048929375881e-03
4.062912402489110564e-02
-1.129979247685917272e-03
1.727233336274915654e-01
-5.317806298991505087e-02
-1.134458544575379230e-01
-6.811061916675538452e-02
-1.647642807198561321e-01
1.146293198996555934e-01
9.866419894900115006e-02
6.487272397456504691e-02
-1.903608102170420077e-02
8.477792559681340823e-03
4.541045163613970093e-02
-6.445374165918348053e-02
-5.163179185484109007e-02
2.010361038089934216e-01
-5.102336285109972114e-02
-6.519075582600794561e-02
-1.073387123855407549e-01
5.069156603262299499e-02
-1.153607314629846031e-01
-2.645887237928989597e-02
9.813866822241108789e-02
-7.217625251481734824e-03
3.492037513358676321e-02
7.259424771036428192e-02
2.004104584109661913e-01
6.968035260649485529e-03
-1.025876219733854178e-01
2.453044589605043319e-02
-1.322235727160905039e-01
8.274185125108735744e-03
-8.744062314795005009e-02
1.046335209552015783e-01
-1.454488715582445413e-01
-5.644782497404228494e-02
-1.965864865458660793e-01
2.349577726724695614e-02
4.774442421392672414e-02
-4.261309097252109768e-02
-4.043336786869549532e-02
-8.038001995730388594e-02
-3.957449062466043138e-02
-2.318024550465059078e-02
-7.364792932983930951e-02
-1.043305814337446707e-01
1.204666454394176349e-02
-5.922524356232619440e-05
-7.859123858058206236e-02
-2.368636918910715927e-02
-5.103455706726321706e-02
-3.043969383560830855e-02
-3.252378001155967202e-02
-2.355624059486285862e-03
-4.640621635639444881e-02
3.344578573796247456e-02
-1.251175060110602984e-02
-3.461402114597934149e-02
-5.492632829569041308e-02
1.198258167081471814e-01
5.176159831355272439e-03
-2.584152064874075533e-02
-6.614085851794514193e-02
-1.785479404094780786e-02
3.980712141331237824e-02
2.403185159182931116e-02
-2.135842990557538720e-02
-1.502263946269206778e-02
-2.617062091057217529e-02
-1.356601427880438360e-02
-5.491892823927519568e-02
8.518120925110528319e-02
6.629401134917041472e-02
-7.501683824656361736e-03
2.625641103836058241e-02
2.526432065441248237e-02
-2.254754606990765423e-02
-1.475432988011264879e-01
-8.248977846632811473e-02
-5.655150265623944128e-02
1.589348725616980887e-02
-1.096079744332300876e-01
4.906065427262159412e-02
-8.005445372064490250e-02
1.297728860581182433e-02
3.341007311346965575e-02
-3.992924441611780950e-02
-2.786145675570557076e-02
6.974004154385980703e-02
-4.986864420502080258e-02
-8.958303295764753760e-02
-2.481274251683043483e-02
1.470001797406064910e-02
4.459401830129217786e-02
-8.971506577531566939e-02
-3.189734164300522812e-02
4.675102064298500976e-02
3.715222255297841863e-02
4.107519027020094249e-02
-2.677623761141527739e-02
-3.868580482590700670e-02
-7.851945393453936550e-02
-8.028439304850948366e-02
-6.870694123786512397e-03
1.457980859217214605e-02
-4.103207396543528257e-02
-6.566717048064961426e-02
4.406979995828837031e-03
1.756299510640101369e-01
-8.578887064673390572e-02
-5.218624752503436132e-02
2.789851638157523836e-02
2.999228492520382081e-02
-2.533971028647642385e-02
1.081171562231365152e-01
-1.061300261503496933e-01
7.179439910748561249e-02
4.239688842413946723e-02
1.593883957520420835e-01
-9.204976271340153948e-02
-6.537286073008621856e-02
-1.699896530000188227e-02
2.032298516618352424e-01
-3.948492506199535734e-02
6.416363519825740713e-02
-5.929634626877996334e-02
6.268863440207557425e-02
2.954657480723447624e-02
-1.964978218300161839e-02
-7.492918324874126013e-02
-2.471339735853235811e-02
-1.135227754784510525e-02
-1.882473299359592456e-02
-1.794742724483652449e-02
6.143645823277568176e-03
-1.227379295684806124e-02
5.108061210351798158e-03
-2.043388714520898153e-02
4.585732029666196065e-03
-3.592337635096718579e-02
-3.373557351142475458e-02
4.173836014725632038e-02
3.963054550566889878e-02
-1.416780580544586311e-02
3.262131411818697778e-03
-5.961126235356890846e-02
-6.731904049783683612e-03
-3.544087350275448162e-02
1.394912814886210654e-02
8.394960382079742767e-02
-4.034349465794509482e-02
2.479770795849907047e-02
-3.837953912936913070e-02
-8.226398648293158089e-02
-2.395847130698188984e-02
3.415934478932580037e-02
-6.630609239870163818e-02
-5.514009889410509402e-02
-3.036734055334276358e-02
1.467897625364626701e-02
3.612371508136796860e-02
2.375735489508195089e-02
7.516482852674657988e-02
-4.006387229573382669e-02
-1.738889078892855156e-02
2.030309068851704826e-03
