-1.489007945529443634e-02
6.408617046134678676e-03
-7.047355289505345850e-03
-2.109377337584554014e-03
1.192511234946947796e-03
-7.653696883999930312e-03
-6.557242839541611813e-04
-2.110069037478962822e-02
-1.257196440784594249e-02
-2.388765189250165177e-03
1.076384439027257278e-02
1.061412088960293765e-02
-6.419300032176851641e-03
-7.742285718421912030e-03
-2.263956433084602163e-03
3.249435866529719785e-04
1.964294426029800523e-03
8.514787853274086160e-03
1.223502173509622565e-02
5.086542630689405535e-03
4.077161483094405778e-03
6.822229431664106336e-03
5.941573678597814566e-03
1.587657059371604769e-03
1.170444138060114858e-03
3.112435991765321978e-03
9.353107508310960425e-04
-2.275902062280843463e-03
-2.274590232887743323e-03
-3.652095183494865737e-03
-1.556416802537430527e-03
-5.961912630230041532e-03
-8.246832856899600703e-03
-9.362258210469521624e-04
6.191336982475771991e-05
1.675405825229044857e-03
-2.807187223183124376e-03
-8.389098899052555708e-03
-5.927911243489498647e-03
1.155155700138486841e-02
1.550577630190571416e-03
6.011293847047731453e-03
1.756016180434660974e-04
8.515056168625930941e-03
6.576521636279256816e-03
2.154524267184033687e-03
-3.098393320521735956e-03
-2.442353449411151494e-03
9.865789078780867055e-03
2.498572289775209156e-03
-2.550219902457269774e-03
7.774485327813490144e-03
-1.135984995315360551e-03
-4.513556522203647677e-03
-2.202971976309440159e-03
-3.019270039093794721e-03
-3.680806251519902136e-03
-1.500103271300027392e-03
-3.924396240606798508e-03
2.529598498111081551e-03
-1.367231359009585517e-03
-6.712121175873134345e-03
-1.313988801531614176e-03
-2.539386117885849333e-03
-2.805417402163110801e-04
-2.923987016445256035e-03
-5.400012569870977705e-03
-3.692862034329304904e-03
-8.389829329428597372e-04
-4.701485802201727827e-03
-6.284362297847073328e-03
-2.348825668627943942e-03
-6.763090195173582404e-03
-1.480063560499275893e-03
1.544124660705135151e-03
-1.882980884323055782e-03
-6.376306399544807979e-05
-4.040008642715296771e-04
2.310185754471159349e-03
-7.701596034022361974e-03
1.551221321959457772e-03
-4.213442414089481856e-03
-4.426914962149084039e-03
-1.318861552640011175e-02
3.497117443835958111e-03
6.140957019930196222e-03
2.444809374286402697e-03
9.206644878572107366e-03
7.813852138005786957e-04
-3.918741295760024869e-03
1.156652846786670037e-05
-3.505704713208484245e-04
-4.080054782610149054e-04
-7.063783051549410268e-03
-1.540214649230482562e-03
-2.233091184506998204e-03
-9.603676494565394073e-03
-6.963851782048174335e-04
2.511613417271324478e-03
3.130959617743221592e-03
-2.263253688376039557e-03
-5.732003778803430004e-03
-1.589041710906026125e-03
2.505944482326623052e-03
-1.615120063397255598e-03
-1.454367874002430354e-03
-9.699111788385065408e-03
-4.338344830279069510e-03
4.720624256167525214e-03
-4.029314170066402787e-03
6.249310917440970307e-04
7.369898175353836213e-03
-6.456944145889525338e-03
1.710806074498221006e-04
4.824473783937980632e-03
-1.058434996121169732e-03
5.629628218297852253e-03
-8.325659695515652894e-03
-6.544834948056982987e-03
1.305455268861550715e-02
7.587227277987586282e-03
-1.248221719331550584e-03
7.556311370529064479e-03
-6.394857122133431292e-03
1.420372525093624438e-02
5.579138249403303544e-03
1.319266764781687820e-02
1.126864541221161281e-02
1.047264123821773675e-02
3.574571485684780066e-03
4.853541525828092285e-03
5.364858693589527085e-03
-1.639449211854892045e-04
-1.895208745336975737e-03
-5.183475601308340681e-03
-1.831598788973254170e-03
-7.445206872501414219e-03
1.666015288612736692e-02
2.751356865748905232e-03
9.879215154866291884e-03
1.762671579273908731e-02
1.189090140578839003e-03
1.293043636866529796e-02
8.288495663058200250e-03
-1.092224469694147871e-03
-9.582464560822446164e-04
9.294339966632759065e-04
-6.356091149831103598e-03
-3.085991614133034092e-03
-3.484087213889808070e-03
2.795662769566616135e-03
2.973789703371057264e-03
7.051753039973032711e-03
7.136103758307897789e-03
3.405252570271753969e-03
-1.402268307525194116e-02
5.159464617130429982e-04
-4.661477067410810249e-03
-2.069282453243235457e-03
-3.114851124460298049e-03
-2.221153065784381084e-02
-1.413748434620897866e-02
1.333473149623872216e-04
3.618817600241871699e-03
5.430934515161238429e-03
-2.095824025240077373e-04
1.129452311724571476e-03
-6.450299585694567548e-04
8.342405253678970628e-04
-1.604228183103386047e-03
-6.173490771765975139e-03
3.548154057399027783e-03
2.979100639072984787e-03
5.390553643765428303e-03
4.865453431525117883e-04
-1.858470969073768150e-04
7.226838379223691697e-03
-2.179587012197769028e-03
-4.789003436914975563e-03
4.379384119862637231e-03
-4.924379723998756342e-03
-3.160507146360176049e-03
1.094044655066702667e-03
-9.354440691011423753e-03
-1.676262902807383950e-04
6.329678433999390286e-03
-7.574308232503918978e-03
-3.688214376533363505e-03
6.060915399021408849e-03
7.736232571208844552e-04
-6.408414705139380343e-03
6.655248629775356974e-04
-1.488236575708938624e-03
-4.289664443735488782e-03
-2.254706327598655219e-03
1.774360144102324257e-03
1.465226840750121461e-02
1.825001647847062855e-02
-3.353277736562362311e-03
-4.143341862240106934e-04
-8.685075767048877540e-04
-1.571187989722605191e-02
4.322211007555686393e-03
1.167089018048551689e-02
-1.148127870165971051e-02
1.483912015543044534e-02
1.335337470073786129e-02
-7.117438169652075611e-03
-1.403597955885129323e-04
1.346479920384759631e-02
-3.431536135409962544e-03
-8.113801162964399266e-03
-6.680619009679324887e-04
-1.369916426962481532e-03
-4.024216767438117126e-03
3.122194305966534671e-03
2.451448043913812425e-03
-4.625742822961621120e-03
-3.400632892671669009e-03
4.263399433885059139e-03
-2.187275233698172331e-04
-3.829639098376171925e-03
1.326319305685070421e-03
4.588961824659025003e-03
1.311174951045684066e-03
2.044352466895629512e-03
2.419268020659333645e-03
2.245282597634210269e-03
-1.176441840306129225e-03
-2.578906230098600930e-03
-2.478221409743696507e-03
-1.452484659557104008e-03
-1.126800334034880119e-03
-3.278505081061718236e-03
3.314716166953975596e-04
7.743816676927825146e-03
1.249670150986105684e-02
6.558770410971184067e-05
1.000573718260339921e-03
5.884319129194503020e-03
1.150688352615211740e-02
-1.160150813061289719e-02
-4.822847692766156838e-03
1.967450444858217032e-03
1.324032881891033992e-04
3.019918296052531356e-03
8.360096689726424432e-04
8.995537246119127204e-05
1.715980054504640580e-03
-1.032455457900570157e-03
1.070295506616332406e-03
2.397337437675442148e-03
5.779588519782948020e-03
2.930251193240755465e-03
2.877208252370591461e-03
2.806337656078409810e-03
-6.509462237191098073e-03
-8.454025323631323557e-03
-4.843654649990128749e-03
-5.741744863094561113e-03
-1.325837810693637937e-02
3.446515701422173204e-03
-1.378780184849326407e-02
-2.896868757885394559e-03
-7.007270124600482181e-03
-1.672812797394097536e-02
-1.350942025302916301e-02
-3.173742662585399537e-03
-7.304368114865514121e-03
-3.294665116810693069e-03
-1.107797363122703556e-03
-3.110687229524295837e-03
-3.071174333256790519e-03
-3.352018627748822987e-03
-5.578423870823833071e-03
-5.039213540341502297e-03
-2.495666914595990639e-03
-1.947371709047454906e-03
-2.784559049737275749e-03
-1.464739838078030904e-02
-2.768867314108424110e-03
4.553372046378968349e-03
1.766468108964735443e-03
1.026413134605374394e-02
4.056867152511360879e-04
-2.081693731804203518e-03
-1.418062170868921237e-02
-1.574371399690123116e-02
4.629914670163814581e-04
8.947014874050042074e-03
8.992960122816561104e-04
-2.699046269689236305e-03
5.064856358994598330e-03
-2.826423902362796246e-03
-2.555669708289158223e-03
5.388393719909501372e-04
-2.444498057791452857e-03
-3.316397187668192192e-03
5.942233127634894731e-03
-6.845494817254538060e-03
-1.457499299711330744e-03
-2.270587297710009549e-03
1.385884872001934189e-03
-9.380434292962046977e-03
-7.061996442411883242e-03
5.163782403143643042e-03
4.576373534543217748e-03
-4.767781783735572658e-04
4.102743481637560947e-04
2.045144085542083441e-03
-9.469691117744053572e-04
1.483476849865382561e-03
-1.251165235935646934e-03
-2.120500349022616787e-03
8.709433852919595776e-05
-1.888327605222842086e-03
-1.035477981741913731e-02
-6.912280157687493952e-03
-6.425454644415945667e-03
-9.093624031656668411e-03
-8.924990336513748124e-03
2.758049139541008353e-03
5.820339760613382936e-03
1.718699729541885504e-02
9.185108963613979396e-03
1.082993361288545932e-02
-5.418125181498165653e-03
3.893739370856230068e-04
4.718691855483166629e-03
-1.136083809585990232e-03
4.098304055404467135e-03
-2.949392739754515790e-03
-3.224757922841104286e-03
5.564751127222306200e-03
-3.387747570687217949e-03
-4.680329239793738251e-03
-1.749865838857040442e-03
-9.604786866548326724e-03
-1.468748369294936226e-02
2.297798700869235679e-03
-6.566561717403688811e-03
-1.901549867671080418e-02
-4.373560115727215432e-03
2.696956001794572114e-04
-3.428270846553517145e-03
-4.543623451614211411e-03
2.077511281580422375e-03
-1.869071928962825211e-03
-2.234497262980878179e-03
9.204433706778504575e-04
3.181224272429030581e-04
4.046090211916785677e-04
-3.981667725391812088e-03
-7.105629937943907029e-03
-6.418298193901003125e-03
-9.368779805066900987e-03
-5.206520974200828586e-03
1.173901253248784175e-04
-8.002935821979226955e-03
-8.709580528051558829e-03
-9.211161471240089476e-05
6.764204396025422748e-03
4.396022322432378837e-03
-3.233461678186907106e-04
1.962786146208950113e-03
1.436179421318053463e-03
1.528655735793814363e-02
1.956759064757286528e-04
-1.055957511768690468e-04
-9.666526494083234767e-04
-1.017832639385528879e-03
-1.189756658296976756e-03
1.001483369154051355e-03
1.090685809271165038e-04
-2.044621444936322913e-04
-5.064480540784990168e-05
2.026792022344040163e-04
5.560990147106635714e-04
1.001828998204972582e-04
3.013599926035583879e-04
5.275249612868106175e-03
1.392870348793774507e-03
-1.085710149947691943e-04
-5.404523566499788538e-03
4.689160084134404681e-03
-8.879788035579309902e-03
-9.699004285527300373e-03
1.554967133863690079e-03
4.707210697538141697e-03
7.326283676902156129e-03
-5.983406722158571799e-03
8.926223968622639185e-03
-1.981463221471494070e-03
-3.506593010794831732e-03
7.275264735041733245e-03
-5.170402959275841211e-03
-5.701898855232177127e-03
7.468109399130844379e-03
9.947235600050025744e-03
-7.055003896938983818e-03
-1.465449136042991504e-03
6.684257760518359098e-03
-8.112900789714577732e-03
-6.178061704919594367e-03
-6.793596708187469441e-04
-2.617774992804653388e-03
2.258516052160791220e-03
-3.118626830994839991e-03
-3.569059387101063737e-03
-2.243262722021753790e-03
7.052836904401998432e-03
4.384156510426422647e-03
-7.204968174557174233e-04
4.221605857126877956e-03
-1.050148145693627875e-02
-6.083655493250683666e-03
-3.151454374887111953e-03
-8.266140664682423631e-03
1.047192847954434057e-03
-1.192263462949429663e-02
-7.729148427410564327e-03
-1.133800684509781234e-03
-7.230366092864431646e-03
3.838846349983201633e-03
-1.527882451538855940e-03
-3.056920632430770810e-03
5.594789340116069175e-03
4.502301562052493308e-03
8.213387686999845411e-05
-5.641041340187689934e-03
-5.341058591729859646e-03
-6.546204210483684213e-03
1.068849372283121185e-02
8.868585206950963321e-03
-3.645502165765959236e-03
8.590750108891194101e-03
6.100351717910780687e-03
1.815737110470622172e-04
1.202156950949466625e-02
2.843806672670696860e-03
-2.208918209721496932e-03
-6.560044393467783647e-03
4.059363575038508858e-03
6.147178637375154929e-03
3.689583933488441245e-03
8.617024838178079932e-03
7.031941294136416498e-03
9.477466666908365700e-03
4.409203645436153736e-03
-1.396154634730564260e-03
-7.682070275240236029e-03
-1.793682531039830167e-03
9.206222230350485231e-03
4.823236175695994055e-04
3.094655166355316650e-03
4.082770628778487933e-03
-1.974098097601138108e-02
7.559294648464114259e-03
1.030431827051301111e-02
-1.772045445584053899e-03
8.744196153723246892e-03
1.002432928642905258e-02
-9.333196359146960636e-03
-1.076857451601419789e-02
-4.227019583232531109e-03
5.207091770196299596e-03
-6.000820417946103533e-03
5.497822793262106475e-03
1.974727946536285021e-03
9.718266441411622459e-04
-1.019581107098178029e-02
2.984405389678985998e-03
1.264980236743475268e-02
7.040909241436780000e-03
-5.763084916681693141e-03
-1.697457459376062452e-03
-5.191086214581290374e-03
1.158338579954925306e-02
5.389222817291984026e-03
-2.257213942204146402e-03
1.699215204732601112e-03
-5.345158426743770556e-03
7.373761945873231680e-03
-4.194773732885695439e-03
-1.728188255749366639e-03
-1.830719474502418660e-03
4.235081561243900228e-03
-1.135921730619887139e-02
-8.519068675975930913e-03
9.468917980753284447e-03
2.727007026672753891e-03
5.174914103168839867e-03
3.297163453772295003e-03
2.094014884681676385e-03
-7.113817532308252308e-04
4.360239480800913968e-03
-3.258587157745036506e-03
-4.260623356663535352e-03
6.362650296796605598e-03
5.875836417395966481e-03
-5.047391120741015307e-03
2.343245681253228619e-03
-1.410489478124567729e-03
-9.352182541941620603e-03
3.148153889889563403e-03
5.558292414433510346e-03
4.285116483795309641e-03
4.934075745448140288e-03
9.724081167903153924e-03
3.859918971803621458e-03
2.272513218770064007e-03
2.398292593203467469e-03
2.499284459391849702e-03
-1.505223647141753791e-03
-9.773118081047621377e-06
2.601314979903260067e-03
-5.093602475896549624e-03
-1.661830496888355106e-03
3.502291423842377794e-04
-4.981253300945854764e-03
-3.625582475279012350e-03
-2.673085507652698048e-03
-2.961125719462248673e-03
-9.797749341988411242e-03
-8.397753615423514655e-04
1.542586191725597725e-03
-4.140069357438414498e-03
-7.098615008314323148e-03
4.393787882896960095e-03
-3.400161058211016371e-03
-6.579654092837478041e-03
-1.368944925109508506e-03
2.056690186994332686e-03
5.403906529549059971e-03
4.975630165163844173e-04
1.602812974249805730e-03
-5.347649105967558839e-03
3.583148888356662513e-03
7.337447775048871849e-03
-5.387897439593521305e-03
6.124934087140917376e-04
-3.930079165649427719e-03
-2.570014565647994395e-03
2.662058659729868090e-03
7.654866161658351389e-03
6.517198025024457421e-03
3.618257554532176845e-03
1.438632253645340860e-03
-6.723414719241732618e-03
-1.431096597844449918e-02
4.787198125225481131e-04
-5.831102269317462545e-04
-3.488772571318061663e-03
6.261843099900876210e-03
1.893027689069967136e-03
2.216738527199180360e-03
3.761555918648044981e-03
-6.900096844090660743e-03
-9.592020534028359441e-03
-8.753579238771604315e-04
1.253811573406909963e-02
-8.731873969996452756e-04
-2.498666686120177248e-03
1.893654960881811442e-03
-1.191526479316990308e-02
6.483253334996570000e-03
1.546415944217399349e-02
-6.829106080220485354e-03
3.070785261270197672e-03
-9.080949444726272787e-03
1.742950165290652314e-03
1.675060048913934799e-02
6.916547726612353938e-03
-5.463930676549592046e-03
-9.027523027908686618e-03
-9.875860476647294744e-03
-1.138631691552287328e-02
-1.672893229143505162e-02
-4.171333977970263958e-03
-1.509320482181866069e-02
-3.312951730010236899e-03
-4.378136559741761975e-03
6.165128980425684836e-03
7.685554872261812082e-03
1.222619339039602085e-02
-1.308088868468056283e-02
-1.776646215230788268e-03
1.127364814457767865e-02
-9.738553635600163266e-03
2.380834590308269355e-03
1.134331724862336008e-02
3.820481786676708288e-03
1.732923017169274828e-03
1.128706223139570863e-02
1.004172565243950307e-02
8.081855027455999915e-03
1.325501237303041910e-02
1.042636464958040035e-02
1.078027465185938880e-02
2.010407885571413589e-02
1.049064575924276745e-02
1.399202487150189196e-02
1.316380614099407591e-02
-9.657164828752768868e-03
-2.690088860318714907e-03
1.399928680988794458e-02
-8.045841643640198187e-03
-5.870450901955253688e-03
3.427908354622678788e-03
-3.873025442359998450e-03
-6.058561323277544992e-03
3.490400350427981611e-03
-5.826282558984445005e-03
3.150146465443015662e-04
-3.411020498941934060e-03
-9.144222028465308696e-03
-3.443106776134637493e-03
-7.475718887373759662e-03
-3.902119622060398318e-03
-7.319916974330023009e-03
-1.077458062035093096e-03
5.265069869648595149e-03
1.179372589405927596e-02
-3.750322477040729345e-03
-2.439034812274712416e-03
3.547035652493786897e-03
-9.062769044284365704e-04
-6.938534806182315023e-03
-5.365867370046889691e-03
3.670944673767454793e-03
9.796970370725133215e-04
-2.554025061713507700e-04
-6.378823115440150973e-03
1.414732821541984324e-03
4.198596031345371363e-03
9.157226472728775477e-04
-4.923271973601713904e-03
-3.355706464798999169e-03
-5.463107807596376091e-03
1.685219458952569912e-03
2.163094808356477630e-03
2.768033256019807389e-03
1.002124215923606105e-03
6.045778768731134220e-03
8.105121017711323581e-03
-1.489397687224986496e-03
-6.415818275911726841e-04
-1.799271285572615975e-03
-1.067978421269261992e-02
-7.172154979157218009e-03
-1.285981483904560449e-02
-1.474651067313833760e-03
5.697982340210236510e-05
-1.977386769932313031e-03
5.918917419429835583e-03
-1.080731362072665609e-03
-7.990725603398635482e-03
-1.237461764103203916e-03
-1.594144653902482278e-02
-4.428673478960876327e-03
1.881884923658160057e-03
1.587774490289277027e-04
5.187530678707727265e-03
-7.055107641356914323e-03
-2.965375142993623148e-03
-5.889709222551747780e-03
-3.805180783841710743e-03
7.748308697933241774e-04
-1.007194395958338918e-03
3.944275254613108933e-03
8.306071684906461347e-03
5.447594985423788623e-03
-1.042498654375308489e-03
4.937018553626534856e-03
7.720732073213108435e-03
-8.706566750543791831e-04
4.057362714385949823e-03
1.142684490165877913e-02
-1.024453729162315072e-02
-3.848697624466361315e-03
-5.219271149310618927e-04
8.780625003877240778e-03
1.175853008850862719e-02
1.210292341150747547e-02
1.200704145107956561e-02
-4.324169225496960617e-03
3.572961759087818576e-03
1.296661035986472130e-02
2.867544478796767073e-03
5.520937729761931506e-03
5.826213773172158467e-03
6.808179035206177523e-03
5.887444240593798714e-03
1.317161085576492967e-02
1.183664209628829470e-02
-1.212787917730038037e-02
-2.047001937708311018e-04
-1.954179324425412215e-03
-2.089039798026584224e-02
-9.967291893431033667e-03
-1.153108220472463460e-02
-1.468375002009100067e-02
-1.803373685072188310e-04
8.695296971814510953e-04
-2.106232410699485687e-03
-7.096217149235904166e-03
-3.685545529202941591e-03
-4.011243448749025192e-03
-1.034923168750614486e-03
6.055863656371335627e-03
1.101272461260341742e-02
4.143007195322082926e-03
-5.650900755938880436e-03
-8.563458124106450298e-03
7.945757774708834750e-03
-2.869553434158113488e-03
-2.179026490041108093e-03
-9.667815876540257003e-04
-5.274936963997285677e-03
-4.471760194903234148e-03
1.032921723502768126e-02
1.858132141500494017e-03
2.898216977123027355e-03
9.717906456059293308e-04
-1.689373746509054098e-03
7.637502605820534370e-03
-6.725739153837528329e-03
-5.912316029663017627e-03
-1.829309862045686453e-03
9.703050256764794712e-03
-5.869349987589859118e-03
-2.086507865670575793e-02
4.303067513404922463e-04
5.712353625130769941e-03
-8.607729219084694558e-03
-1.117579648619989978e-02
-1.836694010460519083e-02
-6.605917170467637614e-03
5.395543071490374641e-04
-6.328789715194356458e-03
-1.520531033425132766e-02
-4.919796839263819617e-03
-8.861583003304751571e-03
-5.744878390541254855e-03
-7.729937936204971279e-03
-5.178525369883202854e-03
3.378317539020212618e-03
2.017628518333215801e-03
-2.149319126641843075e-03
-4.518251552527221063e-03
3.535491413252947034e-03
-3.537747178253419235e-05
-4.504961723950741403e-03
5.812590085913706996e-03
4.962854368174164817e-03
1.797839755528808214e-03
-3.817140980959831710e-04
-6.687809496288351849e-03
-7.390098814306501895e-03
-5.261160002149668433e-03
-5.590369753179159212e-03
-6.611460658337290274e-04
-4.794180120590808489e-03
-5.712265722665935998e-03
2.384922054923039789e-04
4.039494788893407441e-03
-1.689048251362572481e-04
-8.833736867920593053e-03
-7.277360233442632491e-04
-7.768350459915343044e-03
-7.088060483236920291e-04
-6.271967172344235925e-03
-5.879633381184625959e-03
5.938565071137565272e-03
2.638586550146009534e-03
-3.497646244480648921e-03
-1.238813874696745136e-02
4.749568680923479079e-03
8.360067182076888828e-03
-4.100446358009148147e-03
7.098490324044945225e-03
3.870957600881433109e-03
6.983330243630402577e-03
-7.883300257151875517e-03
-3.578652718277115612e-03
-1.479129825910413011e-03
-4.814100013912925476e-03
3.841192290129136645e-03
5.516916576035682009e-03
-1.798050550760011638e-03
-1.190337184432057596e-03
1.125516302430292458e-02
-1.695852072825104534e-03
-4.279835489344747945e-03
-1.526157985965278597e-03
-2.012275087540441043e-03
-1.723953381383877461e-03
1.719703851933457100e-03
-2.991351942853782194e-03
1.497144710669405000e-03
-5.497262096952042904e-04
-1.397648508119446291e-02
-6.686300646212369261e-03
-2.985130837925119383e-03
-4.831946091802557901e-03
-3.812498877394619300e-03
-5.066492398319572254e-05
4.156239844625321880e-03
5.297264702118257944e-03
8.053429759910324739e-03
1.799648566365370447e-02
1.055134591024064171e-02
2.345525877028519033e-03
-1.071494861231408547e-03
8.575416273011797832e-03
1.212797988109504295e-02
-9.957529769986950621e-03
-2.233725206930206684e-03
-5.826086613295844950e-03
-2.507503663635518836e-03
-8.230937607814082721e-03
-1.038210379566602108e-02
6.488641286258766544e-03
5.751487290421572647e-03
-4.921099161218541081e-03
2.242737257788441491e-03
-1.571166096172944615e-05
-1.568757568636499049e-03
-9.511242982071949417e-03
-8.819753719320510763e-03
-1.405997194065881917e-02
5.429741738789452439e-03
2.419222791491963502e-03
-6.094386271518245635e-03
2.675400785155985454e-03
4.686166595909450547e-03
4.870551659566767395e-03
1.002267488407065379e-04
-7.583686327267728615e-03
-1.542800226797681751e-02
4.742714507563615574e-03
3.291157892685381628e-04
-1.006296493615611506e-02
-3.569705100779025590e-03
-6.049255609913005427e-03
3.065616382939697487e-03
5.477156499005189118e-03
1.141278733466128239e-03
3.899547066817729470e-03
1.168915541504903823e-02
4.982786209404123715e-03
4.790873793122273766e-03
-1.196115056116681162e-03
-3.430789677940851521e-03
-5.122852045083035400e-04
-7.698450590563921461e-03
-5.908542538997881184e-03
-3.635458704740655855e-03
-1.423761343444600487e-02
-3.279423340341067021e-03
4.188646325748177426e-03
-1.056329279397574122e-02
-1.876484042602814817e-02
-2.338256940582157661e-03
1.690631690520364794e-03
9.280538098610369505e-03
5.589986396021846306e-03
-3.209884639175254479e-03
5.384794050858584744e-03
5.862578084109703810e-03
4.136193644848879620e-04
2.022465884849437194e-04
4.808829450395252052e-03
3.425428481007979434e-03
-6.265225309318081916e-04
-9.200359444142920326e-03
-5.622128999065801984e-03
-5.799708363732212525e-03
-9.222172910173515384e-03
-4.993160407098486825e-03
-1.154812401773213683e-02
-5.907371644029416405e-03
2.859963019218152332e-03
-1.225508923482625159e-03
-9.098532204773087371e-05
2.540629579494829270e-03
5.383192348470235085e-05
8.647253410277517182e-05
7.989108027361296362e-04
-1.705793585571207995e-03
1.251459113645177592e-03
7.176760044208121449e-03
-1.986517361104775132e-03
-2.436045104363977493e-03
-1.980728770439973713e-03
4.945764763535295816e-04
5.002449052023251984e-03
-6.973280858344930826e-03
-1.897150424138428597e-03
1.506907602193278354e-03
1.816205908778339984e-02
1.446061601377537399e-03
-7.784265073160199534e-03
1.329413494383537182e-02
7.185224283491825105e-03
8.271470714481919326e-03
-7.110351353527982060e-03
-6.625391918880460876e-03
9.348416381955011040e-03
8.666096967787514926e-03
-3.798912399334874838e-03
-1.275715329433964318e-02
-1.014717600952006783e-02
-2.779687074643993113e-04
3.388311793245215794e-03
-1.009607429562884608e-02
6.284514182421770991e-03
1.208611270517450514e-02
-1.485236742976990890e-02
1.064870326660257750e-02
2.537368312707297124e-02
-9.928636315138288093e-03
1.110704566421403605e-03
2.877237987112960665e-02
7.559131669809500582e-03
1.005237908980856159e-04
1.738761447678215111e-02
-4.726316345419973378e-03
1.287957497177144237e-02
-1.721607495021400822e-03
5.059843216921389338e-03
-2.502061732982518300e-03
2.734059209388149669e-03
3.456876227868754901e-03
-3.668389186964558617e-03
2.388451893610408962e-03
2.781433346717224631e-03
6.027658059645546289e-03
1.408425094281470433e-02
1.314828341912642126e-02
2.388617542818410769e-04
7.299075214575735139e-03
1.113654180567110255e-02
-5.225815189119797271e-04
-1.020601382305425051e-03
-3.609295176149374161e-04
-8.341933671661469875e-04
1.791293326138061227e-03
1.488059350862342778e-03
6.565083829944183894e-04
2.368150606001550879e-03
-1.009458661041818259e-03
1.998976810086272333e-03
9.584307852210579041e-04
-9.877407612055152594e-03
-9.923230740262003503e-04
7.721914745405016219e-03
-5.999256858599952107e-03
7.864207500421183453e-03
8.958354741498057369e-03
2.273752917096348927e-04
4.251488224568837800e-03
-1.618283182799030344e-03
1.987939162137911803e-03
4.668543431843261496e-03
-6.008830887837731879e-03
-1.031502687556874742e-02
1.639076126815565372e-03
-6.089796738747536853e-03
-1.250850538425051645e-02
-1.250893721577678785e-03
-3.511644925360924568e-03
7.179335671769949793e-03
1.498517354595993618e-03
-1.278519503404360567e-02
-1.431346814106562119e-03
5.838453892702565040e-03
-5.222757890187558830e-03
-4.902052489275238005e-03
2.716318955825114054e-03
2.593839416382480705e-03
-1.050127052163300463e-03
-5.284816176938216155e-03
-7.662072454190159247e-03
-1.166314652652210467e-02
-2.328196290126434854e-03
-8.498424978987660985e-03
-1.345467215412548406e-02
-1.014552037086203194e-02
-1.010864110509651984e-02
-1.161580550196619072e-02
-1.325622525636072850e-04
5.270387712744442101e-03
-1.074868438352650363e-02
-1.264565797862887871e-02
3.254039327394242731e-05
1.760455093261599838e-02
5.292473932442618573e-03
1.684319269438912942e-02
7.300907682269823680e-03
-4.202641592940497932e-03
2.071498733155706026e-03
2.918079008434312782e-03
-5.167949935283910022e-03
2.922731182378991276e-03
-1.160554054228637826e-02
-1.206187108290172547e-02
1.337073127416314950e-03
6.673870384262885549e-03
4.752691010611253923e-03
-2.920876013660003885e-03
-5.665069267794902580e-03
1.472432852880863454e-03
2.192703772200448389e-03
-2.152358247685722242e-03
-5.566973189359567323e-03
-8.312995497500599851e-03
-3.185529341093582077e-03
-2.846045242742402807e-05
1.794457302818884071e-03
-3.150945268424417724e-03
6.958737011498287994e-03
2.901206685033761844e-03
-2.257943786809292301e-03
4.854641484116251245e-03
-2.949612268178353116e-03
-1.521298328066712953e-02
2.944114694411690755e-03
5.574909843169871017e-03
-8.521567052370228670e-03
-2.670601822629254524e-03
-2.869887463524482037e-03
1.154078970916144363e-03
5.195135009995638896e-03
9.893021308706801548e-03
-2.790422440523964570e-02
-2.041102658211578144e-02
-9.284921785997409319e-03
-5.307432371691361665e-03
-9.744000174731901748e-03
-5.575141803266393109e-03
6.069264600490741762e-03
1.558079382029769339e-03
-3.015527510264638753e-03
-3.916165241150052281e-03
-9.884783567618894446e-04
-2.675570616131732384e-03
9.261130599850253900e-03
9.365442662682318606e-03
3.697185693075308592e-04
7.366226553070421949e-03
4.152482056924777266e-03
3.598877453933588174e-05
-1.783353668282358639e-02
2.613473925391584813e-03
2.674278535240874610e-02
9.848515351997272002e-03
1.847045677814381079e-03
6.379481786531012409e-03
1.977280433552523753e-02
5.637761471001202264e-03
4.221856389015570150e-03
-3.901552267122325966e-03
-8.355322667873034750e-03
-9.392169108417332962e-03
8.269886763270934901e-03
-2.034065937888336270e-03
-6.241866978803582884e-03
1.856319131827747658e-03
-1.043511068880476414e-02
-1.298047676033675484e-02
6.715156038440337621e-03
-7.982100238043471005e-03
1.371702943504072604e-02
6.966772150206084098e-03
-1.439614510306272475e-04
1.275255437392705873e-02
-7.441376333127390670e-03
-4.271743512732505479e-03
5.052615586099279237e-03
7.545390551685407336e-03
-7.224583593556434605e-03
1.024960832507987134e-03
8.081535847632234301e-03
-2.282089655134943423e-03
-2.697456281662569989e-03
4.010080746631651538e-03
1.346785069647464311e-03
2.844187172388654324e-03
-6.861030605542983545e-03
-6.486850636242122957e-03
-7.912310118759794189e-03
-4.824038283655472485e-03
2.272951041795787368e-03
-7.715317110694949482e-04
-1.016668301728406235e-02
-3.903592287044060395e-03
-8.591279680937334573e-03
3.810459881579271370e-03
1.774497981400889688e-03
-1.154115838746055294e-03
1.054612194356355139e-03
8.556996012808184508e-04
-2.512850693763378409e-03
-1.240334843364965939e-02
-1.201005403069959655e-02
-9.532370296823647338e-03
-5.974628124113107869e-03
-6.064378076867972533e-03
-5.635577222763381647e-03
3.550984265350999938e-03
1.521956077461826323e-03
-8.191709212682534921e-03
1.101767787382569976e-03
2.790437972804158187e-03
-1.714887479598156987e-03
1.123390684283093709e-02
-5.523335504181319834e-04
-5.984607528795508544e-03
9.341666326077765472e-04
-1.231183718859456180e-03
6.639742550988867939e-03
5.540133238500060016e-03
-2.804612629298499759e-03
4.618245300096579520e-03
-5.554429080916794582e-03
2.311507281769052072e-03
7.173112518628513984e-03
-8.647159533858760766e-03
-4.859569142678875331e-04
1.005215412777234543e-02
-2.193196367372312813e-03
-3.562856047951093712e-03
-8.586714385351102222e-03
1.070491236972723800e-03
-4.366630553806015295e-04
-4.573774845741780497e-03
-1.147774793891103524e-03
-4.862469070596401460e-03
-3.650493781283981835e-03
-1.117047796036646154e-02
-2.660268247821552870e-02
-1.315089489041177187e-02
-1.580908078858095193e-03
6.538032742484676217e-03
-2.776961415496555664e-03
-7.694899160300239065e-04
2.224473771204147840e-02
9.011229354228557017e-03
1.417026307794356024e-02
2.200628307418511440e-02
2.104438603021484278e-02
-3.545202506636831565e-04
-5.734486443161654519e-03
-3.574140864413548509e-03
-1.617184784244381484e-03
-9.372200501461201358e-03
-1.205006907740343094e-02
-2.530614301236322819e-03
-1.331937522579146327e-02
-7.242968869405742513e-03
-2.643855544941103603e-03
1.945980454599487543e-03
1.698728728926150386e-03
-7.085929000594473615e-03
-1.043494251909442587e-03
-1.355301011211068694e-03
-1.988154039802863485e-03
-7.596673192217657557e-03
-9.994297923623727056e-03
8.496554939062985054e-04
1.251364191615441214e-03
-2.995486698084094332e-04
-1.578926092749501249e-03
3.143146093761698366e-03
4.107323436441654048e-03
-1.589331851797140627e-05
-2.220104658006737998e-04
2.239999870098556903e-03
9.907112719527262027e-04
1.687107424722768457e-05
-4.685397348531845745e-03
9.152501557879557173e-04
1.699117083757767854e-03
7.228157807052290260e-03
4.275257833732002896e-03
4.325431601362957068e-03
-4.264469187072336361e-04
-6.031764686018293610e-03
-2.335176691311907464e-03
-9.332957528199278818e-03
-1.146045131338739934e-02
-1.242782770849072942e-03
-8.057260200109314652e-03
-1.192534065861590269e-02
-1.556055346395254432e-02
-7.792293953998372970e-03
-5.840405986390105782e-03
-1.945198095476008806e-03
-5.685448581521067475e-03
-9.310999351915106789e-03
-7.780434279020821339e-03
-9.032623109591245841e-03
-7.316171294916798233e-03
-9.991514379889271033e-03
-1.046421273710032053e-02
-2.781674856558088819e-03
-9.634776479166937309e-04
-7.295181545462851294e-04
3.328527117729688806e-03
5.746298371088112006e-03
3.660380421761414392e-03
-5.633348347946880337e-03
-4.819562370574174102e-03
-1.002704474656756703e-03
-5.005041440013497864e-03
-4.391952537811795280e-03
-3.192008457653413948e-03
-4.453887205986356568e-03
-5.323548714301518971e-03
-2.565466732685327961e-03
-2.472132728955466017e-03
-4.203617028376802414e-03
-6.576384499190217163e-03
2.946646203070742761e-03
-2.506158334561652337e-03
-3.021354665338479156e-03
-2.494279706556184724e-04
-4.896970910357276163e-03
1.896616746671272828e-03
1.399795194217994996e-04
4.133682724496621184e-03
8.959580509132900527e-04
-6.506962291545064815e-03
-1.505731139105219614e-02
-6.104023104946629599e-03
2.093095679687129607e-03
-8.111512331314536112e-03
-1.317217325415297874e-02
-6.224853213925090126e-03
-1.003608060262634223e-02
-1.572541473711076485e-02
-3.895759351130181295e-03
-6.542296202799387055e-03
-5.495173120334518289e-03
-8.175439618789381553e-04
-4.453435795888788414e-03
-5.390339913638807906e-03
-1.037949816953705022e-03
-8.345553432049374054e-03
-9.783720124726478368e-03
-7.111790224944695461e-03
-9.508163145305066621e-03
-1.733049928871559231e-02
-7.084816785889001302e-03
-6.533442769634299416e-03
-3.288552994967791025e-03
-8.978227190510777375e-03
-1.025297139998537256e-02
-9.979734708558401710e-03
-2.968998930368737816e-03
2.729318574866388433e-04
-1.104869951553015604e-04
-4.355928116723121850e-03
-8.363936593442962072e-03
-5.544421834410668062e-03
-6.854057110352710681e-03
-5.314078032044602072e-03
-3.815761900630066164e-03
-6.742304043820611381e-03
-3.549067830887701891e-03
-9.660898489891652646e-03
1.349494623540658687e-03
8.367353605687365831e-03
-2.472055458918579699e-03
-7.447529810902390850e-03
-1.070612298923320424e-02
-4.651916095756274301e-03
-1.010588515116156308e-03
1.711707543753989563e-04
-4.618617812596350659e-03
-1.527209840231258994e-03
-4.065915626462330602e-03
-6.405333057770360577e-03
-5.657895070466762225e-03
-5.866574468481345998e-03
9.857392366641057552e-05
1.178766440591154895e-02
4.704284223090422420e-03
2.641595760843471179e-03
1.049902143079259678e-02
3.385888274475686629e-03
-2.051213132806650307e-03
5.873873206635393633e-03
4.320095230560789569e-03
3.667412541840072478e-03
4.748187272091099718e-03
3.282968776877496185e-03
4.607724377561190320e-03
-1.923028702274966743e-05
-4.054450684739252520e-03
-3.712239915432941680e-03
2.015999044781697537e-03
4.188996954227731072e-03
4.647767205049281938e-03
-5.792562894470814489e-03
-2.431594935853731779e-03
4.073673428821373253e-03
-4.258317107107185279e-03
1.114391679416847948e-02
4.206092585407628440e-03
3.291424560937662031e-03
-7.370610222791381793e-04
-7.703381655233097411e-03
1.956800628892128337e-03
1.402590328457983034e-03
-2.004358878670725944e-03
6.741680963027885630e-03
2.626938691841833816e-04
1.828152395898471384e-04
6.737365139882713419e-03
3.498726037374648695e-03
2.060026108546764850e-03
-2.957576268477163633e-03
-4.611592435421855984e-03
-8.725464689730319350e-04
-1.165102091098794632e-03
1.411102625344655198e-03
2.578146490601536736e-03
-3.064962302240586793e-03
-7.193215348720685990e-04
2.255397382873475243e-03
-1.619103231598879866e-02
-1.694210071934150463e-02
-1.192680332209716115e-02
-7.144496954944868153e-03
-2.172712611703707906e-03
-9.641837939990732711e-04
-2.352008438026209972e-03
-9.099635731321971529e-04
-1.525631271694670834e-03
4.879817873371672561e-03
6.994466972852586648e-04
1.686200230751960837e-03
3.247428386963284019e-03
4.380954132160485952e-03
3.421353581240848228e-03
4.307112588679236419e-04
7.636173489281665103e-03
8.053588597672620142e-03
-6.928250560534970166e-04
-4.216610240216231431e-03
-3.152726120410436622e-03
1.362859023142188979e-02
7.770984554439003267e-03
3.395964724663292494e-03
5.072025632202350337e-03
9.496183191496511411e-03
6.423553478260789727e-03
-2.481613069966994573e-03
-1.701812969738112974e-03
-6.907931821165496679e-03
-5.164188375255156921e-03
-6.672611755527661434e-03
-3.433672320423394875e-03
-2.802919925166937488e-03
-3.785743584743464854e-03
-5.226493903158644684e-03
7.483616558294401658e-05
-7.975629144395393133e-04
2.828118704743378471e-04
-2.010103833016998163e-04
-1.668062547518009767e-03
4.702535077302593780e-04
-4.013845644836548134e-03
-4.654752853761415579e-03
-2.908002254835346211e-03
1.671549904654485693e-03
-4.339116963202611921e-03
-8.245634344562749810e-03
-2.695269824697267211e-03
-3.610647676510804222e-03
-9.219815241169096974e-04
-6.642182669209118623e-03
-3.399919346834149453e-03
-9.315931330708189951e-04
6.256957638566981901e-03
1.504016892402446764e-02
1.147806013424624259e-02
6.641657269406418644e-03
1.817375230399946584e-02
1.320088053078164597e-02
-1.103481186656563159e-03
4.094947655934707414e-03
1.160440320521965996e-02
9.206759520785677076e-04
-2.192279243898104940e-03
-1.147679921116789370e-03
-1.110155805246162107e-03
-4.970537999415054753e-03
-3.088503420837021736e-03
-2.555464089962201663e-03
-3.960963781101494753e-03
-2.080444351312794263e-03
6.322597623699049117e-03
9.081277719138500931e-03
3.480920396610527492e-04
9.010008502474839420e-03
1.086015716295396852e-02
3.702791284295042350e-03
8.621828075162436171e-04
3.061127594419426300e-03
-3.131929910530012809e-03
3.588700981387771619e-03
-6.570882653875093939e-03
-5.827893889874689350e-03
-2.943484145499934267e-03
-4.489583776140219050e-03
-8.746949951519868496e-03
-4.487521176429170276e-03
-5.635610318932349379e-03
-4.268387361112587104e-03
8.040172223036844146e-03
7.946877036566078051e-03
9.941838129241101912e-03
7.614777343171450115e-03
7.491777659218609199e-03
5.185787901934158298e-03
1.131533125896918256e-02
6.889903664564020307e-03
3.917545309997237657e-03
-3.004384233487217108e-03
-4.721342130455141489e-04
3.312159173477359931e-03
-1.496554228780994566e-03
-8.292132864943948731e-03
-6.964325462284532862e-04
6.287660814827689300e-03
-5.795291766009359399e-03
2.987839698042097161e-03
-7.389481789135104312e-03
1.645713647273728793e-03
-3.092526747734072965e-03
-6.894607660300157079e-03
2.154543947558741190e-03
-1.218664569000737314e-03
2.230082698241704024e-04
6.915912868324506670e-03
-1.658027283717990576e-03
-1.749252580851585331e-02
-1.431884492885685152e-02
-1.556892833316276224e-02
-3.126507704380265644e-03
-2.384965566683652435e-03
-7.587069474284025353e-03
-7.253161042408024515e-04
-4.366516663145755296e-03
-4.206028618938413219e-03
7.125452806702721551e-04
1.135683292288482008e-03
1.121255044650795035e-03
6.254373466106947447e-04
2.926742061186924640e-04
-1.210658919353567540e-03
-1.298882257330044761e-03
-5.020069733225367625e-04
1.028463826481932665e-03
-1.070833447955778358e-03
-3.682912838343301888e-03
-8.551757455273785577e-04
5.636676426752603927e-03
1.135639791444602482e-02
5.247485292778468653e-03
1.893367578068313670e-03
7.186201817188638506e-03
6.248509326373589794e-03
-5.862151487832189048e-03
5.476419828174615423e-03
7.801130074301422523e-03
5.085845123162640105e-03
6.030311134569687863e-03
3.772647953657030581e-03
3.025118846026915009e-03
-1.483498417277248106e-03
-9.360551314437904474e-03
-1.248569604097412265e-02
5.791418058688450367e-03
3.303240133677179391e-03
-1.140256074754433455e-02
4.559765016105262543e-04
-6.894683654652472397e-03
-1.057131739129545632e-02
-1.104916149558559865e-02
-1.287365285900525166e-02
-1.290268743984677134e-02
-9.850968565862230214e-03
-2.121066521836884045e-03
1.830726180641282933e-03
-2.618461221143956325e-03
7.833508771126132877e-03
5.501822352801149368e-03
-3.162413304563159618e-03
-2.801862564898028977e-03
-2.408913264177008767e-03
-5.183040988570963674e-03
-5.337225510830482210e-03
2.610398530172386780e-03
-3.576089563716450541e-04
5.819433549798198012e-03
5.485234079599301399e-03
1.635063685751022558e-03
-3.697481338387564138e-04
5.127868906549220944e-03
-4.486864016634326859e-03
-4.554436663891828913e-03
-1.127078380701937530e-03
-8.797736412226326436e-03
-9.155494496124348333e-03
-4.332937911620811204e-03
-6.565799050858685953e-03
-8.231513974284300136e-03
-4.807653308379650648e-04
-8.308523771518560577e-04
-7.491501382388608644e-04
6.205441850767078656e-04
2.785946941946532683e-04
1.339635003282034194e-04
-2.605360669559889986e-04
2.046843366428179587e-04
9.001472714767991430e-05
5.966187756152177080e-04
-6.241110720341680636e-03
-4.708519678107606944e-03
-1.612640978042262450e-04
-9.292474589534109250e-03
-5.579888963582359598e-03
-3.111042215841765528e-03
-5.178270110515163435e-03
1.782823860509755035e-03
-5.072900387336917727e-03
-3.598168565553586714e-03
-6.629001931737717179e-03
-3.783851744524309793e-03
-8.460209227703012480e-03
-7.591679798324501606e-03
-9.866245799806145841e-03
-8.298207857112866945e-03
1.476181910659529794e-03
3.376998028698685768e-03
4.992105633979775081e-03
-1.635158997612559889e-03
3.467243782322217919e-03
4.669060567431185423e-03
3.008514900128905333e-03
5.045439090053048872e-03
-4.013479341123948017e-03
-1.495722117959237107e-03
6.944462324547647641e-03
6.508849211266586835e-06
-3.402185144873332034e-04
5.478954066695718682e-03
9.227436180797710455e-03
4.087239787514596392e-03
-5.107014379659826145e-04
-7.049894009547924751e-05
-3.048076976774291482e-03
-7.977897493803719556e-03
-6.969895830085197017e-03
-9.224005682744980741e-03
-5.051932689001988573e-03
-1.025892994037700019e-02
-2.087127116059583638e-03
3.991054446527351508e-03
-5.702737387793180637e-03
6.302645370282830388e-03
-1.986610643712310650e-03
4.102747555884600841e-03
1.764450357870777156e-03
1.044609346017232607e-03
1.679563026168429856e-03
-4.052373505775960782e-03
2.140725550042370056e-04
-4.518825564604238981e-03
-9.459948282453584101e-03
3.221810636125516276e-03
2.388282893290846927e-03
-1.421088009877939000e-03
-7.881486356647364466e-03
-4.904432936136442689e-04
-6.212101653191586144e-04
-8.299417935049019021e-03
4.204467727745168741e-03
4.515569288615811465e-03
-5.812594787052410145e-03
-4.892999339805686500e-03
-3.945611464008529426e-03
-1.742495461918357452e-03
-2.567860281422288185e-03
-2.970530480816842810e-03
-2.843314841596692941e-03
-2.573282305331382226e-03
-1.687345613256284980e-03
1.433824262396588521e-02
1.337554434642596046e-02
-9.779185066075704938e-03
-8.502145535576136406e-03
-2.201995768795966552e-03
5.798564808137865630e-03
8.238364582672534544e-04
4.171504402905523538e-03
1.677471632434201360e-02
-2.094045700211400254e-03
-1.028876601561056793e-02
-3.305396587324540940e-03
-7.908263522519739727e-03
-8.867628982996962270e-03
-2.389821186643114031e-03
-6.077302980398653458e-03
-4.995660784639179876e-03
-5.513977986599229381e-04
-5.675977717023496802e-04
-3.927233769834531651e-03
-6.970188144092665308e-03
-2.058063650074558586e-03
-6.040042420960445996e-03
-6.125818722568297618e-03
5.503152527327651033e-03
-6.656714538882121425e-03
-8.159590695916896577e-03
-5.665317914505526437e-03
-1.124244465650983682e-02
-1.280921803131170392e-02
7.058386970701309741e-04
4.540446231198993175e-03
5.986607274602778576e-03
-1.656623848448968768e-04
6.325210772422916808e-03
-1.337774945832768264e-02
1.477222140307053039e-02
7.997694842664857667e-03
1.171061670262145762e-02
1.532097899026960836e-02
8.060289404244060096e-03
1.226101810051091236e-02
1.072125843994905896e-02
1.258936400093432773e-02
9.711787369845115842e-03
2.626344769553592799e-03
5.969579436945809427e-03
-1.185970231364971185e-03
7.120880388718076395e-03
4.722249688907255438e-03
-3.155878519226634326e-03
8.241300297352274762e-03
5.282295444395969895e-03
-4.944387559148465984e-03
-2.689847800788172736e-03
-8.634574897638962188e-03
-9.582759165089880724e-03
-2.382114411666921318e-03
-1.121943476941699748e-02
-1.097131193342215302e-02
1.588017896688758779e-03
-1.608957529963121183e-03
-6.935322044594681955e-03
-3.125051419321863908e-03
-2.743066445250034492e-03
-5.123832640565803564e-03
5.669607130515355586e-03
3.318662613421563112e-03
-4.809192512935183371e-03
-6.029196368495073552e-03
-4.322658627586377887e-03
-5.303284647127957246e-03
2.709998969877179791e-03
6.570105397489899197e-03
2.423121838931526981e-03
1.277801296429254170e-02
7.716225976458996293e-03
-3.630497328439364572e-03
1.925848694140028846e-03
-1.366239951737292270e-03
-7.399321144233110201e-03
-2.529393926703274453e-03
9.226634686405662394e-03
1.343024606532222144e-02
-4.540618266375457887e-03
-2.416567644965453981e-03
-5.036295529768329560e-03
-2.449359572470919972e-03
3.251046228407333035e-03
3.076903438790044854e-03
-5.232702842207543822e-03
-7.501254537657729704e-03
-3.839978949808608467e-03
-4.590594302897869254e-05
-5.390909233438888164e-03
-3.337679972287713962e-03
-8.560818460542679934e-03
-1.182499093646615686e-02
-2.137362116549957908e-03
3.379041857622472333e-03
1.005374227327456536e-02
3.209227830236722079e-03
8.961968408409617601e-03
1.720456370784235675e-02
6.284328726727598721e-03
-2.277481031847264012e-03
-1.945383434220145265e-03
-6.010522715500547612e-03
3.197389112934269362e-02
2.648358529236943121e-02
9.676951340054883166e-03
1.334522424001793363e-02
1.081523921575654190e-02
-5.354419005241059341e-03
9.570838075012256738e-03
1.025736722677722708e-02
1.550194031392019764e-02
-2.110462120477436636e-03
1.377287070315157385e-03
1.595912015056271229e-03
-2.536899325757863404e-03
3.739781763085452213e-03
2.103649782626339140e-03
2.995081212631091686e-03
6.260910802812614737e-03
1.910281150835829288e-03
-5.644508877257634928e-03
2.350556471523784600e-03
-6.528418286798593796e-03
-1.160636517878980110e-02
2.379376478739493681e-03
-2.648064103163007971e-03
-1.126383040490007426e-02
6.064050846590549049e-03
1.355307046604653336e-02
-2.018105662224706567e-03
-7.831277515765589078e-04
-2.650470107981827729e-03
-1.246440721629576628e-02
7.172202596836011086e-03
2.109487929972753053e-03
-7.928893190421060222e-03
4.036051412308786640e-03
-1.006592618452793741e-02
-7.226305544711373804e-03
-1.010690901416244972e-02
-4.712473631919389221e-03
-1.284014651913815454e-03
-2.716448907231553116e-03
-3.887726172900719986e-03
-1.715652233067813765e-03
-1.296569358032688803e-03
6.675609099981319548e-04
-4.714991060667878681e-03
3.315036465235648012e-04
1.089424019885136367e-02
4.555119887631027217e-04
-6.020660626759760138e-03
-6.415377621637736831e-03
3.300808638763247718e-03
7.538902509689520727e-03
1.408082407055106372e-03
-2.365397624387030780e-03
9.079963736340162378e-03
-3.537228051483243783e-03
-3.880343298527003972e-03
1.851286900410793052e-02
3.286433962280519653e-03
-1.175812239397833539e-02
2.071269522096015440e-03
-9.112224823245336849e-03
-1.295986450572553066e-03
-2.582037607346585918e-03
2.047923734941880895e-03
-1.770248573228553907e-03
7.991792097675188417e-03
8.322176517543213720e-03
-1.113678416739296174e-03
9.565931190196807696e-03
3.711664687269611382e-03
2.364289124511221966e-03
2.684610756272568476e-03
-5.360418824190158436e-03
-4.862129229507278390e-03
-1.394802970406823148e-03
-2.208041900988017697e-03
2.951715883819280503e-03
8.311649825899863203e-03
1.052982793999972374e-03
3.719688793494357101e-03
-2.768093008033707062e-03
-1.962094455859331784e-03
6.125719934485941709e-03
3.103767194850602998e-03
-1.493553862931895322e-03
-2.160334845004551439e-03
1.843121010698986267e-03
-3.438494575131903312e-03
-5.393943375335139706e-03
-7.792210663152628232e-03
3.882701606779127065e-03
-3.147107936915108546e-03
-1.393997670282797700e-03
-6.734470225684606633e-03
-6.860259727928127126e-03
1.006226997551067093e-02
2.242521570933330918e-03
7.094616115705178715e-03
1.428178494519759950e-02
-6.870797898413256435e-04
1.111428860617463647e-02
1.017254226069245343e-02
5.080202880222655856e-03
1.892015335162184394e-03
-5.268426990361502540e-03
-1.413221959505541088e-02
-1.212926758726579632e-03
6.374767260627803127e-04
-2.789322730079441242e-03
-2.128525885927674138e-03
-3.570580617912624995e-03
5.007142031418217003e-04
-2.467611762640862551e-03
-5.228710593632774793e-04
9.671869025141112755e-03
6.222218994911931332e-03
1.207842522418849443e-02
7.522839849732275127e-04
-1.002655059065336689e-02
1.748647372113565357e-02
2.018174337364308114e-03
-8.539467429995988706e-03
-6.418091576073902890e-03
-1.620780199508280173e-02
-9.345832117640860692e-03
-1.603624278827239834e-03
-4.016114247429434896e-03
-7.825701371505471363e-03
-4.059705149080268353e-03
-1.605962004328589140e-04
-1.763856441646893597e-03
3.781962499693730662e-03
2.205254917368817437e-03
-5.911296753366940358e-04
5.085075252735160589e-03
1.313877195247325005e-03
3.315111869351463573e-03
1.467565963058237166e-02
6.181837221182227837e-03
-3.567212369495129641e-04
4.819261692799506162e-03
-5.710097791709048930e-03
-3.726284179739909001e-03
-8.708672286775570939e-03
-4.351044090730365804e-04
-3.407836172032175422e-03
-7.890712979379892536e-03
-1.556659587249086983e-03
-8.389179506555001151e-03
-6.464455211747246501e-03
-1.631166374295386435e-03
-9.150294797823225676e-03
-5.974574660310797217e-03
9.387399180739644652e-04
-4.310025043370933027e-03
3.001575222636066083e-03
-1.128636831908633696e-03
-5.920571657523324323e-03
-5.168452215809649260e-03
1.816345622697164690e-03
6.506594237824266450e-03
-2.169391453256095531e-03
-8.101832826910763605e-03
-9.379189433935805273e-04
-4.607146550522083113e-03
-7.167750191603716910e-03
-4.715681374463061466e-03
-2.911401399851720837e-03
-5.076112058506360158e-03
5.071447096790113879e-03
-4.431446846318037478e-04
-8.940583879165036121e-03
-3.817108734106411231e-04
1.006293851908869087e-02
9.858623051888153882e-03
2.297621001021639062e-03
1.150304036363844311e-02
5.460237051089491742e-03
-3.327784906496179633e-03
-2.919814401319452673e-03
2.039501233743022755e-03
-3.340370269039041808e-05
-1.496158036100232649e-03
1.916956285501289969e-03
-5.576983403033896605e-04
-1.173677036289434922e-03
-1.120317145508112084e-03
-3.707856878376455598e-03
-4.086194951415102541e-03
-2.403478681984565733e-03
1.219800388138601741e-04
-3.124942095531295459e-03
-3.532662836943824790e-03
1.783822006764092119e-03
-4.247573217212940490e-03
-3.083548402525566889e-03
1.799253330423564862e-02
5.104879619289808337e-03
-7.166124550114716212e-03
1.421121183848188078e-02
8.930516341192793958e-03
-1.149040492959610416e-02
1.765450021543343070e-03
-8.919918995299190492e-04
-1.234949213543703669e-02
-7.307732490061108824e-03
-3.389126451578777202e-04
1.211262821446475180e-02
2.524575712873786733e-03
5.358206574304103312e-03
-1.370497413542326719e-03
9.533565606249242569e-03
1.353831817525153088e-02
-3.789719821802677979e-03
2.305049889717997614e-03
6.789269820509239231e-03
-2.730996755896272733e-04
1.000115127828741287e-03
-3.792939439010258647e-03
-4.982321608917776937e-04
-4.505034336466795172e-03
-1.118498085535156623e-02
2.619627647591526217e-03
-4.798634609947101046e-03
1.874093696570145384e-03
-2.174712688064322184e-03
-6.184681203188186795e-03
-3.385230374350572165e-03
-3.903741334202333844e-03
-5.842869794241521177e-03
4.891880012462307588e-03
-9.189174228657506598e-04
-4.274453695990347926e-03
-8.121143009535773368e-04
-1.264786404469769475e-03
-1.513250684613749860e-03
-4.048863580932290322e-04
-4.617204192941068257e-03
-5.546796028269185275e-03
-6.608787991238389628e-03
-8.761470011176383105e-03
8.848793122978556355e-04
-2.446075476355237185e-03
-7.537237088076428546e-03
4.886816062038753248e-04
-6.591212301188201922e-04
-4.075181992284721173e-03
-7.138407501264992013e-04
1.679650824942694430e-03
-3.659287721793270769e-03
-8.382069155717972175e-03
-6.161255459963738135e-03
-1.112946541620434861e-02
-3.060627728339337418e-03
3.424984770003805350e-03
2.825214099652346642e-03
1.708773833999121736e-03
1.576682645530706750e-02
5.038217631043245652e-03
-2.231177704502046639e-04
-3.384232506760172492e-03
-1.302450601990815405e-03
-3.808089728957242404e-03
-3.345204444715976343e-03
2.873082255242831104e-03
-4.890024398315622432e-03
-6.538472960551603569e-03
5.189383883791293291e-03
-2.513382456763069194e-04
3.224913109772911506e-03
6.726359236502268621e-03
-1.095280802035612528e-03
-3.367945019832935434e-03
-2.139627410259702794e-03
-1.915171622471454607e-03
-3.493331377236779701e-03
-1.300525125238138078e-03
-8.298388399158506887e-03
-9.185778866424087336e-03
-1.567833645986487293e-02
-1.585564300400673157e-02
-6.699186640992725247e-03
-1.358080770182490057e-02
-9.921071909380168447e-03
-2.174331016575213257e-03
-7.247967306612293839e-03
-3.872174915135776982e-03
-4.716427499178612974e-03
3.571608370073860107e-04
-1.946558239335339016e-03
9.963097730327932864e-04
2.454005772735109829e-03
-4.744817445649788037e-03
4.427797960010183137e-03
-2.464385812279196956e-03
-2.155016658026728121e-02
-5.550697844918278841e-03
-2.359972684180674466e-03
-1.014643383298012916e-02
7.358270465920234774e-03
8.288376078373436290e-03
-1.203181321012840831e-02
2.948276783240466950e-03
2.159921408789489128e-02
-9.739128308982248532e-04
-5.093516951307336914e-03
9.914578447333159076e-04
-9.847480658921174169e-04
-3.534583365919873824e-03
1.121487987369437951e-03
-1.161800808884050178e-03
5.360813854676162605e-04
3.613054509511849036e-03
-4.031186164594625226e-03
-1.499968457419448200e-03
3.813940771686829493e-03
-4.786991699896400373e-03
3.672495316724910634e-03
5.216150365795184200e-03
2.947460004274663793e-03
6.981101453543327867e-03
4.171152432255741636e-03
-3.043087662280874114e-03
-9.931790772667763775e-04
-3.360885532139646671e-03
-4.137094312879161830e-03
-2.960895592753336712e-03
-2.907880166180877492e-03
-1.361010704964036103e-03
-1.844209521557216985e-03
-3.056453190242490806e-03
2.211359879994969670e-03
3.752774377896874337e-03
-2.505886179349032183e-04
-6.976252236625441958e-03
2.915908824360121439e-03
6.869195412518875644e-03
-8.679453884585750303e-03
5.099767378566362344e-04
1.313641621706497205e-03
-2.438659748744709602e-03
-2.687082665476076947e-03
-5.454568878184086998e-03
6.036844210377802396e-03
6.718533041342655485e-03
3.799793890840069341e-03
4.422961409400467080e-03
3.393778153253659401e-03
-1.012060624106922609e-02
-1.967634778216660607e-03
5.751354332346639980e-03
2.884932180267659515e-03
2.590430026063543587e-03
-7.848141913447688467e-03
3.660554352610121114e-03
-7.418015462440405439e-03
-1.134860303680588003e-02
6.499660027835207216e-03
-7.670451619750538221e-03
-2.279511742739853686e-03
4.153013289403121905e-04
-5.415537847473913743e-03
9.656745849010051497e-04
4.275801272432837655e-03
-5.792739515176568814e-03
-5.000842918037168988e-03
-2.441604071660690833e-03
2.913615233026297085e-03
1.613943064896668396e-03
2.045188406110680021e-02
-1.378094526644048313e-03
5.288241252469407308e-03
8.675213837926343957e-03
-2.676707375797552987e-05
3.375637822934649153e-03
1.989685633271631466e-03
2.152105109183133098e-03
-1.364139520574934178e-03
-5.050082795220088572e-03
-6.722933989698014895e-03
-2.325304404990289828e-03
-3.790559360540970979e-03
-9.364838902603023901e-03
-7.075709473741973073e-03
-7.854476650820460884e-03
-1.102469525654432543e-03
-3.138709580866196665e-03
-3.423152311451740752e-03
-1.351570089872815208e-03
-2.606341481967028653e-03
-4.359202578568336858e-03
-1.289964650175969214e-04
-1.196835619367060720e-03
-2.891430985913426809e-03
-9.110288659295142158e-03
-1.314396355553381322e-02
-4.294220459442620735e-03
-5.380327094054000552e-03
-2.888836173938470059e-03
1.387990119482903359e-03
-1.204773119709704257e-02
-1.571466105675935199e-02
-7.107637476324529281e-03
-1.157787449558647305e-02
-5.121992197447584882e-03
-1.708564048270081164e-03
-9.071929734562160508e-03
8.686690106860201844e-04
-6.037010455672514250e-03
-7.864586937582773371e-03
-3.406641976665163423e-03
-4.030338907324792184e-03
-5.873366108178905594e-03
4.757201532639409973e-03
9.171068136952762601e-03
-2.836338680623463719e-03
1.364193253429117798e-02
4.852962582703520579e-03
-1.998221339599745572e-03
1.483732724235743358e-02
-2.165207613339187320e-03
5.031476384342690490e-03
6.062689020551370080e-03
-1.514879769755284218e-02
3.293397858929348753e-04
7.382860519940860101e-03
-6.719822827754125955e-03
4.616900993189285325e-03
5.090662480014926383e-03
-7.248957455671153471e-04
-8.941751752360385316e-03
-2.522890500154180513e-03
1.156733968958945091e-02
-5.549786662374408056e-03
2.136798667405759159e-04
4.532559807405469980e-03
-7.675001001404746850e-03
-6.138194664743394473e-04
2.747210224085150105e-03
-9.362767763306408236e-04
-1.127911725348200228e-03
-1.734669507316428244e-02
3.084539343228687083e-03
1.166056371770962316e-02
1.827120296905126572e-04
-8.411978267525108480e-03
-8.746261535376250243e-03
-1.465112459583785276e-02
4.045965173383419926e-03
1.894667739257094828e-03
-4.290139137457450909e-04
1.775580099412167601e-02
3.274810051692072892e-03
3.352897643639820343e-03
8.273131780670513885e-03
6.786246926900399434e-05
-2.544265488921722534e-03
3.611779170608133164e-04
-2.312816018869342936e-06
1.599464386149212960e-03
4.882843393228341808e-03
-1.750682491596326296e-03
-8.542934040212857207e-04
6.303958243922446608e-03
7.151143869950550395e-03
2.130758619608969992e-03
-4.492683498536115087e-03
7.673987696751265360e-03
2.436058207793538512e-03
5.304077897990271476e-03
7.772887418397318553e-03
-2.209610049312598148e-02
-8.330555676218806549e-03
1.077264522372226897e-02
-8.277844834775588412e-03
7.530450717653023110e-03
-3.128498953193863206e-03
5.185514524556881664e-04
-1.793638989327876404e-05
-1.154711317873287520e-02
-1.381248635289070506e-02
-1.308763509773103184e-02
-5.058716863347574415e-03
-1.643770142567305961e-03
-4.136601514326981345e-03
-1.280769068774489103e-03
-1.856811508629550248e-03
-3.426684232320101244e-03
2.480128252133058635e-03
4.098811385995190619e-03
-4.017385826022912450e-03
-6.855845519531404177e-03
-3.428746663529850733e-03
-1.095521026486470824e-02
-6.095341575543376626e-03
-7.299776465242767930e-03
-1.118917597619918658e-02
3.574058311149139622e-03
-6.542592875194474036e-04
-9.140401223677234108e-03
-9.925323039059222655e-03
-1.493533676003251827e-02
4.158031522370629791e-03
-5.345701959475814349e-03
-7.531765638769766409e-03
9.256199977441785173e-03
4.098972485602209691e-03
-9.866747301111856300e-03
-3.870688800947694620e-03
-8.246419130476338993e-04
-1.525556379030472941e-02
-5.629755398996243339e-03
-1.780470481831600152e-03
-4.833570860719674928e-03
-2.468804374719352993e-04
5.935492370634754336e-03
1.090871976819861311e-02
-4.076317012243257931e-03
-9.216042041126745049e-03
-9.540546721160739208e-03
-3.276195429148002700e-03
-5.557508954224825090e-03
-7.168197866433047988e-03
-4.453935876471211593e-03
-5.816942059331664007e-03
-6.523948861214699281e-03
-1.252460582497722311e-03
3.215448606816128903e-04
-2.682791557761867417e-03
-7.361130478722469235e-03
-1.956102302540304802e-03
4.996965840271216236e-03
-3.757860494359723316e-03
1.584958890452431868e-03
1.017048141277122376e-02
-6.005201991373298933e-04
7.156858551956262263e-03
2.695410367274736745e-03
-2.818314524099685674e-03
-7.810309234236894509e-04
-4.285802312287195250e-03
-3.734741513286230765e-04
2.213718781980288184e-03
7.250077434388740860e-03
-1.289459462391111038e-03
-4.740273605505403338e-03
-1.037263371202985958e-03
-4.599525589137013078e-04
4.368106993210793196e-03
4.108482903926102478e-03
1.702734973668723574e-03
-5.231065933218920563e-03
3.076582526766086061e-03
-1.079696295211727240e-03
-2.560645400316377118e-03
7.351482512208309516e-04
-6.127871623586065609e-03
-9.256966091174913258e-03
-1.040636963219240428e-03
-4.072256075097796697e-03
2.355741345608134297e-03
2.885252796193174801e-03
-3.391370169324188673e-03
-3.496697052810428773e-03
-2.961844378399583629e-04
1.110588371906057539e-02
1.528700888988836042e-02
-1.103985920235480388e-02
8.662597007524124731e-03
1.702728640514639125e-02
1.950992238838574963e-02
3.904798970934404397e-04
8.708908196765210259e-04
5.323986167854114458e-03
-1.047036714376908470e-02
-8.552408834545026026e-03
1.162350487076349928e-02
4.793430934311563446e-03
9.392175962207692866e-03
2.908913064029805713e-03
2.602934640891831682e-03
1.075332989540956317e-02
-1.675896649948189522e-03
-7.815137076759745907e-03
-6.045836695444243604e-04
1.075470181491306604e-03
-8.866704668106272988e-03
3.480754920691849115e-03
1.283904296703897510e-02
-1.083729920630199448e-02
1.279791249574987371e-03
1.298210891780219971e-02
-1.024038446175548622e-02
-3.031791148702292493e-03
-3.999234074540103205e-03
-9.955545571371494928e-03
-8.892026489924305041e-03
-6.092142869958346724e-03
1.936405706749641867e-02
-4.336002453034585799e-03
-6.048513645740470797e-03
-2.615617115642883059e-03
4.140674791196060495e-03
1.604462971280878284e-03
-1.246486595009327694e-02
-3.691030215808877371e-03
1.105385338369903152e-02
4.944639909188373698e-03
-6.834108809582308507e-03
1.473199775469428985e-02
5.968885153257714841e-03
8.730254235417686873e-03
1.010485810027129429e-02
1.358242143242798872e-03
-2.029434078373378633e-03
6.154474690435922032e-03
5.477356020249254595e-03
-8.384016501345743343e-04
6.892347373814019726e-03
4.110611228917936816e-03
8.139363074314233740e-03
1.698936559835465682e-02
5.486768320707656986e-04
7.138020616244035964e-03
6.140121739620618344e-03
1.271752952111955375e-03
2.012827629773905353e-03
-3.280396450112315135e-03
-7.742522832196427167e-03
-1.117852958395712006e-02
-1.141177916392160582e-02
-2.519855301444160313e-04
-1.070786324731356522e-02
8.735251043800577181e-03
8.464012801985948929e-04
-1.500152147223937117e-02
5.012808934833956447e-03
1.882360514350064516e-03
2.872260909188586574e-03
-2.293989515095096535e-03
-8.249395665603327307e-04
3.786777676518528549e-03
2.106905420867356219e-03
1.494289895217500543e-04
8.693999833884564696e-03
-4.785027854786961556e-03
-2.762286628948844042e-03
-2.125927830805422834e-03
-5.667122063909937370e-03
-6.154524927647671978e-03
-7.896935335181817089e-03
-1.257902821960675196e-02
-3.216208544079228199e-03
-5.396558615500266290e-03
-4.166959259220365253e-03
-4.819824480086294834e-04
-1.322468404174947237e-03
1.641295369877033379e-03
-5.222880141809133937e-03
-6.830903137216882103e-03
-2.594979310219165756e-03
-5.316645385678059853e-03
-6.738330309452540690e-03
-3.943271614837848098e-03
5.059433552802364981e-03
1.987162873640246734e-03
-4.738625357061928092e-04
-4.474233729534234441e-03
-8.701251934237760411e-04
-1.089679571209644336e-02
-5.024603196803715133e-04
-5.139996457423653617e-03
-1.135418220065137485e-02
1.188045467163099077e-02
1.971536230088492825e-03
9.011310263756977437e-04
1.648039625845030068e-02
5.611238907234800686e-04
-7.367938930813723065e-03
3.303653229035676420e-03
-7.364606588907244254e-03
-2.259635336096381397e-02
4.397196759503272691e-04
4.838280555171198759e-04
1.879499325722345496e-04
4.896154720199117141e-03
5.315136833976682670e-03
5.901989102674129462e-03
4.728331752374557301e-03
1.078340135424827283e-03
8.876917648490792109e-03
-6.872156679574869392e-03
-4.397288801251941597e-03
-9.831301231715836378e-03
-1.154950089155922996e-02
8.887872410768502549e-06
2.342507896527830022e-03
-8.970919366092166072e-03
-1.536327227788079203e-02
8.444255403698133419e-04
-1.111995012435996674e-02
-3.904348182011946940e-03
-1.047173148674359483e-02
-3.480990586509657026e-03
-4.057533820518981096e-04
-1.011537346636481524e-02
-8.999706185517411874e-03
-1.561509975816867402e-03
-1.548756003684089062e-02
1.712546107568051895e-02
1.426420678074891320e-02
-2.043787567444522394e-03
1.148895069791261089e-02
-8.661722425335829229e-03
-1.042258585783845115e-02
-2.239860893040293392e-03
-1.476013597583213099e-02
-8.293975629053552609e-03
-5.499164352706723165e-03
-1.602972899696680081e-02
-1.004865342544096485e-02
-1.207583795323966674e-02
-1.728845373559540974e-02
-7.073044883079555346e-03
-9.405568672028111546e-03
-9.227355751720791102e-03
2.410636732404013594e-03
-2.409324464665684416e-03
-7.308441386171858969e-03
-1.878864542668174124e-03
1.752361143251329658e-03
-6.898950158205360101e-04
-2.788110529392579147e-04
-2.172720294886658007e-03
3.677116840596377466e-03
-2.605276144441577308e-03
-4.307536613508693331e-03
-4.901366651499462768e-03
1.969934021870926519e-03
-7.162467658248621027e-03
-1.943593395820630582e-04
1.445823096636116370e-03
5.478726419618321596e-03
8.104228783184501406e-03
9.156416143847250855e-04
-5.957578909916373851e-03
-1.980556213806858312e-02
-8.715357825622426294e-03
-1.626494141656176923e-02
-1.405639230109294834e-02
-7.304961562165172492e-03
9.211989623995678333e-03
8.008681015391552749e-03
1.081977130136841866e-02
-7.191695488625577184e-03
-1.035980244071097595e-02
-4.155700202974347418e-03
-6.717593644372845882e-03
-3.390968194334644144e-03
-3.001087420811595578e-03
3.941997383845556938e-03
1.718603620851440108e-03
1.114933548427948047e-03
2.884532604088573850e-03
4.178333143378953028e-03
-3.553287855030713357e-03
2.760728198872944641e-03
4.754243388520239754e-04
-5.021933088999255140e-03
2.227926684552090659e-03
-7.865640781797229083e-04
-2.635983101867315093e-03
-3.508951183220244269e-03
-4.115859043940959736e-03
-1.421293432360065494e-02
-8.674485368399277238e-03
9.351656428821056646e-03
-8.175776799576045181e-03
5.328682042194507820e-03
1.523179162670991287e-02
2.382539598128636388e-03
-9.835378519705107597e-03
-5.032526322770985994e-03
8.286326295890312902e-05
-1.446406117420324933e-02
7.718772831504858286e-04
-9.998948548717885923e-03
-1.228037158413119653e-02
1.064848178651456485e-02
3.336888732979909501e-03
-1.016418573548627871e-02
-1.420702427447560930e-02
-1.418766608260258605e-02
-1.149282613996181930e-02
-6.099921025685999670e-03
-1.227482306351213200e-02
1.300001156859806155e-02
2.005854345945917022e-02
1.589009466691044918e-03
-1.265285646715585922e-03
4.757609999381876183e-03
5.145976479807919113e-03
-2.823555035304861193e-03
4.230506640803653393e-03
-4.582946158666010086e-03
3.535641137310809815e-03
4.191466585879049730e-03
-8.002253164148266998e-03
7.677030911681225790e-03
-1.689809122309541309e-04
-2.672597417138895988e-03
5.065125249474914000e-03
-2.327684151270993131e-03
-6.289562911666217622e-03
-9.349543056973942581e-04
-4.891248518215986565e-03
-8.170590166300187307e-03
4.190467762458310701e-03
3.629351299665425565e-03
2.561288441834150536e-03
-5.737014584755738104e-03
-3.802455095537872042e-03
-1.521912467260463009e-03
-9.423109532766116639e-03
-1.020234251257716787e-02
-3.387533404399919665e-03
-1.550631466449847555e-02
-1.220750789104766906e-02
-1.811420727057910796e-02
7.563317726957063947e-03
8.554167066841802600e-03
-8.072376058493659383e-04
-4.826384562847648232e-03
7.696960193000668485e-03
3.261394404186868795e-03
2.568633839866308298e-03
-5.723132607800582132e-03
1.118480349403011770e-03
-1.105947456885651844e-03
5.829307160645965920e-05
-7.111680169612352373e-04
2.195712431355269483e-03
9.706377792608496605e-03
4.828497575857533704e-03
-6.547566518882799898e-03
-9.023312830736880674e-03
-4.105402885989858512e-05
-1.724237634439784120e-03
-6.908880440200616466e-03
2.143135600887669922e-03
-1.220901446914430090e-03
1.575217199042582830e-03
9.304097398714114564e-03
-3.575977312298537440e-03
-5.473707183908755811e-03
-1.554553198501310712e-02
-1.968974311707907387e-03
-1.799980996268209276e-03
-1.209360039596520803e-02
-8.027959186563004071e-03
-6.453401889180468073e-03
-6.354354202496134002e-03
-6.044200422274593337e-03
-2.528929038979096933e-03
6.178520373002356061e-04
-4.114990478433542577e-03
-5.055831006464121173e-05
6.066641384762872825e-03
-3.543764135613396409e-03
5.688928961018500235e-03
1.014146182984468521e-02
-1.194208496533021545e-02
-3.139105906835765441e-03
-4.536156116736055240e-03
4.287596567072446581e-03
-1.232692892011958558e-02
-2.029974038690373489e-02
1.179619071985271023e-02
-1.427699932788356954e-02
-1.507990049349848538e-02
-2.277642326391971037e-03
5.855663754952852504e-03
6.382070431055285320e-03
-1.409113240952906314e-03
8.055628407445449349e-03
5.337501005298431536e-03
-2.727206163403128950e-03
2.508855505094489177e-03
-2.411590701171404706e-03
1.328380247486124661e-02
6.262566151746757313e-03
5.334080568852777975e-03
1.193343519397871595e-02
8.099867654948847071e-03
-2.675327450760227235e-03
7.197629400426202272e-03
1.061262748848930057e-02
1.197934482877277117e-03
-3.556753863804168123e-03
-2.689859281933079920e-03
-2.579683694009114649e-03
-2.333912668434802787e-03
-3.492229547870975490e-03
-3.134695259062816181e-03
-2.121481927274942742e-03
-2.837132000617256268e-03
-4.433675075465904128e-03
-3.703931490623248342e-03
-1.182997703894004800e-03
-6.196848522615912812e-03
-6.442693648077555367e-03
8.549886856400786689e-03
1.022837579454272724e-03
3.645216390554374165e-03
8.096307989659202314e-03
3.831530778930673960e-03
-4.546755450740641406e-03
-1.336552406488780188e-02
7.325974173072260370e-03
-7.034361512358369532e-03
-4.824213597625637284e-03
-4.397290595438074594e-03
-3.066161295957599980e-03
2.856388820973716162e-03
-3.699618984831823084e-04
-2.640071154973390368e-03
8.210766299884771080e-03
1.032580763719487781e-02
-1.112783575183703966e-02
1.584366112976529767e-02
-4.133104761059939319e-03
-1.661612643947930554e-02
1.185697954025513590e-02
-1.054907400667315712e-02
4.278866775019376893e-03
1.098610975958579442e-02
1.675526988020942590e-02
3.148441954383477391e-04
1.236743087790608507e-02
1.646345375878795203e-02
-3.280651762799168219e-04
-6.081047084650512309e-03
9.629898993883789088e-03
-2.084015822136296801e-03
-1.701426531352082366e-03
-8.868500583080859284e-03
-2.419252055381740634e-03
4.597291573899551023e-03
7.330182436649306313e-03
7.235502875526547521e-03
1.817783628763148867e-03
1.700923441560138732e-03
-1.372873641455389388e-03
-3.580292150531936852e-03
-1.407151926380641009e-02
-7.926971984667931931e-03
-1.649793622209524231e-03
-1.116726927178080800e-03
-5.541709529662499321e-03
3.915010671368446098e-03
-1.859573632775170368e-03
-4.809120006774263286e-04
-4.448106611633872304e-03
-4.445507374181701375e-04
9.370638918117643254e-04
-1.299163899900425108e-03
4.148211628888704198e-04
-5.322763560394634663e-04
-1.148489045469161139e-03
-1.120372300739340453e-03
-8.512763351104407281e-03
-1.091773458195342827e-02
-5.057528306546784855e-03
-1.052688297431332923e-02
-3.493557963284509883e-03
3.116398866543829138e-03
-9.817045525788988675e-03
1.391275155339960923e-03
5.293002497898684731e-03
-1.017012933589202771e-03
-3.466231252535026484e-03
-5.311814001256713255e-03
-8.210545076734462183e-03
-2.831634434884394529e-03
4.399148834016948680e-03
-9.621722708253024892e-03
-1.262290324732497082e-02
-6.080903370341186887e-03
-7.877502684584234555e-03
-5.489320012227278875e-03
-1.076434799459939813e-02
-5.103006260157022869e-03
2.395814781333310568e-03
2.669505316755744432e-03
-2.038709123592538208e-03
9.617533104211772182e-03
1.333283578771440707e-02
5.862470179470389772e-03
8.727167158755710918e-03
2.357394886845886727e-03
-6.778298855701433848e-04
2.961862564715200818e-03
-6.546807578148162998e-03
2.758301562126854508e-03
-4.904072284189373195e-03
-7.822910265413820022e-03
-3.849830221566089093e-03
-1.117379903279649831e-04
-1.870785860763094074e-03
-1.253022276839259493e-02
9.757392425209317124e-04
-1.906021702828004764e-04
-2.514888276551090901e-03
-5.398802424679311970e-03
-5.785979359698583541e-03
7.579766646013980959e-03
-3.334554855656941775e-04
-2.657121485222388880e-03
6.486826141505985972e-03
7.273372941673240423e-03
-1.771998151649561287e-03
-5.616354849576982167e-03
9.721105728325784515e-04
-6.731711915641836255e-03
-4.937745748968889840e-03
2.655286391644642689e-03
-1.517726631010090808e-03
-2.623535935563432470e-03
1.636240447805264455e-04
-5.149089572168837406e-03
-8.449048571954827919e-03
6.155532721999079464e-03
6.435877534954895056e-03
7.296006599752299752e-03
2.319027562012186336e-03
6.475804814922709110e-03
3.696260806645015689e-04
-3.636704233279345212e-04
-1.417388386239647365e-03
-6.188114603934735322e-03
-1.652321271634952377e-03
-6.253648328986855659e-03
-5.886265931908370684e-03
6.167972890977038540e-03
1.403991288087175476e-03
-7.763516065893268092e-03
4.190598020371631705e-03
4.034759139409796816e-03
-6.439617515950995380e-03
-3.295557143525097796e-03
-9.203667650450842938e-03
-1.598751538560856666e-02
-6.495045308185350141e-03
-1.042061207367255514e-02
-9.842911769025483246e-03
6.215401663170659619e-03
1.150100134908090162e-02
4.747867927512063914e-03
7.862765419099053063e-03
7.054552565434748027e-03
6.637770123857334413e-05
-2.102482841756616368e-03
-6.671898773659020419e-03
-4.724628731612816150e-03
-5.218741492654082725e-04
-2.514927389808809931e-03
-1.250009730669285335e-02
-1.392125258672060814e-02
-6.007929155391813526e-03
1.239393872210405988e-03
-4.848444619619702266e-03
-3.020560261178576421e-03
-2.189730076529030050e-03
-7.072790288067155873e-03
1.191670979083856580e-02
7.113711188315919275e-03
-1.353491138360250409e-02
8.580815036976835106e-03
-3.288119703744271129e-03
-9.614346988475205510e-03
-7.400191220756582693e-03
-5.107428928977069543e-03
-4.402866387686374503e-04
-2.113196196290011500e-03
-8.133348424137584742e-03
1.667356192599748696e-02
1.401761652978586632e-02
8.481609461912717474e-03
1.380553206654984606e-02
8.145755759509293314e-03
1.457741695704954134e-02
-5.937223150552905365e-03
1.193265005812652654e-03
6.838986663424522806e-03
-1.351152237316107646e-02
-1.112379470640767476e-02
-1.129858611375766063e-03
-9.863966543306717377e-04
1.397425481872055378e-03
2.121197010516880782e-03
-2.531411295495338172e-03
3.843281801014606681e-03
5.042383940227821056e-03
-2.094743261030842813e-03
-1.553744738229378692e-04
-8.974193217530679334e-03
-9.710729591076255190e-03
-4.624763434307265983e-03
-3.545624168378403059e-03
5.268950356262169614e-03
-1.585308240115436765e-03
6.199992116141106588e-04
3.938900439159844294e-03
-4.388328097443439969e-03
1.492764478166464827e-02
3.255828479962305684e-03
4.353727756107154262e-03
4.457428843948353300e-03
1.045619114354487920e-03
2.952067743773052321e-03
-6.501700841649026529e-03
-6.058533278205197221e-03
-1.216857584612832631e-02
-1.231561478235925627e-02
3.146109512409416779e-03
1.988360134047393799e-02
-5.213903290325426661e-03
2.117170318576584633e-03
7.885095680302871279e-03
-3.522552549464060163e-03
1.688896186579032579e-02
8.354325591527629949e-03
6.152942455477578183e-03
2.013437114803588810e-03
-4.371679664888433216e-03
6.339574953055416434e-03
-1.429725389514908843e-04
3.981722279617467240e-03
1.221933624255397421e-02
5.998623070752536444e-03
7.283286537737451716e-03
3.543869633758069734e-03
2.278539240040303865e-02
6.333352356705850179e-03
4.784845386057144830e-03
1.699819299413340978e-02
-4.853591063126160856e-04
9.643689826183344388e-03
4.919923918682317403e-05
-6.728865977596255356e-03
-1.562960288236338313e-02
-7.090990332790752561e-03
1.431473572716328822e-02
-2.651194032491846399e-03
1.195852921950318459e-03
-7.325733752130317951e-04
-3.599471462047412404e-03
1.102914977307729839e-04
-6.241318143618903268e-03
-6.474312949152376782e-03
-2.855913182229620571e-03
-1.624786794131164065e-03
-1.137834450531651116e-02
-2.817763043627428098e-03
-5.839724205339348086e-03
4.208831257538705323e-03
6.759690633632376225e-03
2.087181215023017206e-03
-1.649351526393686568e-02
-6.374853212389098266e-03
5.477777327242646689e-03
-5.570159650758838184e-03
-7.646564803571657791e-03
2.387203896670007843e-03
6.616930238791641876e-03
-1.263811872831863093e-03
6.327074729481638529e-03
-1.157752467166861879e-02
8.200291808652723086e-03
2.194624106442904024e-02
-7.487777523700537945e-03
-7.814097553353221634e-03
6.241495305839545212e-03
-7.593246731027577558e-03
-5.722824453670824485e-03
-6.336116960155482175e-03
-1.392868991464577769e-03
-2.221854315796796802e-03
-1.242878524771476485e-03
-3.850030582598498253e-04
-1.754430857206033118e-03
-2.074652170699788252e-03
3.538598605107873100e-03
1.405338177549815895e-03
3.046912378637778394e-03
1.688579045633500182e-03
3.410633237088776717e-03
-1.319766563401496024e-03
-5.725666610926123678e-05
-5.762542708206620790e-03
-2.004613307348461235e-05
2.923383966198234152e-03
-2.894099361503533942e-03
-5.840607737244001571e-04
-1.022129475104053588e-02
-5.954599428510330174e-03
-6.277791838986370408e-03
4.508221696541984437e-03
-3.386827739993811151e-05
-1.932433147268164397e-02
-1.197451281047946098e-02
-7.276629083511777091e-03
-7.493464662921648159e-03
2.325616567176237801e-03
-3.672630454354151603e-03
-2.893904290318633594e-04
-5.513262503834217730e-04
-6.057779457205025690e-03
-1.084231068070793703e-02
-3.538831062167221986e-03
-6.820860878979647518e-03
-6.007279282637713498e-03
-9.977797726046717160e-04
8.637719832455937816e-03
4.925144980565434845e-04
6.802069076887394018e-03
3.835485483524714431e-04
3.741234032445538843e-03
5.910342861135365125e-03
-2.093370530318680676e-03
-5.458223019471085229e-03
-2.933899034165907962e-04
-4.284067956828394204e-03
-1.016419106792951915e-02
1.843972685061345687e-03
-5.278428533667611777e-03
-5.126123133628658277e-03
5.858188237004123425e-04
3.911259007697562361e-04
2.102311736051791936e-03
-5.023367642308255998e-03
1.527218288324784859e-02
3.962026366647600738e-03
-8.933417341586990384e-03
2.633957812886342145e-03
1.621675610952590454e-02
-6.077973146509377950e-03
-4.750945747811650754e-05
-4.652107299176803067e-03
1.116293925099401743e-02
-9.210397820374685227e-03
-1.010287291673177962e-02
1.644675650152491869e-02
-6.677647225128250340e-03
-1.822590623427855494e-02
4.196951226028976766e-03
4.382093387313568469e-03
-8.160619247963473571e-03
-5.124532156971570510e-03
-3.169269865489594655e-03
-4.942187123733497202e-03
-3.978646630992441202e-03
1.172667603317965315e-03
-2.258235590259038625e-03
1.403833437643122860e-03
-5.853328405644697393e-04
-5.021848446530109526e-03
-5.764282729883177248e-03
1.251142481234966859e-02
1.123000552192808185e-02
2.836817223151815327e-03
-3.999195735343217400e-03
1.464713094073442738e-02
8.263349150729808537e-03
-4.626915866176170393e-03
-1.624852745642947974e-02
-7.923206150938244888e-03
-5.563344953564358999e-03
-4.725137530962338246e-03
-1.585618513561677786e-03
-8.875304572184744556e-03
-7.187213869151263569e-03
3.658571703967082762e-04
-4.073145659640187329e-03
-2.101994039198700533e-03
-9.444666682279070696e-04
-1.256155411904245033e-02
-2.334231435765274105e-03
1.018520492023955275e-02
3.990534342110422898e-03
-9.459865286438214754e-03
7.648424293887006765e-03
1.044418434971944136e-02
-6.303459484947756403e-03
-1.134655706555776078e-02
-3.605404670355774784e-03
-4.167006303711794438e-03
-3.662680826967581842e-03
-4.195372545170597198e-03
4.398122788682679897e-03
1.018799556806783239e-02
3.730822647969668764e-03
6.773418204304456833e-03
9.205929294501154214e-03
1.748047343763527378e-03
-9.809083084154254437e-03
6.863875903004037181e-03
1.840367191329529001e-02
-5.436791276164439253e-03
-7.415193596176195695e-03
1.266634423273006391e-02
1.213847396305537361e-02
-5.931407558234646528e-03
-5.426849624431085047e-03
-3.558495201329941061e-03
-2.794419979932757144e-03
-6.137611758067449373e-03
4.236904596175194819e-03
8.370374108912235003e-03
-3.915784360100254852e-05
-1.590353226861282009e-03
-1.771895626914805899e-02
4.131778840414755162e-03
-4.358045463592735008e-03
-5.512560978670122055e-03
6.342005983098615270e-04
6.723529330324238239e-03
4.039692613024196619e-03
-3.304064718893507877e-03
2.942648824221843085e-03
-7.216753196270539981e-03
-1.059500229043367110e-02
-3.544745507504980069e-03
5.122391857199252128e-03
5.749198111101240689e-03
9.005899579532830948e-03
4.437122071312971962e-03
2.815969862602660505e-03
1.639184163674328384e-02
-2.898348723073075617e-03
-2.571629578440723461e-03
4.704790642652468169e-04
2.200443342420399591e-05
6.847473141368765406e-05
-6.214862273520177244e-04
2.758768145420866305e-03
8.177017689453253135e-03
1.670254317732690558e-03
-5.813243104901536298e-03
-8.501197253174176335e-03
-4.728200347956604613e-03
1.890052353833863497e-04
-1.497708786825346569e-03
-2.306708287315146697e-03
8.538107911618610102e-03
3.962286738493204716e-03
2.746642992460275514e-03
-9.791095659920691103e-04
9.810324627504828521e-04
8.370579814301422252e-04
-3.157856871897388173e-03
-1.700786115198993928e-03
1.051978290799986983e-02
-4.014463960308557733e-03
-5.371148825488818862e-03
4.712988949520427115e-03
-8.097240387366129097e-03
-1.107807763614133446e-02
-4.520172548247923874e-03
-1.131063937593868203e-02
-1.013976695923201297e-02
-1.266658682551537358e-02
-1.078582976318550983e-02
-1.408534354112225828e-02
-1.407548430447213249e-02
2.893423757212388280e-03
-5.349128379279189521e-03
-1.290480546351538763e-02
2.831326816710024591e-03
-7.222221005028220051e-03
-3.786220538249181634e-03
4.723005206843235854e-03
4.703233396362104836e-03
5.048490119140460614e-03
2.639969461497666727e-03
-1.563640604169199300e-04
5.853009877994395449e-04
8.066316453616721033e-03
7.969651536642590947e-03
3.138948425876855503e-04
4.294990281588394361e-03
1.670708431487658669e-03
1.410789287283575151e-03
6.365320645201931644e-03
7.515731523583753064e-03
7.579327388412340771e-03
-5.214564819818531946e-04
5.478567581548768502e-03
2.041668690666870737e-05
-1.846100356716072304e-03
3.754287850527431069e-04
-3.655523509003712375e-03
-1.186365787715908462e-02
-4.277282171376822328e-04
5.209285768186956017e-03
2.183735512049628843e-03
-1.350232810967932819e-03
3.327064342694803977e-04
5.041553128596674808e-03
6.199831656556888115e-03
-4.171150320195111949e-03
9.799764198009491541e-06
-5.348566095727483143e-03
-1.611460793096598917e-03
-4.006171939515314716e-03
-7.549908693047951633e-03
-1.939841698308328137e-03
-1.415195752605521691e-03
-3.141744390807279467e-03
-2.429630217791415008e-03
1.569190495691223566e-03
-6.705975416074836347e-03
-9.859869052961794944e-03
1.802910366799263071e-03
-5.302313122656966303e-04
-4.077308784459334270e-03
5.185968115213684081e-04
4.753514738944312340e-03
1.145319819542917929e-02
-5.158455933286728440e-03
8.595625664059075490e-04
7.452489079888286599e-04
2.087457746575342374e-03
-3.671145321261613456e-03
4.123332457499900329e-03
3.245934835068737916e-03
3.765101174693483502e-03
7.064306893024775019e-03
5.959120626926972183e-03
1.242719925584093730e-03
-7.873755937884889620e-04
3.229905267540183946e-03
3.470060493836631382e-04
-4.915436118210314391e-04
-3.315039051558851466e-03
-5.202529392956617774e-03
-2.171475271462696907e-03
-1.225744495431992098e-02
-7.567452637730833973e-03
-6.111245743971364074e-03
-5.408833288454614405e-03
3.660552490675086576e-03
9.846009195426792121e-03
-1.417018023205864020e-03
5.678233573498567624e-03
2.726220501604298060e-02
1.333602826295735531e-03
-3.899201149310979088e-03
-4.566256537165934437e-03
-1.267873740087059001e-03
-1.795658005634573210e-03
1.980212460972833981e-03
-1.994190624030535864e-03
7.648811777705735683e-04
1.402578435377746036e-03
-5.530666376107499366e-03
-1.839217201831492080e-02
-1.323335668215515869e-02
-2.347033023814220232e-03
-1.208246493834820752e-02
-9.646605236917016324e-03
-4.664520572609810387e-03
-7.474756771347601178e-03
-7.719316884451296427e-03
3.916438862142267358e-04
2.152086458495361138e-04
-1.553537694697390342e-03
9.380882558802704305e-04
-8.187506005750765743e-05
-6.417228024083487293e-05
2.527506769416562691e-03
7.060526765719423326e-04
2.288755424245518446e-03
2.322497920609462093e-06
-8.025213592450792643e-04
1.369650452598454625e-03
1.075897341257610329e-02
-1.497673810262806866e-03
5.633130756085530204e-03
-2.284837052284427830e-04
-8.158851477660104129e-03
-3.910026436956854528e-04
2.713611160029738047e-03
6.410428779717113057e-03
-4.540620295339085205e-03
-7.008177901200491819e-03
9.889804171871900695e-03
2.084195870569568315e-02
-5.494489477758910528e-03
-8.489223803784124930e-03
1.567077279907950690e-02
6.847757938652342807e-03
-2.002371982635411159e-03
-7.880139119008510926e-03
-4.066169123149206664e-03
1.568339427029333093e-03
-4.387184678775690738e-03
-4.245555521363143445e-03
1.282246598283272483e-02
1.658473862534515231e-02
2.061120478062722708e-02
1.694804607910447083e-02
3.370132537740632046e-03
3.275619053221432049e-03
1.003501240366498626e-02
1.439347359818158884e-03
-1.376151440766449838e-02
-6.991528226634418156e-03
-3.849709064078241181e-03
-7.863863635505807283e-04
1.593443958641803035e-02
2.546490319504876761e-03
1.434615471229068332e-03
5.917761880220373701e-03
2.051550857319991549e-03
3.373234900682091971e-03
-1.421837311661443195e-03
-9.265281447181228022e-03
-9.917404418303112090e-03
-7.605471247334480954e-03
-2.047169565153507485e-03
-8.140826501392651803e-06
-9.012707464190188034e-03
3.217628909487379226e-03
1.044044576227458679e-02
-8.174597909499500478e-03
-2.278040798788010456e-04
-3.191708535014721026e-04
-2.553477656359586651e-03
-1.259459658567727578e-03
-1.078279403018029018e-03
-2.625374016112958821e-03
-1.569902821219049767e-03
-7.600823767741923082e-05
-2.128909625649178308e-03
-2.404893563183518445e-03
-3.722270089171380095e-03
3.393535430507646933e-03
6.979536998184074240e-05
-1.050594415271400087e-02
2.663856210559766707e-03
8.953588433207230676e-03
-1.704301716672692191e-03
3.469445537741813138e-03
4.534866193862850496e-03
-7.444604648206252790e-05
1.113907975208040455e-02
6.167860752163478906e-03
7.685341100230793331e-03
2.464303207030521786e-03
6.504115288693512222e-03
1.132554886266875713e-02
-7.997070004644262192e-04
3.700303810939840725e-03
-5.319390159307847308e-04
-2.784153652649747328e-03
2.880601565392635049e-03
-2.878702030651765758e-03
-8.776668007271918800e-03
-1.018300663082197851e-04
-2.095047577566720633e-03
-1.423648117260288299e-03
-9.408940740656051649e-04
-9.883104789330163925e-03
2.089308596599707794e-03
1.322389556352804958e-03
1.561859374951029070e-03
-7.279406937063023948e-03
-2.976332167824437009e-03
3.039728142844306050e-03
-7.958293707985125351e-03
-4.669441882962773946e-03
-7.306862624779702706e-03
3.673385981336895791e-03
1.258173916805582077e-02
-4.983310588670233562e-03
-8.130287506465329675e-03
3.847218167883316529e-03
-2.796296750830073227e-03
-8.930839876322786350e-03
-2.954433516485789266e-03
-4.323148325266378683e-03
2.657758325198047392e-03
-1.216190576756529494e-03
-6.175872295818637600e-03
-1.598242809486017215e-03
4.758638597657065803e-04
1.930959146858240083e-03
-5.565554043345662463e-03
9.665706095571378539e-03
-3.191316232572174658e-03
-5.121343723439157093e-04
5.370579895559432276e-04
-9.743784583523559459e-03
-4.419534426696844660e-03
-2.024462049651235256e-03
-5.022762655779957307e-03
-9.380555058542535893e-03
-4.606233501952915373e-03
2.693186675260456683e-03
-1.797678504449214099e-04
-3.926292283211923161e-03
6.587250839262765410e-03
3.257080145799892863e-03
-5.313568597098163732e-03
5.507043155920402118e-03
8.510441533729484753e-03
4.029178043534848916e-03
-1.665542783675244163e-03
1.558882462388273826e-02
1.420797652032889866e-02
-6.598536222403520411e-03
-6.537536598856081085e-03
-7.575793343240581890e-05
-5.037067820619503013e-03
4.631076166284803231e-03
7.336087744394168518e-03
2.902493238034719019e-04
-1.780268816595462558e-02
-1.032668386951653659e-02
-4.024965901680313887e-03
-1.628495957568097327e-02
-2.934295490594504650e-03
8.679284450711165872e-04
1.981885021915940053e-03
6.621462569890898520e-05
1.276365218674471030e-02
-7.293807477422274699e-03
-1.100305000170359593e-02
5.618447246196565242e-03
-1.448529496742160909e-03
7.200878987820249664e-05
3.984971490151923736e-03
1.160416003022017584e-03
8.406306919040535189e-03
-8.920281773059635794e-03
1.801436034070454800e-02
1.955420142951869514e-02
-1.025014734118605449e-02
-4.616987673357617408e-04
-2.461262489242041062e-03
-4.376693371608221701e-03
-6.750032924438292836e-03
-1.643570507087849242e-02
-6.371908867076973501e-03
7.056342870970027173e-03
-5.926526126147762044e-03
-4.385352438608828424e-03
8.312457407651541522e-03
7.639047750415872175e-03
-3.645367677749628173e-03
-5.444496587968004203e-03
1.143353654865809053e-02
-8.005183570196803752e-03
-7.042284120582958766e-03
7.045690389143825089e-03
-4.854925169581776959e-03
-8.983643685393895642e-03
-6.120463771334836746e-03
9.380760597772281467e-03
2.237870507490269736e-03
-6.507131581044020389e-03
-2.317706879259021600e-03
-8.057390036073946993e-03
-4.075178288094093333e-03
4.560990279811391948e-03
-1.238290862578036305e-03
-6.517110618651822049e-03
1.607604448455204720e-04
-2.940241173907357387e-03
-4.195495170838788035e-03
-9.447783168773100926e-03
-6.301950757214455807e-03
-5.486311940821200252e-03
-6.195587113611164543e-03
-8.885547304826992357e-03
-1.314804876304128366e-02
1.111285646894499173e-03
-8.202453210674174461e-03
-1.182499922138487841e-02
5.355336262191508559e-03
-2.705169429579259207e-03
-2.435208522578020257e-03
1.148861441585232596e-02
-1.668087598609095407e-03
-2.038353477480216950e-03
1.167437734881220275e-02
3.494439407165915792e-03
6.587856324269388691e-03
-3.302015142176517679e-03
-7.644720101446646036e-03
-1.441106489830543992e-02
-1.235245907723784772e-02
1.479234764665905526e-03
-6.453123780656224405e-03
-9.876107815227817832e-03
-4.474353583639893717e-03
-1.436140814906568470e-03
2.443410152634818439e-03
-2.595282042689612233e-03
2.321390135609691444e-03
-7.833501819148661754e-03
-7.917478468813287165e-04
-1.662622531482208605e-03
1.809711605078940383e-03
2.021838225902716432e-03
-1.074190318846234395e-03
1.679094000046744278e-02
1.251303057719709184e-02
-7.013337484193272846e-03
2.332654914979639775e-03
6.553442045281465678e-03
-5.631650275457368050e-03
-6.344741465992154682e-03
3.133771229983221742e-03
-7.733646973207140146e-03
-1.535450740958073162e-03
7.313971091867626194e-03
-1.596536352016743841e-03
1.291855200031095160e-03
-2.105533401472603570e-03
-4.471510761746827663e-03
-6.142571118932628818e-03
2.376987915697921895e-04
6.194295390109107180e-03
-5.769161669578431843e-03
-8.924027339201053705e-03
3.351676045402321273e-03
1.831357694065758029e-03
-1.505786212699254971e-03
-7.722072306477874293e-03
-4.949184928633052968e-03
1.903244582730936700e-04
-7.820971403309050565e-03
-6.164683748295625779e-03
-8.044241581164054749e-04
-6.307661645500946095e-03
-9.771162479725228195e-03
-1.361422321850875791e-02
-6.910082681445744784e-04
3.670594548526321700e-03
-1.029199882836728981e-02
-1.544327101372794039e-02
1.111280372087745895e-03
-7.404307343778164519e-03
-1.230720748570046826e-02
7.446893661222961369e-03
-9.164954546515585720e-03
-1.624896802648629485e-02
2.036109459877048430e-02
3.537874150017620428e-02
8.105608183814869833e-03
-8.153555056210496157e-03
-6.919877778357855225e-03
-1.293510133695121439e-02
-4.534439291181871501e-03
-1.026927180081572966e-02
-1.002462779617619391e-02
-8.800100590950387302e-04
-2.260094546079693354e-05
-3.497081000085895241e-03
7.971360085600507836e-03
2.014934844524079310e-02
5.358464669006374886e-03
-5.084345473370746778e-03
1.133797545019492184e-03
-5.034547784416553741e-03
9.563865784343414389e-03
7.860945231586955601e-03
-3.830362831017583222e-03
-2.870104695880954914e-03
-1.287161401539246158e-02
-9.941214061884518643e-03
2.051683974385241915e-02
8.231215980157857715e-03
1.580279263415478724e-02
1.188340072930201344e-02
-2.624128716092322469e-03
-9.619912347631317390e-03
-1.968026138715606600e-03
-4.381561682188171367e-03
-3.415883528924414016e-03
-6.042140018877794824e-04
-7.320858334720887692e-03
-5.852638535676329967e-03
2.187360801391493269e-03
-5.832017512416198986e-03
-7.123939072238737701e-03
1.360628639624851142e-03
8.108315068542053597e-03
3.429900712923841539e-03
-4.634993538004339442e-03
-5.192773047875378495e-03
2.622546995602769836e-03
2.143402799490038389e-03
1.817877385588807489e-03
6.893926838800444774e-03
-6.341050319777869100e-03
-2.434523021154768110e-03
-6.181504369094939499e-03
2.106922846325925416e-04
-2.114443627922167092e-03
-9.151369327217204197e-03
-2.420090401201603798e-03
-6.124190333086466454e-04
-8.609225004451192750e-03
1.405314007193000404e-02
5.134624713267916911e-03
-2.182300384303405370e-03
-1.083653558652141087e-02
-1.050300138983810763e-02
-9.577567712723413645e-03
9.883736552533745057e-03
1.664854242990742444e-02
7.329949548881691500e-03
6.401259305406701954e-05
-8.894813739729492616e-03
2.560124770395080188e-03
7.871499441454800350e-03
6.709640175375356820e-03
2.419060982756319686e-02
-7.910038029939394158e-03
-6.889504995754781001e-03
1.361520889624469668e-02
-6.097953164002464094e-03
-5.667548615445982055e-03
-5.777832852041765374e-03
-8.114584503024857218e-03
-8.215454610177022263e-03
-4.783589798304512322e-03
-4.538656943727226428e-04
2.082412125055485563e-03
-3.212829279208920686e-03
-5.024271338131554299e-03
-4.074988895919184201e-03
1.908191871882502447e-03
-2.117608479891897044e-03
-1.161316236259277504e-02
4.945052075824982706e-03
-5.677996799446935992e-03
7.957378377936771482e-03
-1.199096921208669432e-03
9.766811992491122515e-03
1.396979487146864096e-02
1.131682933685256021e-02
3.237619578193011004e-03
6.071347121655319007e-03
6.970860094725977660e-03
-1.322405205974643396e-03
-6.008954930390912261e-03
-3.790958700570183984e-03
-4.744831296852658475e-03
-5.948409322713200768e-03
-6.236427582276015714e-03
7.066453298514308208e-03
8.465989500671939824e-03
6.360523199810205579e-03
-1.496008654674830466e-03
-1.682047566884891992e-03
-7.547417067821788825e-03
-1.917297195949544883e-02
-2.095385579133299259e-02
-2.149158028675423118e-02
-2.170643182907735277e-03
-6.484550686654264214e-03
-6.107191927468523518e-03
9.334583839338109895e-03
1.550364851195130261e-02
7.737019940778095545e-03
3.121455542096748109e-03
-7.995367486358342241e-03
-5.563633993667309145e-03
9.852942690014439633e-03
1.414520116304617860e-02
1.877514920014902375e-02
-2.048397777221844316e-04
2.293667858558276658e-03
8.644000682511549655e-03
-4.433375475174033617e-03
-3.135848452742349361e-03
-1.376722358368674941e-03
-5.711759386239229248e-03
-1.875102932328144567e-02
-2.213272837921697808e-02
1.714674507794920408e-02
1.357847677889905715e-02
4.479934940646046818e-03
-2.037410695587550322e-02
-1.839616719703536865e-02
-2.223454747834885392e-02
-3.856671154343054714e-03
-8.445182025079345581e-03
-1.361985105539780059e-03
7.623012906205818041e-03
6.938563325621975586e-03
1.595473415165447884e-02
7.485782981662672877e-03
2.932087498294299807e-03
-6.059314193613474751e-03
-1.776693995964490113e-03
1.974240443779028218e-03
-3.508353202611290238e-03
-1.219527863874731756e-02
-4.850716467822852214e-03
-5.199000354209550208e-03
8.325444352872558851e-03
5.676328202248959350e-03
2.525424681118153703e-03
-2.625615295499797355e-03
-2.058333166916003019e-03
-2.182365894582379007e-03
6.599738317238688457e-05
-1.541986993579826614e-04
-8.647489054474363291e-05
-4.603531269069414435e-03
-1.899082173744525022e-04
-2.905736643680017616e-03
-1.250224972751246347e-02
-9.616671906878156151e-03
-4.370289882802954294e-03
8.412441398639038115e-03
3.775665174766264925e-03
1.081736868988440389e-02
5.932828559532243688e-03
1.157393682324436152e-02
7.091417149345156067e-03
1.403195102415865335e-02
2.156379075549099897e-02
7.933673735452837980e-03
3.867358803609917753e-03
-3.759599635520904318e-03
3.889939491276754764e-03
7.271577874615452750e-04
1.433512150889289412e-03
7.760653429020558831e-03
7.072641500251186132e-04
1.217230690510753138e-02
1.195252374898328820e-02
-8.091124163488973980e-03
-2.518428788034056485e-03
-4.195035171932458458e-03
1.146519117113905389e-02
1.951828369491764165e-02
1.388226426967618422e-02
2.579949894158205161e-03
4.657970310896355527e-03
1.139394602155921867e-03
5.822766453174702678e-03
5.915158522377256256e-05
9.198075737284205911e-03
-2.359560717560935279e-03
-5.231823221246231434e-03
-3.620987746446552996e-03
3.622557977441024594e-03
4.846251085637932714e-03
5.158270295715729203e-03
-3.628859864708181698e-03
-1.451870247543587044e-03
6.925580800890149963e-03
9.805367311293115146e-03
8.889368928481397591e-03
1.016470469665848100e-03
5.711036757469629618e-03
4.024835435757642688e-03
-2.216400298639890475e-03
4.075913497918110841e-03
1.513238946523330283e-02
7.257353678134468092e-03
-5.959310031564295012e-04
3.228596696292429990e-04
-8.600580469607944575e-03
-9.995786946250653782e-03
-2.916776637462713088e-03
5.254818941726626877e-03
-1.234206298551612790e-02
-1.875724171342902161e-02
-1.194793057136184569e-02
-2.652280397883062784e-03
4.672526493314167056e-03
3.750105079611714895e-03
8.130858465742398400e-05
1.333247257929794571e-03
3.708309723196740468e-04
-4.198630577612610590e-03
-3.375756568137326403e-03
-9.162060604745671157e-04
6.805445632467562074e-03
1.194401749122119688e-02
3.053844298084093002e-03
-8.119545546058993743e-03
1.115004298856739438e-03
2.021680266615400422e-03
-7.007011690214866653e-03
3.145413558182741029e-03
-2.991343863681813608e-03
-1.821673555077752207e-03
-8.849398184513400725e-03
-1.989992239180628925e-02
-1.301485979924626264e-03
-9.708945856008469044e-03
-1.204309523714064759e-02
2.575694447221134158e-03
-3.420808289342504825e-03
-3.521648362551386101e-03
-2.974843134613980138e-03
-2.973552682903247806e-03
-1.800469288764669582e-03
2.411785713528661560e-03
2.267603334255630966e-03
-2.047697925872318716e-03
2.726365871589096919e-04
6.554167956194130451e-03
-2.054575698884174816e-03
-1.747868142853582069e-04
9.719760897571674135e-03
-1.663759717406663053e-03
-7.053234332067911602e-03
-9.514891106063216517e-03
-3.045446081889785581e-03
-9.909534298823402879e-03
-1.948742331426892016e-02
-1.742138029301305152e-02
6.258819801909497674e-03
3.295018676779105232e-03
3.204131529862137818e-04
1.095881142929076325e-02
5.138839543832024633e-03
-4.104213333724375176e-03
1.069878460329781560e-02
8.556369295674519024e-03
-1.364030840374554087e-04
5.199765917408138462e-03
7.010038668243619197e-04
-4.568971069434357365e-03
1.485055456972522551e-02
4.284765306537709336e-04
3.541450608109392509e-03
-4.450826808782294350e-03
-1.392034368149769503e-02
2.478075262466765492e-03
1.678823533936988016e-04
