8.114854376177918494e-02
1.666327087725102130e-01
1.274619076493189174e-01
3.397346846159660649e-01
-1.881911826989915715e-01
-5.804933490066507829e-02
-4.260529329064124959e-02
2.486165479688984270e-01
-2.299312731825067235e-01
-3.411549447820551029e-01
-6.385686981286392561e-02
-1.625516752820781730e-01
-4.263096473397959829e-01
-4.553495505020668799e-02
1.550033122038911582e-01
4.329783347115657155e-01
4.218315795082655528e-02
2.122500498837416594e-01
-3.238159526312722747e-02
1.085659512602050181e-01
3.598786179630403259e-02
2.453133398435974888e-02
1.155130461049948820e-01
1.045902643483042349e-01
9.685398416119372911e-03
2.279295272853880117e-01
-1.420169970801857529e-01
-1.773371473535878540e-02
-3.916419395062182840e-01
-5.032172927344902291e-02
-4.087463373355082474e-03
-9.991372602012180137e-02
4.857757108639626509e-02
-6.544832737914549892e-01
-2.062218617427711287e-01
-4.899876256031937549e-02
2.258123283603877263e-02
-7.490022032314641587e-02
-2.162453778200348342e-01
1.344131941439556388e-01
6.139024756310731967e-02
2.641224141381146029e-01
7.254394791925700137e-02
-1.701630465557151251e-01
-2.372818459630023913e-01
-2.916790486423448403e-02
3.759057445876691217e-01
-6.594322987264666924e-01
-1.509186660989914053e-02
4.059104805311367636e-01
2.286012008296368914e-01
2.845456388481254484e-01
8.693412887142987211e-02
-4.187231354357662250e-01
1.941719507028456804e-01
2.273565574088224905e-01
-2.982243729642852781e-01
1.233355661139412529e-02
1.252808427888470466e-01
7.675217284075053215e-03
7.377859997752611587e-02
-1.699552235920785415e-01
1.221419487614884836e-01
-2.447704396555322182e-01
