5.969055746604250146e-02
4.098315589523984781e-02
-2.751696632563291334e-02
3.003656750262276298e-02
-3.094587086525405276e-02
-1.159967018929764226e-01
7.487054294596010018e-02
1.416671261258065362e-01
1.580250065463698617e-01
9.684080018765750530e-03
6.496309983569902025e-02
-1.222502153364682723e-02
-7.620236014291967286e-02
2.166778590902300183e-01
1.899388579349455264e-01
-9.211221575485863122e-02
2.291200138844060041e-02
9.988122092243229000e-02
1.144150803857492821e-01
-1.705398927465204273e-01
-9.849091862249821638e-02
1.018923145053609175e-01
1.667869247273221223e-01
4.360131789711452210e-02
-1.851261944645749002e-02
1.039693078719595709e-01
1.977663484223182444e-01
-1.890665120919424735e-01
2.348081697533018763e-01
-2.646435934406192181e-01
-1.994100387333713753e-02
1.049706506454168575e-01
7.627751040376121172e-02
-1.243658254442393946e-01
1.848378581433946302e-02
1.212863199575076323e-01
-1.002394103275837944e-01
1.667641155493277405e-01
-3.349368058332421322e-02
7.933412610676654486e-02
-3.979145604337597231e-03
-2.082830642193487028e-02
-9.210691407102171435e-02
1.306963508614385761e-01
-6.245606512200765209e-02
7.559043829687905891e-02
-3.275952444489957371e-04
8.382905228390236108e-02
1.959481850250029134e-01
1.313933502529930908e-01
1.559299349987310901e-01
3.522909753609995004e-02
4.778071565983872671e-02
-1.117096784313379859e-01
9.315945458422689174e-02
-6.576812675579811474e-02
-1.731524862682586596e-01
-3.535406622992682824e-01
1.515508957284864011e-02
-1.381860015429090538e-01
1.283657577713231968e-03
3.777602382948277437e-01
1.764273627646043008e-01
1.117430098109259973e-01
