2.454086039258696061e-02
2.042064482682962381e-02
2.807440231490482274e-02
1.935387169867908153e-03
2.002750697001807190e-01
-5.053132264869869550e-02
-6.161609574074897178e-03
-9.041822411001730619e-02
1.976361829866830622e-01
2.650228730401715804e-04
1.781871075677882721e-01
2.792387576404600780e-01
-8.935311226441283727e-03
2.306186468719580163e-01
-5.907410986288440941e-02
-2.414036570552108296e-02
4.554327809999126481e-02
-5.828941823081060930e-02
2.022862976232679688e-02
2.126456436335569244e-02
-2.673435617784239438e-01
-7.531942857975225392e-02
3.072128272393407911e-01
4.908970398206183305e-02
-1.265492823343326856e-02
-5.096627836234336739e-02
1.122302569068571731e-01
-1.261041957065075214e-01
4.079025371303791891e-02
1.598882974033233872e-01
1.283185465093923117e-01
7.839142778259830524e-02
-1.046299930900793373e-01
8.661139654892194284e-02
-1.742364740526863853e-02
-3.465633559581710044e-03
7.616967452968038954e-02
1.497133236262174205e-01
-8.510536255277802165e-02
-1.167575483927486835e-01
-1.112955459769867511e-02
-3.709616326481649656e-02
1.888227592406942212e-02
6.171542217395871444e-02
1.186243413034161476e-01
4.170536271750568957e-03
-9.174160719401446007e-02
-6.903860345522906672e-02
3.565021634956762331e-02
2.190535583377597739e-01
-5.376325168309979696e-02
1.680487537880223647e-01
-1.545074583905418908e-01
-4.803035664181966313e-02
1.026526649294451643e-01
-1.848913142987964053e-01
-7.404402244316414528e-02
-1.393557452086798265e-01
1.513626002549963157e-01
-1.760378473498517560e-01
-1.651590870513454101e-01
2.657749337803619327e-03
-2.595657383165602128e-01
1.994556262901149846e-01
