1.836979874713715044e-01
2.506752745156546891e-01
-2.510445226666807583e-02
-3.063668356708690865e-01
-2.936754746621680900e-02
-6.226444993279677265e-01
-1.952680724377611199e-01
-2.181059764997667072e-01
-6.319125557226057399e-02
-2.150508553130027201e-01
-3.379475117326157796e-01
2.047746826692744548e-01
-3.032984299065933920e-01
-2.436924323307519402e-01
-6.493088490651226230e-02
-2.496910313895772671e-02
4.720734105843266137e-02
3.150539122002238290e-02
1.124937698959014021e-01
-4.904220159061833950e-02
-4.181475766336284483e-01
-2.029044541278126057e-01
-1.305247147779959316e-01
-8.702110387746012088e-02
-3.450578494288288334e-01
-2.710081809837927569e-02
-2.417997845615866281e-01
-5.377425959486080709e-01
-2.699001560142905154e-02
8.090622497366556365e-03
-1.418728719848096342e-01
-3.308354142279804067e-01
-4.045229966415195832e-01
-4.633201572655010203e-03
-7.365034931991043532e-01
2.085305352373201249e-02
-3.835166329006989283e-01
-4.870898639398607566e-01
-2.493081863901038531e-01
-4.660595110854969803e-01
-7.837363952373835319e-02
-3.571002288941511060e-01
-1.163541397358264229e-02
2.732267993624862279e-02
-1.587928182264686239e-01
-1.711763860528247583e-01
-2.850312610693680471e-01
-4.842463346913329914e-01
-2.540883087228307247e-02
-1.233641469032473736e-01
-1.348551713023757037e-01
-1.380794395681990694e-01
-2.751591657105678101e-01
-2.958157772208019898e-02
7.375826803514229368e-03
-4.813571091903957044e-01
-2.120436187555410079e-01
1.623536003215110823e-01
1.855688410929626220e-02
-4.347063766240194527e-02
-2.719545852559385191e-01
-4.592062646672699366e-01
-2.218407918085385511e-02
4.194913342002531964e-02
