-2.033254920684784972e-02
1.650710507616375833e-01
-6.560132227324788623e-02
9.582925947485979035e-02
-8.335832066787153549e-03
5.660549201493349225e-02
3.347564395759404510e-02
-6.505959481857696847e-02
-3.031160170000302828e-02
-7.165372925400700921e-02
-1.231620764815168079e-01
2.792378829456391154e-01
-1.363608474673224102e-01
1.014205490285113170e-02
-1.016215353461304982e-01
-4.250993009588044380e-02
1.823466911468525631e-01
1.978479458471399666e-01
2.273435302229490640e-01
-2.099087269575099224e-02
-1.076055206517473328e-02
-6.935306014203153346e-02
-7.097572470306358350e-02
-8.793954132621617514e-02
2.694723785628870549e-02
3.321737615757838769e-02
1.600906042406290315e-03
-1.366739883580152526e-01
2.741708085336723444e-02
7.560934038979855165e-02
1.040907818110929639e-02
-7.145715147253643706e-02
5.420479369530736835e-02
-2.458150810567945321e-01
4.661645435037583413e-02
1.251730128762083283e-01
1.566537930585575403e-02
5.811072632572600316e-02
8.040315795680012811e-02
-6.411608627706477659e-02
-4.116761205931851464e-02
-1.280042687623800524e-01
-1.267020827766153768e-01
3.471661229691139910e-02
-1.416831348328090323e-02
-2.387473826284795819e-02
4.308908980347181394e-02
1.204603441355201476e-01
-7.415684783012624348e-02
2.923406500870395219e-01
-1.016562486508136298e-01
2.283324082616587092e-01
5.662247873642947682e-02
-5.576919402028291534e-02
2.568045849354360158e-02
-1.229328010317519426e-02
-9.045400020343558056e-02
-1.533649725329954971e-01
2.903979651873225265e-01
-1.785617235426917304e-02
-2.088756812311762523e-01
-8.350549356653039212e-03
3.189454616455431740e-02
4.008524531503355331e-02
