8.392810285555384331e-01
-6.981456955202731685e-01
8.560916617027581887e-01
2.437876461962658614e-01
-4.710177006186064275e-01
-5.723245373800934788e-01
-6.002369705374326764e-02
-2.889256085171041932e-01
1.128114741000175447e-01
-5.879657772155363338e-01
5.418673106807907480e-01
4.799702871426575479e-02
8.746823066351321341e-01
-2.861284330381406726e-01
-4.391606974567976995e-01
7.341222996366336684e-01
4.068907167718247564e-01
-7.152552155239375598e-01
1.595052325165699225e-01
3.104223123508705884e-01
-2.078232665282709335e-01
-4.843771914149859470e-02
-1.715307405474481572e-01
-1.212871748670145411e-01
-2.056837377348112728e-01
1.410918464704912223e-01
-3.280399629312320542e-01
6.227676691695356315e-01
9.693984510095987606e-01
9.525409125124734144e-02
-6.868386743892331003e-02
-4.011560608324827859e-01
-3.133882985017150680e-01
3.231392068076420765e-01
1.028777916966852279e+00
2.243569371761947873e-01
-1.670847332623351389e-01
-6.725270823581259716e-01
-4.283451641058600989e-01
2.151249588314265715e-01
-5.205617426639654044e-02
-4.368518972664669486e-01
-8.708438321961249340e-01
8.353709937360621618e-01
2.482962826562087888e-01
4.850860299884885984e-01
9.312654893295049252e-01
1.455699401450355035e+00
2.936543207589468185e-01
4.553722540316694767e-01
-7.492900984911124995e-01
-5.538600765079814137e-01
1.180986012222951409e+00
-2.143060676125639052e-01
4.429016247739007150e-01
-1.328612809102274750e-01
4.821599159194013273e-01
-5.459164410546372137e-01
5.365461910603593898e-01
-1.565424663743109623e-01
6.489548411106960124e-01
-4.910623274795286597e-01
6.801291842928824938e-02
4.263105025687924376e-01
