-1.180672934259722889e-01
-6.171186289671448666e-03
7.167352449472363940e-03
-1.618128768365682812e-02
6.764543415441104379e-02
4.899619195884272194e-02
1.178516317628534316e-01
3.038549924262640145e-01
4.194399637150339477e-02
7.801329486180508255e-03
-7.887282616701263294e-02
-4.980421300650299254e-02
-2.039949303382604939e-01
8.493025752245163262e-02
3.308401769940921833e-02
-1.187579935452955093e-02
9.435363687381612130e-03
-1.058334826564534259e-01
1.176782145772428678e-02
-4.917227795070476803e-01
1.970438597262124114e-01
1.091970067997345695e-01
-2.509074921561248450e-01
-6.853901788937521999e-03
-9.081696764307931047e-02
7.704983434642566353e-02
-1.820930852325253757e-01
-8.454673793882996891e-02
1.287879532425249551e-01
-7.873505848744785651e-03
-1.237181414822777076e-01
-1.719980572844020117e-01
-9.460584186942103124e-02
-2.082963049850187209e-01
3.513849067356972222e-02
-4.145917560037656879e-02
-1.019771833935553262e-01
-9.056073774165240842e-02
7.008820648689600974e-03
-6.058357948005385629e-02
1.118463873238526168e-01
-1.052522599278456622e-01
-1.245070396522269252e-01
3.820090065198344931e-03
1.582834710105940346e-01
2.206349533884414960e-02
-2.526418503902652657e-02
6.271675672600565687e-02
-1.143676713539206191e-01
3.496183587602091913e-02
2.619404486653947872e-02
9.047646200647942172e-02
1.919189906366512988e-01
-1.369785533666700861e-02
1.612562958107240929e-01
-1.140694166923259256e-01
2.959691824541258454e-01
-3.197487727376174260e-01
2.056391505752666604e-02
2.111141896431303899e-02
8.910208844603390022e-02
2.081077459888019954e-02
-1.117862543368328410e-01
-4.017273772702870810e-02
