1.109915002621251062e-01
1.199735861267566400e-01
1.003800688270517494e-01
3.145699919679412204e-02
6.460654449825263823e-01
-5.870986470003703994e-01
3.729487042928663065e-01
2.652191085952992355e-01
-2.297928503445862691e-01
-4.174174242518784439e-01
2.251314827115170059e-01
-2.160374140434783152e-01
1.352164281134830282e-01
-4.893942241948234795e-01
-7.263401462416420040e-01
3.131283403205281646e-02
-4.299518823828508696e-01
-3.417763163552610672e-01
4.938328558604752616e-01
9.424907462902289979e-01
-1.354475158344517483e-01
-5.405226856245348710e-01
4.952535362442152533e-01
5.046832847222598728e-03
-3.597886749671387330e-01
-7.684706030852447856e-02
-1.116900696851947095e-01
-7.185919462083439901e-02
1.884283347801733455e-01
2.930290214297214257e-01
2.630397036303352420e-01
5.174785452230196148e-01
7.433114094738021427e-01
1.171178938374008716e-01
-5.872628457773876320e-02
5.993827739357062701e-01
6.014153654003594474e-01
-1.956827505147576973e-01
-4.396929639175859439e-01
-1.446665210644218158e+00
-5.748285566359422061e-02
-4.833050576228654083e-01
4.556206201630400576e-01
2.637218820761783045e-02
9.189370833524914683e-01
7.776777568663431062e-01
5.509618308883287296e-01
1.950111664119808796e-01
-1.098611035930701973e+00
1.074588691403554286e+00
3.930419676817136221e-01
7.480023670853472861e-01
9.125654590411952372e-01
1.488246059366371554e-01
1.424615483586049614e+00
1.156263465027314030e-01
3.199311149161813139e-01
1.089964356137443358e-01
3.674562944931992758e-01
-6.951711263143443009e-01
-5.125950947934082569e-03
7.684532164160340351e-01
8.744830778739523525e-02
2.975128787471085778e-01
