-8.787835409250677188e-02
-1.848639033285093269e-02
1.766528797941427364e-01
1.249220198492891898e-01
2.247540099744816389e-01
-1.036308402248863614e-01
-3.006387320241621364e-01
-3.435709941311781979e-02
-4.184197233580104758e-01
-7.587001294153725151e-02
-1.013864129063517527e-01
-1.316311293598565468e-02
-1.935323367486770918e-01
-3.808887344558973265e-01
-1.786580035985744219e-01
-1.860724643307462567e-02
-2.590112432136038589e-01
-3.694909059754800662e-01
-3.001792605330078079e-02
-7.544258202984988060e-01
-1.493699155201896334e-01
-7.127831401966776559e-01
7.453381683891624476e-02
-1.494210690768886240e-01
-8.837920906024698819e-03
-1.671926129414163242e-01
-6.494706627095983564e-02
-3.086223755108748468e-01
-1.411291191427494485e-01
-4.043733531852955476e-02
3.635550755199060124e-02
-4.103357002350431215e-01
-5.470921327860633898e-01
-5.239992671703453953e-01
-1.490199211896411080e-01
9.476643526866615486e-02
-3.822314679897351741e-01
-4.347724536059124900e-02
2.142920330020728348e-02
9.077023407015696876e-02
-4.904615586370003610e-02
3.066939019573036163e-01
-2.655618050756297088e-01
1.946983225515402927e-01
-9.055584760356616414e-03
-3.375209147349235717e-01
-1.877274671940508677e-01
1.268010151073767355e-02
-2.291087398643635309e-01
-7.344374290060889932e-02
-7.267477259716603744e-01
7.838129523714598701e-02
-6.611924599938021063e-02
3.167420102639967316e-01
-7.873440732452974267e-02
4.203653298126622251e-02
-1.367617134587545691e-01
-6.406084197147299264e-02
-1.240492417657521607e-01
1.157265734931862411e-01
-4.480679640509308004e-01
2.792887679061112349e-02
-1.498588345143776757e-01
2.599714989242791763e-01
