-3.313506132786132041e-01
-1.945590703017896772e-01
8.695176987479294461e-02
-1.711585439752152660e-01
-2.860225973760450180e-01
-1.008691597768993087e-01
-1.106339871701037536e-01
-2.648364538078051833e-01
-3.678976180628994452e-01
6.065395615112922911e-02
-6.354314758595371870e-01
1.934803885020003333e-02
-2.750595089044455821e-01
-6.856555987093999605e-01
-1.973340077676081494e-01
-9.004962122807363967e-02
6.892658118904615439e-02
-5.230901241332800433e-01
2.000160811852958187e-01
-2.969599297966975526e-01
-3.591218957408338075e-01
6.323754844837325972e-03
4.786338774826415232e-02
2.831407783988609816e-01
-5.249425111168041225e-01
-1.460151922169556915e-01
-5.693758646211491414e-02
1.015392139119924153e-01
-5.313668900162157871e-02
-1.170758805129969993e-01
-2.235771456141643632e-01
5.202546504882166190e-02
-9.853778469969839970e-02
-6.788674879343286062e-01
1.273975639825254691e-01
1.839444188797024204e-01
3.366124934210096287e-01
-8.656204099909262095e-02
-5.599851353019771327e-01
-4.319476655941617560e-02
1.709039748332028819e-01
-1.829508482868244246e-01
1.654663651702699134e-01
-3.978111697093611454e-01
3.922191274207913469e-01
-6.983106967765224660e-01
1.698169898587014726e-01
1.030051838610869241e-01
1.351222940077067280e-01
-3.137080581870802520e-01
-5.485246640898719939e-01
-1.019120940897285110e-01
-3.101684604756164143e-01
1.108893990775536853e-01
-1.585895775023928866e-01
-2.634436131915757207e-01
-2.348021154277726841e-01
-6.151807106591500318e-01
4.983951325288826784e-02
9.717839915161086140e-02
-1.284239308427727877e-01
3.894895594110031611e-02
3.819056493583464218e-02
-7.670376839812562131e-02
