-8.660265109764456182e-02
-2.860607858464879749e-01
1.823190543869870894e-02
-7.230514444326473222e-02
1.826817450682902966e-01
1.271857966269181184e-01
-1.276065055654522218e-01
2.970381868689758731e-02
-8.499293110788366801e-02
7.758957411267816684e-02
-1.477462823566162986e-01
-5.396372062579696260e-02
-2.170844508110377769e-01
-3.339954493906026334e-02
2.282876432754666896e-01
1.416106412129373993e-01
8.780995791231650804e-02
-1.611618855957119567e-01
1.991367873758233820e-01
-1.085078326010955468e-01
-2.199555058058293155e-02
-9.096953513385241941e-02
7.466122881816530943e-02
-6.715332588132194580e-02
2.989894149308854054e-02
1.474548519305562966e-02
1.219762533098391333e-01
-3.535158180286004370e-01
2.906642142360502667e-01
-2.157053203623824633e-01
-2.159769855422090101e-01
-7.670764459193615825e-02
6.600056400367354525e-02
-2.936988836726113217e-01
-1.589664415405672715e-01
3.419475043251860025e-02
4.937949325733714812e-03
-7.566476932444507475e-02
1.343843720173009681e-01
-6.182212920481659768e-02
-2.031031423728604235e-01
4.194405465795281174e-02
1.375594732333185188e-02
2.548875618465327175e-01
3.027470305185520072e-04
5.328520380370752041e-02
-1.152784811917728081e-01
-1.136355142800224427e-01
-3.001796656501731775e-02
-8.265741163149789572e-02
-8.452108947199996059e-02
1.238002800138436610e-01
-2.749878722216702043e-01
2.071840896674135291e-01
2.147420627773322099e-01
2.498449278779615867e-02
-9.381109440282114909e-02
-3.276281891111888500e-01
-6.171007175880247053e-03
-1.129855711275481456e-01
-1.262441281693746920e-01
1.292900471842696741e-01
1.049405564159257287e-02
-3.387709763598760748e-01
