-1.211456223593924408e-01
-8.325176983883851578e-02
1.129097433716541588e-02
-3.446034711188483701e-03
1.007400700892035622e-01
2.424179568862291911e-01
-5.154653299445974973e-02
5.155931006005330663e-02
1.055271015583274241e-01
-1.063389016930199604e-02
-1.345541017095967518e-01
4.955660490248246092e-02
-3.450797416721999855e-02
3.642814436966540503e-02
4.655214673293685268e-02
3.005085187245200018e-01
6.032719628257050826e-02
3.284209967593923474e-02
1.061428959475750056e-01
2.647470959943490354e-02
2.232211135312788253e-01
1.039927024438160735e-01
1.853135729725723102e-01
-3.104888842668701576e-02
-7.120040142155290019e-02
-1.121755541940138434e-01
1.904615687398381052e-01
-6.894496869127264560e-02
2.775982081790731582e-02
1.202447316563772794e-01
-6.254812113576435628e-02
1.169292093693210383e-01
-7.814289749347666514e-02
-8.229540476701241447e-03
-1.214777932717312492e-01
1.391217246379647943e-01
1.998447499424969853e-02
9.495715028826348658e-02
-1.997914485900033343e-02
-2.790356214651479316e-02
-1.334206073158523270e-02
-9.542254368033929735e-03
1.348946508533699351e-02
1.436937764910289628e-01
-7.386421361353687209e-03
7.229972259931694012e-02
6.567776626582036426e-02
-4.452896347528485788e-02
-8.590917538467895964e-02
1.584846782582052527e-01
3.896024903709591897e-02
-8.834081819660227763e-02
1.198741892370996653e-01
-9.478315983537047296e-02
-3.117825254137077118e-02
-2.101232069580320772e-01
-2.023714092443338330e-01
-1.303668154149171809e-01
7.065071847913355352e-02
-8.361745165183578909e-03
-2.091069399564833009e-01
1.364173998035123070e-01
4.335977133131198313e-02
5.701278904416028775e-02
