-3.248863947588215284e-02
3.284942439657775881e-02
-1.685988689634604354e-02
-2.642396566564134130e-02
-1.030233182489771609e-01
-2.025704494688277402e-01
-1.127899584073376871e-01
-2.347619894984049327e-01
-1.916661520414946196e-01
9.347156658158992104e-02
1.611064112689920003e-01
2.015728638797020800e-02
-9.225178526083377406e-02
-2.479147957765199528e-01
-2.605024154430344852e-01
-2.593215492648956455e-02
3.298096282404877622e-03
-1.798688392954437554e-01
-1.601828072433134631e-01
2.823632603423351095e-01
2.728853480519827790e-01
-7.146672913010965189e-03
7.742966261454325982e-02
-1.907377442712284710e-01
-9.949817036490520017e-02
-3.021962139042083106e-01
-4.646331821739002610e-01
5.096895513738036732e-02
-6.409499862967288353e-02
-1.377893275485931601e-01
-3.892554586373164760e-02
-1.349599496539193033e-01
-4.309646548706815017e-02
3.277774923760168324e-02
-2.414724405052846579e-01
-1.530480826842277597e-01
-7.228752115853701032e-02
7.899166844536642529e-02
-1.297386921621452860e-01
-1.479677157660339859e-01
-1.486937499017570996e-01
-5.201637136507329950e-01
-1.686323508337667088e-03
-1.433632511138794585e-01
-1.513927633197492684e-02
-2.164164746522526106e-01
-3.599551049000299097e-02
-1.619444589528260259e-01
-1.668628558498470582e-01
5.865144354986900899e-02
2.509830861083769959e-02
-1.108570080597021112e-02
-7.322273641863749627e-02
1.685479639432072019e-02
-3.544070076165575789e-02
-1.660305889175181238e-01
-2.013264683549160772e-01
-2.377709211124742206e-01
-1.981549119279117088e-01
-2.180432904812244499e-01
-4.072899237252658455e-02
1.424776561885762183e-01
-1.165437714980972622e-01
5.612844858267390658e-02
