-1.675951973892366165e-01
-4.666483488847306127e-01
1.068128127924863335e-01
1.037683058011766024e-01
4.444490560729405515e-02
-5.693638089614657671e-01
-7.751545539475201974e-02
-1.776880595570047849e-01
-1.409481109614418859e-03
-2.276445545199178855e-01
-4.061876822209711246e-01
-1.627742926816062863e-01
1.157563583385203820e-01
6.813534910400553812e-02
-3.705170349422652332e-01
-3.713272662046630535e-01
-2.333297497453523384e-01
-3.975606377991445228e-01
-1.526976844958859159e-01
-2.462020363164532655e-02
-2.678742501422043398e-02
-6.093312432551861724e-02
-2.741993513391609572e-01
-3.880957474505711824e-01
-3.487605317953533790e-01
-2.217276663628436895e-01
-3.580947674358278543e-01
-1.590913487907312240e-01
1.361256876941355498e-01
-2.768482968215978945e-01
-1.588415981386318010e-02
3.681223897739832607e-02
4.616908367751351716e-02
1.632184357596758728e-01
3.749306990044931620e-02
-3.251031436853107914e-01
-1.122500187479366363e-01
-2.651583787991314001e-01
3.073907336980694627e-01
-3.962797100292834163e-01
8.958878497485051051e-02
1.108170786208615421e-01
-1.090522187005302235e-01
-3.332784378255709834e-02
-5.413509309234654232e-02
2.912426868256690060e-02
5.294010801104856445e-02
-2.777819728457461834e-01
-2.817088375736769290e-01
-1.895102545808777239e-01
-2.285851230611103124e-01
-1.334680485649593074e-01
-2.403682089246578779e-01
-3.541767456745318898e-01
1.317841842164838850e-01
-8.960545371758132926e-02
-1.841687438214621997e-01
-3.733280396489588315e-02
-4.964311314235506645e-01
-2.205607664645950483e-02
1.006365153597274520e-01
-7.149357358824482978e-01
-9.051811127436532045e-02
1.403128342014591801e-01
