-2.413460093146159169e-01
-1.172318790777793496e-01
5.005060603557287546e-02
-4.596780799141067519e-02
-1.290283867916618143e-01
2.271851193940660762e-01
6.403296943539504849e-02
-4.172537869106510144e-01
-5.918490580166957393e-01
-3.073689181575168239e-01
-6.641535520401847803e-02
-1.219323811718070472e-02
1.567985119404989858e-01
-3.454291967518641204e-02
-4.520618990964232475e-01
-1.277575664932623922e-01
-3.506749132526019719e-01
-3.507257144025337503e-01
2.267927916286160972e-02
-4.095926286157280383e-01
-4.501784472376443302e-01
8.785688835352886694e-02
7.019656001729501771e-02
5.667419822947719621e-02
1.052282415848211916e-01
-5.861216516687867140e-02
-1.251186590863227754e-01
-5.672182874211903481e-02
-1.789841093594800314e-01
-5.098038431036584495e-01
-6.822395334908409881e-01
-2.845412758307098722e-01
-2.556431601808589194e-01
6.482137172844959494e-03
-3.557760380547600465e-02
-1.190710195835417706e-01
-2.240530395945604103e-01
-6.737264790211697219e-02
-1.329336326517737144e-01
-3.759020809151025766e-01
-5.799129764224523198e-01
-1.694857122130726812e-01
4.440189526917778795e-02
-3.855799036567455484e-01
1.692071467953035202e-01
-6.704029215244942108e-01
-1.093928292940467284e-01
-1.221564483509834098e-01
9.718900200768515463e-02
-1.112705426022469191e-01
7.749511451592416833e-04
-4.213367464271214335e-01
-1.887516825322726466e-01
5.611994120880536840e-03
-3.245666894455224716e-01
-7.010740440493830050e-01
-4.960690505239753745e-02
-1.049589525689669234e-01
-2.331692237203145390e-01
3.502198827233515832e-03
-9.141011202531115765e-02
6.204467553728548745e-02
5.158656248409326794e-02
1.542761206517057060e-02
