-1.623488525672448501e-01
-2.537252740259949083e-02
-1.224928073004931950e-01
-9.686264156878404696e-02
-2.651337192114593955e-01
-4.052210993125827665e-01
-3.253874931484809219e-01
-5.930252593540135120e-01
1.457073765543321076e-01
-6.347456607764535852e-02
-1.904621448880369772e-01
-1.625158189534436359e-01
-1.058114955761137455e-01
-4.114129665387920021e-01
-1.114614521721771501e-01
-7.097968865911608027e-02
-1.933867749622862897e-01
-2.953688907448009937e-01
-4.293237202105745220e-01
1.840791421373410008e-01
3.002112151271027485e-02
9.857174042654526236e-02
-5.762005769025310697e-02
-5.002579409487897810e-02
3.230058190777806981e-01
-2.491633036457670813e-01
-2.373517634595525561e-01
2.407261886039569476e-01
4.869373942615357054e-03
-1.852278587515218122e-01
-1.445884941445382266e-01
-1.515835829447083616e-01
-7.155351536408180446e-02
-1.357333211621011282e-01
-1.443658435280033014e-01
1.094549107752261219e-01
-2.430092698781411431e-01
-3.320171412171678549e-01
-5.295527432477542540e-02
-3.665680219587112432e-01
-1.762348517945978021e-01
-5.811593038736527772e-01
1.311903076303161386e-02
-1.746896564273610619e-01
-3.819672630124957835e-01
-9.911768999671029257e-02
-3.366618101174137512e-02
-1.225703343164199488e-01
-2.317311006188063349e-01
1.068995917505515258e-01
-1.283579602350828353e-01
-1.526815930540305066e-01
1.526527313657051743e-01
-3.681592752323514794e-02
1.508178921718037468e-01
-2.227052383611855257e-01
5.264913146476972727e-01
-1.921608414387180885e-01
-3.031655914907539495e-01
3.494670034476767828e-01
6.024871901714390354e-02
-7.121487210161064896e-03
-1.675566588593254969e-01
5.199905488693709610e-02
