1.902661735365070994e-01
-2.755773847330197923e-01
-1.335077309570339987e-01
-5.260366040353114947e-02
-9.704807795062100895e-02
-2.904961131852601408e-01
-2.556907242011495773e-01
-7.334578757693888118e-02
-1.247231641205714947e-02
3.802840977250737664e-02
-5.610630597261134778e-04
-2.429998542757426661e-01
-3.923060427772931402e-01
-8.318823478972919849e-03
1.348665476738391544e-01
8.369546159786997452e-02
5.045497309424146204e-02
-1.408864975746737525e-02
1.321886317378401510e-01
-1.114829199611726274e-01
-1.082356457107144787e-01
-3.074477521429017091e-01
-1.040042862432154214e-01
-5.449524537066401386e-01
-3.461696198369465516e-02
-9.597393932561157359e-02
-1.391234541136354697e-01
-3.957714134312190213e-02
2.162597434779760519e-01
-1.371130926300428987e-02
-2.931308845360712789e-01
2.763687209939152956e-01
-9.455771088323844387e-02
-2.483844854376519862e-01
-2.414564082614818197e-01
-3.733264562266062625e-01
-1.785532534750586264e-01
9.813164914213121093e-02
-9.025127531212537302e-02
7.194792926554641199e-02
3.989542869292608818e-02
-2.273653086790926314e-01
-3.763432468190269775e-02
-1.006364064604925446e-01
-7.262455937386047555e-02
1.051941831691280416e-01
-1.632773442570391031e-01
-4.280590245427105534e-01
-4.489380770794697550e-01
-4.517411827817612302e-01
1.042294550156469546e-02
-2.798764396136432797e-01
5.438796543845603182e-03
-2.486054267565264431e-01
1.779579535661379719e-02
-4.711689499064641851e-01
2.961200641351147134e-02
-4.441946320461698239e-02
4.470530938981281954e-02
-1.504940484599142925e-01
-1.351441948468107002e-01
-2.760751179570523073e-01
-5.260444692404037115e-02
-6.967281058552657336e-02
