6.669814362228787541e-02
7.262231678333137541e-01
-6.102760312887769434e-01
-5.009805761853802775e-01
2.582054480028236898e-01
8.032799618215753779e-02
3.414179821598898323e-01
-1.768801776463455322e-01
3.306106331373501184e-01
2.716235033343102900e-01
-3.529040491140006397e-01
5.527577351581748344e-01
-2.148973274804474309e-01
1.079004447753666995e-01
-2.748286084762900927e-01
6.437431489863465472e-01
5.666006749544393317e-01
7.904202655421176393e-01
1.141195780300214013e-01
-3.561863591938631002e-01
2.743136843703471439e-01
-1.760933900845993438e-01
-5.262724074710884992e-01
-5.264342314086203345e-01
1.076630134660523652e-01
-1.471824483481144474e-01
7.257935319285238052e-01
-5.799040655391844989e-01
-1.091509821525319668e-01
-8.131489866877715800e-01
5.285245432414058947e-02
5.610434113748568041e-01
-2.191241299759535688e-01
-5.532114563755693437e-01
4.069411128067702138e-02
6.818507718917198313e-01
4.233879969916876096e-01
7.277009898753847850e-01
-5.782671499597522580e-01
-4.547407566461300621e-01
9.264552501220858771e-02
-2.551936079425426440e-01
-5.271580772537745041e-01
-5.194704230679403345e-01
2.617051213982004576e-01
6.788530013138260877e-01
-9.829284166464824501e-02
2.679135771800272847e-02
-1.297285950106729646e-01
-3.421044535953350618e-02
7.311449358520725195e-01
4.797050918324393121e-01
4.225946879843772708e-01
-8.754889082732328354e-02
7.785447129185083526e-01
-2.207833650389625091e-01
3.974455929062800097e-01
-7.607770819671857421e-01
-2.184897924518268419e-01
3.829740667883858030e-01
-6.138979935418305001e-01
1.902987679663203369e-01
3.036758094668280394e-01
-3.112040009958543241e-01
