-1.619126243298077694e-01
-3.247567155613168000e-01
-1.158718072415343414e-01
-3.651612061139208887e-02
-4.134361822675541864e-02
-2.985542882007505838e-01
-4.570485248730278283e-01
-3.245556498089174347e-01
-7.405277208960725499e-02
-5.679597748201506424e-02
-8.741935083873056400e-02
4.862363915250206281e-02
-2.697391317409577605e-01
-1.627725859199672942e-01
-2.359675502928314517e-01
4.294199393752353155e-01
-1.210723894473271917e-01
-2.197914681150267557e-01
2.285063389585123006e-01
-2.430828336726806871e-01
-1.801069345952862055e-01
-4.792170174581844577e-01
-3.998727412224456490e-03
2.227439031964993654e-01
-4.839115373196021808e-01
-7.798507398848440741e-02
1.547366327757251914e-01
-4.579753127607591456e-02
1.591134586974138065e-01
1.104618380711508974e-01
-1.524149109542797254e-01
-2.587328387702809707e-01
-4.643755598578926391e-01
3.506327471584604893e-01
-1.747342449422840116e-01
-2.471481051276319396e-01
1.426780291228695319e-01
1.216623646245370005e-01
-2.138462054763558551e-01
-2.399179145209083819e-01
3.257930407081770507e-01
-3.894083879267494219e-01
-1.961605916616062095e-01
-1.441602509267092547e-01
-2.879526125471799092e-01
-1.503938999547258237e-01
-5.289703380046401060e-01
-3.558134147165163963e-01
-4.422660759574876810e-01
-1.312181507673152447e-01
-1.600943895079429413e-01
-1.287216788566822590e-01
-8.435512969587682930e-02
-1.742339255678390930e-01
-1.090657290790478240e-02
1.669225663430798368e-01
-9.377316589395229274e-02
-2.224660246622559012e-01
-7.958121106752225060e-02
-1.275768004461887706e-01
-1.198831574364879748e-01
-5.847316393323717665e-02
3.443674096454205080e-02
-4.177730200342374411e-01
