1.141723699861622310e-01
1.361192811603376684e-01
-2.330590692334572056e-02
-2.448811105463750970e-03
-1.888472853201457816e-02
1.554739529719002533e-01
8.991931465716095084e-02
-1.750740057636722413e-01
6.019178585079448807e-02
-1.156873862080422255e-01
9.426892619376760207e-02
1.086238657558375176e-01
-9.416294259169091796e-02
4.539245399577712670e-02
2.695905093088150073e-01
3.278412887724662661e-01
1.363235150289969499e-01
2.599837931844612426e-01
3.557246278962034602e-01
-3.144263681767872631e-02
1.643899120731200647e-01
4.343649552006390024e-02
3.159932618050492747e-01
4.690844033788268974e-02
-7.463071688475887699e-02
3.589558506288722528e-01
1.656974635086346237e-01
1.170652434051112079e-01
2.061107390908460124e-01
1.229871642802430470e-02
1.958836366912158067e-01
-1.176960016710885959e-02
-5.018713770884581510e-02
-1.917943464083681493e-01
-9.350202934650914122e-02
1.700771444107985753e-01
1.057497667736988223e-01
1.971821711547011857e-01
-3.780909420501800400e-02
1.558003618164309212e-01
1.754753395130912996e-01
-7.762208807101886321e-02
-2.394535414203778356e-01
4.087854139102359285e-02
2.332046355672807714e-01
3.566850828153543540e-02
-8.251286234714366730e-02
2.832787689950055920e-01
2.820212471049586278e-01
6.375208621009785803e-01
4.682470807693257797e-02
1.855814397335752430e-01
1.054943352307396720e-01
-3.452268924000272132e-02
2.492257355629660387e-01
-1.614155190229865089e-01
-8.095951413379134931e-02
-2.208515639364461713e-01
1.206736925613781097e-01
1.334991784528623548e-01
1.073904301188150223e-01
3.058946403090692656e-01
6.001729382695936144e-02
1.618663766355070144e-01
