2.919995982366889731e-01
1.321416618417339262e+00
-6.162202461864521585e-02
-3.023247124647973072e-01
1.675894251849541661e+00
-9.214221990627755043e-02
3.228890385782262618e-01
-2.419226590333610483e-01
6.652705208145526239e-01
7.054440216509925143e-01
6.465384235353421882e-03
1.143056525344247065e-01
-3.834655953044856513e-01
4.975260341338617609e-01
3.252779714698964542e-01
8.488322889552400718e-02
1.085586858078962103e-01
1.408757982335070658e+00
3.139881750001298211e-01
9.870339686497378584e-02
3.843628798512826461e-01
3.755117788536885826e-01
-2.422037850580436580e-01
-3.563537070780401494e-01
-3.601552843428985073e-01
5.579296644826099438e-01
-6.480889183317095625e-02
-7.366452689973349566e-01
8.824037812840523909e-02
-6.529664454410946117e-01
6.524014778443092133e-02
-2.049111892323980944e-01
-2.768159585019738245e-01
2.777820544774742828e-01
-1.421294938324290658e-01
-3.287695354458616825e-02
1.868390829026614242e+00
1.010092958583024281e+00
-2.175247653976161710e-02
-3.348526640879385674e-01
3.891581308874555306e-02
-2.644873268832703683e-01
-7.672496580120082843e-01
-2.360172302947560058e-02
2.169269544939193828e-01
6.569398101995518324e-01
3.006016101644098937e-01
2.419027801886938223e-01
3.686690766197111419e-02
3.639370564026753740e-01
1.641543832116303170e+00
7.380431366482832489e-01
1.002568944784948624e+00
6.053644362562840553e-02
1.610168133720410788e+00
-4.895874508985669782e-01
-1.435830680016028371e-01
-3.520530439914279497e-03
-8.812369644761685050e-01
6.472474215349860449e-01
1.095480461157725793e+00
1.011257266344739225e+00
6.713005225899787431e-02
5.137663909481597901e-01
