-2.092802704103540190e-01
1.076102748854756291e-01
1.064652212387746377e-01
-8.041172565434426267e-02
-3.015615483843832323e-02
-2.165101316932287745e-01
-1.093045038371775052e-01
-1.576251733233938468e-01
-1.892911733140154040e-02
-1.269172213834142693e-01
-3.116220232946962931e-01
3.081801280305626611e-02
1.039558890357997201e-01
-3.119910354019661547e-01
-6.636956949048813947e-02
6.582344367689109410e-02
-1.553976478463002520e-01
-2.548229237165918759e-01
-1.724264141743252488e-01
6.629254556665359344e-02
-9.085673187565705688e-02
1.131897379503815637e-02
-1.509001170202599051e-01
-1.837522744863594737e-01
-2.050553221345299271e-01
-3.928471410424900223e-01
-1.809057101918938593e-01
-1.851199742586565888e-01
8.128165462078090764e-02
-4.006634269912056623e-01
2.140638957923562957e-02
-3.603548434506030629e-02
9.840670478114196817e-02
-2.682978000800869678e-01
-3.037765648882368441e-01
-2.090515043004245177e-01
4.220493960359705810e-02
1.341716089831173353e-01
-3.217999783024902971e-01
-2.584058998804218410e-01
-1.548544924156007307e-01
-2.954357842086880459e-01
-2.500139182635771617e-02
-4.383339514972472983e-02
3.740434290812702511e-02
-1.473925683144103882e-01
8.899801689382369485e-04
-1.491408046197906512e-01
-3.391361041536840037e-01
-4.575698900848811923e-01
-1.090112250427175411e-01
-1.543669956468853299e-01
-2.340350098546835067e-01
8.627230180286236949e-03
1.371266782186086886e-02
-7.625593483487103086e-02
-3.132758575836193105e-01
-2.509096663599826305e-01
-4.912674827724292093e-02
-1.049094056831928606e-01
-6.176689773857321764e-02
-1.261547372013333279e-01
-2.163795408579204937e-01
-1.998498260057796627e-01
