7.606080081717370156e-04
-3.300395524880279652e-01
-4.617916251092308300e-01
-2.569254212586220554e-01
-1.668131484339494541e-01
-3.019923575829682738e-01
-1.734172664317352452e-01
-2.444707760509760019e-01
-1.825521299340149006e-01
-2.936823056986910263e-01
6.273416670217918378e-02
-7.135105980931963909e-01
1.576275478893560678e-01
-2.592961206551121500e-01
-5.426143837795793790e-02
2.336280106866038542e-01
-2.127028474142301506e-01
-1.001045988233698614e-01
1.291253005513676166e-02
-5.734087782252104137e-01
-1.258040266660304107e-02
1.310330703524299478e-01
-4.349581829113244313e-02
-2.168997740653227924e-02
-3.705552397435427636e-01
-9.829566857833141325e-02
-1.459731155703960226e-01
-2.813731599484525225e-01
9.611468859528043973e-03
-1.567782401240543910e-01
7.957684123271246968e-02
-2.223537469244824261e-01
-5.147894150746963327e-01
-1.052971979688310383e-01
-3.575397818330178223e-01
-2.120738499506469310e-01
-1.204380648242885099e-01
-3.024549557066290584e-01
-4.857922050615219867e-01
-1.555569319374592863e-01
-4.633248082210527641e-01
-1.953250510559756958e-01
-4.602461805578167975e-01
-3.245766646250148879e-01
1.171743986012326322e-01
1.146290261881413031e-01
5.897842665595184886e-02
-5.275477629001196211e-02
-1.570393784524849734e-01
-2.646722933873770223e-01
-8.154386118696677066e-02
1.221910723978850422e-01
-4.618629778848279410e-01
-2.251044756807451530e-01
3.917092136547339898e-02
6.128641250194744039e-02
-3.011837284317241403e-01
-3.070830234871977926e-01
6.089763430543054801e-02
1.101535822160609190e-01
-2.739650008297825345e-02
-5.339686379663222127e-02
-4.239845069163176161e-01
-1.919453019892174150e-01
