-2.585180109384857886e-02
-3.695275388738133993e-02
1.009715343347930561e-01
-7.541881267100682129e-02
3.839568410932581166e-03
-1.490800814518571105e-01
4.761960452419333745e-02
-2.291242570432251435e-01
1.906253768565189244e-01
9.920546042349191740e-02
8.081196521926592435e-02
-4.385712125371100945e-02
-5.484273963843488975e-01
2.566717713525112216e-02
-7.943063060242139262e-01
6.566695969422248202e-03
1.248350515955820306e-01
-2.086267113218850389e-01
-1.890282221849777511e-01
3.360246489940709735e-01
-1.568417060577506073e-01
-1.274149269947983942e-01
-8.422637826968211450e-02
1.265193091782146340e-02
-1.823749095386448249e-01
7.353643791623240555e-02
-1.018376523324885374e-01
-9.574048872491151829e-02
1.270599048366612138e-01
-5.088321900110354123e-02
-3.243982157789596643e-01
-6.519092489518839295e-02
-3.122048253470904866e-02
-7.887429421660091533e-02
6.926448489245405626e-02
2.150893345268736767e-02
1.672730862767320692e-01
-2.480631987716458986e-01
-1.288209786452374772e-01
-2.940043544323325819e-01
-9.292053669892469392e-03
-5.403319535151842601e-01
-1.130100623360392742e-01
-9.312097481576986358e-02
1.204342313251512975e-01
-8.169060165297457876e-02
-2.115745627389323258e-02
-1.276169960264423864e-01
-2.922327994274769303e-01
-4.483721141229088936e-01
-1.877413180755928557e-01
-9.896974503433264569e-02
-3.505487471995539783e-01
7.719314127998612440e-02
3.111395555278728686e-01
5.851391116185974961e-02
-3.409860943971898539e-01
-4.466016029414149879e-01
3.106402260486288980e-01
-1.269303273465415688e-02
-3.874695624564039043e-01
1.209688417732154853e-02
-1.617248791805930286e-01
-2.940618148984672775e-01
