-1.289623171740700291e-01
-4.944474308456828227e-02
3.591055751705386490e-01
-2.254941542680412581e-01
9.942443760815661280e-02
-3.585727681814299128e-02
-2.878323754564320880e-01
2.159035814373491124e-01
-2.553250842553108080e-01
-2.203922281804024941e-01
1.003381500615326827e-01
-4.390067550084397752e-02
-3.414473541372131105e-01
-9.089721930914176906e-02
-2.782755387672103398e-01
-3.597254253866587481e-01
-1.931071214103592393e-01
4.929238478752107078e-02
1.440778216734142914e-01
-2.368323431708579119e-01
-4.026953419845877291e-01
-3.300708851267413202e-01
8.092542419702875023e-02
-7.989536775756231335e-02
-1.725238329233934609e-01
-1.981741495610861437e-01
-1.720211132907663032e-01
-8.728108138788859272e-02
1.266275507876988282e-01
-1.486840393677749117e-02
-1.930318303578331951e-01
-1.623259881143634953e-02
-3.051158579275290439e-01
2.573005491607563422e-01
5.870705490832511808e-02
-2.749707547890322124e-01
-8.247964182777389741e-02
-1.671021493674482716e-01
-4.046983566966680379e-01
1.957279191776917227e-02
-2.215170919939483674e-01
-1.008541331236672278e-01
1.129063676807588457e-01
-1.925178048195369529e-01
-2.172141813958210210e-01
1.383380296941257859e-01
-1.112037919808653436e-01
-4.255958740679687824e-01
-4.270650452296700927e-01
-2.731392621197372139e-01
-8.245382428705630429e-02
-1.512031341633661152e-01
-2.909860562665805284e-01
-1.858289862034226692e-01
-1.873137924318662717e-01
-5.033952748679504374e-02
-9.123640380480946277e-02
-3.322705354642697673e-01
1.981948758047397119e-02
-1.517114868998464816e-01
-1.749774241264005770e-01
-4.085671995728036299e-01
-5.576342705875336758e-02
-5.132528825768313263e-01
