-3.381569056425673403e-02
5.370759694570341469e-02
-5.090280478875397474e-02
1.214131603824608607e-01
-3.660717883212869991e-03
-2.182609892179988020e-01
4.959546491059518836e-02
2.225597875293751637e-01
1.165076308755493006e-02
-4.974390811946266533e-02
-9.634669447119231789e-02
-2.929825641217704835e-01
-1.847541304766687209e-01
-3.539275084441809160e-02
-3.681135237765817414e-02
1.758611724211697480e-01
-9.867593549188180546e-02
-1.575757882968584211e-02
5.576889925133660109e-02
-1.284420636211451860e-01
1.301861360360214159e-01
1.413669290960044844e-01
-4.589760431671363605e-04
9.356254654541944216e-02
2.942367549919437664e-02
-1.266261274993124297e-01
7.299821452643480424e-02
-1.265901537661718868e-01
2.897813757817546132e-01
1.441894242219302624e-01
7.978352910951930221e-02
2.780909116839298117e-02
-6.983975098779099389e-02
-8.999513567063438524e-02
-4.221177057178063241e-01
1.531566233106008146e-01
7.104539771178677854e-02
-3.249191007826229133e-02
6.201102396399624239e-02
-1.255721021119122760e-01
-1.074114121029181579e-01
-1.049439531968269085e-01
-1.903880435574138441e-01
-1.434780151957121275e-02
6.671822583530764850e-02
-1.077714325755519537e-01
-1.340997948474008106e-01
1.230279394352569305e-01
-9.632757176034648094e-02
1.552910871712193108e-02
7.610676796519047493e-02
1.085781830314010987e-01
1.176691091082315010e-01
-1.206414533973037412e-02
2.281364411195304642e-01
-1.627185555796812899e-01
3.459431824836281533e-02
-1.920891430949898393e-01
6.153515010069127156e-02
2.005634248319390633e-02
-1.169310917609889117e-01
-1.967450186007718704e-03
1.066235301295659077e-01
3.334996585515039025e-02
